~o
<STREAMINFO> 1 39
<VECSIZE> 39<NULLD><MFCC_D_A_0><DIAGC>
~v "varFloor1"
<VARIANCE> 39
 6.754232e+00 3.412257e+00 5.608447e+00 4.796207e+00 3.472295e+00 4.011117e+00 4.413517e+00 3.617792e+00 3.683716e+00 3.040219e+00 2.640150e+00 2.509556e+00 1.298279e+01 2.278196e-01 1.545969e-01 2.184490e-01 2.118026e-01 1.813457e-01 2.097697e-01 2.257949e-01 2.166197e-01 2.009621e-01 1.748386e-01 1.664882e-01 1.534702e-01 2.729188e-01 3.005251e-02 2.352015e-02 2.950212e-02 3.333421e-02 2.970494e-02 3.528043e-02 3.797136e-02 3.764201e-02 3.477513e-02 3.067418e-02 2.924890e-02 2.697371e-02 3.680276e-02
~s "silst"
<NUMMIXES> 4
<MIXTURE> 1 1.849843e-01
<MEAN> 39
 -2.121623e+01 7.277279e+00 2.182034e+00 7.312008e+00 1.914179e+00 2.635762e+00 1.697822e+00 3.747283e+00 1.349148e+00 2.605191e+00 8.660768e-01 2.273513e+00 5.048309e+01 7.723450e-02 4.789991e-01 6.747050e-01 7.223477e-01 7.750075e-01 8.366511e-01 7.346998e-01 6.012586e-01 6.792609e-01 7.744681e-01 6.729472e-01 4.101550e-01 -2.561029e-02 1.015297e-01 -1.167251e-01 -3.051459e-02 -5.808336e-02 -8.872676e-02 -7.913122e-02 -2.765109e-02 -4.500861e-02 -7.787453e-02 -4.133319e-02 -9.921452e-02 -2.400470e-02 1.918949e-01
<VARIANCE> 39
 3.823847e+01 4.384405e+01 5.134565e+01 6.282642e+01 7.601749e+01 9.396862e+01 1.060948e+02 1.149975e+02 1.137035e+02 1.098160e+02 1.093843e+02 9.478373e+01 1.810846e+01 1.893790e+00 2.336080e+00 3.635219e+00 4.934169e+00 6.126406e+00 7.482554e+00 9.172879e+00 9.826178e+00 1.006356e+01 1.004387e+01 1.007169e+01 9.177184e+00 9.834941e-01 3.782115e-01 5.104321e-01 7.582941e-01 1.010545e+00 1.256713e+00 1.572403e+00 1.831723e+00 2.015962e+00 2.040868e+00 2.057990e+00 2.043629e+00 1.847293e+00 2.377173e-01
<GCONST> 1.502684e+02
<MIXTURE> 2 3.093166e-01
<MEAN> 39
 -2.642300e+01 4.472891e+00 -1.673141e+00 1.183826e+00 -5.597974e+00 -5.978092e+00 -7.899939e+00 -4.321979e+00 -3.108427e+00 1.048035e+00 1.753126e+00 3.018576e+00 4.715315e+01 8.835117e-03 1.224770e-01 1.807617e-01 1.934245e-01 2.071211e-01 2.214560e-01 1.915763e-01 1.914136e-01 2.577943e-01 3.415782e-01 3.432964e-01 2.586957e-01 -1.238256e-02 1.590663e-01 4.828010e-02 1.193792e-01 1.943870e-01 2.598090e-01 3.134997e-01 3.670834e-01 3.285811e-01 1.778393e-01 7.044071e-02 -5.806877e-02 -4.121471e-02 1.514779e-01
<VARIANCE> 39
 1.693129e+01 1.921470e+01 2.621597e+01 3.551219e+01 4.876345e+01 6.354564e+01 7.607660e+01 7.998563e+01 7.868633e+01 7.679441e+01 7.419889e+01 6.834821e+01 1.298279e+01 8.510218e-01 1.506991e+00 2.674858e+00 3.801939e+00 4.946579e+00 6.088077e+00 7.321209e+00 8.073088e+00 8.317633e+00 8.239953e+00 8.005916e+00 7.436542e+00 3.746899e-01 1.875215e-01 3.175178e-01 5.463557e-01 7.803686e-01 1.000532e+00 1.208807e+00 1.458018e+00 1.604487e+00 1.626679e+00 1.630333e+00 1.602657e+00 1.469783e+00 9.821093e-02
<GCONST> 1.351150e+02
<MIXTURE> 3 2.032555e-01
<MEAN> 39
 -2.697993e+01 4.200118e+00 -2.186579e+00 4.112227e-01 -6.431416e+00 -6.662435e+00 -8.580254e+00 -4.942942e+00 -3.645836e+00 6.130121e-01 1.368748e+00 2.613649e+00 4.669212e+01 -3.406622e-01 -3.353628e-01 -4.087315e-01 -5.592169e-01 -6.602522e-01 -6.932779e-01 -7.568856e-01 -7.163242e-01 -5.868008e-01 -5.318848e-01 -4.858714e-01 -3.538749e-01 -1.658580e-01 5.846749e-02 -2.391166e-02 4.024486e-02 8.704171e-02 1.225315e-01 1.203723e-01 1.456211e-01 1.457268e-01 6.951872e-02 1.931952e-02 -4.465078e-02 -2.690325e-02 8.785924e-02
<VARIANCE> 39
 1.305916e+01 1.770386e+01 2.448667e+01 3.296835e+01 4.584074e+01 5.904460e+01 6.963448e+01 7.475886e+01 7.474132e+01 7.305772e+01 7.067030e+01 6.542381e+01 1.298279e+01 7.995691e-01 1.519906e+00 2.639887e+00 3.746580e+00 4.980917e+00 6.073264e+00 7.255441e+00 8.074492e+00 8.066975e+00 7.935390e+00 7.846096e+00 7.149589e+00 3.483432e-01 1.433202e-01 2.905692e-01 5.032825e-01 7.177195e-01 9.446093e-01 1.152547e+00 1.356837e+00 1.512784e+00 1.560625e+00 1.559054e+00 1.544340e+00 1.416167e+00 7.401557e-02
<GCONST> 1.326566e+02
<MIXTURE> 4 3.022931e-01
<MEAN> 39
 -2.433926e+01 4.614269e+00 -6.124597e-01 4.309709e+00 -4.212833e-01 6.126425e-01 -5.901390e-01 1.952235e+00 2.429831e-01 1.810812e+00 4.587816e-01 2.048906e+00 4.893694e+01 -5.427294e-01 -1.239169e-01 -8.168171e-02 -2.868746e-01 -3.721195e-01 -4.345414e-01 -6.160280e-01 -6.504863e-01 -3.937756e-01 -8.314059e-02 -5.663683e-02 -8.388640e-02 -3.337072e-01 6.311195e-02 -2.312124e-01 -1.098864e-01 -1.891511e-01 -2.644427e-01 -3.178460e-01 -2.440163e-01 -2.063837e-01 -2.359494e-01 -1.309219e-01 -1.121668e-01 -1.810254e-02 2.588024e-01
<VARIANCE> 39
 3.917434e+01 3.984336e+01 4.765920e+01 5.700636e+01 7.188853e+01 9.172920e+01 1.087166e+02 1.135799e+02 1.150713e+02 1.098388e+02 1.063049e+02 9.461398e+01 1.858658e+01 1.881407e+00 2.468993e+00 3.651164e+00 4.870439e+00 6.200055e+00 7.668958e+00 9.183732e+00 1.009678e+01 1.011641e+01 1.018229e+01 1.004285e+01 8.937142e+00 1.083414e+00 4.132977e-01 6.022425e-01 8.453066e-01 1.079968e+00 1.330060e+00 1.600769e+00 1.917529e+00 2.113401e+00 2.157257e+00 2.184613e+00 2.149093e+00 1.905685e+00 3.700590e-01
<GCONST> 1.513925e+02
~h "f"
<BEGINHMM>
<NUMSTATES> 5
<STATE> 2
<NUMMIXES> 4
<MIXTURE> 1 2.389534e-01
<MEAN> 39
 -3.353060e+01 -1.387494e+01 -1.153940e+00 3.145796e+00 -2.932952e+00 -6.357794e-01 -7.039690e+00 6.191972e-01 -5.241519e+00 3.414296e+00 -3.843582e+00 2.325145e+00 8.931416e+01 -1.025353e-01 -2.459820e-01 7.874195e-02 3.685476e-01 8.920544e-01 1.495351e+00 1.301170e+00 1.086281e+00 9.446712e-01 1.138581e+00 8.488481e-01 5.133954e-01 9.016410e-01 1.477014e+00 4.058598e-01 2.439176e-01 -1.620907e-01 3.038853e-01 1.898154e-01 4.149005e-01 1.250354e-01 2.372779e-01 2.585632e-01 1.110215e-01 7.458732e-02 7.857960e-01
<VARIANCE> 39
 1.163696e+02 1.065795e+02 7.122458e+01 7.210612e+01 8.328127e+01 1.009513e+02 1.127251e+02 1.130339e+02 1.191240e+02 1.124546e+02 1.098174e+02 1.008343e+02 3.438030e+02 8.714973e+00 6.725551e+00 6.130552e+00 7.072669e+00 8.030615e+00 9.683531e+00 1.024873e+01 1.114182e+01 1.105208e+01 1.098540e+01 1.085537e+01 9.769411e+00 2.156404e+01 3.535202e+00 1.723387e+00 1.473087e+00 1.951496e+00 1.825068e+00 2.124387e+00 2.315792e+00 2.323627e+00 2.374876e+00 2.453324e+00 2.414969e+00 2.035642e+00 3.617599e+00
<GCONST> 1.727993e+02
<MIXTURE> 2 1.988088e-01
<MEAN> 39
 -3.210176e+01 -1.356550e+01 1.715816e+00 5.787108e+00 1.835078e-01 8.280007e-01 -4.985819e+00 3.214156e+00 -1.797219e+00 6.406985e+00 -2.315908e+00 3.588330e+00 9.257137e+01 -2.073554e+00 -2.255026e+00 -1.977135e+00 -1.525058e+00 -1.158637e+00 -7.396860e-01 -1.483084e+00 -7.541997e-01 -2.461378e-01 1.933507e-01 2.367713e-01 2.500294e-01 8.603108e-01 2.180262e+00 8.893232e-01 4.488687e-01 -3.697654e-01 3.968515e-02 1.668424e-01 4.295415e-01 -1.947851e-01 -4.300844e-01 -1.248817e-01 -1.772679e-01 -8.513851e-02 6.364890e-01
<VARIANCE> 39
 1.221999e+02 1.078136e+02 1.052556e+02 1.111059e+02 1.307811e+02 1.476795e+02 1.541705e+02 1.510515e+02 1.550944e+02 1.470529e+02 1.324827e+02 1.208228e+02 3.089727e+02 2.402418e+01 1.150375e+01 1.178768e+01 1.247684e+01 1.224654e+01 1.319721e+01 1.300896e+01 1.340860e+01 1.365895e+01 1.361517e+01 1.290048e+01 1.173989e+01 2.977040e+01 4.256447e+00 2.265877e+00 2.941710e+00 3.891659e+00 3.367740e+00 3.290793e+00 3.791737e+00 3.675215e+00 3.905030e+00 3.575924e+00 3.277995e+00 2.812905e+00 3.433950e+00
<GCONST> 1.862378e+02
<MIXTURE> 3 4.111457e-01
<MEAN> 39
 -3.524531e+01 -1.631490e+01 -2.897670e+00 1.525446e+00 -4.299868e+00 -1.529172e+00 -8.507575e+00 -1.092780e+00 -6.480147e+00 3.034951e+00 -4.053821e+00 2.272624e+00 8.850101e+01 -6.044698e-01 -5.901583e-01 -5.129025e-01 -4.563453e-01 -3.070496e-01 3.900912e-02 -4.374556e-01 -5.200631e-01 -7.292005e-01 -4.958404e-01 -4.971305e-01 -3.244709e-01 1.238848e+00 9.768726e-01 3.196882e-01 2.241508e-01 7.846962e-02 2.726935e-01 1.180786e-01 3.075168e-01 1.429319e-01 2.008155e-01 1.065429e-01 6.049716e-02 3.430067e-02 5.730069e-01
<VARIANCE> 39
 8.821767e+01 8.733842e+01 6.112410e+01 6.360820e+01 7.335138e+01 8.740101e+01 1.002882e+02 1.033515e+02 1.067041e+02 1.012289e+02 1.007359e+02 9.060273e+01 2.963483e+02 5.892259e+00 5.536910e+00 4.960208e+00 6.023137e+00 7.030382e+00 8.322150e+00 9.507675e+00 9.804206e+00 9.924798e+00 9.992004e+00 9.785454e+00 9.116796e+00 1.398215e+01 1.966581e+00 1.321784e+00 1.133649e+00 1.363068e+00 1.564020e+00 1.821563e+00 2.067714e+00 2.055086e+00 2.062939e+00 2.117095e+00 2.032756e+00 1.817883e+00 2.657856e+00
<GCONST> 1.658572e+02
<MIXTURE> 4 1.510530e-01
<MEAN> 39
 -3.270243e+01 -1.526103e+01 1.469090e+00 5.334023e+00 -9.134805e-01 -3.816809e-01 -5.984349e+00 1.759617e+00 -3.662379e+00 4.843360e+00 -3.144421e+00 3.019181e+00 9.685126e+01 -4.480435e+00 -3.711911e+00 -3.788558e+00 -3.282309e+00 -3.477827e+00 -2.965528e+00 -3.843873e+00 -2.474684e+00 -1.891253e+00 -1.502643e+00 -1.148389e+00 -8.829806e-01 1.857451e-01 2.482200e+00 1.060176e+00 6.265346e-01 -2.883989e-01 1.717001e-01 1.359828e-01 5.246050e-01 -3.324898e-01 -3.942605e-01 2.838589e-03 -1.705636e-01 1.391886e-01 3.586309e-01
<VARIANCE> 39
 9.168895e+01 8.749743e+01 1.000531e+02 1.092433e+02 1.206421e+02 1.424166e+02 1.446981e+02 1.473185e+02 1.428235e+02 1.339206e+02 1.252623e+02 1.156852e+02 2.325927e+02 2.397111e+01 1.169189e+01 1.323012e+01 1.298306e+01 1.288866e+01 1.328086e+01 1.349828e+01 1.404539e+01 1.484694e+01 1.369458e+01 1.286854e+01 1.230095e+01 1.898925e+01 3.526426e+00 2.091093e+00 3.026318e+00 4.182548e+00 3.179069e+00 3.449037e+00 3.693311e+00 4.150362e+00 3.920023e+00 3.412773e+00 3.235429e+00 3.154745e+00 2.299634e+00
<GCONST> 1.844774e+02
<STATE> 3
<NUMMIXES> 4
<MIXTURE> 1 2.079238e-01
<MEAN> 39
 -2.100026e+01 -1.340813e+01 5.020764e-01 2.952842e+00 2.336156e+00 3.591247e+00 -3.130729e+00 2.377679e+00 -1.592283e+00 6.460735e+00 -2.339650e+00 3.736054e+00 1.019631e+02 1.610873e+01 4.017851e+00 1.013563e+00 -7.602812e+00 6.315618e-01 1.371551e+00 3.393186e+00 1.133745e-01 8.141348e-01 2.955548e+00 2.036263e-03 6.203554e-01 7.025952e+00 2.326329e+00 -5.356644e-02 -1.079305e-01 -3.496149e+00 -7.425573e-01 -3.435656e-01 2.749553e-01 -1.767253e-01 -3.039840e-01 6.729571e-01 -2.528916e-01 7.140922e-02 1.590951e+00
<VARIANCE> 39
 1.187543e+02 7.022308e+01 6.625130e+01 7.520457e+01 1.024258e+02 1.137145e+02 1.099986e+02 1.099269e+02 1.177853e+02 1.171522e+02 1.000198e+02 9.475944e+01 1.911019e+02 1.735081e+01 2.849694e+01 1.448366e+01 2.743495e+01 1.952987e+01 1.793912e+01 2.063289e+01 1.990482e+01 3.187332e+01 2.320701e+01 3.011545e+01 1.847613e+01 3.400337e+01 3.109451e+00 4.396141e+00 2.619807e+00 3.510950e+00 4.222054e+00 3.681545e+00 4.003366e+00 3.413593e+00 4.707964e+00 3.769590e+00 4.429208e+00 3.455565e+00 4.067265e+00
<GCONST> 1.896439e+02
<MIXTURE> 2 3.095028e-01
<MEAN> 39
 -3.152887e+01 -1.959368e+01 -4.670879e+00 -6.830386e-01 -3.729779e+00 -1.590661e+00 -8.827444e+00 -2.089006e+00 -7.384089e+00 3.112956e+00 -4.012509e+00 2.924114e+00 1.038582e+02 8.625195e+00 2.673799e+00 1.110229e+00 -1.022962e+00 1.199149e+00 1.567945e+00 2.159513e+00 1.003779e+00 1.290762e+00 1.237639e+00 5.057272e-01 4.163780e-01 3.716064e+00 4.498377e+00 1.974933e+00 9.972250e-01 -2.211677e+00 -6.179602e-01 4.242488e-01 8.028163e-01 5.849942e-01 2.384012e-02 6.255577e-01 6.077228e-02 -2.294656e-01 5.595060e-01
<VARIANCE> 39
 1.115908e+02 5.493456e+01 5.697854e+01 6.614856e+01 7.239501e+01 8.604422e+01 8.983949e+01 9.110601e+01 9.702280e+01 9.642772e+01 9.706024e+01 8.659218e+01 1.729432e+02 2.069781e+01 1.250332e+01 7.767262e+00 9.934542e+00 1.028022e+01 9.859065e+00 1.039325e+01 1.096949e+01 1.190002e+01 1.126422e+01 1.161648e+01 9.754001e+00 2.607108e+01 1.953744e+00 3.357458e+00 2.547497e+00 3.252573e+00 3.878680e+00 3.110428e+00 3.584459e+00 3.394396e+00 4.089536e+00 3.753975e+00 4.491731e+00 3.085076e+00 4.503544e+00
<GCONST> 1.777084e+02
<MIXTURE> 3 2.499620e-01
<MEAN> 39
 -2.157569e+01 -1.518411e+01 -3.086172e+00 -3.432202e-01 -1.380870e+00 1.046427e+00 -5.467825e+00 -7.711740e-01 -5.511683e+00 4.564875e+00 -3.799757e+00 3.430924e+00 1.027097e+02 1.600108e+01 4.701783e+00 2.340389e+00 -6.876802e+00 -2.117723e+00 8.838094e-01 1.627773e+00 1.134359e+00 -6.476103e-01 1.187090e+00 8.824025e-01 -1.487854e+00 6.651012e+00 2.669336e+00 4.306807e-01 7.353858e-01 -2.950978e+00 -1.284369e+00 1.036590e-01 -5.098541e-02 5.511058e-01 -4.231908e-01 5.398099e-01 4.328443e-01 -7.275102e-01 1.499733e+00
<VARIANCE> 39
 1.231945e+02 6.776126e+01 6.546216e+01 7.802151e+01 9.772919e+01 1.167076e+02 1.179191e+02 1.182197e+02 1.140785e+02 1.153895e+02 1.072696e+02 9.943941e+01 2.039071e+02 1.487969e+01 2.766426e+01 2.068676e+01 2.048758e+01 2.609978e+01 1.902440e+01 1.863696e+01 2.371260e+01 2.749552e+01 2.472534e+01 3.161777e+01 1.602787e+01 3.596988e+01 2.689314e+00 4.311369e+00 3.545855e+00 3.633693e+00 5.343927e+00 4.142874e+00 4.674954e+00 4.351456e+00 5.185852e+00 4.484793e+00 5.364827e+00 3.898918e+00 4.253568e+00
<GCONST> 1.916600e+02
<MIXTURE> 4 2.325939e-01
<MEAN> 39
 -3.326277e+01 -2.002562e+01 -5.981972e+00 -2.086237e+00 -5.751489e+00 -3.050070e+00 -1.104408e+01 -4.569221e+00 -1.029921e+01 7.777893e-01 -5.678658e+00 1.821846e+00 1.003564e+02 6.818683e+00 1.040326e+00 6.962760e-02 -1.757370e+00 -2.230399e-01 -1.425298e-01 3.122336e-01 -4.364910e-01 -2.897546e-01 -3.402476e-01 -6.504155e-01 -3.700431e-01 5.287850e+00 4.288448e+00 1.981792e+00 1.165436e+00 -1.350472e+00 -1.808195e-01 6.357464e-01 1.059043e+00 9.128016e-01 5.549197e-01 8.615302e-01 3.817101e-01 -1.598292e-01 5.468765e-01
<VARIANCE> 39
 1.212892e+02 6.258083e+01 5.933970e+01 7.031412e+01 7.480958e+01 8.506992e+01 8.923326e+01 9.304600e+01 9.941482e+01 9.584447e+01 9.197986e+01 7.931472e+01 1.889712e+02 2.126655e+01 1.358279e+01 8.300329e+00 8.618983e+00 9.745536e+00 1.021366e+01 1.063524e+01 1.193157e+01 1.154334e+01 1.087934e+01 1.098912e+01 9.631782e+00 3.085396e+01 2.138288e+00 2.584759e+00 2.368934e+00 3.202538e+00 3.582741e+00 2.750160e+00 2.974462e+00 3.180122e+00 3.716507e+00 3.340650e+00 3.594947e+00 2.646089e+00 4.393403e+00
<GCONST> 1.768563e+02
<STATE> 4
<NUMMIXES> 4
<MIXTURE> 1 2.261402e-01
<MEAN> 39
 1.150215e+01 -1.124559e+00 8.979431e-01 -9.913671e+00 -1.113024e+00 3.225600e+00 -5.481273e-02 -9.216926e-01 -1.362567e+00 8.596057e+00 -5.202824e+00 7.557903e-01 1.110243e+02 1.659517e+01 6.144578e-01 -2.282190e-01 -1.137671e+01 7.904342e-01 1.163772e+00 3.800677e+00 -3.651261e-01 1.764946e+00 4.558372e+00 2.988221e-01 4.521813e-01 1.076644e+01 -2.416776e+00 -1.959093e+00 -4.841922e-01 -1.151536e+00 4.225054e-02 5.091563e-02 -1.988719e-02 3.476419e-01 3.953166e-02 2.530810e-01 6.936838e-02 3.403077e-01 1.770823e-01
<VARIANCE> 39
 2.168418e+02 1.179315e+02 7.619267e+01 1.906605e+02 1.020472e+02 1.151054e+02 1.183448e+02 1.192569e+02 1.693777e+02 1.438143e+02 1.529556e+02 1.082609e+02 1.909303e+02 1.031050e+01 4.098119e+01 2.190133e+01 3.351891e+01 3.163699e+01 2.645490e+01 3.111128e+01 2.750962e+01 5.051445e+01 3.227130e+01 4.984864e+01 2.983911e+01 2.825792e+01 2.947346e+00 2.082214e+00 1.541995e+00 2.917288e+00 2.290662e+00 2.563912e+00 2.339673e+00 2.299446e+00 2.584859e+00 2.731086e+00 2.613568e+00 2.409302e+00 3.359506e+00
<GCONST> 1.913504e+02
<MIXTURE> 2 2.809286e-01
<MEAN> 39
 2.541611e+01 -2.283753e+01 -4.854548e+00 -3.455720e+01 4.372199e+00 2.911288e+00 4.523209e+00 -2.508263e+00 6.456606e+00 2.016725e+01 -3.877613e+00 2.770198e-01 1.397600e+02 6.313262e+00 -5.866887e+00 -2.135456e+00 -8.084370e+00 2.960545e+00 2.427428e+00 2.690650e+00 4.956672e-01 2.615340e+00 3.171473e+00 -1.836433e-02 4.003855e-01 9.763961e+00 -4.938002e+00 -4.118654e-01 -1.083370e-02 2.512381e+00 3.588764e-02 4.504158e-01 -8.582442e-01 5.382977e-01 -8.196033e-01 -1.537798e+00 -1.392280e-01 4.087808e-01 -2.820896e+00
<VARIANCE> 39
 5.861559e+01 1.704410e+02 1.736892e+02 2.741916e+02 2.607190e+02 2.330727e+02 2.238822e+02 2.451782e+02 5.303421e+02 2.803958e+02 4.578628e+02 2.298227e+02 1.116455e+02 3.325991e+01 1.336837e+01 1.481814e+01 2.772256e+01 2.335653e+01 1.769244e+01 1.952838e+01 1.866501e+01 2.942930e+01 2.297792e+01 2.727607e+01 1.927236e+01 1.742010e+01 1.273185e+00 1.980608e+00 1.742688e+00 2.940970e+00 2.438111e+00 2.773477e+00 3.079723e+00 2.832309e+00 6.723599e+00 3.843729e+00 5.046728e+00 3.426059e+00 2.059427e+00
<GCONST> 1.949122e+02
<MIXTURE> 3 2.633198e-01
<MEAN> 39
 1.582468e+01 6.369205e+00 5.385026e+00 -1.133463e+01 -6.281751e+00 3.096265e+00 2.213243e+00 3.797052e+00 -6.059432e+00 6.409909e+00 -3.253630e+00 2.788535e+00 1.086632e+02 1.666002e+01 6.421813e+00 4.496517e+00 -1.124667e+01 -6.106602e+00 3.079367e-01 6.734930e-01 2.970240e+00 -2.412240e+00 1.064082e+00 3.367030e-01 -1.933917e+00 6.376431e+00 -2.253975e+00 -1.517050e+00 -1.453604e-01 -1.105978e+00 -1.059815e+00 -3.909354e-01 -1.218390e+00 9.178724e-02 -4.477789e-01 1.004167e-01 -5.119657e-02 -6.212061e-01 4.968936e-01
<VARIANCE> 39
 2.200484e+02 1.504090e+02 8.421020e+01 2.165537e+02 1.561023e+02 1.341888e+02 1.237945e+02 1.335249e+02 1.476295e+02 1.291813e+02 1.327294e+02 9.605877e+01 1.806233e+02 1.032590e+01 3.556926e+01 3.087525e+01 3.233665e+01 4.127539e+01 3.409775e+01 3.620127e+01 3.831768e+01 3.959245e+01 3.562355e+01 4.558910e+01 3.115951e+01 2.283386e+01 3.203909e+00 2.218912e+00 1.836460e+00 2.905097e+00 2.836506e+00 2.451660e+00 2.615482e+00 2.756092e+00 3.137590e+00 2.772610e+00 2.562788e+00 2.472347e+00 2.799593e+00
<GCONST> 1.935886e+02
<MIXTURE> 4 2.295898e-01
<MEAN> 39
 2.610351e+01 -2.051707e+01 -2.969990e+00 -3.171998e+01 -1.169623e+01 9.489902e+00 -6.693150e+00 2.194768e+00 -1.192834e+01 1.996340e+01 2.015576e+01 -8.119041e+00 1.421059e+02 5.658829e+00 -4.956529e+00 -2.032740e+00 -7.224424e+00 -1.494986e+00 2.805221e+00 6.022884e-02 8.528837e-01 3.299599e-01 2.433279e+00 3.672168e+00 -3.420082e+00 9.239214e+00 -4.933859e+00 -4.455273e-01 -3.860220e-01 2.280103e+00 1.068491e+00 -3.796119e-01 3.741932e-01 -7.206672e-02 1.509934e+00 -1.104673e+00 -2.466362e+00 1.042878e-01 -2.603279e+00
<VARIANCE> 39
 6.146243e+01 1.499300e+02 2.068648e+02 3.537297e+02 2.900352e+02 2.651812e+02 2.538394e+02 3.585719e+02 5.128713e+02 4.486945e+02 5.464250e+02 2.389770e+02 1.260823e+02 3.389515e+01 1.053241e+01 1.602354e+01 2.575766e+01 1.940788e+01 1.947671e+01 1.832653e+01 2.286169e+01 3.060566e+01 2.426301e+01 4.164267e+01 1.772822e+01 1.436322e+01 1.256607e+00 1.803870e+00 2.112833e+00 3.272887e+00 2.946641e+00 2.740130e+00 3.313890e+00 3.595572e+00 5.362840e+00 5.492675e+00 5.425226e+00 2.893267e+00 1.685046e+00
<GCONST> 1.973677e+02
<TRANSP> 5
 0.000000e+00 1.000000e+00 0.000000e+00 0.000000e+00 0.000000e+00
 0.000000e+00 8.521873e-01 1.478127e-01 0.000000e+00 0.000000e+00
 0.000000e+00 0.000000e+00 6.340399e-01 3.659601e-01 0.000000e+00
 0.000000e+00 0.000000e+00 0.000000e+00 5.248676e-01 4.751324e-01
 0.000000e+00 0.000000e+00 0.000000e+00 0.000000e+00 0.000000e+00
<ENDHMM>
~h "k"
<BEGINHMM>
<NUMSTATES> 5
<STATE> 2
<NUMMIXES> 4
<MIXTURE> 1 2.315955e-01
<MEAN> 39
 2.687355e+00 -9.156350e-01 4.275277e+01 3.135263e+01 -3.826915e+00 -3.067102e+01 7.016272e+00 1.254102e+01 -3.195512e+01 2.227760e+00 2.750086e+00 2.236663e+00 9.887807e+01 -4.079805e+00 8.258440e+00 -6.679223e+00 4.372862e+00 5.148593e+00 7.847616e+00 1.473927e+00 -5.943556e-01 5.135418e+00 -2.399582e+00 1.230745e+00 -2.649904e-01 -1.817972e+01 -1.477817e+00 -1.372396e+00 -2.918108e+00 -3.723374e+00 -3.153860e-01 1.404737e+00 -2.727755e+00 -1.575567e+00 2.820678e+00 3.179019e-01 -9.253781e-01 5.037206e-01 7.198344e-01
<VARIANCE> 39
 7.777156e+01 2.077672e+02 2.452974e+02 1.887620e+02 3.525977e+02 4.084719e+02 5.058622e+02 7.103860e+02 5.321493e+02 3.829711e+02 2.695634e+02 2.321993e+02 3.187812e+02 1.189740e+01 2.323823e+01 2.580588e+01 2.897945e+01 2.752947e+01 3.624208e+01 6.513749e+01 6.648386e+01 5.165372e+01 3.755215e+01 2.797124e+01 2.804890e+01 2.847823e+01 1.746668e+00 4.907737e+00 3.547642e+00 3.127702e+00 4.312416e+00 7.293243e+00 5.804414e+00 9.654155e+00 7.806815e+00 5.862607e+00 4.796475e+00 4.905272e+00 6.948334e+00
<GCONST> 2.118667e+02
<MIXTURE> 2 2.779755e-01
<MEAN> 39
 -1.372898e+01 1.409534e+01 1.672366e+01 2.106348e+01 1.506023e+00 -7.273331e+00 -4.646783e+00 -4.384967e+00 -1.294877e+01 -5.414120e+00 -1.082749e+00 2.269745e+00 5.751179e+01 -5.310495e+00 -5.396969e-01 -9.452161e+00 -4.584392e+00 1.851333e+00 5.692057e+00 -2.625060e+00 -1.917908e-01 5.686965e+00 4.642092e-01 2.606743e-01 5.525975e-03 -7.856161e+00 8.009397e-01 -3.712281e+00 3.725362e-01 -1.861032e+00 -1.148167e+00 -2.277131e+00 -4.464677e-02 6.328923e-01 -2.327396e-01 1.478907e+00 -2.303930e-01 4.483233e-01 6.759586e+00
<VARIANCE> 39
 8.065347e+01 1.154932e+02 1.360665e+02 1.709580e+02 1.774178e+02 1.985073e+02 2.409976e+02 2.486424e+02 1.846064e+02 1.737273e+02 1.427866e+02 1.150006e+02 6.498833e+01 9.941185e+00 3.329897e+01 2.200339e+01 2.408236e+01 2.899480e+01 3.496794e+01 3.947059e+01 5.651901e+01 3.603542e+01 2.896283e+01 2.117846e+01 1.822772e+01 4.802615e+01 2.880278e+00 5.289896e+00 4.005607e+00 5.505508e+00 5.157671e+00 6.109857e+00 8.254259e+00 8.648370e+00 7.257098e+00 4.765060e+00 4.344126e+00 3.592803e+00 7.615335e+00
<GCONST> 2.019391e+02
<MIXTURE> 3 2.299538e-01
<MEAN> 39
 -1.098615e+01 1.735866e+01 1.877569e+01 2.097939e+01 3.401619e-01 -7.312203e+00 -7.114884e+00 -1.046507e+01 -1.700338e+01 -8.727070e+00 -5.251338e+00 -1.115167e+00 5.830816e+01 -6.395551e+00 -2.337265e+00 -1.202730e+01 -4.499238e+00 2.489071e+00 2.790596e+00 -7.128819e+00 1.416488e+00 2.353610e+00 -2.577681e+00 -4.487337e-01 -8.546233e-01 -8.346759e+00 2.468275e-01 -4.117905e+00 6.332608e-02 -2.235115e+00 -1.707752e+00 -2.166891e+00 1.132705e+00 2.748694e-01 9.845005e-01 2.053357e+00 1.998963e-01 1.251387e+00 7.402344e+00
<VARIANCE> 39
 6.762908e+01 1.069131e+02 1.058493e+02 1.201699e+02 1.587669e+02 2.015786e+02 2.251224e+02 2.286644e+02 2.261680e+02 1.927189e+02 1.510271e+02 1.138477e+02 5.430510e+01 6.992133e+00 4.050473e+01 1.669712e+01 2.478832e+01 2.507078e+01 3.554256e+01 3.510051e+01 6.133965e+01 3.878057e+01 2.766866e+01 2.035263e+01 1.709012e+01 6.084297e+01 2.780599e+00 4.669022e+00 3.596025e+00 4.265501e+00 4.814094e+00 6.004973e+00 7.554753e+00 9.362731e+00 8.418199e+00 5.056398e+00 3.962780e+00 3.918707e+00 7.381657e+00
<GCONST> 2.001531e+02
<MIXTURE> 4 2.604511e-01
<MEAN> 39
 -3.040331e+00 4.532040e+00 3.485115e+01 2.949630e+01 -4.518999e+00 -2.072773e+01 5.341006e+00 1.072915e+00 -1.983165e+01 1.178717e+00 5.034265e-01 4.222337e+00 8.533313e+01 -6.262914e+00 5.113882e+00 -9.355007e+00 1.622841e+00 4.462277e+00 5.901496e+00 -3.349008e+00 -6.930286e-01 2.103976e+00 -3.429539e+00 -4.427453e-01 -1.529831e+00 -1.716548e+01 -8.536654e-01 -2.303018e+00 -2.098644e+00 -3.854599e+00 -8.376703e-01 -3.763568e-02 -1.880104e+00 -2.827116e-01 1.484583e+00 4.406596e-01 -2.195862e-01 3.355289e-01 2.638509e+00
<VARIANCE> 39
 1.347489e+02 2.563534e+02 2.235818e+02 2.067529e+02 4.308323e+02 4.413893e+02 4.890291e+02 6.002962e+02 3.477007e+02 2.786307e+02 2.321415e+02 1.808196e+02 2.375085e+02 1.016091e+01 2.868776e+01 2.481110e+01 3.503533e+01 3.107585e+01 3.533678e+01 6.884281e+01 8.962719e+01 6.402882e+01 3.800317e+01 2.460067e+01 2.651723e+01 2.982861e+01 2.878102e+00 5.674003e+00 3.848876e+00 3.564236e+00 5.488189e+00 7.279018e+00 6.552495e+00 7.480769e+00 5.650326e+00 4.812387e+00 4.789556e+00 4.379116e+00 7.762783e+00
<GCONST> 2.124419e+02
<STATE> 3
<NUMMIXES> 4
<MIXTURE> 1 2.239989e-01
<MEAN> 39
 -2.151176e+01 1.805792e+00 -1.552559e+00 5.905941e+00 -4.373646e+00 -7.459491e+00 -9.503795e+00 -5.542612e+00 -6.644411e+00 -1.424737e+00 -3.984262e-01 2.730066e+00 5.565884e+01 3.357920e-01 -4.564164e+00 -4.990573e+00 -2.675815e-01 1.087683e+00 1.216296e+00 5.707198e-01 3.273889e+00 3.803700e+00 3.200357e+00 1.306776e+00 1.058922e+00 7.053733e+00 3.026664e-01 -3.365672e-01 1.173729e+00 1.398982e+00 -2.576061e-01 -1.028178e+00 5.342861e-01 3.196320e-01 -4.195045e-01 2.814940e-01 -2.084012e-01 2.925563e-01 4.244234e+00
<VARIANCE> 39
 9.992718e+01 1.692511e+02 1.567479e+02 7.820522e+01 7.760400e+01 1.095191e+02 1.159452e+02 1.129906e+02 1.114794e+02 1.029287e+02 8.251548e+01 7.123122e+01 2.480232e+02 1.809815e+01 2.751089e+01 2.125265e+01 1.823043e+01 1.570343e+01 1.965131e+01 1.956903e+01 1.802354e+01 1.814560e+01 1.782504e+01 1.527332e+01 1.073391e+01 7.906609e+01 6.363192e+00 5.455816e+00 4.910504e+00 2.826376e+00 4.148550e+00 4.027471e+00 4.800546e+00 4.368033e+00 3.468496e+00 3.357643e+00 2.369503e+00 2.198434e+00 9.111078e+00
<GCONST> 1.902633e+02
<MIXTURE> 2 2.266688e-01
<MEAN> 39
 -1.900242e+01 -9.684293e+00 -5.669946e+00 8.776297e+00 4.725346e+00 -4.662748e+00 -7.458205e+00 2.072993e+00 -2.617496e+00 4.965870e+00 -1.048430e+00 3.479137e+00 7.159843e+01 -9.891527e-01 -5.899897e+00 -6.451198e+00 -2.144959e+00 7.688202e-01 -1.724463e+00 -3.017442e+00 5.110525e-01 1.604435e+00 2.163756e+00 -8.196754e-01 4.473614e-01 1.083549e+01 -9.894502e-01 1.196016e+00 2.172133e+00 9.762774e-01 -8.084766e-01 -1.982360e+00 2.450329e-01 2.346148e-01 -8.531201e-01 -5.118992e-01 -3.531032e-01 1.466700e-01 2.968503e+00
<VARIANCE> 39
 1.676812e+02 3.254174e+02 2.404594e+02 2.029809e+02 2.012951e+02 2.325321e+02 2.492237e+02 1.923521e+02 1.684985e+02 1.451264e+02 1.367809e+02 1.066535e+02 5.314233e+02 3.008681e+01 3.119865e+01 2.687577e+01 2.459202e+01 2.597258e+01 2.829864e+01 2.170553e+01 2.263448e+01 2.229945e+01 1.949467e+01 1.514690e+01 1.252019e+01 7.416669e+01 8.062571e+00 7.484847e+00 5.579545e+00 4.644606e+00 5.261688e+00 6.120728e+00 5.916498e+00 5.768720e+00 4.893559e+00 4.118848e+00 3.088404e+00 2.780423e+00 1.257383e+01
<GCONST> 2.046833e+02
<MIXTURE> 3 3.410113e-01
<MEAN> 39
 -2.361580e+01 2.637113e+00 -1.865277e+00 3.867108e+00 -4.698937e+00 -6.605002e+00 -8.494957e+00 -4.854665e+00 -4.478581e+00 6.075851e-01 1.183075e+00 3.051996e+00 5.221965e+01 8.980009e-01 -3.781783e+00 -4.533837e+00 -5.559226e-01 4.963887e-01 -2.899825e-01 -1.663380e+00 6.516810e-01 1.106081e+00 6.668838e-01 -5.868292e-01 1.054099e-02 5.957316e+00 5.237134e-01 -5.269867e-01 6.722439e-01 1.391708e+00 -1.752343e-01 -8.232279e-01 3.306179e-01 2.208510e-01 -3.266444e-01 1.411873e-01 -3.679162e-01 1.293880e-01 4.091030e+00
<VARIANCE> 39
 8.221851e+01 9.925313e+01 1.070203e+02 5.866699e+01 6.523395e+01 8.102439e+01 9.039732e+01 9.060143e+01 8.515781e+01 8.518809e+01 7.748631e+01 6.822635e+01 1.690446e+02 1.690006e+01 2.102189e+01 1.775147e+01 1.703771e+01 1.384351e+01 1.631165e+01 1.556826e+01 1.387754e+01 1.408797e+01 1.416467e+01 1.126488e+01 9.603812e+00 7.453899e+01 6.026381e+00 3.813030e+00 4.179025e+00 2.373408e+00 3.340523e+00 3.445966e+00 3.728477e+00 3.330517e+00 2.993186e+00 2.786800e+00 2.198892e+00 1.943989e+00 7.618247e+00
<GCONST> 1.822722e+02
<MIXTURE> 4 2.082972e-01
<MEAN> 39
 -1.916130e+01 -1.012543e+01 -2.183155e+00 1.051889e+01 5.470712e+00 -5.670391e+00 -6.866330e+00 3.564270e+00 -4.085314e+00 3.497459e+00 -1.682086e+00 3.843273e+00 7.407554e+01 -3.131036e+00 -7.179317e+00 -8.357659e+00 -4.383342e+00 -7.185816e-01 -3.268699e+00 -5.335460e+00 -1.528079e+00 6.986539e-01 2.783452e-01 -2.347459e+00 -1.824934e-01 1.011358e+01 -8.256577e-01 1.103713e+00 2.355061e+00 7.457642e-01 -1.147537e+00 -2.234137e+00 4.965953e-01 3.592909e-01 -8.921736e-01 -2.511693e-01 -2.137736e-01 1.200243e-01 3.643746e+00
<VARIANCE> 39
 1.565187e+02 3.634111e+02 2.412310e+02 1.968001e+02 1.881842e+02 2.309511e+02 2.496397e+02 2.076242e+02 1.689739e+02 1.273811e+02 1.448353e+02 1.016664e+02 5.684042e+02 3.607048e+01 3.166969e+01 2.884221e+01 2.833975e+01 2.464670e+01 3.102672e+01 2.071171e+01 2.514063e+01 2.771712e+01 1.910398e+01 1.702050e+01 1.341588e+01 7.294230e+01 7.451803e+00 7.815005e+00 5.179567e+00 4.697679e+00 5.502090e+00 6.317965e+00 6.374415e+00 6.238852e+00 5.375723e+00 4.184720e+00 3.510692e+00 3.070200e+00 1.294613e+01
<GCONST> 2.060200e+02
<STATE> 4
<NUMMIXES> 4
<MIXTURE> 1 2.265504e-01
<MEAN> 39
 -1.862999e+01 -1.905773e+01 -1.739244e+01 1.594067e+01 -8.704545e+00 -1.667261e+01 -1.333548e+01 4.353999e+00 -2.821251e+00 1.576277e-01 -2.030093e+00 7.492664e+00 1.151138e+02 -8.198917e+00 1.814287e+00 -7.897753e-01 1.911387e+00 -3.930163e+00 -1.948778e+00 1.506842e+00 3.945557e+00 7.348344e-01 1.400577e-01 4.227014e-01 2.778485e+00 1.041824e+01 -2.325562e+00 3.804451e+00 2.616344e+00 -1.922718e-01 -5.988871e-02 1.267568e+00 1.633466e+00 -3.216019e-01 -8.471498e-01 -3.366543e-01 1.904368e-01 -1.230930e-01 -4.666954e+00
<VARIANCE> 39
 2.520294e+02 1.847888e+02 2.116604e+02 1.502843e+02 2.394170e+02 2.123486e+02 1.967835e+02 1.751768e+02 1.691730e+02 1.524385e+02 1.565991e+02 1.159145e+02 1.181018e+02 2.730003e+01 3.237427e+01 1.796672e+01 1.750620e+01 2.259440e+01 2.145871e+01 2.089102e+01 1.561683e+01 1.868652e+01 1.512596e+01 1.338215e+01 1.212067e+01 5.364757e+01 5.250718e+00 4.243083e+00 4.516801e+00 3.996011e+00 4.078449e+00 4.513624e+00 4.122203e+00 4.174689e+00 4.322732e+00 3.710648e+00 3.203115e+00 2.512256e+00 4.184078e+00
<GCONST> 1.960826e+02
<MIXTURE> 2 2.401432e-01
<MEAN> 39
 -4.291248e+01 -9.840594e+00 -5.348190e+00 6.812093e+00 1.121914e+01 -2.612028e+01 -1.840138e+01 3.288723e+00 2.040360e+00 6.479800e+00 -9.282174e+00 2.332641e+00 1.152295e+02 -1.302707e+01 4.703841e+00 3.194217e+00 -1.981173e-01 -6.291974e-01 -4.481400e+00 2.302531e+00 2.958367e+00 2.992998e+00 -1.718964e+00 -1.475712e+00 4.912270e-01 4.074796e+00 5.411938e-01 1.740762e+00 9.419585e-01 -1.281236e-01 -7.768626e-01 1.694516e+00 1.707200e+00 4.983408e-01 -9.082725e-01 -8.668965e-01 5.146152e-01 2.899866e-01 -3.899655e+00
<VARIANCE> 39
 2.733831e+02 1.037005e+02 1.846232e+02 1.968639e+02 2.401217e+02 3.131814e+02 1.992055e+02 2.152180e+02 1.696294e+02 1.512411e+02 1.410188e+02 1.061161e+02 1.672498e+02 1.619122e+01 1.426462e+01 1.505661e+01 1.621792e+01 1.867111e+01 1.858794e+01 1.581717e+01 1.784770e+01 1.610133e+01 1.519896e+01 1.297975e+01 1.253458e+01 2.490422e+01 6.509997e+00 2.429577e+00 3.780366e+00 3.146358e+00 2.939218e+00 5.222138e+00 3.048543e+00 3.902912e+00 3.856051e+00 3.235431e+00 2.834459e+00 2.175968e+00 3.869406e+00
<GCONST> 1.915902e+02
<MIXTURE> 3 3.484980e-01
<MEAN> 39
 -1.394677e+01 -1.950116e+01 -1.981202e+01 1.434226e+01 -3.392881e+00 -1.439738e+01 -1.760900e+01 1.479506e+00 -3.300256e+00 3.143693e+00 -4.278406e+00 6.694801e+00 1.117861e+02 -8.279841e+00 4.931847e-01 -7.942396e-01 1.626078e+00 -3.344535e+00 -3.672267e+00 -4.228246e-01 2.588613e+00 -1.551150e-01 -7.912213e-01 -1.241566e+00 1.598917e+00 1.125151e+01 -3.271560e+00 3.668099e+00 2.661759e+00 -4.034026e-01 -6.772696e-01 6.847309e-01 1.911705e+00 1.060685e-01 -5.326360e-01 -7.542598e-01 3.683051e-01 -2.652632e-02 -4.611893e+00
<VARIANCE> 39
 2.195747e+02 1.535077e+02 1.985391e+02 1.645070e+02 2.419469e+02 2.315318e+02 1.768827e+02 1.766435e+02 1.748448e+02 1.583711e+02 1.438994e+02 1.184558e+02 1.164618e+02 2.206575e+01 2.376388e+01 1.542419e+01 1.857604e+01 2.808728e+01 2.664669e+01 1.976109e+01 1.581892e+01 1.782691e+01 1.448548e+01 1.306426e+01 1.250267e+01 4.278336e+01 4.995145e+00 3.586224e+00 3.906583e+00 3.727426e+00 3.877970e+00 4.606267e+00 3.780397e+00 4.066198e+00 4.585149e+00 3.640045e+00 2.796594e+00 2.720252e+00 3.055681e+00
<GCONST> 1.943386e+02
<MIXTURE> 4 1.847976e-01
<MEAN> 39
 -4.169319e+01 -1.195468e+01 -6.198017e+00 8.145313e+00 1.283580e+01 -2.272417e+01 -2.103832e+01 2.742484e-01 3.440396e+00 9.893261e+00 -7.717672e+00 5.100233e-01 1.098009e+02 -1.235036e+01 3.091383e+00 3.014670e+00 -5.807953e-01 -1.277789e+00 -5.407901e+00 7.715716e-01 2.229592e+00 2.430922e+00 -1.991600e+00 -2.548045e+00 -5.225933e-01 3.722041e+00 3.882103e-01 1.453004e+00 4.402135e-01 -7.490982e-01 -1.316028e+00 1.175790e+00 1.534901e+00 5.523503e-01 -8.645503e-01 -1.304113e+00 1.459658e-01 4.103270e-01 -3.405345e+00
<VARIANCE> 39
 2.636149e+02 1.123486e+02 1.736615e+02 2.026066e+02 2.744495e+02 2.828813e+02 2.050527e+02 2.144190e+02 2.013711e+02 1.473321e+02 1.482451e+02 1.007812e+02 1.666857e+02 1.370685e+01 1.192918e+01 1.208778e+01 1.518212e+01 2.103350e+01 1.928966e+01 1.564404e+01 1.727836e+01 1.554513e+01 1.614887e+01 1.235228e+01 1.155124e+01 2.217784e+01 6.840442e+00 1.894150e+00 2.865714e+00 2.609717e+00 3.121731e+00 4.449049e+00 2.994699e+00 3.412749e+00 3.525391e+00 2.826145e+00 2.742495e+00 2.054209e+00 2.786719e+00
<GCONST> 1.894998e+02
<TRANSP> 5
 0.000000e+00 1.000000e+00 0.000000e+00 0.000000e+00 0.000000e+00
 0.000000e+00 7.079458e-01 2.920541e-01 0.000000e+00 0.000000e+00
 0.000000e+00 0.000000e+00 7.200809e-01 2.799191e-01 0.000000e+00
 0.000000e+00 0.000000e+00 0.000000e+00 5.968311e-01 4.031689e-01
 0.000000e+00 0.000000e+00 0.000000e+00 0.000000e+00 0.000000e+00
<ENDHMM>
~h "n"
<BEGINHMM>
<NUMSTATES> 5
<STATE> 2
<NUMMIXES> 4
<MIXTURE> 1 1.840046e-01
<MEAN> 39
 7.370318e+00 -2.084437e-01 3.458754e+01 -1.891577e+00 -1.546980e+00 2.710832e+00 1.922959e+01 -2.607799e-01 -2.168148e+00 8.128109e+00 -2.334525e+00 1.086513e+01 1.072029e+02 5.032348e+00 4.728490e+00 1.573919e+00 6.138717e+00 -7.637180e-01 2.090379e+00 2.894320e+00 -6.317096e+00 2.472511e-01 3.857310e-01 -1.415003e+00 2.520826e+00 -2.060195e+00 2.657959e-01 -5.473648e-01 -8.293002e-01 4.999130e-01 -1.162764e-01 -1.320344e-01 -4.027632e-01 -2.568925e-01 2.633574e-01 -3.246215e-01 2.764178e-02 1.531118e-01 5.218985e-01
<VARIANCE> 39
 2.247704e+02 3.389846e+02 3.214324e+02 6.973708e+02 2.619202e+02 3.676096e+02 3.981022e+02 5.154065e+02 3.601966e+02 3.265077e+02 2.755192e+02 2.588731e+02 7.846465e+02 2.969843e+01 1.782041e+01 4.568633e+01 4.494688e+01 2.764835e+01 3.505555e+01 4.150708e+01 4.386906e+01 3.818259e+01 3.397257e+01 3.031762e+01 2.930231e+01 5.350247e+01 2.162799e+00 2.849715e+00 3.911664e+00 8.389055e+00 4.130690e+00 5.125131e+00 5.100498e+00 6.638497e+00 4.741044e+00 4.644647e+00 3.765603e+00 4.099858e+00 3.135554e+00
<GCONST> 2.135357e+02
<MIXTURE> 2 3.156573e-01
<MEAN> 39
 1.995012e+01 -2.529662e-01 3.402055e+01 1.353678e+01 -6.386984e+00 4.444165e+00 1.636855e+01 -5.990362e+00 -5.818867e+00 1.182268e+01 -7.825112e+00 9.159902e+00 1.115903e+02 3.266579e-02 2.983059e+00 -5.992973e-01 2.980587e+00 6.176525e-01 1.582448e+00 2.013016e+00 -1.921790e+00 3.615719e-01 5.745731e-01 -1.308968e+00 -1.696721e-01 -3.396690e+00 -8.358313e-01 -5.550383e-01 -4.152312e-01 -9.283515e-01 6.618416e-01 -2.956211e-01 -7.914271e-01 1.458733e+00 2.585329e-01 -4.383916e-01 3.948897e-01 -1.881847e-01 3.593849e-01
<VARIANCE> 39
 6.502425e+01 2.349579e+02 1.912753e+02 4.316993e+02 3.132874e+02 4.298243e+02 5.895753e+02 5.393187e+02 6.002529e+02 4.668319e+02 4.434690e+02 4.612921e+02 2.048044e+02 4.118862e+00 9.786466e+00 1.250226e+01 2.061267e+01 1.533335e+01 1.982810e+01 2.690602e+01 3.025921e+01 2.460409e+01 2.016874e+01 1.873976e+01 1.736805e+01 5.484618e+00 1.527254e+00 2.031672e+00 3.495470e+00 6.228230e+00 3.786965e+00 5.104130e+00 6.849704e+00 6.678691e+00 5.439371e+00 4.619780e+00 4.452660e+00 4.379302e+00 1.436262e+00
<GCONST> 2.001231e+02
<MIXTURE> 3 2.789017e-01
<MEAN> 39
 1.849563e+01 -9.857473e-01 3.442939e+01 1.772141e+01 -5.564353e+00 4.475717e+00 1.363238e+01 -4.363469e+00 -1.128772e+01 1.322715e+01 -1.261502e+01 3.906934e+00 1.104743e+02 -7.915040e-01 2.893016e+00 -8.912464e-01 2.366602e+00 1.120885e+00 8.852916e-01 1.899854e+00 -6.736563e-01 3.331246e-01 -1.401047e-02 -1.518304e+00 -9.612961e-01 -3.517502e+00 -1.092821e+00 -6.105503e-01 -8.026965e-01 -1.170901e+00 6.434222e-01 -4.089729e-01 -1.083645e+00 1.501902e+00 7.024094e-01 -5.964582e-01 7.817847e-01 3.489022e-02 3.174020e-01
<VARIANCE> 39
 6.910684e+01 2.127463e+02 1.740527e+02 3.845767e+02 3.303043e+02 4.145975e+02 5.082043e+02 4.856028e+02 5.836221e+02 5.911263e+02 5.711506e+02 4.995826e+02 2.448331e+02 5.613199e+00 1.144141e+01 1.260463e+01 1.718012e+01 1.512306e+01 1.873120e+01 2.470515e+01 2.457072e+01 2.475515e+01 2.293060e+01 2.015549e+01 1.972844e+01 6.881568e+00 2.210478e+00 2.486799e+00 3.613640e+00 6.044495e+00 4.371789e+00 5.150086e+00 7.359229e+00 6.587190e+00 6.341487e+00 5.368818e+00 5.741048e+00 5.390980e+00 1.896538e+00
<GCONST> 2.026758e+02
<MIXTURE> 4 2.214101e-01
<MEAN> 39
 1.104334e+01 -1.174973e+01 4.042648e+01 -9.705687e+00 -5.034003e+00 -3.512233e+00 1.063102e+01 8.555356e+00 -9.015741e+00 9.748071e+00 -2.927048e+00 7.614683e+00 1.243716e+02 2.339911e+00 4.651226e+00 9.155916e-03 5.710987e+00 2.011041e-01 1.475602e+00 3.371927e+00 -5.652995e+00 -1.373407e+00 1.695370e+00 -2.981974e+00 3.909314e-01 -4.932188e+00 3.259929e-01 5.892664e-02 -1.365965e+00 1.524778e+00 1.856808e-01 3.709514e-01 2.093832e-01 -6.573012e-01 7.102246e-01 -3.036514e-01 -2.973370e-01 -6.560016e-02 -4.069812e-01
<VARIANCE> 39
 1.246601e+02 3.169239e+02 3.348593e+02 6.475606e+02 2.953686e+02 3.325413e+02 5.626707e+02 5.872454e+02 4.392945e+02 3.310833e+02 3.095413e+02 2.572109e+02 4.436285e+02 1.124705e+01 1.407536e+01 3.282423e+01 4.623316e+01 2.719997e+01 3.212122e+01 4.311609e+01 4.126020e+01 3.605525e+01 3.177252e+01 2.551298e+01 2.720365e+01 1.552600e+01 1.492511e+00 2.161944e+00 3.737131e+00 7.169670e+00 3.651885e+00 4.708959e+00 6.011307e+00 6.435242e+00 4.516917e+00 4.222009e+00 3.506969e+00 3.661106e+00 1.774843e+00
<GCONST> 2.080278e+02
<STATE> 3
<NUMMIXES> 4
<MIXTURE> 1 2.960940e-01
<MEAN> 39
 2.241829e+01 1.004714e+01 3.383494e+01 1.638292e+01 -8.788165e+00 1.419976e+01 2.150607e+01 -1.783448e+01 3.401906e+00 5.547992e+00 -4.762425e+00 1.712679e+01 1.027635e+02 -7.931541e-01 -5.602477e-01 2.167729e-01 2.741457e-01 8.223141e-01 -1.203118e-01 -1.379395e-01 1.975407e+00 3.655123e-01 -7.526727e-01 5.841588e-01 3.686140e-01 3.042867e-02 -1.092913e+00 -1.127120e+00 -5.314022e-01 -1.153744e+00 9.874520e-01 -1.209155e+00 -9.377054e-01 2.254689e+00 -3.118230e-01 7.263301e-02 1.320518e-01 -7.036080e-01 5.836673e-01
<VARIANCE> 39
 5.182103e+01 2.136357e+02 1.539301e+02 2.198441e+02 2.266171e+02 3.902878e+02 4.612380e+02 4.313825e+02 4.754707e+02 4.178742e+02 4.779209e+02 4.173915e+02 1.572813e+02 5.172847e+00 1.026768e+01 7.166417e+00 1.216145e+01 1.308209e+01 1.990674e+01 1.765826e+01 2.353256e+01 1.546789e+01 1.404010e+01 1.373072e+01 1.504916e+01 1.236183e+01 1.486897e+00 1.968201e+00 2.488327e+00 3.252516e+00 2.902289e+00 3.951318e+00 5.169751e+00 5.187061e+00 4.314144e+00 3.388362e+00 3.931682e+00 3.547606e+00 1.601885e+00
<GCONST> 1.924111e+02
<MIXTURE> 2 2.457995e-01
<MEAN> 39
 1.669972e+01 1.176419e+01 3.254311e+01 2.462685e+01 8.701583e-01 5.142317e+00 1.930347e+01 -3.902669e+00 -5.580295e+00 8.316420e+00 -1.244073e+01 5.598452e+00 9.735665e+01 -2.334846e+00 -7.198467e-01 -1.259334e+00 -1.663535e+00 2.794701e+00 -1.476429e-01 -2.185923e+00 3.417754e+00 1.501470e+00 -3.314678e-01 1.216918e+00 -5.964974e-01 1.161046e+00 -2.016621e+00 -1.841109e+00 -1.559018e+00 -1.982498e+00 -1.347622e-01 -3.689531e-01 -1.479994e+00 8.965176e-01 5.201538e-01 -9.712715e-02 8.758374e-01 9.519147e-02 7.510674e-01
<VARIANCE> 39
 8.988496e+01 2.003295e+02 1.417918e+02 2.245387e+02 2.848885e+02 3.670965e+02 3.884338e+02 3.662527e+02 4.970491e+02 4.721635e+02 4.250885e+02 4.490565e+02 2.260630e+02 4.831169e+01 3.255816e+01 3.248844e+01 4.123999e+01 3.527893e+01 4.048030e+01 5.224989e+01 5.007712e+01 4.553559e+01 3.661010e+01 3.422647e+01 3.848092e+01 5.445420e+01 3.915749e+00 2.669254e+00 2.856174e+00 3.335433e+00 4.061186e+00 4.507396e+00 4.985544e+00 4.853589e+00 5.596771e+00 4.284228e+00 4.296873e+00 4.384036e+00 2.036665e+00
<GCONST> 2.110262e+02
<MIXTURE> 3 2.560757e-01
<MEAN> 39
 2.109188e+01 4.111075e+00 3.678784e+01 1.745144e+01 -9.982004e+00 8.720418e+00 1.922430e+01 -1.766462e+01 -1.343778e+00 6.656989e+00 -8.730248e+00 1.646589e+01 1.075882e+02 -1.277694e+00 -2.976927e+00 -7.094852e-01 -2.763645e+00 2.198478e+00 -3.298017e+00 -2.533705e+00 5.055817e+00 2.047792e-01 -6.856973e-01 -1.503655e-01 -5.769757e-01 3.308167e+00 -1.515457e+00 -1.562221e+00 -1.612557e+00 -2.136252e+00 1.319482e+00 -1.095165e+00 -1.707059e+00 3.096897e+00 2.132943e-01 -3.825450e-02 4.259043e-01 -1.082984e+00 8.257533e-01
<VARIANCE> 39
 5.734818e+01 2.042682e+02 1.508118e+02 2.720037e+02 2.289940e+02 4.265891e+02 4.869601e+02 4.301987e+02 5.300505e+02 4.560241e+02 5.149604e+02 5.250469e+02 1.701653e+02 1.083705e+01 1.764229e+01 1.396917e+01 2.574950e+01 2.353554e+01 3.945845e+01 3.523707e+01 4.647591e+01 2.555584e+01 2.054508e+01 2.112145e+01 2.508733e+01 2.787581e+01 2.675792e+00 2.469090e+00 3.323302e+00 4.492167e+00 4.136741e+00 5.632309e+00 6.660995e+00 6.952370e+00 6.935794e+00 4.304864e+00 5.325814e+00 5.681300e+00 2.827726e+00
<GCONST> 2.061075e+02
<MIXTURE> 4 2.020093e-01
<MEAN> 39
 1.212906e+01 1.612175e+01 3.242645e+01 2.478765e+01 5.813518e+00 1.142620e+01 1.943211e+01 -4.137972e+00 -2.597231e+00 6.330616e+00 -1.135091e+01 6.868953e+00 9.269413e+01 -7.012362e+00 -1.544510e+00 -4.759015e+00 -1.244550e+00 2.890325e+00 -1.971326e-01 -2.788351e+00 4.822684e+00 -2.703356e-01 -2.997049e-01 1.256172e+00 -3.065202e+00 -2.051723e+00 -1.940554e+00 -2.123176e+00 -1.891776e+00 -2.176560e+00 -1.359516e+00 -1.330402e+00 -1.459384e+00 8.817722e-02 6.384751e-02 -2.107406e-01 6.716850e-01 2.616400e-01 9.989278e-01
<VARIANCE> 39
 9.546108e+01 1.676174e+02 1.258889e+02 1.932435e+02 2.310151e+02 3.026397e+02 3.107170e+02 3.686217e+02 3.636212e+02 4.033956e+02 3.661177e+02 3.483336e+02 1.873212e+02 3.434324e+01 2.498061e+01 2.640385e+01 2.908117e+01 2.708317e+01 3.566702e+01 4.214116e+01 3.982860e+01 4.570052e+01 4.204697e+01 4.424707e+01 4.130548e+01 3.464285e+01 3.205034e+00 2.618107e+00 2.697958e+00 2.935995e+00 4.431170e+00 4.403412e+00 4.643918e+00 5.868073e+00 4.667071e+00 4.631435e+00 4.314961e+00 4.453337e+00 2.728796e+00
<GCONST> 2.069650e+02
<STATE> 4
<NUMMIXES> 4
<MIXTURE> 1 2.002448e-01
<MEAN> 39
 1.537975e+01 -2.036035e+01 2.649796e+01 -1.003856e+01 6.467687e+00 -8.394594e+00 -3.901032e+00 1.884643e+01 2.422521e+00 9.853538e+00 -5.724808e+00 9.191779e+00 1.326636e+02 -8.385808e-01 -6.131520e+00 -5.512480e+00 -6.946182e+00 2.672224e+00 -2.234255e-01 -4.398865e+00 6.509485e+00 2.187120e+00 -4.696184e-01 1.633602e+00 -1.250225e+00 5.654459e+00 3.199705e-01 9.358525e-01 -4.256188e-01 1.639870e+00 -5.646226e-01 1.644523e+00 1.241115e+00 -2.036877e+00 7.544097e-03 -2.498352e-01 1.943860e-01 -2.854607e-01 -1.332204e+00
<VARIANCE> 39
 7.957240e+01 2.249218e+02 2.298811e+02 3.247760e+02 2.791896e+02 3.589327e+02 7.359145e+02 4.156060e+02 3.252275e+02 4.240616e+02 3.312312e+02 3.422368e+02 2.407226e+02 5.157498e+00 1.843844e+01 1.725779e+01 3.208593e+01 3.027600e+01 3.380442e+01 4.606334e+01 4.343475e+01 4.618220e+01 2.765832e+01 3.056723e+01 2.663988e+01 1.475450e+01 7.262199e-01 2.231771e+00 2.729987e+00 4.795499e+00 3.639879e+00 5.661181e+00 7.986238e+00 6.700269e+00 4.873972e+00 3.826193e+00 3.827248e+00 3.394354e+00 1.711243e+00
<GCONST> 2.038303e+02
<MIXTURE> 2 3.851565e-01
<MEAN> 39
 -2.311606e+00 2.078973e+00 1.818720e+01 2.256979e+01 5.865624e+00 5.936805e+00 1.694021e+01 1.053192e+01 2.778464e+00 2.376035e+00 -8.699788e+00 3.734068e+00 7.936528e+01 -3.289619e+00 -8.896443e-01 -3.017042e+00 -1.575602e+00 -1.888273e-01 -5.064306e-01 -1.462682e+00 9.922348e-01 6.755399e-01 -4.596716e-01 7.635392e-01 -5.125546e-01 -2.466466e+00 1.698008e-01 -3.910669e-02 4.481948e-02 -6.381129e-01 -4.234218e-01 -4.890058e-01 -4.906581e-01 -6.669913e-01 -4.420111e-01 1.671188e-01 1.909354e-02 1.289695e-01 4.700519e-01
<VARIANCE> 39
 1.261689e+02 1.442200e+02 2.171482e+02 2.571569e+02 2.286987e+02 2.661759e+02 3.328882e+02 3.475047e+02 3.430647e+02 3.411277e+02 2.670670e+02 2.463357e+02 2.296111e+02 1.460633e+01 1.262731e+01 1.309984e+01 1.618213e+01 1.498539e+01 1.797603e+01 1.809713e+01 2.173731e+01 2.125546e+01 1.802680e+01 1.848142e+01 1.623487e+01 8.051935e+00 1.325499e+00 2.052174e+00 2.335620e+00 2.881335e+00 2.843903e+00 3.323132e+00 3.512752e+00 3.868848e+00 3.722592e+00 3.094720e+00 3.053648e+00 2.804174e+00 1.070946e+00
<GCONST> 1.915981e+02
<MIXTURE> 3 2.459873e-01
<MEAN> 39
 -9.031448e+00 3.681269e+00 1.587304e+01 1.780530e+01 6.146596e+00 9.697566e+00 1.530185e+01 8.370685e+00 -2.171781e-01 3.503869e+00 -5.422983e+00 2.921403e+00 8.118799e+01 -7.366013e+00 -3.520584e+00 -6.615776e+00 -4.516973e+00 -2.356718e+00 -3.401645e+00 -4.866336e+00 7.821320e-02 -1.079099e+00 -1.351761e+00 6.807628e-01 -1.495042e+00 -2.094843e+00 6.477057e-01 -1.054062e-01 1.727300e-01 -6.545519e-01 -1.173012e+00 -8.193964e-01 -6.612851e-01 -1.356207e+00 -3.173280e-01 -1.833001e-01 -1.846595e-01 6.777886e-01 1.095453e+00
<VARIANCE> 39
 1.107030e+02 1.644223e+02 1.620272e+02 1.962846e+02 2.060377e+02 2.218439e+02 2.765320e+02 3.137856e+02 2.577899e+02 2.970311e+02 2.151120e+02 1.931352e+02 3.006204e+02 3.016144e+01 1.555842e+01 1.777124e+01 1.711391e+01 1.917975e+01 2.121821e+01 2.457067e+01 2.895876e+01 2.755082e+01 2.358928e+01 2.812360e+01 2.366681e+01 1.835473e+01 2.094058e+00 3.388719e+00 2.800313e+00 3.470097e+00 4.283922e+00 4.189648e+00 4.595907e+00 4.786341e+00 4.624132e+00 4.568687e+00 4.503187e+00 4.259073e+00 3.841695e+00
<GCONST> 1.994356e+02
<MIXTURE> 4 1.685740e-01
<MEAN> 39
 8.449520e+00 -1.536078e+01 2.463618e+01 -4.997323e+00 1.731137e+00 -1.262576e+01 -2.042153e+00 1.631688e+01 3.746768e-02 4.168230e+00 -6.542786e+00 8.534639e+00 1.198393e+02 -2.071422e+00 -4.730249e+00 -5.227973e+00 -5.868256e+00 1.156625e+00 -2.656454e+00 -3.899589e+00 6.436754e+00 2.329192e+00 -1.159304e+00 8.615289e-01 -1.921601e+00 3.478302e+00 2.047686e-01 8.759081e-01 -6.518197e-01 1.523176e+00 -2.342302e-01 1.988456e+00 1.145819e+00 -1.644045e+00 2.116378e-01 -8.098307e-03 1.430860e-02 -5.125144e-01 -1.278683e+00
<VARIANCE> 39
 1.578114e+02 1.758744e+02 3.087373e+02 2.894017e+02 2.827137e+02 3.439126e+02 5.731751e+02 3.799553e+02 3.626790e+02 4.778215e+02 3.443368e+02 3.359595e+02 5.382242e+02 9.113633e+00 2.474850e+01 2.029037e+01 3.555929e+01 3.464318e+01 4.264863e+01 4.404280e+01 5.594389e+01 4.832139e+01 3.216200e+01 3.209714e+01 3.579029e+01 3.783883e+01 1.416386e+00 2.442887e+00 3.882765e+00 4.274210e+00 4.193362e+00 5.775542e+00 7.135588e+00 6.588139e+00 5.392973e+00 4.752215e+00 4.506341e+00 4.137248e+00 2.270237e+00
<GCONST> 2.103074e+02
<TRANSP> 5
 0.000000e+00 1.000000e+00 0.000000e+00 0.000000e+00 0.000000e+00
 0.000000e+00 6.342783e-01 3.657217e-01 0.000000e+00 0.000000e+00
 0.000000e+00 0.000000e+00 6.214648e-01 3.785351e-01 0.000000e+00
 0.000000e+00 0.000000e+00 0.000000e+00 6.705740e-01 3.294260e-01
 0.000000e+00 0.000000e+00 0.000000e+00 0.000000e+00 0.000000e+00
<ENDHMM>
~h "r"
<BEGINHMM>
<NUMSTATES> 5
<STATE> 2
<NUMMIXES> 4
<MIXTURE> 1 2.907893e-01
<MEAN> 39
 3.692791e+01 -1.912085e+01 -6.285606e+00 2.950898e+00 2.575296e+01 -3.099797e+01 -2.810365e+01 4.889999e+00 -5.854811e+00 7.972344e+00 1.595514e+00 9.098809e+00 1.279506e+02 8.917614e-01 -3.232051e-03 -2.962177e+00 -1.348826e+00 7.626164e-01 4.830557e-01 -3.645453e-01 1.286847e-01 9.018110e-01 1.066664e+00 7.645229e-01 4.477425e-01 -1.875704e-01 -6.877591e-01 -1.697686e-01 1.428198e+00 -1.941776e-01 -1.371186e+00 -2.073867e-02 1.229282e+00 3.831825e-01 -5.739369e-01 -1.195442e-01 2.564974e-01 2.158831e-02 2.913077e-01
<VARIANCE> 39
 5.895395e+01 1.669429e+02 4.313134e+02 2.598690e+02 3.753545e+02 7.728366e+02 1.091632e+03 3.859751e+02 3.236737e+02 3.313776e+02 2.376197e+02 1.796754e+02 1.608951e+02 3.027786e+00 4.352643e+00 1.362536e+01 9.315527e+00 1.373175e+01 1.403070e+01 1.393112e+01 1.407910e+01 1.316484e+01 1.026891e+01 1.073144e+01 1.011217e+01 2.821455e+00 2.659414e-01 5.920998e-01 8.086914e-01 1.054838e+00 1.247749e+00 2.333547e+00 1.717430e+00 2.078866e+00 1.727697e+00 1.621537e+00 1.624457e+00 1.479283e+00 3.098102e-01
<GCONST> 1.750152e+02
<MIXTURE> 2 2.018348e-01
<MEAN> 39
 3.903211e+01 -1.139346e+01 -1.311008e+01 -9.958573e-02 2.836062e+01 -1.065302e+01 -3.024375e+01 -4.207550e+00 -1.084695e+01 5.947273e+00 2.902467e+00 8.128214e+00 1.225845e+02 1.576781e-01 -1.402139e+00 -6.119098e-01 1.635414e+00 1.637092e+00 -2.888345e+00 -1.619486e+00 8.756463e-01 2.057937e+00 8.652895e-01 -3.106794e-01 -1.194773e-01 2.460672e-01 -1.648763e+00 -2.291693e-01 2.458160e+00 5.231700e-01 -2.305084e+00 -8.602074e-01 1.704454e+00 1.342013e+00 1.024208e-01 -5.304656e-01 -3.772521e-01 6.934439e-02 1.292575e-01
<VARIANCE> 39
 6.492976e+01 1.803770e+02 4.568636e+02 4.046335e+02 4.229074e+02 7.987909e+02 8.180817e+02 4.244153e+02 3.298106e+02 4.146837e+02 2.815588e+02 2.507987e+02 1.526032e+02 7.225450e+00 1.269342e+01 2.680110e+01 2.405040e+01 2.154726e+01 4.617967e+01 2.818792e+01 3.251419e+01 2.531456e+01 2.236182e+01 1.883302e+01 1.839465e+01 1.094645e+01 1.809231e+00 2.060155e+00 2.844484e+00 3.109581e+00 4.199165e+00 6.290690e+00 6.041842e+00 4.380338e+00 4.663027e+00 4.064629e+00 3.691579e+00 3.479298e+00 1.397450e+00
<GCONST> 2.018446e+02
<MIXTURE> 3 3.123344e-01
<MEAN> 39
 3.460183e+01 -2.165942e+01 1.335000e+00 4.391387e+00 2.255308e+01 -2.788908e+01 -3.224080e+01 6.384009e+00 -8.063257e+00 3.813565e+00 2.406378e+00 6.541834e+00 1.297572e+02 1.314471e+00 9.884138e-02 -3.778019e+00 -1.633575e+00 1.555478e+00 6.907776e-01 -1.193959e+00 -4.802329e-01 9.621493e-01 1.406419e+00 6.484783e-01 2.290230e-01 -2.648800e-01 -6.475679e-01 -7.305558e-02 1.291713e+00 -3.161706e-01 -1.335487e+00 1.468296e-01 1.059448e+00 2.193080e-01 -5.280358e-01 8.616169e-02 1.370798e-01 2.442973e-02 2.872716e-01
<VARIANCE> 39
 6.554620e+01 1.769959e+02 4.818287e+02 3.067688e+02 3.792086e+02 8.257050e+02 1.135876e+03 3.929366e+02 3.126922e+02 4.129747e+02 2.552964e+02 1.856768e+02 1.676680e+02 3.379945e+00 4.192855e+00 1.496582e+01 8.944155e+00 1.456466e+01 1.342843e+01 1.429579e+01 1.520384e+01 1.269589e+01 1.087750e+01 1.037347e+01 1.001834e+01 2.678126e+00 2.803170e-01 6.128489e-01 7.984583e-01 1.192354e+00 1.222429e+00 2.436919e+00 1.827360e+00 2.244396e+00 1.790602e+00 1.770999e+00 1.659750e+00 1.465052e+00 3.170890e-01
<GCONST> 1.766085e+02
<MIXTURE> 4 1.950026e-01
<MEAN> 39
 3.732978e+01 -1.646870e+01 -6.106751e+00 8.762785e-01 2.729862e+01 -8.151930e+00 -3.507215e+01 -4.124791e+00 -1.040592e+01 5.490863e+00 2.308315e+00 4.445937e+00 1.253670e+02 -2.376206e-01 -2.710563e+00 1.473906e+00 2.498218e+00 7.700799e-01 -4.684688e+00 -3.028405e+00 2.793835e+00 2.127619e+00 6.156386e-02 -8.505741e-01 -9.479657e-01 1.330215e+00 -1.793806e+00 8.487894e-02 2.352019e+00 4.697625e-01 -2.507889e+00 -9.361525e-01 2.124063e+00 1.555754e+00 -1.488914e-01 -7.626671e-01 -4.063077e-01 2.722226e-01 -8.608114e-02
<VARIANCE> 39
 6.627419e+01 1.826696e+02 4.518663e+02 4.401140e+02 4.218961e+02 7.249072e+02 9.275535e+02 4.340273e+02 3.415844e+02 5.047992e+02 2.879877e+02 2.627571e+02 1.575921e+02 7.957664e+00 1.102165e+01 2.599359e+01 2.505313e+01 2.022457e+01 3.778948e+01 2.662664e+01 3.341672e+01 2.848996e+01 2.460076e+01 1.907667e+01 1.932643e+01 1.043659e+01 2.654139e+00 2.122980e+00 2.728650e+00 3.175332e+00 4.003905e+00 5.606630e+00 6.761472e+00 4.250548e+00 4.651406e+00 4.790961e+00 3.882502e+00 3.875223e+00 1.279174e+00
<GCONST> 2.027767e+02
<STATE> 3
<NUMMIXES> 4
<MIXTURE> 1 3.264914e-01
<MEAN> 39
 3.504726e+01 -2.425724e+01 -1.728012e+00 2.120961e+00 1.778338e+01 -3.374176e+01 -2.598606e+01 1.331704e+01 -6.690176e+00 6.912872e+00 3.829837e+00 1.224930e+01 1.308923e+02 -1.805924e+00 -1.347832e+00 3.230257e+00 -8.944005e-01 -4.693473e+00 -1.764416e+00 4.712029e+00 3.005118e+00 -1.784783e+00 -2.818562e-01 1.951894e+00 5.912275e-01 1.247334e+00 -5.922487e-01 6.273794e-01 1.076243e+00 -5.369937e-01 -8.619809e-01 1.392028e+00 1.485407e+00 -1.145915e+00 -9.007033e-01 4.612064e-01 2.649487e-01 -7.111623e-01 -2.538041e-01
<VARIANCE> 39
 5.544382e+01 1.521606e+02 4.112617e+02 3.060979e+02 3.995810e+02 7.389903e+02 1.062198e+03 3.472183e+02 3.394639e+02 3.725810e+02 2.987126e+02 2.405946e+02 1.508059e+02 2.638459e+00 5.286600e+00 1.533220e+01 1.301923e+01 1.267149e+01 2.147570e+01 1.888524e+01 1.699225e+01 1.808659e+01 1.888117e+01 1.869499e+01 1.337329e+01 3.778242e+00 4.682186e-01 5.890106e-01 1.284848e+00 1.141171e+00 2.306250e+00 2.458799e+00 2.672769e+00 2.318949e+00 2.050675e+00 1.914323e+00 2.183536e+00 2.268809e+00 2.129584e-01
<GCONST> 1.818892e+02
<MIXTURE> 2 1.984833e-01
<MEAN> 39
 3.264145e+01 -2.106056e+01 1.129160e+00 9.950625e+00 2.109698e+01 -3.182910e+01 -2.385242e+01 1.269425e+01 -3.451405e+00 5.235721e+00 -3.315661e+00 5.400422e+00 1.274854e+02 -4.204786e+00 -2.212460e-02 8.480141e+00 4.541434e+00 -5.056328e+00 -2.769698e+00 4.299288e+00 4.069122e+00 -2.251165e-01 -3.533342e+00 -7.677589e-01 4.659890e-01 -7.503343e-01 -1.978012e+00 1.654267e+00 1.475842e+00 -1.117990e+00 -1.720925e+00 3.146043e+00 2.701573e+00 -1.445715e+00 -1.386838e+00 2.028609e-01 5.695706e-01 3.661683e-01 -9.604903e-01
<VARIANCE> 39
 7.134219e+01 2.098033e+02 5.220577e+02 4.230954e+02 4.565187e+02 7.808607e+02 9.880728e+02 4.428113e+02 3.937158e+02 5.679559e+02 2.578709e+02 2.582830e+02 1.693412e+02 7.752036e+00 1.720873e+01 2.733865e+01 2.391644e+01 3.748813e+01 5.751024e+01 4.717792e+01 4.499940e+01 5.024003e+01 3.746396e+01 2.574090e+01 2.372281e+01 1.782262e+01 2.897762e+00 3.175507e+00 4.197161e+00 3.756341e+00 6.213118e+00 7.897795e+00 6.736131e+00 7.404171e+00 5.853606e+00 6.763442e+00 3.902013e+00 4.543839e+00 1.123607e+00
<GCONST> 2.109237e+02
<MIXTURE> 3 3.128710e-01
<MEAN> 39
 3.138188e+01 -3.019117e+01 1.277421e+01 9.810251e+00 1.647590e+01 -3.639271e+01 -3.093557e+01 1.597721e+01 -7.183343e+00 5.584601e-01 -4.793979e-02 6.723370e+00 1.329790e+02 -3.071388e+00 -1.751114e+00 6.394248e+00 -3.681168e-02 -6.068379e+00 -3.445106e+00 5.462092e+00 4.109302e+00 -3.039045e+00 -1.159481e+00 1.073081e+00 2.092666e-01 1.894547e+00 -6.425411e-01 1.067549e+00 9.048412e-01 -9.204985e-01 -8.909578e-01 2.074446e+00 1.749548e+00 -1.694802e+00 -1.100948e+00 7.413582e-01 2.677097e-01 -4.119576e-01 -4.315718e-01
<VARIANCE> 39
 5.747549e+01 1.177683e+02 4.510223e+02 3.093772e+02 3.418096e+02 6.964591e+02 1.127176e+03 3.612458e+02 3.234316e+02 4.809623e+02 2.655467e+02 2.006226e+02 1.173332e+02 3.766834e+00 4.512871e+00 2.449940e+01 1.218684e+01 1.593532e+01 2.114837e+01 2.160420e+01 1.979395e+01 2.080491e+01 1.664339e+01 1.424318e+01 1.119783e+01 2.710975e+00 5.199065e-01 6.695365e-01 1.327556e+00 1.355958e+00 2.205856e+00 3.325480e+00 2.849744e+00 2.960664e+00 2.188774e+00 2.196735e+00 1.912979e+00 1.835376e+00 2.431197e-01
<GCONST> 1.826407e+02
<MIXTURE> 4 1.621362e-01
<MEAN> 39
 3.023472e+01 -2.063017e+01 1.908810e+00 7.611405e+00 2.003539e+01 -2.435850e+01 -3.113080e+01 8.865047e+00 -7.937802e+00 4.818573e+00 -2.990009e+00 6.821560e+00 1.279149e+02 -5.951602e+00 2.452501e-01 7.835245e+00 4.769366e+00 -4.572716e+00 -2.555726e+00 5.402299e+00 1.972078e+00 1.208448e+00 -8.279238e-01 -1.090694e+00 -1.819327e+00 -2.178660e+00 -2.272122e+00 1.835331e+00 9.715550e-01 -1.193065e+00 -1.934205e+00 2.477278e+00 2.714841e+00 -7.059096e-01 -8.981531e-01 -1.755961e-01 3.032949e-01 -4.195344e-02 -1.515401e+00
<VARIANCE> 39
 8.195536e+01 2.263480e+02 5.933705e+02 4.740342e+02 4.776811e+02 9.076282e+02 1.008558e+03 4.833104e+02 4.772345e+02 5.316465e+02 2.992709e+02 2.918640e+02 2.030480e+02 1.689242e+01 2.097819e+01 3.429551e+01 3.450358e+01 4.712569e+01 5.192862e+01 5.678010e+01 5.561361e+01 6.443481e+01 3.922562e+01 3.388166e+01 3.042429e+01 3.251805e+01 3.552701e+00 3.893137e+00 4.388335e+00 4.685396e+00 6.181291e+00 9.225573e+00 8.331944e+00 8.737473e+00 7.629320e+00 7.663717e+00 5.185069e+00 4.968514e+00 3.153131e+00
<GCONST> 2.187733e+02
<STATE> 4
<NUMMIXES> 4
<MIXTURE> 1 2.527953e-01
<MEAN> 39
 2.490122e+01 -2.630831e+01 2.235269e+01 1.659602e+00 4.125413e-02 -3.674088e+01 -5.768701e+00 1.346981e+01 -2.061139e+01 9.629280e+00 7.202351e+00 8.078148e+00 1.349991e+02 -3.149116e+00 1.480729e+00 5.336327e+00 -3.900366e+00 -4.885891e+00 3.951836e+00 5.968452e+00 -3.438430e+00 -2.188625e+00 2.997349e+00 2.024005e-01 -1.609281e+00 6.236888e-01 1.648447e-02 1.083095e+00 -4.742070e-01 -5.965318e-01 1.147949e+00 1.780082e+00 -1.159673e+00 -1.549526e+00 1.228766e+00 2.451630e-01 -1.033390e+00 -1.172478e-01 -5.735934e-01
<VARIANCE> 39
 1.113829e+02 1.628468e+02 7.919033e+02 3.738374e+02 3.300092e+02 6.315468e+02 1.006203e+03 4.155035e+02 4.717695e+02 5.338014e+02 3.024338e+02 2.492908e+02 1.354079e+02 5.057575e+00 6.097102e+00 2.432103e+01 9.813376e+00 1.668959e+01 1.772671e+01 2.190189e+01 2.597919e+01 2.156619e+01 1.610509e+01 1.798089e+01 1.305833e+01 2.304640e+00 3.858810e-01 8.070601e-01 1.562527e+00 1.678162e+00 2.107510e+00 3.547596e+00 3.465202e+00 3.031567e+00 2.967061e+00 2.714543e+00 1.971874e+00 2.245611e+00 2.400093e-01
<GCONST> 1.872369e+02
<MIXTURE> 2 2.557889e-01
<MEAN> 39
 1.780260e+01 -1.087148e+01 -7.417615e+00 1.268601e+01 1.717781e+01 -1.053660e+01 -2.628352e+00 1.634512e+01 7.021315e+00 5.363008e+00 -1.797737e+00 5.284135e+00 9.923792e+01 -5.350105e+00 1.279312e+00 3.491590e+00 3.312713e+00 -8.566679e-01 3.679488e+00 3.405612e+00 7.677578e-01 9.661638e-01 -1.228273e+00 -3.827045e-01 -2.298139e-01 -4.278584e+00 -7.265707e-01 -1.846137e-01 -4.342364e-01 -9.984279e-01 -7.214640e-02 3.269945e-01 -9.007169e-02 -3.669578e-01 -7.052146e-01 3.404248e-01 2.883263e-01 3.347018e-02 4.392620e-02
<VARIANCE> 39
 2.210603e+02 1.838045e+02 4.241675e+02 2.955761e+02 4.019718e+02 4.719487e+02 4.925438e+02 4.171895e+02 3.362976e+02 2.773848e+02 2.521497e+02 2.739541e+02 3.414937e+02 2.249617e+01 2.358200e+01 1.790957e+01 2.336326e+01 2.611676e+01 3.451066e+01 3.099127e+01 2.917269e+01 2.690944e+01 2.421358e+01 2.114798e+01 2.071577e+01 9.188385e+00 2.770298e+00 3.130034e+00 3.613694e+00 3.810763e+00 3.779690e+00 4.432897e+00 3.953543e+00 4.171295e+00 4.258573e+00 4.053085e+00 3.592241e+00 3.402371e+00 1.458095e+00
<GCONST> 2.036684e+02
<MIXTURE> 3 2.732446e-01
<MEAN> 39
 2.084646e+01 -2.785740e+01 3.274997e+01 6.500610e+00 -3.360517e+00 -3.914674e+01 -5.136523e+00 1.475845e+01 -2.447576e+01 4.320512e+00 6.872336e+00 5.040281e+00 1.364235e+02 -3.844644e+00 1.861407e+00 7.016488e+00 -4.012282e+00 -5.743052e+00 4.453283e+00 6.543475e+00 -4.168533e+00 -3.073744e+00 3.366136e+00 -5.504671e-02 -2.006615e+00 6.534041e-01 1.405608e-01 1.191285e+00 -8.214486e-01 -7.787080e-01 1.516380e+00 2.099359e+00 -1.554874e+00 -1.708871e+00 1.589231e+00 4.420403e-01 -1.222422e+00 -6.699499e-02 -6.795207e-01
<VARIANCE> 39
 1.088264e+02 1.389149e+02 7.259973e+02 3.651151e+02 2.943231e+02 6.143907e+02 9.861796e+02 4.119866e+02 4.610779e+02 5.535016e+02 2.667426e+02 2.357645e+02 1.417392e+02 4.459697e+00 5.294709e+00 2.178930e+01 9.330740e+00 1.698301e+01 1.782099e+01 2.012442e+01 2.738796e+01 2.181759e+01 1.456659e+01 1.575293e+01 1.150248e+01 2.281523e+00 4.126526e-01 7.431430e-01 1.449532e+00 1.664755e+00 2.075574e+00 3.653503e+00 3.407364e+00 3.029737e+00 2.915931e+00 2.730102e+00 1.892962e+00 1.883387e+00 2.530937e-01
<GCONST> 1.855797e+02
<MIXTURE> 4 2.181518e-01
<MEAN> 39
 1.130920e+00 -1.459631e+01 -4.098690e+00 1.788557e+01 1.804027e+01 -7.175621e-01 4.463149e+00 1.903298e+01 6.142815e+00 4.102865e+00 -2.555173e+00 2.766989e+00 8.819381e+01 -6.853954e+00 -8.655007e-01 9.387149e-01 -1.103685e+00 -3.698159e+00 5.801762e-01 4.142294e-01 -1.712497e+00 -9.091938e-01 -1.008080e+00 -1.017370e+00 -1.547943e+00 -4.197538e+00 6.788358e-01 3.002529e-01 -8.146571e-01 -1.370660e+00 -5.662637e-01 -8.403301e-01 -1.079632e+00 -7.378232e-01 -6.516686e-01 3.952250e-02 8.662770e-02 6.190234e-02 3.693783e-01
<VARIANCE> 39
 1.756783e+02 2.096903e+02 3.124025e+02 2.495016e+02 3.208984e+02 3.718197e+02 4.450325e+02 4.279780e+02 3.118181e+02 2.699578e+02 2.281897e+02 2.429096e+02 2.744077e+02 3.159437e+01 2.223182e+01 2.262053e+01 2.534200e+01 2.479300e+01 3.139864e+01 3.497733e+01 2.683813e+01 2.683067e+01 2.119524e+01 2.060094e+01 1.868875e+01 1.746462e+01 2.325793e+00 3.411255e+00 3.715930e+00 4.897295e+00 4.243167e+00 5.624946e+00 4.737102e+00 4.732225e+00 4.633680e+00 4.071514e+00 3.680347e+00 3.731912e+00 1.573872e+00
<GCONST> 2.040102e+02
<TRANSP> 5
 0.000000e+00 1.000000e+00 0.000000e+00 0.000000e+00 0.000000e+00
 0.000000e+00 7.378100e-01 2.621900e-01 0.000000e+00 0.000000e+00
 0.000000e+00 0.000000e+00 5.397226e-01 4.602774e-01 0.000000e+00
 0.000000e+00 0.000000e+00 0.000000e+00 6.464461e-01 3.535539e-01
 0.000000e+00 0.000000e+00 0.000000e+00 0.000000e+00 0.000000e+00
<ENDHMM>
~h "s"
<BEGINHMM>
<NUMSTATES> 5
<STATE> 2
<NUMMIXES> 4
<MIXTURE> 1 1.470985e-01
<MEAN> 39
 2.521173e+00 4.438319e+00 2.856099e+01 8.205698e+00 1.081465e+01 -1.253798e+01 -5.789522e+00 -4.919816e+00 -1.636313e+00 2.872907e+00 -1.004414e+01 8.949275e+00 1.178448e+02 -1.148556e+01 5.982511e+00 -3.213021e+00 4.492033e+00 5.468033e-01 1.144910e+00 3.623006e+00 3.323826e+00 1.961622e+00 -2.737968e+00 1.163463e+00 8.851998e-01 -2.197893e+00 -3.052751e+00 -4.825030e-01 -2.841275e+00 -1.336982e+00 -1.020958e+00 2.395816e-01 3.424211e-01 9.857157e-01 -8.183107e-01 5.056496e-01 1.091832e+00 -3.415484e-01 1.255086e-01
<VARIANCE> 39
 2.820209e+02 1.976452e+02 3.867372e+02 3.657449e+02 2.931992e+02 3.726823e+02 4.254643e+02 3.697989e+02 4.977665e+02 3.439677e+02 2.561500e+02 4.335273e+02 3.130588e+02 4.223061e+01 2.518357e+01 4.289771e+01 5.439606e+01 3.561630e+01 6.559571e+01 3.628592e+01 3.821022e+01 5.067495e+01 3.785170e+01 3.772491e+01 3.213728e+01 1.608164e+01 3.795687e+00 4.144658e+00 4.630652e+00 5.855376e+00 4.569075e+00 5.513762e+00 5.660592e+00 5.055285e+00 5.218230e+00 5.931958e+00 4.523133e+00 5.567098e+00 1.460921e+00
<GCONST> 2.142742e+02
<MIXTURE> 2 3.930446e-01
<MEAN> 39
 -4.395880e+01 1.457978e+00 -2.203488e+00 4.102241e+00 -4.164845e+00 -1.363398e+01 -2.370182e+00 7.214583e+00 -3.430743e+00 5.821683e-01 -4.393453e+00 6.571875e+00 1.009531e+02 -7.345810e+00 2.867718e+00 -2.133771e+00 -1.614814e+00 -7.733873e-01 3.219147e-01 1.501898e+00 1.161175e+00 -2.680859e-01 -1.432935e-01 5.367866e-01 1.096281e+00 2.482912e+00 1.552752e+00 1.069965e-01 -2.923998e-01 -3.081855e-02 4.097208e-01 9.358572e-01 -2.758211e-01 -6.792153e-01 -2.810309e-01 3.052947e-01 3.054054e-02 -3.146231e-01 -1.290204e+00
<VARIANCE> 39
 2.405833e+02 1.907226e+02 2.035592e+02 2.595547e+02 4.010238e+02 3.233297e+02 2.417672e+02 2.058762e+02 1.946484e+02 1.743049e+02 1.799728e+02 1.411967e+02 3.834731e+02 3.057113e+01 1.535680e+01 2.642080e+01 1.872354e+01 1.916714e+01 1.996931e+01 1.979815e+01 1.779562e+01 1.767900e+01 1.609946e+01 1.505122e+01 1.357231e+01 2.805285e+01 5.043007e+00 3.306414e+00 2.880754e+00 3.393619e+00 4.194552e+00 4.516170e+00 3.826745e+00 3.875130e+00 3.804353e+00 3.331953e+00 3.228122e+00 2.724793e+00 3.766906e+00
<GCONST> 1.976425e+02
<MIXTURE> 3 2.994636e-01
<MEAN> 39
 -4.257246e+01 6.139569e+00 1.043681e+00 7.786166e+00 -4.672553e-01 -7.411901e+00 1.079877e+00 7.440273e+00 -3.034262e+00 2.309336e+00 -2.423924e+00 5.890951e+00 1.055547e+02 -9.502477e+00 6.163737e-01 -5.835624e+00 -3.193602e+00 -2.720912e+00 -1.105839e+00 -7.406719e-01 2.132295e-01 -1.572342e+00 -7.190231e-01 1.949870e-01 -1.379705e-01 1.510628e+00 2.213616e+00 -4.298571e-01 -7.215551e-02 -5.183533e-01 -2.386418e-01 1.928400e-01 -6.445282e-01 -1.089422e+00 -3.673393e-01 1.551021e-01 -3.688402e-01 6.710301e-03 -7.813578e-01
<VARIANCE> 39
 2.073452e+02 2.604969e+02 2.357603e+02 3.086161e+02 3.806808e+02 3.959692e+02 3.096056e+02 2.161207e+02 1.974160e+02 1.712215e+02 1.891338e+02 1.467211e+02 2.861113e+02 3.125681e+01 2.012271e+01 4.600374e+01 2.182394e+01 2.207480e+01 2.289351e+01 2.509552e+01 2.185649e+01 2.029378e+01 1.872408e+01 1.743738e+01 1.894454e+01 2.386323e+01 4.909881e+00 4.557788e+00 3.918105e+00 4.967221e+00 5.010211e+00 6.237424e+00 5.177577e+00 4.489264e+00 4.508138e+00 3.819773e+00 4.083613e+00 3.506630e+00 2.992172e+00
<GCONST> 2.031884e+02
<MIXTURE> 4 1.603805e-01
<MEAN> 39
 -2.140463e+01 8.478581e+00 2.181118e+01 1.229473e+01 1.067889e+01 -6.777961e+00 -2.896876e+00 4.214328e+00 -3.372502e+00 1.733160e+00 -7.215278e+00 2.359701e+00 1.075148e+02 -1.290631e+01 2.566686e+00 -5.115588e+00 -1.387069e+00 -4.144356e-01 -3.400111e-01 1.771716e+00 2.030552e+00 1.422742e+00 -7.000539e-01 7.788290e-01 4.097798e-01 -4.009647e-01 -3.002720e-01 -1.019310e+00 -2.191241e+00 -1.981586e+00 -1.032845e+00 -3.662271e-01 -7.399852e-01 -2.151220e-01 -8.690665e-01 3.439783e-01 4.057716e-01 1.970954e-01 3.103801e-01
<VARIANCE> 39
 3.510627e+02 2.754589e+02 3.649320e+02 3.726218e+02 3.465877e+02 3.022888e+02 4.119230e+02 3.528416e+02 3.206408e+02 2.960227e+02 2.483717e+02 2.979055e+02 4.634034e+02 7.593243e+01 2.417840e+01 5.604677e+01 5.026443e+01 3.937461e+01 5.740060e+01 3.777643e+01 4.067412e+01 4.672702e+01 3.236049e+01 3.119753e+01 3.337570e+01 3.061136e+01 7.864141e+00 6.064371e+00 6.213259e+00 7.008126e+00 6.759083e+00 6.919295e+00 7.121806e+00 7.072957e+00 6.461749e+00 6.472465e+00 5.257953e+00 5.168526e+00 2.307001e+00
<GCONST> 2.187193e+02
<STATE> 3
<NUMMIXES> 4
<MIXTURE> 1 2.567713e-01
<MEAN> 39
 -5.721930e+01 6.664417e+00 -6.736476e+00 -4.036294e+00 8.208475e-03 -1.764511e+01 -3.819837e+00 7.013165e+00 -5.273917e+00 -6.307446e-01 -7.280065e+00 7.706219e+00 1.106009e+02 -1.669415e+00 2.499085e+00 -1.634862e+00 -4.003642e-01 8.755049e-01 2.467842e+00 1.481821e+00 5.543205e-02 8.825208e-02 1.084337e+00 7.365688e-01 2.353937e-01 -2.206881e-01 2.210718e+00 -7.709283e-01 3.975852e-01 7.553664e-01 5.003229e-01 6.561078e-01 -1.933011e-01 -3.370755e-01 2.845322e-01 5.667088e-01 1.922392e-01 -3.865024e-01 -7.789676e-01
<VARIANCE> 39
 1.222529e+02 1.325655e+02 1.716252e+02 2.911801e+02 3.885910e+02 2.676117e+02 2.083146e+02 2.053235e+02 1.648497e+02 1.586421e+02 1.669654e+02 1.408322e+02 1.852959e+02 1.240519e+01 9.302583e+00 9.900358e+00 1.252686e+01 1.224736e+01 1.615471e+01 1.483350e+01 1.529932e+01 1.393029e+01 1.340250e+01 1.281167e+01 1.151097e+01 1.011850e+01 2.370767e+00 1.781206e+00 2.161541e+00 2.514550e+00 3.111769e+00 2.874245e+00 3.174162e+00 3.422273e+00 2.792097e+00 2.846928e+00 2.516143e+00 2.416153e+00 1.657046e+00
<GCONST> 1.847756e+02
<MIXTURE> 2 1.988478e-01
<MEAN> 39
 -5.335527e+01 1.175789e+01 -1.422290e+01 3.987118e+00 -6.497191e+00 -6.317196e+00 5.633374e-01 2.069870e+00 -6.352707e+00 2.765521e+00 3.976401e-03 5.098221e+00 1.081570e+02 -3.366549e+00 -7.087762e-01 -5.216375e+00 -1.052140e+00 -2.376267e+00 -4.227683e-01 -2.045349e+00 -4.969020e-01 -4.846153e-01 1.412028e-01 -7.451876e-02 3.271887e-01 -3.185498e-01 3.023470e+00 -2.630842e-01 2.410898e+00 8.338729e-01 7.432806e-01 4.651458e-01 1.733400e-01 -2.361444e-02 1.530357e-01 -2.192308e-02 -6.333530e-01 1.650306e-01 -6.701833e-02
<VARIANCE> 39
 1.215769e+02 1.443940e+02 1.706571e+02 2.504336e+02 3.029351e+02 2.510876e+02 1.777240e+02 1.618632e+02 1.589135e+02 1.525794e+02 1.558931e+02 1.252573e+02 1.527206e+02 1.527777e+01 1.440540e+01 1.581925e+01 1.854554e+01 1.573661e+01 1.986976e+01 1.703553e+01 1.588354e+01 1.510560e+01 1.399056e+01 1.327816e+01 1.285460e+01 8.511016e+00 2.378452e+00 2.594864e+00 3.018787e+00 3.398009e+00 3.165184e+00 3.140121e+00 3.673389e+00 3.656825e+00 3.406142e+00 3.180511e+00 2.939899e+00 3.046147e+00 1.403191e+00
<GCONST> 1.876353e+02
<MIXTURE> 3 3.809541e-01
<MEAN> 39
 -5.678601e+01 5.835701e+00 -6.060843e+00 -5.170720e+00 4.137825e-01 -1.724197e+01 -4.234902e+00 5.339749e+00 -4.485815e+00 -7.459535e-02 -7.623070e+00 7.448910e+00 1.080055e+02 -2.435979e+00 2.378023e+00 -2.196343e+00 -1.130190e+00 5.908794e-02 1.518061e+00 4.535200e-01 -8.318453e-01 -9.263324e-01 -1.995305e-01 -2.349651e-01 -2.670833e-01 6.786566e-01 2.120504e+00 -7.639525e-01 6.874960e-02 6.024241e-01 3.141551e-01 4.707077e-01 -3.425427e-01 -3.399554e-01 1.136212e-01 4.129588e-01 1.623688e-01 -4.144060e-01 -8.635372e-01
<VARIANCE> 39
 1.134050e+02 1.251878e+02 1.673333e+02 2.890049e+02 3.875840e+02 2.511072e+02 2.119378e+02 2.073076e+02 1.770918e+02 1.583077e+02 1.672437e+02 1.402331e+02 1.854114e+02 1.014089e+01 8.042254e+00 7.961679e+00 1.053264e+01 1.089014e+01 1.453972e+01 1.406123e+01 1.387827e+01 1.296173e+01 1.288225e+01 1.243898e+01 1.137187e+01 1.068613e+01 1.934781e+00 1.441088e+00 1.763258e+00 2.185042e+00 2.916825e+00 2.729933e+00 2.917011e+00 3.157255e+00 2.709498e+00 2.670644e+00 2.468840e+00 2.363874e+00 1.456563e+00
<GCONST> 1.821234e+02
<MIXTURE> 4 1.634236e-01
<MEAN> 39
 -5.235549e+01 1.210611e+01 -1.158780e+01 5.134358e+00 -3.691078e+00 -4.108299e+00 2.646900e+00 3.381549e+00 -5.285543e+00 2.883450e+00 -2.095809e-01 5.602527e+00 1.088229e+02 -5.246106e+00 -2.511518e+00 -7.253262e+00 -3.396432e+00 -3.986000e+00 -1.956748e+00 -3.690216e+00 -1.791352e+00 -1.821324e+00 -6.987236e-01 -7.580884e-01 -5.975801e-01 -4.627377e-01 3.445816e+00 -4.174536e-01 2.305105e+00 4.498238e-01 2.485313e-01 -1.216883e-01 -3.221888e-01 -5.788569e-01 -9.235158e-03 -8.151483e-02 -7.667214e-01 1.874410e-01 1.652919e-02
<VARIANCE> 39
 1.091291e+02 1.380951e+02 1.681589e+02 2.461782e+02 3.094708e+02 2.667508e+02 1.941605e+02 1.680858e+02 1.690600e+02 1.462595e+02 1.551528e+02 1.287282e+02 1.414536e+02 1.464738e+01 1.531836e+01 1.929007e+01 1.535118e+01 1.513868e+01 1.898592e+01 1.753664e+01 1.619912e+01 1.446818e+01 1.546679e+01 1.381246e+01 1.424035e+01 9.012889e+00 2.546465e+00 2.443128e+00 3.178820e+00 3.416314e+00 3.181722e+00 3.639557e+00 3.760876e+00 3.625094e+00 3.863972e+00 3.270142e+00 3.216777e+00 3.486771e+00 1.239447e+00
<GCONST> 1.883613e+02
<STATE> 4
<NUMMIXES> 4
<MIXTURE> 1 1.705926e-01
<MEAN> 39
 -5.084641e+01 4.541509e+00 -1.719624e+01 4.248870e+00 -1.207796e+01 -3.588552e+00 -3.904055e+00 2.905772e+00 -7.640825e+00 2.118968e+00 -2.077638e+00 6.573722e+00 1.071248e+02 2.520248e+00 1.667448e-01 2.210634e+00 2.096732e-01 3.448324e-01 4.059514e-01 9.994063e-01 5.088068e-01 8.448967e-01 5.320820e-01 2.845483e-01 6.010823e-01 4.605820e-01 2.709381e+00 1.425786e-01 2.305300e+00 6.613929e-01 5.188653e-01 -5.020813e-01 -1.873997e-02 -1.879358e-01 3.792948e-01 4.185237e-02 -2.424085e-01 2.568351e-01 4.565402e-01
<VARIANCE> 39
 1.091472e+02 1.284260e+02 1.228487e+02 1.863739e+02 2.449126e+02 2.614854e+02 1.430094e+02 1.351461e+02 1.376215e+02 1.315683e+02 1.400000e+02 1.212317e+02 1.463543e+02 1.276758e+01 8.985629e+00 1.089276e+01 1.021823e+01 1.232813e+01 1.286224e+01 1.260439e+01 1.278858e+01 1.241927e+01 1.277731e+01 1.246974e+01 1.136304e+01 6.977232e+00 3.050041e+00 1.878898e+00 2.602605e+00 1.972638e+00 2.325359e+00 3.112878e+00 3.010047e+00 2.685031e+00 2.591355e+00 2.853959e+00 2.443443e+00 2.626751e+00 1.634198e+00
<GCONST> 1.800987e+02
<MIXTURE> 2 3.614535e-01
<MEAN> 39
 -5.447952e+01 7.464808e+00 -1.601741e+01 3.091033e+00 -6.445065e+00 -6.042665e+00 -4.318295e+00 3.242271e+00 -6.647827e+00 2.446611e+00 -4.067262e+00 5.953920e+00 1.069890e+02 1.416353e-01 4.598049e-02 6.445610e-02 1.099022e-01 2.158875e-01 5.520194e-01 3.249791e-01 2.397573e-01 3.490228e-01 4.048068e-01 2.259367e-01 1.931100e-01 3.730541e-01 5.524876e-01 -7.595404e-02 5.847882e-01 2.963907e-02 6.812355e-02 -8.934246e-02 1.660554e-01 9.048811e-02 1.638297e-01 2.072220e-02 6.788252e-02 7.357390e-02 8.773068e-02
<VARIANCE> 39
 1.108333e+02 1.239720e+02 1.378557e+02 2.458278e+02 2.854568e+02 2.683908e+02 1.424501e+02 1.276146e+02 1.324414e+02 1.155371e+02 1.271742e+02 1.091497e+02 1.689428e+02 1.873183e+00 3.497016e+00 4.127548e+00 5.526489e+00 6.504740e+00 8.070655e+00 8.680304e+00 9.303694e+00 9.278347e+00 9.554983e+00 9.002158e+00 8.747499e+00 2.139329e+00 6.644353e-01 8.365408e-01 9.715288e-01 1.160274e+00 1.385923e+00 1.693060e+00 1.878563e+00 1.957911e+00 1.938455e+00 1.962733e+00 1.905062e+00 1.802711e+00 3.959895e-01
<GCONST> 1.632962e+02
<MIXTURE> 3 2.504020e-01
<MEAN> 39
 -5.364098e+01 6.371225e+00 -1.495798e+01 3.083915e+00 -6.110231e+00 -4.948417e+00 -4.810752e+00 3.253952e+00 -6.111887e+00 3.164848e+00 -3.768184e+00 5.768220e+00 1.046364e+02 -1.280036e-01 -3.610423e-01 -4.215978e-01 -5.735551e-01 -3.833522e-01 -1.421888e-01 -6.799345e-01 -7.420004e-01 -5.979320e-01 -3.607818e-01 -4.843255e-01 -3.593988e-01 1.599117e-01 3.490936e-01 -2.417419e-01 2.821247e-01 -1.489420e-01 -1.924886e-01 -3.465894e-01 -5.188526e-02 -2.839507e-02 -7.918818e-04 -1.283761e-01 -3.203505e-02 3.573081e-02 5.038005e-02
<VARIANCE> 39
 1.085852e+02 1.275183e+02 1.457943e+02 2.500642e+02 2.908790e+02 2.705869e+02 1.495854e+02 1.325569e+02 1.413974e+02 1.211104e+02 1.331277e+02 1.137498e+02 1.636113e+02 1.896918e+00 3.648987e+00 4.234659e+00 5.757689e+00 6.844129e+00 8.357499e+00 9.169034e+00 9.823463e+00 9.702496e+00 9.679244e+00 9.499924e+00 9.189752e+00 2.091732e+00 4.924516e-01 7.640469e-01 8.685054e-01 1.151699e+00 1.387664e+00 1.679866e+00 1.920609e+00 2.001445e+00 2.015479e+00 2.010962e+00 1.934107e+00 1.857018e+00 3.643247e-01
<GCONST> 1.636658e+02
<MIXTURE> 4 2.175113e-01
<MEAN> 39
 -4.930902e+01 4.963302e+00 -1.595730e+01 5.260176e+00 -1.027443e+01 -3.858998e+00 -3.910318e+00 3.248758e+00 -6.817387e+00 2.485618e+00 -2.457710e+00 6.515040e+00 1.031335e+02 1.446167e+00 -9.565992e-01 4.890405e-01 -5.642923e-01 -8.877920e-02 -2.042240e-01 -5.072788e-01 -4.963601e-01 -1.420611e-01 -1.955973e-01 -5.967960e-01 -3.465227e-01 -6.185197e-01 1.402312e+00 -2.016772e-01 1.150811e+00 1.319266e-01 2.660233e-01 -3.584119e-01 -5.983098e-02 -9.240603e-02 1.988169e-01 -4.526953e-02 -1.619660e-01 -2.128055e-02 -1.449904e-01
<VARIANCE> 39
 1.417728e+02 1.436799e+02 1.553297e+02 2.175999e+02 2.791644e+02 2.613552e+02 1.566084e+02 1.463827e+02 1.522675e+02 1.441909e+02 1.466286e+02 1.283494e+02 1.874531e+02 9.532070e+00 7.907451e+00 8.684404e+00 9.526739e+00 1.244030e+01 1.460072e+01 1.233075e+01 1.266846e+01 1.236769e+01 1.282048e+01 1.224631e+01 1.142679e+01 1.287164e+01 2.435791e+00 1.824409e+00 2.389088e+00 2.069464e+00 2.294178e+00 2.827298e+00 2.749608e+00 2.595389e+00 2.573773e+00 2.646075e+00 2.458805e+00 2.353944e+00 2.020085e+00
<GCONST> 1.811935e+02
<TRANSP> 5
 0.000000e+00 1.000000e+00 0.000000e+00 0.000000e+00 0.000000e+00
 0.000000e+00 5.307606e-01 4.692394e-01 0.000000e+00 0.000000e+00
 0.000000e+00 0.000000e+00 5.466205e-01 4.533795e-01 0.000000e+00
 0.000000e+00 0.000000e+00 0.000000e+00 8.378442e-01 1.621558e-01
 0.000000e+00 0.000000e+00 0.000000e+00 0.000000e+00 0.000000e+00
<ENDHMM>
~h "t"
<BEGINHMM>
<NUMSTATES> 5
<STATE> 2
<NUMMIXES> 4
<MIXTURE> 1 1.810921e-01
<MEAN> 39
 1.149398e+00 8.375858e+00 4.384706e+01 2.252886e+01 3.063342e-01 -5.815432e-02 1.732604e+00 2.067331e+00 -1.031733e+01 3.162591e+00 -2.936039e+00 1.396511e+00 9.051456e+01 -2.316211e+00 5.344499e+00 -8.965677e+00 4.891933e+00 3.923229e+00 2.342921e+00 2.186137e+00 2.481939e+00 5.531229e+00 2.921111e-02 1.948402e+00 9.400272e-01 -1.250470e+01 -1.306080e+00 -8.678559e-01 -1.234235e+00 -2.745345e+00 -2.626165e-01 -1.301168e-01 -7.239199e-01 -7.482418e-01 -2.228039e-01 6.961932e-02 -1.747441e-01 5.594401e-02 5.239074e-01
<VARIANCE> 39
 2.064171e+02 3.416068e+02 4.137585e+02 3.377585e+02 2.987721e+02 3.085940e+02 3.656939e+02 3.334217e+02 3.630913e+02 2.400270e+02 2.208177e+02 2.459805e+02 5.113698e+02 2.020840e+01 3.150130e+01 6.157088e+01 4.189060e+01 3.442538e+01 4.091933e+01 3.583005e+01 4.478790e+01 5.219347e+01 3.481381e+01 3.088590e+01 3.227875e+01 4.550362e+01 2.646299e+00 7.111075e+00 6.615695e+00 6.636100e+00 6.112006e+00 5.453338e+00 6.338259e+00 5.257661e+00 6.453393e+00 4.577576e+00 4.179797e+00 4.011223e+00 1.137369e+01
<GCONST> 2.158824e+02
<MIXTURE> 2 2.937766e-01
<MEAN> 39
 -2.347236e+01 8.440643e+00 4.705652e+00 7.156646e+00 -1.227105e-01 -1.092960e+00 -4.409629e+00 -2.634025e+00 -3.100465e+00 1.048355e+00 9.164587e-01 2.982589e+00 4.978577e+01 -2.085022e+00 -2.581129e+00 -3.297016e+00 -2.807150e+00 -3.961971e-01 -4.865730e-01 2.528131e-01 1.189831e+00 1.412998e+00 1.321608e+00 1.645829e+00 8.789103e-01 1.281337e+00 4.615219e-01 -3.577434e-01 2.057795e+00 -4.771231e-01 -2.013482e-01 -1.252667e-01 3.787808e-01 -3.224385e-01 -6.722538e-01 1.148891e-02 -7.041899e-01 -4.350268e-02 4.655509e+00
<VARIANCE> 39
 5.794452e+01 6.052391e+01 8.250819e+01 9.000731e+01 9.753918e+01 1.163595e+02 1.361829e+02 1.347060e+02 1.196136e+02 1.112269e+02 9.823759e+01 8.554384e+01 3.266145e+01 1.569105e+01 1.490620e+01 3.200035e+01 1.910446e+01 1.538189e+01 1.553255e+01 1.836596e+01 2.016610e+01 1.895642e+01 1.564387e+01 1.634976e+01 1.355713e+01 7.546403e+01 2.605071e+00 3.027745e+00 4.929181e+00 3.513083e+00 3.287867e+00 3.512734e+00 3.887294e+00 4.244002e+00 4.181310e+00 3.253212e+00 3.021131e+00 2.818104e+00 7.852777e+00
<GCONST> 1.855828e+02
<MIXTURE> 3 2.695085e-01
<MEAN> 39
 -2.376710e+01 8.330020e+00 4.172341e+00 7.368062e+00 9.051539e-01 6.957004e-01 -2.435364e+00 -4.851930e-01 -7.105781e-01 2.880945e+00 1.890195e+00 2.932464e+00 4.932482e+01 -2.670020e+00 -4.316755e+00 -2.783380e+00 -5.251100e+00 -1.916820e+00 -2.503657e+00 -2.232260e+00 -1.498671e+00 -1.510967e+00 -8.667238e-01 -3.755752e-01 -2.543395e-01 5.880060e+00 -6.659216e-02 -2.676539e-01 1.701036e+00 -6.845858e-01 -4.688890e-01 -7.572948e-01 2.107633e-01 -3.164337e-01 -1.101594e+00 -1.726104e-01 -6.476357e-01 1.300764e-01 5.521128e+00
<VARIANCE> 39
 5.364449e+01 5.667183e+01 7.513210e+01 8.349998e+01 9.836056e+01 1.133074e+02 1.258610e+02 1.204504e+02 1.055127e+02 1.007134e+02 9.279932e+01 8.124690e+01 3.020683e+01 1.708307e+01 1.747360e+01 3.055519e+01 1.924808e+01 1.771915e+01 1.713036e+01 1.804948e+01 1.642178e+01 1.585077e+01 1.355429e+01 1.290017e+01 1.145576e+01 1.082633e+02 2.607412e+00 3.092976e+00 4.155182e+00 3.171274e+00 3.449554e+00 3.533776e+00 3.615545e+00 3.896945e+00 3.703578e+00 2.938716e+00 2.810138e+00 2.473928e+00 7.808232e+00
<GCONST> 1.837199e+02
<MIXTURE> 4 2.555905e-01
<MEAN> 39
 -7.268576e+00 1.798050e+01 2.861628e+01 2.107663e+01 5.749671e+00 4.197742e+00 4.959662e-01 -4.061588e+00 -7.636932e+00 -1.925557e+00 -7.547369e+00 -9.319013e-01 7.005752e+01 -5.013811e+00 -4.051322e-01 -9.769217e+00 -7.708321e-01 7.527996e-01 -9.715514e-02 -1.023168e+00 1.572646e+00 8.290460e-01 -7.640462e-01 1.979433e+00 -7.815843e-01 -8.507581e+00 -6.876201e-01 -2.234220e+00 3.826176e-01 -3.182503e+00 -1.257051e+00 -9.775432e-01 -6.290929e-01 -6.359665e-01 -2.449558e-01 6.074293e-01 2.440218e-01 7.848539e-01 3.429509e+00
<VARIANCE> 39
 2.173810e+02 2.516091e+02 2.672126e+02 2.544389e+02 2.803299e+02 2.576767e+02 3.207690e+02 3.618702e+02 3.060107e+02 2.694267e+02 2.236620e+02 1.990377e+02 2.322437e+02 2.592115e+01 3.173297e+01 5.577198e+01 4.483700e+01 2.888791e+01 3.023004e+01 3.174796e+01 4.163541e+01 4.022482e+01 2.873816e+01 2.580685e+01 2.613792e+01 6.751358e+01 4.150102e+00 6.964676e+00 7.601952e+00 6.480072e+00 6.421860e+00 6.281632e+00 6.643881e+00 7.401818e+00 9.105412e+00 6.175079e+00 5.287406e+00 5.045013e+00 1.057775e+01
<GCONST> 2.148354e+02
<STATE> 3
<NUMMIXES> 4
<MIXTURE> 1 2.167208e-01
<MEAN> 39
 -3.955473e+01 8.714700e+00 6.261406e+00 -1.031787e+01 -6.229666e+00 -1.157429e+01 -3.638954e-02 -6.025337e+00 -1.435890e+01 2.373844e+00 -4.032136e-01 5.409013e+00 1.177780e+02 -3.544158e+00 2.092067e+00 2.035020e+00 1.192026e+00 -2.357494e+00 -1.503992e+00 3.810840e+00 1.497621e+00 -7.261247e-03 9.309345e-01 7.509024e-01 2.747483e+00 4.319397e+00 2.492878e+00 -7.895951e-01 1.642714e+00 2.004837e+00 7.619500e-02 8.837888e-01 4.968775e-01 5.626357e-01 1.181202e+00 4.143406e-02 -2.663068e-01 1.306227e-01 -4.678364e+00
<VARIANCE> 39
 3.444066e+02 1.498729e+02 2.696871e+02 2.115387e+02 1.794876e+02 1.918968e+02 2.314926e+02 2.548682e+02 1.975043e+02 1.958954e+02 1.677725e+02 1.543837e+02 5.080722e+02 1.947113e+01 1.865781e+01 2.043919e+01 2.127471e+01 1.798805e+01 2.388441e+01 2.111113e+01 2.585019e+01 2.060713e+01 1.840632e+01 2.144266e+01 1.697006e+01 5.998186e+01 4.459905e+00 3.811998e+00 5.018042e+00 5.390538e+00 3.969264e+00 3.843712e+00 4.338939e+00 4.330294e+00 4.426771e+00 4.122553e+00 3.483080e+00 3.310021e+00 1.541943e+01
<GCONST> 2.020072e+02
<MIXTURE> 2 2.742417e-01
<MEAN> 39
 -2.746420e+01 -7.719421e+00 5.595694e+00 -9.428527e+00 -1.101464e+00 -4.435197e+00 -6.377248e+00 -2.583433e+00 -6.227641e+00 1.336335e+00 -7.964819e-01 1.561150e+00 8.911240e+01 -3.675137e+00 -5.590617e-01 5.905557e-01 -3.625092e+00 -6.407642e-01 -2.181639e+00 1.312309e+00 2.406003e-01 -2.169792e+00 3.480626e-01 -5.843887e-01 9.603601e-01 1.780138e+01 -4.039421e-01 2.042894e+00 9.687627e-01 1.813583e+00 -3.949680e-01 -1.262596e-01 1.162048e+00 2.383329e-01 -4.610943e-02 2.114690e-01 -1.253011e-01 4.905597e-01 -6.515695e-01
<VARIANCE> 39
 8.083717e+01 1.510171e+02 1.446834e+02 1.999216e+02 1.506830e+02 1.362690e+02 1.409975e+02 1.310868e+02 1.154041e+02 9.879784e+01 9.035443e+01 8.675912e+01 1.121608e+03 1.783705e+01 1.641046e+01 2.149604e+01 1.517573e+01 1.719229e+01 1.980886e+01 2.053777e+01 2.235773e+01 1.867469e+01 1.749784e+01 1.688179e+01 1.339899e+01 6.807062e+01 2.855525e+00 2.488264e+00 3.423568e+00 3.856808e+00 3.692286e+00 3.502927e+00 3.296168e+00 3.329152e+00 3.095958e+00 2.656971e+00 2.760724e+00 2.591228e+00 1.846955e+01
<GCONST> 1.917906e+02
<MIXTURE> 3 2.181652e-01
<MEAN> 39
 -2.597484e+01 -1.118837e+01 8.382028e+00 -9.829886e+00 -9.725344e-01 -3.180408e+00 -5.123749e+00 -2.055532e+00 -7.612682e+00 5.591319e-01 -2.241210e+00 1.485128e+00 9.522528e+01 -5.052312e+00 -1.963233e+00 -6.131858e-01 -5.501107e+00 -2.516048e+00 -4.394393e+00 -1.593605e+00 -1.340667e+00 -3.853650e+00 -1.526111e+00 -1.618169e+00 3.217164e-01 1.679082e+01 -3.224295e-01 2.234027e+00 1.021449e+00 1.913960e+00 -4.118437e-01 -4.482709e-01 8.148164e-01 2.693775e-01 -2.808763e-02 2.071891e-01 -9.614162e-02 5.408167e-01 -1.103304e+00
<VARIANCE> 39
 1.152744e+02 1.717750e+02 1.939491e+02 2.050912e+02 1.665254e+02 1.700262e+02 1.551809e+02 1.523760e+02 1.246832e+02 1.283910e+02 1.021758e+02 9.531738e+01 7.916832e+02 2.028286e+01 2.307298e+01 3.061976e+01 1.661833e+01 2.099960e+01 2.338530e+01 2.532958e+01 2.213764e+01 1.944354e+01 2.112189e+01 1.732299e+01 1.403703e+01 6.279897e+01 3.117077e+00 2.925775e+00 4.351752e+00 4.147985e+00 3.984622e+00 4.115876e+00 3.857414e+00 3.871078e+00 3.439897e+00 3.095428e+00 3.073609e+00 2.881480e+00 1.381334e+01
<GCONST> 1.963573e+02
<MIXTURE> 4 2.908571e-01
<MEAN> 39
 -4.168023e+01 7.219428e+00 2.160630e+00 -1.327083e+01 -4.920913e+00 -1.283123e+01 1.449288e-01 -7.446517e+00 -1.390046e+01 3.024485e+00 -1.022624e+00 4.447806e+00 1.228194e+02 -5.191946e+00 2.101225e+00 1.416072e+00 -6.024147e-01 -3.511946e+00 -2.896643e+00 2.319693e+00 -3.035429e-01 -2.112068e+00 -2.321383e-02 1.943986e-01 1.989023e+00 7.752796e+00 1.920546e+00 -6.308612e-01 1.421948e+00 2.106785e+00 -3.418311e-01 7.819082e-01 2.640607e-01 7.222282e-01 9.612544e-01 -8.210066e-02 2.644764e-02 2.281121e-01 -5.683339e+00
<VARIANCE> 39
 1.746292e+02 1.360563e+02 2.198049e+02 1.418546e+02 1.773923e+02 1.735000e+02 1.943286e+02 2.165173e+02 1.856405e+02 1.796254e+02 1.620685e+02 1.478299e+02 2.130007e+02 1.442451e+01 1.701230e+01 1.727015e+01 1.721758e+01 1.575628e+01 2.229916e+01 2.041397e+01 2.095554e+01 1.729426e+01 1.750569e+01 1.907241e+01 1.486599e+01 6.463924e+01 3.450644e+00 3.467790e+00 3.531470e+00 4.174259e+00 3.844748e+00 3.397750e+00 3.969215e+00 3.595065e+00 3.999818e+00 3.754968e+00 3.429837e+00 3.326287e+00 7.103630e+00
<GCONST> 1.950945e+02
<STATE> 4
<NUMMIXES> 4
<MIXTURE> 1 2.098550e-01
<MEAN> 39
 -3.857288e+01 -2.894207e+00 1.994856e+01 -4.470250e+00 -1.545755e+01 -1.242204e+01 8.610192e+00 -1.245600e+00 -1.203933e+01 2.570581e+00 -7.373012e-01 1.032875e+01 1.173106e+02 9.903182e+00 -4.635727e-01 7.969169e+00 5.705604e+00 1.533600e+00 1.045200e+00 1.492837e+00 1.445167e+00 1.291740e+00 -3.012630e-02 -1.221889e+00 2.924193e-01 -1.354941e+00 3.063061e+00 3.070395e-01 1.213438e+00 5.631116e-02 1.396189e+00 -2.331229e-01 -1.307986e+00 -4.541453e-01 -2.136772e-01 2.333397e-01 -3.664169e-01 -3.546285e-01 1.124078e+00
<VARIANCE> 39
 1.093095e+02 9.303761e+01 1.310687e+02 1.588497e+02 1.647896e+02 2.257618e+02 2.390099e+02 3.120225e+02 1.894416e+02 1.796614e+02 2.107596e+02 1.651071e+02 1.126110e+02 2.167447e+01 9.897787e+00 1.766007e+01 1.559131e+01 1.357502e+01 1.572538e+01 1.831623e+01 1.560037e+01 1.580687e+01 1.531056e+01 1.560298e+01 1.412081e+01 6.784036e+00 3.052757e+00 2.779371e+00 2.570514e+00 3.138953e+00 3.351897e+00 6.158526e+00 4.066132e+00 3.607413e+00 4.570128e+00 4.129897e+00 4.272172e+00 3.443617e+00 4.122710e+00
<GCONST> 1.899942e+02
<MIXTURE> 2 2.404325e-01
<MEAN> 39
 -2.233325e+01 -2.821276e+00 1.035803e+01 2.234677e+00 -8.937969e+00 -1.033090e+01 3.011999e+00 1.425922e+00 -6.153296e+00 -6.577576e-01 -3.396423e+00 6.678317e+00 8.800501e+01 1.522362e+00 -1.776172e-01 -4.688839e-02 1.287496e+00 1.354581e-01 8.606219e-01 1.188205e+00 1.837599e+00 1.674070e+00 9.691294e-01 -1.827015e-01 2.663729e-01 -8.113137e-01 4.717046e-01 4.723657e-01 3.349354e-01 2.319236e-01 5.342342e-01 5.127964e-01 8.487395e-02 2.338453e-02 1.798780e-01 1.933376e-01 7.670899e-03 -2.644075e-01 -3.010184e-01
<VARIANCE> 39
 3.159078e+02 1.811716e+02 2.560590e+02 2.058782e+02 2.109193e+02 2.791241e+02 2.790450e+02 3.016281e+02 2.137556e+02 1.921102e+02 2.280347e+02 1.734141e+02 6.303181e+02 2.409188e+01 1.484475e+01 1.852922e+01 1.931662e+01 1.947706e+01 2.049572e+01 1.865637e+01 2.294251e+01 1.990991e+01 1.733700e+01 1.800931e+01 1.659495e+01 3.765881e+01 4.302852e+00 2.998783e+00 4.233312e+00 3.158627e+00 3.252925e+00 3.787124e+00 3.773604e+00 4.058823e+00 3.820119e+00 3.527269e+00 3.279154e+00 2.960192e+00 7.643380e+00
<GCONST> 1.997621e+02
<MIXTURE> 3 2.358927e-01
<MEAN> 39
 -2.329702e+01 -7.393434e+00 1.052427e+01 -8.560038e-01 -1.081533e+01 -1.327143e+01 6.681971e+00 4.772103e+00 -7.216223e+00 -2.118778e+00 -2.332152e+00 8.320018e+00 8.830634e+01 1.735993e+00 -1.085455e+00 -1.271448e+00 2.844076e-01 -5.674008e-01 -1.665932e-01 -1.244844e+00 9.638799e-01 3.459279e-01 -7.736484e-01 -9.252360e-01 -5.336072e-01 -3.185835e+00 1.272005e-01 6.054540e-01 -2.945474e-01 1.193852e-01 4.386529e-01 4.368757e-01 -3.243628e-01 -2.784062e-01 1.137330e-01 1.415428e-01 7.790184e-02 -4.184853e-01 -3.934942e-01
<VARIANCE> 39
 1.999355e+02 1.125564e+02 2.058484e+02 1.699906e+02 2.031724e+02 2.803490e+02 2.876580e+02 3.276657e+02 2.359331e+02 2.051379e+02 2.791354e+02 2.035886e+02 4.647062e+02 1.649577e+01 1.018646e+01 1.346302e+01 1.327491e+01 1.953722e+01 1.805563e+01 1.743209e+01 2.098112e+01 1.877915e+01 1.626579e+01 1.655194e+01 1.584027e+01 1.879223e+01 2.821999e+00 1.930802e+00 3.093574e+00 2.733091e+00 2.957213e+00 3.342573e+00 3.496705e+00 3.953512e+00 3.773009e+00 3.427383e+00 3.571074e+00 3.179876e+00 4.546418e+00
<GCONST> 1.939951e+02
<MIXTURE> 4 3.137963e-01
<MEAN> 39
 -4.542942e+01 1.546153e+00 1.618971e+01 -7.489399e+00 -1.033615e+01 -1.534599e+01 6.264151e+00 1.119342e+00 -1.242277e+01 1.733808e+00 -2.469915e+00 1.046394e+01 1.204290e+02 4.465287e+00 -2.708526e+00 4.866768e+00 3.900200e+00 -1.406334e+00 -2.942252e-01 9.543824e-01 1.434807e+00 3.938461e-01 -6.917518e-01 -1.051602e+00 1.767815e-01 -2.126296e+00 3.724013e+00 -7.365028e-01 8.769004e-01 8.602484e-01 8.655493e-01 8.967052e-01 -1.209892e+00 -1.204249e-01 1.532043e-01 -7.608164e-02 -1.596160e-01 -9.318486e-01 -1.108194e+00
<VARIANCE> 39
 1.202535e+02 1.049474e+02 1.450336e+02 1.388899e+02 1.549623e+02 2.172346e+02 2.535131e+02 2.902276e+02 1.922088e+02 1.936429e+02 2.179496e+02 1.579700e+02 1.026744e+02 2.507586e+01 9.527672e+00 1.245771e+01 1.692436e+01 1.392224e+01 1.551044e+01 1.665752e+01 1.498654e+01 1.521658e+01 1.467955e+01 1.547960e+01 1.434838e+01 6.004139e+00 2.835658e+00 2.697317e+00 2.632839e+00 2.853025e+00 3.120626e+00 4.386303e+00 3.811386e+00 3.468326e+00 4.111869e+00 3.812904e+00 3.937931e+00 2.798525e+00 7.055657e+00
<GCONST> 1.889457e+02
<TRANSP> 5
 0.000000e+00 1.000000e+00 0.000000e+00 0.000000e+00 0.000000e+00
 0.000000e+00 7.904944e-01 2.095056e-01 0.000000e+00 0.000000e+00
 0.000000e+00 0.000000e+00 6.271223e-01 3.728777e-01 0.000000e+00
 0.000000e+00 0.000000e+00 0.000000e+00 6.978747e-01 3.021253e-01
 0.000000e+00 0.000000e+00 0.000000e+00 0.000000e+00 0.000000e+00
<ENDHMM>
~h "v"
<BEGINHMM>
<NUMSTATES> 5
<STATE> 2
<NUMMIXES> 4
<MIXTURE> 1 2.210732e-01
<MEAN> 39
 1.354325e+01 -2.597032e+01 1.284528e+01 -1.875401e+01 -1.090203e+01 -2.018757e+01 1.288121e+01 1.314808e+01 1.876755e+01 6.453345e+00 -3.998627e+00 1.170957e+01 1.431013e+02 1.918022e+00 3.085207e+00 2.003670e+00 3.433936e+00 1.032505e+00 -1.643083e+00 -3.880748e+00 -3.189107e+00 -4.628403e-01 2.218058e+00 -3.214126e-01 -2.053322e-01 -4.360691e+00 -3.166777e-01 1.381067e+00 2.380848e-01 2.334859e+00 2.005885e+00 1.873813e+00 -9.807260e-01 -9.719562e-01 -1.225578e+00 -1.251480e-02 -1.788361e-01 -2.461298e-01 -2.356472e+00
<VARIANCE> 39
 6.376089e+01 1.610542e+02 2.350637e+02 1.855612e+02 2.353589e+02 2.639042e+02 4.770810e+02 2.444746e+02 2.287500e+02 2.973153e+02 2.993760e+02 2.992937e+02 1.599526e+02 1.903003e+00 6.299943e+00 8.000234e+00 9.820516e+00 1.765024e+01 1.429297e+01 1.414060e+01 1.359168e+01 1.569775e+01 1.341986e+01 1.920431e+01 1.467785e+01 5.001119e+00 8.391662e-01 1.241251e+00 1.734399e+00 1.874975e+00 2.306930e+00 2.728781e+00 3.381353e+00 2.575979e+00 2.159073e+00 2.656827e+00 2.864555e+00 2.421757e+00 1.015645e+00
<GCONST> 1.810682e+02
<MIXTURE> 2 3.002816e-01
<MEAN> 39
 1.179803e+01 -2.822324e+01 1.445069e+01 -2.073153e+01 -1.226350e+01 -1.693101e+01 -2.000876e+00 1.452923e+01 1.470796e+01 1.324279e+01 -1.329599e+00 5.562683e+00 1.498240e+02 7.335187e-01 -8.880548e-01 -8.743684e-01 -1.984248e-01 7.827719e-01 7.358187e-01 3.298022e-01 8.443391e-03 -2.392081e-02 5.136174e-01 7.050592e-02 -7.116695e-01 -2.736843e-01 3.375055e-01 9.323474e-01 3.739007e-01 8.803458e-01 4.945342e-01 -1.721099e-01 -9.051721e-01 -1.169515e+00 -6.794127e-01 -2.506291e-02 8.904748e-02 3.017441e-01 -1.011364e+00
<VARIANCE> 39
 6.883121e+01 1.378319e+02 1.990229e+02 1.857396e+02 2.473449e+02 2.529049e+02 9.764459e+02 2.671064e+02 2.587626e+02 5.047166e+02 3.276638e+02 4.221464e+02 1.372764e+02 1.063130e+00 2.767706e+00 2.845309e+00 3.497852e+00 4.430517e+00 5.904696e+00 7.469274e+00 7.487642e+00 8.502042e+00 6.695124e+00 1.094992e+01 7.659317e+00 1.271738e+00 2.864386e-01 4.911641e-01 5.826672e-01 8.844045e-01 1.121004e+00 1.490053e+00 1.950720e+00 1.283151e+00 2.365297e+00 1.675205e+00 1.338283e+00 1.360431e+00 4.505710e-01
<GCONST> 1.627691e+02
<MIXTURE> 3 2.395288e-01
<MEAN> 39
 1.054910e+01 -2.749190e+01 1.782114e+01 -2.171438e+01 -1.006868e+01 -2.357045e+01 -5.648185e+00 1.204138e+01 1.495500e+01 1.705400e+01 -4.552840e+00 8.487579e+00 1.509946e+02 2.343755e-01 -1.927109e+00 -1.309308e+00 -1.197962e+00 5.776854e-01 1.334524e+00 1.709626e+00 1.323536e+00 3.546465e-01 6.081331e-01 2.870025e-01 -2.107591e+00 5.822333e-01 5.642935e-02 1.275632e+00 6.981537e-02 1.370272e+00 5.863756e-01 5.236941e-01 -7.120441e-01 -1.299376e+00 -1.132096e+00 -3.475176e-01 -4.964554e-02 -9.311092e-02 -1.417862e+00
<VARIANCE> 39
 6.923537e+01 1.342518e+02 2.204638e+02 2.151451e+02 2.705592e+02 2.362233e+02 9.060421e+02 2.854850e+02 2.900106e+02 5.139373e+02 3.172802e+02 3.790578e+02 1.230403e+02 1.643006e+00 3.853567e+00 3.771150e+00 4.892105e+00 6.228048e+00 6.970230e+00 9.760019e+00 9.903247e+00 9.416460e+00 7.669847e+00 1.297948e+01 8.654705e+00 1.939924e+00 7.369924e-01 7.200661e-01 8.857771e-01 1.322212e+00 1.277791e+00 1.682972e+00 2.897448e+00 1.440466e+00 2.022748e+00 1.773735e+00 1.709146e+00 1.677429e+00 7.565472e-01
<GCONST> 1.700690e+02
<MIXTURE> 4 2.390812e-01
<MEAN> 39
 1.445315e+01 -2.687860e+01 1.758087e+01 -1.543289e+01 -1.167093e+01 -2.277859e+01 -7.642829e+00 1.172219e+01 9.692116e+00 2.000867e+01 -8.376209e-01 9.433459e-01 1.440695e+02 1.462625e+00 2.319267e+00 2.088572e+00 2.930587e+00 1.286230e+00 -8.510869e-01 -2.556773e+00 -3.678191e+00 -3.510415e+00 9.449793e-02 1.686858e+00 4.491814e-01 -3.384728e+00 -3.699797e-03 9.583728e-01 -3.320608e-01 1.510277e+00 1.685916e+00 1.756079e+00 6.798074e-02 -8.671069e-01 -1.061957e+00 -7.273816e-01 -1.763616e-01 -3.572995e-01 -1.810263e+00
<VARIANCE> 39
 7.304276e+01 1.746134e+02 2.622693e+02 2.687732e+02 2.874440e+02 2.707094e+02 7.195537e+02 3.402112e+02 3.492756e+02 4.065296e+02 3.721758e+02 3.879733e+02 2.184227e+02 1.954596e+00 4.697863e+00 8.833912e+00 7.109263e+00 1.217527e+01 1.568709e+01 1.120215e+01 1.149429e+01 1.900302e+01 1.494942e+01 1.786376e+01 1.633266e+01 2.892386e+00 5.756683e-01 1.104107e+00 1.595736e+00 1.543842e+00 2.021616e+00 2.167938e+00 3.095717e+00 2.475215e+00 2.599213e+00 2.520530e+00 2.708726e+00 2.842701e+00 8.755485e-01
<GCONST> 1.816998e+02
<STATE> 3
<NUMMIXES> 4
<MIXTURE> 1 2.056768e-01
<MEAN> 39
 1.862217e+01 -1.673885e+01 1.664853e+01 -4.045761e+00 1.276110e+00 -2.167811e+01 1.176647e+00 2.342920e+00 1.847682e+01 1.186577e+01 -1.279681e+01 1.261246e+01 1.263927e+02 -7.056901e-01 7.338181e+00 2.293783e+00 1.008905e+01 6.970140e+00 6.743493e+00 -4.639535e+00 -4.307487e+00 -3.745508e+00 2.298697e+00 -1.267864e-02 -2.197678e+00 -1.094793e+01 -1.823837e+00 5.662891e-01 1.444724e-02 4.068969e-01 2.349556e-01 2.091455e+00 1.686283e+00 1.206295e+00 -8.601651e-01 -1.018063e+00 1.078083e+00 8.788829e-02 -5.385220e-01
<VARIANCE> 39
 4.527357e+01 1.344139e+02 1.607532e+02 2.144779e+02 2.408223e+02 2.506576e+02 2.500277e+02 2.255122e+02 1.970939e+02 2.580268e+02 1.616202e+02 1.967608e+02 2.005270e+02 8.188467e+00 1.327288e+01 1.472655e+01 1.680174e+01 1.851474e+01 2.419356e+01 2.221038e+01 2.065362e+01 1.972417e+01 1.781445e+01 2.297400e+01 1.794239e+01 9.759088e+00 1.363165e+00 2.128426e+00 1.643921e+00 4.048870e+00 4.152641e+00 4.572200e+00 3.284365e+00 3.088458e+00 2.930008e+00 2.948830e+00 2.501276e+00 3.030723e+00 3.430145e+00
<GCONST> 1.895221e+02
<MIXTURE> 2 3.223040e-01
<MEAN> 39
 2.258247e+01 -2.093869e+01 1.673846e+01 -4.015472e+00 2.823224e-01 -6.256515e+00 -2.746684e+01 -4.247715e+00 -1.367617e+01 1.951786e+01 1.530211e+01 -1.033635e+01 1.317661e+02 -2.421317e-01 4.937928e+00 6.748293e-02 5.198402e+00 5.006265e+00 5.503195e+00 3.833191e+00 -3.007344e+00 -5.208249e+00 -3.942028e+00 1.387653e+00 1.524371e+00 -8.174081e+00 -1.389681e+00 5.318398e-01 -3.168016e-01 9.297251e-02 -1.174151e-02 2.737973e-01 1.478501e+00 1.234371e+00 1.675972e+00 -3.637267e-02 -1.480382e+00 4.104826e-01 -3.664838e-01
<VARIANCE> 39
 6.149958e+01 1.518102e+02 2.347676e+02 2.733750e+02 2.646903e+02 3.131575e+02 2.866935e+02 3.762498e+02 4.041554e+02 4.039763e+02 3.365036e+02 2.156245e+02 2.094859e+02 7.335531e+00 1.044550e+01 1.247219e+01 1.304070e+01 1.803436e+01 2.066653e+01 2.261506e+01 2.195905e+01 2.799773e+01 2.239208e+01 2.309260e+01 1.889067e+01 9.651192e+00 1.512683e+00 1.684042e+00 1.550683e+00 2.362373e+00 2.921721e+00 3.962542e+00 3.954904e+00 3.227653e+00 3.780112e+00 3.754368e+00 2.697839e+00 2.638323e+00 2.756154e+00
<GCONST> 1.925457e+02
<MIXTURE> 3 2.378891e-01
<MEAN> 39
 1.925799e+01 -2.109459e+01 2.140673e+01 -4.720494e+00 -3.775040e-01 -1.648229e+01 -2.453998e+01 3.775639e+00 -1.276881e+01 2.245218e+01 7.590571e+00 -6.734000e+00 1.310925e+02 -1.096255e+00 4.783866e+00 -3.141998e-01 5.280189e+00 3.953558e+00 4.471277e+00 2.402556e+00 -3.107600e+00 -3.617958e+00 -3.573872e+00 7.656236e-01 3.795542e-01 -7.251063e+00 -1.678436e+00 4.324512e-01 -7.932870e-01 4.569741e-02 3.161497e-02 1.082235e+00 1.585668e+00 7.123703e-01 1.555901e+00 -5.223974e-01 -9.290997e-01 1.185033e-01 -6.743624e-01
<VARIANCE> 39
 6.750063e+01 1.823289e+02 2.742043e+02 3.503802e+02 3.165193e+02 3.273645e+02 3.104504e+02 3.679996e+02 3.675258e+02 4.175934e+02 3.631736e+02 2.406088e+02 2.790234e+02 1.608944e+01 1.218869e+01 1.521101e+01 1.495314e+01 1.842475e+01 2.000844e+01 2.027065e+01 1.857145e+01 3.173038e+01 1.840450e+01 2.638868e+01 1.861225e+01 9.360946e+00 2.600403e+00 2.263692e+00 2.345419e+00 2.842954e+00 3.171993e+00 3.944853e+00 3.248438e+00 3.007590e+00 3.714864e+00 3.633099e+00 3.068676e+00 2.901809e+00 2.401980e+00
<GCONST> 1.962041e+02
<MIXTURE> 4 2.341066e-01
<MEAN> 39
 1.643676e+01 -1.396690e+01 2.302362e+01 -3.368231e+00 -6.905988e+00 -2.497586e+01 6.994775e+00 2.673816e+00 1.223070e+01 1.129915e+01 -9.894496e+00 1.375525e+01 1.258889e+02 -1.683075e+00 6.084838e+00 1.608857e+00 8.989181e+00 5.816629e+00 5.432363e+00 -3.415226e+00 -2.538006e+00 -3.106854e+00 9.517193e-02 -4.530113e-01 -1.581496e+00 -9.497612e+00 -2.317809e+00 -1.644108e-02 -1.014039e+00 2.346635e-01 8.804677e-01 2.518760e+00 7.272539e-01 1.132855e+00 -5.789371e-01 -8.181661e-01 5.529991e-01 -4.870161e-01 -8.286209e-01
<VARIANCE> 39
 5.219193e+01 1.647554e+02 2.101199e+02 2.361645e+02 2.846825e+02 2.554964e+02 3.256802e+02 2.522179e+02 2.222189e+02 2.485499e+02 1.903371e+02 2.030661e+02 2.554307e+02 1.505210e+01 1.308526e+01 1.458285e+01 1.609394e+01 2.040034e+01 2.381935e+01 2.144859e+01 2.603482e+01 1.909338e+01 1.974502e+01 2.018369e+01 1.825387e+01 9.746894e+00 2.379914e+00 2.690310e+00 2.461416e+00 4.055693e+00 4.172759e+00 4.137572e+00 3.469218e+00 3.363274e+00 3.169580e+00 2.955836e+00 2.741892e+00 2.975653e+00 2.432247e+00
<GCONST> 1.931435e+02
<STATE> 4
<NUMMIXES> 4
<MIXTURE> 1 2.460155e-01
<MEAN> 39
 1.308171e+01 -1.522111e+00 1.985617e+01 1.602479e+01 1.671041e+01 3.302850e+00 -5.538661e+00 -5.485847e+00 -2.046118e+00 1.376940e+01 -1.467316e+00 3.985860e+00 1.055351e+02 -3.028847e+00 3.576376e+00 9.023623e-01 3.462764e+00 1.976256e+00 3.769540e+00 2.013350e+00 1.419619e+00 -1.048023e+00 -1.216390e+00 5.800483e-01 3.106968e-01 -4.499655e+00 -1.270389e-01 -2.224116e+00 -4.508103e-01 -3.325739e+00 -2.606745e+00 -2.781699e+00 4.251401e-01 1.680317e+00 1.611924e+00 -2.745417e-01 -2.570845e-01 5.314287e-01 3.514787e+00
<VARIANCE> 39
 8.816985e+01 1.510625e+02 1.149620e+02 1.820597e+02 1.493889e+02 2.423812e+02 2.052918e+02 2.349486e+02 3.547224e+02 2.197261e+02 2.672248e+02 2.277534e+02 1.935869e+02 1.687524e+01 2.019487e+01 1.038274e+01 2.922068e+01 2.475276e+01 3.895388e+01 2.398809e+01 1.859591e+01 2.168315e+01 1.728871e+01 1.658930e+01 1.427475e+01 3.174234e+01 3.066500e+00 2.551489e+00 2.591855e+00 4.072103e+00 3.676894e+00 4.737209e+00 6.568310e+00 4.360843e+00 4.153731e+00 5.016679e+00 4.708120e+00 4.159950e+00 2.707571e+00
<GCONST> 1.969532e+02
<MIXTURE> 2 2.560914e-01
<MEAN> 39
 -1.363059e+01 -8.248757e+00 8.530330e+00 6.272999e+00 -1.887811e-01 -3.527561e+00 2.502096e+00 9.289521e+00 3.052137e+00 4.225821e+00 -5.686945e+00 4.736369e+00 9.447546e+01 1.458810e+00 -7.486275e-01 -5.810664e-01 -1.749905e+00 -1.044308e+00 -1.422349e+00 -7.448740e-02 7.027286e-01 1.048678e+00 3.750888e-02 2.009345e-01 2.138587e-01 3.314711e-01 1.078876e+00 1.406575e-01 2.585563e-01 -1.075415e-01 2.117409e-01 -9.331086e-02 -8.284032e-02 -1.265429e-01 6.121087e-03 8.892384e-02 2.378205e-01 9.741969e-03 9.834357e-02
<VARIANCE> 39
 3.447657e+02 1.603902e+02 1.899338e+02 1.685974e+02 1.910020e+02 2.126828e+02 2.051765e+02 1.967722e+02 2.080729e+02 1.974821e+02 1.763548e+02 1.856951e+02 2.970429e+02 2.778287e+01 1.514463e+01 1.284694e+01 2.224002e+01 2.099985e+01 2.782719e+01 2.117555e+01 2.061153e+01 1.882402e+01 1.716101e+01 1.726715e+01 1.497503e+01 2.945652e+01 4.864628e+00 3.079726e+00 2.702619e+00 4.045090e+00 3.666317e+00 4.537503e+00 4.480467e+00 3.746306e+00 3.983954e+00 3.332649e+00 3.204206e+00 2.858814e+00 3.510675e+00
<GCONST> 1.965534e+02
<MIXTURE> 3 2.858179e-01
<MEAN> 39
 6.721234e+00 1.358078e+00 1.934019e+01 1.633819e+01 1.245797e+01 6.361863e+00 -1.931394e+00 -1.039985e-01 -6.291954e+00 8.968637e+00 2.549720e+00 9.942666e-01 1.019038e+02 -5.650929e+00 9.540141e-01 -1.167533e+00 6.249887e-01 1.324014e-01 1.932185e+00 1.621628e+00 1.501075e+00 7.520427e-01 -1.402094e+00 -9.693462e-01 1.754375e-01 -2.925875e+00 -7.823802e-02 -2.679595e+00 -7.751469e-01 -3.048820e+00 -2.346698e+00 -2.541142e+00 -1.150532e+00 6.052343e-01 9.186531e-01 6.404316e-01 -2.499966e-01 -2.898379e-02 3.034976e+00
<VARIANCE> 39
 1.804001e+02 1.575548e+02 1.436779e+02 1.920670e+02 1.454618e+02 2.487038e+02 2.849891e+02 2.482503e+02 3.266241e+02 2.091501e+02 2.702722e+02 2.136176e+02 2.883543e+02 4.291919e+01 2.024566e+01 1.416424e+01 2.326304e+01 2.404690e+01 3.714484e+01 3.096280e+01 2.038108e+01 2.444134e+01 2.029750e+01 2.164765e+01 1.819221e+01 3.372203e+01 4.144533e+00 2.831374e+00 4.190104e+00 3.618131e+00 3.751076e+00 4.820647e+00 5.357501e+00 4.367764e+00 5.098793e+00 4.385269e+00 4.008524e+00 3.648000e+00 2.927867e+00
<GCONST> 2.011812e+02
<MIXTURE> 4 2.120388e-01
<MEAN> 39
