~o
<STREAMINFO> 1 39
<VECSIZE> 39<NULLD><MFCC_D_A_0><DIAGC>
~v "varFloor1"
<VARIANCE> 39
 6.754232e+00 3.412257e+00 5.608447e+00 4.796207e+00 3.472295e+00 4.011117e+00 4.413517e+00 3.617792e+00 3.683716e+00 3.040219e+00 2.640150e+00 2.509556e+00 1.298279e+01 2.278196e-01 1.545969e-01 2.184490e-01 2.118026e-01 1.813457e-01 2.097697e-01 2.257949e-01 2.166197e-01 2.009621e-01 1.748386e-01 1.664882e-01 1.534702e-01 2.729188e-01 3.005251e-02 2.352015e-02 2.950212e-02 3.333421e-02 2.970494e-02 3.528043e-02 3.797136e-02 3.764201e-02 3.477513e-02 3.067418e-02 2.924890e-02 2.697371e-02 3.680276e-02
~h "f"
<BEGINHMM>
<NUMSTATES> 5
<STATE> 2
<MEAN> 39
 -3.266654e+00 -8.821806e+00 4.210802e+00 -8.778744e+00 -2.531044e+00 -1.537183e+00 -3.382617e+00 2.499833e+00 -3.966075e+00 6.598180e+00 -2.549100e+00 2.286416e+00 1.014404e+02 3.620131e-01 -1.772100e-01 -1.381384e-01 -2.806214e-01 5.053305e-03 5.603766e-02 3.834286e-02 1.029651e-01 2.018730e-02 1.190303e-01 -4.440331e-02 -1.789145e-02 6.647431e-01 1.712335e-02 -9.981031e-03 4.419842e-03 3.363456e-04 4.945648e-03 -6.618735e-03 1.228205e-03 1.060400e-02 1.302367e-03 -9.628087e-04 -1.274286e-04 5.354971e-03 3.500942e-02
<VARIANCE> 39
 7.677900e+02 3.523035e+02 3.945780e+02 5.420491e+02 3.479349e+02 3.170201e+02 3.272996e+02 3.064723e+02 3.474273e+02 2.861874e+02 2.651649e+02 2.487360e+02 1.258821e+03 3.226238e+01 1.608867e+01 1.676398e+01 2.400616e+01 1.798120e+01 1.779302e+01 1.909382e+01 1.849536e+01 1.886791e+01 1.691227e+01 1.648180e+01 1.489991e+01 2.636660e+01 4.452417e+00 2.533248e+00 2.350266e+00 3.623296e+00 2.876308e+00 3.039952e+00 3.304320e+00 3.274953e+00 3.293112e+00 2.999202e+00 2.932897e+00 2.612862e+00 3.430353e+00
<GCONST> 2.024271e+02
<STATE> 3
<MEAN> 39
 -1.518590e+00 -9.588407e+00 3.719589e+00 -1.003037e+01 -2.511186e+00 -1.346621e+00 -3.202632e+00 3.005901e+00 -3.864793e+00 7.070106e+00 -2.713542e+00 2.249289e+00 1.045219e+02 4.405637e-01 -1.884697e-01 -1.178282e-01 -2.780120e-01 2.220762e-02 2.580558e-02 4.538508e-02 1.406053e-01 3.182725e-02 1.150559e-01 -3.741756e-02 4.770597e-04 7.554837e-01 1.421800e-02 -1.917285e-03 6.410164e-03 4.598621e-03 5.223011e-03 -7.161592e-03 2.032119e-03 8.604609e-03 3.225297e-03 -2.177092e-03 1.475964e-03 4.236675e-03 1.683792e-02
<VARIANCE> 39
 7.915261e+02 3.699606e+02 3.828190e+02 5.657630e+02 3.729916e+02 3.288579e+02 3.374656e+02 3.131060e+02 3.558282e+02 2.927669e+02 2.737819e+02 2.590538e+02 1.169535e+03 3.352247e+01 1.657090e+01 1.671409e+01 2.499724e+01 1.868416e+01 1.815869e+01 1.924832e+01 1.845539e+01 1.899527e+01 1.710638e+01 1.671058e+01 1.512979e+01 2.719750e+01 4.630542e+00 2.580601e+00 2.349518e+00 3.715846e+00 2.937114e+00 3.073707e+00 3.316989e+00 3.251384e+00 3.302175e+00 3.017187e+00 2.958230e+00 2.635006e+00 3.476468e+00
<GCONST> 2.031214e+02
<STATE> 4
<MEAN> 39
 1.627788e+00 -1.061334e+01 3.103092e+00 -1.221825e+01 -2.483035e+00 -1.072183e+00 -2.792578e+00 3.836365e+00 -3.489335e+00 7.725778e+00 -2.909248e+00 2.300591e+00 1.096852e+02 5.091871e-01 -1.332808e-01 -6.399533e-02 -2.162370e-01 3.740577e-02 -3.806240e-02 5.638119e-02 1.781155e-01 5.126490e-02 9.395510e-02 -1.194717e-02 1.895356e-02 6.903690e-01 -8.003112e-03 1.052292e-02 9.763410e-03 2.254020e-02 5.348522e-03 -9.952734e-03 5.957110e-04 2.875794e-03 2.775869e-03 -6.500513e-03 3.287849e-03 2.810898e-03 -3.015658e-02
<VARIANCE> 39
 7.980685e+02 4.037322e+02 3.799690e+02 6.042974e+02 4.195874e+02 3.579118e+02 3.628942e+02 3.249565e+02 3.732702e+02 3.077164e+02 2.896626e+02 2.795432e+02 1.049848e+03 3.392442e+01 1.673584e+01 1.666187e+01 2.600128e+01 1.960759e+01 1.868698e+01 1.943569e+01 1.828191e+01 1.899880e+01 1.730714e+01 1.687822e+01 1.539721e+01 2.715614e+01 4.667399e+00 2.545020e+00 2.320904e+00 3.771396e+00 2.990282e+00 3.102753e+00 3.305827e+00 3.181554e+00 3.276470e+00 3.020478e+00 2.956717e+00 2.646081e+00 3.388523e+00
<GCONST> 2.038531e+02
<TRANSP> 5
 0.000000e+00 1.000000e+00 0.000000e+00 0.000000e+00 0.000000e+00
 0.000000e+00 7.326850e-01 2.673150e-01 0.000000e+00 0.000000e+00
 0.000000e+00 0.000000e+00 7.326830e-01 2.673170e-01 0.000000e+00
 0.000000e+00 0.000000e+00 0.000000e+00 8.578361e-01 1.421640e-01
 0.000000e+00 0.000000e+00 0.000000e+00 0.000000e+00 0.000000e+00
<ENDHMM>
~h "k"
<BEGINHMM>
<NUMSTATES> 5
<STATE> 2
<MEAN> 39
 -2.356368e+01 -2.027761e+00 6.159255e+00 2.792614e+00 -5.237622e+00 -1.256720e+01 -4.739727e+00 1.165715e+00 -6.302323e+00 3.632462e+00 -3.566785e+00 5.951571e+00 1.038093e+02 1.154522e-01 -6.969736e-02 -9.192727e-02 -1.086350e-02 9.796519e-02 8.953945e-02 3.404243e-02 9.666999e-02 6.126858e-02 3.795981e-03 -1.983647e-02 -5.911181e-02 -1.394998e-01 3.450316e-02 -2.169573e-03 4.130580e-03 -8.316100e-03 5.820206e-03 1.587608e-02 4.935277e-03 1.835219e-03 4.919530e-03 1.702362e-03 2.190859e-03 -4.589971e-03 -2.816204e-02
<VARIANCE> 39
 7.872802e+02 2.624731e+02 6.492004e+02 3.572609e+02 3.545390e+02 3.843506e+02 3.750916e+02 3.280861e+02 3.101508e+02 2.325379e+02 2.160556e+02 2.118011e+02 9.009343e+02 4.230770e+01 2.326375e+01 3.530245e+01 2.309654e+01 1.931217e+01 2.667234e+01 2.812016e+01 2.468697e+01 2.440254e+01 1.921156e+01 1.679576e+01 1.656318e+01 6.006670e+01 5.860335e+00 4.432673e+00 4.728166e+00 4.109995e+00 3.491306e+00 4.805673e+00 5.075102e+00 4.537772e+00 4.408073e+00 3.645728e+00 3.131831e+00 3.064845e+00 9.483131e+00
<GCONST> 2.102594e+02
<STATE> 3
<MEAN> 39
 -2.318568e+01 -2.256632e+00 5.654204e+00 2.679859e+00 -4.810203e+00 -1.210486e+01 -4.595701e+00 1.562178e+00 -6.029874e+00 3.658849e+00 -3.650138e+00 5.697024e+00 1.030747e+02 2.294455e-01 -7.145240e-02 -8.082115e-02 -4.576204e-02 1.170512e-01 1.485273e-01 5.227820e-02 1.026574e-01 7.880254e-02 1.123175e-02 -1.374693e-02 -7.405760e-02 -2.209927e-01 3.008821e-02 9.721345e-04 5.135817e-03 -8.123921e-03 3.981379e-03 1.391149e-02 3.478369e-03 -2.025335e-04 3.623576e-03 2.183009e-03 3.087396e-03 -3.000307e-03 -2.215206e-02
<VARIANCE> 39
 7.886187e+02 2.616045e+02 6.306708e+02 3.635384e+02 3.561698e+02 3.834770e+02 3.710915e+02 3.290141e+02 3.126162e+02 2.353719e+02 2.172952e+02 2.115878e+02 9.009431e+02 4.129388e+01 2.295251e+01 3.399010e+01 2.284241e+01 1.932479e+01 2.630796e+01 2.767747e+01 2.456027e+01 2.425415e+01 1.914349e+01 1.677711e+01 1.644837e+01 5.908860e+01 5.715935e+00 4.387346e+00 4.596163e+00 4.063367e+00 3.483622e+00 4.753914e+00 5.013444e+00 4.518065e+00 4.383861e+00 3.635699e+00 3.130332e+00 3.049029e+00 9.428593e+00
<GCONST> 2.099863e+02
<STATE> 4
<MEAN> 39
 -2.240424e+01 -2.542240e+00 4.748521e+00 2.192477e+00 -4.360549e+00 -1.111339e+01 -4.379673e+00 2.064599e+00 -5.456775e+00 3.837574e+00 -3.686062e+00 5.362637e+00 1.016950e+02 3.412989e-01 -5.679664e-02 -6.510359e-02 -9.213559e-02 1.350923e-01 2.167297e-01 7.273261e-02 1.023141e-01 9.406943e-02 2.288011e-02 -5.646967e-03 -8.758719e-02 -3.012860e-01 2.770783e-02 3.570001e-03 1.223579e-02 -5.907046e-03 8.459266e-04 8.743735e-03 1.797893e-03 -3.999627e-03 7.393151e-04 2.413542e-03 4.829337e-03 -7.763003e-04 -1.314371e-02
<VARIANCE> 39
 7.893527e+02 2.594504e+02 5.983584e+02 3.737230e+02 3.585517e+02 3.825040e+02 3.639136e+02 3.252749e+02 3.128350e+02 2.410892e+02 2.201287e+02 2.113482e+02 9.199887e+02 3.849072e+01 2.163359e+01 3.089829e+01 2.193544e+01 1.909923e+01 2.521392e+01 2.636011e+01 2.374737e+01 2.338389e+01 1.879986e+01 1.656713e+01 1.606131e+01 5.565260e+01 5.353447e+00 4.105797e+00 4.248141e+00 3.886481e+00 3.413656e+00 4.554691e+00 4.783245e+00 4.366796e+00 4.225339e+00 3.561834e+00 3.086473e+00 2.978024e+00 8.875037e+00
<GCONST> 2.088768e+02
<TRANSP> 5
 0.000000e+00 1.000000e+00 0.000000e+00 0.000000e+00 0.000000e+00
 0.000000e+00 7.257034e-01 2.742966e-01 0.000000e+00 0.000000e+00
 0.000000e+00 0.000000e+00 7.257077e-01 2.742923e-01 0.000000e+00
 0.000000e+00 0.000000e+00 0.000000e+00 8.498127e-01 1.501873e-01
 0.000000e+00 0.000000e+00 0.000000e+00 0.000000e+00 0.000000e+00
<ENDHMM>
~h "n"
<BEGINHMM>
<NUMSTATES> 5
<STATE> 2
<MEAN> 39
 5.043792e+00 -7.662973e+00 1.716621e+01 -9.190686e-01 7.750567e-01 -4.876098e-01 1.582474e+00 5.606765e+00 -1.216311e+00 5.690672e+00 -3.238551e+00 4.933214e+00 1.093479e+02 -1.867063e-01 1.060677e-01 -3.853086e-02 1.108989e-01 -1.347499e-02 1.729988e-02 5.664018e-02 -1.583661e-02 -3.681864e-02 -5.224036e-02 -3.486985e-02 -2.724715e-02 -3.050209e-01 -5.157697e-04 -2.878794e-03 -1.417592e-02 -2.059479e-02 -3.889510e-04 -8.395783e-03 -1.831278e-02 3.778985e-04 -1.776804e-03 4.938395e-03 9.059891e-03 -3.422911e-03 6.554488e-03
<VARIANCE> 39
 4.788521e+02 4.134669e+02 4.731325e+02 5.694937e+02 3.803782e+02 3.936502e+02 5.408168e+02 4.770721e+02 4.253945e+02 3.662347e+02 3.299699e+02 3.136204e+02 1.069673e+03 1.918485e+01 1.667401e+01 2.143878e+01 2.560348e+01 1.913466e+01 2.241008e+01 2.714022e+01 2.827989e+01 2.206639e+01 1.874549e+01 1.872012e+01 1.734320e+01 2.309276e+01 2.542926e+00 2.326432e+00 2.887378e+00 3.930129e+00 3.088068e+00 3.830117e+00 4.447537e+00 4.821159e+00 3.751014e+00 3.201492e+00 3.189059e+00 2.955661e+00 2.881380e+00
<GCONST> 2.064905e+02
<STATE> 3
<MEAN> 39
 4.421082e+00 -7.351838e+00 1.695674e+01 -6.209193e-01 7.418781e-01 -4.669094e-01 1.709327e+00 5.585635e+00 -1.337635e+00 5.520401e+00 -3.338415e+00 4.821149e+00 1.083528e+02 -1.906747e-01 8.338049e-02 -9.898081e-02 2.848892e-02 -1.001594e-02 -1.687806e-02 -1.752573e-02 -8.378032e-03 -3.927550e-02 -3.650748e-02 8.971800e-04 -4.009089e-02 -2.803788e-01 2.770337e-03 -4.558858e-03 -9.669191e-03 -1.715424e-02 1.037780e-03 -7.505180e-03 -1.515054e-02 3.855373e-04 -3.669864e-04 5.639622e-03 9.048346e-03 -5.997634e-04 9.685043e-03
<VARIANCE> 39
 4.819796e+02 4.152274e+02 4.774234e+02 5.623986e+02 3.769112e+02 3.922376e+02 5.312104e+02 4.717063e+02 4.207949e+02 3.597734e+02 3.225430e+02 3.084076e+02 1.092143e+03 1.951421e+01 1.649634e+01 2.157183e+01 2.500984e+01 1.890912e+01 2.200891e+01 2.659706e+01 2.773170e+01 2.175514e+01 1.852236e+01 1.839871e+01 1.714613e+01 2.286413e+01 2.576510e+00 2.296716e+00 2.897865e+00 3.853291e+00 3.052433e+00 3.754920e+00 4.348339e+00 4.717886e+00 3.695040e+00 3.171006e+00 3.146954e+00 2.930499e+00 2.833887e+00
<GCONST> 2.061082e+02
<STATE> 4
<MEAN> 39
 3.869793e+00 -7.380200e+00 1.640048e+01 -9.538335e-01 8.051733e-01 -4.185431e-01 1.574063e+00 5.795457e+00 -1.365167e+00 5.334269e+00 -3.209313e+00 4.633468e+00 1.076940e+02 -2.043409e-01 6.437404e-02 -1.567308e-01 -4.002710e-02 -5.917951e-03 -5.263248e-02 -8.208730e-02 -3.941705e-03 -3.878269e-02 -2.052085e-02 3.759755e-02 -4.611782e-02 -2.920089e-01 -5.917621e-04 5.236727e-04 -3.402259e-03 -6.546083e-03 -9.437039e-05 -4.351587e-03 -6.486028e-03 -2.629644e-03 -3.237104e-04 4.648349e-03 6.290538e-03 1.782054e-03 -9.924948e-04
<VARIANCE> 39
 4.810243e+02 4.215613e+02 4.858673e+02 5.534850e+02 3.796658e+02 3.920159e+02 5.226965e+02 4.699807e+02 4.165257e+02 3.523960e+02 3.137808e+02 3.010774e+02 1.136298e+03 1.894960e+01 1.598545e+01 2.121944e+01 2.404869e+01 1.847209e+01 2.127503e+01 2.551789e+01 2.683703e+01 2.117570e+01 1.813636e+01 1.784488e+01 1.672410e+01 2.235074e+01 2.499828e+00 2.207073e+00 2.832272e+00 3.715223e+00 2.961034e+00 3.613735e+00 4.149100e+00 4.530406e+00 3.580441e+00 3.104648e+00 3.062225e+00 2.863356e+00 2.762113e+00
<GCONST> 2.052784e+02
<TRANSP> 5
 0.000000e+00 1.000000e+00 0.000000e+00 0.000000e+00 0.000000e+00
 0.000000e+00 7.228411e-01 2.771589e-01 0.000000e+00 0.000000e+00
 0.000000e+00 0.000000e+00 7.228463e-01 2.771538e-01 0.000000e+00
 0.000000e+00 0.000000e+00 0.000000e+00 8.463573e-01 1.536427e-01
 0.000000e+00 0.000000e+00 0.000000e+00 0.000000e+00 0.000000e+00
<ENDHMM>
~h "r"
<BEGINHMM>
<NUMSTATES> 5
<STATE> 2
<MEAN> 39
 6.197410e+00 -6.276045e+00 1.349744e+01 -2.728812e+00 1.485851e+00 -8.982617e+00 -5.893196e+00 2.951293e+00 -7.618017e+00 5.990757e+00 -2.060605e+00 5.236176e+00 1.116621e+02 1.516906e-02 -8.118628e-02 1.363408e-01 -3.881355e-04 3.596845e-02 1.068674e-01 1.125412e-01 -3.023061e-03 3.534298e-02 1.801735e-02 -5.328621e-03 -2.496507e-02 -3.584697e-02 -3.846509e-02 2.012211e-02 -3.787847e-03 9.207219e-04 -1.110648e-02 1.590381e-02 9.565100e-03 -4.969902e-03 5.158187e-03 -3.673254e-03 -3.273937e-03 -4.420929e-03 -5.041387e-02
<VARIANCE> 39
 7.557643e+02 3.957249e+02 7.961638e+02 5.712627e+02 4.845185e+02 5.788405e+02 6.556852e+02 4.322475e+02 4.217165e+02 3.618356e+02 2.870133e+02 2.635826e+02 8.062750e+02 2.899772e+01 1.867340e+01 3.100793e+01 2.500668e+01 2.552401e+01 2.733116e+01 2.816192e+01 2.493528e+01 2.275536e+01 2.002256e+01 1.802674e+01 1.688318e+01 2.290055e+01 3.367357e+00 2.618115e+00 4.014654e+00 3.763912e+00 3.815950e+00 4.220572e+00 4.440408e+00 4.142990e+00 3.806352e+00 3.413516e+00 3.128919e+00 2.960754e+00 2.958483e+00
<GCONST> 2.097532e+02
<STATE> 3
<MEAN> 39
 5.932398e+00 -6.439360e+00 1.400599e+01 -2.688173e+00 1.568843e+00 -8.431880e+00 -5.373720e+00 2.899151e+00 -7.414440e+00 6.040215e+00 -2.111289e+00 5.111472e+00 1.111337e+02 -1.423288e-01 1.224535e-02 1.184384e-01 -8.214238e-04 -1.305785e-02 1.752082e-01 1.524421e-01 -2.277621e-02 5.497051e-02 3.013941e-03 -1.971034e-02 -4.079645e-02 -2.282415e-01 -3.424750e-02 2.084852e-02 -1.019743e-02 1.203512e-03 -9.120970e-03 1.062277e-02 4.812770e-03 -3.520552e-03 5.069801e-03 -3.349648e-03 -1.183161e-03 -2.902120e-03 -4.322677e-02
<VARIANCE> 39
 7.299585e+02 3.899464e+02 8.139097e+02 5.539298e+02 4.712172e+02 5.857497e+02 6.547409e+02 4.348949e+02 4.315736e+02 3.649832e+02 2.884801e+02 2.640409e+02 8.332381e+02 2.806549e+01 1.834572e+01 3.067565e+01 2.459752e+01 2.495899e+01 2.736640e+01 2.806271e+01 2.489052e+01 2.286184e+01 2.000248e+01 1.798079e+01 1.676297e+01 2.231348e+01 3.256074e+00 2.569357e+00 3.938272e+00 3.723275e+00 3.757068e+00 4.219602e+00 4.429834e+00 4.135077e+00 3.820625e+00 3.402349e+00 3.114680e+00 2.936592e+00 2.865666e+00
<GCONST> 2.094724e+02
<STATE> 4
<MEAN> 39
 4.990694e+00 -6.118184e+00 1.442457e+01 -2.972806e+00 1.382794e+00 -7.267917e+00 -4.440083e+00 2.685616e+00 -6.893371e+00 6.092380e+00 -2.229691e+00 4.872993e+00 1.095995e+02 -3.253290e-01 1.323733e-01 6.457353e-02 9.219973e-03 -6.620643e-02 2.494629e-01 1.850524e-01 -3.788096e-02 8.585314e-02 -1.984186e-02 -2.878161e-02 -5.471257e-02 -4.605262e-01 -2.065132e-02 1.483942e-02 -1.689367e-02 2.680497e-03 -4.931592e-03 6.908628e-04 -2.625364e-03 8.554501e-05 3.711216e-03 -3.167140e-03 2.021755e-03 -7.260535e-04 -2.786042e-02
<VARIANCE> 39
 6.978422e+02 3.826379e+02 8.339587e+02 5.379752e+02 4.521107e+02 5.818013e+02 6.323851e+02 4.338729e+02 4.409030e+02 3.639121e+02 2.883410e+02 2.639001e+02 9.055625e+02 2.604689e+01 1.753404e+01 2.943008e+01 2.372401e+01 2.370710e+01 2.673204e+01 2.720720e+01 2.442662e+01 2.265545e+01 1.971056e+01 1.774802e+01 1.648375e+01 2.178666e+01 3.045574e+00 2.464101e+00 3.716745e+00 3.608387e+00 3.591835e+00 4.122918e+00 4.311186e+00 4.054541e+00 3.783060e+00 3.346684e+00 3.069994e+00 2.880158e+00 2.784835e+00
<GCONST> 2.086176e+02
<TRANSP> 5
 0.000000e+00 1.000000e+00 0.000000e+00 0.000000e+00 0.000000e+00
 0.000000e+00 7.269087e-01 2.730913e-01 0.000000e+00 0.000000e+00
 0.000000e+00 0.000000e+00 7.269077e-01 2.730922e-01 0.000000e+00
 0.000000e+00 0.000000e+00 0.000000e+00 8.507156e-01 1.492844e-01
 0.000000e+00 0.000000e+00 0.000000e+00 0.000000e+00 0.000000e+00
<ENDHMM>
~h "s"
<BEGINHMM>
<NUMSTATES> 5
<STATE> 2
<MEAN> 39
 -1.734930e+01 -2.314971e+00 6.668949e+00 1.267707e-01 -3.713608e+00 -8.715219e+00 -3.967191e+00 1.433289e+00 -5.111366e+00 4.237108e+00 -2.961026e+00 4.935132e+00 9.911122e+01 -3.936113e-02 2.686393e-02 -5.952192e-02 -2.412541e-02 6.113000e-03 4.535231e-03 5.910446e-03 6.112352e-03 3.993098e-02 3.977321e-02 -2.285208e-02 1.005172e-02 1.525858e-01 2.924882e-03 -4.242231e-03 -8.889551e-05 -2.554050e-03 9.383626e-04 -2.042318e-03 -3.313131e-03 8.094840e-05 1.218523e-03 3.824102e-03 1.185735e-03 1.833744e-03 2.638240e-02
<VARIANCE> 39
 7.927646e+02 2.745531e+02 5.639728e+02 3.708943e+02 3.207026e+02 3.699210e+02 3.719851e+02 3.136655e+02 3.229898e+02 2.602207e+02 2.301542e+02 2.230445e+02 1.185554e+03 3.616716e+01 1.833526e+01 2.800532e+01 2.096334e+01 1.795891e+01 2.290797e+01 2.407955e+01 2.169922e+01 2.145920e+01 1.801672e+01 1.648129e+01 1.568841e+01 3.834034e+01 4.776716e+00 3.186790e+00 3.815001e+00 3.570032e+00 3.163387e+00 4.039761e+00 4.251321e+00 3.948164e+00 3.818883e+00 3.302631e+00 3.008221e+00 2.861325e+00 5.797189e+00
<GCONST> 2.062897e+02
<STATE> 3
<MEAN> 39
 -1.742167e+01 -2.273695e+00 6.492323e+00 3.127423e-02 -3.692175e+00 -8.714760e+00 -3.939338e+00 1.493030e+00 -4.965084e+00 4.390238e+00 -3.049360e+00 4.985498e+00 9.994906e+01 -7.995035e-03 8.288274e-03 -4.217701e-02 -2.908702e-02 6.520096e-03 -6.370357e-03 -2.447033e-03 1.033539e-02 4.504139e-02 4.934714e-02 -1.600926e-02 1.685297e-02 2.466222e-01 8.321851e-03 -6.337382e-03 4.433742e-03 -1.623492e-03 8.419478e-04 -2.880465e-03 -2.038565e-03 2.175859e-03 1.580515e-03 2.846766e-03 1.326850e-03 1.772491e-03 2.885922e-02
<VARIANCE> 39
 8.076703e+02 2.763627e+02 5.597896e+02 3.729663e+02 3.231435e+02 3.716128e+02 3.738090e+02 3.118414e+02 3.240559e+02 2.612928e+02 2.315719e+02 2.250011e+02 1.151145e+03 3.679786e+01 1.847964e+01 2.796454e+01 2.107236e+01 1.802797e+01 2.305713e+01 2.420750e+01 2.167222e+01 2.149332e+01 1.807182e+01 1.654375e+01 1.574535e+01 3.857119e+01 4.872828e+00 3.213412e+00 3.825177e+00 3.592999e+00 3.174834e+00 4.071174e+00 4.273220e+00 3.950425e+00 3.823781e+00 3.309537e+00 3.012866e+00 2.868754e+00 5.802225e+00
<GCONST> 2.064411e+02
<STATE> 4
<MEAN> 39
 -1.731636e+01 -2.310648e+00 6.328997e+00 -1.498710e-01 -3.866705e+00 -8.662291e+00 -3.899203e+00 1.598736e+00 -4.665950e+00 4.613597e+00 -3.077799e+00 5.129972e+00 1.014425e+02 1.181310e-01 -2.749128e-02 3.903421e-02 -2.253526e-02 8.380425e-03 -1.921301e-02 -4.642017e-03 1.741395e-02 6.096176e-02 5.482211e-02 3.211088e-03 2.012099e-02 2.861414e-01 1.981897e-02 -7.447414e-03 1.172137e-02 4.695239e-04 1.755181e-03 -1.417268e-03 -6.610314e-04 1.950769e-03 3.206973e-03 2.019479e-03 2.689069e-03 2.727778e-04 8.852056e-03
<VARIANCE> 39
 8.250140e+02 2.804333e+02 5.593817e+02 3.776457e+02 3.284044e+02 3.760060e+02 3.804422e+02 3.103827e+02 3.251180e+02 2.637386e+02 2.341833e+02 2.288430e+02 1.111302e+03 3.669214e+01 1.840352e+01 2.770509e+01 2.100760e+01 1.792813e+01 2.312176e+01 2.437096e+01 2.152985e+01 2.139164e+01 1.804483e+01 1.651130e+01 1.578114e+01 3.870019e+01 4.892674e+00 3.187464e+00 3.798686e+00 3.582767e+00 3.148177e+00 4.083112e+00 4.294186e+00 3.926646e+00 3.805066e+00 3.297285e+00 2.997839e+00 2.869832e+00 5.748061e+00
<GCONST> 2.064674e+02
<TRANSP> 5
 0.000000e+00 1.000000e+00 0.000000e+00 0.000000e+00 0.000000e+00
 0.000000e+00 7.202532e-01 2.797468e-01 0.000000e+00 0.000000e+00
 0.000000e+00 0.000000e+00 7.202546e-01 2.797454e-01 0.000000e+00
 0.000000e+00 0.000000e+00 0.000000e+00 8.433221e-01 1.566779e-01
 0.000000e+00 0.000000e+00 0.000000e+00 0.000000e+00 0.000000e+00
<ENDHMM>
~h "t"
<BEGINHMM>
<NUMSTATES> 5
<STATE> 2
<MEAN> 39
 -8.551260e+00 -2.691042e+00 2.348407e+01 -2.885805e+00 -5.158617e+00 -7.110369e+00 -2.818146e+00 -2.208427e+00 -7.789900e+00 4.510504e+00 -3.342781e+00 4.928277e+00 1.002630e+02 8.100905e-02 4.462589e-02 8.703860e-03 1.422091e-01 1.253355e-01 8.248144e-02 4.081218e-02 1.114878e-02 -4.739036e-02 -1.721475e-02 -5.707588e-02 -2.473820e-02 1.603754e-01 5.076302e-03 -2.132147e-03 -2.299822e-02 5.331113e-03 8.067216e-03 7.074178e-03 1.207310e-03 9.835176e-03 6.070357e-03 -2.702185e-03 1.673408e-03 -2.210373e-03 -5.322329e-03
<VARIANCE> 39
 5.091967e+02 2.737374e+02 8.086125e+02 4.547454e+02 3.042123e+02 3.695704e+02 4.283264e+02 3.895089e+02 4.118509e+02 2.854631e+02 2.519418e+02 2.632521e+02 1.386568e+03 2.176392e+01 1.582434e+01 3.024253e+01 2.260636e+01 1.780508e+01 2.051150e+01 2.257877e+01 2.174708e+01 2.176753e+01 1.772281e+01 1.695614e+01 1.601036e+01 5.590300e+01 3.139104e+00 2.677563e+00 3.900688e+00 3.782350e+00 3.053971e+00 3.456209e+00 3.813351e+00 3.766365e+00 3.758253e+00 3.171000e+00 3.027464e+00 2.786318e+00 8.105308e+00
<GCONST> 2.065973e+02
<STATE> 3
<MEAN> 39
 -8.102013e+00 -2.571699e+00 2.330749e+01 -2.218154e+00 -4.579319e+00 -6.811121e+00 -2.660286e+00 -2.057470e+00 -7.960757e+00 4.415079e+00 -3.562313e+00 4.825925e+00 1.008459e+02 1.114462e-01 3.785293e-02 -8.880283e-02 1.639927e-01 1.542422e-01 1.095148e-01 4.515397e-02 5.163389e-02 -1.776186e-02 -2.032092e-02 -4.702884e-02 -3.336525e-02 1.030450e-01 4.533689e-03 -1.426589e-03 -2.026509e-02 3.000494e-03 5.559824e-03 4.051546e-03 -1.767492e-04 9.481129e-03 6.551087e-03 -1.569616e-03 3.124659e-03 -1.145143e-03 -1.051864e-02
<VARIANCE> 39
 5.201932e+02 2.733227e+02 7.960999e+02 4.548833e+02 3.063582e+02 3.792962e+02 4.359324e+02 3.962021e+02 4.144257e+02 2.882870e+02 2.549254e+02 2.705540e+02 1.330925e+03 2.241247e+01 1.582314e+01 3.013317e+01 2.257372e+01 1.779527e+01 2.069909e+01 2.278352e+01 2.182567e+01 2.191824e+01 1.780809e+01 1.710274e+01 1.614054e+01 5.435711e+01 3.223092e+00 2.675294e+00 3.871287e+00 3.778561e+00 3.050797e+00 3.469445e+00 3.825999e+00 3.769561e+00 3.777093e+00 3.181489e+00 3.047692e+00 2.797786e+00 7.894662e+00
<GCONST> 2.067462e+02
<STATE> 4
<MEAN> 39
 -7.145512e+00 -2.376874e+00 2.236851e+01 -1.475070e+00 -3.658173e+00 -6.280397e+00 -2.496816e+00 -1.700961e+00 -7.966741e+00 4.264547e+00 -3.765044e+00 4.687806e+00 1.013254e+02 1.687383e-01 3.071867e-02 -2.387941e-01 1.669386e-01 1.822677e-01 1.418044e-01 4.901338e-02 1.002685e-01 3.249999e-02 -6.723228e-03 -2.686321e-02 -4.558177e-02 -6.705217e-02 -3.057913e-04 9.415288e-04 -1.686168e-02 -4.294368e-03 8.562995e-04 3.539046e-03 -9.339856e-04 5.929342e-03 8.137261e-03 9.574255e-04 4.866540e-03 -3.588321e-04 -2.056786e-02
<VARIANCE> 39
 5.335319e+02 2.738428e+02 7.686098e+02 4.499166e+02 3.110684e+02 3.974363e+02 4.523744e+02 4.043205e+02 4.206906e+02 2.953925e+02 2.621146e+02 2.838711e+02 1.271763e+03 2.246964e+01 1.539516e+01 2.880558e+01 2.177104e+01 1.754328e+01 2.065152e+01 2.276885e+01 2.168573e+01 2.179605e+01 1.785722e+01 1.717721e+01 1.621153e+01 4.931585e+01 3.197667e+00 2.582358e+00 3.691741e+00 3.633307e+00 2.986176e+00 3.426526e+00 3.784690e+00 3.722535e+00 3.743757e+00 3.174629e+00 3.048701e+00 2.793512e+00 7.147769e+00
<GCONST> 2.063963e+02
<TRANSP> 5
 0.000000e+00 1.000000e+00 0.000000e+00 0.000000e+00 0.000000e+00
 0.000000e+00 7.409657e-01 2.590342e-01 0.000000e+00 0.000000e+00
 0.000000e+00 0.000000e+00 7.409611e-01 2.590389e-01 0.000000e+00
 0.000000e+00 0.000000e+00 0.000000e+00 8.684261e-01 1.315739e-01
 0.000000e+00 0.000000e+00 0.000000e+00 0.000000e+00 0.000000e+00
<ENDHMM>
~h "v"
<BEGINHMM>
<NUMSTATES> 5
<STATE> 2
<MEAN> 39
 -2.138606e+00 -1.179324e+01 8.675042e+00 -5.210505e+00 -1.385934e+00 -4.946885e+00 -2.164196e+00 4.256507e+00 9.700513e-01 8.693258e+00 -3.189494e+00 3.570810e+00 1.160221e+02 3.020652e-01 1.217267e-01 3.105439e-01 1.967062e-01 4.285754e-02 -1.748205e-02 4.583615e-02 2.232112e-02 -8.272633e-03 -2.078469e-02 -1.606267e-02 4.184863e-02 -2.168460e-01 -1.147845e-02 2.354080e-02 1.209731e-03 1.328124e-02 3.790910e-03 1.188118e-02 6.989439e-03 -6.609594e-03 -1.264347e-02 -1.063572e-02 3.020781e-05 -1.914564e-04 -5.436797e-02
<VARIANCE> 39
 7.082285e+02 3.841789e+02 4.249252e+02 4.585892e+02 3.269084e+02 3.906100e+02 4.306347e+02 3.264499e+02 3.740667e+02 3.406699e+02 3.151988e+02 3.148570e+02 9.294644e+02 3.228649e+01 1.760667e+01 1.923740e+01 2.425895e+01 1.890384e+01 2.384039e+01 2.396530e+01 2.073953e+01 2.109432e+01 1.791602e+01 1.779162e+01 1.587706e+01 2.967335e+01 4.470504e+00 2.665976e+00 2.835071e+00 3.964706e+00 3.255338e+00 4.162402e+00 4.133365e+00 3.749951e+00 3.709775e+00 3.090176e+00 3.038863e+00 2.750845e+00 4.002398e+00
<GCONST> 2.060482e+02
<STATE> 3
<MEAN> 39
 -1.295600e+00 -1.114357e+01 9.752679e+00 -4.399252e+00 -1.230211e+00 -4.984612e+00 -1.994094e+00 4.276011e+00 8.320975e-01 8.525939e+00 -3.251112e+00 3.730183e+00 1.147237e+02 2.458539e-01 2.048803e-01 2.934316e-01 2.310463e-01 5.796560e-02 3.141161e-02 7.070532e-02 -3.277968e-03 -5.257250e-02 -5.757650e-02 -1.587936e-02 3.928521e-02 -3.909838e-01 -2.129221e-02 2.262436e-02 -4.869908e-03 9.333342e-03 1.362181e-03 1.144007e-02 7.190423e-03 -6.719757e-03 -1.133667e-02 -1.039314e-02 2.563470e-04 3.882397e-04 -4.417658e-02
<VARIANCE> 39
 6.694719e+02 3.745863e+02 4.277198e+02 4.599347e+02 3.232941e+02 3.879073e+02 4.413015e+02 3.347332e+02 3.768477e+02 3.453835e+02 3.159409e+02 3.144632e+02 9.519717e+02 3.047045e+01 1.757733e+01 1.910536e+01 2.450249e+01 1.908568e+01 2.411603e+01 2.450086e+01 2.151683e+01 2.137561e+01 1.809369e+01 1.803692e+01 1.609421e+01 2.921924e+01 4.218954e+00 2.675084e+00 2.825608e+00 4.032387e+00 3.300312e+00 4.237841e+00 4.230667e+00 3.894341e+00 3.773587e+00 3.125354e+00 3.081812e+00 2.792877e+00 4.029667e+00
<GCONST> 2.062284e+02
<STATE> 4
<MEAN> 39
 -8.661804e-01 -9.998605e+00 1.066689e+01 -3.398539e+00 -1.078831e+00 -4.643451e+00 -1.493218e+00 4.278636e+00 5.704162e-01 7.902428e+00 -3.376132e+00 3.918391e+00 1.118352e+02 1.157837e-01 3.035468e-01 2.240401e-01 2.408875e-01 6.226946e-02 7.846405e-02 8.548152e-02 -3.584931e-02 -9.672666e-02 -1.012121e-01 -8.772385e-03 3.403089e-02 -5.848874e-01 -2.401658e-02 1.397372e-02 -9.976397e-03 1.097189e-03 -1.685428e-03 8.257627e-03 4.136361e-03 -5.407023e-03 -6.818012e-03 -7.159743e-03 1.709250e-03 3.120647e-04 -2.391812e-02
<VARIANCE> 39
 6.191445e+02 3.610826e+02 4.367789e+02 4.614437e+02 3.183574e+02 3.821656e+02 4.438440e+02 3.438816e+02 3.749176e+02 3.460272e+02 3.114025e+02 3.073062e+02 1.014538e+03 2.759926e+01 1.700105e+01 1.877116e+01 2.419806e+01 1.896297e+01 2.389914e+01 2.448071e+01 2.216874e+01 2.125310e+01 1.804355e+01 1.801742e+01 1.607696e+01 2.818831e+01 3.823961e+00 2.614902e+00 2.767241e+00 4.002555e+00 3.285714e+00 4.223413e+00 4.230126e+00 4.007151e+00 3.772150e+00 3.131501e+00 3.096174e+00 2.798636e+00 3.970373e+00
<GCONST> 2.058323e+02
<TRANSP> 5
 0.000000e+00 1.000000e+00 0.000000e+00 0.000000e+00 0.000000e+00
 0.000000e+00 7.215420e-01 2.784580e-01 0.000000e+00 0.000000e+00
 0.000000e+00 0.000000e+00 7.215419e-01 2.784580e-01 0.000000e+00
 0.000000e+00 0.000000e+00 0.000000e+00 8.452315e-01 1.547685e-01
 0.000000e+00 0.000000e+00 0.000000e+00 0.000000e+00 0.000000e+00
<ENDHMM>
~h "w"
<BEGINHMM>
<NUMSTATES> 5
<STATE> 2
<MEAN> 39
 1.338508e+01 -1.716844e+00 1.280925e+01 -1.319119e+01 -1.086260e+00 2.265683e+00 -5.811426e-01 6.649833e+00 -4.207808e+00 7.038654e+00 -2.790534e-01 3.420064e+00 1.102768e+02 2.961504e-01 -2.089566e-01 1.879211e-01 -1.596075e-02 1.565306e-01 9.853277e-02 7.527550e-02 1.687822e-01 1.022801e-01 3.174478e-02 -1.059069e-02 5.771315e-02 6.755742e-01 -5.617759e-02 -1.976629e-02 1.564204e-03 4.986274e-02 8.607473e-03 -1.629007e-02 9.472961e-04 -1.736744e-02 3.202116e-03 -7.397415e-03 -1.189288e-02 6.889147e-03 -3.565311e-02
<VARIANCE> 39
 5.283694e+02 4.222166e+02 4.340341e+02 6.814490e+02 4.973531e+02 4.071576e+02 5.068522e+02 4.682097e+02 4.394517e+02 3.761319e+02 3.529202e+02 3.151919e+02 9.521708e+02 1.790628e+01 1.984369e+01 2.095368e+01 3.095157e+01 2.552109e+01 2.574281e+01 2.756661e+01 2.821123e+01 2.385865e+01 2.132053e+01 2.155845e+01 1.919480e+01 2.425294e+01 2.316910e+00 2.615712e+00 2.845216e+00 4.084121e+00 3.941036e+00 4.423787e+00 4.731049e+00 4.945169e+00 4.227028e+00 3.721546e+00 3.714353e+00 3.305789e+00 2.765089e+00
<GCONST> 2.091628e+02
<STATE> 3
<MEAN> 39
 1.403589e+01 -2.605005e+00 1.342356e+01 -1.293565e+01 -4.618373e-01 2.513186e+00 -3.209034e-01 7.159479e+00 -3.847315e+00 7.073549e+00 -3.605329e-01 3.636204e+00 1.123785e+02 7.920858e-02 -2.401048e-01 2.018050e-01 1.942343e-01 1.721013e-01 3.989747e-02 9.329771e-02 8.914313e-02 1.072677e-01 3.969817e-03 -6.184777e-02 7.936537e-02 4.857650e-01 -6.218242e-02 -1.190492e-03 2.370451e-03 5.842379e-02 1.841066e-04 -1.631386e-02 6.648447e-03 -2.412577e-02 -3.402555e-04 -8.420032e-03 -1.490465e-02 4.619677e-03 -6.262024e-02
<VARIANCE> 39
 4.917272e+02 4.234687e+02 4.346053e+02 7.134751e+02 5.037561e+02 4.135023e+02 5.221359e+02 4.790279e+02 4.450416e+02 3.849081e+02 3.659406e+02 3.246317e+02 8.758358e+02 1.747017e+01 1.986472e+01 2.113687e+01 3.151756e+01 2.553683e+01 2.616752e+01 2.833206e+01 2.924463e+01 2.419239e+01 2.161283e+01 2.215028e+01 1.970738e+01 2.382774e+01 2.241656e+00 2.568586e+00 2.837280e+00 4.076566e+00 3.907719e+00 4.459889e+00 4.826849e+00 5.092137e+00 4.277680e+00 3.744569e+00 3.781318e+00 3.369734e+00 2.663310e+00
<GCONST> 2.093974e+02
<STATE> 4
<MEAN> 39
 1.379007e+01 -3.594039e+00 1.423046e+01 -1.174099e+01 2.908140e-01 2.561361e+00 1.081768e-01 7.416352e+00 -3.363314e+00 6.968055e+00 -6.597781e-01 3.980685e+00 1.141207e+02 -1.707089e-01 -1.752948e-01 2.219308e-01 4.470719e-01 1.325642e-01 -3.239319e-02 1.338321e-01 -2.992768e-02 9.235174e-02 -2.951103e-02 -1.245059e-01 9.306651e-02 1.541837e-01 -4.993396e-02 2.043422e-02 5.423751e-04 4.473914e-02 -1.221837e-02 -1.355460e-02 8.210074e-03 -2.407677e-02 -3.882317e-03 -7.086660e-03 -1.237349e-02 1.151278e-03 -7.273737e-02
<VARIANCE> 39
 4.635930e+02 4.201767e+02 4.451352e+02 7.462769e+02 4.988214e+02 4.203517e+02 5.412221e+02 4.902173e+02 4.473802e+02 3.937933e+02 3.775770e+02 3.349112e+02 8.168119e+02 1.696171e+01 1.939309e+01 2.121761e+01 3.101292e+01 2.477235e+01 2.617308e+01 2.888177e+01 2.998335e+01 2.422006e+01 2.154648e+01 2.245749e+01 1.999008e+01 2.325396e+01 2.168068e+00 2.472593e+00 2.791685e+00 3.978801e+00 3.754408e+00 4.401987e+00 4.860480e+00 5.164727e+00 4.253713e+00 3.692882e+00 3.784780e+00 3.385013e+00 2.612339e+00
<GCONST> 2.092583e+02
<TRANSP> 5
 0.000000e+00 1.000000e+00 0.000000e+00 0.000000e+00 0.000000e+00
 0.000000e+00 7.153291e-01 2.846709e-01 0.000000e+00 0.000000e+00
 0.000000e+00 0.000000e+00 7.153255e-01 2.846745e-01 0.000000e+00
 0.000000e+00 0.000000e+00 0.000000e+00 8.368335e-01 1.631665e-01
 0.000000e+00 0.000000e+00 0.000000e+00 0.000000e+00 0.000000e+00
<ENDHMM>
~h "z"
<BEGINHMM>
<NUMSTATES> 5
<STATE> 2
<MEAN> 39
 -5.955491e+00 5.283914e-01 1.624097e+01 5.381378e+00 2.533177e+00 -9.135922e+00 -5.348157e+00 1.528775e+00 -6.129823e+00 4.229269e+00 -2.980825e+00 5.175211e+00 1.023715e+02 2.612556e-01 6.587002e-02 1.276482e-01 1.728643e-01 2.465304e-01 -1.546123e-01 -1.088221e-01 3.352632e-02 -3.406078e-02 8.588067e-02 -1.624966e-02 5.649210e-02 6.246897e-01 2.639312e-02 -1.310882e-02 5.743642e-04 -8.757247e-03 7.164931e-03 -2.136110e-03 6.311919e-04 5.694850e-03 -1.851427e-03 6.590389e-03 4.046113e-03 2.674164e-03 5.283220e-02
<VARIANCE> 39
 6.874786e+02 4.741963e+02 6.557273e+02 4.177512e+02 3.745055e+02 4.852076e+02 5.396719e+02 3.482223e+02 3.204325e+02 2.994920e+02 2.604068e+02 2.566836e+02 1.289735e+03 2.480015e+01 2.110158e+01 3.067832e+01 2.170755e+01 2.013511e+01 2.274544e+01 2.213684e+01 2.244183e+01 1.889185e+01 1.725038e+01 1.621407e+01 1.498248e+01 1.860671e+01 3.076503e+00 2.751663e+00 3.946860e+00 3.298453e+00 3.241314e+00 3.612331e+00 3.582599e+00 3.766008e+00 3.209111e+00 3.005567e+00 2.817891e+00 2.649135e+00 2.381462e+00
<GCONST> 2.050990e+02
<STATE> 3
<MEAN> 39
 -4.805151e+00 6.542903e-01 1.685932e+01 5.962100e+00 3.456737e+00 -9.760753e+00 -5.723708e+00 1.688538e+00 -6.309096e+00 4.557594e+00 -3.032169e+00 5.416748e+00 1.053130e+02 3.692365e-01 -1.248881e-02 1.254057e-01 1.069120e-01 2.474561e-01 -1.699096e-01 -1.110835e-01 4.687053e-02 -4.698645e-02 1.005634e-01 8.658362e-03 6.584210e-02 8.086573e-01 2.614595e-02 -2.058446e-02 -1.534245e-03 -2.049043e-02 -2.618628e-03 1.951720e-04 2.888905e-03 3.066264e-03 -3.595601e-03 3.528209e-03 6.968840e-03 2.015594e-03 4.468727e-02
<VARIANCE> 39
 7.194739e+02 5.090211e+02 6.624337e+02 4.315937e+02 3.878886e+02 5.134870e+02 5.759006e+02 3.540809e+02 3.250014e+02 3.087774e+02 2.703957e+02 2.586588e+02 1.181219e+03 2.570711e+01 2.202964e+01 3.243648e+01 2.240787e+01 2.087852e+01 2.353479e+01 2.275729e+01 2.298214e+01 1.914303e+01 1.759596e+01 1.647441e+01 1.518417e+01 1.901369e+01 3.199316e+00 2.851171e+00 4.145692e+00 3.382087e+00 3.339538e+00 3.704187e+00 3.639931e+00 3.829261e+00 3.242529e+00 3.054183e+00 2.844155e+00 2.678174e+00 2.380609e+00
<GCONST> 2.060884e+02
<STATE> 4
<MEAN> 39
 -2.699999e+00 2.269123e-01 1.783036e+01 6.234484e+00 4.406198e+00 -1.070368e+01 -6.132110e+00 1.801330e+00 -6.602012e+00 4.978416e+00 -2.883508e+00 5.814937e+00 1.103054e+02 5.628804e-01 -2.303512e-01 8.644577e-02 -7.280979e-02 1.825766e-01 -2.192592e-01 -1.340051e-01 3.812734e-02 -7.065312e-02 1.094471e-01 6.513509e-02 6.280874e-02 9.232148e-01 2.638260e-02 -3.374369e-02 -1.467302e-02 -3.392741e-02 -1.411989e-02 2.055933e-03 1.615512e-03 -1.153052e-03 -2.203830e-03 1.915463e-03 1.030717e-02 -2.015020e-03 -1.950852e-04
<VARIANCE> 39
 7.552055e+02 5.571940e+02 6.864913e+02 4.545854e+02 4.056599e+02 5.588248e+02 6.301954e+02 3.669512e+02 3.364750e+02 3.275212e+02 2.851164e+02 2.603961e+02 1.005582e+03 2.608705e+01 2.265667e+01 3.481428e+01 2.311637e+01 2.172842e+01 2.459345e+01 2.345066e+01 2.362768e+01 1.938177e+01 1.789115e+01 1.660841e+01 1.531287e+01 1.875584e+01 3.223276e+00 2.892256e+00 4.352946e+00 3.456951e+00 3.427957e+00 3.795506e+00 3.689388e+00 3.879367e+00 3.254771e+00 3.069572e+00 2.832269e+00 2.683028e+00 2.280838e+00
<GCONST> 2.070136e+02
<TRANSP> 5
 0.000000e+00 1.000000e+00 0.000000e+00 0.000000e+00 0.000000e+00
 0.000000e+00 7.187793e-01 2.812207e-01 0.000000e+00 0.000000e+00
 0.000000e+00 0.000000e+00 7.187765e-01 2.812235e-01 0.000000e+00
 0.000000e+00 0.000000e+00 0.000000e+00 8.404862e-01 1.595137e-01
 0.000000e+00 0.000000e+00 0.000000e+00 0.000000e+00 0.000000e+00
<ENDHMM>
~h "ah"
<BEGINHMM>
<NUMSTATES> 5
<STATE> 2
<MEAN> 39
 8.352150e+00 -5.673171e+00 1.621291e+01 -4.681568e+00 8.354571e-02 -1.573998e+00 -1.372619e-01 4.787146e+00 -1.369053e+00 7.879978e+00 -2.592968e+00 5.233161e+00 1.152500e+02 -9.009096e-02 7.325382e-02 2.443878e-01 4.678846e-01 7.115480e-02 9.452286e-02 2.378093e-01 -7.133835e-02 -6.246729e-03 -9.825893e-02 -1.312127e-01 5.243168e-02 -3.721719e-01 -4.877999e-02 2.033528e-02 -2.496639e-02 1.910030e-03 -1.306835e-02 -5.756845e-03 -2.924017e-03 -5.791836e-03 -7.103413e-03 -1.199916e-02 -6.434655e-04 -5.473766e-03 -5.325114e-02
<VARIANCE> 39
 5.507482e+02 3.650394e+02 4.280325e+02 6.436031e+02 3.969337e+02 4.379592e+02 5.637899e+02 4.425822e+02 4.414963e+02 4.048272e+02 3.732436e+02 3.390388e+02 7.392382e+02 2.297544e+01 1.880577e+01 2.099846e+01 2.955236e+01 2.204283e+01 2.686448e+01 3.002819e+01 2.923532e+01 2.471326e+01 2.113208e+01 2.180206e+01 1.941378e+01 2.614465e+01 3.033405e+00 2.710083e+00 2.956887e+00 4.402868e+00 3.613220e+00 4.676965e+00 5.094432e+00 5.193981e+00 4.362794e+00 3.599720e+00 3.643685e+00 3.315235e+00 3.554017e+00
<GCONST> 2.098754e+02
<STATE> 3
<MEAN> 39
 7.809610e+00 -5.299940e+00 1.696794e+01 -3.024825e+00 2.539997e-01 -1.284282e+00 6.903981e-01 4.494680e+00 -1.426684e+00 7.483552e+00 -3.055947e+00 5.407814e+00 1.137004e+02 -2.390852e-01 1.337754e-01 1.503848e-01 4.456058e-01 2.420797e-02 7.216793e-02 2.150944e-01 -8.166608e-02 -2.766916e-02 -1.334187e-01 -1.254605e-01 2.998576e-02 -5.324529e-01 -3.662524e-02 1.097007e-02 -3.283555e-02 -1.959789e-02 -1.136742e-02 -9.125251e-03 -1.580532e-02 -1.234701e-05 -5.876544e-03 -6.859051e-03 6.479701e-03 -8.853513e-03 -3.456344e-02
<VARIANCE> 39
 5.305699e+02 3.571931e+02 4.350762e+02 6.484503e+02 3.855539e+02 4.350297e+02 5.627397e+02 4.422632e+02 4.373330e+02 4.037589e+02 3.707820e+02 3.375927e+02 7.579216e+02 2.268421e+01 1.830325e+01 2.126394e+01 2.898438e+01 2.153107e+01 2.648734e+01 2.976433e+01 2.925058e+01 2.433147e+01 2.084128e+01 2.160383e+01 1.926209e+01 2.540970e+01 2.979256e+00 2.659795e+00 2.966933e+00 4.334515e+00 3.553714e+00 4.591608e+00 5.029888e+00 5.187277e+00 4.291669e+00 3.555710e+00 3.616853e+00 3.285712e+00 3.481476e+00
<GCONST> 2.094725e+02
<STATE> 4
<MEAN> 39
 6.643406e+00 -4.651421e+00 1.734178e+01 -1.580197e+00 2.089162e-01 -9.611747e-01 1.494588e+00 4.227415e+00 -1.527234e+00 6.816091e+00 -3.440308e+00 5.532083e+00 1.114374e+02 -3.538269e-01 1.540596e-01 1.301295e-02 3.340391e-01 -1.740720e-02 3.040674e-02 1.351452e-01 -7.099924e-02 -4.621206e-02 -1.475834e-01 -8.935293e-02 -6.583233e-03 -6.407715e-01 -1.906445e-02 -1.201423e-03 -3.444772e-02 -3.530458e-02 -5.947962e-03 -1.164552e-02 -2.631441e-02 4.594398e-03 -4.152405e-03 8.575158e-04 1.237930e-02 -1.002664e-02 -1.256916e-02
<VARIANCE> 39
 5.226923e+02 3.503644e+02 4.526422e+02 6.472241e+02 3.756664e+02 4.305170e+02 5.541573e+02 4.395499e+02 4.293042e+02 3.981788e+02 3.609756e+02 3.307479e+02 8.081866e+02 2.236120e+01 1.749924e+01 2.147749e+01 2.770392e+01 2.069138e+01 2.552506e+01 2.875476e+01 2.858397e+01 2.348937e+01 2.024300e+01 2.093368e+01 1.876596e+01 2.469794e+01 2.918932e+00 2.565627e+00 2.954491e+00 4.159514e+00 3.428477e+00 4.392224e+00 4.826355e+00 5.038692e+00 4.126536e+00 3.459173e+00 3.520801e+00 3.199275e+00 3.397777e+00
<GCONST> 2.086260e+02
<TRANSP> 5
 0.000000e+00 1.000000e+00 0.000000e+00 0.000000e+00 0.000000e+00
 0.000000e+00 7.120116e-01 2.879883e-01 0.000000e+00 0.000000e+00
 0.000000e+00 0.000000e+00 7.120104e-01 2.879896e-01 0.000000e+00
 0.000000e+00 0.000000e+00 0.000000e+00 8.327249e-01 1.672751e-01
 0.000000e+00 0.000000e+00 0.000000e+00 0.000000e+00 0.000000e+00
<ENDHMM>
~h "ao"
<BEGINHMM>
<NUMSTATES> 5
<STATE> 2
<MEAN> 39
 8.138391e+00 -3.092204e+00 3.371091e+00 -1.459448e+01 -4.804334e+00 -4.470150e+00 -4.216568e+00 5.547115e+00 -8.361272e+00 6.561847e+00 -2.850150e+00 4.423089e+00 1.072755e+02 5.031592e-01 -4.430438e-02 -1.444472e-01 -3.719774e-02 1.705739e-01 -1.014461e-01 2.312408e-02 1.970701e-01 3.610788e-02 4.934910e-02 4.360431e-02 5.135949e-02 4.000510e-01 -3.770678e-02 -2.501316e-03 1.051361e-02 3.596539e-02 1.137783e-02 5.955516e-04 2.639575e-03 -4.796658e-03 1.127507e-02 -5.391082e-03 2.158946e-03 -5.160367e-03 -4.528438e-02
<VARIANCE> 39
 9.588788e+02 3.388690e+02 4.334883e+02 7.206342e+02 5.496883e+02 3.757803e+02 4.668375e+02 3.880028e+02 3.867827e+02 3.293466e+02 2.703894e+02 2.749633e+02 7.175596e+02 3.662780e+01 1.944882e+01 2.077188e+01 3.028624e+01 2.467898e+01 2.016701e+01 2.313527e+01 2.175294e+01 2.176213e+01 2.006317e+01 1.836843e+01 1.883232e+01 2.195864e+01 4.514273e+00 2.893158e+00 2.828691e+00 4.083800e+00 3.423242e+00 3.350878e+00 3.841344e+00 3.689147e+00 3.641794e+00 3.432873e+00 3.197162e+00 3.229381e+00 2.841340e+00
<GCONST> 2.073838e+02
<STATE> 3
<MEAN> 39
 9.918299e+00 -3.304375e+00 2.802586e+00 -1.446833e+01 -4.014059e+00 -4.893430e+00 -4.138737e+00 6.284226e+00 -8.148129e+00 6.733057e+00 -2.614381e+00 4.603277e+00 1.084885e+02 3.031099e-01 -7.197458e-02 -1.117367e-01 1.351570e-01 2.280817e-01 -9.045588e-02 2.871210e-02 1.678919e-01 8.458620e-02 2.363065e-02 4.941756e-02 3.003611e-02 1.908600e-01 -5.350560e-02 -5.955055e-04 1.447800e-02 3.553486e-02 5.306759e-03 4.143767e-03 1.247779e-03 -1.113203e-02 8.793590e-03 -7.051851e-03 1.368591e-04 -6.458653e-03 -5.439893e-02
<VARIANCE> 39
 9.230096e+02 3.460773e+02 4.525351e+02 7.320833e+02 5.833806e+02 3.975996e+02 4.947498e+02 4.018799e+02 4.041051e+02 3.437190e+02 2.802745e+02 2.833845e+02 6.858814e+02 3.591415e+01 1.948225e+01 2.143409e+01 3.021211e+01 2.547892e+01 2.099914e+01 2.386208e+01 2.221058e+01 2.237382e+01 2.068937e+01 1.886277e+01 1.930133e+01 2.157272e+01 4.336721e+00 2.871455e+00 2.912857e+00 4.029928e+00 3.483964e+00 3.463605e+00 3.944517e+00 3.735594e+00 3.723178e+00 3.521275e+00 3.270419e+00 3.300139e+00 2.748749e+00
<GCONST> 2.080859e+02
<STATE> 4
<MEAN> 39
 1.149184e+01 -3.707937e+00 2.015249e+00 -1.382722e+01 -2.773880e+00 -5.436689e+00 -4.018845e+00 7.028157e+00 -7.539378e+00 6.956866e+00 -2.221562e+00 4.756559e+00 1.094333e+02 -3.770684e-02 -1.219003e-01 -6.666935e-02 3.760132e-01 2.956154e-01 -5.450335e-02 3.213485e-02 1.009010e-01 1.490903e-01 -1.886163e-02 4.324462e-02 1.960997e-03 -1.207272e-01 -6.302590e-02 3.880198e-03 2.013388e-02 2.592045e-02 -5.137482e-03 9.389946e-03 6.309025e-04 -1.706935e-02 5.705108e-03 -7.860614e-03 -3.726631e-03 -6.416888e-03 -5.359297e-02
<VARIANCE> 39
 8.693483e+02 3.549064e+02 4.859492e+02 7.419728e+02 6.149606e+02 4.279613e+02 5.294199e+02 4.142303e+02 4.254432e+02 3.610925e+02 2.926526e+02 2.932134e+02 6.948232e+02 3.349483e+01 1.899258e+01 2.198611e+01 2.907422e+01 2.599560e+01 2.198234e+01 2.450473e+01 2.255394e+01 2.287744e+01 2.122920e+01 1.926945e+01 1.967116e+01 2.140233e+01 3.967132e+00 2.760192e+00 2.960954e+00 3.857054e+00 3.496757e+00 3.586071e+00 4.027577e+00 3.754785e+00 3.790230e+00 3.592390e+00 3.321635e+00 3.343999e+00 2.700815e+00
<GCONST> 2.085885e+02
<TRANSP> 5
 0.000000e+00 1.000000e+00 0.000000e+00 0.000000e+00 0.000000e+00
 0.000000e+00 7.318304e-01 2.681696e-01 0.000000e+00 0.000000e+00
 0.000000e+00 0.000000e+00 7.318370e-01 2.681630e-01 0.000000e+00
 0.000000e+00 0.000000e+00 0.000000e+00 8.564142e-01 1.435858e-01
 0.000000e+00 0.000000e+00 0.000000e+00 0.000000e+00 0.000000e+00
<ENDHMM>
~h "ay"
<BEGINHMM>
<NUMSTATES> 5
<STATE> 2
<MEAN> 39
 4.915909e+00 -1.702396e+01 1.038675e+01 -7.082108e+00 1.878132e+00 8.453333e-01 -3.943455e-01 7.050885e+00 1.329562e+00 7.569342e+00 -2.422321e+00 2.375751e+00 1.182521e+02 1.377572e-01 -9.377000e-02 1.267537e-01 7.822239e-03 -8.994406e-03 -3.595353e-02 1.202679e-01 1.285388e-01 3.496689e-02 2.838363e-02 -4.547886e-02 2.293444e-02 3.558654e-01 -3.035814e-02 2.925718e-02 -3.763265e-03 1.409258e-02 -8.654674e-03 -1.118982e-02 -2.331616e-03 -8.699238e-03 -1.119221e-02 -9.606097e-03 -1.339255e-04 2.039148e-03 -6.729259e-02
<VARIANCE> 39
 4.755078e+02 4.323087e+02 4.657619e+02 5.288051e+02 3.952296e+02 3.761623e+02 4.496635e+02 4.374623e+02 4.009113e+02 3.409864e+02 3.323180e+02 3.221212e+02 1.047861e+03 2.240986e+01 1.632155e+01 1.775223e+01 2.449822e+01 1.802989e+01 2.032710e+01 2.257045e+01 2.332365e+01 1.966860e+01 1.665153e+01 1.672191e+01 1.490527e+01 2.750949e+01 3.278797e+00 2.219970e+00 2.382019e+00 3.736307e+00 2.829356e+00 3.373468e+00 3.671965e+00 3.907938e+00 3.285380e+00 2.832650e+00 2.855884e+00 2.491375e+00 3.048111e+00
<GCONST> 2.039550e+02
<STATE> 3
<MEAN> 39
 5.174313e+00 -1.709239e+01 1.093461e+01 -6.871590e+00 1.712176e+00 5.630050e-01 9.335180e-02 7.459512e+00 1.356511e+00 7.601497e+00 -2.597780e+00 2.501354e+00 1.189555e+02 5.246973e-04 5.135807e-02 1.252974e-01 8.942246e-02 -5.190343e-02 -7.608331e-02 1.216786e-01 7.580504e-02 -1.762865e-02 -7.235066e-03 -5.105173e-02 3.526333e-02 4.315240e-02 -3.310155e-02 3.482141e-02 -4.806145e-03 1.647193e-02 -8.238836e-03 -8.972824e-03 -3.659094e-03 -1.249915e-02 -1.235699e-02 -9.522082e-03 2.173683e-04 1.328691e-03 -7.675903e-02
<VARIANCE> 39
 4.609459e+02 4.357903e+02 4.681199e+02 5.354345e+02 3.963932e+02 3.791069e+02 4.588792e+02 4.397261e+02 4.015280e+02 3.419188e+02 3.327314e+02 3.245572e+02 9.977957e+02 2.201418e+01 1.633053e+01 1.790114e+01 2.464258e+01 1.826712e+01 2.052650e+01 2.264340e+01 2.341706e+01 1.969680e+01 1.668500e+01 1.669062e+01 1.500198e+01 2.665760e+01 3.195476e+00 2.195395e+00 2.399881e+00 3.763832e+00 2.871048e+00 3.404596e+00 3.668766e+00 3.903197e+00 3.281788e+00 2.836196e+00 2.846265e+00 2.509348e+00 2.969442e+00
<GCONST> 2.039308e+02
<STATE> 4
<MEAN> 39
 4.874761e+00 -1.636555e+01 1.173878e+01 -6.312307e+00 1.210679e+00 8.602963e-02 9.222122e-01 7.631802e+00 1.153478e+00 7.419925e+00 -2.900100e+00 2.822453e+00 1.184998e+02 -1.879188e-01 2.744168e-01 1.249098e-01 2.180019e-01 -1.107950e-01 -1.174101e-01 1.227842e-01 -2.196381e-02 -9.111962e-02 -4.969272e-02 -6.227805e-02 5.456183e-02 -4.203146e-01 -2.692516e-02 3.063257e-02 -9.759067e-03 1.148811e-02 -3.300414e-03 -2.923889e-03 -7.538164e-03 -1.379615e-02 -9.693732e-03 -7.364515e-03 1.253051e-03 -3.543955e-04 -6.594086e-02
<VARIANCE> 39
 4.503550e+02 4.380764e+02 4.758026e+02 5.414683e+02 3.953154e+02 3.823958e+02 4.682059e+02 4.410130e+02 4.006783e+02 3.419414e+02 3.292752e+02 3.224955e+02 9.821445e+02 2.112879e+01 1.598402e+01 1.811224e+01 2.447667e+01 1.843594e+01 2.068463e+01 2.256695e+01 2.339712e+01 1.961072e+01 1.677437e+01 1.661668e+01 1.509161e+01 2.506972e+01 3.033513e+00 2.153779e+00 2.424747e+00 3.767318e+00 2.911411e+00 3.436083e+00 3.643672e+00 3.874512e+00 3.268993e+00 2.854767e+00 2.833584e+00 2.535848e+00 2.900932e+00
<GCONST> 2.037651e+02
<TRANSP> 5
 0.000000e+00 1.000000e+00 0.000000e+00 0.000000e+00 0.000000e+00
 0.000000e+00 7.332913e-01 2.667087e-01 0.000000e+00 0.000000e+00
 0.000000e+00 0.000000e+00 7.332854e-01 2.667146e-01 0.000000e+00
 0.000000e+00 0.000000e+00 0.000000e+00 8.586757e-01 1.413242e-01
 0.000000e+00 0.000000e+00 0.000000e+00 0.000000e+00 0.000000e+00
<ENDHMM>
~h "eh"
<BEGINHMM>
<NUMSTATES> 5
<STATE> 2
<MEAN> 39
 -1.306607e+01 -3.955699e+00 7.218044e+00 -2.969327e+00 -3.224421e+00 -8.170892e+00 -4.301004e+00 1.936411e+00 -2.172593e+00 6.747718e+00 -3.029838e+00 5.519769e+00 1.106863e+02 3.953155e-01 -2.026227e-01 1.466368e-01 -7.772650e-02 7.152565e-03 -8.302947e-02 -2.409409e-02 5.442184e-02 2.082195e-01 1.696773e-01 -1.579252e-02 5.182530e-02 8.680450e-01 6.906387e-02 -1.621859e-02 3.595445e-02 6.549646e-03 7.011634e-03 7.726190e-03 4.536114e-03 3.176316e-03 3.939429e-03 3.351608e-03 3.282405e-03 -3.151608e-03 -1.102500e-02
<VARIANCE> 39
 9.624478e+02 3.221441e+02 4.953851e+02 3.783769e+02 3.117101e+02 3.631472e+02 4.325182e+02 3.020890e+02 3.735160e+02 3.202988e+02 2.751642e+02 2.691440e+02 9.749578e+02 4.223892e+01 1.840799e+01 2.509936e+01 2.304682e+01 1.824620e+01 2.389095e+01 2.579687e+01 2.145212e+01 2.249322e+01 1.903545e+01 1.810594e+01 1.685345e+01 2.891766e+01 5.497782e+00 2.854912e+00 3.645570e+00 3.874644e+00 3.199605e+00 4.245917e+00 4.469965e+00 3.954787e+00 3.941529e+00 3.306752e+00 3.141132e+00 3.000180e+00 4.116505e+00
<GCONST> 2.073306e+02
<STATE> 3
<MEAN> 39
 -1.120219e+01 -4.793608e+00 7.992541e+00 -3.217323e+00 -3.166450e+00 -8.431682e+00 -4.367553e+00 2.155331e+00 -1.386772e+00 7.351086e+00 -3.056840e+00 5.683452e+00 1.135909e+02 6.368994e-01 -2.526024e-01 2.767593e-01 -5.199797e-02 3.647383e-02 -4.744679e-02 -5.125016e-03 5.713842e-02 2.144700e-01 1.808222e-01 -4.864722e-03 3.792274e-02 7.766649e-01 6.135508e-02 -8.884057e-03 3.604639e-02 1.164798e-02 8.770161e-03 1.307165e-02 8.510040e-03 4.988381e-04 -1.770642e-03 1.911740e-04 1.738266e-03 -3.616075e-03 -3.562125e-02
<VARIANCE> 39
 9.758856e+02 3.307618e+02 4.839635e+02 3.819817e+02 3.143366e+02 3.695070e+02 4.567376e+02 3.064168e+02 3.836184e+02 3.355228e+02 2.874892e+02 2.819178e+02 8.872424e+02 4.197075e+01 1.878451e+01 2.458843e+01 2.378123e+01 1.839051e+01 2.454615e+01 2.676580e+01 2.190744e+01 2.302564e+01 1.936589e+01 1.847626e+01 1.718235e+01 2.931409e+01 5.520921e+00 2.903629e+00 3.620011e+00 4.010140e+00 3.220696e+00 4.383775e+00 4.626684e+00 4.044601e+00 4.032742e+00 3.336252e+00 3.170206e+00 3.042583e+00 4.184408e+00
<GCONST> 2.079471e+02
<STATE> 4
<MEAN> 39
 -7.629962e+00 -6.081542e+00 9.643040e+00 -3.425304e+00 -3.032326e+00 -8.356385e+00 -4.224172e+00 2.539003e+00 -3.434344e-01 8.045899e+00 -3.024155e+00 5.868024e+00 1.168111e+02 8.323978e-01 -2.590638e-01 4.062909e-01 3.531846e-03 8.498242e-02 2.335805e-02 4.066020e-02 4.646909e-02 1.828079e-01 1.703608e-01 -4.635232e-03 1.924538e-02 5.448980e-01 2.530953e-02 7.948898e-03 2.196762e-02 1.766545e-02 9.606219e-03 1.853284e-02 1.393427e-02 -2.984703e-03 -1.177602e-02 -6.463167e-03 -1.537475e-03 -3.033586e-03 -5.792444e-02
<VARIANCE> 39
 9.415516e+02 3.385274e+02 4.673326e+02 3.944009e+02 3.169092e+02 3.805273e+02 4.939593e+02 3.185230e+02 3.978322e+02 3.572913e+02 3.055938e+02 2.997908e+02 8.097699e+02 3.970185e+01 1.911087e+01 2.352142e+01 2.501627e+01 1.872111e+01 2.551630e+01 2.793480e+01 2.287147e+01 2.370118e+01 1.978066e+01 1.900477e+01 1.757663e+01 3.008857e+01 5.315533e+00 2.953125e+00 3.521932e+00 4.232289e+00 3.268705e+00 4.594542e+00 4.814486e+00 4.216432e+00 4.148416e+00 3.371386e+00 3.215494e+00 3.094249e+00 4.333721e+00
<GCONST> 2.087074e+02
<TRANSP> 5
 0.000000e+00 1.000000e+00 0.000000e+00 0.000000e+00 0.000000e+00
 0.000000e+00 7.086059e-01 2.913941e-01 0.000000e+00 0.000000e+00
 0.000000e+00 0.000000e+00 7.086048e-01 2.913952e-01 0.000000e+00
 0.000000e+00 0.000000e+00 0.000000e+00 8.284174e-01 1.715826e-01
 0.000000e+00 0.000000e+00 0.000000e+00 0.000000e+00 0.000000e+00
<ENDHMM>
~h "ey"
<BEGINHMM>
<NUMSTATES> 5
<STATE> 2
<MEAN> 39
 -7.888509e+00 -4.481871e+00 2.478606e+01 -7.666493e+00 -9.410096e+00 -8.094538e+00 -2.705607e+00 -2.265386e+00 -5.948637e+00 5.716268e+00 -2.390191e+00 5.486094e+00 9.953255e+01 -3.000962e-02 2.546095e-02 4.070365e-01 -5.732647e-02 -9.323134e-02 -6.046419e-03 6.329408e-02 -8.688682e-02 -4.459447e-02 2.136886e-02 -4.851006e-02 3.075087e-02 3.436083e-01 1.595568e-02 -7.033973e-03 2.477833e-03 4.906945e-04 5.833535e-03 3.623402e-03 3.230920e-03 6.145325e-03 -9.442951e-04 -2.205272e-03 -2.019829e-03 -3.789030e-04 2.845772e-02
<VARIANCE> 39
 4.229098e+02 2.975686e+02 9.123119e+02 4.918375e+02 3.203719e+02 3.469293e+02 4.046710e+02 3.927030e+02 4.452060e+02 2.977451e+02 2.465224e+02 2.365806e+02 1.591085e+03 1.520621e+01 1.506600e+01 3.065186e+01 2.242152e+01 1.848719e+01 1.959904e+01 2.193209e+01 2.268852e+01 2.192364e+01 1.788309e+01 1.670321e+01 1.599683e+01 5.553750e+01 2.291640e+00 2.432741e+00 4.025584e+00 3.724882e+00 3.129440e+00 3.352204e+00 3.794933e+00 3.942666e+00 3.762493e+00 3.184588e+00 3.018209e+00 2.840741e+00 7.514482e+00
<GCONST> 2.059462e+02
<STATE> 3
<MEAN> 39
 -7.809315e+00 -4.400718e+00 2.667076e+01 -7.920495e+00 -9.722192e+00 -8.064970e+00 -2.439838e+00 -2.600599e+00 -6.173420e+00 5.742836e+00 -2.620428e+00 5.617777e+00 1.013590e+02 1.084671e-02 2.588964e-02 3.657530e-01 -2.506573e-02 -4.627414e-02 2.364070e-02 7.114665e-02 -6.340552e-02 -4.476988e-02 -1.996365e-04 -5.596193e-02 2.128491e-02 3.585524e-01 1.283028e-02 -5.159019e-04 -1.037594e-02 7.612670e-03 1.190651e-02 7.988887e-03 1.024388e-03 6.555761e-03 1.048396e-03 -4.319840e-03 -1.878680e-03 -2.735480e-03 5.309328e-03
<VARIANCE> 39
 4.088923e+02 3.022376e+02 9.331806e+02 5.066409e+02 3.242054e+02 3.479796e+02 4.034485e+02 3.987694e+02 4.556308e+02 2.997446e+02 2.498111e+02 2.402559e+02 1.536751e+03 1.585637e+01 1.569086e+01 3.312233e+01 2.324390e+01 1.882195e+01 1.975336e+01 2.211672e+01 2.298815e+01 2.240210e+01 1.809912e+01 1.694649e+01 1.627291e+01 6.007100e+01 2.396170e+00 2.530203e+00 4.298709e+00 3.857917e+00 3.181158e+00 3.367653e+00 3.818958e+00 3.980323e+00 3.817870e+00 3.211873e+00 3.049658e+00 2.880556e+00 8.017568e+00
<GCONST> 2.067520e+02
<STATE> 4
<MEAN> 39
 -7.839368e+00 -3.659562e+00 2.894258e+01 -8.244954e+00 -9.685925e+00 -7.368721e+00 -2.217847e+00 -3.251707e+00 -6.265482e+00 5.428399e+00 -2.955361e+00 5.691594e+00 1.033971e+02 -2.405582e-02 8.628473e-02 7.258119e-02 1.147616e-01 8.900137e-02 8.933415e-02 6.912591e-02 -1.769366e-02 -2.286102e-02 -6.194624e-02 -5.469668e-02 -1.454902e-02 4.504046e-02 -5.497554e-04 5.396211e-03 -4.734392e-02 1.849236e-02 1.820696e-02 9.945870e-03 -1.344619e-03 9.503588e-03 6.605309e-03 -5.466589e-03 1.218006e-03 -5.623569e-03 -4.391444e-02
<VARIANCE> 39
 3.901606e+02 3.091578e+02 9.690686e+02 5.249550e+02 3.293102e+02 3.469689e+02 3.946967e+02 4.073564e+02 4.663260e+02 3.042780e+02 2.562871e+02 2.450393e+02 1.456465e+03 1.626422e+01 1.612928e+01 3.589390e+01 2.399376e+01 1.895065e+01 1.959770e+01 2.203352e+01 2.322826e+01 2.285058e+01 1.837667e+01 1.730537e+01 1.654399e+01 6.337080e+01 2.470426e+00 2.601886e+00 4.610709e+00 3.989407e+00 3.203580e+00 3.329177e+00 3.800940e+00 4.004606e+00 3.882138e+00 3.247434e+00 3.088706e+00 2.915944e+00 8.392323e+00
<GCONST> 2.073967e+02
<TRANSP> 5
 0.000000e+00 1.000000e+00 0.000000e+00 0.000000e+00 0.000000e+00
 0.000000e+00 7.410942e-01 2.589058e-01 0.000000e+00 0.000000e+00
 0.000000e+00 0.000000e+00 7.410920e-01 2.589079e-01 0.000000e+00
 0.000000e+00 0.000000e+00 0.000000e+00 8.690489e-01 1.309511e-01
 0.000000e+00 0.000000e+00 0.000000e+00 0.000000e+00 0.000000e+00
<ENDHMM>
~h "hh"
<BEGINHMM>
<NUMSTATES> 5
<STATE> 2
<MEAN> 39
 5.856113e+00 -1.234234e+00 1.052097e+01 -9.868496e+00 -2.161381e+00 -1.686101e-01 -1.801082e+00 3.560869e+00 -4.971121e+00 6.200792e+00 -7.981256e-01 3.296528e+00 1.003642e+02 6.171169e-01 1.837099e-01 1.734949e-01 -2.869197e-01 -4.882067e-03 2.493280e-01 1.540079e-01 1.829236e-01 8.176993e-03 8.178895e-02 3.750831e-02 -2.049402e-02 5.153085e-01 1.798915e-02 -1.403405e-02 1.422338e-02 3.050692e-03 6.556837e-03 -4.428104e-03 -3.799916e-03 1.196679e-02 7.780562e-03 1.890770e-03 -2.464505e-03 3.304387e-03 4.930020e-02
<VARIANCE> 39
 6.847325e+02 3.704410e+02 4.672923e+02 5.582285e+02 4.076515e+02 3.830674e+02 4.458396e+02 4.124134e+02 4.084769e+02 3.386261e+02 2.988825e+02 2.786684e+02 1.304272e+03 1.728824e+01 1.737021e+01 1.983073e+01 2.508887e+01 2.215865e+01 2.295228e+01 2.414571e+01 2.390771e+01 2.171764e+01 1.924934e+01 1.884052e+01 1.679984e+01 2.371029e+01 2.347017e+00 2.512131e+00 2.767297e+00 3.710008e+00 3.574502e+00 4.015258e+00 4.230404e+00 4.254627e+00 3.867052e+00 3.450157e+00 3.345895e+00 2.971561e+00 3.079957e+00
<GCONST> 2.061474e+02
<STATE> 3
<MEAN> 39
 8.278467e+00 -7.639069e-01 1.120205e+01 -1.098737e+01 -2.111891e+00 6.682928e-01 -1.334899e+00 4.342198e+00 -4.891176e+00 6.509616e+00 -6.552246e-01 3.247389e+00 1.027403e+02 6.516085e-01 9.624649e-02 1.984061e-01 -2.874733e-01 2.959337e-02 2.257539e-01 1.270093e-01 2.202435e-01 3.962465e-02 8.516792e-02 3.626903e-02 -4.128527e-03 6.875448e-01 3.256968e-03 -2.735693e-02 8.210984e-03 5.512731e-03 1.061350e-02 -9.336772e-03 -7.919790e-03 6.988146e-03 8.996293e-03 7.605857e-04 -2.081379e-03 6.329819e-03 4.499125e-02
<VARIANCE> 39
 6.532852e+02 3.883517e+02 4.540702e+02 5.897849e+02 4.344771e+02 3.884584e+02 4.602404e+02 4.274826e+02 4.166090e+02 3.476221e+02 3.126030e+02 2.876257e+02 1.210635e+03 1.809743e+01 1.841326e+01 2.030095e+01 2.700113e+01 2.344768e+01 2.385488e+01 2.512521e+01 2.502634e+01 2.239804e+01 1.987774e+01 1.958158e+01 1.743817e+01 2.439803e+01 2.430379e+00 2.605052e+00 2.826304e+00 3.882269e+00 3.750021e+00 4.168800e+00 4.385688e+00 4.451947e+00 3.986128e+00 3.540833e+00 3.455711e+00 3.064704e+00 3.050315e+00
<GCONST> 2.073306e+02
<STATE> 4
<MEAN> 39
 1.132729e+01 -7.872580e-01 1.200310e+01 -1.268255e+01 -1.763884e+00 1.660338e+00 -9.583713e-01 5.559150e+00 -4.510943e+00 6.891744e+00 -4.178196e-01 3.324208e+00 1.069140e+02 5.308385e-01 -8.839889e-02 1.746581e-01 -2.235035e-01 1.016040e-01 1.662577e-01 8.090589e-02 2.331747e-01 7.322471e-02 5.895165e-02 3.530925e-02 2.065419e-02 7.756849e-01 -3.456241e-02 -3.243793e-02 -2.584628e-04 2.663399e-02 1.323380e-02 -1.344386e-02 -5.900201e-03 -4.915214e-03 6.716263e-03 -4.980318e-03 -4.928626e-03 6.882046e-03 2.839134e-03
<VARIANCE> 39
 5.901276e+02 4.159844e+02 4.440306e+02 6.407993e+02 4.757649e+02 3.989474e+02 4.877593e+02 4.491241e+02 4.291114e+02 3.638452e+02 3.320909e+02 3.017476e+02 1.076508e+03 1.822117e+01 1.945105e+01 2.067779e+01 2.930599e+01 2.482291e+01 2.484701e+01 2.632150e+01 2.662737e+01 2.317871e+01 2.061097e+01 2.053146e+01 1.830464e+01 2.486093e+01 2.407726e+00 2.647527e+00 2.845135e+00 4.027548e+00 3.893109e+00 4.311331e+00 4.555699e+00 4.707116e+00 4.109260e+00 3.629833e+00 3.580784e+00 3.185199e+00 2.957868e+00
<GCONST> 2.085162e+02
<TRANSP> 5
 0.000000e+00 1.000000e+00 0.000000e+00 0.000000e+00 0.000000e+00
 0.000000e+00 7.153296e-01 2.846704e-01 0.000000e+00 0.000000e+00
 0.000000e+00 0.000000e+00 7.153305e-01 2.846694e-01 0.000000e+00
 0.000000e+00 0.000000e+00 0.000000e+00 8.368444e-01 1.631556e-01
 0.000000e+00 0.000000e+00 0.000000e+00 0.000000e+00 0.000000e+00
<ENDHMM>
~h "ih"
<BEGINHMM>
<NUMSTATES> 5
<STATE> 2
<MEAN> 39
 -2.281817e+01 -1.204286e+00 7.133398e+00 2.003710e+00 -5.828875e+00 -1.196777e+01 -4.654431e+00 2.725090e-01 -6.630681e+00 3.681985e+00 -3.263000e+00 6.216313e+00 1.035990e+02 -2.067324e-01 -2.526324e-02 -5.584272e-02 8.844138e-02 -1.935790e-02 -1.362042e-01 -3.122025e-02 3.454680e-02 -1.492244e-02 -8.100739e-03 -3.759755e-02 2.521918e-02 2.953285e-01 3.165134e-02 -7.733852e-03 9.889003e-03 -3.369260e-03 6.079793e-03 8.895360e-03 3.680414e-03 4.387121e-03 4.621127e-03 5.058398e-04 2.651419e-03 -4.774765e-03 -1.902567e-02
<VARIANCE> 39
 7.929536e+02 2.621604e+02 6.573316e+02 3.455405e+02 3.384952e+02 3.882839e+02 3.760311e+02 3.121215e+02 2.988917e+02 2.304682e+02 2.150345e+02 2.150833e+02 9.737307e+02 4.217153e+01 2.148341e+01 3.545536e+01 2.243901e+01 1.858027e+01 2.564859e+01 2.701391e+01 2.324324e+01 2.286554e+01 1.858569e+01 1.644069e+01 1.632507e+01 5.181030e+01 5.748468e+00 3.950455e+00 4.658011e+00 3.925448e+00 3.345274e+00 4.545529e+00 4.786790e+00 4.251878e+00 4.106124e+00 3.480264e+00 3.040883e+00 2.990409e+00 7.766547e+00
<GCONST> 2.088475e+02
<STATE> 3
<MEAN> 39
 -2.324096e+01 -1.386585e+00 7.082373e+00 2.331623e+00 -5.868145e+00 -1.244788e+01 -4.748015e+00 4.086753e-01 -6.649079e+00 3.658454e+00 -3.359434e+00 6.277096e+00 1.043865e+02 -1.024632e-01 -4.813215e-02 -3.723908e-02 7.340865e-02 8.919549e-03 -9.301591e-02 -1.641268e-02 4.928895e-02 3.203317e-03 -6.753439e-03 -2.771552e-02 3.611573e-03 1.790732e-01 3.590495e-02 -7.170117e-03 8.591746e-03 -4.686661e-03 7.113371e-03 1.243007e-02 4.797313e-03 3.690535e-03 5.056748e-03 6.627079e-04 2.901806e-03 -5.838041e-03 -3.127069e-02
<VARIANCE> 39
 7.938638e+02 2.636150e+02 6.655085e+02 3.475184e+02 3.440916e+02 3.885049e+02 3.792700e+02 3.175215e+02 3.017141e+02 2.297682e+02 2.152175e+02 2.149872e+02 9.369524e+02 4.292277e+01 2.230151e+01 3.625213e+01 2.280024e+01 1.881869e+01 2.624489e+01 2.771282e+01 2.382718e+01 2.349737e+01 1.884060e+01 1.658371e+01 1.651325e+01 5.514292e+01 5.879210e+00 4.147392e+00 4.768202e+00 4.012056e+00 3.396888e+00 4.671010e+00 4.931839e+00 4.363651e+00 4.226973e+00 3.543537e+00 3.073686e+00 3.032163e+00 8.380075e+00
<GCONST> 2.095482e+02
<STATE> 4
<MEAN> 39
 -2.306418e+01 -1.803867e+00 7.114981e+00 2.562587e+00 -6.016948e+00 -1.279119e+01 -4.817419e+00 5.540783e-01 -6.463234e+00 3.726999e+00 -3.337877e+00 6.315256e+00 1.047420e+02 -1.935269e-02 -6.212751e-02 -7.959829e-02 4.234175e-02 5.914283e-02 -9.652054e-03 2.966139e-03 7.269510e-02 3.228177e-02 -2.831377e-03 -2.027174e-02 -3.091844e-02 -3.721375e-02 2.553021e-02 -3.043876e-03 -2.238158e-03 -7.645909e-03 8.164478e-03 1.694375e-02 4.989364e-03 4.158239e-03 5.482789e-03 1.017287e-03 1.205202e-03 -5.966209e-03 -3.156447e-02
<VARIANCE> 39
 7.864634e+02 2.650330e+02 6.693829e+02 3.536422e+02 3.520899e+02 3.903660e+02 3.842037e+02 3.248658e+02 3.064196e+02 2.314467e+02 2.165356e+02 2.144997e+02 9.330732e+02 4.252654e+01 2.298283e+01 3.613874e+01 2.314833e+01 1.914044e+01 2.665505e+01 2.826094e+01 2.430413e+01 2.404246e+01 1.909200e+01 1.667949e+01 1.657771e+01 5.953232e+01 5.899119e+00 4.312059e+00 4.780461e+00 4.096118e+00 3.450990e+00 4.757226e+00 5.048289e+00 4.453198e+00 4.328224e+00 3.599239e+00 3.098990e+00 3.050855e+00 9.121060e+00
<GCONST> 2.101623e+02
<TRANSP> 5
 0.000000e+00 1.000000e+00 0.000000e+00 0.000000e+00 0.000000e+00
 0.000000e+00 7.257112e-01 2.742888e-01 0.000000e+00 0.000000e+00
 0.000000e+00 0.000000e+00 7.257094e-01 2.742905e-01 0.000000e+00
 0.000000e+00 0.000000e+00 0.000000e+00 8.498266e-01 1.501734e-01
 0.000000e+00 0.000000e+00 0.000000e+00 0.000000e+00 0.000000e+00
<ENDHMM>
~h "iy"
<BEGINHMM>
<NUMSTATES> 5
<STATE> 2
<MEAN> 39
 -5.600625e-01 -2.985953e+00 2.330293e+01 2.719065e+00 1.661865e+00 -8.652375e+00 -4.979926e+00 5.664982e-01 -7.922213e+00 4.827083e+00 -3.468440e+00 5.356610e+00 1.110727e+02 2.148284e-01 -1.024802e-01 -1.788670e-01 -1.656131e-01 2.714213e-02 3.689997e-02 5.426128e-02 7.201745e-02 2.956732e-02 6.665874e-02 6.633772e-02 -9.317511e-03 1.638513e-01 2.509197e-03 -1.284203e-02 -3.667298e-02 -1.115705e-02 -6.035013e-03 -2.041846e-03 -3.347785e-03 2.408681e-03 3.830049e-03 -1.982562e-04 9.291068e-03 -2.179934e-03 -3.080536e-02
<VARIANCE> 39
 6.719551e+02 4.694919e+02 8.675910e+02 4.742858e+02 4.144591e+02 6.077596e+02 6.399911e+02 4.212163e+02 4.016280e+02 3.424539e+02 2.789406e+02 2.596916e+02 8.932933e+02 2.598401e+01 1.970225e+01 3.760312e+01 2.345964e+01 2.379149e+01 2.854145e+01 2.748709e+01 2.564675e+01 2.216855e+01 1.886503e+01 1.683633e+01 1.539178e+01 2.177499e+01 3.162773e+00 2.644753e+00 4.538589e+00 3.721296e+00 3.795517e+00 4.391860e+00 4.338193e+00 4.246412e+00 3.712363e+00 3.241161e+00 2.930762e+00 2.713537e+00 2.703277e+00
<GCONST> 2.090319e+02
<STATE> 3
<MEAN> 39
 2.701406e-01 -3.503335e+00 2.231175e+01 1.991585e+00 1.705816e+00 -8.508662e+00 -4.797980e+00 8.549261e-01 -7.745832e+00 5.082403e+00 -3.163876e+00 5.284266e+00 1.113265e+02 2.261844e-01 -1.474821e-01 -3.249914e-01 -1.952674e-01 1.416212e-02 2.590517e-02 3.795072e-02 8.357869e-02 4.656955e-02 6.828849e-02 9.975673e-02 -1.810310e-02 3.393557e-02 -8.096295e-04 -7.422463e-03 -2.627323e-02 -7.300145e-03 -4.646070e-03 2.068308e-04 -2.599009e-03 6.765255e-04 3.910239e-03 2.162407e-04 6.010483e-03 -1.394546e-03 -3.292008e-02
<VARIANCE> 39
 6.756937e+02 4.661522e+02 8.541134e+02 4.785353e+02 4.118672e+02 6.120549e+02 6.476044e+02 4.182789e+02 4.072153e+02 3.486227e+02 2.857669e+02 2.607723e+02 9.041306e+02 2.501580e+01 1.920173e+01 3.662994e+01 2.319135e+01 2.305446e+01 2.776702e+01 2.691525e+01 2.519310e+01 2.198016e+01 1.871708e+01 1.683024e+01 1.537455e+01 2.079773e+01 3.022573e+00 2.566797e+00 4.394517e+00 3.651923e+00 3.673328e+00 4.253272e+00 4.227687e+00 4.167727e+00 3.669766e+00 3.195772e+00 2.905789e+00 2.692118e+00 2.571494e+00
<GCONST> 2.085105e+02
<STATE> 4
<MEAN> 39
 1.423182e+00 -4.276124e+00 2.041484e+01 5.677096e-01 1.578615e+00 -8.096284e+00 -4.533571e+00 1.138762e+00 -7.271883e+00 5.475010e+00 -2.633071e+00 5.113224e+00 1.107963e+02 1.991711e-01 -1.533555e-01 -4.835846e-01 -2.029450e-01 9.977550e-03 3.866141e-02 3.628607e-02 9.351466e-02 7.756297e-02 7.560731e-02 1.233183e-01 -2.950688e-02 -1.688597e-01 -1.122256e-02 5.705995e-03 -9.321909e-03 3.349883e-04 -2.050757e-03 6.288883e-03 1.647220e-03 -2.142630e-03 3.665596e-03 -1.103135e-04 2.057160e-04 -1.459039e-04 -2.960013e-02
<VARIANCE> 39
 6.705640e+02 4.510591e+02 8.307615e+02 4.817049e+02 4.061551e+02 6.151584e+02 6.474186e+02 4.130626e+02 4.166716e+02 3.563954e+02 2.917693e+02 2.594918e+02 9.687704e+02 2.300913e+01 1.798856e+01 3.404471e+01 2.245506e+01 2.184846e+01 2.640554e+01 2.585558e+01 2.429244e+01 2.155887e+01 1.844238e+01 1.676201e+01 1.525699e+01 1.969314e+01 2.754409e+00 2.407452e+00 4.057276e+00 3.495996e+00 3.457356e+00 4.022113e+00 4.046223e+00 4.015101e+00 3.590585e+00 3.122831e+00 2.866172e+00 2.649547e+00 2.446438e+00
<GCONST> 2.074191e+02
<TRANSP> 5
 0.000000e+00 1.000000e+00 0.000000e+00 0.000000e+00 0.000000e+00
 0.000000e+00 7.243960e-01 2.756040e-01 0.000000e+00 0.000000e+00
 0.000000e+00 0.000000e+00 7.243933e-01 2.756068e-01 0.000000e+00
 0.000000e+00 0.000000e+00 0.000000e+00 8.477187e-01 1.522813e-01
 0.000000e+00 0.000000e+00 0.000000e+00 0.000000e+00 0.000000e+00
<ENDHMM>
~h "ow"
<BEGINHMM>
<NUMSTATES> 5
<STATE> 2
<MEAN> 39
 6.463443e+00 -5.647245e+00 7.429429e+00 -1.133665e+01 3.297221e-01 -2.656852e+00 -3.705470e+00 5.696249e-01 -4.909636e+00 8.904465e+00 -1.314199e+00 4.963583e+00 1.078786e+02 -8.672004e-02 1.198046e-01 -6.462065e-02 -8.617684e-02 -3.934113e-02 2.232600e-01 1.437519e-01 -2.259095e-03 2.477659e-02 -1.126101e-02 -5.290008e-02 -4.104926e-02 -1.768914e-01 -1.027258e-02 5.168754e-03 1.039628e-02 1.240625e-02 4.366679e-04 -1.089954e-02 -7.790936e-03 1.764594e-03 2.714156e-04 -5.254499e-03 4.256793e-04 5.277516e-04 2.523287e-03
<VARIANCE> 39
 6.410996e+02 3.616945e+02 4.743161e+02 6.229640e+02 4.253355e+02 5.493331e+02 5.420178e+02 3.792307e+02 5.202195e+02 4.051032e+02 3.355537e+02 2.762005e+02 1.185355e+03 2.057522e+01 1.552626e+01 1.843072e+01 2.194721e+01 1.769546e+01 2.030167e+01 2.130594e+01 2.111294e+01 2.172689e+01 1.975533e+01 1.840655e+01 1.616261e+01 2.917352e+01 2.477015e+00 2.216418e+00 2.540156e+00 3.216403e+00 2.805014e+00 3.166835e+00 3.446403e+00 3.565230e+00 3.534720e+00 3.264881e+00 3.081261e+00 2.776923e+00 3.652439e+00
<GCONST> 2.052726e+02
<STATE> 3
<MEAN> 39
 6.219231e+00 -5.072601e+00 7.317482e+00 -1.160133e+01 1.885328e-01 -1.763631e+00 -3.104265e+00 6.008157e-01 -4.857044e+00 8.782801e+00 -1.557207e+00 4.842503e+00 1.073310e+02 -1.417508e-01 1.419923e-01 -1.959763e-02 -1.180680e-02 -3.542798e-02 1.691071e-01 1.088632e-01 6.516217e-03 2.204838e-02 -4.290532e-02 -4.924726e-02 -3.784376e-02 -2.144415e-01 -6.410871e-03 4.763963e-03 1.144045e-02 1.298004e-02 1.832600e-04 -1.206728e-02 -8.237509e-03 2.062484e-03 -4.214812e-04 -4.094111e-03 2.679747e-03 2.506866e-03 2.415087e-04
<VARIANCE> 39
 6.296061e+02 3.599793e+02 4.604518e+02 6.333206e+02 4.268498e+02 5.352060e+02 5.235838e+02 3.771030e+02 5.203578e+02 4.000215e+02 3.301586e+02 2.764364e+02 1.174989e+03 2.093235e+01 1.529452e+01 1.783908e+01 2.197511e+01 1.745240e+01 1.990491e+01 2.095623e+01 2.084574e+01 2.168585e+01 1.965355e+01 1.826567e+01 1.607561e+01 2.915508e+01 2.517120e+00 2.189529e+00 2.480530e+00 3.214814e+00 2.764881e+00 3.123647e+00 3.420335e+00 3.524427e+00 3.530309e+00 3.255607e+00 3.070601e+00 2.763371e+00 3.633818e+00
<GCONST> 2.049393e+02
<STATE> 4
<MEAN> 39
 6.306336e+00 -3.661186e+00 6.943799e+00 -1.304184e+01 -4.256667e-01 8.976841e-02 -2.116894e+00 5.123587e-01 -4.620548e+00 8.567746e+00 -2.017653e+00 4.839288e+00 1.063126e+02 -2.480552e-01 1.732606e-01 3.483038e-02 1.789523e-01 -8.688306e-03 8.537320e-02 7.856279e-02 3.680774e-02 1.975640e-02 -1.045639e-01 -3.534530e-02 -3.515510e-02 -3.965308e-01 -1.104638e-02 5.114440e-05 6.942310e-03 1.748872e-02 1.215969e-03 -1.330911e-02 -8.454951e-03 2.305416e-03 1.626267e-03 -2.433997e-03 4.938604e-03 1.984087e-03 -1.207456e-02
<VARIANCE> 39
 6.057352e+02 3.571948e+02 4.352887e+02 6.668045e+02 4.328431e+02 4.999510e+02 4.866013e+02 3.746031e+02 5.219250e+02 3.927581e+02 3.265678e+02 2.798486e+02 1.180263e+03 2.001589e+01 1.451062e+01 1.648844e+01 2.147025e+01 1.673498e+01 1.884921e+01 2.006673e+01 2.031075e+01 2.133639e+01 1.919889e+01 1.797838e+01 1.585534e+01 2.795875e+01 2.415382e+00 2.077571e+00 2.325092e+00 3.130603e+00 2.656932e+00 3.000314e+00 3.319227e+00 3.429460e+00 3.480380e+00 3.192351e+00 3.041619e+00 2.714098e+00 3.466573e+00
<GCONST> 2.038373e+02
<TRANSP> 5
 0.000000e+00 1.000000e+00 0.000000e+00 0.000000e+00 0.000000e+00
 0.000000e+00 7.428830e-01 2.571170e-01 0.000000e+00 0.000000e+00
 0.000000e+00 0.000000e+00 7.428882e-01 2.571119e-01 0.000000e+00
 0.000000e+00 0.000000e+00 0.000000e+00 8.737715e-01 1.262285e-01
 0.000000e+00 0.000000e+00 0.000000e+00 0.000000e+00 0.000000e+00
<ENDHMM>
~h "th"
<BEGINHMM>
<NUMSTATES> 5
<STATE> 2
<MEAN> 39
 -5.476863e+00 -5.053630e+00 1.508214e+01 2.540665e+00 -1.040642e+00 -7.597003e+00 -6.181286e+00 -4.648283e-01 -7.027099e+00 3.744493e+00 -2.367949e+00 4.570099e+00 9.784680e+01 2.420124e-01 -9.454007e-02 4.519743e-01 7.810220e-02 7.190454e-02 -1.216836e-01 -7.335415e-02 -7.330254e-02 -1.277536e-01 8.216088e-03 -6.326950e-02 4.019066e-02 6.244723e-01 1.521081e-02 -7.623968e-03 2.342320e-02 -6.877604e-03 1.068716e-03 3.002787e-03 5.153494e-03 5.940310e-03 -4.616751e-03 -6.532143e-04 -4.698785e-03 8.145352e-04 4.077792e-02
<VARIANCE> 39
 6.711675e+02 2.782901e+02 7.039472e+02 3.693669e+02 3.482920e+02 4.711174e+02 4.959169e+02 3.595978e+02 3.446230e+02 2.695103e+02 2.165118e+02 2.159259e+02 1.210934e+03 2.941885e+01 1.601665e+01 3.068410e+01 2.181737e+01 2.555423e+01 2.794403e+01 2.937262e+01 2.464367e+01 2.199660e+01 1.855284e+01 1.692926e+01 1.543091e+01 3.341106e+01 3.664324e+00 2.593564e+00 4.532793e+00 3.850879e+00 4.218434e+00 4.601768e+00 4.918107e+00 4.335722e+00 3.908986e+00 3.421477e+00 3.216051e+00 2.932387e+00 4.983148e+00
<GCONST> 2.081572e+02
<STATE> 3
<MEAN> 39
 -4.231510e+00 -5.578908e+00 1.699768e+01 2.809104e+00 -6.845490e-01 -8.168408e+00 -6.514323e+00 -6.713919e-01 -7.569256e+00 3.755183e+00 -2.622294e+00 4.747196e+00 1.007442e+02 3.026478e-01 -1.109907e-01 5.509741e-01 4.747283e-02 7.187381e-02 -1.102572e-01 -5.096288e-02 -5.217681e-02 -1.409768e-01 4.109564e-03 -7.730546e-02 4.244624e-02 7.372581e-01 1.133847e-02 -2.584053e-03 1.800454e-02 -7.949024e-03 4.158335e-05 6.651470e-03 8.529598e-03 6.982862e-03 -1.027536e-03 -8.242145e-04 -3.533424e-03 -2.945500e-05 2.091801e-02
<VARIANCE> 39
 6.827604e+02 2.883198e+02 7.630416e+02 3.757217e+02 3.683362e+02 5.056249e+02 5.283270e+02 3.769708e+02 3.546617e+02 2.774962e+02 2.177997e+02 2.181430e+02 1.122579e+03 3.079800e+01 1.647105e+01 3.304934e+01 2.253059e+01 2.706564e+01 2.969948e+01 3.088114e+01 2.568256e+01 2.263182e+01 1.897950e+01 1.706960e+01 1.545517e+01 3.395068e+01 3.804418e+00 2.645550e+00 4.821314e+00 3.991010e+00 4.420828e+00 4.831439e+00 5.126368e+00 4.486783e+00 4.010847e+00 3.490173e+00 3.244052e+00 2.938103e+00 5.036562e+00
<GCONST> 2.094029e+02
<STATE> 4
<MEAN> 39
 -1.932518e+00 -6.312304e+00 2.023285e+01 2.695817e+00 -7.823624e-02 -8.936632e+00 -6.980478e+00 -9.694283e-01 -8.392128e+00 3.820154e+00 -2.963157e+00 5.037117e+00 1.054535e+02 3.154790e-01 -7.422560e-02 6.761431e-01 -2.031330e-02 3.329431e-02 -6.476543e-02 1.226812e-02 -4.038462e-02 -1.394767e-01 3.860135e-03 -8.792259e-02 3.410103e-02 6.987075e-01 -1.196768e-02 1.135064e-02 4.276922e-03 -1.150670e-02 -8.325658e-03 1.731237e-02 1.715842e-02 4.279295e-03 4.982187e-03 6.364767e-04 -1.498944e-03 -2.970988e-03 -2.626414e-02
<VARIANCE> 39
 6.851672e+02 3.076849e+02 8.598852e+02 3.950869e+02 4.016217e+02 5.622312e+02 5.796202e+02 4.082677e+02 3.766581e+02 2.956461e+02 2.241688e+02 2.245916e+02 9.964696e+02 3.161039e+01 1.675478e+01 3.612748e+01 2.323259e+01 2.888793e+01 3.210973e+01 3.251670e+01 2.701420e+01 2.345396e+01 1.944559e+01 1.711478e+01 1.536242e+01 3.267658e+01 3.826447e+00 2.629610e+00 5.064751e+00 4.083954e+00 4.610663e+00 5.121995e+00 5.311031e+00 4.648182e+00 4.124199e+00 3.544883e+00 3.231690e+00 2.903052e+00 4.747217e+00
<GCONST> 2.107066e+02
<TRANSP> 5
 0.000000e+00 1.000000e+00 0.000000e+00 0.000000e+00 0.000000e+00
 0.000000e+00 7.298476e-01 2.701524e-01 0.000000e+00 0.000000e+00
 0.000000e+00 0.000000e+00 7.298507e-01 2.701493e-01 0.000000e+00
 0.000000e+00 0.000000e+00 0.000000e+00 8.544031e-01 1.455970e-01
 0.000000e+00 0.000000e+00 0.000000e+00 0.000000e+00 0.000000e+00
<ENDHMM>
~h "uw"
<BEGINHMM>
<NUMSTATES> 5
<STATE> 2
<MEAN> 39
 -3.624993e+00 -2.277486e+00 2.228601e+01 2.105080e+00 1.745373e-01 -5.709387e+00 -3.094809e+00 -1.240329e+00 -1.021503e+01 4.671737e+00 -4.565754e+00 4.192122e+00 1.054853e+02 1.651085e-01 3.078704e-02 -1.197465e-01 4.778622e-02 9.975722e-02 1.834187e-01 1.141760e-01 1.080699e-01 7.372195e-02 3.087955e-03 -2.071762e-02 -3.843533e-02 -1.981659e-02 -1.175114e-02 2.627346e-03 -1.961211e-02 -6.579275e-03 -4.780879e-03 -5.310782e-03 -6.323845e-03 6.021585e-03 1.279132e-02 -1.939181e-03 6.703073e-03 2.368098e-04 -4.035584e-02
<VARIANCE> 39
 6.019265e+02 2.621433e+02 6.505493e+02 4.068974e+02 3.046188e+02 4.771433e+02 5.491846e+02 4.215247e+02 4.302445e+02 3.190284e+02 2.822251e+02 3.408278e+02 1.057619e+03 2.679221e+01 1.534302e+01 2.505436e+01 2.062554e+01 1.722453e+01 2.286354e+01 2.487943e+01 2.136962e+01 2.178402e+01 1.838654e+01 1.765114e+01 1.690694e+01 4.169653e+01 3.622345e+00 2.585878e+00 3.029331e+00 3.420428e+00 2.874874e+00 3.649229e+00 3.935441e+00 3.600498e+00 3.688781e+00 3.226281e+00 3.103870e+00 2.803512e+00 6.290751e+00
<GCONST> 2.066354e+02
<STATE> 3
<MEAN> 39
 -3.032107e+00 -2.079667e+00 2.141959e+01 2.245190e+00 5.955269e-01 -4.846487e+00 -2.597212e+00 -8.179021e-01 -9.756533e+00 4.703129e+00 -4.602391e+00 4.015807e+00 1.047407e+02 7.856530e-02 4.462976e-02 -2.229856e-01 1.180132e-02 7.272005e-02 1.646665e-01 9.134651e-02 1.290744e-01 1.319235e-01 -7.042251e-03 1.157925e-02 -3.654113e-02 -2.067398e-01 -1.348873e-02 2.736417e-03 -1.738266e-02 -8.489950e-03 -5.540063e-03 -8.649548e-03 -1.028868e-02 1.813768e-03 1.003706e-02 -1.871583e-04 7.978437e-03 1.694449e-03 -3.547870e-02
<VARIANCE> 39
 5.874001e+02 2.692545e+02 6.561368e+02 4.160200e+02 3.112990e+02 4.789977e+02 5.428573e+02 4.229510e+02 4.356729e+02 3.231224e+02 2.841966e+02 3.427258e+02 1.051384e+03 2.615191e+01 1.511996e+01 2.455760e+01 2.027452e+01 1.721868e+01 2.264766e+01 2.458787e+01 2.143001e+01 2.167622e+01 1.841879e+01 1.769873e+01 1.700606e+01 3.704295e+01 3.478117e+00 2.510774e+00 2.975285e+00 3.344790e+00 2.851305e+00 3.609967e+00 3.900873e+00 3.611060e+00 3.661366e+00 3.228376e+00 3.112815e+00 2.821851e+00 5.534041e+00
<GCONST> 2.062489e+02
<STATE> 4
<MEAN> 39
 -2.189425e+00 -1.657965e+00 1.938769e+01 1.894726e+00 1.114631e+00 -3.571381e+00 -1.995809e+00 -4.897172e-01 -8.767125e+00 4.870979e+00 -4.511175e+00 3.863840e+00 1.026947e+02 -7.411385e-02 5.899670e-02 -3.725820e-01 -4.347274e-02 2.548086e-02 1.428536e-01 6.922636e-02 1.431970e-01 2.056627e-01 -1.718858e-02 6.477807e-02 -2.911513e-02 -4.676038e-01 -1.397511e-02 -1.465353e-04 -5.095135e-03 -8.090485e-03 -7.240974e-03 -1.353066e-02 -1.168542e-02 -1.205604e-03 3.142033e-03 7.311116e-04 8.026413e-03 3.378271e-03 -1.410220e-02
<VARIANCE> 39
 5.628594e+02 2.795666e+02 6.494047e+02 4.301702e+02 3.202058e+02 4.759900e+02 5.245356e+02 4.168792e+02 4.417730e+02 3.252165e+02 2.859295e+02 3.365302e+02 1.088712e+03 2.376401e+01 1.445496e+01 2.279886e+01 1.919335e+01 1.696441e+01 2.191130e+01 2.373124e+01 2.120947e+01 2.121312e+01 1.814801e+01 1.746801e+01 1.682300e+01 3.047032e+01 3.089364e+00 2.342957e+00 2.794442e+00 3.143315e+00 2.778151e+00 3.486136e+00 3.781755e+00 3.573151e+00 3.568089e+00 3.174848e+00 3.072779e+00 2.808146e+00 4.443667e+00
<GCONST> 2.049692e+02
<TRANSP> 5
 0.000000e+00 1.000000e+00 0.000000e+00 0.000000e+00 0.000000e+00
 0.000000e+00 7.408248e-01 2.591752e-01 0.000000e+00 0.000000e+00
 0.000000e+00 0.000000e+00 7.408189e-01 2.591811e-01 0.000000e+00
 0.000000e+00 0.000000e+00 0.000000e+00 8.678001e-01 1.321999e-01
 0.000000e+00 0.000000e+00 0.000000e+00 0.000000e+00 0.000000e+00
<ENDHMM>
~h "sil"
<BEGINHMM>
<NUMSTATES> 5
<STATE> 2
<MEAN> 39
 -1.741198e+01 1.426405e+00 1.019729e+00 3.995986e+00 -1.341452e+00 -1.364329e+00 -4.283825e-01 2.123891e+00 -1.680127e+00 8.502125e-01 -1.264060e+00 2.108508e+00 5.878343e+01 -3.607887e-01 2.431211e-01 -1.349107e-01 4.014302e-02 -7.565515e-04 3.330741e-02 -1.199466e-01 -9.547746e-02 4.179779e-02 2.799340e-02 1.139658e-01 4.653377e-03 -6.531297e-01 9.646212e-03 3.160924e-03 1.467723e-02 -1.504684e-02 -9.433729e-03 1.571740e-03 1.987843e-03 -8.956316e-03 2.433399e-03 1.481325e-02 -1.752786e-03 1.303679e-03 3.980490e-02
<VARIANCE> 39
 1.705929e+02 1.247947e+02 1.462221e+02 1.430486e+02 1.389450e+02 1.701145e+02 1.957385e+02 1.929821e+02 1.710699e+02 1.604523e+02 1.441959e+02 1.251069e+02 2.923117e+02 3.623393e+00 5.260082e+00 6.435169e+00 7.775218e+00 8.678675e+00 1.054249e+01 1.187678e+01 1.263690e+01 1.249897e+01 1.209802e+01 1.165320e+01 1.052487e+01 4.412679e+00 5.110696e-01 8.120875e-01 1.007304e+00 1.296443e+00 1.475687e+00 1.788251e+00 2.017096e+00 2.154361e+00 2.156467e+00 2.083282e+00 2.010058e+00 1.828319e+00 5.279104e-01
<GCONST> 1.695921e+02
<STATE> 3
<MEAN> 39
 -1.879518e+01 2.335360e+00 6.300815e-01 4.104768e+00 -1.379876e+00 -1.237249e+00 -8.763441e-01 1.695893e+00 -1.515962e+00 1.074292e+00 -8.460425e-01 2.098019e+00 5.661310e+01 -2.881830e-01 2.188756e-01 -3.864485e-02 -1.440399e-02 -2.142557e-02 2.841182e-02 -1.116528e-01 -1.256388e-01 2.854397e-02 8.289405e-02 1.050335e-01 1.807199e-02 -3.812295e-01 2.051373e-02 -1.198388e-02 2.104664e-02 -9.794456e-03 -3.163167e-03 -4.488987e-06 7.361646e-03 -3.288034e-03 -2.319223e-03 1.088649e-02 -6.692911e-03 1.597834e-03 6.886792e-02
<VARIANCE> 39
 1.415370e+02 1.118125e+02 1.177202e+02 1.238491e+02 1.257721e+02 1.521398e+02 1.756954e+02 1.744067e+02 1.558243e+02 1.467105e+02 1.334726e+02 1.153863e+02 2.275419e+02 3.719257e+00 5.082132e+00 5.943613e+00 7.186959e+00 8.175511e+00 9.841340e+00 1.113395e+01 1.187581e+01 1.173611e+01 1.137930e+01 1.092968e+01 9.856326e+00 5.425440e+00 5.839672e-01 8.684577e-01 1.052932e+00 1.344539e+00 1.573138e+00 1.879395e+00 2.133109e+00 2.273864e+00 2.277323e+00 2.217769e+00 2.141670e+00 1.938832e+00 7.133756e-01
<GCONST> 1.684986e+02
<STATE> 4
<MEAN> 39
 -1.860951e+01 2.520032e+00 1.520213e+00 3.023842e+00 -1.443874e+00 -9.856471e-01 -1.237993e+00 1.159825e+00 -1.543876e+00 2.068686e+00 -7.312551e-01 2.287973e+00 6.003500e+01 -4.187138e-02 7.352290e-02 1.411147e-01 -9.714098e-02 -8.819246e-03 1.543417e-02 -7.690976e-02 -8.215512e-02 -5.291436e-03 1.235369e-01 5.406078e-02 5.055253e-02 3.380550e-01 3.878895e-02 -2.234241e-02 2.289802e-02 -9.067771e-03 4.672083e-03 -1.079205e-03 7.429576e-03 8.966757e-03 -3.599204e-03 3.915697e-03 -1.145768e-02 3.261922e-03 1.018840e-01
<VARIANCE> 39
 1.929075e+02 1.348586e+02 1.499354e+02 1.731008e+02 1.442354e+02 1.648817e+02 1.840743e+02 1.763132e+02 1.685593e+02 1.563358e+02 1.402094e+02 1.213989e+02 4.861056e+02 6.930030e+00 6.740989e+00 7.666834e+00 9.043791e+00 9.517900e+00 1.111302e+01 1.236877e+01 1.285622e+01 1.269041e+01 1.224386e+01 1.172124e+01 1.041335e+01 1.347937e+01 1.057585e+00 1.144151e+00 1.286633e+00 1.588181e+00 1.737179e+00 2.028842e+00 2.252890e+00 2.358567e+00 2.324604e+00 2.257005e+00 2.169233e+00 1.937318e+00 1.751861e+00
<GCONST> 1.763340e+02
<TRANSP> 5
 0.000000e+00 1.000000e+00 0.000000e+00 0.000000e+00 0.000000e+00
 0.000000e+00 7.465869e-01 2.534132e-01 0.000000e+00 0.000000e+00
 0.000000e+00 0.000000e+00 7.465829e-01 2.534172e-01 0.000000e+00
 0.000000e+00 0.000000e+00 0.000000e+00 8.755326e-01 1.244674e-01
 0.000000e+00 0.000000e+00 0.000000e+00 0.000000e+00 0.000000e+00
<ENDHMM>
