~o
<STREAMINFO> 1 13
<VECSIZE> 13<NULLD><MFCC_0><DIAGC>
~v "varFloor1"
<VARIANCE> 13
 6.754232e+00 3.412257e+00 5.608447e+00 4.796207e+00 3.472295e+00 4.011117e+00 4.413517e+00 3.617792e+00 3.683716e+00 3.040219e+00 2.640150e+00 2.509556e+00 1.298279e+01
~s "silst"
<MEAN> 13
 -2.527109e+01 4.567846e+00 -1.078884e+00 2.530210e+00 -3.505516e+00 -3.220823e+00 -4.730644e+00 -1.569867e+00 -1.786287e+00 1.410701e+00 1.018376e+00 2.551387e+00 4.834246e+01
<VARIANCE> 13
 3.002666e+01 3.024028e+01 3.865193e+01 5.131129e+01 6.942235e+01 8.986185e+01 1.068765e+02 1.077326e+02 1.002511e+02 9.398990e+01 9.022568e+01 8.107381e+01 1.616872e+01
<GCONST> 7.721760e+01
~h "f"
<BEGINHMM>
<NUMSTATES> 5
<STATE> 2
<MEAN> 13
 -3.248080e+01 -1.350067e+01 1.508211e+00 5.237950e+00 -1.450844e+00 2.001280e-01 -6.036373e+00 1.742759e+00 -4.141631e+00 4.132714e+00 -3.420941e+00 2.653484e+00 8.653646e+01
<VARIANCE> 13
 1.190543e+02 9.449642e+01 8.224572e+01 8.725355e+01 1.033663e+02 1.190401e+02 1.296978e+02 1.314812e+02 1.336122e+02 1.258533e+02 1.159638e+02 1.047648e+02 2.349688e+02
<GCONST> 8.585538e+01
<STATE> 3
<MEAN> 13
 -3.020590e+01 -1.860115e+01 -4.881905e+00 -8.750226e-01 -3.524362e+00 -1.136364e+00 -8.146486e+00 -1.667823e+00 -6.587700e+00 3.687479e+00 -4.158056e+00 2.848594e+00 1.050875e+02
<VARIANCE> 13
 1.440040e+02 6.601916e+01 6.067290e+01 6.875286e+01 8.964997e+01 9.743337e+01 1.055030e+02 1.086154e+02 1.136535e+02 1.068915e+02 1.012620e+02 9.364987e+01 1.228400e+02
<GCONST> 8.318298e+01
<STATE> 4
<MEAN> 13
 1.855393e+01 -7.443199e+00 -1.091526e+00 -2.361468e+01 -9.390409e-01 8.383023e+00 1.962302e+00 1.775882e+00 -7.138442e+00 1.530435e+01 9.153458e-01 1.249577e+00 1.234423e+02
<VARIANCE> 13
 2.026968e+02 1.981463e+02 1.271482e+02 5.321063e+02 2.059163e+02 1.768433e+02 1.317500e+02 1.678290e+02 3.272396e+02 2.898895e+02 2.694557e+02 1.545122e+02 3.872247e+02
<GCONST> 9.417778e+01
<TRANSP> 5
 0.000000e+00 1.000000e+00 0.000000e+00 0.000000e+00 0.000000e+00
 0.000000e+00 8.134883e-01 1.865117e-01 0.000000e+00 0.000000e+00
 0.000000e+00 0.000000e+00 7.688993e-01 2.311007e-01 0.000000e+00
 0.000000e+00 0.000000e+00 0.000000e+00 4.615374e-01 5.384626e-01
 0.000000e+00 0.000000e+00 0.000000e+00 0.000000e+00 0.000000e+00
<ENDHMM>
~h "k"
<BEGINHMM>
<NUMSTATES> 5
<STATE> 2
<MEAN> 13
 -5.805704e+00 1.004976e+01 2.994842e+01 2.778514e+01 -2.461523e+00 -1.576085e+01 2.749213e+00 -1.989815e+00 -1.967283e+01 -2.458297e+00 -7.535313e-01 2.212000e+00 7.514625e+01
<VARIANCE> 13
 1.266300e+02 2.243839e+02 2.466085e+02 1.985446e+02 3.467263e+02 4.184329e+02 4.041646e+02 5.388235e+02 3.365290e+02 2.921264e+02 2.167594e+02 1.678981e+02 3.154829e+02
<GCONST> 9.687424e+01
<STATE> 3
<MEAN> 13
 -1.922614e+01 -3.081568e+00 -3.352701e+00 8.311947e+00 -9.274533e-01 -6.528519e+00 -9.541896e+00 -2.736435e+00 -5.028073e+00 9.555115e-01 -5.119534e-01 3.150084e+00 6.595360e+01
<VARIANCE> 13
 1.261722e+02 2.973921e+02 2.183445e+02 1.172634e+02 1.281055e+02 1.437333e+02 1.646920e+02 1.472702e+02 1.271239e+02 1.191125e+02 1.039151e+02 8.265441e+01 6.105236e+02
<GCONST> 8.959055e+01
<STATE> 4
<MEAN> 13
 -4.747028e+01 -6.685684e+00 -6.477684e+00 3.038016e+00 5.854840e+00 -2.661187e+01 -1.158490e+01 6.862606e+00 1.069175e+00 2.605449e+00 -1.025788e+01 4.997817e+00 1.137730e+02
<VARIANCE> 13
 4.028562e+02 1.598670e+02 1.751924e+02 2.524901e+02 3.236208e+02 2.405266e+02 2.567665e+02 2.018237e+02 1.826818e+02 1.757720e+02 1.639172e+02 1.424966e+02 1.423410e+02
<GCONST> 9.317440e+01
<TRANSP> 5
 0.000000e+00 1.000000e+00 0.000000e+00 0.000000e+00 0.000000e+00
 0.000000e+00 6.216933e-01 3.783067e-01 0.000000e+00 0.000000e+00
 0.000000e+00 0.000000e+00 7.841830e-01 2.158170e-01 0.000000e+00
 0.000000e+00 0.000000e+00 0.000000e+00 7.664555e-01 2.335444e-01
 0.000000e+00 0.000000e+00 0.000000e+00 0.000000e+00 0.000000e+00
<ENDHMM>
~h "n"
<BEGINHMM>
<NUMSTATES> 5
<STATE> 2
<MEAN> 13
 1.839856e+01 -4.229589e-01 3.635780e+01 9.796586e+00 -6.808967e+00 6.119900e+00 1.507677e+01 -8.545745e+00 -7.112525e+00 1.194081e+01 -8.370485e+00 7.577445e+00 1.127002e+02
<VARIANCE> 13
 8.473087e+01 1.847088e+02 1.921852e+02 5.649006e+02 2.807088e+02 4.251227e+02 4.553881e+02 5.231552e+02 5.706901e+02 4.708384e+02 4.787060e+02 4.458008e+02 1.915090e+02
<GCONST> 9.924376e+01
<STATE> 3
<MEAN> 13
 1.815987e+01 1.188361e+01 3.288528e+01 2.091437e+01 -3.289643e+00 9.621674e+00 2.280530e+01 -9.213221e+00 -1.435050e+00 5.014703e+00 -7.130312e+00 1.336440e+01 9.779054e+01
<VARIANCE> 13
 7.792628e+01 1.832000e+02 1.411555e+02 2.230259e+02 2.833826e+02 3.860479e+02 4.080367e+02 4.304288e+02 4.754979e+02 4.721370e+02 4.763719e+02 4.200832e+02 1.646088e+02
<GCONST> 9.712665e+01
<STATE> 4
<MEAN> 13
 -2.026016e-02 9.704870e-01 2.029162e+01 1.774811e+01 5.138847e+00 2.440731e+00 1.227346e+01 9.404814e+00 1.404414e+00 4.385713e+00 -8.325749e+00 3.669023e+00 8.767582e+01
<VARIANCE> 13
 1.712722e+02 1.862686e+02 2.336403e+02 3.265834e+02 2.432080e+02 3.159930e+02 3.709686e+02 3.656506e+02 3.361858e+02 3.529276e+02 2.756691e+02 2.636064e+02 4.459023e+02
<GCONST> 9.755043e+01
<TRANSP> 5
 0.000000e+00 1.000000e+00 0.000000e+00 0.000000e+00 0.000000e+00
 0.000000e+00 5.925583e-01 4.074417e-01 0.000000e+00 0.000000e+00
 0.000000e+00 0.000000e+00 6.687468e-01 3.312533e-01 0.000000e+00
 0.000000e+00 0.000000e+00 0.000000e+00 6.511682e-01 3.488318e-01
 0.000000e+00 0.000000e+00 0.000000e+00 0.000000e+00 0.000000e+00
<ENDHMM>
~h "r"
<BEGINHMM>
<NUMSTATES> 5
<STATE> 2
<MEAN> 13
 3.690932e+01 -1.694911e+01 -3.567143e+00 5.525529e+00 2.532052e+01 -1.588406e+01 -3.544367e+01 -4.316891e-01 -8.400173e+00 1.632795e+00 1.215232e+00 6.715420e+00 1.256195e+02
<VARIANCE> 13
 7.198245e+01 1.700137e+02 5.187241e+02 3.173600e+02 4.329072e+02 7.926274e+02 9.021355e+02 4.112308e+02 3.040117e+02 3.742180e+02 2.876088e+02 2.196565e+02 1.529792e+02
<GCONST> 9.861178e+01
<STATE> 3
<MEAN> 13
 3.034959e+01 -2.765418e+01 7.309680e+00 3.809896e+00 1.500787e+01 -4.236760e+01 -1.351286e+01 1.507060e+01 -7.523658e+00 1.085907e+01 2.592336e+00 7.570372e+00 1.320915e+02
<VARIANCE> 13
 4.993180e+01 1.424241e+02 4.321903e+02 2.592990e+02 3.506218e+02 7.114229e+02 1.148749e+03 3.245461e+02 3.412827e+02 3.866066e+02 2.322578e+02 1.986318e+02 1.628094e+02
<GCONST> 9.726655e+01
<STATE> 4
<MEAN> 13
 1.652076e+01 -1.946245e+01 9.408151e+00 1.121588e+01 7.756029e+00 -2.015350e+01 -5.816447e+00 1.592418e+01 -4.510640e+00 4.753312e+00 1.581600e+00 4.215023e+00 1.144801e+02
<VARIANCE> 13
 1.822948e+02 2.376021e+02 7.616115e+02 4.008898e+02 4.548266e+02 6.784575e+02 8.296292e+02 4.696755e+02 5.755386e+02 4.780229e+02 3.053721e+02 2.993046e+02 6.417684e+02
<GCONST> 1.031227e+02
<TRANSP> 5
 0.000000e+00 1.000000e+00 0.000000e+00 0.000000e+00 0.000000e+00
 0.000000e+00 7.576500e-01 2.423500e-01 0.000000e+00 0.000000e+00
 0.000000e+00 0.000000e+00 6.816537e-01 3.183462e-01 0.000000e+00
 0.000000e+00 0.000000e+00 0.000000e+00 5.060821e-01 4.939179e-01
 0.000000e+00 0.000000e+00 0.000000e+00 0.000000e+00 0.000000e+00
<ENDHMM>
~h "s"
<BEGINHMM>
<NUMSTATES> 5
<STATE> 2
<MEAN> 13
 -3.373787e+01 2.811621e+00 2.083849e+00 6.719689e+00 -2.406434e-01 -8.232471e+00 -1.277012e+00 5.787430e+00 -2.800606e+00 2.210035e+00 -3.833772e+00 4.512271e+00 9.991588e+01
<VARIANCE> 13
 3.438033e+02 2.678640e+02 2.865814e+02 2.788423e+02 3.829023e+02 3.216201e+02 3.353094e+02 2.681830e+02 2.278640e+02 2.297222e+02 2.127265e+02 1.893651e+02 4.307977e+02
<GCONST> 9.727444e+01
<STATE> 3
<MEAN> 13
 -4.764402e+01 4.042459e+00 -1.752249e+01 1.005995e+01 -1.564211e+01 1.425491e+00 -5.022023e+00 3.767331e+00 -8.607575e+00 3.058539e+00 -3.466315e-01 6.856250e+00 1.007584e+02
<VARIANCE> 13
 6.818501e+01 1.321018e+02 1.347199e+02 1.481328e+02 1.895304e+02 1.794322e+02 1.377619e+02 1.314986e+02 1.298620e+02 1.219066e+02 1.192327e+02 1.121304e+02 1.365311e+02
<GCONST> 8.722539e+01
<STATE> 4
<MEAN> 13
 -5.180685e+01 6.089142e+00 -5.066463e+00 -6.726484e+00 2.238302e+00 -1.130623e+01 -4.727139e+00 4.382916e+00 -5.641589e+00 3.324278e+00 -5.719960e+00 4.668451e+00 1.065526e+02
<VARIANCE> 13
 2.455245e+02 1.471564e+02 1.890682e+02 2.851129e+02 3.461964e+02 2.733490e+02 2.234702e+02 1.946640e+02 1.791808e+02 1.750726e+02 1.746024e+02 1.611615e+02 1.959633e+02
<GCONST> 9.329704e+01
<TRANSP> 5
 0.000000e+00 1.000000e+00 0.000000e+00 0.000000e+00 0.000000e+00
 0.000000e+00 4.377938e-01 5.622063e-01 0.000000e+00 0.000000e+00
 0.000000e+00 0.000000e+00 7.991196e-01 2.008804e-01 0.000000e+00
 0.000000e+00 0.000000e+00 0.000000e+00 5.415950e-01 4.584050e-01
 0.000000e+00 0.000000e+00 0.000000e+00 0.000000e+00 0.000000e+00
<ENDHMM>
~h "t"
<BEGINHMM>
<NUMSTATES> 5
<STATE> 2
<MEAN> 13
 -1.592878e+01 9.129943e+00 1.754665e+01 1.081958e+01 2.949852e+00 1.571588e+00 -9.643875e-01 -1.503675e+00 -4.681961e+00 4.881959e-01 -2.629248e+00 1.193324e+00 6.737158e+01
<VARIANCE> 13
 1.905894e+02 2.703515e+02 3.585119e+02 3.244374e+02 1.851513e+02 1.915903e+02 2.201716e+02 2.363130e+02 2.033285e+02 1.755569e+02 1.621340e+02 1.309367e+02 5.004120e+02
<GCONST> 9.440376e+01
<STATE> 3
<MEAN> 13
 -3.921398e+01 2.552629e+00 9.848479e+00 -9.480389e+00 -8.208456e+00 -1.048635e+01 3.696594e+00 -4.701838e+00 -1.249921e+01 2.813376e+00 -5.737744e-02 6.337841e+00 1.159637e+02
<VARIANCE> 13
 2.354731e+02 1.658555e+02 2.264022e+02 1.868593e+02 1.933989e+02 1.998309e+02 2.419872e+02 2.363976e+02 1.850241e+02 1.757244e+02 1.724909e+02 1.550023e+02 3.862941e+02
<GCONST> 9.317420e+01
<STATE> 4
<MEAN> 13
 -1.615549e+01 -1.624182e+00 2.801594e+01 3.726635e+00 -1.039558e+01 -1.523471e+01 5.950660e+00 6.267508e-01 -6.282286e+00 -1.038801e+00 -3.438515e+00 1.060140e+01 1.052541e+02
<VARIANCE> 13
 2.703004e+02 1.716583e+02 3.066344e+02 2.011602e+02 2.059768e+02 2.855439e+02 3.182936e+02 4.051735e+02 2.258969e+02 1.957419e+02 2.736461e+02 2.042971e+02 5.743773e+02
<GCONST> 9.639822e+01
<TRANSP> 5
 0.000000e+00 1.000000e+00 0.000000e+00 0.000000e+00 0.000000e+00
 0.000000e+00 6.939352e-01 3.060648e-01 0.000000e+00 0.000000e+00
 0.000000e+00 0.000000e+00 7.181166e-01 2.818834e-01 0.000000e+00
 0.000000e+00 0.000000e+00 0.000000e+00 6.038003e-01 3.961997e-01
 0.000000e+00 0.000000e+00 0.000000e+00 0.000000e+00 0.000000e+00
<ENDHMM>
~h "v"
<BEGINHMM>
<NUMSTATES> 5
<STATE> 2
<MEAN> 13
 1.163615e+01 -2.860790e+01 1.531337e+01 -1.967450e+01 -9.842747e+00 -2.129782e+01 5.635678e-01 1.228833e+01 1.537154e+01 1.320877e+01 -3.252603e+00 5.490090e+00 1.492335e+02
<VARIANCE> 13
 6.455550e+01 1.270937e+02 3.006480e+02 2.200508e+02 2.424207e+02 2.373828e+02 8.963709e+02 2.812992e+02 2.821911e+02 4.648248e+02 3.236273e+02 4.024887e+02 1.527701e+02
<GCONST> 9.599321e+01
<STATE> 3
<MEAN> 13
 1.965702e+01 -1.818366e+01 1.691275e+01 -3.338730e+00 -2.218100e+00 -1.682840e+01 -1.407026e+01 3.254688e-01 2.396873e-01 1.966064e+01 1.736410e+00 -2.366713e+00 1.290926e+02
<VARIANCE> 13
 5.849596e+01 1.301297e+02 2.510046e+02 2.327982e+02 3.370794e+02 3.255407e+02 4.860591e+02 3.558077e+02 5.079733e+02 3.651698e+02 3.730996e+02 3.118790e+02 1.643230e+02
<GCONST> 9.636915e+01
<STATE> 4
<MEAN> 13
 -2.071748e+00 -4.313512e+00 1.456138e+01 1.142260e+01 5.715876e+00 -3.105900e-01 3.914846e-02 4.109314e+00 1.242352e+00 7.526769e+00 -3.361546e+00 4.459371e+00 1.001447e+02
<VARIANCE> 13
 4.018806e+02 1.763899e+02 2.019070e+02 2.145285e+02 2.460500e+02 2.660232e+02 2.453800e+02 2.637504e+02 2.610261e+02 2.224496e+02 2.150771e+02 2.012134e+02 2.492213e+02
<GCONST> 9.506746e+01
<TRANSP> 5
 0.000000e+00 1.000000e+00 0.000000e+00 0.000000e+00 0.000000e+00
 0.000000e+00 7.652817e-01 2.347183e-01 0.000000e+00 0.000000e+00
 0.000000e+00 0.000000e+00 6.024829e-01 3.975171e-01 0.000000e+00
 0.000000e+00 0.000000e+00 0.000000e+00 7.813632e-01 2.186368e-01
 0.000000e+00 0.000000e+00 0.000000e+00 0.000000e+00 0.000000e+00
<ENDHMM>
~h "w"
<BEGINHMM>
<NUMSTATES> 5
<STATE> 2
<MEAN> 13
 3.287688e+01 7.906425e+00 1.909729e+01 -3.807949e+01 -2.222653e+01 1.230564e+00 -4.386536e+00 1.942208e+01 -8.812380e+00 1.172694e+01 2.267689e+00 -2.669670e+00 1.227942e+02
<VARIANCE> 13
 4.294269e+01 1.653235e+02 3.111181e+02 2.912878e+02 4.513972e+02 3.088180e+02 6.586075e+02 3.475876e+02 4.447074e+02 4.409057e+02 3.427609e+02 3.131204e+02 7.297718e+01
<GCONST> 9.642092e+01
<STATE> 3
<MEAN> 13
 2.900616e+01 -7.357749e+00 1.730516e+00 -4.737730e+01 9.668977e-01 1.712977e+01 1.185017e+00 2.167960e+01 -1.085925e+01 2.348550e+00 1.168425e+01 5.020756e+00 1.331115e+02
<VARIANCE> 13
 4.364706e+01 1.481967e+02 2.587803e+02 3.049902e+02 6.653245e+02 3.080607e+02 5.666777e+02 4.334096e+02 3.976816e+02 4.254193e+02 3.335403e+02 3.101315e+02 1.004173e+02
<GCONST> 9.678021e+01
<STATE> 4
<MEAN> 13
 1.965716e+01 -2.571352e+01 1.629743e-01 -3.065796e+01 2.139831e+01 1.138466e+01 -1.041899e+01 1.524231e+01 2.894087e+00 1.016628e+01 1.047915e+01 -2.650002e+00 1.432886e+02
<VARIANCE> 13
 6.413893e+01 1.400412e+02 2.053843e+02 3.267698e+02 5.100123e+02 4.339408e+02 4.997940e+02 4.510789e+02 4.571449e+02 3.481690e+02 3.896898e+02 3.246878e+02 1.299745e+02
<GCONST> 9.733595e+01
<TRANSP> 5
 0.000000e+00 1.000000e+00 0.000000e+00 0.000000e+00 0.000000e+00
 0.000000e+00 6.552783e-01 3.447217e-01 0.000000e+00 0.000000e+00
 0.000000e+00 0.000000e+00 7.461810e-01 2.538190e-01 0.000000e+00
 0.000000e+00 0.000000e+00 0.000000e+00 8.011932e-01 1.988068e-01
 0.000000e+00 0.000000e+00 0.000000e+00 0.000000e+00 0.000000e+00
<ENDHMM>
~h "z"
<BEGINHMM>
<NUMSTATES> 5
<STATE> 2
<MEAN> 13
 -9.554286e+00 1.815307e+01 1.990232e+01 2.121347e+01 8.216012e+00 -3.693044e+00 6.335923e-03 4.060315e+00 2.509081e-01 1.912304e+00 -8.197276e+00 7.381792e+00 9.306039e+01
<VARIANCE> 13
 3.748401e+02 2.339326e+02 3.224652e+02 3.422713e+02 3.355379e+02 2.942070e+02 2.978716e+02 2.684880e+02 2.456445e+02 2.840494e+02 2.784097e+02 3.524778e+02 4.842415e+02
<GCONST> 9.850471e+01
<STATE> 3
<MEAN> 13
 -3.152835e+01 2.975712e+01 5.788831e+00 2.876643e+01 2.304244e+00 9.413074e+00 5.949895e+00 8.370812e+00 -2.513857e+00 5.035038e+00 2.504089e+00 9.845398e+00 1.063669e+02
<VARIANCE> 13
 2.695878e+02 2.273895e+02 2.804123e+02 3.103603e+02 3.249690e+02 2.631953e+02 2.025269e+02 1.922801e+02 1.614854e+02 1.575581e+02 1.740531e+02 1.660191e+02 1.246767e+02
<GCONST> 9.345780e+01
<STATE> 4
<MEAN> 13
 -2.780302e+01 2.754798e+01 2.379977e+01 1.323758e+01 2.142961e+01 -1.145451e+01 -6.124338e+00 -2.500792e+00 -4.606358e+00 2.743120e+00 -1.589106e+01 1.164440e+00 1.245872e+02
<VARIANCE> 13
 2.730585e+02 1.517100e+02 1.911128e+02 2.950626e+02 4.241811e+02 2.262626e+02 2.601446e+02 2.058828e+02 1.551406e+02 1.794618e+02 2.196318e+02 2.218488e+02 1.056484e+02
<GCONST> 9.351287e+01
<TRANSP> 5
 0.000000e+00 1.000000e+00 0.000000e+00 0.000000e+00 0.000000e+00
 0.000000e+00 6.040230e-01 3.959769e-01 0.000000e+00 0.000000e+00
 0.000000e+00 0.000000e+00 8.028096e-01 1.971904e-01 0.000000e+00
 0.000000e+00 0.000000e+00 0.000000e+00 7.638125e-01 2.361875e-01
 0.000000e+00 0.000000e+00 0.000000e+00 0.000000e+00 0.000000e+00
<ENDHMM>
~h "ah"
<BEGINHMM>
<NUMSTATES> 5
<STATE> 2
<MEAN> 13
 1.885109e+01 -2.134020e+01 1.774981e+01 -8.516283e+00 7.405310e+00 -4.569352e+00 -1.786311e+01 1.153577e+01 -2.077291e+00 1.421430e+01 2.972447e+00 -1.250229e+00 1.334763e+02
<VARIANCE> 13
 7.326146e+01 1.344199e+02 1.890085e+02 2.156158e+02 2.282536e+02 3.420259e+02 5.068711e+02 4.605411e+02 5.086230e+02 4.394754e+02 3.963143e+02 3.216397e+02 1.639076e+02
<GCONST> 9.650092e+01
<STATE> 3
<MEAN> 13
 1.701303e+01 -1.258941e+01 2.694855e+01 4.114672e-01 3.759076e+00 -1.157746e+01 3.425099e+00 1.218785e+01 -7.368079e-01 7.493658e+00 -6.936157e+00 1.014866e+01 1.255306e+02
<VARIANCE> 13
 5.580753e+01 9.654441e+01 2.203391e+02 3.078436e+02 2.605654e+02 4.948713e+02 4.436604e+02 4.761294e+02 4.418746e+02 5.215804e+02 3.745997e+02 3.568632e+02 1.052688e+02
<GCONST> 9.644459e+01
<STATE> 4
<MEAN> 13
 2.013974e+01 -3.958909e-01 3.518802e+01 1.225439e+01 -4.529852e+00 1.022222e-01 1.743283e+01 -9.318942e+00 1.354659e+00 3.366291e+00 -9.541241e+00 1.917702e+01 1.133037e+02
<VARIANCE> 13
 4.004049e+01 1.088603e+02 1.484482e+02 2.175298e+02 2.473076e+02 4.652905e+02 5.456068e+02 4.715704e+02 5.453098e+02 6.112861e+02 5.665193e+02 5.346099e+02 8.366975e+01
<GCONST> 9.653104e+01
<TRANSP> 5
 0.000000e+00 1.000000e+00 0.000000e+00 0.000000e+00 0.000000e+00
 0.000000e+00 7.123896e-01 2.876104e-01 0.000000e+00 0.000000e+00
 0.000000e+00 0.000000e+00 5.710353e-01 4.289648e-01 0.000000e+00
 0.000000e+00 0.000000e+00 0.000000e+00 5.786288e-01 4.213712e-01
 0.000000e+00 0.000000e+00 0.000000e+00 0.000000e+00 0.000000e+00
<ENDHMM>
~h "ao"
<BEGINHMM>
<NUMSTATES> 5
<STATE> 2
<MEAN> 13
 3.660486e+01 1.756007e+01 1.018326e+01 -4.557652e+01 -1.942004e+01 -2.742495e+00 4.810907e+00 3.275253e+00 -5.577569e+00 8.041656e+00 -1.292722e+01 8.615381e+00 1.173725e+02
<VARIANCE> 13
 5.382011e+01 1.534409e+02 1.537802e+02 4.097192e+02 4.705155e+02 2.605739e+02 2.984451e+02 2.222267e+02 1.948660e+02 2.258324e+02 2.138561e+02 2.921030e+02 1.192237e+02
<GCONST> 9.329688e+01
<STATE> 3
<MEAN> 13
 3.443860e+01 1.291199e+01 2.030256e+01 -4.262245e+01 -3.247328e+01 -1.830192e+00 -1.005641e+01 1.769334e+01 -2.239788e+01 9.202508e+00 -4.467560e+00 -7.643794e+00 1.251506e+02
<VARIANCE> 13
 4.757238e+01 1.746705e+02 2.904012e+02 2.553815e+02 4.109583e+02 4.595779e+02 5.629258e+02 4.490744e+02 4.562099e+02 4.992419e+02 3.503239e+02 3.262451e+02 1.329796e+02
<GCONST> 9.759347e+01
<STATE> 4
<MEAN> 13
 3.866923e+01 -5.527268e+00 -1.435611e+01 -2.791956e+01 1.371996e+00 -9.262310e+00 -7.131723e+00 1.371174e+01 -2.414689e+01 5.227701e+00 4.181728e+00 1.463909e+01 1.279441e+02
<VARIANCE> 13
 6.078325e+01 2.003865e+02 2.710999e+02 2.689028e+02 6.294389e+02 4.634956e+02 1.052320e+03 6.928096e+02 5.104675e+02 7.897944e+02 4.056233e+02 3.449764e+02 1.642039e+02
<GCONST> 1.004370e+02
<TRANSP> 5
 0.000000e+00 1.000000e+00 0.000000e+00 0.000000e+00 0.000000e+00
 0.000000e+00 8.237208e-01 1.762792e-01 0.000000e+00 0.000000e+00
 0.000000e+00 0.000000e+00 8.206744e-01 1.793256e-01 0.000000e+00
 0.000000e+00 0.000000e+00 0.000000e+00 8.139623e-01 1.860376e-01
 0.000000e+00 0.000000e+00 0.000000e+00 0.000000e+00 0.000000e+00
<ENDHMM>
~h "ay"
<BEGINHMM>
<NUMSTATES> 5
<STATE> 2
<MEAN> 13
 2.074545e+01 -2.984305e+01 -4.279724e+00 -2.514298e+01 3.921659e+00 1.380428e+01 -7.649463e+00 6.103384e+00 7.615774e+00 1.539649e+01 6.126151e+00 -8.163355e+00 1.441079e+02
<VARIANCE> 13
 6.479758e+01 1.363972e+02 3.053921e+02 4.366817e+02 3.724499e+02 3.760937e+02 4.209179e+02 3.489709e+02 4.571287e+02 3.916996e+02 4.905827e+02 3.563175e+02 1.234958e+02
<GCONST> 9.751050e+01
<STATE> 3
<MEAN> 13
 1.399449e+01 -4.157317e+01 3.749613e+00 -2.144403e+01 2.128866e+01 3.201806e+00 -7.346665e+00 2.083624e+01 1.018459e+01 6.386219e+00 -7.273361e+00 6.041048e-01 1.479127e+02
<VARIANCE> 13
 5.124972e+01 1.181737e+02 2.097326e+02 2.293382e+02 4.172097e+02 2.862315e+02 3.717784e+02 4.231528e+02 2.685292e+02 2.982027e+02 3.195804e+02 4.086131e+02 1.058996e+02
<GCONST> 9.477172e+01
<STATE> 4
<MEAN> 13
 1.152080e+01 -2.984731e+01 1.980412e+01 -9.922512e+00 -2.825433e+00 -7.451778e+00 3.152317e+00 2.412468e+01 2.580192e+00 1.953946e+00 -7.638158e-01 7.055597e+00 1.411940e+02
<VARIANCE> 13
 7.775895e+01 1.477583e+02 5.124846e+02 2.851545e+02 3.806304e+02 2.133919e+02 5.287947e+02 3.291299e+02 4.109966e+02 3.471725e+02 3.180681e+02 2.513013e+02 1.763367e+02
<GCONST> 9.683563e+01
<TRANSP> 5
 0.000000e+00 1.000000e+00 0.000000e+00 0.000000e+00 0.000000e+00
 0.000000e+00 8.596190e-01 1.403810e-01 0.000000e+00 0.000000e+00
 0.000000e+00 0.000000e+00 8.625027e-01 1.374973e-01 0.000000e+00
 0.000000e+00 0.000000e+00 0.000000e+00 8.057944e-01 1.942057e-01
 0.000000e+00 0.000000e+00 0.000000e+00 0.000000e+00 0.000000e+00
<ENDHMM>
~h "eh"
<BEGINHMM>
<NUMSTATES> 5
<STATE> 2
<MEAN> 13
 -5.672197e+01 1.188367e+01 -8.028085e+00 -8.489147e+00 4.786976e+00 -1.662145e+01 -9.197900e-01 1.913729e+00 -2.809162e+00 1.486415e+00 -8.683663e+00 7.477196e+00 1.155733e+02
<VARIANCE> 13
 1.780347e+02 9.087204e+01 1.411770e+02 1.869255e+02 2.285097e+02 1.958738e+02 1.525335e+02 1.666019e+02 1.466450e+02 1.380548e+02 1.526253e+02 1.282520e+02 1.009960e+02
<GCONST> 8.902932e+01
<STATE> 3
<MEAN> 13
 -2.790899e+00 8.349350e+00 1.636054e+01 7.278328e+00 -5.645425e+00 -1.465046e+01 -7.902196e+00 -1.451939e+00 2.577286e+00 4.359587e+00 -8.289642e+00 1.127296e+01 1.203677e+02
<VARIANCE> 13
 2.666458e+02 1.046178e+02 1.078146e+02 1.555130e+02 3.154254e+02 1.719499e+02 1.759079e+02 1.717737e+02 1.700281e+02 2.674982e+02 2.542036e+02 2.849025e+02 1.851247e+02
<GCONST> 9.220943e+01
<STATE> 4
<MEAN> 13
 1.151745e+01 -1.467680e+01 2.143386e+01 -1.249337e+01 -9.377957e+00 -2.774663e+01 -1.117406e+01 2.025974e+00 9.563349e+00 1.409399e+01 -7.734038e+00 1.571726e+01 1.447199e+02
<VARIANCE> 13
 4.802750e+01 8.526369e+01 1.426365e+02 2.051753e+02 3.248079e+02 2.278394e+02 7.121173e+02 2.870370e+02 3.950519e+02 5.156738e+02 3.982229e+02 4.646030e+02 1.015815e+02
<GCONST> 9.490738e+01
<TRANSP> 5
 0.000000e+00 1.000000e+00 0.000000e+00 0.000000e+00 0.000000e+00
 0.000000e+00 7.610508e-01 2.389492e-01 0.000000e+00 0.000000e+00
 0.000000e+00 0.000000e+00 1.872636e-01 8.127363e-01 0.000000e+00
 0.000000e+00 0.000000e+00 0.000000e+00 6.501101e-01 3.498899e-01
 0.000000e+00 0.000000e+00 0.000000e+00 0.000000e+00 0.000000e+00
<ENDHMM>
~h "ey"
<BEGINHMM>
<NUMSTATES> 5
<STATE> 2
<MEAN> 13
 -4.777493e+00 -1.125659e+01 2.270626e+01 -8.979355e+00 -2.199957e+01 -2.132582e+01 -2.368693e+00 1.127421e+00 5.669049e-01 9.979589e+00 -2.054927e+00 8.046371e+00 1.077512e+02
<VARIANCE> 13
 2.460711e+02 2.288880e+02 4.160712e+02 4.088650e+02 3.597786e+02 4.375741e+02 6.062047e+02 4.630539e+02 4.400585e+02 3.852613e+02 3.216749e+02 3.369703e+02 9.527792e+02
<GCONST> 1.018810e+02
<STATE> 3
<MEAN> 13
 4.136925e+00 -1.869005e+01 4.837774e+01 -2.384587e+01 -2.360005e+01 -1.809091e+01 2.265019e+00 2.983484e+00 -4.405604e+00 1.342174e+01 1.032064e+00 1.036400e+01 1.422209e+02
<VARIANCE> 13
 5.890015e+01 1.577353e+02 3.198710e+02 4.164196e+02 2.015978e+02 2.809882e+02 6.242802e+02 3.362254e+02 5.904850e+02 2.514608e+02 1.776217e+02 1.650376e+02 1.254046e+02
<GCONST> 9.505334e+01
<STATE> 4
<MEAN> 13
 -2.856020e+00 3.354310e+00 7.018399e+01 -1.547063e+01 -1.117906e+01 -2.899175e+00 -5.089673e+00 -1.880689e+01 -1.286362e+01 3.145203e+00 -1.073500e+01 6.181177e+00 1.264143e+02
<VARIANCE> 13
 6.296354e+01 2.372692e+02 2.275029e+02 5.458161e+02 2.767481e+02 3.110156e+02 2.940305e+02 4.831115e+02 7.243543e+02 3.650518e+02 3.076441e+02 3.874419e+02 3.336048e+02
<GCONST> 9.844426e+01
<TRANSP> 5
 0.000000e+00 1.000000e+00 0.000000e+00 0.000000e+00 0.000000e+00
 0.000000e+00 6.657308e-01 3.342692e-01 0.000000e+00 0.000000e+00
 0.000000e+00 0.000000e+00 8.808974e-01 1.191025e-01 0.000000e+00
 0.000000e+00 0.000000e+00 0.000000e+00 8.846968e-01 1.153032e-01
 0.000000e+00 0.000000e+00 0.000000e+00 0.000000e+00 0.000000e+00
<ENDHMM>
~h "hh"
<BEGINHMM>
<NUMSTATES> 5
<STATE> 2
<MEAN> 13
 1.159222e+01 1.290172e+01 1.167451e+01 8.502312e-01 2.893052e+00 9.995337e+00 7.888851e+00 2.739387e+00 -5.693694e+00 5.912913e+00 -2.477260e+00 2.951237e+00 8.653561e+01
<VARIANCE> 13
 3.211715e+02 3.117257e+02 2.107907e+02 3.630378e+02 3.104655e+02 2.683305e+02 2.701548e+02 2.873063e+02 3.711781e+02 2.540618e+02 2.085991e+02 2.017904e+02 5.016925e+02
<GCONST> 9.756159e+01
<STATE> 3
<MEAN> 13
 3.110827e+01 2.430206e+01 1.581758e+01 -7.127387e+00 -8.434167e+00 3.452860e+00 7.405315e+00 2.169678e-01 -2.281181e+00 9.232568e+00 -4.403722e+00 4.319006e+00 9.783727e+01
<VARIANCE> 13
 6.184950e+01 2.188084e+02 1.361590e+02 2.326770e+02 2.315883e+02 2.593529e+02 2.539326e+02 2.483688e+02 3.693801e+02 2.424178e+02 2.129499e+02 2.515583e+02 1.689685e+02
<GCONST> 9.324483e+01
<STATE> 4
<MEAN> 13
 3.470574e+01 2.007755e+01 2.214836e+01 -2.101707e+01 -2.055079e+01 -4.224262e+00 -1.359020e+00 4.684373e+00 -9.194551e+00 1.435265e+01 -3.071651e+00 -1.043491e+00 1.087248e+02
<VARIANCE> 13
 4.466120e+01 1.743357e+02 2.137532e+02 2.464483e+02 2.905708e+02 2.741320e+02 3.991888e+02 3.174426e+02 4.212925e+02 3.280735e+02 2.924752e+02 2.864478e+02 7.926744e+01
<GCONST> 9.430498e+01
<TRANSP> 5
 0.000000e+00 1.000000e+00 0.000000e+00 0.000000e+00 0.000000e+00
 0.000000e+00 5.223188e-01 4.776812e-01 0.000000e+00 0.000000e+00
 0.000000e+00 0.000000e+00 6.534812e-01 3.465188e-01 0.000000e+00
 0.000000e+00 0.000000e+00 0.000000e+00 6.620710e-01 3.379290e-01
 0.000000e+00 0.000000e+00 0.000000e+00 0.000000e+00 0.000000e+00
<ENDHMM>
~h "ih"
<BEGINHMM>
<NUMSTATES> 5
<STATE> 2
<MEAN> 13
 -5.614618e+01 1.231055e+01 -1.424865e+01 -6.163579e-01 -3.002555e+00 -1.250607e+01 9.701685e-01 3.794470e-01 -3.723539e+00 -4.819984e-01 -5.101914e+00 7.183648e+00 1.149792e+02
<VARIANCE> 13
 1.203078e+02 9.109375e+01 1.254157e+02 1.804783e+02 2.286993e+02 2.390982e+02 1.254244e+02 1.290854e+02 1.417699e+02 1.226384e+02 1.587150e+02 1.148954e+02 8.653432e+01
<GCONST> 8.785817e+01
<STATE> 3
<MEAN> 13
 -1.123461e+01 1.177131e+01 1.943756e+01 9.671591e+00 -7.121866e+00 -1.314199e+01 -4.885415e+00 -2.426898e+00 -2.354678e+00 1.456908e+00 -5.857258e+00 9.734956e+00 1.224600e+02
<VARIANCE> 13
 3.898894e+02 1.120065e+02 1.275834e+02 2.066976e+02 3.746041e+02 2.016413e+02 1.883782e+02 1.538087e+02 1.621271e+02 1.900650e+02 2.790069e+02 2.742333e+02 1.671626e+02
<GCONST> 9.296329e+01
<STATE> 4
<MEAN> 13
 5.854925e+00 -1.417102e+01 4.218824e+01 -2.249254e+00 -1.554312e+01 -3.034236e+01 -5.860826e+00 -4.650907e+00 -1.101261e+01 7.876497e+00 -3.518173e+00 1.143393e+01 1.375202e+02
<VARIANCE> 13
 7.238967e+01 1.634864e+02 2.126022e+02 3.542309e+02 3.419955e+02 3.048964e+02 8.682877e+02 6.191301e+02 5.441386e+02 2.954024e+02 3.018239e+02 3.820154e+02 2.132041e+02
<GCONST> 9.825526e+01
<TRANSP> 5
 0.000000e+00 1.000000e+00 0.000000e+00 0.000000e+00 0.000000e+00
 0.000000e+00 7.793449e-01 2.206552e-01 0.000000e+00 0.000000e+00
 0.000000e+00 0.000000e+00 4.122526e-01 5.877474e-01 0.000000e+00
 0.000000e+00 0.000000e+00 0.000000e+00 8.862557e-01 1.137443e-01
 0.000000e+00 0.000000e+00 0.000000e+00 0.000000e+00 0.000000e+00
<ENDHMM>
~h "iy"
<BEGINHMM>
<NUMSTATES> 5
<STATE> 2
<MEAN> 13
 3.406686e+00 -1.356122e+01 6.603053e+01 3.798894e+00 -9.443447e+00 -1.712879e+01 -6.689448e+00 2.442920e+00 -2.747054e+01 1.576584e+00 -4.377141e+00 3.401146e+00 1.363842e+02
<VARIANCE> 13
 8.157485e+01 1.836540e+02 2.680880e+02 3.275341e+02 2.269928e+02 4.212797e+02 5.883620e+02 5.533195e+02 3.872880e+02 4.471585e+02 2.425835e+02 3.642769e+02 1.111777e+02
<GCONST> 9.721384e+01
<STATE> 3
<MEAN> 13
 6.220779e-01 5.168078e+00 6.528169e+01 -1.082120e+01 -5.777246e+00 -9.317440e+00 5.882744e+00 -2.089601e+01 -7.936006e+00 8.345536e+00 -1.132457e+01 1.308852e+01 1.231857e+02
<VARIANCE> 13
 9.939923e+01 2.883545e+02 1.612632e+02 4.385706e+02 2.266374e+02 4.184493e+02 4.155839e+02 5.249896e+02 4.557526e+02 3.571461e+02 2.495975e+02 2.855409e+02 2.096596e+02
<GCONST> 9.759509e+01
<STATE> 4
<MEAN> 13
 -1.024093e+00 1.502439e+00 4.055508e+01 3.616263e+00 -4.070031e+00 -8.736886e-01 1.470229e+00 -1.606586e+00 -6.257017e+00 2.639397e+00 -5.217251e+00 5.781108e+00 1.045270e+02
<VARIANCE> 13
 3.088305e+02 4.854003e+02 2.577333e+02 4.874840e+02 3.818849e+02 1.141480e+03 7.435669e+02 3.958556e+02 4.202125e+02 4.041637e+02 2.760268e+02 2.708572e+02 7.177007e+02
<GCONST> 1.029698e+02
<TRANSP> 5
 0.000000e+00 1.000000e+00 0.000000e+00 0.000000e+00 0.000000e+00
 0.000000e+00 7.861602e-01 2.138398e-01 0.000000e+00 0.000000e+00
 0.000000e+00 0.000000e+00 7.452433e-01 2.547567e-01 0.000000e+00
 0.000000e+00 0.000000e+00 0.000000e+00 5.865772e-01 4.134228e-01
 0.000000e+00 0.000000e+00 0.000000e+00 0.000000e+00 0.000000e+00
<ENDHMM>
~h "ow"
<BEGINHMM>
<NUMSTATES> 5
<STATE> 2
<MEAN> 13
 1.696145e+01 -2.396671e+01 7.474893e-01 -2.181548e+01 5.967544e+00 -1.576070e+01 5.707600e-01 3.796319e+00 1.473019e+01 1.992750e+01 -9.109636e+00 2.657571e+00 1.351708e+02
<VARIANCE> 13
 1.367689e+02 1.662918e+02 2.453352e+02 2.166749e+02 2.505719e+02 3.878329e+02 4.946409e+02 3.703915e+02 5.542633e+02 5.130502e+02 4.657209e+02 3.419518e+02 3.439618e+02
<GCONST> 9.878497e+01
<STATE> 3
<MEAN> 13
 2.544223e+01 -1.176400e+01 5.649410e+00 -3.881115e+01 2.270554e+00 5.921690e+00 -9.421126e+00 -9.051717e+00 -1.516904e+01 2.536600e+01 7.868137e+00 9.176132e+00 1.364069e+02
<VARIANCE> 13
 5.859751e+01 1.399527e+02 2.611625e+02 3.591403e+02 3.944716e+02 3.912354e+02 4.129166e+02 3.873054e+02 9.509396e+02 3.987072e+02 4.174001e+02 2.782623e+02 1.787400e+02
<GCONST> 9.797679e+01
<STATE> 4
<MEAN> 13
 2.452914e+01 9.653220e+00 7.200127e+00 -2.490364e+01 -8.779951e+00 1.338682e+01 1.879437e+00 -4.712735e-01 -1.072865e+01 2.436142e+00 -2.204617e+00 5.863224e+00 1.100466e+02
<VARIANCE> 13
 1.628101e+02 2.309675e+02 2.733676e+02 6.697166e+02 7.117669e+02 4.059576e+02 4.728013e+02 4.408202e+02 5.335790e+02 3.654064e+02 4.199195e+02 3.867393e+02 4.533130e+02
<GCONST> 1.016613e+02
<TRANSP> 5
 0.000000e+00 1.000000e+00 0.000000e+00 0.000000e+00 0.000000e+00
 0.000000e+00 8.087794e-01 1.912206e-01 0.000000e+00 0.000000e+00
 0.000000e+00 0.000000e+00 8.491975e-01 1.508024e-01 0.000000e+00
 0.000000e+00 0.000000e+00 0.000000e+00 8.658122e-01 1.341878e-01
 0.000000e+00 0.000000e+00 0.000000e+00 0.000000e+00 0.000000e+00
<ENDHMM>
~h "sp"
<BEGINHMM>
<NUMSTATES> 3
<STATE> 2
~s "silst"
<TRANSP> 3
 0.000000e+00 1.148185e-01 8.851815e-01
 0.000000e+00 8.586866e-01 1.413134e-01
 0.000000e+00 0.000000e+00 0.000000e+00
<ENDHMM>
~h "th"
<BEGINHMM>
<NUMSTATES> 5
<STATE> 2
<MEAN> 13
 -2.907725e+01 -1.661086e+00 -1.028277e+00 5.853130e+00 -6.876521e+00 1.415406e+00 -4.456062e+00 1.237498e+00 -5.215019e+00 1.474366e+00 -3.103053e+00 4.655525e+00 8.880341e+01
<VARIANCE> 13
 1.367628e+02 1.442816e+02 1.094463e+02 1.321249e+02 1.383035e+02 1.394631e+02 1.480629e+02 1.483874e+02 1.451445e+02 1.342236e+02 1.322846e+02 1.139205e+02 4.248418e+02
<GCONST> 8.877573e+01
<STATE> 3
<MEAN> 13
 -2.437010e+01 -7.730195e+00 1.486353e+01 2.012655e-01 -1.157439e+01 -5.618076e+00 -5.646856e-01 5.192959e-01 -2.289960e+00 4.447609e+00 -3.227026e+00 6.820674e+00 1.142946e+02
<VARIANCE> 13
 1.596477e+02 1.845600e+02 2.537755e+02 2.111688e+02 1.772047e+02 2.215388e+02 2.315172e+02 2.203456e+02 2.045614e+02 1.904917e+02 1.929683e+02 2.168655e+02 1.319325e+02
<GCONST> 9.258479e+01
<STATE> 4
<MEAN> 13
 1.490266e+01 -1.027687e+01 1.862434e+01 2.039433e+01 9.585360e+00 -1.168622e+01 -1.237879e+01 -2.401348e+00 -4.611176e+00 6.317035e+00 -7.748908e-01 3.661230e+00 1.137956e+02
<VARIANCE> 13
 2.559146e+02 1.434753e+02 2.033633e+02 1.519671e+02 1.722554e+02 2.816047e+02 2.303974e+02 2.266183e+02 1.772009e+02 1.493982e+02 1.655859e+02 1.489558e+02 1.849226e+02
<GCONST> 9.191160e+01
<TRANSP> 5
 0.000000e+00 1.000000e+00 0.000000e+00 0.000000e+00 0.000000e+00
 0.000000e+00 8.112177e-01 1.887823e-01 0.000000e+00 0.000000e+00
 0.000000e+00 0.000000e+00 6.924292e-01 3.075708e-01 0.000000e+00
 0.000000e+00 0.000000e+00 0.000000e+00 6.362315e-01 3.637685e-01
 0.000000e+00 0.000000e+00 0.000000e+00 0.000000e+00 0.000000e+00
<ENDHMM>
~h "uw"
<BEGINHMM>
<NUMSTATES> 5
<STATE> 2
<MEAN> 13
 6.978486e+00 -8.768916e+00 5.641050e+01 1.512245e+00 -3.494650e+00 -2.822660e+01 4.901305e+00 -7.220944e+00 -1.627221e+01 8.087827e+00 -1.234781e+01 1.739911e+01 1.328377e+02
<VARIANCE> 13
 5.090352e+01 1.409992e+02 1.751743e+02 2.515338e+02 1.797408e+02 2.886967e+02 6.364716e+02 4.870456e+02 3.402963e+02 2.773365e+02 2.483096e+02 3.741750e+02 1.467403e+02
<GCONST> 9.484875e+01
<STATE> 3
<MEAN> 13
 1.644720e+01 -1.278733e+01 4.306360e+01 1.841134e+01 5.862054e+00 -9.679632e-01 -3.340200e+01 1.085216e+01 -2.696056e+01 -1.153283e+00 -3.883813e+00 -1.486891e+01 1.298202e+02
<VARIANCE> 13
 7.795544e+01 1.746114e+02 2.268915e+02 3.297125e+02 3.017418e+02 5.211238e+02 4.372133e+02 4.548476e+02 4.936985e+02 4.869908e+02 4.188507e+02 4.000597e+02 1.962640e+02
<GCONST> 9.849850e+01
<STATE> 4
<MEAN> 13
 1.444756e+01 1.023322e+01 1.712776e+01 6.938594e+00 1.268380e+01 4.038942e+00 1.673840e+00 -1.073909e+01 -8.470270e+00 7.252246e+00 -8.214873e+00 6.992253e+00 9.753446e+01
<VARIANCE> 13
 2.154153e+02 1.817825e+02 2.541212e+02 4.095685e+02 3.222603e+02 5.623830e+02 4.564968e+02 5.579333e+02 6.132362e+02 4.526669e+02 3.639892e+02 3.600419e+02 3.323282e+02
<GCONST> 1.006994e+02
<TRANSP> 5
 0.000000e+00 1.000000e+00 0.000000e+00 0.000000e+00 0.000000e+00
 0.000000e+00 8.586297e-01 1.413703e-01 0.000000e+00 0.000000e+00
 0.000000e+00 0.000000e+00 8.390269e-01 1.609731e-01 0.000000e+00
 0.000000e+00 0.000000e+00 0.000000e+00 8.160883e-01 1.839117e-01
 0.000000e+00 0.000000e+00 0.000000e+00 0.000000e+00 0.000000e+00
<ENDHMM>
~h "sil"
<BEGINHMM>
<NUMSTATES> 5
<STATE> 2
<MEAN> 13
 -1.177305e+01 -2.947443e+00 -3.224745e-01 6.578880e+00 9.497991e-01 9.385770e-01 4.784638e+00 6.836659e+00 -7.362217e-01 -1.208249e-01 -4.952058e+00 2.935701e-01 6.466303e+01
<VARIANCE> 13
 6.568148e+01 1.316589e+02 1.405109e+02 1.359970e+02 1.651659e+02 2.043978e+02 2.207268e+02 2.351070e+02 2.183082e+02 2.157900e+02 1.714688e+02 1.549577e+02 8.589504e+01
<GCONST> 8.950023e+01
<STATE> 3
~s "silst"
<STATE> 4
<MEAN> 13
 -1.998599e+01 1.030856e+00 5.617115e+00 4.461637e+00 1.550763e-01 -4.181187e-01 -2.888682e-01 1.203073e+00 -2.693852e+00 3.571327e+00 -4.177858e-01 2.737010e+00 6.537758e+01
<VARIANCE> 13
 1.738598e+02 2.629063e+02 1.404574e+02 1.765532e+02 1.737996e+02 1.914316e+02 1.824236e+02 1.717057e+02 1.706298e+02 1.529238e+02 1.392380e+02 1.181338e+02 2.385115e+02
<GCONST> 9.085738e+01
<TRANSP> 5
 0.000000e+00 1.000000e+00 0.000000e+00 0.000000e+00 0.000000e+00
 0.000000e+00 8.158326e-01 1.281281e-01 5.603932e-02 0.000000e+00
 0.000000e+00 0.000000e+00 9.083441e-01 9.165583e-02 0.000000e+00
 0.000000e+00 1.531573e-01 0.000000e+00 6.169333e-01 2.299094e-01
 0.000000e+00 0.000000e+00 0.000000e+00 0.000000e+00 0.000000e+00
<ENDHMM>
