~o
<STREAMINFO> 1 26
<VECSIZE> 26<NULLD><MFCC_D_0><DIAGC>
~v "varFloor1"
<VARIANCE> 26
 6.754232e+00 3.412257e+00 5.608447e+00 4.796207e+00 3.472295e+00 4.011117e+00 4.413517e+00 3.617792e+00 3.683716e+00 3.040219e+00 2.640150e+00 2.509556e+00 1.298279e+01 2.278196e-01 1.545969e-01 2.184490e-01 2.118026e-01 1.813457e-01 2.097697e-01 2.257949e-01 2.166197e-01 2.009621e-01 1.748386e-01 1.664882e-01 1.534702e-01 2.729188e-01
~s "silst"
<MEAN> 26
 -2.519044e+01 4.697321e+00 -1.021158e+00 2.725866e+00 -3.271838e+00 -3.022014e+00 -4.539279e+00 -1.464563e+00 -1.698938e+00 1.369132e+00 1.067763e+00 2.508969e+00 4.817983e+01 -2.215651e-01 6.503320e-03 4.737266e-02 -4.214319e-02 -6.707045e-02 -7.381724e-02 -1.620863e-01 -1.831518e-01 -4.802841e-02 1.064018e-01 9.647723e-02 5.387448e-02 -1.386329e-01
<VARIANCE> 26
 3.010241e+01 2.964210e+01 3.775494e+01 5.070539e+01 6.896692e+01 8.950641e+01 1.060754e+02 1.065996e+02 9.887312e+01 9.252861e+01 8.946340e+01 8.017075e+01 1.575801e+01 1.509063e+00 2.140641e+00 3.372957e+00 4.617104e+00 5.929564e+00 7.239429e+00 8.675583e+00 9.432551e+00 9.448585e+00 9.382605e+00 9.130710e+00 8.240615e+00 8.276689e-01
<GCONST> 1.216522e+02
~h "f"
<BEGINHMM>
<NUMSTATES> 5
<STATE> 2
<MEAN> 26
 -3.292373e+01 -1.466945e+01 -5.243703e-01 3.732412e+00 -2.028220e+00 -2.963355e-01 -6.633228e+00 8.770154e-01 -4.782635e+00 3.970108e+00 -3.489293e+00 2.710526e+00 9.022601e+01 -1.650821e+00 -1.442693e+00 -1.142521e+00 -7.557431e-01 -6.693280e-01 -2.980104e-01 -8.373849e-01 -5.202075e-01 -4.127954e-01 -1.704255e-01 -1.682684e-01 -1.181516e-01 9.210675e-01
<VARIANCE> 26
 1.216690e+02 1.033180e+02 8.565852e+01 8.840549e+01 1.041227e+02 1.176711e+02 1.300548e+02 1.325160e+02 1.332705e+02 1.228845e+02 1.157558e+02 1.057296e+02 3.016878e+02 1.919653e+01 1.024673e+01 9.435449e+00 1.066918e+01 1.130763e+01 1.229803e+01 1.346457e+01 1.293654e+01 1.275945e+01 1.232944e+01 1.169846e+01 1.079471e+01 2.068266e+01
<GCONST> 1.430643e+02
<STATE> 3
<MEAN> 26
 -2.907855e+01 -1.820343e+01 -4.215739e+00 -9.528834e-01 -3.628484e+00 -1.285037e+00 -8.131746e+00 -1.685351e+00 -6.648307e+00 3.249169e+00 -4.378598e+00 2.685460e+00 1.033860e+02 1.033402e+01 2.567498e+00 8.104277e-01 -2.954668e+00 5.348735e-01 1.191322e+00 1.948149e+00 4.309832e-01 7.292911e-01 1.322311e+00 2.992337e-01 -1.083309e-01 5.216468e+00
<VARIANCE> 26
 1.196930e+02 6.294218e+01 6.168268e+01 6.785278e+01 8.010151e+01 9.010889e+01 9.636281e+01 1.011757e+02 1.061165e+02 1.000336e+02 9.324156e+01 8.500311e+01 1.685668e+02 3.483391e+01 1.640927e+01 1.000170e+01 1.817272e+01 1.321307e+01 1.209921e+01 1.318492e+01 1.402249e+01 1.800661e+01 1.616673e+01 1.757942e+01 1.217806e+01 3.318966e+01
<GCONST> 1.428833e+02
<STATE> 4
<MEAN> 26
 1.087278e+01 -1.160729e+01 -8.629167e-01 -1.547666e+01 -6.082330e-01 4.848310e+00 -6.439483e-01 -1.926330e-01 -2.673063e+00 1.278466e+01 7.055936e-01 -4.938335e-02 1.201240e+02 1.374682e+01 -1.508119e-01 3.412085e-01 -9.899529e+00 -8.993612e-01 1.811159e+00 2.095187e+00 8.826339e-01 2.774442e-01 2.981251e+00 1.548455e+00 -1.009345e+00 9.532905e+00
<VARIANCE> 26
 3.503972e+02 1.825065e+02 1.204986e+02 4.025065e+02 1.980972e+02 1.695791e+02 1.702538e+02 1.857247e+02 3.286889e+02 2.497206e+02 3.405999e+02 1.621324e+02 4.142822e+02 3.198428e+01 5.107753e+01 2.758567e+01 2.817375e+01 3.830526e+01 2.472733e+01 2.815536e+01 2.865467e+01 4.356730e+01 3.202495e+01 4.597975e+01 2.561567e+01 2.628081e+01
<GCONST> 1.638667e+02
<TRANSP> 5
 0.000000e+00 1.000000e+00 0.000000e+00 0.000000e+00 0.000000e+00
 0.000000e+00 8.597595e-01 1.402405e-01 0.000000e+00 0.000000e+00
 0.000000e+00 0.000000e+00 5.746911e-01 4.253089e-01 0.000000e+00
 0.000000e+00 0.000000e+00 0.000000e+00 4.715587e-01 5.284413e-01
 0.000000e+00 0.000000e+00 0.000000e+00 0.000000e+00 0.000000e+00
<ENDHMM>
~h "k"
<BEGINHMM>
<NUMSTATES> 5
<STATE> 2
<MEAN> 26
 -5.824989e+00 8.399611e+00 2.969494e+01 2.553453e+01 -3.233889e+00 -1.673826e+01 2.646148e+00 -2.626387e+00 -1.929732e+01 -1.273978e+00 -9.905402e-01 2.764737e+00 7.688768e+01 -5.627837e+00 3.268045e+00 -9.476922e+00 -1.779818e-01 3.759441e+00 6.060301e+00 -3.446995e+00 6.703176e-02 3.519220e+00 -2.311415e+00 9.393983e-02 -1.100003e+00 -1.388049e+01
<VARIANCE> 26
 1.324487e+02 2.329317e+02 2.888043e+02 2.083328e+02 3.443893e+02 4.107238e+02 4.281914e+02 5.577615e+02 3.594132e+02 2.932285e+02 2.108073e+02 1.680308e+02 4.308889e+02 1.095099e+01 4.221922e+01 2.475008e+01 4.757719e+01 3.031741e+01 3.755495e+01 5.980613e+01 7.406198e+01 5.571275e+01 3.531517e+01 2.455283e+01 2.411130e+01 5.470024e+01
<GCONST> 1.680871e+02
<STATE> 3
<MEAN> 26
 -1.862218e+01 -5.344030e+00 -5.182565e+00 7.982640e+00 -2.705671e-01 -7.046893e+00 -9.983851e+00 -2.006416e+00 -4.636847e+00 1.497200e+00 -1.099820e+00 3.264633e+00 6.952307e+01 -1.718951e+00 -4.736897e+00 -5.435606e+00 -1.188725e+00 -7.731297e-03 -1.463506e+00 -2.145339e+00 1.241683e+00 1.734437e+00 1.260194e+00 -6.393538e-01 5.484737e-01 8.902150e+00
<VARIANCE> 26
 1.394315e+02 3.158838e+02 2.345625e+02 1.324065e+02 1.472667e+02 1.634822e+02 1.729078e+02 1.554049e+02 1.350618e+02 1.274376e+02 1.129170e+02 8.726530e+01 7.367909e+02 2.967656e+01 2.738690e+01 2.573364e+01 2.536447e+01 2.203455e+01 2.662977e+01 2.211323e+01 2.127593e+01 2.026309e+01 1.820445e+01 1.549208e+01 1.172141e+01 7.875491e+01
<GCONST> 1.558489e+02
<STATE> 4
<MEAN> 26
 -4.346955e+01 -8.980796e+00 -7.117564e+00 7.909873e+00 2.670771e+00 -2.404625e+01 -1.433246e+01 6.825497e+00 6.146806e-01 3.186610e+00 -8.409022e+00 5.297546e+00 1.131343e+02 -7.979899e+00 3.600137e+00 1.643272e+00 -5.346835e-01 -1.747465e+00 -1.493557e+00 1.956136e+00 2.025331e+00 5.557207e-01 -1.123298e+00 -5.457654e-01 7.311943e-01 2.430551e+00
<VARIANCE> 26
 3.452149e+02 1.240550e+02 1.968563e+02 2.406958e+02 3.911942e+02 2.874355e+02 2.462827e+02 2.166300e+02 1.916010e+02 1.823294e+02 1.777934e+02 1.470294e+02 1.583011e+02 4.845921e+01 1.509849e+01 1.291697e+01 1.449197e+01 2.039844e+01 2.727083e+01 1.672635e+01 1.673513e+01 1.894257e+01 1.541330e+01 1.386044e+01 1.403533e+01 2.820691e+01
<GCONST> 1.554976e+02
<TRANSP> 5
 0.000000e+00 1.000000e+00 0.000000e+00 0.000000e+00 0.000000e+00
 0.000000e+00 6.903903e-01 3.096097e-01 0.000000e+00 0.000000e+00
 0.000000e+00 0.000000e+00 7.830579e-01 2.169421e-01 0.000000e+00
 0.000000e+00 0.000000e+00 0.000000e+00 6.220833e-01 3.779167e-01
 0.000000e+00 0.000000e+00 0.000000e+00 0.000000e+00 0.000000e+00
<ENDHMM>
~h "n"
<BEGINHMM>
<NUMSTATES> 5
<STATE> 2
<MEAN> 26
 1.594040e+01 -4.147834e-01 3.538603e+01 8.290620e+00 -5.269699e+00 3.722206e+00 1.604850e+01 -3.552311e+00 -6.424842e+00 1.023962e+01 -6.750268e+00 8.630771e+00 1.110645e+02 1.458625e+00 3.370933e+00 -9.265079e-02 3.929748e+00 3.696010e-01 1.438743e+00 2.394984e+00 -3.334559e+00 6.972805e-02 6.771693e-01 -1.700929e+00 3.392858e-01 -2.940675e+00
<VARIANCE> 26
 1.266978e+02 2.933835e+02 2.341119e+02 6.065659e+02 2.996086e+02 3.978562e+02 5.048266e+02 5.665975e+02 5.286228e+02 4.348320e+02 4.182711e+02 4.008162e+02 3.967399e+02 1.914804e+01 1.593058e+01 2.578623e+01 3.557475e+01 2.286857e+01 2.722652e+01 3.597435e+01 4.263992e+01 3.168168e+01 2.811376e+01 2.499080e+01 2.635198e+01 2.591851e+01
<GCONST> 1.676308e+02
<STATE> 3
<MEAN> 26
 1.823523e+01 8.350174e+00 3.428585e+01 2.018182e+01 -3.131776e+00 8.956426e+00 2.058689e+01 -9.647475e+00 -1.552567e+00 6.858558e+00 -9.213803e+00 1.225652e+01 1.009766e+02 -2.514372e+00 -1.795786e+00 -1.421040e+00 -1.419848e+00 2.330806e+00 -1.171440e+00 -1.828147e+00 4.464620e+00 5.487741e-01 -6.523699e-01 5.079529e-01 -1.016184e+00 5.580085e-01
<VARIANCE> 26
 7.758213e+01 2.096107e+02 1.422419e+02 2.614869e+02 2.769873e+02 4.228457e+02 4.321371e+02 4.589064e+02 4.984102e+02 4.702279e+02 4.874172e+02 4.578137e+02 2.272610e+02 1.462535e+01 2.000110e+01 1.636375e+01 2.715516e+01 2.214484e+01 3.527401e+01 3.496168e+01 3.671173e+01 2.944102e+01 2.464930e+01 2.475358e+01 2.708888e+01 3.127121e+01
<GCONST> 1.641114e+02
<STATE> 4
<MEAN> 26
 7.117049e-01 -2.351115e+00 2.032532e+01 1.256691e+01 5.244132e+00 1.434232e+00 9.757664e+00 1.121348e+01 7.422122e-01 4.298306e+00 -7.559208e+00 4.403654e+00 9.404464e+01 -4.342424e+00 -3.190636e+00 -5.082882e+00 -4.217453e+00 -1.111473e-02 -1.748286e+00 -3.758260e+00 2.744765e+00 7.489155e-01 -7.906461e-01 1.047554e+00 -1.222493e+00 -1.964715e-01
<VARIANCE> 26
 1.973470e+02 2.521091e+02 2.256215e+02 4.048934e+02 2.530011e+02 3.566530e+02 4.790550e+02 3.849286e+02 3.299114e+02 3.704104e+02 2.738880e+02 2.736790e+02 6.945340e+02 2.404810e+01 2.296302e+01 1.908183e+01 2.812994e+01 2.706315e+01 2.815246e+01 3.363680e+01 4.346027e+01 3.718326e+01 2.654477e+01 2.866215e+01 2.639868e+01 3.313303e+01
<GCONST> 1.665854e+02
<TRANSP> 5
 0.000000e+00 1.000000e+00 0.000000e+00 0.000000e+00 0.000000e+00
 0.000000e+00 6.260801e-01 3.739199e-01 0.000000e+00 0.000000e+00
 0.000000e+00 0.000000e+00 5.864403e-01 4.135597e-01 0.000000e+00
 0.000000e+00 0.000000e+00 0.000000e+00 6.189052e-01 3.810947e-01
 0.000000e+00 0.000000e+00 0.000000e+00 0.000000e+00 0.000000e+00
<ENDHMM>
~h "r"
<BEGINHMM>
<NUMSTATES> 5
<STATE> 2
<MEAN> 26
 3.632245e+01 -1.881732e+01 -3.523038e+00 3.669975e+00 2.445684e+01 -2.261266e+01 -3.012546e+01 2.521233e+00 -8.134404e+00 5.144465e+00 2.239705e+00 6.932667e+00 1.269013e+02 9.291241e-01 -6.989384e-01 -2.292190e+00 -1.798404e-01 1.466146e+00 -1.093411e+00 -1.602744e+00 8.298841e-01 1.500915e+00 6.194909e-01 1.283615e-01 1.163568e-01 9.489566e-02
<VARIANCE> 26
 6.730439e+01 1.833361e+02 4.941837e+02 2.994738e+02 3.989939e+02 9.201899e+02 1.034466e+03 4.293646e+02 3.106090e+02 3.878579e+02 2.627465e+02 2.063550e+02 1.679320e+02 5.517290e+00 7.604562e+00 2.298947e+01 1.711269e+01 1.812305e+01 2.632505e+01 2.106535e+01 2.127633e+01 1.817901e+01 1.536238e+01 1.399357e+01 1.257490e+01 5.755311e+00
<GCONST> 1.571883e+02
<STATE> 3
<MEAN> 26
 3.164338e+01 -2.551838e+01 7.815597e+00 8.218079e+00 1.666986e+01 -3.310262e+01 -2.763005e+01 1.477717e+01 -9.113914e+00 2.206429e+00 1.155200e+00 8.287301e+00 1.309906e+02 -3.325246e+00 -9.670672e-01 6.458769e+00 5.916392e-01 -5.593737e+00 -2.160780e+00 5.524581e+00 2.813660e+00 -2.426707e+00 -6.645517e-01 9.226094e-01 -1.785888e-01 9.068359e-01
<VARIANCE> 26
 7.086614e+01 1.790814e+02 6.043985e+02 3.769974e+02 4.421083e+02 7.874150e+02 1.075087e+03 4.067853e+02 4.044987e+02 4.856144e+02 2.916801e+02 2.457967e+02 1.654401e+02 5.676928e+00 8.036196e+00 2.709339e+01 2.318549e+01 2.280713e+01 3.396685e+01 2.943731e+01 3.156219e+01 3.147358e+01 2.518481e+01 2.018970e+01 1.632373e+01 8.785501e+00
<GCONST> 1.621916e+02
<STATE> 4
<MEAN> 26
 1.686835e+01 -1.875192e+01 1.010876e+01 9.628427e+00 7.817850e+00 -2.061194e+01 -2.611017e+00 1.539875e+01 -7.336977e+00 5.761743e+00 2.203275e+00 4.491777e+00 1.144403e+02 -5.085549e+00 1.450556e+00 4.163208e+00 -9.370365e-01 -3.495224e+00 3.712723e+00 4.014750e+00 -2.258615e+00 -6.037001e-01 8.535258e-01 -6.892282e-01 -1.431653e+00 -2.415848e+00
<VARIANCE> 26
 2.069492e+02 2.197773e+02 9.073062e+02 3.621234e+02 4.802165e+02 7.507527e+02 7.469723e+02 4.402713e+02 6.311602e+02 4.049376e+02 2.885672e+02 2.752373e+02 6.306389e+02 1.907008e+01 1.921688e+01 2.582755e+01 2.995190e+01 2.547501e+01 3.190140e+01 3.393560e+01 3.269270e+01 2.758235e+01 2.675052e+01 2.054769e+01 1.898239e+01 1.551637e+01
<GCONST> 1.684705e+02
<TRANSP> 5
 0.000000e+00 1.000000e+00 0.000000e+00 0.000000e+00 0.000000e+00
 0.000000e+00 7.598755e-01 2.401245e-01 0.000000e+00 0.000000e+00
 0.000000e+00 0.000000e+00 5.910903e-01 4.089098e-01 0.000000e+00
 0.000000e+00 0.000000e+00 0.000000e+00 5.613099e-01 4.386901e-01
 0.000000e+00 0.000000e+00 0.000000e+00 0.000000e+00 0.000000e+00
<ENDHMM>
~h "s"
<BEGINHMM>
<NUMSTATES> 5
<STATE> 2
<MEAN> 26
 -3.457512e+01 5.822207e+00 5.621566e+00 6.933026e+00 2.150173e+00 -8.057920e+00 -5.109354e-01 5.608365e+00 -3.053842e+00 1.911480e+00 -4.318385e+00 5.145868e+00 1.038427e+02 -9.398837e+00 1.736611e+00 -4.756436e+00 -1.794852e+00 -1.334134e+00 -3.422184e-01 5.320516e-01 9.834533e-01 -2.782297e-01 -3.531548e-01 8.057969e-01 3.373305e-01 9.850649e-01
<VARIANCE> 26
 4.325259e+02 2.365387e+02 3.399781e+02 3.161187e+02 3.866189e+02 3.412119e+02 3.147993e+02 2.529514e+02 2.294937e+02 2.086279e+02 2.021044e+02 1.881972e+02 3.967079e+02 5.233745e+01 2.370624e+01 4.636950e+01 3.341988e+01 2.911264e+01 3.435239e+01 3.158733e+01 2.813392e+01 2.923824e+01 2.333856e+01 2.188141e+01 2.201641e+01 2.919839e+01
<GCONST> 1.655304e+02
<STATE> 3
<MEAN> 26
 -5.351743e+01 8.511295e+00 -1.066951e+01 1.912046e-01 -3.894926e+00 -1.047606e+01 -1.767255e+00 3.616511e+00 -5.556630e+00 1.340951e+00 -3.620257e+00 6.553015e+00 1.062255e+02 -2.998832e+00 9.981647e-01 -3.429916e+00 -9.238687e-01 -8.917528e-01 6.902592e-01 -5.306818e-01 -6.676223e-01 -6.717596e-01 -6.475136e-02 -2.157261e-01 1.835132e-02 4.303954e-01
<VARIANCE> 26
 1.357440e+02 1.416435e+02 1.655198e+02 2.849367e+02 3.623022e+02 2.764031e+02 1.877759e+02 1.767710e+02 1.626184e+02 1.495246e+02 1.627714e+02 1.273496e+02 1.887707e+02 1.209175e+01 1.348308e+01 1.099040e+01 1.329749e+01 1.463273e+01 1.753314e+01 1.742586e+01 1.502193e+01 1.364546e+01 1.342307e+01 1.261493e+01 1.147348e+01 1.115703e+01
<GCONST> 1.494041e+02
<STATE> 4
<MEAN> 26
 -5.235596e+01 6.080283e+00 -1.533045e+01 3.031997e+00 -7.416645e+00 -5.472688e+00 -4.196681e+00 3.395808e+00 -6.557285e+00 2.550692e+00 -3.719073e+00 6.122653e+00 1.055800e+02 1.026790e+00 -3.201469e-01 5.994791e-01 -1.835752e-01 3.571513e-02 1.456700e-01 6.088110e-02 -6.085200e-02 1.447392e-01 1.066549e-01 -1.411122e-01 -2.408822e-03 9.866855e-02
<VARIANCE> 26
 1.356543e+02 1.320652e+02 1.482756e+02 2.427169e+02 2.923527e+02 2.754875e+02 1.501526e+02 1.386336e+02 1.420203e+02 1.285443e+02 1.396835e+02 1.196813e+02 1.797970e+02 7.012248e+00 5.670763e+00 6.910687e+00 7.450603e+00 9.099695e+00 1.063345e+01 1.078505e+01 1.114337e+01 1.099057e+01 1.116792e+01 1.075839e+01 1.007799e+01 5.603547e+00
<GCONST> 1.422426e+02
<TRANSP> 5
 0.000000e+00 1.000000e+00 0.000000e+00 0.000000e+00 0.000000e+00
 0.000000e+00 5.461655e-01 4.538345e-01 0.000000e+00 0.000000e+00
 0.000000e+00 0.000000e+00 5.250579e-01 4.749421e-01 0.000000e+00
 0.000000e+00 0.000000e+00 0.000000e+00 8.461626e-01 1.538374e-01
 0.000000e+00 0.000000e+00 0.000000e+00 0.000000e+00 0.000000e+00
<ENDHMM>
~h "t"
<BEGINHMM>
<NUMSTATES> 5
<STATE> 2
<MEAN> 26
 -1.450780e+01 1.201326e+01 1.809228e+01 1.468102e+01 3.154524e+00 2.175929e+00 -7.344100e-01 -1.126465e+00 -4.097188e+00 8.827893e-01 -2.083387e+00 1.689501e+00 6.246887e+01 -3.594723e+00 -1.333331e+00 -6.471395e+00 -1.967871e+00 1.905610e-01 -5.802772e-01 -5.434875e-01 8.210003e-01 1.060122e+00 7.066616e-02 1.371987e+00 1.460981e-01 -2.547548e+00
<VARIANCE> 26
 2.136865e+02 1.865343e+02 3.746049e+02 2.277005e+02 1.843641e+02 1.838394e+02 2.211194e+02 2.340424e+02 2.028565e+02 1.754162e+02 1.629931e+02 1.349597e+02 3.260587e+02 2.188192e+01 3.559665e+01 5.438280e+01 4.223854e+01 2.800096e+01 2.764217e+01 2.816155e+01 3.315578e+01 3.641077e+01 2.372377e+01 2.203808e+01 2.072116e+01 1.370143e+02
<GCONST> 1.629759e+02
<STATE> 3
<MEAN> 26
 -3.410416e+01 2.423390e-01 4.559518e+00 -1.012535e+01 -3.413918e+00 -7.849197e+00 -2.846337e+00 -4.947492e+00 -9.993572e+00 2.341624e+00 -5.856579e-01 3.111763e+00 1.024941e+02 -3.953961e+00 1.840749e-01 7.346466e-01 -2.252098e+00 -2.247594e+00 -2.485827e+00 1.463605e+00 -6.743740e-02 -1.960895e+00 6.884858e-03 -1.020424e-01 1.407015e+00 1.078919e+01
<VARIANCE> 26
 2.189739e+02 2.200435e+02 1.907357e+02 1.926538e+02 1.663165e+02 1.692068e+02 1.851520e+02 1.853723e+02 1.674727e+02 1.468144e+02 1.259077e+02 1.176543e+02 1.041654e+03 1.930347e+01 2.110803e+01 2.338870e+01 2.004682e+01 1.785032e+01 2.226088e+01 2.358843e+01 2.227625e+01 1.963295e+01 1.805784e+01 1.896001e+01 1.488399e+01 1.047300e+02
<GCONST> 1.570040e+02
<STATE> 4
<MEAN> 26
 -3.257729e+01 -1.785733e+00 1.716102e+01 -2.537314e+00 -1.121053e+01 -1.317638e+01 6.539441e+00 1.222652e+00 -9.885144e+00 2.171562e-01 -2.274961e+00 9.660092e+00 1.070829e+02 5.118376e+00 -1.088968e+00 3.581752e+00 3.120858e+00 -4.362535e-02 -7.553668e-02 5.349934e-01 1.354751e+00 9.863915e-01 -1.172417e-01 -9.767424e-01 1.710099e-01 -1.484390e+00
<VARIANCE> 26
 2.734965e+02 1.320446e+02 2.192540e+02 1.818661e+02 1.845585e+02 2.554231e+02 2.801522e+02 3.091046e+02 2.106785e+02 1.904445e+02 2.330231e+02 1.739725e+02 4.804016e+02 3.807974e+01 1.275842e+01 3.206532e+01 2.096663e+01 1.842606e+01 1.991743e+01 1.986199e+01 1.938367e+01 1.809215e+01 1.689264e+01 1.744532e+01 1.632307e+01 1.923377e+01
<GCONST> 1.572728e+02
<TRANSP> 5
 0.000000e+00 1.000000e+00 0.000000e+00 0.000000e+00 0.000000e+00
 0.000000e+00 7.479569e-01 2.520431e-01 0.000000e+00 0.000000e+00
 0.000000e+00 0.000000e+00 6.417634e-01 3.582366e-01 0.000000e+00
 0.000000e+00 0.000000e+00 0.000000e+00 7.082922e-01 2.917078e-01
 0.000000e+00 0.000000e+00 0.000000e+00 0.000000e+00 0.000000e+00
<ENDHMM>
~h "v"
<BEGINHMM>
<NUMSTATES> 5
<STATE> 2
<MEAN> 26
 1.249480e+01 -2.694945e+01 1.524752e+01 -1.903919e+01 -1.102655e+01 -2.046827e+01 -2.744842e+00 1.247304e+01 1.451985e+01 1.501305e+01 -2.371827e+00 5.461367e+00 1.473925e+02 9.303392e-01 -2.783254e-02 -9.184151e-02 6.738120e-01 7.904055e-01 1.545478e-01 -5.731118e-01 -6.801652e-01 -4.913654e-01 6.594188e-01 3.424644e-01 -7.242487e-01 -1.202814e+00
<VARIANCE> 26
 7.196344e+01 1.494973e+02 2.594101e+02 2.290901e+02 2.586082e+02 2.589191e+02 8.732022e+02 2.887585e+02 3.120242e+02 4.810580e+02 3.329465e+02 4.120968e+02 1.691265e+02 1.896351e+00 7.304125e+00 6.431587e+00 8.502834e+00 7.456617e+00 9.683546e+00 1.352392e+01 1.308837e+01 1.331843e+01 9.701100e+00 1.437065e+01 1.088880e+01 5.251649e+00
<GCONST> 1.481479e+02
<STATE> 3
<MEAN> 26
 1.889641e+01 -1.799638e+01 1.850962e+01 -3.419767e+00 6.902961e-02 -1.523721e+01 -1.130431e+01 2.786179e-01 9.847979e-01 1.682224e+01 7.717916e-01 1.699829e+00 1.286181e+02 -7.804940e-01 5.719835e+00 9.046039e-01 7.143711e+00 5.247546e+00 5.404607e+00 -2.348388e-01 -3.244150e+00 -3.989309e+00 -1.302996e+00 5.996861e-01 -3.224892e-01 -8.783423e+00
<VARIANCE> 26
 6.150037e+01 1.727269e+02 2.166026e+02 2.992535e+02 3.028496e+02 3.653755e+02 5.087621e+02 3.277314e+02 5.012113e+02 3.535121e+02 4.037261e+02 3.372650e+02 2.720893e+02 1.204053e+01 1.257003e+01 1.447701e+01 1.834770e+01 1.938728e+01 2.410530e+01 3.629401e+01 2.176914e+01 2.557843e+01 2.646927e+01 2.415265e+01 2.109203e+01 1.083975e+01
<GCONST> 1.598410e+02
<STATE> 4
<MEAN> 26
 -4.652748e+00 -4.022141e+00 1.396192e+01 1.180807e+01 6.249835e+00 6.044382e-01 5.533365e-01 4.843469e+00 4.346636e-01 6.812497e+00 -2.885364e+00 4.075892e+00 9.709734e+01 -2.678853e+00 -1.514118e-01 -1.269801e+00 -7.446790e-01 -6.415925e-01 2.922245e-01 4.491884e-01 8.065221e-01 8.180279e-02 -9.819450e-01 -1.642997e-01 1.249768e-01 -1.696888e+00
<VARIANCE> 26
 3.944467e+02 1.780088e+02 1.936786e+02 2.047833e+02 2.183808e+02 2.496540e+02 2.343969e+02 2.488612e+02 2.603362e+02 2.119045e+02 2.136530e+02 1.933305e+02 2.912065e+02 4.172628e+01 2.188930e+01 1.621568e+01 2.705177e+01 2.432233e+01 3.536549e+01 2.630558e+01 2.117315e+01 2.181711e+01 1.818724e+01 1.858074e+01 1.555145e+01 3.123679e+01
<GCONST> 1.597052e+02
<TRANSP> 5
 0.000000e+00 1.000000e+00 0.000000e+00 0.000000e+00 0.000000e+00
 0.000000e+00 7.365349e-01 2.634651e-01 0.000000e+00 0.000000e+00
 0.000000e+00 0.000000e+00 6.775868e-01 3.224132e-01 0.000000e+00
 0.000000e+00 0.000000e+00 0.000000e+00 7.619049e-01 2.380951e-01
 0.000000e+00 0.000000e+00 0.000000e+00 0.000000e+00 0.000000e+00
<ENDHMM>
~h "w"
<BEGINHMM>
<NUMSTATES> 5
<STATE> 2
<MEAN> 26
 3.297919e+01 8.554810e+00 1.667153e+01 -3.971461e+01 -2.154716e+01 -1.227099e+00 -1.601501e+00 1.961899e+01 -4.312870e+00 1.287888e+01 1.434324e+00 -2.792806e-01 1.226557e+02 -6.557946e-01 -4.562067e+00 -4.029359e+00 -6.033875e+00 2.989087e+00 3.703851e+00 2.451040e+00 4.544112e+00 -1.329294e-01 -2.540558e+00 7.556564e-01 3.917757e-01 4.322330e+00
<VARIANCE> 26
 4.739200e+01 1.836906e+02 2.367749e+02 2.992789e+02 4.318048e+02 2.826531e+02 6.266089e+02 3.954126e+02 4.320157e+02 4.071427e+02 3.327407e+02 2.797520e+02 1.161642e+02 2.165550e+00 9.906286e+00 7.291503e+00 1.391763e+01 1.984202e+01 1.749076e+01 1.814708e+01 2.010920e+01 2.164248e+01 1.989859e+01 1.684369e+01 1.860292e+01 5.174297e+00
<GCONST> 1.533225e+02
<STATE> 3
<MEAN> 26
 2.820244e+01 -9.460647e+00 7.418399e-01 -4.793173e+01 2.589548e+00 1.913903e+01 3.650897e+00 1.975716e+01 -1.191786e+01 1.746659e+00 1.144418e+01 6.381663e+00 1.347357e+02 -1.500026e+00 -4.442589e+00 -2.348144e+00 1.880144e+00 6.530876e+00 2.928963e+00 -2.645134e+00 -3.054337e+00 -5.898816e-01 8.156357e-01 3.790748e+00 4.376901e-02 2.396069e+00
<VARIANCE> 26
 5.366082e+01 1.659181e+02 2.172583e+02 2.905521e+02 5.759900e+02 3.120079e+02 5.619840e+02 4.251324e+02 3.945982e+02 4.241036e+02 3.365714e+02 2.918187e+02 1.363643e+02 1.956381e+00 6.478006e+00 5.651653e+00 1.139719e+01 1.132778e+01 1.373915e+01 2.006421e+01 1.561925e+01 2.090995e+01 2.106049e+01 1.390025e+01 1.934495e+01 3.147428e+00
<GCONST> 1.511813e+02
<STATE> 4
<MEAN> 26
 2.079370e+01 -2.500496e+01 -1.329592e+00 -2.763923e+01 2.340371e+01 1.124316e+01 -1.322605e+01 1.358466e+01 3.351886e+00 1.282184e+01 1.100167e+01 -5.021271e+00 1.406526e+02 -1.490982e+00 -1.868288e+00 2.146561e+00 5.207736e+00 -2.518795e-01 -4.250786e+00 -2.630614e+00 1.718221e+00 3.709707e+00 3.036399e-01 -3.590577e+00 -8.914231e-01 5.279664e-01
<VARIANCE> 26
 6.503296e+01 1.456755e+02 2.023178e+02 2.801924e+02 4.498495e+02 3.672171e+02 4.384308e+02 4.204828e+02 4.425853e+02 3.378618e+02 3.988293e+02 3.018942e+02 1.503562e+02 1.691253e+00 4.806278e+00 5.881455e+00 8.201552e+00 1.582442e+01 1.103834e+01 1.766899e+01 1.726221e+01 1.629436e+01 2.617670e+01 1.451307e+01 2.146456e+01 1.916057e+00
<GCONST> 1.499550e+02
<TRANSP> 5
 0.000000e+00 1.000000e+00 0.000000e+00 0.000000e+00 0.000000e+00
 0.000000e+00 6.942320e-01 3.057680e-01 0.000000e+00 0.000000e+00
 0.000000e+00 0.000000e+00 7.534447e-01 2.465553e-01 0.000000e+00
 0.000000e+00 0.000000e+00 0.000000e+00 7.793779e-01 2.206221e-01
 0.000000e+00 0.000000e+00 0.000000e+00 0.000000e+00 0.000000e+00
<ENDHMM>
~h "z"
<BEGINHMM>
<NUMSTATES> 5
<STATE> 2
<MEAN> 26
 -1.119536e+01 1.946700e+01 1.983501e+01 1.958573e+01 1.038697e+01 -4.338676e+00 -1.433940e+00 3.172585e+00 -2.753514e-01 2.248166e+00 -8.305969e+00 6.334972e+00 9.599339e+01 -3.576187e+00 5.614584e+00 -1.019057e+00 2.615317e+00 2.168434e+00 1.155644e+00 6.930772e-01 1.017930e+00 3.839941e-01 1.967526e-02 1.523394e-01 1.320319e-01 3.052846e+00
<VARIANCE> 26
 3.172159e+02 2.715117e+02 3.009466e+02 3.320016e+02 3.656443e+02 3.011913e+02 3.064257e+02 2.671739e+02 2.349873e+02 2.627475e+02 2.834650e+02 3.396613e+02 6.120585e+02 5.042274e+01 2.291265e+01 3.777337e+01 3.002540e+01 2.542507e+01 3.254646e+01 2.736199e+01 2.703743e+01 2.313624e+01 2.434620e+01 2.331380e+01 2.148163e+01 3.815488e+01
<GCONST> 1.661076e+02
<STATE> 3
<MEAN> 26
 -3.452346e+01 3.083215e+01 8.194964e+00 2.387231e+01 1.228568e+01 4.118469e+00 2.336245e+00 6.695096e+00 -1.700876e+00 5.588599e+00 -4.356816e+00 6.223055e+00 1.091281e+02 -2.492789e+00 -5.132835e-01 -7.933266e-01 -8.490841e-01 -5.912523e-01 1.272427e-01 2.712285e-01 -1.551397e-01 -5.389648e-01 1.201492e-01 3.081860e-01 4.203126e-02 1.481687e+00
<VARIANCE> 26
 2.368524e+02 1.984481e+02 2.924665e+02 3.996561e+02 4.348350e+02 3.474729e+02 2.447755e+02 2.164693e+02 1.558726e+02 1.604032e+02 2.478948e+02 1.760582e+02 1.676755e+02 1.821834e+01 1.296270e+01 1.721099e+01 1.312142e+01 1.478651e+01 1.642428e+01 1.461872e+01 1.556617e+01 1.244757e+01 1.272303e+01 1.090222e+01 1.120169e+01 7.433642e+00
<GCONST> 1.526279e+02
<STATE> 4
<MEAN> 26
 -1.908223e+01 1.791822e+01 2.809288e+01 1.610036e+01 3.963454e+00 -8.429701e+00 -4.287891e+00 -3.382919e+00 -7.967416e+00 3.469069e-01 -8.294437e+00 6.692677e+00 1.262884e+02 8.548365e+00 -6.542932e+00 9.143252e+00 -2.506375e+00 -3.269024e+00 -3.593864e+00 -2.708235e+00 -2.442738e+00 -1.876145e+00 -1.149578e+00 -9.089904e-01 7.735258e-01 4.597728e+00
<VARIANCE> 26
 3.347649e+02 2.525571e+02 3.657416e+02 2.715899e+02 4.376120e+02 2.976522e+02 3.304765e+02 2.220442e+02 1.576694e+02 1.799254e+02 2.999220e+02 2.920058e+02 1.676383e+02 1.873226e+01 2.925290e+01 2.855176e+01 3.959255e+01 2.517348e+01 3.443940e+01 2.917677e+01 3.864725e+01 2.326954e+01 2.136050e+01 1.959896e+01 2.156257e+01 6.101203e+00
<GCONST> 1.615649e+02
<TRANSP> 5
 0.000000e+00 1.000000e+00 0.000000e+00 0.000000e+00 0.000000e+00
 0.000000e+00 7.208726e-01 2.791275e-01 0.000000e+00 0.000000e+00
 0.000000e+00 0.000000e+00 8.181308e-01 1.818692e-01 0.000000e+00
 0.000000e+00 0.000000e+00 0.000000e+00 7.673572e-01 2.326427e-01
 0.000000e+00 0.000000e+00 0.000000e+00 0.000000e+00 0.000000e+00
<ENDHMM>
~h "ah"
<BEGINHMM>
<NUMSTATES> 5
<STATE> 2
<MEAN> 26
 1.746337e+01 -1.984289e+01 1.725332e+01 -8.876653e+00 7.361526e+00 -8.307975e+00 -1.203265e+01 1.309323e+01 1.217473e+00 1.093033e+01 1.626949e+00 2.244257e+00 1.328216e+02 -2.666016e-01 4.753186e-01 2.571440e+00 3.807027e-01 -1.581652e+00 -2.418496e+00 1.987897e+00 2.005902e+00 -1.783487e-01 -4.463431e-01 -1.811421e+00 1.460897e+00 1.641610e-01
<VARIANCE> 26
 7.443297e+01 1.405208e+02 1.743010e+02 2.135384e+02 2.389452e+02 3.640464e+02 5.869949e+02 4.863331e+02 4.788163e+02 4.422879e+02 3.671930e+02 3.433237e+02 1.753393e+02 3.324589e+00 9.894042e+00 1.066393e+01 2.805233e+01 1.659593e+01 1.753856e+01 2.424969e+01 2.117941e+01 2.723814e+01 2.347693e+01 2.649803e+01 2.002158e+01 1.590154e+01
<GCONST> 1.572848e+02
<STATE> 3
<MEAN> 26
 1.797037e+01 -9.117704e+00 2.897594e+01 4.085811e+00 2.676929e+00 -8.682513e+00 5.718160e+00 7.197106e+00 -8.857519e-01 7.193174e+00 -7.973328e+00 1.128022e+01 1.221866e+02 7.590490e-01 5.050618e+00 4.265980e+00 6.734143e+00 -3.057912e+00 3.758793e+00 6.195176e+00 -7.495149e+00 -1.305842e+00 -7.953899e-01 -1.917371e+00 2.395435e+00 -5.920702e+00
<VARIANCE> 26
 5.819002e+01 1.939733e+02 2.123018e+02 3.608546e+02 2.870145e+02 4.362234e+02 6.132417e+02 5.626252e+02 4.431532e+02 5.427214e+02 4.132769e+02 4.244432e+02 1.991547e+02 5.026659e+00 8.715295e+00 1.572465e+01 2.140188e+01 2.213192e+01 4.405531e+01 4.903826e+01 3.973145e+01 3.794020e+01 2.939392e+01 3.488530e+01 2.627291e+01 4.403722e+00
<GCONST> 1.619869e+02
<STATE> 4
<MEAN> 26
 1.937759e+01 2.653928e+00 3.564824e+01 1.677852e+01 -4.917597e+00 7.694420e+00 1.603095e+01 -9.016394e+00 -2.089690e+00 5.606670e+00 -7.025814e+00 1.351947e+01 1.081919e+02 -2.272611e-01 2.124362e+00 3.123082e-01 1.427189e+00 -1.530003e-01 1.785390e+00 1.302770e+00 -8.527623e-01 1.193987e-01 -2.780144e-01 -2.850267e-01 -1.011781e-01 -2.452911e+00
<VARIANCE> 26
 5.090243e+01 1.906074e+02 1.421025e+02 2.670873e+02 2.652227e+02 4.111313e+02 4.923885e+02 4.244156e+02 5.235336e+02 5.794668e+02 5.441830e+02 4.948590e+02 1.744863e+02 2.315383e+00 5.974024e+00 6.406817e+00 8.117432e+00 9.217955e+00 1.426030e+01 1.500666e+01 1.732202e+01 1.261935e+01 1.116410e+01 1.289627e+01 1.133099e+01 3.331606e+00
<GCONST> 1.498000e+02
<TRANSP> 5
 0.000000e+00 1.000000e+00 0.000000e+00 0.000000e+00 0.000000e+00
 0.000000e+00 7.189316e-01 2.810684e-01 0.000000e+00 0.000000e+00
 0.000000e+00 0.000000e+00 6.499533e-01 3.500467e-01 0.000000e+00
 0.000000e+00 0.000000e+00 0.000000e+00 7.271122e-01 2.728878e-01
 0.000000e+00 0.000000e+00 0.000000e+00 0.000000e+00 0.000000e+00
<ENDHMM>
~h "ao"
<BEGINHMM>
<NUMSTATES> 5
<STATE> 2
<MEAN> 26
 3.282999e+01 1.348988e+01 1.269269e+01 -3.496621e+01 -1.854392e+01 6.579965e-01 -1.795500e-01 7.550501e+00 -1.354603e+01 4.817692e+00 -8.204511e+00 1.523265e+00 1.181325e+02 1.054381e+01 5.196553e+00 4.223513e+00 -1.119078e+01 -6.202912e+00 -1.394779e+00 -4.742419e-01 2.544291e+00 -2.091285e+00 1.179112e+00 -1.558570e+00 -1.044209e+00 4.617624e+00
<VARIANCE> 26
 7.735624e+01 1.335838e+02 1.778154e+02 3.830914e+02 4.052917e+02 2.724088e+02 3.177593e+02 3.404531e+02 3.075782e+02 2.528012e+02 2.330860e+02 3.042222e+02 1.599667e+02 3.008484e+01 2.345279e+01 2.292424e+01 3.212797e+01 3.710376e+01 2.732443e+01 3.948209e+01 3.290958e+01 3.299092e+01 3.198059e+01 2.688569e+01 3.605107e+01 1.104023e+01
<GCONST> 1.623574e+02
<STATE> 3
<MEAN> 26
 3.543554e+01 1.634512e+01 1.655795e+01 -4.654965e+01 -2.641159e+01 -2.920381e+00 -3.593342e+00 9.879448e+00 -1.191809e+01 1.010230e+01 -9.021363e+00 2.146751e-01 1.214268e+02 1.728063e-01 -2.331599e-01 -4.748393e-01 1.162059e-01 -5.908857e-01 -5.290536e-01 4.520254e-01 5.208587e-01 -4.313388e-01 1.437184e-01 1.828531e-01 6.445947e-02 8.290689e-02
<VARIANCE> 26
 5.392271e+01 1.760472e+02 2.589424e+02 3.334836e+02 5.142183e+02 3.540749e+02 5.144385e+02 3.746971e+02 3.817255e+02 3.657437e+02 3.064079e+02 3.808395e+02 1.411586e+02 1.037330e+00 6.870519e+00 6.611620e+00 6.894648e+00 6.259029e+00 7.516276e+00 1.139609e+01 9.859189e+00 1.037495e+01 9.313124e+00 8.923534e+00 8.408029e+00 2.909609e+00
<GCONST> 1.453674e+02
<STATE> 4
<MEAN> 26
 3.784710e+01 -2.336312e+00 -8.201713e+00 -3.086994e+01 -6.618527e+00 -7.439134e+00 -3.347446e+00 1.347199e+01 -2.367804e+01 5.171347e+00 1.910926e+00 1.160289e+01 1.273164e+02 9.615064e-02 -3.704619e+00 -4.264022e+00 3.724417e+00 6.282544e+00 -1.188794e+00 -2.352048e+00 -9.183080e-01 2.457214e-01 7.209767e-01 2.098059e+00 1.614620e+00 8.030071e-01
<VARIANCE> 26
 6.114240e+01 2.406009e+02 3.395289e+02 3.112231e+02 6.699044e+02 4.665743e+02 8.825348e+02 6.316697e+02 4.900906e+02 7.150246e+02 4.058038e+02 3.714189e+02 1.651094e+02 1.757228e+00 7.490085e+00 1.155824e+01 1.473454e+01 1.670403e+01 2.378739e+01 2.652542e+01 2.784069e+01 3.144532e+01 3.631855e+01 2.864734e+01 3.637579e+01 3.078550e+00
<GCONST> 1.600480e+02
<TRANSP> 5
 0.000000e+00 1.000000e+00 0.000000e+00 0.000000e+00 0.000000e+00
 0.000000e+00 5.562338e-01 4.437662e-01 0.000000e+00 0.000000e+00
 0.000000e+00 0.000000e+00 8.745774e-01 1.254226e-01 0.000000e+00
 0.000000e+00 0.000000e+00 0.000000e+00 8.492306e-01 1.507693e-01
 0.000000e+00 0.000000e+00 0.000000e+00 0.000000e+00 0.000000e+00
<ENDHMM>
~h "ay"
<BEGINHMM>
<NUMSTATES> 5
<STATE> 2
<MEAN> 26
 1.823968e+01 -3.150925e+01 4.432802e-01 -2.443345e+01 8.436224e+00 5.185648e+00 -4.552480e+00 1.422221e+01 6.156404e+00 1.223821e+01 1.416114e+00 -7.722567e-01 1.457732e+02 -4.682209e-01 -2.531446e+00 -2.688680e+00 -7.959402e-01 2.312459e+00 2.407761e+00 -8.555013e-01 2.627660e-01 1.363473e+00 -4.512247e-01 3.645000e-01 -1.488474e+00 1.711911e+00
<VARIANCE> 26
 8.072771e+01 1.550090e+02 3.013984e+02 3.721697e+02 4.462668e+02 3.715942e+02 4.508050e+02 4.460001e+02 4.248581e+02 4.414730e+02 4.840142e+02 3.630631e+02 1.153582e+02 3.131943e+00 8.027680e+00 9.794407e+00 1.321528e+01 1.233673e+01 1.256615e+01 1.837709e+01 1.484377e+01 1.602586e+01 1.476173e+01 1.676767e+01 1.471361e+01 5.884499e+00
<GCONST> 1.535306e+02
<STATE> 3
<MEAN> 26
 1.650503e+01 -3.576828e+01 -3.269317e+00 -2.204500e+01 1.393338e+01 1.068871e+01 -7.113874e+00 1.244108e+01 9.332904e+00 1.067051e+01 -6.885048e-01 -4.736152e+00 1.459311e+02 -2.059081e-01 -3.501060e-01 5.336176e-01 9.541878e-01 -1.482670e-01 -8.735269e-01 -1.468410e-01 6.652299e-01 3.638664e-01 -4.454879e-01 -4.829934e-01 2.892618e-02 -1.361949e-01
<VARIANCE> 26
 7.356448e+01 1.655665e+02 2.206905e+02 3.802063e+02 4.737696e+02 3.432961e+02 3.605490e+02 4.296706e+02 3.617555e+02 3.554127e+02 4.136425e+02 3.914051e+02 1.444191e+02 7.399967e-01 1.497875e+00 2.372942e+00 3.221066e+00 3.953121e+00 5.722544e+00 4.786266e+00 4.322890e+00 4.308438e+00 4.521707e+00 4.745629e+00 4.634165e+00 6.515154e-01
<GCONST> 1.351286e+02
<STATE> 4
<MEAN> 26
 1.258046e+01 -3.313744e+01 1.625367e+01 -1.326208e+01 -6.952745e-01 -6.951306e+00 1.816694e+00 2.345010e+01 6.586652e+00 3.318122e+00 -2.563315e+00 4.391976e+00 1.425006e+02 -5.196973e-01 2.206850e+00 4.250403e+00 2.071666e-01 -3.681491e+00 -2.386965e+00 2.356992e+00 -1.616546e-01 -1.853921e+00 3.713614e-01 7.019337e-01 1.441832e+00 -1.290505e+00
<VARIANCE> 26
 7.378448e+01 1.850182e+02 3.846781e+02 2.556711e+02 4.352787e+02 2.693514e+02 5.412941e+02 3.222767e+02 3.733465e+02 3.508081e+02 3.306063e+02 3.282126e+02 1.838957e+02 1.753453e+00 4.950407e+00 6.006366e+00 9.835091e+00 1.125115e+01 1.439163e+01 1.740366e+01 1.666594e+01 1.474305e+01 1.420997e+01 1.243705e+01 1.260144e+01 2.059012e+00
<GCONST> 1.492542e+02
<TRANSP> 5
 0.000000e+00 1.000000e+00 0.000000e+00 0.000000e+00 0.000000e+00
 0.000000e+00 7.436442e-01 2.563559e-01 0.000000e+00 0.000000e+00
 0.000000e+00 0.000000e+00 8.965883e-01 1.034117e-01 0.000000e+00
 0.000000e+00 0.000000e+00 0.000000e+00 8.205495e-01 1.794504e-01
 0.000000e+00 0.000000e+00 0.000000e+00 0.000000e+00 0.000000e+00
<ENDHMM>
~h "eh"
<BEGINHMM>
<NUMSTATES> 5
<STATE> 2
<MEAN> 26
 -4.696949e+01 5.784460e+00 -1.049763e+01 -1.537492e+00 -8.951931e+00 -7.618474e+00 -3.739451e+00 1.910299e+00 -5.734654e+00 1.548308e+00 -4.435958e+00 8.348590e+00 1.122478e+02 1.255709e+01 -4.183834e-01 8.311019e+00 1.030248e+00 1.601292e-03 -2.838689e+00 -1.067535e+00 -8.585110e-01 2.256016e+00 3.656559e-01 -9.277420e-01 1.565274e+00 3.172341e+00
<VARIANCE> 26
 1.508000e+02 9.663972e+01 1.286958e+02 1.827846e+02 2.568013e+02 2.722346e+02 1.378834e+02 1.439055e+02 1.625650e+02 1.298319e+02 1.903714e+02 1.339414e+02 1.083838e+02 2.081277e+01 1.491078e+01 1.405683e+01 1.389061e+01 1.161764e+01 1.974255e+01 1.601271e+01 1.328915e+01 1.605420e+01 2.325046e+01 1.647071e+01 1.977824e+01 1.237432e+01
<GCONST> 1.493091e+02
<STATE> 3
<MEAN> 26
 -1.178747e+01 7.750224e+00 1.286537e+01 5.574780e+00 -3.688371e+00 -1.373062e+01 -7.476077e+00 -1.433881e+00 1.103227e+00 5.136586e+00 -8.989820e+00 9.287140e+00 1.183497e+02 1.755413e+01 -5.700751e+00 9.416677e+00 -2.166776e+00 -3.278172e-01 -4.583261e+00 -4.130719e+00 -1.093812e+00 3.056641e+00 3.056973e+00 -2.949470e-01 1.198831e+00 8.802111e+00
<VARIANCE> 26
 4.634550e+02 1.127350e+02 1.661744e+02 1.776009e+02 2.991174e+02 2.067670e+02 1.949909e+02 1.798232e+02 1.770593e+02 2.557204e+02 2.367315e+02 2.531658e+02 1.936495e+02 1.326043e+01 1.581558e+01 2.074237e+01 2.846598e+01 2.499077e+01 4.802627e+01 6.270633e+01 2.304183e+01 4.678483e+01 4.240215e+01 2.847054e+01 4.231596e+01 8.748022e+00
<GCONST> 1.603744e+02
<STATE> 4
<MEAN> 26
 1.188940e+01 -1.572456e+01 2.276632e+01 -1.185951e+01 -1.013508e+01 -2.561558e+01 -1.545297e+01 9.334691e-01 8.243450e+00 1.229422e+01 -4.656113e+00 1.361749e+01 1.450827e+02 4.491092e+00 -7.219337e+00 1.042034e+00 -5.977659e+00 -1.593392e+00 -2.022241e+00 4.610304e-01 3.302170e+00 3.516707e+00 2.588089e+00 1.465781e+00 -2.595438e-01 6.956507e+00
<VARIANCE> 26
 5.435921e+01 1.299603e+02 1.815630e+02 2.259773e+02 3.044530e+02 2.499644e+02 7.467223e+02 2.855695e+02 3.593628e+02 4.744050e+02 4.049471e+02 5.223918e+02 1.165241e+02 3.192228e+01 1.018562e+01 2.047725e+01 1.586897e+01 1.930864e+01 2.451612e+01 6.033666e+01 1.597058e+01 2.281620e+01 2.042129e+01 1.905371e+01 1.944351e+01 1.219289e+01
<GCONST> 1.590046e+02
<TRANSP> 5
 0.000000e+00 1.000000e+00 0.000000e+00 0.000000e+00 0.000000e+00
 0.000000e+00 4.107029e-01 5.892971e-01 0.000000e+00 0.000000e+00
 0.000000e+00 0.000000e+00 4.031545e-01 5.968456e-01 0.000000e+00
 0.000000e+00 0.000000e+00 0.000000e+00 6.014805e-01 3.985196e-01
 0.000000e+00 0.000000e+00 0.000000e+00 0.000000e+00 0.000000e+00
<ENDHMM>
~h "ey"
<BEGINHMM>
<NUMSTATES> 5
<STATE> 2
<MEAN> 26
 -7.156962e+00 -9.198679e+00 2.137671e+01 -1.065213e+01 -1.811064e+01 -1.901340e+01 -4.081293e+00 -1.546988e+00 -8.409647e-01 1.017685e+01 -1.591473e+00 7.073884e+00 9.967063e+01 2.440888e+00 -2.879333e+00 5.015648e+00 -2.979734e+00 -2.664180e+00 -1.409995e+00 1.640563e+00 1.642288e+00 7.867142e-01 9.942052e-01 1.899596e-01 6.536056e-01 9.249566e+00
<VARIANCE> 26
 3.096489e+02 2.389491e+02 5.079397e+02 4.330629e+02 3.385474e+02 3.773002e+02 5.544269e+02 4.670362e+02 4.435292e+02 3.563898e+02 2.883145e+02 2.875026e+02 1.173553e+03 3.705541e+01 2.097091e+01 4.038462e+01 3.867103e+01 3.203316e+01 3.946096e+01 5.137639e+01 4.163779e+01 4.237275e+01 3.463249e+01 3.025710e+01 2.854808e+01 1.329174e+02
<GCONST> 1.736454e+02
<STATE> 3
<MEAN> 26
 3.328477e+00 -1.598410e+01 5.027443e+01 -2.315955e+01 -2.295377e+01 -1.636869e+01 8.279764e-01 1.077314e-01 -5.123151e+00 1.228548e+01 1.562938e-01 9.990264e+00 1.424364e+02 -4.058833e-01 1.321697e+00 2.679581e+00 -1.653175e-02 2.885231e-01 1.058234e+00 -8.450647e-01 -1.869849e+00 -1.210298e+00 -5.184795e-01 -4.333390e-01 -8.604623e-02 2.443664e-01
<VARIANCE> 26
 6.462550e+01 1.931990e+02 3.867548e+02 4.374557e+02 2.098387e+02 2.940090e+02 5.728670e+02 3.777439e+02 6.413241e+02 2.790284e+02 1.932407e+02 1.855652e+02 1.339381e+02 2.708353e+00 4.986011e+00 5.828579e+00 5.298687e+00 7.802131e+00 8.030429e+00 1.068898e+01 1.022368e+01 1.085640e+01 9.239757e+00 8.235884e+00 9.500495e+00 7.676075e+00
<GCONST> 1.459213e+02
<STATE> 4
<MEAN> 26
 -3.244527e+00 4.989982e+00 7.126027e+01 -1.280085e+01 -9.379963e+00 -1.569143e+00 -5.120361e+00 -1.935127e+01 -1.410186e+01 1.826023e+00 -1.214210e+01 5.678683e+00 1.231519e+02 -3.913118e-01 2.585174e+00 -1.674853e+00 4.421445e+00 1.904589e+00 1.589231e+00 9.376953e-01 1.838807e-01 -9.754014e-02 -1.183764e+00 -8.059940e-01 -1.061488e+00 -6.757710e+00
<VARIANCE> 26
 6.735296e+01 2.431448e+02 2.189241e+02 5.300579e+02 2.733686e+02 3.164138e+02 3.028594e+02 5.291260e+02 6.975684e+02 3.721209e+02 3.215969e+02 4.150397e+02 3.272272e+02 5.359197e+00 9.982706e+00 3.895047e+01 2.329484e+01 1.591598e+01 1.537055e+01 1.999143e+01 2.459986e+01 2.520924e+01 1.857654e+01 1.857615e+01 1.889498e+01 2.761080e+01
<GCONST> 1.603777e+02
<TRANSP> 5
 0.000000e+00 1.000000e+00 0.000000e+00 0.000000e+00 0.000000e+00
 0.000000e+00 7.859427e-01 2.140573e-01 0.000000e+00 0.000000e+00
 0.000000e+00 0.000000e+00 8.966541e-01 1.033460e-01 0.000000e+00
 0.000000e+00 0.000000e+00 0.000000e+00 8.597659e-01 1.402341e-01
 0.000000e+00 0.000000e+00 0.000000e+00 0.000000e+00 0.000000e+00
<ENDHMM>
~h "hh"
<BEGINHMM>
<NUMSTATES> 5
<STATE> 2
<MEAN> 26
 -4.327658e-01 6.160478e+00 5.982203e+00 -2.171937e-01 2.773956e+00 6.710300e+00 4.124389e+00 2.081343e+00 -4.466085e+00 5.190347e+00 -2.544758e+00 2.662507e+00 8.170951e+01 4.542965e+00 3.374370e+00 2.079860e+00 1.184542e-02 -1.002929e+00 1.213522e+00 1.685291e+00 7.297039e-01 2.915270e-01 8.343199e-01 9.217645e-02 -4.057776e-01 3.728622e-01
<VARIANCE> 26
 5.436288e+02 3.162474e+02 2.199220e+02 2.749155e+02 2.772587e+02 3.017377e+02 3.429681e+02 2.809250e+02 3.246117e+02 2.326852e+02 1.998162e+02 1.950100e+02 6.060585e+02 3.855494e+01 2.675223e+01 2.380668e+01 2.526451e+01 2.730960e+01 3.041544e+01 2.886859e+01 2.721910e+01 2.574069e+01 2.194158e+01 1.979152e+01 1.675202e+01 3.218318e+01
<GCONST> 1.642079e+02
<STATE> 3
<MEAN> 26
 2.583513e+01 2.359612e+01 1.864337e+01 -2.565099e+00 -7.085041e+00 5.096513e+00 7.306699e+00 2.177211e+00 -5.253907e+00 8.487188e+00 -4.035840e+00 1.094592e+00 9.355816e+01 5.806864e+00 1.178418e+00 1.885482e+00 -4.441336e+00 -4.439099e+00 -2.476321e+00 -1.248432e+00 -1.102354e-01 -3.853866e-01 1.673664e+00 -1.732258e-01 -4.389504e-01 5.474053e+00
<VARIANCE> 26
 1.327555e+02 2.243994e+02 1.407628e+02 2.847909e+02 2.665907e+02 2.600363e+02 2.570560e+02 2.515975e+02 3.469100e+02 2.391567e+02 2.014933e+02 2.091236e+02 2.867616e+02 3.180915e+01 1.967433e+01 1.737812e+01 3.325565e+01 2.123156e+01 2.042446e+01 2.519035e+01 2.491600e+01 2.861701e+01 2.177598e+01 1.963708e+01 1.983615e+01 3.821601e+01
<GCONST> 1.598985e+02
<STATE> 4
<MEAN> 26
 3.301846e+01 1.976362e+01 2.224143e+01 -1.520548e+01 -1.751552e+01 -2.918105e-01 -7.932199e-01 2.981767e+00 -7.989980e+00 1.264128e+01 -2.384071e+00 -3.329803e-03 1.069967e+02 6.221063e-01 -1.067715e+00 1.617405e-01 -3.988096e+00 -1.973038e+00 -1.615650e+00 -1.568016e+00 1.373110e+00 5.283377e-01 1.067805e+00 1.150940e+00 2.258465e-01 2.717984e+00
<VARIANCE> 26
 4.752620e+01 2.188417e+02 1.976132e+02 2.469697e+02 3.030326e+02 2.978012e+02 3.844055e+02 3.162502e+02 4.304048e+02 3.250562e+02 2.874181e+02 3.105597e+02 1.412437e+02 3.335074e+00 1.176201e+01 9.675045e+00 2.378541e+01 1.358089e+01 1.385117e+01 1.883485e+01 1.887064e+01 1.659079e+01 1.569187e+01 1.451331e+01 1.345025e+01 1.058403e+01
<GCONST> 1.525608e+02
<TRANSP> 5
 0.000000e+00 1.000000e+00 0.000000e+00 0.000000e+00 0.000000e+00
 0.000000e+00 6.145964e-01 3.854037e-01 0.000000e+00 0.000000e+00
 0.000000e+00 0.000000e+00 5.222473e-01 4.777527e-01 0.000000e+00
 0.000000e+00 0.000000e+00 0.000000e+00 7.374333e-01 2.625667e-01
 0.000000e+00 0.000000e+00 0.000000e+00 0.000000e+00 0.000000e+00
<ENDHMM>
~h "ih"
<BEGINHMM>
<NUMSTATES> 5
<STATE> 2
<MEAN> 26
 -4.085720e+01 9.445808e+00 -1.671457e+00 3.037376e+00 -8.545094e+00 -7.582692e+00 -1.838378e+00 1.687812e+00 -5.339201e+00 1.403336e+00 -4.308108e+00 8.461739e+00 1.133668e+02 1.382714e+01 -9.255394e-01 1.154629e+01 2.105294e+00 4.625334e-01 -3.447531e+00 -1.807365e+00 -1.830566e+00 5.894744e-01 2.065038e-01 -1.107563e+00 1.101153e+00 4.723475e+00
<VARIANCE> 26
 2.671311e+02 1.120355e+02 2.363227e+02 2.211811e+02 2.856573e+02 2.843333e+02 1.509986e+02 1.435658e+02 1.685826e+02 1.503722e+02 2.170869e+02 1.624801e+02 1.124684e+02 1.962356e+01 1.965756e+01 1.944626e+01 1.804657e+01 1.486265e+01 2.761577e+01 2.793493e+01 1.620460e+01 1.890200e+01 2.071070e+01 1.736071e+01 2.749830e+01 1.302466e+01
<GCONST> 1.542319e+02
<STATE> 3
<MEAN> 26
 5.125386e+00 -4.713395e+00 3.336573e+01 1.041975e+00 -1.054821e+01 -2.435341e+01 -1.184474e+01 -7.284541e+00 -3.609621e+00 4.222152e+00 -5.605687e+00 1.245678e+01 1.376803e+02 6.976719e+00 -5.883991e+00 6.973979e+00 -2.825787e+00 -1.974059e+00 -4.166858e+00 -1.503046e+00 -8.458006e-01 -8.055744e-01 1.522382e+00 4.311216e-01 5.845459e-01 5.707163e+00
<VARIANCE> 26
 9.300705e+01 1.912753e+02 1.833628e+02 2.453200e+02 3.585192e+02 2.153929e+02 5.284609e+02 2.165888e+02 2.475167e+02 2.398572e+02 3.854210e+02 5.038389e+02 1.503690e+02 5.268005e+01 1.524965e+01 3.411770e+01 2.884315e+01 1.918195e+01 3.353550e+01 6.315539e+01 3.044020e+01 3.816047e+01 2.257530e+01 2.138764e+01 2.869048e+01 1.284228e+01
<GCONST> 1.627081e+02
<STATE> 4
<MEAN> 26
 5.611159e+00 -1.597091e+01 4.383076e+01 -3.243427e+00 -1.757721e+01 -3.143826e+01 -3.908954e+00 -3.481139e+00 -1.273853e+01 8.691984e+00 -2.665579e+00 1.091827e+01 1.372814e+02 -6.126542e-01 1.617758e+00 4.229306e-01 3.458060e+00 2.429499e-01 1.297127e-01 2.974179e+00 2.582669e-01 -2.403306e+00 -3.544840e-01 5.964893e-01 -9.608195e-01 -5.536321e+00
<VARIANCE> 26
 7.470393e+01 1.702457e+02 2.209127e+02 3.879540e+02 3.234926e+02 3.285512e+02 9.139191e+02 7.303086e+02 6.078741e+02 3.071072e+02 2.583510e+02 3.146537e+02 2.216780e+02 4.833718e+00 1.650844e+01 1.087591e+01 2.404381e+01 1.569955e+01 1.985459e+01 2.441694e+01 2.860261e+01 2.388606e+01 1.873747e+01 1.852156e+01 1.757656e+01 4.350973e+01
<GCONST> 1.603225e+02
<TRANSP> 5
 0.000000e+00 1.000000e+00 0.000000e+00 0.000000e+00 0.000000e+00
 0.000000e+00 5.902965e-01 4.097035e-01 0.000000e+00 0.000000e+00
 0.000000e+00 0.000000e+00 6.949191e-01 3.050809e-01 0.000000e+00
 0.000000e+00 0.000000e+00 0.000000e+00 8.373340e-01 1.626660e-01
 0.000000e+00 0.000000e+00 0.000000e+00 0.000000e+00 0.000000e+00
<ENDHMM>
~h "iy"
<BEGINHMM>
<NUMSTATES> 5
<STATE> 2
<MEAN> 26
 3.504450e+00 -9.942260e+00 6.458888e+01 -5.500952e+00 -9.771247e+00 -2.043605e+01 2.809667e+00 -1.040382e+01 -1.984095e+01 8.775201e+00 -6.768525e+00 9.385670e+00 1.355082e+02 -8.367536e-01 6.472018e-01 3.816817e+00 -3.687063e+00 -1.119678e-02 2.787485e+00 -6.476763e-02 -1.955389e+00 6.579269e-01 1.050958e+00 -1.249533e+00 1.006844e-01 -2.026297e-01
<VARIANCE> 26
 7.687264e+01 1.850428e+02 2.176979e+02 3.290199e+02 1.959385e+02 3.256826e+02 6.005477e+02 6.011436e+02 4.329640e+02 3.886064e+02 2.189071e+02 3.478163e+02 1.157906e+02 1.230454e+01 2.612829e+01 1.095171e+01 1.654154e+01 1.417520e+01 2.986534e+01 2.046591e+01 2.354836e+01 2.093443e+01 1.750216e+01 1.375341e+01 1.045893e+01 3.309374e+00
<GCONST> 1.556801e+02
<STATE> 3
<MEAN> 26
 3.478042e-01 8.222116e-01 6.960741e+01 -6.598412e+00 -6.557898e+00 -5.208847e+00 -2.637021e+00 -9.944212e+00 -1.507686e+01 3.285003e+00 -8.978865e+00 7.581470e+00 1.254472e+02 6.413345e-01 7.902882e-01 -1.987649e+00 1.782848e+00 1.188434e-01 2.840038e-01 5.812569e-01 9.040040e-01 4.931957e-01 -4.085386e-01 6.048678e-01 -2.153021e-01 -2.192803e+00
<VARIANCE> 26
 9.766426e+01 3.960186e+02 1.879700e+02 4.681949e+02 2.527495e+02 4.045446e+02 4.640931e+02 7.016172e+02 5.941354e+02 4.133342e+02 2.805434e+02 3.465918e+02 2.385942e+02 7.793430e+00 1.485134e+01 1.217569e+01 1.516360e+01 1.291843e+01 2.665617e+01 1.840737e+01 1.701286e+01 1.617160e+01 1.491012e+01 1.217823e+01 1.127525e+01 5.208412e+00
<GCONST> 1.569485e+02
<STATE> 4
<MEAN> 26
 2.054722e+00 -3.827018e+00 4.116920e+01 5.376936e+00 -3.609226e+00 -8.272664e+00 2.748682e+00 -2.680492e-01 -1.021642e+01 3.541433e+00 -4.682785e+00 5.826722e+00 1.093755e+02 4.007736e-01 -1.425302e+00 -8.862844e+00 1.909264e+00 2.523072e+00 -1.412930e+00 -1.546056e+00 1.986422e+00 1.943433e+00 -2.730285e-01 9.543741e-01 -4.813937e-01 -3.258500e+00
<VARIANCE> 26
 2.982730e+02 4.312658e+02 3.578220e+02 4.396197e+02 3.328453e+02 1.243173e+03 7.449904e+02 4.693568e+02 4.481609e+02 4.245919e+02 2.659704e+02 2.728838e+02 7.357190e+02 2.515277e+01 1.822252e+01 2.082770e+01 2.813433e+01 3.010199e+01 4.183015e+01 3.490707e+01 3.839260e+01 3.332877e+01 2.457082e+01 2.053511e+01 2.135780e+01 1.155907e+01
<GCONST> 1.692415e+02
<TRANSP> 5
 0.000000e+00 1.000000e+00 0.000000e+00 0.000000e+00 0.000000e+00
 0.000000e+00 6.971309e-01 3.028691e-01 0.000000e+00 0.000000e+00
 0.000000e+00 0.000000e+00 7.436368e-01 2.563632e-01 0.000000e+00
 0.000000e+00 0.000000e+00 0.000000e+00 6.954094e-01 3.045906e-01
 0.000000e+00 0.000000e+00 0.000000e+00 0.000000e+00 0.000000e+00
<ENDHMM>
~h "ow"
<BEGINHMM>
<NUMSTATES> 5
<STATE> 2
<MEAN> 26
 4.765910e+00 -1.280340e+01 -2.037062e+00 -1.801129e+01 -2.499458e+00 -8.527173e+00 -7.483040e+00 -1.503655e+00 7.854187e-01 1.548667e+01 9.895899e-01 1.801381e+00 1.054417e+02 3.342853e+00 -1.894760e+00 5.433336e-02 -3.831799e+00 6.432011e-01 1.759202e+00 1.376886e+00 2.016552e-01 7.749110e-01 2.275806e+00 -1.434678e-02 -8.446751e-01 7.049968e+00
<VARIANCE> 26
 4.877625e+02 2.741334e+02 2.535529e+02 3.831143e+02 3.778273e+02 5.450049e+02 4.806493e+02 4.472028e+02 6.058965e+02 5.578541e+02 5.414782e+02 3.107036e+02 1.165552e+03 4.197342e+01 2.043468e+01 2.123222e+01 3.003722e+01 3.140965e+01 3.039718e+01 3.389751e+01 3.366527e+01 4.112651e+01 3.630288e+01 3.724566e+01 2.852857e+01 1.089083e+02
<GCONST> 1.734915e+02
<STATE> 3
<MEAN> 26
 2.287523e+01 -1.815787e+01 2.884861e+00 -3.286922e+01 3.794856e+00 -4.083712e+00 -3.662140e+00 -2.538596e+00 1.317082e-01 2.403959e+01 7.776770e-01 6.460595e+00 1.396343e+02 4.568136e-01 1.689317e+00 4.993221e-01 -9.604474e-01 -2.142816e-01 1.502648e+00 -1.223347e-01 -1.395206e+00 -1.042072e+00 -5.103640e-01 -4.382070e-02 9.900090e-01 -7.121169e-01
<VARIANCE> 26
 7.938098e+01 1.969415e+02 2.379082e+02 3.561734e+02 3.479730e+02 5.255893e+02 4.846578e+02 4.035233e+02 9.396978e+02 4.234396e+02 4.878337e+02 3.039909e+02 1.589805e+02 2.015168e+00 3.994158e+00 3.939337e+00 6.306141e+00 6.049177e+00 9.135857e+00 9.183041e+00 9.655955e+00 1.164059e+01 1.206741e+01 1.104571e+01 9.442823e+00 4.153901e+00
<GCONST> 1.477708e+02
<STATE> 4
<MEAN> 26
 2.504911e+01 7.000605e+00 8.685699e+00 -2.530640e+01 -6.244851e+00 1.176085e+01 1.058966e+00 -5.758814e-01 -1.243995e+01 5.246267e+00 -2.585219e+00 6.045166e+00 1.118961e+02 -2.232823e+00 1.029630e+00 1.851160e-01 3.349269e+00 6.274861e-01 3.573738e-01 7.251095e-01 8.151556e-01 1.166070e+00 -8.681950e-01 -9.996277e-01 -7.802545e-01 -3.388278e+00
<VARIANCE> 26
 1.530946e+02 2.667775e+02 2.565760e+02 6.199222e+02 6.645476e+02 4.347369e+02 4.893664e+02 4.313080e+02 6.124131e+02 3.842555e+02 3.953521e+02 3.728741e+02 4.569828e+02 1.479357e+01 1.839112e+01 1.321957e+01 2.594836e+01 2.007733e+01 2.223397e+01 2.243006e+01 2.433911e+01 2.802933e+01 2.476074e+01 2.390583e+01 2.004689e+01 7.774668e+00
<GCONST> 1.642206e+02
<TRANSP> 5
 0.000000e+00 1.000000e+00 0.000000e+00 0.000000e+00 0.000000e+00
 0.000000e+00 7.024962e-01 2.975038e-01 0.000000e+00 0.000000e+00
 0.000000e+00 0.000000e+00 8.875525e-01 1.124475e-01 0.000000e+00
 0.000000e+00 0.000000e+00 0.000000e+00 8.833261e-01 1.166739e-01
 0.000000e+00 0.000000e+00 0.000000e+00 0.000000e+00 0.000000e+00
<ENDHMM>
~h "sp"
<BEGINHMM>
<NUMSTATES> 3
<STATE> 2
~s "silst"
<TRANSP> 3
 0.000000e+00 4.578135e-02 9.542186e-01
 0.000000e+00 8.871295e-01 1.128705e-01
 0.000000e+00 0.000000e+00 0.000000e+00
<ENDHMM>
~h "th"
<BEGINHMM>
<NUMSTATES> 5
<STATE> 2
<MEAN> 26
 -2.857275e+01 -5.629203e-02 -3.335230e-01 6.593772e+00 -5.647743e+00 1.346683e+00 -4.266623e+00 1.107568e+00 -4.814095e+00 1.689455e+00 -2.510649e+00 4.467529e+00 8.272305e+01 -1.383170e+00 -1.230585e+00 -1.064347e+00 -1.907182e+00 -1.609785e+00 -5.705082e-01 -8.222772e-01 -4.515117e-01 -1.153407e-01 -4.571879e-01 -1.980136e-01 4.575139e-01 3.621662e+00
<VARIANCE> 26
 1.447884e+02 1.481158e+02 1.133157e+02 1.325149e+02 1.373196e+02 1.392810e+02 1.473690e+02 1.467802e+02 1.448480e+02 1.280258e+02 1.295862e+02 1.106936e+02 5.095887e+02 2.146389e+01 1.437378e+01 1.717636e+01 1.616239e+01 1.597955e+01 1.758841e+01 1.860586e+01 1.792483e+01 1.899553e+01 1.658319e+01 1.603848e+01 1.582648e+01 9.195782e+01
<GCONST> 1.514651e+02
<STATE> 3
<MEAN> 26
 -2.431686e+01 -5.661696e+00 1.245299e+01 -1.602033e+00 -1.210312e+01 -4.666071e+00 -1.482000e+00 -7.665018e-01 -2.215972e+00 3.698810e+00 -4.035744e+00 7.245953e+00 1.148023e+02 5.991622e+00 -2.124371e+00 6.462533e+00 3.420047e+00 1.966747e+00 -2.228484e+00 8.437444e-01 8.368533e-01 3.220376e-01 1.787953e+00 6.098738e-01 -6.216208e-01 3.199158e+00
<VARIANCE> 26
 1.768649e+02 1.581092e+02 2.737867e+02 1.757283e+02 1.702221e+02 2.089114e+02 2.202882e+02 2.053577e+02 1.972934e+02 1.893039e+02 1.910249e+02 2.228806e+02 1.398566e+02 3.084097e+01 2.009373e+01 2.424942e+01 3.142263e+01 2.405898e+01 2.993905e+01 2.646024e+01 2.512121e+01 2.362411e+01 2.048776e+01 2.196058e+01 2.423124e+01 4.198431e+01
<GCONST> 1.584716e+02
<STATE> 4
<MEAN> 26
 1.461828e+01 -1.243222e+01 1.603503e+01 1.752903e+01 1.135879e+01 -9.690402e+00 -1.510865e+01 -2.556490e+00 -5.907508e+00 4.835065e+00 -7.749168e-01 3.458343e+00 1.151015e+02 1.128703e+01 -1.489053e+00 -3.876914e+00 1.183889e+00 7.730729e+00 -9.965923e-01 -6.633881e+00 -1.341362e+00 -1.512136e+00 -1.370860e+00 3.973312e-02 -7.661718e-03 1.349883e+00
<VARIANCE> 26
 3.829276e+02 1.532012e+02 2.664078e+02 1.805338e+02 2.689480e+02 3.804146e+02 3.637271e+02 2.646016e+02 1.992213e+02 1.826544e+02 1.708431e+02 1.571937e+02 1.879214e+02 2.545042e+01 2.298008e+01 3.190490e+01 3.093786e+01 3.176821e+01 5.851208e+01 4.099068e+01 3.159540e+01 2.657710e+01 2.958805e+01 2.632995e+01 2.159021e+01 1.255068e+01
<GCONST> 1.619923e+02
<TRANSP> 5
 0.000000e+00 1.000000e+00 0.000000e+00 0.000000e+00 0.000000e+00
 0.000000e+00 8.268830e-01 1.731170e-01 0.000000e+00 0.000000e+00
 0.000000e+00 0.000000e+00 6.987289e-01 3.012711e-01 0.000000e+00
 0.000000e+00 0.000000e+00 0.000000e+00 7.195867e-01 2.804133e-01
 0.000000e+00 0.000000e+00 0.000000e+00 0.000000e+00 0.000000e+00
<ENDHMM>
~h "uw"
<BEGINHMM>
<NUMSTATES> 5
<STATE> 2
<MEAN> 26
 4.190836e+00 -5.459650e+00 5.011983e+01 7.986232e+00 -5.919922e+00 -1.703751e+01 -1.915826e+00 2.872381e-01 -1.368110e+01 3.308230e+00 -7.653757e+00 8.764821e+00 1.309938e+02 6.376967e+00 -3.011793e+00 4.958518e+00 3.315908e-01 7.861993e-01 -1.729129e+00 -4.190455e+00 -3.420589e-01 -2.621428e+00 4.273745e-01 -5.199176e-01 -6.753418e-01 4.647343e+00
<VARIANCE> 26
 1.014601e+02 1.876539e+02 2.031817e+02 3.237364e+02 1.635401e+02 2.530110e+02 6.674258e+02 5.271646e+02 3.217841e+02 2.538744e+02 2.416161e+02 3.511743e+02 1.874771e+02 3.229427e+01 1.011256e+01 2.296702e+01 2.008650e+01 1.741201e+01 3.616914e+01 3.516160e+01 2.239808e+01 2.726920e+01 2.831995e+01 2.356817e+01 3.122542e+01 9.051006e+00
<GCONST> 1.605180e+02
<STATE> 3
<MEAN> 26
 1.083153e+01 -1.115045e+01 5.119484e+01 8.703024e+00 -1.258696e-01 -1.898787e+01 -1.205661e+01 1.598011e-01 -1.978168e+01 3.319663e+00 -8.389572e+00 3.716625e+00 1.323118e+02 8.107650e-01 6.143243e-01 -1.225766e+00 3.536480e-01 1.703943e+00 7.904928e-01 -4.495010e-01 -5.035713e-01 2.602753e-01 3.835139e-01 -2.902406e-01 -5.753413e-01 -1.417618e+00
<VARIANCE> 26
 8.081248e+01 1.690461e+02 2.151505e+02 3.466660e+02 2.611849e+02 5.291199e+02 9.878520e+02 5.745259e+02 4.328282e+02 4.066473e+02 3.459068e+02 6.732404e+02 1.623728e+02 1.808411e+00 2.803195e+00 5.662860e+00 5.862289e+00 6.815333e+00 8.317244e+00 9.724916e+00 9.902118e+00 9.804130e+00 1.005038e+01 9.091097e+00 8.238333e+00 1.738644e+00
<GCONST> 1.463290e+02
<STATE> 4
<MEAN> 26
 1.564659e+01 5.553730e+00 2.135092e+01 6.771506e+00 1.223183e+01 4.783640e+00 -3.104551e+00 -7.728482e+00 -1.413461e+01 6.722348e+00 -6.985234e+00 2.840250e+00 1.030653e+02 -2.126303e+00 1.026179e+00 -3.374264e+00 -1.164482e-01 -7.612994e-01 1.938700e+00 1.972152e+00 2.370188e-01 1.282223e+00 -4.129678e-01 7.260290e-01 3.483080e-01 -3.501638e+00
<VARIANCE> 26
 1.837837e+02 2.122102e+02 3.598238e+02 3.881791e+02 3.026557e+02 6.014940e+02 5.746467e+02 5.513127e+02 7.025620e+02 4.547683e+02 4.067404e+02 4.650576e+02 4.163772e+02 1.741483e+01 2.123396e+01 1.529014e+01 2.276110e+01 2.159165e+01 3.629222e+01 3.547377e+01 3.466164e+01 3.534761e+01 2.693459e+01 2.698144e+01 2.592699e+01 8.405056e+00
<GCONST> 1.669191e+02
<TRANSP> 5
 0.000000e+00 1.000000e+00 0.000000e+00 0.000000e+00 0.000000e+00
 0.000000e+00 7.122548e-01 2.877452e-01 0.000000e+00 0.000000e+00
 0.000000e+00 0.000000e+00 8.918301e-01 1.081699e-01 0.000000e+00
 0.000000e+00 0.000000e+00 0.000000e+00 8.600703e-01 1.399297e-01
 0.000000e+00 0.000000e+00 0.000000e+00 0.000000e+00 0.000000e+00
<ENDHMM>
~h "sil"
<BEGINHMM>
<NUMSTATES> 5
<STATE> 2
<MEAN> 26
 -1.183828e+01 -1.022679e+00 1.243571e+00 7.181314e+00 1.176589e+00 1.033219e+00 4.507978e+00 6.379889e+00 -5.734231e-01 3.881857e-01 -4.048648e+00 7.898819e-01 6.402015e+01 -5.608351e-01 8.539492e-01 -1.736641e-01 -2.477384e-02 -4.234002e-02 3.559339e-02 -3.647005e-01 -2.718532e-01 6.318001e-02 3.338810e-02 2.899837e-01 -3.330224e-03 -1.270179e+00
<VARIANCE> 26
 7.519531e+01 1.663914e+02 1.448127e+02 1.345086e+02 1.533958e+02 1.874910e+02 1.993211e+02 2.152584e+02 2.024061e+02 2.018026e+02 1.639156e+02 1.442225e+02 1.039907e+02 2.710117e+00 4.677921e+00 5.859739e+00 7.181998e+00 8.697956e+00 1.073445e+01 1.224872e+01 1.315366e+01 1.296498e+01 1.283601e+01 1.210651e+01 1.104273e+01 2.089273e+00
<GCONST> 1.400074e+02
<STATE> 3
~s "silst"
<STATE> 4
<MEAN> 26
 -2.347371e+01 -1.047419e+00 1.082129e+00 2.293294e+00 -2.458322e+00 -2.983004e+00 -2.842299e+00 -6.661809e-04 -3.230457e+00 2.199374e+00 -1.135122e+00 2.160173e+00 6.118893e+01 4.887614e-01 -3.561625e-01 4.340953e-01 1.131177e-01 1.195752e-01 1.597555e-01 3.821897e-01 2.480040e-01 -2.149726e-02 2.134713e-01 -2.864991e-01 1.700297e-02 1.580386e+00
<VARIANCE> 26
 1.131433e+02 1.500205e+02 1.182744e+02 1.291811e+02 1.546234e+02 1.697767e+02 1.798000e+02 1.756116e+02 1.634207e+02 1.472975e+02 1.384683e+02 1.194857e+02 2.398891e+02 1.439859e+01 1.705767e+01 1.475543e+01 1.536193e+01 1.718809e+01 1.868763e+01 1.901801e+01 1.825589e+01 1.742544e+01 1.602255e+01 1.521902e+01 1.284637e+01 2.753760e+01
<GCONST> 1.497491e+02
<TRANSP> 5
 0.000000e+00 1.000000e+00 0.000000e+00 0.000000e+00 0.000000e+00
 0.000000e+00 8.439989e-01 1.059055e-01 5.009559e-02 0.000000e+00
 0.000000e+00 0.000000e+00 9.030493e-01 9.695062e-02 0.000000e+00
 0.000000e+00 1.016947e-01 0.000000e+00 7.044960e-01 1.938093e-01
 0.000000e+00 0.000000e+00 0.000000e+00 0.000000e+00 0.000000e+00
<ENDHMM>
