~o
<STREAMINFO> 1 13
<VECSIZE> 13<NULLD><MFCC_0><DIAGC>
~v "varFloor1"
<VARIANCE> 13
 6.754232e+00 3.412257e+00 5.608447e+00 4.796207e+00 3.472295e+00 4.011117e+00 4.413517e+00 3.617792e+00 3.683716e+00 3.040219e+00 2.640150e+00 2.509556e+00 1.298279e+01
~h "f"
<BEGINHMM>
<NUMSTATES> 5
<STATE> 2
<MEAN> 13
 -3.103149e+01 -1.345942e+01 1.001983e-01 3.963405e+00 -1.698510e+00 -4.162360e-01 -6.222558e+00 1.110103e+00 -4.422639e+00 3.590938e+00 -3.363231e+00 2.640450e+00 8.834235e+01
<VARIANCE> 13
 1.398343e+02 1.197442e+02 9.095792e+01 8.878172e+01 1.039627e+02 1.201529e+02 1.315378e+02 1.353408e+02 1.311611e+02 1.216136e+02 1.132046e+02 1.017169e+02 3.403676e+02
<GCONST> 8.669337e+01
<STATE> 3
<MEAN> 13
 -2.592026e+01 -1.698582e+01 -4.336290e+00 -1.852611e+00 -3.238050e+00 -2.706615e-01 -7.215344e+00 -1.545672e+00 -6.171918e+00 4.509266e+00 -3.966976e+00 2.582176e+00 1.057396e+02
<VARIANCE> 13
 2.415404e+02 8.809528e+01 6.890183e+01 8.505853e+01 9.621885e+01 1.024315e+02 1.112062e+02 1.107402e+02 1.270418e+02 1.206904e+02 1.125995e+02 9.937204e+01 1.486008e+02
<GCONST> 8.510999e+01
<STATE> 4
<MEAN> 13
 1.885605e+01 -1.232704e+01 -3.053751e+00 -2.693734e+01 -2.546222e+00 1.142707e+01 9.130232e-01 1.550067e+00 -7.645548e+00 1.663053e+01 2.916468e+00 -1.593679e-03 1.283741e+02
<VARIANCE> 13
 2.528719e+02 2.300646e+02 1.566514e+02 5.434325e+02 2.505706e+02 2.334464e+02 1.486195e+02 1.745883e+02 3.429314e+02 3.101074e+02 3.466652e+02 1.808373e+02 4.133907e+02
<GCONST> 9.600089e+01
<TRANSP> 5
 0.000000e+00 1.000000e+00 0.000000e+00 0.000000e+00 0.000000e+00
 0.000000e+00 8.733761e-01 1.266239e-01 0.000000e+00 0.000000e+00
 0.000000e+00 0.000000e+00 6.408436e-01 3.591564e-01 0.000000e+00
 0.000000e+00 0.000000e+00 0.000000e+00 5.411360e-01 4.588641e-01
 0.000000e+00 0.000000e+00 0.000000e+00 0.000000e+00 0.000000e+00
<ENDHMM>
~h "k"
<BEGINHMM>
<NUMSTATES> 5
<STATE> 2
<MEAN> 13
 -8.605587e+00 4.812488e+00 2.291632e+01 2.254919e+01 -8.323343e-01 -1.582738e+01 -4.109530e+00 1.416105e+00 -1.910511e+01 -3.363414e+00 -7.734393e-01 1.552132e+00 7.600574e+01
<VARIANCE> 13
 1.837926e+02 3.294266e+02 3.678968e+02 2.398803e+02 2.465352e+02 3.613947e+02 3.749294e+02 4.860294e+02 3.521377e+02 2.450179e+02 1.868568e+02 1.420823e+02 6.601619e+02
<GCONST> 9.784657e+01
<STATE> 3
<MEAN> 13
 -2.099821e+01 -4.625296e+00 -2.359016e+00 1.112856e+01 -8.066851e-01 -9.902232e+00 -1.015938e+01 -4.149465e-02 -5.093411e+00 7.006156e-02 -1.433885e+00 4.200321e+00 7.466735e+01
<VARIANCE> 13
 2.100816e+02 3.185486e+02 2.648651e+02 1.698215e+02 1.949141e+02 2.202643e+02 2.105917e+02 1.918432e+02 1.669489e+02 1.413548e+02 1.297169e+02 1.025308e+02 8.527338e+02
<GCONST> 9.330457e+01
<STATE> 4
<MEAN> 13
 -4.492195e+01 -3.065251e+00 -1.083906e+01 6.694771e+00 -3.274851e+00 -1.707308e+01 -8.930698e+00 6.128335e+00 -2.009020e+00 1.602795e+00 -6.200876e+00 6.894397e+00 1.026067e+02
<VARIANCE> 13
 3.456158e+02 1.535338e+02 1.727298e+02 2.172510e+02 4.018593e+02 3.158676e+02 2.024358e+02 1.812330e+02 1.725870e+02 1.565522e+02 1.676128e+02 1.373989e+02 4.151560e+02
<GCONST> 9.384356e+01
<TRANSP> 5
 0.000000e+00 1.000000e+00 0.000000e+00 0.000000e+00 0.000000e+00
 0.000000e+00 6.592465e-01 3.407535e-01 0.000000e+00 0.000000e+00
 0.000000e+00 0.000000e+00 7.250765e-01 2.749235e-01 0.000000e+00
 0.000000e+00 0.000000e+00 0.000000e+00 8.556513e-01 1.443488e-01
 0.000000e+00 0.000000e+00 0.000000e+00 0.000000e+00 0.000000e+00
<ENDHMM>
~h "n"
<BEGINHMM>
<NUMSTATES> 5
<STATE> 2
<MEAN> 13
 1.753950e+01 2.230942e+00 3.603191e+01 1.023003e+01 -5.965154e+00 5.141985e+00 1.732769e+01 -7.196235e+00 -4.790401e+00 9.238812e+00 -6.950364e+00 1.034415e+01 1.097652e+02
<VARIANCE> 13
 9.121957e+01 2.364175e+02 1.876942e+02 5.201967e+02 2.871681e+02 4.102680e+02 4.816288e+02 5.545696e+02 5.593759e+02 4.638311e+02 4.681160e+02 4.264686e+02 2.698179e+02
<GCONST> 9.980089e+01
<STATE> 3
<MEAN> 13
 1.673452e+01 8.520021e+00 3.254506e+01 2.051628e+01 -2.597088e+00 8.891130e+00 2.058339e+01 -6.975064e+00 -2.384006e+00 7.040660e+00 -8.683286e+00 1.061254e+01 9.945498e+01
<VARIANCE> 13
 1.054693e+02 2.079955e+02 1.590940e+02 2.906015e+02 2.916439e+02 3.988636e+02 4.150569e+02 4.807223e+02 4.774877e+02 4.404402e+02 4.313624e+02 4.250892e+02 2.312128e+02
<GCONST> 9.831655e+01
<STATE> 4
<MEAN> 13
 4.663080e-01 1.179837e+00 2.006833e+01 1.617623e+01 4.094478e+00 3.217411e+00 1.208503e+01 8.151453e+00 1.021655e+00 3.855453e+00 -7.439859e+00 4.427341e+00 8.830733e+01
<VARIANCE> 13
 2.302122e+02 2.186223e+02 2.477637e+02 3.381326e+02 2.482138e+02 3.334088e+02 3.873471e+02 4.029761e+02 3.427860e+02 3.548487e+02 2.803054e+02 2.770645e+02 5.628205e+02
<GCONST> 9.863840e+01
<TRANSP> 5
 0.000000e+00 1.000000e+00 0.000000e+00 0.000000e+00 0.000000e+00
 0.000000e+00 6.115705e-01 3.884295e-01 0.000000e+00 0.000000e+00
 0.000000e+00 0.000000e+00 6.247426e-01 3.752574e-01 0.000000e+00
 0.000000e+00 0.000000e+00 0.000000e+00 6.343173e-01 3.656827e-01
 0.000000e+00 0.000000e+00 0.000000e+00 0.000000e+00 0.000000e+00
<ENDHMM>
~h "r"
<BEGINHMM>
<NUMSTATES> 5
<STATE> 2
<MEAN> 13
 3.554428e+01 -1.863580e+01 -2.189301e+00 4.932777e+00 2.552447e+01 -2.256808e+01 -3.126493e+01 3.336190e+00 -9.086992e+00 4.176820e+00 1.618318e+00 6.833037e+00 1.267888e+02
<VARIANCE> 13
 7.491618e+01 1.629489e+02 4.876717e+02 3.015667e+02 3.972899e+02 9.073327e+02 1.035722e+03 4.226678e+02 2.966505e+02 3.855147e+02 2.577353e+02 2.106497e+02 1.601284e+02
<GCONST> 9.861069e+01
<STATE> 3
<MEAN> 13
 3.060455e+01 -2.533155e+01 4.335378e+00 5.925222e+00 1.592782e+01 -3.471153e+01 -1.792589e+01 1.350928e+01 -5.742433e+00 7.288662e+00 2.280028e+00 7.378442e+00 1.296172e+02
<VARIANCE> 13
 7.657276e+01 1.752052e+02 4.916869e+02 3.108927e+02 3.754617e+02 8.496206e+02 1.210102e+03 4.161869e+02 3.953022e+02 4.154840e+02 2.532870e+02 2.211476e+02 2.304492e+02
<GCONST> 9.951892e+01
<STATE> 4
<MEAN> 13
 1.831279e+01 -2.249739e+01 1.222351e+01 7.928894e+00 5.908418e+00 -2.429893e+01 -4.558487e+00 1.444478e+01 -5.478700e+00 6.547660e+00 1.015723e+00 4.561726e+00 1.202122e+02
<VARIANCE> 13
 1.815042e+02 2.296329e+02 7.391970e+02 4.077678e+02 3.967393e+02 6.893571e+02 8.876210e+02 4.656202e+02 5.692506e+02 4.701963e+02 2.902622e+02 2.941078e+02 5.798690e+02
<GCONST> 1.028124e+02
<TRANSP> 5
 0.000000e+00 1.000000e+00 0.000000e+00 0.000000e+00 0.000000e+00
 0.000000e+00 7.780526e-01 2.219474e-01 0.000000e+00 0.000000e+00
 0.000000e+00 0.000000e+00 6.102266e-01 3.897733e-01 0.000000e+00
 0.000000e+00 0.000000e+00 0.000000e+00 5.252169e-01 4.747830e-01
 0.000000e+00 0.000000e+00 0.000000e+00 0.000000e+00 0.000000e+00
<ENDHMM>
~h "s"
<BEGINHMM>
<NUMSTATES> 5
<STATE> 2
<MEAN> 13
 -3.431355e+01 4.375300e+00 -9.330387e-01 5.886367e+00 -1.659012e+00 -5.523184e+00 -1.180459e+00 4.079264e+00 -3.959402e+00 2.108392e+00 -2.527197e+00 4.495270e+00 9.132895e+01
<VARIANCE> 13
 3.159827e+02 2.069716e+02 2.660096e+02 2.363991e+02 3.301223e+02 2.812469e+02 2.556740e+02 2.178188e+02 1.930378e+02 1.814597e+02 1.780625e+02 1.544298e+02 6.219251e+02
<GCONST> 9.551461e+01
<STATE> 3
<MEAN> 13
 -4.855464e+01 6.094039e+00 -1.202501e+01 3.910554e+00 -6.747903e+00 -4.108616e+00 -3.470610e+00 3.244850e+00 -6.576449e+00 3.064188e+00 -2.385059e+00 5.286323e+00 1.008778e+02
<VARIANCE> 13
 1.532415e+02 1.539360e+02 1.894594e+02 2.370210e+02 3.092209e+02 2.585302e+02 1.744019e+02 1.584326e+02 1.527797e+02 1.369880e+02 1.391297e+02 1.185454e+02 2.432059e+02
<GCONST> 9.134254e+01
<STATE> 4
<MEAN> 13
 -4.898627e+01 4.844961e+00 -1.120379e+01 2.331952e-01 -5.123926e+00 -5.091845e+00 -4.587588e+00 3.335014e+00 -6.179268e+00 3.638904e+00 -3.549498e+00 4.775910e+00 1.047787e+02
<VARIANCE> 13
 2.263627e+02 1.583408e+02 2.070986e+02 2.614462e+02 3.243564e+02 2.635590e+02 1.885590e+02 1.647631e+02 1.626493e+02 1.576152e+02 1.586249e+02 1.370545e+02 2.054843e+02
<GCONST> 9.244280e+01
<TRANSP> 5
 0.000000e+00 1.000000e+00 0.000000e+00 0.000000e+00 0.000000e+00
 0.000000e+00 5.905159e-01 4.094841e-01 0.000000e+00 0.000000e+00
 0.000000e+00 0.000000e+00 6.667392e-01 3.332607e-01 0.000000e+00
 0.000000e+00 0.000000e+00 0.000000e+00 6.760433e-01 3.239567e-01
 0.000000e+00 0.000000e+00 0.000000e+00 0.000000e+00 0.000000e+00
<ENDHMM>
~h "t"
<BEGINHMM>
<NUMSTATES> 5
<STATE> 2
<MEAN> 13
 -2.126537e+01 7.456873e+00 1.401924e+01 5.191556e+00 -8.656360e-01 -1.040205e+00 -2.049295e+00 -3.325669e+00 -5.796833e+00 8.965862e-01 -1.584413e+00 2.055595e+00 7.288014e+01
<VARIANCE> 13
 2.316627e+02 1.948100e+02 4.667184e+02 2.837163e+02 1.805825e+02 1.844985e+02 1.976662e+02 2.237883e+02 2.033460e+02 1.610535e+02 1.570960e+02 1.348040e+02 8.954699e+02
<GCONST> 9.466919e+01
<STATE> 3
<MEAN> 13
 -3.334501e+01 3.679031e+00 1.457159e+01 -5.111891e+00 -7.937557e+00 -8.790993e+00 3.495017e+00 -4.318342e+00 -1.061375e+01 2.172580e+00 -2.934781e-01 6.468692e+00 1.050314e+02
<VARIANCE> 13
 3.435276e+02 1.704519e+02 3.368672e+02 2.618300e+02 1.957028e+02 2.151811e+02 2.437133e+02 2.464139e+02 2.023046e+02 1.716335e+02 1.807436e+02 1.574001e+02 8.411914e+02
<GCONST> 9.535442e+01
<STATE> 4
<MEAN> 13
 -1.683932e+01 -1.196016e+00 2.890919e+01 1.462090e+00 -9.712368e+00 -1.539398e+01 7.108305e+00 -1.418200e+00 -7.682437e+00 4.807650e-01 -3.012400e+00 1.059109e+01 1.078275e+02
<VARIANCE> 13
 3.619741e+02 1.752811e+02 4.068752e+02 2.522796e+02 2.001683e+02 2.839828e+02 3.195460e+02 4.127546e+02 2.419376e+02 2.010729e+02 2.468844e+02 2.069543e+02 6.527302e+02
<GCONST> 9.734216e+01
<TRANSP> 5
 0.000000e+00 1.000000e+00 0.000000e+00 0.000000e+00 0.000000e+00
 0.000000e+00 8.040252e-01 1.959748e-01 0.000000e+00 0.000000e+00
 0.000000e+00 0.000000e+00 6.657861e-01 3.342139e-01 0.000000e+00
 0.000000e+00 0.000000e+00 0.000000e+00 6.823789e-01 3.176211e-01
 0.000000e+00 0.000000e+00 0.000000e+00 0.000000e+00 0.000000e+00
<ENDHMM>
~h "v"
<BEGINHMM>
<NUMSTATES> 5
<STATE> 2
<MEAN> 13
 1.237487e+01 -2.721572e+01 1.514434e+01 -1.752626e+01 -1.053009e+01 -2.152310e+01 2.269906e-01 1.239112e+01 1.457885e+01 1.327808e+01 -3.619177e+00 5.945546e+00 1.467105e+02
<VARIANCE> 13
 7.338064e+01 1.353153e+02 2.899135e+02 2.405806e+02 2.526162e+02 2.482061e+02 8.647971e+02 2.721461e+02 2.998861e+02 4.343750e+02 3.228389e+02 3.898269e+02 1.933245e+02
<GCONST> 9.644780e+01
<STATE> 3
<MEAN> 13
 1.688999e+01 -1.829564e+01 1.813177e+01 -4.675685e+00 -3.843392e+00 -1.913697e+01 -9.380723e+00 3.645658e+00 5.943159e+00 1.677179e+01 -2.321680e+00 1.949748e+00 1.311767e+02
<VARIANCE> 13
 7.749586e+01 1.526085e+02 2.359184e+02 2.904506e+02 3.014609e+02 3.013637e+02 5.678090e+02 2.870149e+02 3.934854e+02 3.850111e+02 3.275080e+02 3.297837e+02 2.653070e+02
<GCONST> 9.692284e+01
<STATE> 4
<MEAN> 13
 -9.163364e-01 -6.831487e+00 1.391350e+01 8.953640e+00 4.172571e+00 -4.127491e+00 -1.801205e+00 4.879153e+00 3.099806e+00 8.515239e+00 -3.934515e+00 3.809084e+00 1.035651e+02
<VARIANCE> 13
 4.014388e+02 1.944131e+02 2.212644e+02 2.637746e+02 2.475197e+02 2.841067e+02 2.942606e+02 2.617997e+02 2.628064e+02 2.702216e+02 2.220677e+02 2.230146e+02 3.977121e+02
<GCONST> 9.651139e+01
<TRANSP> 5
 0.000000e+00 1.000000e+00 0.000000e+00 0.000000e+00 0.000000e+00
 0.000000e+00 7.419682e-01 2.580318e-01 0.000000e+00 0.000000e+00
 0.000000e+00 0.000000e+00 4.329641e-01 5.670359e-01 0.000000e+00
 0.000000e+00 0.000000e+00 0.000000e+00 7.541034e-01 2.458966e-01
 0.000000e+00 0.000000e+00 0.000000e+00 0.000000e+00 0.000000e+00
<ENDHMM>
~h "w"
<BEGINHMM>
<NUMSTATES> 5
<STATE> 2
<MEAN> 13
 3.307492e+01 8.934441e+00 1.839302e+01 -3.716868e+01 -2.016890e+01 1.851416e+00 -2.601980e+00 1.618125e+01 -8.769265e+00 1.166091e+01 1.757782e+00 -1.079048e+00 1.211933e+02
<VARIANCE> 13
 4.124424e+01 1.895558e+02 3.285159e+02 3.186156e+02 4.739245e+02 3.213484e+02 6.241885e+02 3.638434e+02 4.335865e+02 4.053559e+02 3.194110e+02 3.113426e+02 9.749928e+01
<GCONST> 9.684599e+01
<STATE> 3
<MEAN> 13
 2.988325e+01 -4.939065e+00 3.728827e+00 -4.556556e+01 -4.054383e+00 1.397156e+01 8.090276e-01 2.153761e+01 -1.061906e+01 4.393970e+00 1.046451e+01 2.140399e+00 1.317442e+02
<VARIANCE> 13
 4.216035e+01 1.770990e+02 3.018501e+02 2.940472e+02 7.737939e+02 3.078975e+02 5.833033e+02 4.251304e+02 4.311247e+02 4.373903e+02 3.345992e+02 3.145164e+02 1.000450e+02
<GCONST> 9.732326e+01
<STATE> 4
<MEAN> 13
 2.102793e+01 -2.363236e+01 1.363940e+00 -3.269853e+01 1.818829e+01 1.330330e+01 -1.139746e+01 1.839939e+01 -2.281782e-01 8.569592e+00 1.137057e+01 -1.301775e+00 1.412893e+02
<VARIANCE> 13
 6.167648e+01 1.659420e+02 2.214881e+02 3.920932e+02 5.449084e+02 4.154452e+02 5.247488e+02 4.696039e+02 4.547563e+02 3.942144e+02 3.807722e+02 3.372958e+02 1.309417e+02
<GCONST> 9.797716e+01
<TRANSP> 5
 0.000000e+00 1.000000e+00 0.000000e+00 0.000000e+00 0.000000e+00
 0.000000e+00 6.640757e-01 3.359242e-01 0.000000e+00 0.000000e+00
 0.000000e+00 0.000000e+00 6.988699e-01 3.011301e-01 0.000000e+00
 0.000000e+00 0.000000e+00 0.000000e+00 8.394715e-01 1.605285e-01
 0.000000e+00 0.000000e+00 0.000000e+00 0.000000e+00 0.000000e+00
<ENDHMM>
~h "z"
<BEGINHMM>
<NUMSTATES> 5
<STATE> 2
<MEAN> 13
 -1.315728e+01 1.697801e+01 1.539381e+01 2.008720e+01 5.367490e+00 -8.308254e-01 7.992256e-01 4.986800e+00 -8.159313e-01 2.661722e+00 -5.111312e+00 6.539048e+00 8.885944e+01
<VARIANCE> 13
 3.799882e+02 2.575622e+02 3.693430e+02 3.187883e+02 3.254956e+02 2.837027e+02 2.653040e+02 2.538081e+02 2.263659e+02 2.463831e+02 2.501914e+02 2.908037e+02 5.468638e+02
<GCONST> 9.803889e+01
<STATE> 3
<MEAN> 13
 -3.106635e+01 3.112119e+01 7.924814e+00 2.749484e+01 7.638917e+00 6.173306e+00 4.565705e+00 7.377553e+00 -1.244460e+00 5.139546e+00 -1.306716e+00 8.249441e+00 1.070893e+02
<VARIANCE> 13
 2.942905e+02 1.982203e+02 2.831483e+02 3.578072e+02 3.932881e+02 3.168624e+02 2.188619e+02 2.118350e+02 1.616418e+02 1.670024e+02 2.282009e+02 1.918582e+02 1.236877e+02
<GCONST> 9.457771e+01
<STATE> 4
<MEAN> 13
 -2.818395e+01 2.743112e+01 2.211155e+01 1.568663e+01 1.641436e+01 -8.108450e+00 -3.840355e+00 -1.262347e+00 -5.225218e+00 2.385436e+00 -1.201221e+01 3.575302e+00 1.235057e+02
<VARIANCE> 13
 2.631621e+02 1.603826e+02 2.172034e+02 3.195552e+02 4.880663e+02 2.946370e+02 2.747671e+02 2.060510e+02 1.508405e+02 1.723230e+02 2.857581e+02 2.279491e+02 1.091145e+02
<GCONST> 9.445300e+01
<TRANSP> 5
 0.000000e+00 1.000000e+00 0.000000e+00 0.000000e+00 0.000000e+00
 0.000000e+00 6.872835e-01 3.127165e-01 0.000000e+00 0.000000e+00
 0.000000e+00 0.000000e+00 7.841962e-01 2.158038e-01 0.000000e+00
 0.000000e+00 0.000000e+00 0.000000e+00 7.647182e-01 2.352818e-01
 0.000000e+00 0.000000e+00 0.000000e+00 0.000000e+00 0.000000e+00
<ENDHMM>
~h "ah"
<BEGINHMM>
<NUMSTATES> 5
<STATE> 2
<MEAN> 13
 1.836184e+01 -1.971041e+01 1.792552e+01 -8.550138e+00 8.371585e+00 -5.603459e+00 -1.531766e+01 7.929982e+00 -3.680711e+00 1.493772e+01 3.851899e+00 -6.688250e-01 1.322722e+02
<VARIANCE> 13
 6.710630e+01 1.384412e+02 1.875144e+02 2.461961e+02 2.393241e+02 3.703246e+02 5.176011e+02 4.890689e+02 5.436481e+02 4.676950e+02 4.007469e+02 3.264970e+02 1.883783e+02
<GCONST> 9.706934e+01
<STATE> 3
<MEAN> 13
 1.810764e+01 -1.101484e+01 2.732429e+01 3.575436e+00 3.399125e+00 -7.379007e+00 1.159730e+00 6.503763e+00 -2.558096e+00 1.055503e+01 -7.025479e+00 7.871945e+00 1.229742e+02
<VARIANCE> 13
 5.611575e+01 1.225065e+02 2.044523e+02 2.988752e+02 2.565656e+02 4.903621e+02 4.996825e+02 5.053639e+02 4.717174e+02 5.149131e+02 4.094755e+02 3.950254e+02 1.412606e+02
<GCONST> 9.727494e+01
<STATE> 4
<MEAN> 13
 1.937624e+01 1.563357e+00 3.446021e+01 1.438421e+01 -4.027580e+00 1.858487e+00 1.711834e+01 -8.157990e+00 9.686050e-02 3.706517e+00 -8.939218e+00 1.686061e+01 1.105925e+02
<VARIANCE> 13
 4.672297e+01 1.405706e+02 1.480535e+02 2.639056e+02 2.550342e+02 4.710296e+02 5.083461e+02 4.563382e+02 5.239522e+02 6.191930e+02 5.824252e+02 5.173763e+02 1.296014e+02
<GCONST> 9.747649e+01
<TRANSP> 5
 0.000000e+00 1.000000e+00 0.000000e+00 0.000000e+00 0.000000e+00
 0.000000e+00 7.663500e-01 2.336501e-01 0.000000e+00 0.000000e+00
 0.000000e+00 0.000000e+00 5.674785e-01 4.325215e-01 0.000000e+00
 0.000000e+00 0.000000e+00 0.000000e+00 7.022469e-01 2.977531e-01
 0.000000e+00 0.000000e+00 0.000000e+00 0.000000e+00 0.000000e+00
<ENDHMM>
~h "ao"
<BEGINHMM>
<NUMSTATES> 5
<STATE> 2
<MEAN> 13
 3.519930e+01 1.589352e+01 1.401975e+01 -4.455426e+01 -2.245336e+01 7.954957e-01 3.733775e-01 4.913830e+00 -8.217180e+00 6.337910e+00 -1.075127e+01 3.787158e+00 1.185052e+02
<VARIANCE> 13
 6.830390e+01 1.410201e+02 1.694810e+02 4.083411e+02 4.660287e+02 2.245950e+02 2.632081e+02 2.187573e+02 2.067597e+02 2.090819e+02 1.950451e+02 2.838340e+02 1.428427e+02
<GCONST> 9.328722e+01
<STATE> 3
<MEAN> 13
 3.598023e+01 1.459136e+01 1.582560e+01 -4.462989e+01 -2.727081e+01 -3.909128e+00 -2.079759e+00 1.111654e+01 -1.617010e+01 1.116661e+01 -8.646521e+00 -2.530288e-01 1.225177e+02
<VARIANCE> 13
 4.221917e+01 1.876891e+02 3.015316e+02 2.719959e+02 4.589436e+02 3.937477e+02 5.709924e+02 3.878033e+02 4.101359e+02 4.160860e+02 3.452292e+02 4.149269e+02 1.200928e+02
<GCONST> 9.730518e+01
<STATE> 4
<MEAN> 13
 3.755573e+01 -2.407575e+00 -1.022389e+01 -2.905005e+01 -3.479919e+00 -8.023483e+00 -8.957126e+00 1.643922e+01 -2.419777e+01 4.817217e+00 3.731586e+00 1.061426e+01 1.271768e+02
<VARIANCE> 13
 6.587976e+01 2.485624e+02 3.799918e+02 3.175505e+02 7.678964e+02 4.893563e+02 9.576074e+02 7.150490e+02 5.725258e+02 7.794502e+02 4.056497e+02 4.247816e+02 1.764873e+02
<GCONST> 1.018092e+02
<TRANSP> 5
 0.000000e+00 1.000000e+00 0.000000e+00 0.000000e+00 0.000000e+00
 0.000000e+00 7.749515e-01 2.250485e-01 0.000000e+00 0.000000e+00
 0.000000e+00 0.000000e+00 8.379366e-01 1.620634e-01 0.000000e+00
 0.000000e+00 0.000000e+00 0.000000e+00 8.361911e-01 1.638089e-01
 0.000000e+00 0.000000e+00 0.000000e+00 0.000000e+00 0.000000e+00
<ENDHMM>
~h "ay"
<BEGINHMM>
<NUMSTATES> 5
<STATE> 2
<MEAN> 13
 1.931961e+01 -3.102331e+01 -3.146800e+00 -2.671928e+01 8.447132e+00 1.184824e+01 -6.227881e+00 6.918061e+00 7.845184e+00 1.501223e+01 3.071398e+00 -5.287365e+00 1.452645e+02
<VARIANCE> 13
 6.586813e+01 1.391654e+02 3.125679e+02 3.785843e+02 3.982500e+02 3.873170e+02 4.178987e+02 3.772804e+02 3.874616e+02 3.839467e+02 5.194483e+02 3.645192e+02 1.162719e+02
<GCONST> 9.742893e+01
<STATE> 3
<MEAN> 13
 1.525355e+01 -4.041320e+01 1.818273e+00 -1.969762e+01 1.791717e+01 5.434903e+00 -9.905875e+00 1.980356e+01 1.114941e+01 7.184110e+00 -3.649934e+00 -3.669819e+00 1.470759e+02
<VARIANCE> 13
 5.666230e+01 1.260615e+02 1.996400e+02 2.476830e+02 4.734976e+02 2.977669e+02 3.691472e+02 4.118539e+02 3.237186e+02 3.269408e+02 3.602512e+02 4.393082e+02 1.125945e+02
<GCONST> 9.562872e+01
<STATE> 4
<MEAN> 13
 1.213684e+01 -3.209887e+01 1.794240e+01 -1.148851e+01 -2.997555e-01 -7.585965e+00 2.263626e+00 2.367153e+01 4.568909e+00 2.665352e+00 -2.238254e+00 6.367070e+00 1.422618e+02
<VARIANCE> 13
 7.186268e+01 1.623665e+02 4.871320e+02 2.817323e+02 4.235488e+02 2.360523e+02 5.394958e+02 3.514494e+02 3.918461e+02 3.446275e+02 3.214849e+02 2.839466e+02 1.724051e+02
<GCONST> 9.713685e+01
<TRANSP> 5
 0.000000e+00 1.000000e+00 0.000000e+00 0.000000e+00 0.000000e+00
 0.000000e+00 8.471714e-01 1.528286e-01 0.000000e+00 0.000000e+00
 0.000000e+00 0.000000e+00 8.500483e-01 1.499516e-01 0.000000e+00
 0.000000e+00 0.000000e+00 0.000000e+00 8.341928e-01 1.658071e-01
 0.000000e+00 0.000000e+00 0.000000e+00 0.000000e+00 0.000000e+00
<ENDHMM>
~h "eh"
<BEGINHMM>
<NUMSTATES> 5
<STATE> 2
<MEAN> 13
 -5.294706e+01 1.070391e+01 -6.884516e+00 -6.420302e+00 1.545866e+00 -1.445241e+01 -2.281838e+00 2.331028e+00 -3.393242e+00 1.244788e+00 -7.919627e+00 8.401749e+00 1.160852e+02
<VARIANCE> 13
 3.009026e+02 8.893085e+01 1.626032e+02 2.222972e+02 2.685915e+02 2.215829e+02 1.480125e+02 1.500052e+02 1.445723e+02 1.340384e+02 1.613787e+02 1.345079e+02 9.580900e+01
<GCONST> 9.000396e+01
<STATE> 3
<MEAN> 13
 -6.558553e+00 5.428521e+00 1.526169e+01 2.549779e+00 -4.758767e+00 -1.791739e+01 -7.652449e+00 -1.734834e+00 4.134860e+00 4.226562e+00 -9.124721e+00 1.220720e+01 1.232504e+02
<VARIANCE> 13
 5.416251e+02 1.189630e+02 1.544123e+02 2.038327e+02 3.268582e+02 1.975581e+02 2.140386e+02 1.874638e+02 1.820920e+02 2.662445e+02 2.700414e+02 3.155690e+02 1.996495e+02
<GCONST> 9.443647e+01
<STATE> 4
<MEAN> 13
 1.104801e+01 -1.612114e+01 2.054065e+01 -1.246246e+01 -1.119281e+01 -2.663685e+01 -9.077506e+00 2.776419e+00 1.155397e+01 1.192376e+01 -6.940846e+00 1.589143e+01 1.453554e+02
<VARIANCE> 13
 6.670059e+01 1.135270e+02 1.738462e+02 1.926349e+02 2.869961e+02 2.301444e+02 7.968981e+02 2.790860e+02 3.629692e+02 4.506496e+02 3.863726e+02 4.492152e+02 1.217624e+02
<GCONST> 9.552543e+01
<TRANSP> 5
 0.000000e+00 1.000000e+00 0.000000e+00 0.000000e+00 0.000000e+00
 0.000000e+00 7.192735e-01 2.807265e-01 0.000000e+00 0.000000e+00
 0.000000e+00 0.000000e+00 2.527672e-01 7.472327e-01 0.000000e+00
 0.000000e+00 0.000000e+00 0.000000e+00 6.429629e-01 3.570370e-01
 0.000000e+00 0.000000e+00 0.000000e+00 0.000000e+00 0.000000e+00
<ENDHMM>
~h "ey"
<BEGINHMM>
<NUMSTATES> 5
<STATE> 2
<MEAN> 13
 -9.239886e+00 -9.204317e+00 1.797950e+01 -7.647545e+00 -1.861088e+01 -1.821041e+01 -2.248379e+00 1.447333e+00 -6.466856e-01 7.289741e+00 -6.492770e-01 6.994325e+00 9.528673e+01
<VARIANCE> 13
 2.682099e+02 2.428107e+02 4.470922e+02 3.276076e+02 3.089375e+02 3.780635e+02 5.420246e+02 3.872324e+02 3.546018e+02 2.809262e+02 2.413289e+02 2.590371e+02 1.364964e+03
<GCONST> 1.005647e+02
<STATE> 3
<MEAN> 13
 3.821808e+00 -1.938527e+01 4.591528e+01 -2.209177e+01 -2.496774e+01 -1.933662e+01 3.123581e+00 4.907382e+00 -4.779357e+00 1.397793e+01 1.599477e+00 1.038722e+01 1.407666e+02
<VARIANCE> 13
 7.194237e+01 1.506871e+02 2.976745e+02 4.015848e+02 2.019023e+02 2.839170e+02 6.521674e+02 3.099136e+02 5.635587e+02 2.402764e+02 1.782703e+02 1.700104e+02 1.998911e+02
<GCONST> 9.548095e+01
<STATE> 4
<MEAN> 13
 -1.885082e+00 2.529048e-01 6.787888e+01 -1.982723e+01 -1.327862e+01 -5.101874e+00 -4.704772e+00 -1.760528e+01 -1.048558e+01 5.004653e+00 -8.991501e+00 7.503982e+00 1.304909e+02
<VARIANCE> 13
 6.193539e+01 2.585177e+02 2.695685e+02 5.249896e+02 2.849059e+02 3.056468e+02 3.161719e+02 4.633594e+02 7.531348e+02 3.710832e+02 3.031538e+02 3.468296e+02 2.983955e+02
<GCONST> 9.850520e+01
<TRANSP> 5
 0.000000e+00 1.000000e+00 0.000000e+00 0.000000e+00 0.000000e+00
 0.000000e+00 7.127697e-01 2.872303e-01 0.000000e+00 0.000000e+00
 0.000000e+00 0.000000e+00 8.485251e-01 1.514749e-01 0.000000e+00
 0.000000e+00 0.000000e+00 0.000000e+00 8.998954e-01 1.001045e-01
 0.000000e+00 0.000000e+00 0.000000e+00 0.000000e+00 0.000000e+00
<ENDHMM>
~h "hh"
<BEGINHMM>
<NUMSTATES> 5
<STATE> 2
<MEAN> 13
 7.523277e+00 1.190934e+01 8.981212e+00 1.642527e-01 2.152877e+00 8.820927e+00 6.543704e+00 1.512946e+00 -5.943132e+00 5.386772e+00 -2.476801e+00 3.267106e+00 8.200770e+01
<VARIANCE> 13
 4.647300e+02 2.940476e+02 2.195700e+02 3.336977e+02 2.755978e+02 2.645383e+02 2.586483e+02 2.776451e+02 3.520879e+02 2.445417e+02 2.018146e+02 1.897087e+02 5.827569e+02
<GCONST> 9.758212e+01
<STATE> 3
<MEAN> 13
 2.978600e+01 2.225134e+01 1.676781e+01 -6.913982e+00 -8.563153e+00 4.495763e+00 7.315856e+00 6.197605e-01 -5.384553e+00 9.224212e+00 -4.957750e+00 3.195143e+00 9.837146e+01
<VARIANCE> 13
 9.364507e+01 2.298393e+02 1.449374e+02 2.835313e+02 2.676065e+02 2.706562e+02 2.438577e+02 2.558296e+02 4.015347e+02 2.652987e+02 2.219081e+02 2.441383e+02 2.155452e+02
<GCONST> 9.457371e+01
<STATE> 4
<MEAN> 13
 3.397475e+01 2.077897e+01 2.037512e+01 -1.953336e+01 -1.845090e+01 -2.194252e+00 5.626102e-01 4.006645e+00 -6.758861e+00 1.288667e+01 -3.877075e+00 2.818023e-01 1.078242e+02
<VARIANCE> 13
 5.195254e+01 1.948571e+02 1.994828e+02 2.847404e+02 3.054890e+02 2.806316e+02 3.739655e+02 3.008086e+02 4.094486e+02 3.106665e+02 2.727855e+02 2.882049e+02 1.250353e+02
<GCONST> 9.490638e+01
<TRANSP> 5
 0.000000e+00 1.000000e+00 0.000000e+00 0.000000e+00 0.000000e+00
 0.000000e+00 6.232101e-01 3.767899e-01 0.000000e+00 0.000000e+00
 0.000000e+00 0.000000e+00 5.558091e-01 4.441909e-01 0.000000e+00
 0.000000e+00 0.000000e+00 0.000000e+00 7.211805e-01 2.788196e-01
 0.000000e+00 0.000000e+00 0.000000e+00 0.000000e+00 0.000000e+00
<ENDHMM>
~h "ih"
<BEGINHMM>
<NUMSTATES> 5
<STATE> 2
<MEAN> 13
 -5.231802e+01 9.756968e+00 -1.539296e+01 3.809916e+00 -8.782454e+00 -5.761293e+00 -2.260934e+00 1.370756e+00 -6.688320e+00 1.037740e+00 -3.210491e+00 7.154410e+00 1.120059e+02
<VARIANCE> 13
 1.549907e+02 1.061038e+02 1.764185e+02 2.156010e+02 2.495240e+02 2.692530e+02 1.343531e+02 1.241471e+02 1.332086e+02 1.177979e+02 1.486109e+02 1.142980e+02 1.165913e+02
<GCONST> 8.914331e+01
<STATE> 3
<MEAN> 13
 -1.776254e+01 8.358301e+00 1.639330e+01 5.593902e+00 -6.672007e+00 -1.508114e+01 -4.900371e+00 -2.073730e+00 -3.350630e+00 1.413057e+00 -6.782777e+00 1.046035e+01 1.225807e+02
<VARIANCE> 13
 5.997631e+02 1.378800e+02 2.917632e+02 2.324987e+02 3.385286e+02 2.324429e+02 2.186233e+02 1.652398e+02 1.632253e+02 1.762143e+02 2.552008e+02 2.688969e+02 1.813646e+02
<GCONST> 9.471188e+01
<STATE> 4
<MEAN> 13
 5.037475e+00 -1.215471e+01 4.121872e+01 -1.166708e+00 -1.607222e+01 -2.915091e+01 -4.251483e+00 -6.054797e+00 -1.041849e+01 8.058405e+00 -3.338417e+00 1.127482e+01 1.341156e+02
<VARIANCE> 13
 9.130123e+01 2.092682e+02 2.299558e+02 3.842536e+02 3.369753e+02 3.286773e+02 8.552029e+02 5.899728e+02 5.207230e+02 2.933771e+02 3.046548e+02 3.750487e+02 3.827973e+02
<GCONST> 9.941629e+01
<TRANSP> 5
 0.000000e+00 1.000000e+00 0.000000e+00 0.000000e+00 0.000000e+00
 0.000000e+00 8.237657e-01 1.762343e-01 0.000000e+00 0.000000e+00
 0.000000e+00 0.000000e+00 4.453349e-01 5.546651e-01 0.000000e+00
 0.000000e+00 0.000000e+00 0.000000e+00 8.914161e-01 1.085839e-01
 0.000000e+00 0.000000e+00 0.000000e+00 0.000000e+00 0.000000e+00
<ENDHMM>
~h "iy"
<BEGINHMM>
<NUMSTATES> 5
<STATE> 2
<MEAN> 13
 1.960339e+00 -7.514371e+00 6.493559e+01 -1.311539e+00 -7.832511e+00 -1.623896e+01 -2.144661e+00 -7.188134e+00 -2.044648e+01 3.443309e+00 -7.044622e+00 7.564886e+00 1.338317e+02
<VARIANCE> 13
 1.000992e+02 2.625278e+02 2.446093e+02 3.953813e+02 2.274603e+02 3.482584e+02 5.197205e+02 6.562950e+02 4.522845e+02 3.936968e+02 2.393173e+02 3.544371e+02 1.164496e+02
<GCONST> 9.776392e+01
<STATE> 3
<MEAN> 13
 2.508475e+00 -6.958225e-01 6.532417e+01 -3.956207e+00 -7.681949e+00 -9.347399e+00 5.414124e-01 -9.836048e+00 -1.510244e+01 5.898356e+00 -8.770625e+00 8.330703e+00 1.244304e+02
<VARIANCE> 13
 9.938091e+01 3.871004e+02 2.175451e+02 4.756728e+02 2.432274e+02 5.276596e+02 5.679680e+02 6.506687e+02 5.555657e+02 4.384227e+02 2.795755e+02 3.460515e+02 2.778674e+02
<GCONST> 1.000899e+02
<STATE> 4
<MEAN> 13
 1.367991e+00 -8.983005e-01 4.237589e+01 2.894308e+00 -3.760764e+00 -3.990253e+00 1.292988e+00 -1.391881e+00 -7.463089e+00 3.631405e+00 -5.410351e+00 6.147727e+00 1.081572e+02
<VARIANCE> 13
 3.058916e+02 5.024255e+02 3.025258e+02 4.781580e+02 3.514769e+02 1.259945e+03 7.865292e+02 4.219061e+02 4.452077e+02 4.206907e+02 2.814173e+02 2.732089e+02 7.292924e+02
<GCONST> 1.034132e+02
<TRANSP> 5
 0.000000e+00 1.000000e+00 0.000000e+00 0.000000e+00 0.000000e+00
 0.000000e+00 8.099557e-01 1.900442e-01 0.000000e+00 0.000000e+00
 0.000000e+00 0.000000e+00 6.927077e-01 3.072923e-01 0.000000e+00
 0.000000e+00 0.000000e+00 0.000000e+00 5.892225e-01 4.107774e-01
 0.000000e+00 0.000000e+00 0.000000e+00 0.000000e+00 0.000000e+00
<ENDHMM>
~h "ow"
<BEGINHMM>
<NUMSTATES> 5
<STATE> 2
<MEAN> 13
 1.796568e+01 -2.339220e+01 1.187542e+00 -2.249259e+01 3.643981e+00 -1.293447e+01 -5.471742e+00 2.499466e+00 5.366972e+00 2.292543e+01 -1.488778e+00 1.003108e+00 1.338049e+02
<VARIANCE> 13
 1.758503e+02 1.760198e+02 2.372288e+02 2.356870e+02 2.984409e+02 4.511183e+02 5.959177e+02 3.952716e+02 8.181060e+02 5.573073e+02 6.809409e+02 3.320367e+02 4.576923e+02
<GCONST> 1.008292e+02
<STATE> 3
<MEAN> 13
 2.399096e+01 -1.322697e+01 3.514428e+00 -3.333839e+01 4.249010e+00 1.848737e+00 -7.043284e+00 -8.699467e+00 -6.821947e+00 2.491246e+01 5.149900e+00 7.098393e+00 1.351537e+02
<VARIANCE> 13
 8.094451e+01 1.325507e+02 2.399251e+02 3.423426e+02 3.736765e+02 4.274615e+02 4.032698e+02 3.927325e+02 1.134021e+03 4.503604e+02 4.480070e+02 2.564038e+02 2.395840e+02
<GCONST> 9.871729e+01
<STATE> 4
<MEAN> 13
 2.394306e+01 6.628256e+00 6.375932e+00 -2.974494e+01 -6.063240e+00 1.303677e+01 1.257592e+00 -2.625934e+00 -1.104061e+01 5.862159e+00 -2.266599e+00 8.498242e+00 1.138239e+02
<VARIANCE> 13
 1.738061e+02 2.394929e+02 2.798723e+02 6.729210e+02 6.668978e+02 3.867723e+02 4.411910e+02 4.400524e+02 5.893599e+02 3.800872e+02 3.743113e+02 3.767796e+02 5.333283e+02
<GCONST> 1.017670e+02
<TRANSP> 5
 0.000000e+00 1.000000e+00 0.000000e+00 0.000000e+00 0.000000e+00
 0.000000e+00 8.082907e-01 1.917093e-01 0.000000e+00 0.000000e+00
 0.000000e+00 0.000000e+00 7.978548e-01 2.021451e-01 0.000000e+00
 0.000000e+00 0.000000e+00 0.000000e+00 8.882802e-01 1.117199e-01
 0.000000e+00 0.000000e+00 0.000000e+00 0.000000e+00 0.000000e+00
<ENDHMM>
~h "th"
<BEGINHMM>
<NUMSTATES> 5
<STATE> 2
<MEAN> 13
 -2.685005e+01 1.777921e-01 1.088107e+00 5.548419e+00 -6.004043e+00 5.258337e-01 -3.607475e+00 7.374645e-01 -4.249566e+00 1.591667e+00 -2.501859e+00 4.681605e+00 8.406960e+01
<VARIANCE> 13
 1.370990e+02 1.465267e+02 1.258178e+02 1.438641e+02 1.448844e+02 1.514091e+02 1.553740e+02 1.549880e+02 1.545319e+02 1.407034e+02 1.390103e+02 1.243832e+02 6.196710e+02
<GCONST> 8.986328e+01
<STATE> 3
<MEAN> 13
 -2.134228e+01 -7.321290e+00 1.525058e+01 1.618209e+00 -9.813207e+00 -5.094617e+00 -1.511570e+00 1.743762e-01 -2.388271e+00 4.871976e+00 -3.030220e+00 6.161597e+00 1.130198e+02
<VARIANCE> 13
 2.665679e+02 1.682835e+02 2.486888e+02 2.265072e+02 1.957000e+02 2.036624e+02 2.208736e+02 2.045369e+02 1.940919e+02 1.818424e+02 1.814381e+02 2.069247e+02 1.764315e+02
<GCONST> 9.303172e+01
<STATE> 4
<MEAN> 13
 1.373524e+01 -1.202843e+01 1.760323e+01 1.866700e+01 8.590167e+00 -1.052117e+01 -1.265385e+01 -2.946459e+00 -4.924483e+00 5.224527e+00 -1.414794e+00 3.889104e+00 1.146141e+02
<VARIANCE> 13
 4.201387e+02 1.534191e+02 2.693366e+02 1.719948e+02 2.406254e+02 3.370612e+02 2.857062e+02 2.650062e+02 1.839141e+02 1.629860e+02 1.673389e+02 1.506854e+02 1.549649e+02
<GCONST> 9.373436e+01
<TRANSP> 5
 0.000000e+00 1.000000e+00 0.000000e+00 0.000000e+00 0.000000e+00
 0.000000e+00 8.614244e-01 1.385755e-01 0.000000e+00 0.000000e+00
 0.000000e+00 0.000000e+00 6.548730e-01 3.451270e-01 0.000000e+00
 0.000000e+00 0.000000e+00 0.000000e+00 6.507448e-01 3.492552e-01
 0.000000e+00 0.000000e+00 0.000000e+00 0.000000e+00 0.000000e+00
<ENDHMM>
~h "uw"
<BEGINHMM>
<NUMSTATES> 5
<STATE> 2
<MEAN> 13
 8.287972e+00 -1.274346e+01 5.504007e+01 7.244627e+00 -3.624678e+00 -2.314368e+01 -7.210824e+00 1.103548e+00 -2.008369e+01 3.936511e+00 -1.096778e+01 8.741504e+00 1.347146e+02
<VARIANCE> 13
 7.523112e+01 1.465534e+02 1.893238e+02 3.113173e+02 1.683804e+02 3.662788e+02 9.462208e+02 5.693615e+02 3.423945e+02 3.398032e+02 2.390911e+02 5.492110e+02 1.523651e+02
<GCONST> 9.688716e+01
<STATE> 3
<MEAN> 13
 1.634432e+01 -8.359447e+00 4.080616e+01 1.523936e+01 1.114962e+01 -6.001070e+00 -2.456010e+01 3.167815e+00 -2.248955e+01 3.975261e+00 -7.661055e+00 -7.648591e+00 1.252834e+02
<VARIANCE> 13
 7.786350e+01 1.649449e+02 2.092735e+02 3.696322e+02 2.769290e+02 6.984163e+02 6.348715e+02 5.376790e+02 5.983081e+02 5.307096e+02 5.125780e+02 6.740898e+02 1.739397e+02
<GCONST> 1.001022e+02
<STATE> 4
<MEAN> 13
 1.361843e+01 9.341557e+00 1.676881e+01 8.196522e+00 1.232294e+01 7.029784e+00 5.881994e-01 -8.460461e+00 -1.021630e+01 6.217894e+00 -6.274815e+00 4.406195e+00 9.718014e+01
<VARIANCE> 13
 2.459239e+02 1.998782e+02 2.576131e+02 3.855691e+02 3.119143e+02 5.315654e+02 4.850639e+02 5.374006e+02 6.532032e+02 4.519336e+02 3.605705e+02 3.633462e+02 3.680130e+02
<GCONST> 1.009775e+02
<TRANSP> 5
 0.000000e+00 1.000000e+00 0.000000e+00 0.000000e+00 0.000000e+00
 0.000000e+00 8.744540e-01 1.255460e-01 0.000000e+00 0.000000e+00
 0.000000e+00 0.000000e+00 7.935428e-01 2.064573e-01 0.000000e+00
 0.000000e+00 0.000000e+00 0.000000e+00 8.133408e-01 1.866592e-01
 0.000000e+00 0.000000e+00 0.000000e+00 0.000000e+00 0.000000e+00
<ENDHMM>
~h "sil"
<BEGINHMM>
<NUMSTATES> 5
<STATE> 2
<MEAN> 13
 -1.170456e+01 -3.628632e+00 6.951602e-01 6.734048e+00 8.937742e-01 7.211796e-01 4.996277e+00 6.910650e+00 -8.770152e-01 4.816134e-02 -4.822286e+00 6.135859e-01 6.617544e+01
<VARIANCE> 13
 7.896426e+01 1.424237e+02 1.524063e+02 1.427943e+02 1.659641e+02 2.047085e+02 2.167959e+02 2.329092e+02 2.142956e+02 2.108905e+02 1.705544e+02 1.525992e+02 1.010933e+02
<GCONST> 8.997273e+01
<STATE> 3
<MEAN> 13
 -2.409361e+01 4.514420e+00 -7.236244e-01 3.093284e+00 -2.886256e+00 -2.548553e+00 -3.737065e+00 -8.951295e-01 -1.747137e+00 1.368828e+00 6.272388e-01 2.331198e+00 4.962344e+01
<VARIANCE> 13
 4.435515e+01 3.945530e+01 4.621225e+01 5.963135e+01 7.785310e+01 9.892072e+01 1.175005e+02 1.166231e+02 1.078929e+02 1.002380e+02 9.642355e+01 8.572781e+01 3.082710e+01
<GCONST> 7.949276e+01
<STATE> 4
<MEAN> 13
 -2.057255e+01 8.556997e-01 3.098822e+00 4.144024e+00 -7.042679e-01 -8.555859e-01 -1.054245e+00 1.318802e+00 -2.185943e+00 2.807435e+00 -1.121261e+00 2.335386e+00 6.301012e+01
<VARIANCE> 13
 1.599397e+02 2.176695e+02 1.383574e+02 1.549140e+02 1.661426e+02 1.802181e+02 1.882835e+02 1.792198e+02 1.710943e+02 1.601925e+02 1.426414e+02 1.220224e+02 2.386919e+02
<GCONST> 9.051477e+01
<TRANSP> 5
 0.000000e+00 1.000000e+00 0.000000e+00 0.000000e+00 0.000000e+00
 0.000000e+00 8.729437e-01 1.270563e-01 0.000000e+00 0.000000e+00
 0.000000e+00 0.000000e+00 9.284424e-01 7.155763e-02 0.000000e+00
 0.000000e+00 0.000000e+00 0.000000e+00 7.672153e-01 2.327847e-01
 0.000000e+00 0.000000e+00 0.000000e+00 0.000000e+00 0.000000e+00
<ENDHMM>
~h "sp"
<BEGINHMM>
<NUMSTATES> 3
<STATE> 2
<MEAN> 13
 -2.409361e+01 4.514420e+00 -7.236244e-01 3.093284e+00 -2.886256e+00 -2.548553e+00 -3.737065e+00 -8.951295e-01 -1.747137e+00 1.368828e+00 6.272388e-01 2.331198e+00 4.962344e+01
<VARIANCE> 13
 4.435515e+01 3.945530e+01 4.621225e+01 5.963135e+01 7.785310e+01 9.892072e+01 1.175005e+02 1.166231e+02 1.078929e+02 1.002380e+02 9.642355e+01 8.572781e+01 3.082710e+01
<GCONST> 7.949276e+01
<TRANSP> 3
 0.000000e+00 5.000000e-01 5.000000e-01
 0.000000e+00 5.000000e-01 5.000000e-01
 0.000000e+00 0.000000e+00 0.000000e+00
<ENDHMM>
