~o
<STREAMINFO> 1 39
<VECSIZE> 39<NULLD><MFCC_D_A_0><DIAGC>
~v "varFloor1"
<VARIANCE> 39
 6.754232e+00 3.412257e+00 5.608447e+00 4.796207e+00 3.472295e+00 4.011117e+00 4.413517e+00 3.617792e+00 3.683716e+00 3.040219e+00 2.640150e+00 2.509556e+00 1.298279e+01 2.278196e-01 1.545969e-01 2.184490e-01 2.118026e-01 1.813457e-01 2.097697e-01 2.257949e-01 2.166197e-01 2.009621e-01 1.748386e-01 1.664882e-01 1.534702e-01 2.729188e-01 3.005251e-02 2.352015e-02 2.950212e-02 3.333421e-02 2.970494e-02 3.528043e-02 3.797136e-02 3.764201e-02 3.477513e-02 3.067418e-02 2.924890e-02 2.697371e-02 3.680276e-02
~s "silst"
<MEAN> 39
 -2.510203e+01 4.789360e+00 -9.952596e-01 2.773962e+00 -3.226406e+00 -2.978607e+00 -4.498063e+00 -1.455753e+00 -1.668138e+00 1.336126e+00 1.108989e+00 2.519380e+00 4.814396e+01 -2.220076e-01 6.921282e-03 4.608105e-02 -4.308329e-02 -7.192691e-02 -8.627209e-02 -1.793937e-01 -1.937619e-01 -5.345480e-02 8.936276e-02 9.639886e-02 4.865680e-02 -1.458841e-01 9.540129e-02 -6.808069e-02 1.604978e-02 2.860491e-02 3.306897e-02 3.830269e-02 8.640506e-02 8.187926e-02 3.624303e-03 -1.269647e-02 -7.568016e-02 -3.041683e-02 1.620963e-01
<VARIANCE> 39
 2.944243e+01 2.898814e+01 3.713717e+01 4.994342e+01 6.793119e+01 8.836315e+01 1.045614e+02 1.054113e+02 9.781528e+01 9.145105e+01 8.874072e+01 7.975413e+01 1.515454e+01 1.335716e+00 1.979851e+00 3.190638e+00 4.442580e+00 5.717482e+00 7.031771e+00 8.416826e+00 9.200336e+00 9.264588e+00 9.216081e+00 9.013218e+00 8.155104e+00 6.777138e-01 2.602484e-01 4.220266e-01 6.527693e-01 9.021436e-01 1.156140e+00 1.416801e+00 1.666983e+00 1.826995e+00 1.847898e+00 1.841398e+00 1.810272e+00 1.637129e+00 1.739530e-01
<GCONST> 1.440952e+02
~h "f"
<BEGINHMM>
<NUMSTATES> 5
<STATE> 2
<MEAN> 39
 -3.178361e+01 -1.380508e+01 -1.714442e-01 3.735855e+00 -1.752530e+00 7.035575e-02 -6.219493e+00 9.370876e-01 -4.697896e+00 4.028285e+00 -3.446819e+00 2.752802e+00 9.102467e+01 -2.163748e+00 -1.578920e+00 -1.242556e+00 -5.534153e-01 -6.769766e-01 -2.946209e-01 -9.028987e-01 -4.678378e-01 -3.232462e-01 -1.856817e-01 -1.099244e-01 -1.638890e-01 5.663058e-01 1.404977e+00 4.294393e-01 2.712642e-01 -2.343711e-01 1.294152e-01 3.420188e-02 2.739818e-01 -4.783803e-02 -7.406159e-02 8.366671e-02 -2.914992e-02 3.870091e-02 5.980284e-01
<VARIANCE> 39
 1.622218e+02 1.221263e+02 9.636909e+01 9.977995e+01 1.138785e+02 1.261694e+02 1.379044e+02 1.348876e+02 1.341647e+02 1.238487e+02 1.181519e+02 1.071474e+02 3.192732e+02 2.350410e+01 1.154015e+01 1.114091e+01 1.488445e+01 1.277607e+01 1.330633e+01 1.450028e+01 1.409801e+01 1.413835e+01 1.313994e+01 1.250796e+01 1.163175e+01 2.023780e+01 3.548102e+00 2.197761e+00 2.158719e+00 2.995261e+00 2.494366e+00 2.814903e+00 3.036692e+00 3.048845e+00 3.101932e+00 2.805348e+00 2.651688e+00 2.385302e+00 3.063152e+00
<GCONST> 1.826811e+02
<STATE> 3
<MEAN> 39
 -2.877082e+01 -1.730330e+01 -3.408794e+00 -1.697053e-02 -2.871899e+00 -7.597585e-01 -7.685648e+00 -1.398851e+00 -6.279290e+00 3.463196e+00 -4.246821e+00 2.739128e+00 1.015821e+02 1.060433e+01 2.401206e+00 8.029184e-01 -3.449434e+00 2.989168e-01 1.023892e+00 1.796580e+00 3.739216e-01 5.260994e-01 1.300079e+00 3.511440e-01 -1.382201e-01 5.658368e+00 3.702049e+00 1.127136e+00 6.660682e-01 -2.341726e+00 -5.401043e-01 3.254533e-01 6.405517e-01 4.538603e-01 2.911486e-02 6.999387e-01 2.185960e-01 -2.275305e-01 1.058727e+00
<VARIANCE> 39
 1.320823e+02 7.053918e+01 6.355442e+01 7.151348e+01 8.549043e+01 9.598559e+01 1.021753e+02 1.040411e+02 1.122653e+02 1.063785e+02 9.857081e+01 8.879771e+01 2.046387e+02 3.755096e+01 1.933116e+01 1.134066e+01 2.148159e+01 1.481418e+01 1.325803e+01 1.467454e+01 1.527077e+01 1.934623e+01 1.749861e+01 1.954730e+01 1.290510e+01 3.424579e+01 3.077391e+00 4.416535e+00 2.868398e+00 3.887169e+00 4.115034e+00 3.272526e+00 3.668711e+00 3.589155e+00 4.370893e+00 3.758808e+00 4.469035e+00 3.178293e+00 4.636912e+00
<GCONST> 1.861582e+02
<STATE> 4
<MEAN> 39
 1.695601e+01 -1.299905e+01 -1.609242e+00 -2.125126e+01 -1.411234e+00 5.374547e+00 5.329506e-01 4.686194e-02 -1.954906e+00 1.450560e+01 2.164535e+00 -8.576297e-01 1.261935e+02 1.054115e+01 -1.168919e+00 -9.476329e-02 -8.780426e+00 -5.398057e-01 1.835268e+00 1.923748e+00 9.914294e-01 6.821793e-01 2.554286e+00 1.025459e+00 -9.099600e-01 8.586131e+00 -3.276388e+00 -7.078547e-01 -7.822559e-02 5.746871e-01 -1.563411e-01 -1.002806e-01 -4.696846e-01 3.080421e-01 -6.321074e-02 -6.738557e-01 -6.698444e-01 4.539909e-02 -1.266715e+00
<VARIANCE> 39
 2.242765e+02 2.504182e+02 1.539574e+02 4.437829e+02 2.424886e+02 1.990326e+02 2.010277e+02 2.199141e+02 3.939439e+02 2.893376e+02 4.311226e+02 1.973841e+02 4.278749e+02 5.911193e+01 4.803210e+01 2.613845e+01 3.405257e+01 3.666772e+01 2.350567e+01 2.621600e+01 2.653552e+01 3.866091e+01 2.912649e+01 4.080365e+01 2.563251e+01 2.545202e+01 5.442473e+00 2.811515e+00 2.139195e+00 7.529165e+00 3.750515e+00 3.003150e+00 3.349806e+00 3.094073e+00 5.519535e+00 4.444003e+00 5.143535e+00 3.278975e+00 5.258879e+00
<GCONST> 2.074952e+02
<TRANSP> 5
 0.000000e+00 1.000000e+00 0.000000e+00 0.000000e+00 0.000000e+00
 0.000000e+00 8.591025e-01 1.408975e-01 0.000000e+00 0.000000e+00
 0.000000e+00 0.000000e+00 6.398407e-01 3.601592e-01 0.000000e+00
 0.000000e+00 0.000000e+00 0.000000e+00 5.456886e-01 4.543114e-01
 0.000000e+00 0.000000e+00 0.000000e+00 0.000000e+00 0.000000e+00
<ENDHMM>
~h "k"
<BEGINHMM>
<NUMSTATES> 5
<STATE> 2
<MEAN> 39
 -7.438559e+00 1.024766e+01 2.697496e+01 2.570687e+01 -1.804644e+00 -1.424359e+01 1.281436e+00 -2.563708e+00 -1.796333e+01 -2.384084e+00 -9.158357e-01 2.254770e+00 7.212830e+01 -5.706294e+00 2.162828e+00 -9.787927e+00 -1.262575e+00 3.409041e+00 5.705914e+00 -3.726939e+00 1.389692e-01 3.731354e+00 -1.987470e+00 3.109626e-02 -9.093036e-01 -1.254520e+01 -2.273610e-01 -3.100262e+00 -1.008549e+00 -2.979960e+00 -1.040860e+00 -1.120844e+00 -9.033296e-01 4.861123e-02 9.420535e-01 1.043032e+00 -2.227044e-01 6.203775e-01 4.776241e+00
<VARIANCE> 39
 1.306916e+02 2.061528e+02 2.691229e+02 1.981263e+02 3.049762e+02 3.707840e+02 3.867597e+02 4.779497e+02 3.226184e+02 2.673047e+02 2.009882e+02 1.583552e+02 3.446452e+02 1.082722e+01 4.588546e+01 2.449346e+01 4.211238e+01 3.026043e+01 3.898227e+01 5.603455e+01 7.207838e+01 5.292036e+01 3.535642e+01 2.362168e+01 2.275703e+01 6.415083e+01 3.429973e+00 5.885293e+00 5.479525e+00 4.839793e+00 5.374423e+00 8.098742e+00 9.035637e+00 8.794845e+00 7.791988e+00 5.613387e+00 4.681997e+00 4.270982e+00 1.242732e+01
<GCONST> 2.143329e+02
<STATE> 3
<MEAN> 39
 -1.870408e+01 -6.461720e+00 -6.320167e+00 7.308388e+00 -1.496902e-01 -7.175135e+00 -1.031371e+01 -1.913326e+00 -4.499759e+00 2.023818e+00 -1.097839e+00 3.326747e+00 7.100749e+01 -1.767749e+00 -4.511619e+00 -5.111698e+00 -9.955870e-01 -2.626720e-02 -1.600661e+00 -2.055051e+00 1.190656e+00 1.712247e+00 1.274027e+00 -6.768583e-01 5.221813e-01 9.333215e+00 -8.361512e-01 9.092491e-01 1.854203e+00 1.030471e+00 -6.437171e-01 -1.170378e+00 7.675734e-01 3.691175e-01 -5.408158e-01 -1.855148e-01 -1.986368e-01 2.035492e-01 2.389461e+00
<VARIANCE> 39
 1.443660e+02 3.074800e+02 2.374518e+02 1.303738e+02 1.547129e+02 1.654435e+02 1.762729e+02 1.576478e+02 1.350082e+02 1.278632e+02 1.139270e+02 8.773824e+01 7.726244e+02 3.168362e+01 2.791292e+01 2.553480e+01 2.504327e+01 2.209211e+01 2.656401e+01 2.168832e+01 2.110212e+01 2.013214e+01 1.797711e+01 1.533421e+01 1.164465e+01 7.528996e+01 8.752091e+00 8.794036e+00 5.503298e+00 3.511157e+00 4.374876e+00 5.219072e+00 5.116767e+00 4.690815e+00 4.213132e+00 3.875493e+00 2.748343e+00 2.429818e+00 1.931113e+01
<GCONST> 2.011245e+02
<STATE> 4
<MEAN> 39
 -4.177684e+01 -9.816175e+00 -7.770808e+00 1.159749e+01 6.023759e-01 -2.458775e+01 -1.501305e+01 6.293036e+00 1.007834e+00 2.874332e+00 -7.501787e+00 5.802878e+00 1.136163e+02 -1.035136e+01 4.342693e+00 2.030377e+00 -2.628203e-01 -2.450076e+00 -2.203615e+00 2.371579e+00 2.716515e+00 7.061455e-01 -1.606854e+00 -8.578084e-01 1.155190e+00 3.102344e+00 5.338479e-01 1.613296e+00 7.106224e-01 -6.694555e-01 -1.207847e-01 1.820304e+00 1.247388e+00 -3.002717e-01 -8.859575e-01 -3.360942e-01 4.972382e-01 -8.994588e-02 -3.827695e+00
<VARIANCE> 39
 3.162556e+02 1.138227e+02 1.796422e+02 2.118776e+02 3.934909e+02 2.674521e+02 2.169880e+02 2.032164e+02 1.858269e+02 1.694964e+02 1.686891e+02 1.317170e+02 1.454427e+02 2.983086e+01 1.522590e+01 1.380197e+01 1.541103e+01 2.175986e+01 2.606351e+01 1.702713e+01 1.641074e+01 2.033570e+01 1.499913e+01 1.378053e+01 1.414804e+01 2.630042e+01 6.913616e+00 3.374641e+00 3.236933e+00 2.806031e+00 3.852533e+00 4.040156e+00 3.613618e+00 3.775570e+00 3.696830e+00 3.502791e+00 2.860305e+00 2.457474e+00 4.546756e+00
<GCONST> 1.947742e+02
<TRANSP> 5
 0.000000e+00 1.000000e+00 0.000000e+00 0.000000e+00 0.000000e+00
 0.000000e+00 6.802105e-01 3.197895e-01 0.000000e+00 0.000000e+00
 0.000000e+00 0.000000e+00 7.771854e-01 2.228145e-01 0.000000e+00
 0.000000e+00 0.000000e+00 0.000000e+00 5.360828e-01 4.639172e-01
 0.000000e+00 0.000000e+00 0.000000e+00 0.000000e+00 0.000000e+00
<ENDHMM>
~h "n"
<BEGINHMM>
<NUMSTATES> 5
<STATE> 2
<MEAN> 39
 1.613826e+01 -8.952650e-01 3.514520e+01 7.532334e+00 -5.338370e+00 4.164678e+00 1.581409e+01 -3.669220e+00 -6.391285e+00 1.039062e+01 -6.412745e+00 8.751418e+00 1.116209e+02 1.130436e+00 3.283537e+00 6.845534e-03 3.869607e+00 4.196930e-01 1.426550e+00 2.305890e+00 -2.980952e+00 5.809949e-02 6.042306e-01 -1.574201e+00 2.743315e-01 -3.161137e+00 -5.507404e-01 -5.552502e-01 -7.604417e-01 -3.506803e-01 4.213256e-01 -2.929862e-01 -6.267740e-01 8.673387e-01 4.000160e-01 -3.719914e-01 2.434654e-01 -1.187046e-01 2.883550e-01
<VARIANCE> 39
 1.313271e+02 3.032173e+02 2.467261e+02 6.128293e+02 3.045685e+02 4.060002e+02 5.310178e+02 5.882531e+02 5.437474e+02 4.445721e+02 4.307636e+02 4.049313e+02 4.140398e+02 1.608109e+01 1.497964e+01 2.376878e+01 3.307036e+01 2.126220e+01 2.553252e+01 3.332281e+01 4.020254e+01 3.055899e+01 2.710949e+01 2.391158e+01 2.427707e+01 1.984666e+01 2.302716e+00 2.563805e+00 3.856935e+00 7.803110e+00 4.082484e+00 5.054120e+00 6.668974e+00 7.734433e+00 5.608197e+00 4.792099e+00 4.679940e+00 4.609330e+00 2.064467e+00
<GCONST> 2.100211e+02
<STATE> 3
<MEAN> 39
 1.795858e+01 6.998141e+00 3.453279e+01 1.871551e+01 -2.117881e+00 7.167583e+00 1.762633e+01 -8.226507e+00 -2.018006e+00 7.295352e+00 -9.766600e+00 1.138845e+01 1.034528e+02 -2.704763e+00 -2.552809e+00 -1.975985e+00 -2.592129e+00 2.587806e+00 -1.673099e+00 -2.692303e+00 5.114922e+00 7.406582e-01 -5.293550e-01 7.207590e-01 -1.074516e+00 1.777187e+00 -1.443198e+00 -1.465714e+00 -1.526869e+00 -1.693699e+00 2.145079e-01 -6.415677e-01 -1.273120e+00 1.416152e+00 2.374757e-01 -1.098774e-01 5.572453e-01 -4.225226e-01 6.395419e-01
<VARIANCE> 39
 8.069151e+01 2.514019e+02 1.424088e+02 2.965838e+02 2.856350e+02 4.393494e+02 4.715303e+02 4.542318e+02 4.633547e+02 4.493213e+02 4.578294e+02 4.617166e+02 2.775902e+02 2.309459e+01 2.474537e+01 2.190972e+01 3.444398e+01 2.640200e+01 3.874477e+01 4.309304e+01 4.400599e+01 3.677292e+01 2.842184e+01 2.911382e+01 3.194300e+01 3.896631e+01 3.096853e+00 2.662747e+00 2.874103e+00 4.012312e+00 4.787706e+00 5.944268e+00 5.996469e+00 7.199866e+00 5.491279e+00 4.141157e+00 4.629688e+00 4.679942e+00 2.362365e+00
<GCONST> 2.100249e+02
<STATE> 4
<MEAN> 39
 2.172209e-01 -3.608424e+00 1.872222e+01 1.201684e+01 5.242033e+00 1.680436e+00 1.035227e+01 1.262850e+01 1.458671e+00 3.693854e+00 -7.142196e+00 4.563343e+00 9.331691e+01 -3.790005e+00 -2.627550e+00 -4.681563e+00 -3.402654e+00 -2.037066e-01 -1.319307e+00 -2.993000e+00 2.101254e+00 5.980404e-01 -8.311547e-01 8.907832e-01 -1.184577e+00 -6.037176e-01 2.553886e-01 2.792273e-01 -2.906645e-02 7.895366e-02 -6.238653e-01 1.242609e-01 -3.146692e-03 -1.258666e+00 -2.290357e-01 1.304808e-02 -6.937885e-03 1.792466e-01 3.380414e-02
<VARIANCE> 39
 1.903296e+02 2.614829e+02 2.239718e+02 4.255691e+02 2.505258e+02 3.512239e+02 4.950501e+02 3.891949e+02 3.322732e+02 3.739692e+02 2.762502e+02 2.638051e+02 7.268010e+02 2.330229e+01 1.986930e+01 1.925583e+01 2.463731e+01 2.300400e+01 2.515932e+01 2.792538e+01 3.561293e+01 3.186387e+01 2.356365e+01 2.518209e+01 2.295492e+01 2.427109e+01 1.683603e+00 2.819040e+00 2.776202e+00 4.893142e+00 3.818297e+00 5.573082e+00 5.933767e+00 5.486075e+00 4.481236e+00 3.946848e+00 3.782796e+00 3.668809e+00 2.810636e+00
<GCONST> 2.060028e+02
<TRANSP> 5
 0.000000e+00 1.000000e+00 0.000000e+00 0.000000e+00 0.000000e+00
 0.000000e+00 6.618723e-01 3.381277e-01 0.000000e+00 0.000000e+00
 0.000000e+00 0.000000e+00 5.907025e-01 4.092975e-01 0.000000e+00
 0.000000e+00 0.000000e+00 0.000000e+00 6.202004e-01 3.797997e-01
 0.000000e+00 0.000000e+00 0.000000e+00 0.000000e+00 0.000000e+00
<ENDHMM>
~h "r"
<BEGINHMM>
<NUMSTATES> 5
<STATE> 2
<MEAN> 39
 3.661343e+01 -1.807420e+01 -5.332626e+00 3.075773e+00 2.583210e+01 -2.170861e+01 -3.170985e+01 2.529568e+00 -7.850286e+00 5.184435e+00 1.949844e+00 7.521195e+00 1.266184e+02 5.143293e-01 -7.702162e-01 -1.617543e+00 6.361619e-02 1.035246e+00 -1.185897e+00 -1.206037e+00 9.506777e-01 1.424979e+00 6.279497e-01 8.384660e-02 1.047117e-01 8.413393e-02 -1.095273e+00 -5.129096e-02 1.734705e+00 -1.186444e-03 -1.732823e+00 -1.539216e-01 1.493736e+00 6.125762e-01 -4.291660e-01 -1.932082e-01 4.019349e-02 4.095428e-02 1.401708e-01
<VARIANCE> 39
 6.585181e+01 1.845830e+02 4.758900e+02 3.192611e+02 3.868441e+02 8.975807e+02 1.004521e+03 4.270865e+02 3.246775e+02 3.920699e+02 2.649107e+02 2.135459e+02 1.731832e+02 6.269392e+00 8.284553e+00 2.615281e+01 1.851527e+01 1.964519e+01 2.913946e+01 2.230790e+01 2.396992e+01 1.920168e+01 1.642458e+01 1.468611e+01 1.359359e+01 6.671089e+00 1.272805e+00 1.260955e+00 1.832563e+00 2.050770e+00 2.642785e+00 4.325715e+00 3.763695e+00 3.410137e+00 2.919343e+00 2.862921e+00 2.531929e+00 2.333123e+00 7.379968e-01
<GCONST> 1.926863e+02
<STATE> 3
<MEAN> 39
 3.103925e+01 -2.466292e+01 7.123937e+00 9.331695e+00 1.679000e+01 -3.370730e+01 -2.564141e+01 1.587993e+01 -7.691907e+00 1.952627e+00 3.137752e-01 8.753028e+00 1.296829e+02 -3.859427e+00 -7.082133e-01 6.867477e+00 1.241539e+00 -5.756533e+00 -1.717791e+00 5.986778e+00 2.830621e+00 -2.272543e+00 -1.082058e+00 9.527177e-01 -1.194803e-01 3.084678e-01 -1.087546e+00 1.174928e+00 8.594850e-01 -1.133059e+00 -9.550891e-01 2.397425e+00 1.664299e+00 -1.743560e+00 -8.858213e-01 7.211480e-01 2.094182e-01 -4.387924e-01 -6.219156e-01
<VARIANCE> 39
 7.058672e+01 1.914085e+02 5.728323e+02 3.719637e+02 3.939630e+02 7.991058e+02 1.054519e+03 4.011965e+02 4.163362e+02 4.806805e+02 2.814069e+02 2.457714e+02 2.005488e+02 9.293720e+00 9.748777e+00 2.923005e+01 2.563259e+01 2.704922e+01 3.532641e+01 3.199759e+01 3.238778e+01 3.639911e+01 2.700768e+01 2.203525e+01 1.748326e+01 1.259025e+01 2.000130e+00 2.068279e+00 2.303046e+00 2.341423e+00 3.787828e+00 5.685978e+00 5.219054e+00 4.621193e+00 4.091058e+00 3.781642e+00 2.952502e+00 3.062200e+00 9.664013e-01
<GCONST> 2.022979e+02
<STATE> 4
<MEAN> 39
 1.709547e+01 -2.114470e+01 1.377560e+01 8.663634e+00 4.504468e+00 -2.264432e+01 -2.312664e+00 1.602816e+01 -1.066272e+01 5.230447e+00 3.342464e+00 4.251701e+00 1.175673e+02 -4.145279e+00 1.255035e+00 4.033447e+00 -1.867604e+00 -3.693579e+00 3.327694e+00 3.994342e+00 -2.507269e+00 -1.226919e+00 1.369506e+00 -4.851044e-01 -1.461744e+00 -1.563870e+00 4.045988e-02 7.207636e-01 -6.787031e-01 -7.591839e-01 6.875350e-01 8.306534e-01 -1.002506e+00 -1.007833e+00 6.128837e-01 2.424172e-01 -5.629341e-01 2.197842e-02 -2.996568e-01
<VARIANCE> 39
 2.062829e+02 2.026409e+02 9.196002e+02 3.686497e+02 4.568950e+02 7.465750e+02 7.671190e+02 4.158972e+02 6.448861e+02 4.179432e+02 2.949273e+02 2.643745e+02 6.404192e+02 1.512818e+01 1.454078e+01 2.394118e+01 2.111097e+01 2.089539e+01 2.632913e+01 2.977627e+01 2.845998e+01 2.278953e+01 2.262095e+01 1.842900e+01 1.613725e+01 1.038739e+01 1.445900e+00 1.892500e+00 2.478693e+00 2.862696e+00 3.662463e+00 4.756011e+00 4.077800e+00 3.550296e+00 4.717651e+00 3.054574e+00 3.084460e+00 2.597008e+00 1.035417e+00
<GCONST> 2.029272e+02
<TRANSP> 5
 0.000000e+00 1.000000e+00 0.000000e+00 0.000000e+00 0.000000e+00
 0.000000e+00 7.662644e-01 2.337356e-01 0.000000e+00 0.000000e+00
 0.000000e+00 0.000000e+00 5.110072e-01 4.889928e-01 0.000000e+00
 0.000000e+00 0.000000e+00 0.000000e+00 5.942723e-01 4.057277e-01
 0.000000e+00 0.000000e+00 0.000000e+00 0.000000e+00 0.000000e+00
<ENDHMM>
~h "s"
<BEGINHMM>
<NUMSTATES> 5
<STATE> 2
<MEAN> 39
 -2.901981e+01 4.931546e+00 8.421802e+00 6.534762e+00 2.721573e+00 -7.426086e+00 -1.351608e+00 3.895331e+00 -3.299837e+00 2.047476e+00 -4.933639e+00 5.550980e+00 1.036286e+02 -8.731902e+00 2.027451e+00 -3.941523e+00 -6.847182e-01 -8.737431e-01 -5.369494e-02 9.722004e-01 1.235549e+00 2.859754e-02 -5.221177e-01 6.646147e-01 3.121930e-01 7.202486e-01 3.739829e-01 -4.303599e-01 -9.476340e-01 -7.213951e-01 -3.359867e-01 6.778660e-02 -4.235959e-01 -3.848772e-01 -4.066587e-01 2.729131e-01 1.070990e-01 -8.937890e-02 -3.412229e-01
<VARIANCE> 39
 6.032514e+02 2.430747e+02 4.115180e+02 3.321282e+02 4.043948e+02 3.814333e+02 3.361174e+02 3.050921e+02 2.877098e+02 2.352764e+02 2.184273e+02 2.200082e+02 4.632668e+02 5.273130e+01 2.420148e+01 4.545058e+01 4.025488e+01 2.982790e+01 3.707653e+01 3.059322e+01 2.938596e+01 3.250438e+01 2.545697e+01 2.387155e+01 2.293192e+01 3.065387e+01 9.098264e+00 4.706762e+00 5.262084e+00 5.597812e+00 5.475751e+00 5.946726e+00 5.356667e+00 5.634346e+00 5.079814e+00 4.703710e+00 4.339784e+00 4.010016e+00 3.261093e+00
<GCONST> 2.130861e+02
<STATE> 3
<MEAN> 39
 -5.313211e+01 8.474800e+00 -1.001871e+01 6.155632e-01 -4.171710e+00 -1.080001e+01 -1.112723e+00 4.032579e+00 -5.605341e+00 1.122228e+00 -3.087427e+00 6.718522e+00 1.069013e+02 -3.369863e+00 8.491991e-01 -3.822971e+00 -1.422416e+00 -1.000194e+00 4.988081e-01 -7.608728e-01 -7.123939e-01 -7.533766e-01 1.067035e-01 -8.990463e-02 -4.391385e-02 3.771798e-01 2.550469e+00 -5.388699e-01 1.098089e+00 6.571146e-01 4.991845e-01 3.829029e-01 -1.990904e-01 -2.919268e-01 1.727034e-01 2.146733e-01 -2.828478e-01 -1.636804e-01 -5.625374e-01
<VARIANCE> 39
 1.350013e+02 1.460153e+02 1.792699e+02 2.793172e+02 3.616752e+02 2.914233e+02 1.970105e+02 1.805955e+02 1.647704e+02 1.532921e+02 1.660074e+02 1.312631e+02 1.851167e+02 1.783756e+01 1.572929e+01 1.690670e+01 1.516039e+01 1.701637e+01 1.973949e+01 1.877983e+01 1.580314e+01 1.454224e+01 1.423370e+01 1.328968e+01 1.246231e+01 1.288751e+01 2.696684e+00 2.278056e+00 3.642579e+00 2.903333e+00 3.291872e+00 3.364676e+00 3.536216e+00 3.516017e+00 3.174399e+00 3.025176e+00 2.880466e+00 2.801175e+00 1.892671e+00
<GCONST> 1.895584e+02
<STATE> 4
<MEAN> 39
 -5.176201e+01 5.711700e+00 -1.467231e+01 2.695061e+00 -6.777748e+00 -5.786766e+00 -4.333354e+00 3.553604e+00 -6.451779e+00 2.674771e+00 -3.911997e+00 5.876671e+00 1.048902e+02 6.748785e-01 -2.557392e-01 1.878368e-01 -1.624441e-01 2.778812e-02 2.639412e-01 2.133903e-02 -9.884460e-02 8.122632e-02 9.096204e-02 -1.338133e-01 -5.800221e-02 6.057597e-03 9.055942e-01 -9.644822e-02 7.691640e-01 1.231080e-01 8.254310e-02 -2.005251e-01 5.256994e-02 -2.016876e-02 1.570100e-01 -2.246619e-02 -1.140388e-02 5.259509e-02 4.054539e-02
<VARIANCE> 39
 1.600852e+02 1.365308e+02 1.556910e+02 2.442229e+02 2.992626e+02 2.759135e+02 1.562141e+02 1.424642e+02 1.439859e+02 1.312313e+02 1.409772e+02 1.206758e+02 1.993736e+02 6.551182e+00 5.586031e+00 6.478632e+00 7.340551e+00 8.994098e+00 1.064950e+01 1.086699e+01 1.118946e+01 1.092739e+01 1.112505e+01 1.067517e+01 1.002092e+01 5.785439e+00 1.849603e+00 1.206316e+00 1.783158e+00 1.558724e+00 1.764318e+00 2.161175e+00 2.247651e+00 2.239708e+00 2.207610e+00 2.265815e+00 2.140645e+00 2.049676e+00 9.176318e-01
<GCONST> 1.742659e+02
<TRANSP> 5
 0.000000e+00 1.000000e+00 0.000000e+00 0.000000e+00 0.000000e+00
 0.000000e+00 5.607688e-01 4.392312e-01 0.000000e+00 0.000000e+00
 0.000000e+00 0.000000e+00 5.228777e-01 4.771224e-01 0.000000e+00
 0.000000e+00 0.000000e+00 0.000000e+00 8.446957e-01 1.553043e-01
 0.000000e+00 0.000000e+00 0.000000e+00 0.000000e+00 0.000000e+00
<ENDHMM>
~h "t"
<BEGINHMM>
<NUMSTATES> 5
<STATE> 2
<MEAN> 39
 -1.485902e+01 1.077417e+01 1.616110e+01 1.336793e+01 2.891654e+00 1.712459e+00 -1.515939e+00 -1.104271e+00 -3.956072e+00 1.377638e+00 -1.573357e+00 1.940559e+00 6.260411e+01 -3.374565e+00 -1.366572e+00 -5.525133e+00 -1.917613e+00 7.296102e-02 -5.270792e-01 -5.270481e-01 6.693628e-01 1.000387e+00 1.473757e-02 1.201419e+00 8.524555e-02 -1.911592e+00 -2.952455e-01 -8.798421e-01 1.023945e+00 -1.615636e+00 -6.819645e-01 -6.235061e-01 -9.807029e-02 -5.340102e-01 -6.893982e-01 1.133595e-01 -3.600275e-01 2.329828e-01 3.820121e+00
<VARIANCE> 39
 2.485622e+02 1.904566e+02 3.601714e+02 2.306433e+02 1.833473e+02 1.912644e+02 2.319658e+02 2.218499e+02 2.032189e+02 1.728655e+02 1.584232e+02 1.347122e+02 4.082685e+02 2.213581e+01 3.399871e+01 5.294356e+01 4.153674e+01 2.661830e+01 2.746795e+01 2.795052e+01 3.136402e+01 3.459869e+01 2.296767e+01 2.173866e+01 1.965939e+01 1.315109e+02 3.510856e+00 5.867912e+00 6.952358e+00 6.313868e+00 4.845960e+00 4.790612e+00 5.249455e+00 5.236114e+00 5.848813e+00 4.299986e+00 3.959445e+00 3.615997e+00 1.267838e+01
<GCONST> 2.085271e+02
<STATE> 3
<MEAN> 39
 -3.345651e+01 -7.390356e-01 5.398730e+00 -1.099019e+01 -3.287040e+00 -8.360709e+00 -3.542354e+00 -4.620245e+00 -1.062361e+01 1.730851e+00 -1.093071e+00 3.214592e+00 1.054681e+02 -4.326613e+00 5.327564e-01 7.784521e-01 -2.115636e+00 -2.369825e+00 -2.838157e+00 1.394003e+00 -4.133650e-02 -2.063480e+00 -6.186913e-02 -3.013883e-01 1.507447e+00 1.144469e+01 9.423997e-01 7.334421e-01 1.287297e+00 2.056956e+00 -2.497537e-01 3.484001e-01 7.503054e-01 4.816169e-01 5.510412e-01 8.897743e-02 -1.208501e-01 3.326603e-01 -3.072879e+00
<VARIANCE> 39
 2.096001e+02 2.225410e+02 2.070152e+02 1.846941e+02 1.686860e+02 1.774762e+02 1.820820e+02 1.907877e+02 1.672046e+02 1.485557e+02 1.297221e+02 1.214023e+02 9.316882e+02 1.811203e+01 2.087257e+01 2.219664e+01 2.250902e+01 1.841606e+01 2.292736e+01 2.489007e+01 2.325612e+01 1.997058e+01 1.892844e+01 1.926119e+01 1.538693e+01 9.830554e+01 4.756162e+00 4.981297e+00 4.118714e+00 4.164301e+00 3.884671e+00 3.848143e+00 3.905851e+00 3.763870e+00 3.994587e+00 3.402325e+00 3.214990e+00 3.071054e+00 1.885739e+01
<GCONST> 2.003692e+02
<STATE> 4
<MEAN> 39
 -3.454365e+01 -1.658387e+00 1.386725e+01 -3.757344e+00 -1.163646e+01 -1.285758e+01 6.559566e+00 6.166906e-01 -9.899484e+00 7.528099e-01 -1.654710e+00 9.278892e+00 1.052619e+02 4.125783e+00 -1.234797e+00 3.054992e+00 2.774798e+00 -3.604255e-01 2.305480e-01 8.819944e-01 1.402298e+00 9.619519e-01 -1.616874e-01 -8.084202e-01 2.377672e-01 -1.973086e+00 2.096154e+00 2.880368e-02 6.257635e-01 4.380521e-01 8.488871e-01 4.450543e-01 -6.927702e-01 -1.580394e-01 1.271211e-01 9.931108e-02 -1.728562e-01 -5.334569e-01 -3.698995e-01
<VARIANCE> 39
 2.834713e+02 1.346422e+02 1.993379e+02 1.698169e+02 1.824281e+02 2.503824e+02 2.610038e+02 3.058103e+02 2.103135e+02 1.940030e+02 2.290084e+02 1.727485e+02 5.648501e+02 3.140346e+01 1.214313e+01 2.750370e+01 2.011671e+01 1.714687e+01 1.705567e+01 1.838471e+01 1.824172e+01 1.711020e+01 1.587585e+01 1.621050e+01 1.511560e+01 1.609061e+01 5.662634e+00 2.992191e+00 3.472594e+00 2.976807e+00 3.232856e+00 4.535792e+00 3.997437e+00 3.769973e+00 3.990880e+00 3.694881e+00 3.762134e+00 3.110457e+00 6.911795e+00
<GCONST> 1.974970e+02
<TRANSP> 5
 0.000000e+00 1.000000e+00 0.000000e+00 0.000000e+00 0.000000e+00
 0.000000e+00 7.806895e-01 2.193105e-01 0.000000e+00 0.000000e+00
 0.000000e+00 0.000000e+00 6.167037e-01 3.832963e-01 0.000000e+00
 0.000000e+00 0.000000e+00 0.000000e+00 6.891969e-01 3.108031e-01
 0.000000e+00 0.000000e+00 0.000000e+00 0.000000e+00 0.000000e+00
<ENDHMM>
~h "v"
<BEGINHMM>
<NUMSTATES> 5
<STATE> 2
<MEAN> 39
 1.268442e+01 -2.720505e+01 1.556625e+01 -1.942106e+01 -1.077637e+01 -2.051003e+01 -2.203324e+00 1.253450e+01 1.412529e+01 1.487919e+01 -2.144199e+00 6.037261e+00 1.473358e+02 1.012407e+00 2.723740e-01 1.167017e-01 9.288857e-01 9.373496e-01 1.618400e-01 -6.924549e-01 -1.027367e+00 -7.834024e-01 7.262027e-01 4.362370e-01 -7.628896e-01 -1.569868e+00 -1.674365e-02 1.154375e+00 7.868238e-02 1.450358e+00 1.052290e+00 8.840534e-01 -5.732315e-01 -1.059598e+00 -9.960815e-01 -2.950964e-01 -5.983148e-02 -5.918499e-02 -1.608484e+00
<VARIANCE> 39
 7.302524e+01 1.478630e+02 2.332910e+02 2.175302e+02 2.588110e+02 2.637065e+02 8.588513e+02 2.862072e+02 3.065548e+02 4.731400e+02 3.384709e+02 4.063866e+02 1.653325e+02 2.128679e+00 8.644449e+00 7.367166e+00 1.018320e+01 9.164766e+00 1.148047e+01 1.556913e+01 1.515687e+01 1.524833e+01 1.098144e+01 1.539940e+01 1.199363e+01 6.985499e+00 7.385745e-01 8.770308e-01 1.230175e+00 1.640369e+00 1.986025e+00 2.631922e+00 3.086129e+00 1.858772e+00 2.370800e+00 2.204892e+00 2.058676e+00 2.052195e+00 1.003162e+00
<GCONST> 1.805664e+02
<STATE> 3
<MEAN> 39
 1.913389e+01 -1.703007e+01 1.912483e+01 -2.265284e+00 -1.873526e-01 -1.537098e+01 -1.147114e+01 -1.535987e-01 -2.775328e-01 1.630311e+01 1.156510e+00 1.462310e+00 1.272551e+02 -1.244660e+00 5.924549e+00 9.119940e-01 7.308012e+00 5.436072e+00 5.742670e+00 1.523351e-01 -3.002132e+00 -3.849082e+00 -1.529997e+00 4.267952e-01 -2.047200e-01 -9.076596e+00 -1.786599e+00 2.053115e-01 -5.372811e-01 -4.227019e-02 7.777609e-02 1.194450e+00 1.344758e+00 1.219356e+00 6.558486e-01 -5.453409e-01 -3.413622e-01 9.270192e-02 -3.333341e-01
<VARIANCE> 39
 6.181185e+01 1.739928e+02 2.253190e+02 2.829602e+02 3.020309e+02 3.539834e+02 5.018789e+02 3.247183e+02 5.023682e+02 3.453115e+02 4.034995e+02 3.290758e+02 2.619747e+02 1.362200e+01 1.306160e+01 1.572430e+01 1.917661e+01 2.025451e+01 2.431124e+01 3.713496e+01 2.297315e+01 2.665946e+01 2.663691e+01 2.417595e+01 2.123962e+01 1.102431e+01 2.094947e+00 2.518482e+00 2.205564e+00 3.932060e+00 4.356394e+00 5.534266e+00 3.805338e+00 3.400881e+00 4.954106e+00 3.576868e+00 4.041255e+00 3.144683e+00 3.537763e+00
<GCONST> 2.003248e+02
<STATE> 4
<MEAN> 39
 -3.070802e+00 -3.547683e+00 1.465112e+01 1.249676e+01 7.921920e+00 2.314576e+00 -1.724828e-02 3.404190e+00 -9.528665e-01 7.622018e+00 -1.827252e+00 3.669552e+00 9.774424e+01 -2.890561e+00 -1.202352e-01 -1.207614e+00 -6.551402e-01 -7.201431e-01 3.103841e-01 4.071405e-01 8.610662e-01 5.582696e-02 -9.606256e-01 -1.989595e-01 1.156043e-01 -1.533761e+00 7.653651e-01 -1.323020e+00 -2.275258e-01 -1.875746e+00 -1.379826e+00 -1.750832e+00 -4.557648e-01 3.308614e-01 5.952249e-01 2.208151e-01 -6.967080e-02 7.575451e-02 2.017738e+00
<VARIANCE> 39
 3.949626e+02 1.729989e+02 1.820462e+02 1.968781e+02 2.099322e+02 2.404298e+02 2.415994e+02 2.608124e+02 2.823702e+02 2.165811e+02 2.302269e+02 1.969309e+02 3.068864e+02 3.992529e+01 2.189661e+01 1.604495e+01 2.725944e+01 2.354068e+01 3.492467e+01 2.617852e+01 2.071196e+01 2.188540e+01 1.794412e+01 1.828461e+01 1.535898e+01 3.002248e+01 4.698465e+00 4.618071e+00 3.456511e+00 6.150650e+00 5.363413e+00 6.122213e+00 5.630023e+00 4.754884e+00 4.851095e+00 4.167077e+00 3.852716e+00 3.472224e+00 5.191211e+00
<GCONST> 2.036804e+02
<TRANSP> 5
 0.000000e+00 1.000000e+00 0.000000e+00 0.000000e+00 0.000000e+00
 0.000000e+00 7.614083e-01 2.385917e-01 0.000000e+00 0.000000e+00
 0.000000e+00 0.000000e+00 6.402299e-01 3.597701e-01 0.000000e+00
 0.000000e+00 0.000000e+00 0.000000e+00 7.595249e-01 2.404751e-01
 0.000000e+00 0.000000e+00 0.000000e+00 0.000000e+00 0.000000e+00
<ENDHMM>
~h "w"
<BEGINHMM>
<NUMSTATES> 5
<STATE> 2
<MEAN> 39
 3.295302e+01 8.969624e+00 1.766925e+01 -3.803888e+01 -2.231354e+01 -1.851890e+00 -2.203319e+00 1.860305e+01 -4.144034e+00 1.378380e+01 1.565348e+00 -4.712231e-01 1.219761e+02 -5.150082e-01 -4.196711e+00 -3.852692e+00 -6.161211e+00 2.376555e+00 3.189558e+00 2.318196e+00 4.783615e+00 2.094969e-01 -2.263530e+00 6.481126e-01 1.764622e-01 4.170501e+00 -5.265859e-01 -6.331341e-01 -6.497734e-01 1.158458e+00 2.068592e+00 1.531571e+00 3.303147e-01 -9.194599e-01 -7.651671e-01 -8.974575e-01 3.974185e-01 4.147353e-01 -2.209764e-01
<VARIANCE> 39
 4.783691e+01 1.832394e+02 2.250381e+02 3.083983e+02 4.155730e+02 2.729978e+02 5.966893e+02 3.918415e+02 4.389128e+02 3.976326e+02 3.348577e+02 2.786006e+02 1.197184e+02 2.170168e+00 9.678184e+00 7.534699e+00 1.376936e+01 1.830012e+01 1.768223e+01 1.829294e+01 1.887663e+01 2.078639e+01 1.985089e+01 1.623682e+01 1.780736e+01 5.123657e+00 5.728821e-01 1.250512e+00 1.316010e+00 2.969773e+00 2.216620e+00 2.360364e+00 3.967959e+00 4.187252e+00 3.303146e+00 3.224470e+00 3.186864e+00 2.729414e+00 6.078134e-01
<GCONST> 1.863627e+02
<STATE> 3
<MEAN> 39
 2.849337e+01 -8.697396e+00 1.156063e+00 -4.812641e+01 1.203760e+00 1.881705e+01 4.035944e+00 2.042330e+01 -1.178549e+01 1.457802e+00 1.055667e+01 6.552680e+00 1.343269e+02 -1.479038e+00 -4.551790e+00 -2.497191e+00 1.572088e+00 6.638825e+00 3.203059e+00 -2.345815e+00 -2.951045e+00 -8.414307e-01 6.224395e-01 3.787999e+00 2.705028e-01 2.494665e+00 -1.380896e-01 3.192948e-01 9.381570e-01 2.000713e+00 -3.676519e-01 -1.472072e+00 -1.564818e+00 -7.560077e-01 1.230195e+00 1.411822e+00 -4.492692e-01 -1.014794e+00 -5.227780e-01
<VARIANCE> 39
 5.447151e+01 1.725181e+02 2.133857e+02 2.917928e+02 5.598842e+02 3.152780e+02 5.728261e+02 4.198398e+02 3.977958e+02 4.199718e+02 3.424339e+02 2.911824e+02 1.410128e+02 1.934639e+00 6.908365e+00 5.889908e+00 1.261180e+01 1.163497e+01 1.414663e+01 2.055994e+01 1.628106e+01 2.052575e+01 2.240808e+01 1.400251e+01 1.924002e+01 3.475570e+00 2.792946e-01 6.972108e-01 9.187090e-01 2.067866e+00 2.473532e+00 2.443165e+00 2.480328e+00 3.827262e+00 3.251726e+00 3.041285e+00 4.071479e+00 2.778078e+00 2.969722e-01
<GCONST> 1.821698e+02
<STATE> 4
<MEAN> 39
 2.064653e+01 -2.480279e+01 -1.256873e+00 -2.700743e+01 2.355888e+01 1.020631e+01 -1.207796e+01 1.444392e+01 3.221543e+00 1.217793e+01 1.079048e+01 -4.391581e+00 1.398730e+02 -1.473133e+00 -1.777891e+00 2.080032e+00 4.897511e+00 -3.105171e-01 -4.066074e+00 -2.339402e+00 1.669977e+00 3.459022e+00 1.512738e-01 -3.230287e+00 -7.465962e-01 5.229824e-01 1.331578e-01 9.488690e-01 9.231670e-01 2.386321e-02 -1.394300e+00 -7.498599e-01 1.313505e+00 6.906586e-01 -6.271779e-01 -7.201673e-01 -8.755997e-01 9.678258e-01 -6.574575e-01
<VARIANCE> 39
 6.700111e+01 1.461903e+02 2.003773e+02 2.891289e+02 4.333875e+02 3.716234e+02 4.382070e+02 4.485041e+02 4.317318e+02 3.429631e+02 3.953357e+02 2.999741e+02 1.513965e+02 1.690879e+00 5.254637e+00 5.609409e+00 8.675534e+00 1.634318e+01 1.115528e+01 1.953091e+01 1.639764e+01 1.736864e+01 2.464374e+01 1.504785e+01 2.186545e+01 1.989869e+00 2.356185e-01 7.266580e-01 9.454512e-01 1.329297e+00 2.208944e+00 2.361082e+00 2.571346e+00 2.950537e+00 3.588669e+00 2.611915e+00 4.512496e+00 3.000447e+00 3.737411e-01
<GCONST> 1.802094e+02
<TRANSP> 5
 0.000000e+00 1.000000e+00 0.000000e+00 0.000000e+00 0.000000e+00
 0.000000e+00 6.965534e-01 3.034467e-01 0.000000e+00 0.000000e+00
 0.000000e+00 0.000000e+00 7.595888e-01 2.404111e-01 0.000000e+00
 0.000000e+00 0.000000e+00 0.000000e+00 7.919246e-01 2.080754e-01
 0.000000e+00 0.000000e+00 0.000000e+00 0.000000e+00 0.000000e+00
<ENDHMM>
~h "z"
<BEGINHMM>
<NUMSTATES> 5
<STATE> 2
<MEAN> 39
 -9.314324e+00 1.566677e+01 2.021472e+01 1.722104e+01 9.331454e+00 -5.112009e+00 -2.617233e+00 1.876258e+00 -6.844350e-01 2.349050e+00 -8.752074e+00 6.216276e+00 9.438946e+01 -3.059499e+00 5.369946e+00 -6.250986e-01 2.657256e+00 2.035785e+00 9.713070e-01 5.319011e-01 7.124257e-01 4.692304e-01 -1.887779e-01 -4.779102e-02 2.216156e-01 3.046144e+00 -8.733299e-01 -7.523456e-02 -7.676685e-01 -3.223625e-01 -1.943233e-01 2.254180e-01 4.588692e-02 1.622099e-01 -2.238806e-01 2.760771e-01 3.383924e-01 -1.536262e-01 5.189935e-02
<VARIANCE> 39
 3.361812e+02 2.707814e+02 3.193374e+02 3.408845e+02 3.661311e+02 3.220090e+02 3.197309e+02 2.842075e+02 2.558757e+02 2.768064e+02 2.859566e+02 3.489906e+02 6.847933e+02 4.760283e+01 2.452065e+01 3.634372e+01 3.112188e+01 2.562423e+01 3.172221e+01 2.733024e+01 2.709896e+01 2.341155e+01 2.463668e+01 2.359654e+01 2.105371e+01 3.826938e+01 4.548018e+00 4.133340e+00 4.759867e+00 4.152487e+00 4.259974e+00 4.626773e+00 4.586282e+00 4.629436e+00 3.823455e+00 4.460591e+00 4.079742e+00 4.045733e+00 3.784515e+00
<GCONST> 2.095338e+02
<STATE> 3
<MEAN> 39
 -3.329481e+01 3.193520e+01 8.971691e+00 2.491272e+01 1.288592e+01 4.432999e+00 2.362362e+00 7.016244e+00 -1.338480e+00 5.571748e+00 -4.076635e+00 6.432777e+00 1.089191e+02 -3.323620e+00 -8.757834e-02 -1.373904e+00 -6.237459e-01 -2.534679e-01 5.716153e-01 5.507441e-01 2.791916e-01 -3.978334e-01 3.254487e-01 4.675304e-01 9.439822e-03 1.084257e+00 1.727291e+00 -1.123144e+00 1.264658e+00 -4.936817e-01 -7.302061e-01 -7.485233e-01 -2.968633e-01 -7.294520e-01 -3.028153e-01 -3.149800e-01 -2.676098e-01 8.964349e-02 3.995419e-01
<VARIANCE> 39
 2.288644e+02 1.926212e+02 2.762783e+02 3.898270e+02 4.212957e+02 3.458578e+02 2.504593e+02 2.220675e+02 1.584928e+02 1.616251e+02 2.463006e+02 1.839653e+02 1.722195e+02 1.741288e+01 1.518044e+01 1.601201e+01 1.412233e+01 1.532533e+01 1.744370e+01 1.518982e+01 1.631415e+01 1.315507e+01 1.356783e+01 1.124451e+01 1.203235e+01 8.229554e+00 2.652410e+00 3.480633e+00 2.955066e+00 2.972377e+00 3.127158e+00 3.823760e+00 3.474222e+00 3.561763e+00 2.839328e+00 2.829398e+00 2.426178e+00 2.492111e+00 1.529676e+00
<GCONST> 1.907947e+02
<STATE> 4
<MEAN> 39
 -2.682619e+01 2.317940e+01 1.993276e+01 1.724269e+01 6.256168e+00 -5.710405e+00 -2.112723e+00 -1.555950e+00 -6.707881e+00 1.381433e+00 -7.291511e+00 5.721372e+00 1.222330e+02 8.249809e+00 -5.036703e+00 8.367570e+00 -1.521425e+00 -3.156198e+00 -3.706177e+00 -2.515971e+00 -3.041088e+00 -1.748220e+00 -1.454719e+00 -1.160802e+00 5.770434e-01 4.731130e+00 1.307723e+00 -1.740983e+00 1.439069e+00 -8.347136e-01 -1.701485e-01 -2.120318e-01 -3.934919e-01 2.237117e-01 -1.385846e-01 2.453626e-01 4.053450e-02 1.914400e-01 7.411936e-02
<VARIANCE> 39
 3.144195e+02 1.724473e+02 3.419070e+02 3.030705e+02 4.799203e+02 3.066197e+02 2.818681e+02 1.991915e+02 1.494035e+02 1.701906e+02 2.945907e+02 2.420890e+02 1.710597e+02 2.193875e+01 3.080766e+01 3.290892e+01 3.162696e+01 2.141101e+01 2.852809e+01 2.488062e+01 3.179049e+01 2.002584e+01 1.719806e+01 1.690864e+01 2.022973e+01 6.078869e+00 5.726616e+00 2.921188e+00 5.686221e+00 4.710070e+00 4.207202e+00 4.406794e+00 4.312239e+00 4.536323e+00 3.518826e+00 3.676727e+00 3.423513e+00 3.118815e+00 1.101042e+00
<GCONST> 2.004783e+02
<TRANSP> 5
 0.000000e+00 1.000000e+00 0.000000e+00 0.000000e+00 0.000000e+00
 0.000000e+00 7.262868e-01 2.737132e-01 0.000000e+00 0.000000e+00
 0.000000e+00 0.000000e+00 8.100841e-01 1.899159e-01 0.000000e+00
 0.000000e+00 0.000000e+00 0.000000e+00 7.412921e-01 2.587079e-01
 0.000000e+00 0.000000e+00 0.000000e+00 0.000000e+00 0.000000e+00
<ENDHMM>
~h "ah"
<BEGINHMM>
<NUMSTATES> 5
<STATE> 2
<MEAN> 39
 1.735100e+01 -1.971582e+01 1.771130e+01 -9.726001e+00 6.110708e+00 -9.496911e+00 -1.130002e+01 1.393056e+01 3.100331e+00 1.069208e+01 1.004190e+00 3.018558e+00 1.335043e+02 -1.970160e-01 6.354163e-01 2.674289e+00 6.585217e-01 -1.549205e+00 -2.356326e+00 2.184521e+00 1.836488e+00 -2.834502e-01 -5.169295e-01 -1.978812e+00 1.499565e+00 -2.337452e-02 6.461021e-02 1.272105e+00 5.072979e-01 1.303922e+00 1.181005e-01 1.249377e+00 1.377018e+00 -1.548063e+00 -8.699519e-01 -6.729555e-03 -2.722945e-01 2.875349e-01 -1.614251e+00
<VARIANCE> 39
 7.613483e+01 1.455402e+02 1.780919e+02 2.135668e+02 2.464235e+02 3.675546e+02 6.325832e+02 4.439342e+02 4.573684e+02 4.523415e+02 3.583257e+02 3.526841e+02 1.763434e+02 3.893616e+00 1.153458e+01 1.154436e+01 3.140900e+01 1.757994e+01 1.972764e+01 2.627872e+01 2.343160e+01 2.830259e+01 2.488774e+01 2.863268e+01 2.097073e+01 1.801872e+01 9.805723e-01 1.742054e+00 1.710372e+00 3.920397e+00 3.172838e+00 4.694529e+00 6.541278e+00 5.689410e+00 5.069931e+00 4.145024e+00 3.976740e+00 3.348967e+00 2.092653e+00
<GCONST> 1.976001e+02
<STATE> 3
<MEAN> 39
 1.767007e+01 -1.022094e+01 2.817421e+01 3.186330e+00 4.584203e+00 -1.083038e+01 4.420133e+00 1.026787e+01 -1.992075e+00 7.932484e+00 -8.490651e+00 1.048899e+01 1.231479e+02 7.970872e-01 5.215330e+00 4.538980e+00 7.232502e+00 -3.048200e+00 3.565606e+00 6.475797e+00 -7.775157e+00 -1.541485e+00 -7.183644e-01 -2.159561e+00 2.514539e+00 -6.211163e+00 6.287977e-02 1.583215e-01 -5.437101e-01 -2.079788e-01 -2.795269e-01 1.585572e+00 -1.496005e-01 -1.165914e+00 6.405820e-01 -6.810006e-02 7.737129e-01 -2.661621e-01 -1.629505e-01
<VARIANCE> 39
 5.726906e+01 1.834084e+02 2.118949e+02 3.485176e+02 2.738395e+02 4.088922e+02 6.079522e+02 5.181974e+02 4.252188e+02 5.412394e+02 3.963699e+02 4.014071e+02 1.911037e+02 5.278133e+00 8.878560e+00 1.575369e+01 2.082452e+01 2.303647e+01 4.404388e+01 4.995900e+01 3.959238e+01 3.923162e+01 3.038515e+01 3.511020e+01 2.689276e+01 4.092651e+00 5.817101e-01 1.565231e+00 2.526127e+00 4.371859e+00 2.976149e+00 4.863142e+00 5.411928e+00 7.056422e+00 4.476077e+00 3.961947e+00 3.641563e+00 3.237790e+00 1.504189e+00
<GCONST> 1.998791e+02
<STATE> 4
<MEAN> 39
 1.932048e+01 2.735894e+00 3.569689e+01 1.697490e+01 -5.151443e+00 7.765825e+00 1.628141e+01 -9.345109e+00 -1.819822e+00 5.078654e+00 -7.108637e+00 1.399471e+01 1.080309e+02 -1.663625e-01 2.249342e+00 6.090940e-01 1.802177e+00 -4.486210e-01 2.253113e+00 1.640194e+00 -1.492603e+00 1.742093e-01 -3.295470e-01 -2.981808e-01 4.082815e-02 -2.692863e+00 -4.295283e-01 -4.716863e-01 -8.301064e-01 -7.469774e-01 8.418024e-01 -6.672937e-01 -8.846148e-01 1.592577e+00 1.313801e-01 7.977767e-02 1.625160e-01 -5.550800e-01 3.525301e-01
<VARIANCE> 39
 5.038924e+01 1.914493e+02 1.386812e+02 2.603747e+02 2.554569e+02 4.021734e+02 4.879442e+02 4.092314e+02 5.173136e+02 5.704708e+02 5.347651e+02 4.866307e+02 1.823364e+02 2.676880e+00 6.663201e+00 7.998857e+00 1.052573e+01 1.147016e+01 1.863081e+01 1.961267e+01 2.460391e+01 1.492986e+01 1.282619e+01 1.491398e+01 1.301112e+01 3.946672e+00 6.030282e-01 1.363523e+00 1.712614e+00 2.847276e+00 2.343570e+00 3.576246e+00 4.420291e+00 4.245361e+00 3.683245e+00 3.033387e+00 3.539742e+00 3.132844e+00 9.890935e-01
<GCONST> 1.873696e+02
<TRANSP> 5
 0.000000e+00 1.000000e+00 0.000000e+00 0.000000e+00 0.000000e+00
 0.000000e+00 7.139660e-01 2.860340e-01 0.000000e+00 0.000000e+00
 0.000000e+00 0.000000e+00 5.602472e-01 4.397528e-01 0.000000e+00
 0.000000e+00 0.000000e+00 0.000000e+00 7.532481e-01 2.467519e-01
 0.000000e+00 0.000000e+00 0.000000e+00 0.000000e+00 0.000000e+00
<ENDHMM>
~h "ao"
<BEGINHMM>
<NUMSTATES> 5
<STATE> 2
<MEAN> 39
 3.442442e+01 1.372230e+01 1.344496e+01 -3.915728e+01 -2.030928e+01 1.442234e-01 -5.324415e-01 8.230426e+00 -1.429084e+01 5.633611e+00 -8.872684e+00 1.687695e+00 1.198363e+02 7.819280e+00 3.890220e+00 3.509771e+00 -9.281325e+00 -5.386897e+00 -1.389966e+00 -8.618526e-01 2.289932e+00 -1.625001e+00 1.292772e+00 -1.339294e+00 -9.396703e-01 3.871889e+00 -4.303692e+00 -2.140880e+00 -1.109050e+00 2.496030e+00 9.543369e-01 -2.249375e-01 -7.922145e-01 -5.297124e-01 5.049205e-01 1.485265e-01 4.294317e-01 3.812722e-02 -1.009670e+00
<VARIANCE> 39
 5.623724e+01 1.452907e+02 1.957785e+02 3.609327e+02 4.436360e+02 3.085444e+02 3.707832e+02 3.672016e+02 3.420527e+02 2.894621e+02 2.559108e+02 3.546767e+02 1.479314e+02 3.783512e+01 2.224930e+01 2.018110e+01 3.671628e+01 3.354745e+01 2.330994e+01 3.301498e+01 2.887431e+01 2.993846e+01 2.829261e+01 2.378719e+01 3.048391e+01 1.093025e+01 1.503751e+00 2.212049e+00 2.263789e+00 4.769001e+00 4.070011e+00 2.929560e+00 3.709691e+00 3.732251e+00 3.806699e+00 3.010005e+00 3.119159e+00 3.816161e+00 1.939650e+00
<GCONST> 2.002658e+02
<STATE> 3
<MEAN> 39
 3.554287e+01 1.668128e+01 1.674505e+01 -4.620344e+01 -2.704734e+01 -3.347974e+00 -3.972735e+00 1.045138e+01 -1.190520e+01 1.007458e+01 -8.976849e+00 -1.837479e-01 1.212049e+02 1.519432e-01 -3.905363e-01 -7.554129e-01 4.457921e-01 -3.432865e-01 -4.676200e-01 6.326759e-01 4.523248e-01 -5.726439e-01 -2.575277e-02 2.651991e-01 1.711808e-01 2.652699e-02 -2.766356e-01 -7.004036e-01 -7.609861e-01 7.879585e-01 7.245801e-01 1.583087e-01 3.613098e-01 -1.114327e-01 -3.906566e-01 -2.879370e-01 3.399432e-01 3.739672e-01 -3.395180e-04
<VARIANCE> 39
 5.419510e+01 1.726053e+02 2.573448e+02 3.375936e+02 5.022148e+02 3.578237e+02 5.246249e+02 3.791855e+02 3.824484e+02 3.708054e+02 3.051516e+02 3.702035e+02 1.408706e+02 9.190793e-01 7.150819e+00 6.814948e+00 5.571510e+00 6.194511e+00 7.480804e+00 1.128765e+01 9.768058e+00 1.070103e+01 9.229051e+00 9.100862e+00 8.530822e+00 2.741540e+00 7.332097e-01 8.085905e-01 9.985285e-01 2.029693e+00 1.471557e+00 1.297006e+00 1.748073e+00 1.850720e+00 1.893237e+00 1.991234e+00 2.013104e+00 1.998392e+00 6.353132e-01
<GCONST> 1.732191e+02
<STATE> 4
<MEAN> 39
 3.763077e+01 -3.153388e+00 -8.290935e+00 -3.081734e+01 -6.688068e+00 -7.530457e+00 -1.678268e+00 1.315809e+01 -2.391093e+01 5.675886e+00 2.378865e+00 1.164699e+01 1.275454e+02 1.287299e-01 -3.726487e+00 -4.337602e+00 3.845336e+00 6.336109e+00 -1.335641e+00 -2.438908e+00 -7.501916e-01 2.812993e-01 5.817938e-01 2.171032e+00 1.697265e+00 7.905599e-01 -1.622143e-01 3.173868e-01 5.883123e-01 4.849520e-01 3.166724e-01 -4.060457e-01 -9.371778e-01 -1.234583e-01 1.278044e+00 4.012178e-01 -4.251616e-01 -6.488032e-01 -4.018071e-01
<VARIANCE> 39
 6.019872e+01 2.395152e+02 3.168724e+02 3.048815e+02 6.348082e+02 4.686680e+02 8.448003e+02 6.363856e+02 4.900869e+02 7.319225e+02 4.123912e+02 3.731650e+02 1.651052e+02 1.690521e+00 7.446941e+00 1.130050e+01 1.447638e+01 1.679353e+01 2.351332e+01 2.546873e+01 2.759804e+01 3.044683e+01 3.622493e+01 2.843624e+01 3.655980e+01 2.997852e+00 2.820749e-01 9.748771e-01 1.749462e+00 1.634120e+00 3.072603e+00 3.030828e+00 3.413912e+00 4.660733e+00 3.947675e+00 5.743757e+00 4.946203e+00 5.299800e+00 3.201956e-01
<GCONST> 1.935916e+02
<TRANSP> 5
 0.000000e+00 1.000000e+00 0.000000e+00 0.000000e+00 0.000000e+00
 0.000000e+00 6.162959e-01 3.837042e-01 0.000000e+00 0.000000e+00
 0.000000e+00 0.000000e+00 8.682718e-01 1.317282e-01 0.000000e+00
 0.000000e+00 0.000000e+00 0.000000e+00 8.393185e-01 1.606816e-01
 0.000000e+00 0.000000e+00 0.000000e+00 0.000000e+00 0.000000e+00
<ENDHMM>
~h "ay"
<BEGINHMM>
<NUMSTATES> 5
<STATE> 2
<MEAN> 39
 1.773708e+01 -3.210142e+01 -3.635808e-01 -2.354151e+01 9.886555e+00 5.835699e+00 -4.724616e+00 1.422372e+01 7.592555e+00 1.153571e+01 5.578687e-01 -9.141315e-01 1.458723e+02 -4.580541e-01 -1.953249e+00 -2.364320e+00 -1.648198e-01 2.230068e+00 2.362221e+00 -8.515767e-01 -4.777448e-02 1.058528e+00 -6.948662e-01 3.042130e-01 -1.381048e+00 1.019234e+00 -1.714037e-01 1.111775e+00 9.042968e-01 1.200490e+00 -3.018557e-01 -2.339818e-01 1.310410e-01 -6.903918e-01 -4.816699e-01 -1.029094e-01 -1.461133e-01 1.610820e-01 -1.337247e+00
<VARIANCE> 39
 8.014752e+01 1.587052e+02 2.890588e+02 3.685645e+02 4.286671e+02 3.724917e+02 4.359337e+02 4.436320e+02 4.026656e+02 4.305831e+02 4.558334e+02 3.675395e+02 1.173190e+02 2.603165e+00 5.492167e+00 8.781580e+00 1.030364e+01 1.123618e+01 1.177933e+01 1.699539e+01 1.269183e+01 1.438135e+01 1.371766e+01 1.550642e+01 1.372049e+01 2.833654e+00 1.162753e+00 1.132641e+00 1.213458e+00 2.525405e+00 2.095172e+00 2.499052e+00 3.552167e+00 3.664897e+00 2.945713e+00 2.524050e+00 2.668318e+00 1.987988e+00 1.248985e+00
<GCONST> 1.843400e+02
<STATE> 3
<MEAN> 39
 1.638410e+01 -3.573929e+01 -2.817958e+00 -2.169864e+01 1.377688e+01 1.020341e+01 -7.046329e+00 1.297919e+01 9.131223e+00 1.032499e+01 -7.454374e-01 -4.457718e+00 1.458139e+02 -2.029659e-01 -3.090730e-01 5.830542e-01 9.369597e-01 -2.227258e-01 -9.168263e-01 -9.604305e-02 6.799352e-01 3.515532e-01 -4.361897e-01 -4.441129e-01 3.097595e-02 -1.574876e-01 -1.506007e-02 1.378188e-01 3.549332e-01 1.090413e-01 -4.097938e-01 -4.513559e-01 2.019205e-01 1.825185e-01 -6.177753e-02 -5.081475e-02 -5.351266e-02 2.330916e-01 -6.596603e-02
<VARIANCE> 39
 7.322800e+01 1.639835e+02 2.254958e+02 3.781713e+02 4.765146e+02 3.495083e+02 3.663912e+02 4.292452e+02 3.657912e+02 3.580442e+02 4.119388e+02 3.909109e+02 1.472603e+02 7.835155e-01 1.545552e+00 2.595451e+00 3.344846e+00 4.361446e+00 5.860990e+00 5.212174e+00 4.516969e+00 4.524344e+00 4.698684e+00 4.979570e+00 4.900033e+00 6.978047e-01 1.263366e-01 2.370695e-01 3.377509e-01 4.321021e-01 5.594946e-01 6.246768e-01 7.961940e-01 6.738919e-01 7.222921e-01 7.474475e-01 7.538042e-01 7.418880e-01 9.420282e-02
<GCONST> 1.491549e+02
<STATE> 4
<MEAN> 39
 1.271551e+01 -3.285778e+01 1.552771e+01 -1.258883e+01 -9.380882e-01 -7.097250e+00 1.473673e+00 2.327211e+01 7.020868e+00 3.376886e+00 -2.392694e+00 3.853982e+00 1.421389e+02 -5.803224e-01 2.167224e+00 4.246104e+00 1.272170e-01 -3.711432e+00 -2.342528e+00 2.380577e+00 -1.129839e-01 -1.870606e+00 3.950918e-01 7.304104e-01 1.426558e+00 -1.224330e+00 1.969254e-01 6.851333e-01 1.497095e-01 -1.486252e-02 2.704371e-01 3.761309e-01 -1.207296e-01 -9.284695e-01 -3.605874e-01 5.015599e-01 9.373509e-02 -1.319122e-01 -5.475271e-01
<VARIANCE> 39
 7.547464e+01 1.919740e+02 3.756361e+02 2.584035e+02 4.324578e+02 2.699443e+02 5.303220e+02 3.254431e+02 3.793352e+02 3.606071e+02 3.326178e+02 3.401704e+02 1.912556e+02 1.662538e+00 4.711957e+00 6.177222e+00 1.009127e+01 1.146376e+01 1.462049e+01 1.795087e+01 1.668188e+01 1.472548e+01 1.420278e+01 1.233695e+01 1.278372e+01 1.836738e+00 2.867969e-01 5.509738e-01 1.055335e+00 1.529460e+00 1.951938e+00 1.548394e+00 2.384488e+00 2.054586e+00 2.180297e+00 2.006371e+00 2.061014e+00 1.969758e+00 3.368481e-01
<GCONST> 1.763281e+02
<TRANSP> 5
 0.000000e+00 1.000000e+00 0.000000e+00 0.000000e+00 0.000000e+00
 0.000000e+00 7.035514e-01 2.964486e-01 0.000000e+00 0.000000e+00
 0.000000e+00 0.000000e+00 8.987077e-01 1.012923e-01 0.000000e+00
 0.000000e+00 0.000000e+00 0.000000e+00 8.042706e-01 1.957293e-01
 0.000000e+00 0.000000e+00 0.000000e+00 0.000000e+00 0.000000e+00
<ENDHMM>
~h "eh"
<BEGINHMM>
<NUMSTATES> 5
<STATE> 2
<MEAN> 39
 -5.082325e+01 6.703870e+00 -1.291263e+01 -1.296625e+00 -7.338286e+00 -7.197220e+00 -3.518270e+00 1.936473e+00 -5.648604e+00 1.684780e+00 -4.835497e+00 7.390481e+00 1.113982e+02 9.056234e+00 -5.116051e-01 6.184903e+00 5.415842e-01 -2.340769e-01 -2.004804e+00 -6.526528e-01 -5.933536e-01 1.552442e+00 2.818587e-01 -7.338783e-01 1.157357e+00 2.263033e+00 4.404190e+00 -1.013920e+00 2.485689e+00 -1.593607e-01 1.823779e-01 -1.099535e+00 -9.112352e-01 -2.585146e-01 8.230461e-01 6.781588e-01 -1.196151e-01 3.209449e-01 1.782172e+00
<VARIANCE> 39
 1.305902e+02 1.070899e+02 1.309542e+02 2.075063e+02 2.604321e+02 2.751161e+02 1.402980e+02 1.413098e+02 1.544340e+02 1.272852e+02 1.718360e+02 1.248623e+02 1.171918e+02 3.295541e+01 1.259335e+01 1.791854e+01 1.295107e+01 1.104341e+01 1.543551e+01 1.406421e+01 1.284183e+01 1.420535e+01 1.891358e+01 1.498274e+01 1.558410e+01 9.972730e+00 1.653808e+00 2.063506e+00 2.156145e+00 2.632986e+00 2.766921e+00 4.547384e+00 5.059056e+00 2.834213e+00 4.531668e+00 4.291417e+00 3.252977e+00 3.908500e+00 1.345296e+00
<GCONST> 1.862539e+02
<STATE> 3
<MEAN> 39
 -1.577233e+01 8.290119e+00 1.054709e+01 5.742677e+00 -4.542135e+00 -1.201247e+01 -6.476892e+00 -6.475338e-01 -3.570591e-02 4.818631e+00 -8.017078e+00 9.205819e+00 1.162456e+02 1.766129e+01 -5.046529e+00 9.765637e+00 -1.759962e+00 -2.227728e-01 -4.561805e+00 -3.942755e+00 -1.114551e+00 3.073560e+00 2.690406e+00 -3.281732e-01 1.362443e+00 8.458177e+00 -9.179631e-01 -2.123429e+00 -1.251704e+00 -2.036701e+00 -5.408984e-01 -3.272139e-01 -1.492526e-01 8.798071e-01 5.193146e-01 6.649029e-01 6.706763e-01 -2.301106e-01 1.767378e+00
<VARIANCE> 39
 4.347550e+02 1.036106e+02 1.732184e+02 1.682415e+02 2.993925e+02 2.109112e+02 1.787236e+02 1.722692e+02 1.762924e+02 2.310909e+02 2.347518e+02 2.273136e+02 1.712623e+02 1.225705e+01 1.755152e+01 1.919580e+01 2.648093e+01 2.348721e+01 4.637820e+01 5.813242e+01 2.194631e+01 4.374336e+01 4.236249e+01 2.741311e+01 4.197293e+01 9.456934e+00 6.363166e+00 2.073939e+00 3.513876e+00 2.085116e+00 2.845739e+00 3.347570e+00 6.111032e+00 2.708682e+00 3.660010e+00 3.265415e+00 3.097004e+00 3.013794e+00 1.741247e+00
<GCONST> 1.981712e+02
<STATE> 4
<MEAN> 39
 1.244009e+01 -1.517048e+01 2.320755e+01 -1.096852e+01 -9.370352e+00 -2.516663e+01 -1.752266e+01 -4.621507e-02 7.345371e+00 1.267220e+01 -5.422812e+00 1.273391e+01 1.442971e+02 5.281253e+00 -7.240323e+00 1.406399e+00 -5.898045e+00 -1.794667e+00 -2.405611e+00 -2.668767e-03 3.022355e+00 3.668837e+00 2.630473e+00 1.611805e+00 2.268763e-02 7.217412e+00 -4.421877e+00 6.620266e-01 -2.864254e+00 5.554202e-03 9.098405e-02 1.583488e+00 1.806095e+00 1.015520e+00 -4.083792e-01 -4.386850e-01 2.121799e-01 -8.612376e-01 -1.943320e+00
<VARIANCE> 39
 5.323746e+01 1.414669e+02 1.778672e+02 2.347246e+02 3.063679e+02 2.505689e+02 6.976581e+02 2.774365e+02 3.495933e+02 4.778237e+02 4.018501e+02 5.299581e+02 1.209507e+02 3.511319e+01 1.095441e+01 2.224732e+01 1.729536e+01 1.940918e+01 2.574971e+01 6.131501e+01 1.719905e+01 2.443846e+01 2.167902e+01 1.976941e+01 2.025191e+01 1.242427e+01 1.709141e+00 2.474265e+00 2.297078e+00 3.244007e+00 2.712880e+00 4.793168e+00 5.141782e+00 2.833945e+00 4.986314e+00 3.996161e+00 3.626413e+00 4.862063e+00 1.139327e+00
<GCONST> 1.983070e+02
<TRANSP> 5
 0.000000e+00 1.000000e+00 0.000000e+00 0.000000e+00 0.000000e+00
 0.000000e+00 5.708715e-01 4.291285e-01 0.000000e+00 0.000000e+00
 0.000000e+00 0.000000e+00 4.160149e-01 5.839850e-01 0.000000e+00
 0.000000e+00 0.000000e+00 0.000000e+00 6.105055e-01 3.894945e-01
 0.000000e+00 0.000000e+00 0.000000e+00 0.000000e+00 0.000000e+00
<ENDHMM>
~h "ey"
<BEGINHMM>
<NUMSTATES> 5
<STATE> 2
<MEAN> 39
 -8.114131e+00 -7.363724e+00 1.855426e+01 -1.018931e+01 -1.620266e+01 -1.716496e+01 -4.782573e+00 -2.777122e+00 -2.193161e+00 8.969131e+00 -1.464105e+00 6.769966e+00 9.530960e+01 1.735095e+00 -2.481480e+00 4.097776e+00 -2.276527e+00 -2.392177e+00 -1.413508e+00 1.180451e+00 1.181267e+00 8.471381e-01 1.057609e+00 3.257169e-01 5.345932e-01 7.206964e+00 2.587635e-01 5.488303e-02 3.583812e-01 -1.204285e-01 1.742884e-01 4.025787e-01 1.845098e-01 7.452496e-02 -1.897413e-01 1.909308e-03 1.107459e-01 6.075241e-02 8.593380e-01
<VARIANCE> 39
 3.599577e+02 2.537739e+02 5.066188e+02 4.509010e+02 3.524370e+02 4.011478e+02 5.365746e+02 4.902658e+02 4.707940e+02 3.719854e+02 2.988096e+02 2.892700e+02 1.249410e+03 3.630385e+01 2.097268e+01 4.316203e+01 3.853498e+01 3.223106e+01 3.870791e+01 4.961792e+01 4.215784e+01 4.183821e+01 3.379552e+01 3.010330e+01 2.817893e+01 1.370391e+02 5.008488e+00 4.041421e+00 6.296690e+00 5.922664e+00 6.061956e+00 6.836058e+00 8.658772e+00 7.821606e+00 7.336357e+00 6.238714e+00 5.762490e+00 5.398620e+00 1.944733e+01
<GCONST> 2.228880e+02
<STATE> 3
<MEAN> 39
 2.325482e+00 -1.320627e+01 5.361900e+01 -2.266553e+01 -2.161467e+01 -1.439596e+01 -7.093391e-01 -2.687640e+00 -6.554897e+00 1.102079e+01 -1.191341e+00 9.259356e+00 1.410414e+02 -4.152457e-01 1.460469e+00 2.607411e+00 1.610697e-01 7.393398e-01 1.266102e+00 -7.185344e-01 -1.791323e+00 -1.138424e+00 -6.920864e-01 -7.427558e-01 -2.428858e-01 -1.401356e-01 -1.864849e-01 3.219794e-01 -1.635150e-01 4.107599e-01 3.748032e-01 1.721961e-01 -2.536485e-02 -1.754287e-01 -5.961136e-02 -1.820171e-01 -2.541164e-01 -1.274082e-01 -9.682034e-01
<VARIANCE> 39
 6.774250e+01 2.291732e+02 4.068168e+02 4.374207e+02 2.212175e+02 3.071256e+02 5.227333e+02 4.081986e+02 6.646730e+02 2.901183e+02 2.113009e+02 2.104228e+02 1.493524e+02 2.993259e+00 5.313305e+00 6.023239e+00 5.593119e+00 8.409239e+00 8.363411e+00 1.125908e+01 1.036864e+01 1.059117e+01 9.662141e+00 8.590293e+00 9.758780e+00 9.689983e+00 6.531925e-01 8.087404e-01 1.085897e+00 1.125575e+00 1.149680e+00 1.370698e+00 1.698939e+00 1.589355e+00 1.574845e+00 1.480467e+00 1.289454e+00 1.290104e+00 1.917840e+00
<GCONST> 1.743346e+02
<STATE> 4
<MEAN> 39
 -3.581533e+00 7.114124e+00 7.146571e+01 -8.921538e+00 -7.437424e+00 -1.883466e-01 -3.804726e+00 -2.031149e+01 -1.452765e+01 6.694483e-01 -1.357722e+01 5.302291e+00 1.175730e+02 -3.147287e-01 2.680900e+00 -3.559596e+00 5.678524e+00 1.667941e+00 1.234162e+00 1.290134e+00 9.494796e-01 2.461687e-01 -9.514579e-01 -1.775022e-01 -1.050421e+00 -8.493295e+00 -2.353034e-01 1.501195e-02 -2.690361e+00 6.311384e-01 6.037607e-02 -2.879926e-01 5.167150e-02 1.071741e+00 7.179601e-01 1.909872e-01 8.857143e-01 1.547134e-02 -1.562960e+00
<VARIANCE> 39
 7.196613e+01 2.421239e+02 2.142194e+02 5.443984e+02 2.745316e+02 3.231419e+02 3.160719e+02 5.792582e+02 6.652618e+02 3.869354e+02 3.353949e+02 4.442907e+02 3.494946e+02 6.844312e+00 1.308626e+01 4.776645e+01 2.512309e+01 1.991738e+01 1.836047e+01 2.275500e+01 2.958886e+01 3.268078e+01 2.197915e+01 2.253825e+01 2.279602e+01 2.945374e+01 1.542245e+00 2.329256e+00 4.256596e+00 4.939982e+00 3.449090e+00 3.269886e+00 3.892977e+00 4.927114e+00 4.958178e+00 3.924044e+00 3.775141e+00 4.079715e+00 3.176249e+00
<GCONST> 2.036075e+02
<TRANSP> 5
 0.000000e+00 1.000000e+00 0.000000e+00 0.000000e+00 0.000000e+00
 0.000000e+00 8.224033e-01 1.775967e-01 0.000000e+00 0.000000e+00
 0.000000e+00 0.000000e+00 9.137438e-01 8.625616e-02 0.000000e+00
 0.000000e+00 0.000000e+00 0.000000e+00 8.152326e-01 1.847674e-01
 0.000000e+00 0.000000e+00 0.000000e+00 0.000000e+00 0.000000e+00
<ENDHMM>
~h "hh"
<BEGINHMM>
<NUMSTATES> 5
<STATE> 2
<MEAN> 39
 -3.884252e+00 2.524071e+00 3.193365e+00 -2.442101e+00 1.448546e+00 4.553639e+00 1.170878e+00 6.187954e-01 -5.403492e+00 4.368977e+00 -2.335706e+00 2.654142e+00 8.089985e+01 3.124007e+00 2.703065e+00 1.252795e+00 1.240434e-01 -6.119679e-01 1.321305e+00 1.660285e+00 6.131611e-01 3.062389e-01 5.794075e-01 1.026844e-01 -3.412193e-01 -6.713229e-01 8.098874e-01 5.577358e-01 7.245607e-01 -1.358558e-01 -6.653352e-01 -4.902685e-01 -1.432728e-02 1.148946e-01 7.686862e-02 2.447626e-01 -6.710350e-02 -2.946639e-02 6.947446e-01
<VARIANCE> 39
 6.113805e+02 2.902154e+02 2.270405e+02 2.544834e+02 2.896748e+02 3.022405e+02 3.389548e+02 2.912464e+02 3.212918e+02 2.395586e+02 2.091419e+02 2.059330e+02 6.542247e+02 2.978838e+01 2.709258e+01 2.483123e+01 2.606910e+01 2.743208e+01 3.230112e+01 2.902484e+01 2.755048e+01 2.475051e+01 2.143850e+01 1.960428e+01 1.653190e+01 2.369267e+01 4.269767e+00 4.531098e+00 3.725790e+00 4.827221e+00 5.486739e+00 6.052372e+00 5.863026e+00 5.345345e+00 5.078993e+00 4.538669e+00 3.961578e+00 3.403781e+00 4.364475e+00
<GCONST> 2.078830e+02
<STATE> 3
<MEAN> 39
 2.047986e+01 2.330246e+01 1.734464e+01 7.791438e-01 -2.945324e+00 7.683554e+00 8.986948e+00 3.651280e+00 -3.399682e+00 7.706218e+00 -3.457521e+00 1.603532e+00 8.760081e+01 6.564030e+00 2.385103e+00 2.505107e+00 -3.059561e+00 -3.786205e+00 -1.895475e+00 -6.315617e-01 3.131481e-02 -1.401488e-01 1.607810e+00 -2.269924e-01 -4.818705e-01 5.295303e+00 -5.807630e-01 -1.605769e+00 -5.239199e-01 -1.607709e+00 -5.639089e-01 -9.255383e-01 -1.066706e+00 -2.852906e-01 -3.186604e-01 1.813567e-01 1.856196e-01 2.144626e-01 9.648454e-01
<VARIANCE> 39
 2.445981e+02 2.059184e+02 1.292279e+02 2.988513e+02 2.575540e+02 2.394005e+02 2.367317e+02 2.250143e+02 3.172202e+02 2.111815e+02 1.882177e+02 1.969865e+02 3.833194e+02 3.857668e+01 2.082338e+01 1.786888e+01 3.150393e+01 2.242794e+01 2.049295e+01 2.398369e+01 2.391751e+01 2.758330e+01 2.028815e+01 1.836791e+01 1.861027e+01 3.908274e+01 4.219987e+00 3.431114e+00 2.803235e+00 5.440996e+00 3.823164e+00 3.604943e+00 3.991958e+00 3.946983e+00 3.852612e+00 3.351695e+00 3.051157e+00 2.949500e+00 2.941662e+00
<GCONST> 2.005041e+02
<STATE> 4
<MEAN> 39
 3.261945e+01 2.062413e+01 2.240559e+01 -1.399839e+01 -1.709021e+01 -3.929822e-01 -3.204044e-01 1.616851e+00 -7.478627e+00 1.239751e+01 -2.658381e+00 7.240353e-01 1.057809e+02 1.075608e+00 -1.206742e+00 3.637656e-01 -4.378775e+00 -2.388074e+00 -1.838170e+00 -1.793723e+00 1.094233e+00 2.668305e-01 1.196306e+00 1.104926e+00 2.841432e-01 3.342931e+00 -8.400800e-01 -9.711958e-01 -8.881634e-01 -6.957709e-01 7.998779e-01 6.188380e-01 4.498309e-01 9.358712e-01 1.674625e-01 -3.653556e-01 2.144347e-01 4.024527e-02 1.551464e-01
<VARIANCE> 39
 5.018283e+01 2.134068e+02 1.917374e+02 2.437396e+02 2.878812e+02 2.911680e+02 3.792321e+02 3.100088e+02 4.047298e+02 3.202395e+02 2.787449e+02 2.976477e+02 1.460183e+02 6.228051e+00 1.304920e+01 1.066668e+01 2.658067e+01 1.561657e+01 1.539763e+01 2.051037e+01 1.959018e+01 1.811238e+01 1.707589e+01 1.574731e+01 1.447947e+01 1.365198e+01 2.113001e+00 2.305490e+00 2.016395e+00 2.898914e+00 3.220707e+00 3.226848e+00 3.509235e+00 3.943417e+00 3.617358e+00 3.201970e+00 3.006952e+00 3.027999e+00 1.938405e+00
<GCONST> 1.917407e+02
<TRANSP> 5
 0.000000e+00 1.000000e+00 0.000000e+00 0.000000e+00 0.000000e+00
 0.000000e+00 6.533391e-01 3.466609e-01 0.000000e+00 0.000000e+00
 0.000000e+00 0.000000e+00 5.406462e-01 4.593538e-01 0.000000e+00
 0.000000e+00 0.000000e+00 0.000000e+00 7.327758e-01 2.672242e-01
 0.000000e+00 0.000000e+00 0.000000e+00 0.000000e+00 0.000000e+00
<ENDHMM>
~h "ih"
<BEGINHMM>
<NUMSTATES> 5
<STATE> 2
<MEAN> 39
 -4.205202e+01 9.729376e+00 -2.722933e+00 2.815087e+00 -7.269899e+00 -8.006246e+00 -2.082110e+00 1.561185e+00 -5.126041e+00 1.714869e+00 -4.961719e+00 7.882640e+00 1.134242e+02 1.261057e+01 -1.075186e+00 1.052829e+01 1.848699e+00 2.655269e-01 -2.928039e+00 -1.818698e+00 -1.514295e+00 3.917608e-01 2.672657e-01 -9.711673e-01 8.436494e-01 4.293148e+00 2.661367e+00 -1.589823e+00 2.138413e+00 -3.182566e-01 -1.270844e-01 -1.249380e+00 -1.042088e+00 -4.383465e-01 -3.044731e-01 3.164653e-01 -5.700528e-02 1.603809e-01 1.709015e+00
<VARIANCE> 39
 2.845304e+02 1.119061e+02 2.630372e+02 2.234551e+02 2.937834e+02 2.832535e+02 1.531653e+02 1.444988e+02 1.664841e+02 1.517786e+02 2.111691e+02 1.582383e+02 1.190552e+02 3.056843e+01 1.977032e+01 2.466319e+01 1.819030e+01 1.518131e+01 2.710589e+01 2.988199e+01 1.682647e+01 1.942880e+01 2.003963e+01 1.727102e+01 2.598221e+01 1.411656e+01 5.805468e+00 2.378204e+00 4.855736e+00 3.712778e+00 3.200864e+00 4.464671e+00 5.692228e+00 3.637873e+00 4.857466e+00 3.520943e+00 3.204632e+00 4.069034e+00 1.132638e+00
<GCONST> 1.959025e+02
<STATE> 3
<MEAN> 39
 6.066853e+00 -9.770080e+00 3.684546e+01 -4.987917e+00 -1.420587e+01 -2.638127e+01 -9.283935e+00 -6.248758e+00 -3.153150e+00 6.253515e+00 -3.655775e+00 1.374290e+01 1.392741e+02 3.640720e+00 -3.706018e+00 4.138438e+00 -1.892919e+00 -1.738392e+00 -2.793750e+00 8.816109e-02 -4.124263e-01 -6.975098e-01 1.119325e+00 4.982604e-01 3.472211e-01 2.960244e+00 -2.249565e+00 5.387295e-01 -1.481608e+00 3.240710e-01 -1.179658e-01 5.707500e-01 9.678276e-01 2.984291e-01 -5.450029e-01 -6.018295e-02 1.929682e-01 -3.388093e-01 -1.454829e+00
<VARIANCE> 39
 7.400255e+01 1.954242e+02 1.890353e+02 2.860777e+02 3.366409e+02 2.408090e+02 6.547878e+02 2.802145e+02 2.795792e+02 2.400046e+02 3.366472e+02 4.348698e+02 1.550558e+02 3.966546e+01 1.629277e+01 2.962778e+01 2.023202e+01 1.315351e+01 2.504056e+01 4.032398e+01 2.244646e+01 2.538055e+01 1.666934e+01 1.654944e+01 2.000824e+01 1.867055e+01 5.241296e+00 2.215404e+00 3.300131e+00 3.151858e+00 2.004886e+00 3.607630e+00 3.967531e+00 2.691379e+00 2.568235e+00 2.871406e+00 2.984249e+00 3.860409e+00 1.584664e+00
<GCONST> 1.979221e+02
<STATE> 4
<MEAN> 39
 5.176508e+00 -1.545794e+01 4.554304e+01 3.634642e+00 -1.711050e+01 -3.296581e+01 -1.960504e+00 -2.950995e+00 -1.944540e+01 8.271163e+00 -3.237732e+00 8.461741e+00 1.334365e+02 -1.067809e+00 3.443434e+00 -1.667096e-01 5.833836e+00 1.484481e+00 1.027032e+00 3.389392e+00 3.300927e-01 -3.091193e+00 -1.136673e+00 6.872128e-01 -1.456384e+00 -9.173894e+00 -1.268587e+00 1.887422e+00 -2.249983e+00 8.606340e-01 1.348089e+00 1.723073e+00 -6.550368e-01 1.869889e-01 1.004104e+00 -7.733384e-01 8.080755e-03 -2.403489e-01 -3.721301e+00
<VARIANCE> 39
 7.434216e+01 1.794230e+02 2.415090e+02 3.980874e+02 3.475261e+02 3.678477e+02 9.747706e+02 9.608293e+02 6.754093e+02 3.579757e+02 2.593247e+02 2.869447e+02 2.772582e+02 7.649933e+00 2.091149e+01 1.869375e+01 2.183098e+01 2.104515e+01 2.902888e+01 3.699802e+01 4.067595e+01 3.339920e+01 2.479564e+01 2.369718e+01 2.304263e+01 5.047343e+01 2.183211e+00 3.299782e+00 3.932027e+00 6.424139e+00 3.617655e+00 5.432288e+00 1.060622e+01 1.088890e+01 9.306629e+00 5.320735e+00 4.204200e+00 3.734874e+00 3.752019e+00
<GCONST> 2.100668e+02
<TRANSP> 5
 0.000000e+00 1.000000e+00 0.000000e+00 0.000000e+00 0.000000e+00
 0.000000e+00 6.701654e-01 3.298346e-01 0.000000e+00 0.000000e+00
 0.000000e+00 0.000000e+00 8.160905e-01 1.839095e-01 0.000000e+00
 0.000000e+00 0.000000e+00 0.000000e+00 7.597774e-01 2.402226e-01
 0.000000e+00 0.000000e+00 0.000000e+00 0.000000e+00 0.000000e+00
<ENDHMM>
~h "iy"
<BEGINHMM>
<NUMSTATES> 5
<STATE> 2
<MEAN> 39
 3.066051e+00 -7.198224e+00 6.036818e+01 -4.003250e+00 -7.929317e+00 -2.116677e+01 3.826228e+00 -1.463923e+01 -1.487948e+01 8.666098e+00 -8.145926e+00 1.256423e+01 1.353160e+02 8.179243e-01 -1.867383e+00 4.972378e+00 -4.298755e+00 -7.105221e-01 1.473127e+00 -5.319274e-01 -1.561462e+00 7.763689e-02 1.142577e+00 -1.091896e+00 2.376966e-01 7.254707e-01 -3.711631e-01 6.426535e-01 -2.457340e+00 1.455262e+00 9.073941e-01 -1.713867e-01 -3.261802e-01 1.462973e+00 2.108071e-01 -4.385110e-01 5.668544e-01 -2.590231e-01 -8.894849e-01
<VARIANCE> 39
 7.579150e+01 1.934109e+02 2.220104e+02 3.116295e+02 2.164376e+02 2.992571e+02 6.200247e+02 5.016181e+02 3.477967e+02 3.571687e+02 2.371677e+02 3.393938e+02 1.043333e+02 2.271613e+01 4.055233e+01 1.841572e+01 2.645888e+01 2.021570e+01 4.498058e+01 2.659398e+01 3.200872e+01 2.708928e+01 2.109622e+01 1.758431e+01 1.380391e+01 5.181044e+00 2.691897e+00 1.825201e+00 2.624680e+00 3.667939e+00 3.651973e+00 3.396070e+00 4.199018e+00 3.342503e+00 3.518334e+00 3.133299e+00 2.341501e+00 2.722728e+00 4.639531e-01
<GCONST> 1.963736e+02
<STATE> 3
<MEAN> 39
 5.689464e+00 -1.428976e+01 6.693835e+01 3.854201e+00 -9.784442e+00 -1.575813e+01 -7.101881e+00 3.879568e+00 -2.785025e+01 2.586052e+00 -4.295978e+00 1.652301e+00 1.339372e+02 1.351991e+00 -9.985124e-03 -3.074544e+00 1.915193e+00 1.305109e+00 -1.479491e+00 1.118803e-01 1.270598e+00 5.792600e-01 -2.694189e-01 7.619317e-01 -2.182537e-01 -1.593056e+00 1.709148e-01 4.677111e-01 -2.142327e+00 4.739572e-01 1.164707e+00 -3.604349e-01 -5.136813e-01 -3.607030e-02 1.051188e+00 -2.272757e-01 -8.705901e-02 2.585629e-01 -5.081127e-01
<VARIANCE> 39
 1.088179e+02 2.026747e+02 3.154960e+02 3.575896e+02 2.257828e+02 5.424026e+02 7.081010e+02 5.812385e+02 3.783083e+02 4.841174e+02 2.535008e+02 3.099792e+02 1.607717e+02 1.110362e+01 1.508399e+01 2.512584e+01 1.595534e+01 1.537359e+01 2.809340e+01 2.293084e+01 2.206850e+01 1.743245e+01 1.489649e+01 1.274647e+01 1.141908e+01 3.898239e+00 1.158826e+00 1.599721e+00 2.397637e+00 2.880152e+00 2.878781e+00 3.379196e+00 3.418546e+00 3.382193e+00 2.887222e+00 2.515963e+00 2.126714e+00 1.876699e+00 4.701120e-01
<GCONST> 1.916197e+02
<STATE> 4
<MEAN> 39
 -1.539421e+00 6.212371e+00 4.962751e+01 -5.669316e+00 -1.977651e+00 -4.553053e-01 3.497008e+00 -1.003917e+01 -3.236685e+00 3.404141e+00 -9.067469e+00 9.382507e+00 1.081436e+02 -2.617580e-01 1.791926e-01 -5.124157e+00 1.050361e+00 1.434458e+00 8.787697e-01 -1.006729e+00 8.950784e-01 1.778276e+00 -5.274944e-01 3.225430e-01 -2.587227e-01 -3.053023e+00 -1.137560e-01 -1.910510e-01 -4.263784e-01 -1.974668e-01 -1.533146e-01 3.409146e-02 -1.130832e-01 -6.244489e-02 -2.612659e-01 2.675583e-01 1.377114e-01 -1.587754e-01 -2.136878e-02
<VARIANCE> 39
 2.173310e+02 3.856908e+02 4.820064e+02 5.402527e+02 2.860449e+02 8.308311e+02 4.997162e+02 5.449444e+02 4.045331e+02 3.577100e+02 2.670297e+02 2.840907e+02 5.601324e+02 1.387366e+01 1.703672e+01 2.950949e+01 2.124973e+01 2.443171e+01 3.096263e+01 2.625520e+01 2.588517e+01 2.523473e+01 1.998577e+01 1.583207e+01 1.639888e+01 7.315572e+00 1.294165e+00 2.512671e+00 2.957304e+00 4.332841e+00 2.916790e+00 5.196934e+00 3.610042e+00 4.294009e+00 3.748329e+00 3.295299e+00 2.784519e+00 2.577013e+00 9.697260e-01
<GCONST> 2.022963e+02
<TRANSP> 5
 0.000000e+00 1.000000e+00 0.000000e+00 0.000000e+00 0.000000e+00
 0.000000e+00 6.527251e-01 3.472749e-01 0.000000e+00 0.000000e+00
 0.000000e+00 0.000000e+00 7.243859e-01 2.756141e-01 0.000000e+00
 0.000000e+00 0.000000e+00 0.000000e+00 7.644913e-01 2.355088e-01
 0.000000e+00 0.000000e+00 0.000000e+00 0.000000e+00 0.000000e+00
<ENDHMM>
~h "ow"
<BEGINHMM>
<NUMSTATES> 5
<STATE> 2
<MEAN> 39
 9.500617e-01 -8.768241e+00 -1.688559e+00 -1.456738e+01 -4.047968e+00 -8.806792e+00 -7.392254e+00 -2.424811e+00 -5.338858e-01 1.172522e+01 4.106559e-01 2.870450e+00 9.606937e+01 2.328018e+00 -1.699311e+00 -5.384025e-01 -2.915045e+00 6.169026e-01 1.324577e+00 1.316764e+00 6.357016e-02 1.139343e+00 2.086601e+00 -1.495308e-01 -8.919514e-01 4.997919e+00 3.523647e-01 -1.401553e-02 3.718416e-01 -1.433252e-01 2.801943e-01 3.146852e-01 1.635256e-02 5.182686e-02 -7.622546e-02 2.590201e-02 -7.555528e-02 2.031112e-01 9.230536e-01
<VARIANCE> 39
 5.561458e+02 3.068698e+02 2.673080e+02 4.011172e+02 3.924251e+02 5.362380e+02 4.811808e+02 5.009755e+02 5.716951e+02 5.369504e+02 4.958022e+02 3.367657e+02 1.157819e+03 4.943870e+01 2.264646e+01 2.496941e+01 3.585000e+01 3.416304e+01 3.361500e+01 3.653631e+01 3.865259e+01 4.396306e+01 3.956954e+01 4.022412e+01 3.110250e+01 1.262806e+02 6.252404e+00 3.946748e+00 3.520609e+00 5.240521e+00 5.580449e+00 5.552082e+00 6.603278e+00 6.868585e+00 7.152419e+00 7.051066e+00 7.018574e+00 5.675348e+00 1.506523e+01
<GCONST> 2.229064e+02
<STATE> 3
<MEAN> 39
 2.089688e+01 -2.419383e+01 2.244971e+00 -2.960429e+01 6.934288e+00 -1.156606e+01 -1.353157e+00 -6.386113e-01 5.304495e+00 2.829471e+01 -1.121660e+00 1.083576e+00 1.405113e+02 4.919827e-01 1.194812e+00 4.126813e-01 -1.787504e+00 -2.010077e-01 2.419688e+00 -3.109643e-01 -1.678823e+00 -5.796822e-01 6.147570e-01 4.337806e-01 9.942573e-01 5.740024e-01 -2.350895e-01 6.278852e-01 1.276029e-02 6.246775e-01 -8.369504e-02 -3.133187e-02 -1.988654e-01 -1.997276e-02 -3.009677e-01 -7.770448e-01 -9.532830e-02 4.200801e-01 -1.118997e+00
<VARIANCE> 39
 9.051812e+01 1.553557e+02 2.172675e+02 2.822670e+02 2.944650e+02 5.302815e+02 5.287241e+02 3.880856e+02 7.730244e+02 4.352763e+02 5.136387e+02 2.448448e+02 1.803320e+02 4.167671e+00 6.779145e+00 5.570307e+00 8.489265e+00 7.941279e+00 1.173379e+01 1.186262e+01 1.225573e+01 1.558663e+01 1.394618e+01 1.365466e+01 1.243375e+01 1.156787e+01 1.146281e+00 7.890028e-01 8.984272e-01 1.499900e+00 1.388126e+00 1.514427e+00 1.946725e+00 1.985222e+00 2.088513e+00 2.167118e+00 2.287591e+00 1.761309e+00 2.504145e+00
<GCONST> 1.818957e+02
<STATE> 4
<MEAN> 39
 2.554402e+01 2.185196e-01 6.728034e+00 -3.074984e+01 -4.888466e+00 9.261784e+00 -1.456923e+00 -1.481414e+00 -1.011647e+01 1.059329e+01 -5.407007e-01 7.889436e+00 1.219291e+02 -7.187879e-01 1.457052e+00 4.449612e-01 1.563151e+00 2.181106e-01 5.086543e-01 5.246066e-01 2.089979e-01 -8.441971e-03 -1.153161e+00 -8.529270e-01 -1.761138e-01 -2.422287e+00 -3.727301e-01 -2.111899e-01 -8.183454e-02 4.297987e-01 1.338011e-01 -2.272640e-01 -8.658099e-02 7.274479e-02 2.257949e-01 7.220238e-02 3.939107e-02 -1.479722e-01 -1.756544e-01
<VARIANCE> 39
 1.163189e+02 3.176771e+02 2.640411e+02 5.388723e+02 5.778344e+02 4.340649e+02 4.754191e+02 4.168144e+02 7.677568e+02 4.230155e+02 4.249756e+02 3.531922e+02 4.865047e+02 7.131878e+00 1.031781e+01 8.246274e+00 1.735090e+01 1.255496e+01 1.382544e+01 1.469955e+01 1.619860e+01 1.872318e+01 1.672402e+01 1.661869e+01 1.437346e+01 5.252059e+00 1.031238e+00 1.424625e+00 1.225380e+00 2.339697e+00 1.874240e+00 2.230627e+00 2.321128e+00 2.627207e+00 2.856342e+00 2.442401e+00 2.506873e+00 2.288313e+00 5.756218e-01
<GCONST> 1.900725e+02
<TRANSP> 5
 0.000000e+00 1.000000e+00 0.000000e+00 0.000000e+00 0.000000e+00
 0.000000e+00 7.250916e-01 2.749085e-01 0.000000e+00 0.000000e+00
 0.000000e+00 0.000000e+00 7.986796e-01 2.013204e-01 0.000000e+00
 0.000000e+00 0.000000e+00 0.000000e+00 9.158412e-01 8.415886e-02
 0.000000e+00 0.000000e+00 0.000000e+00 0.000000e+00 0.000000e+00
<ENDHMM>
~h "sp"
<BEGINHMM>
<NUMSTATES> 3
<STATE> 2
~s "silst"
<TRANSP> 3
 0.000000e+00 2.849090e-02 9.715091e-01
 0.000000e+00 9.064195e-01 9.358046e-02
 0.000000e+00 0.000000e+00 0.000000e+00
<ENDHMM>
~h "th"
<BEGINHMM>
<NUMSTATES> 5
<STATE> 2
<MEAN> 39
 -2.613175e+01 1.710801e+00 1.681981e+00 8.046321e+00 -3.803630e+00 1.644369e+00 -3.355309e+00 8.660631e-01 -4.419206e+00 2.213951e+00 -2.345349e+00 4.308323e+00 8.067182e+01 -2.046576e+00 -1.076562e+00 -1.636921e+00 -1.421878e+00 -1.457584e+00 -3.452583e-01 -8.797987e-01 -1.282655e-01 3.549568e-03 -5.620559e-01 -5.653032e-02 3.027629e-01 2.044204e+00 1.046453e+00 -1.762545e-01 9.150872e-01 -3.595898e-01 -8.647195e-02 -3.734933e-01 1.807171e-01 -2.066222e-01 -3.002304e-02 1.969883e-01 -1.239166e-01 1.154635e-01 1.827857e+00
<VARIANCE> 39
 2.116076e+02 1.588565e+02 1.431369e+02 1.483935e+02 1.602192e+02 1.604894e+02 1.680840e+02 1.651917e+02 1.740793e+02 1.450246e+02 1.420918e+02 1.302181e+02 5.336582e+02 2.508303e+01 1.723228e+01 1.918943e+01 2.192452e+01 1.830928e+01 2.104023e+01 2.155035e+01 2.115130e+01 2.298123e+01 1.841966e+01 1.764675e+01 1.700405e+01 9.220429e+01 3.430326e+00 3.605567e+00 3.927746e+00 3.877577e+00 3.539731e+00 4.111027e+00 4.156871e+00 3.972006e+00 4.341582e+00 3.737703e+00 3.572661e+00 3.504568e+00 9.815614e+00
<GCONST> 1.974730e+02
<STATE> 3
<MEAN> 39
 -2.428572e+01 -5.868765e+00 1.064944e+01 -1.689424e+00 -1.212370e+01 -4.705013e+00 -2.498981e+00 -1.139221e+00 -2.648350e+00 3.275400e+00 -3.974736e+00 7.046510e+00 1.147516e+02 5.693012e+00 -1.996636e+00 5.999089e+00 2.766599e+00 1.717686e+00 -2.184932e+00 5.977741e-01 5.382091e-01 3.142608e-01 1.595885e+00 4.853525e-01 -3.803059e-01 4.153248e+00 2.340912e+00 -2.368228e-01 -3.181245e-01 1.809172e+00 2.071058e+00 -2.421022e-01 -9.385363e-01 1.917387e-01 -3.785086e-01 1.041484e-02 3.784274e-01 -3.857985e-01 -2.435161e+00
<VARIANCE> 39
 1.766681e+02 1.569091e+02 2.791328e+02 1.632301e+02 1.631089e+02 2.042580e+02 2.150783e+02 1.969666e+02 1.913552e+02 1.842327e+02 1.836879e+02 2.085683e+02 1.406975e+02 3.325099e+01 1.924132e+01 2.483443e+01 3.391542e+01 2.569688e+01 2.956569e+01 2.705587e+01 2.499669e+01 2.340841e+01 2.065573e+01 2.178115e+01 2.415990e+01 4.975846e+01 4.256987e+00 4.360096e+00 9.636855e+00 5.092311e+00 4.984591e+00 6.295154e+00 7.275377e+00 5.503945e+00 5.001827e+00 5.474972e+00 4.929231e+00 5.197153e+00 6.074439e+00
<GCONST> 2.046810e+02
<STATE> 4
<MEAN> 39
 1.762098e+01 -1.253067e+01 1.424204e+01 1.696736e+01 1.377654e+01 -9.139627e+00 -1.682830e+01 -3.068681e+00 -6.572301e+00 4.428761e+00 -6.384823e-01 3.380447e+00 1.153024e+02 1.046078e+01 -1.588345e+00 -3.912358e+00 1.032872e+00 7.455260e+00 -1.256530e+00 -6.565972e+00 -9.529944e-01 -1.339938e+00 -1.394934e+00 -3.609398e-02 -1.686307e-02 1.445402e+00 -1.720231e+00 -5.661828e-02 -8.121253e-01 -1.342912e+00 -7.537900e-01 -3.038051e-01 -7.001545e-02 4.352592e-01 -6.562213e-02 -3.864006e-01 -3.393019e-01 2.302855e-01 2.644674e-01
<VARIANCE> 39
 3.858798e+02 1.499955e+02 3.140786e+02 1.944399e+02 3.121486e+02 4.448205e+02 4.103014e+02 2.868979e+02 2.070701e+02 1.946501e+02 1.784985e+02 1.631355e+02 1.822136e+02 2.949613e+01 2.201901e+01 3.027834e+01 2.986425e+01 3.180762e+01 5.846923e+01 4.094460e+01 3.265091e+01 2.641771e+01 2.877978e+01 2.580879e+01 2.105511e+01 1.227387e+01 7.330770e+00 3.853039e+00 1.093979e+01 5.791849e+00 7.003960e+00 8.396917e+00 8.651307e+00 6.935513e+00 5.162777e+00 4.553314e+00 4.595105e+00 4.093080e+00 3.180106e+00
<GCONST> 2.096246e+02
<TRANSP> 5
 0.000000e+00 1.000000e+00 0.000000e+00 0.000000e+00 0.000000e+00
 0.000000e+00 8.352015e-01 1.647985e-01 0.000000e+00 0.000000e+00
 0.000000e+00 0.000000e+00 7.369047e-01 2.630953e-01 0.000000e+00
 0.000000e+00 0.000000e+00 0.000000e+00 7.378500e-01 2.621500e-01
 0.000000e+00 0.000000e+00 0.000000e+00 0.000000e+00 0.000000e+00
<ENDHMM>
~h "uw"
<BEGINHMM>
<NUMSTATES> 5
<STATE> 2
<MEAN> 39
 -6.438912e-01 -3.598043e+00 4.624109e+01 1.048652e+01 -5.437158e+00 -1.343540e+01 -8.594416e-01 3.102030e+00 -1.248350e+01 1.716324e+00 -7.453463e+00 7.076113e+00 1.259154e+02 9.242584e+00 -2.563521e+00 6.598081e+00 1.313992e+00 1.118774e+00 -1.510819e+00 -4.366521e+00 -4.024655e-01 -2.219220e+00 3.418293e-01 -5.989829e-01 -8.927236e-01 5.098469e+00 -2.389402e+00 -3.894914e-01 -1.685773e+00 -1.522731e+00 -2.682849e-01 -3.495682e-01 -4.700331e-01 -2.991232e-01 -5.355437e-01 6.824986e-02 3.646314e-01 3.587042e-02 3.571550e-01
<VARIANCE> 39
 2.134131e+02 1.963999e+02 2.196569e+02 2.682504e+02 1.562663e+02 2.452278e+02 6.056140e+02 4.560552e+02 2.998499e+02 2.279433e+02 2.183591e+02 2.884760e+02 2.255574e+02 2.657845e+01 1.362311e+01 2.369830e+01 2.502958e+01 2.004066e+01 4.050483e+01 3.669745e+01 2.467397e+01 3.147744e+01 3.028207e+01 2.631940e+01 3.241293e+01 7.755752e+00 3.743722e+00 1.915779e+00 3.321175e+00 2.414632e+00 2.285686e+00 4.066843e+00 4.900379e+00 3.003777e+00 4.051521e+00 3.649359e+00 2.829305e+00 3.018618e+00 3.676678e+00
<GCONST> 2.005423e+02
<STATE> 3
<MEAN> 39
 9.288470e+00 -1.140216e+01 5.304018e+01 7.364248e+00 -2.763881e+00 -2.085485e+01 -9.347338e+00 -5.740979e-01 -1.938666e+01 3.221423e+00 -7.821978e+00 5.784122e+00 1.337644e+02 6.839198e-01 1.679331e-01 -7.908037e-01 4.396081e-01 1.547064e+00 2.433846e-01 -5.544385e-01 -1.743778e-01 6.248891e-02 2.867367e-01 -4.444247e-01 -4.323519e-01 -1.069074e+00 -2.569895e-01 5.139685e-01 -6.372760e-01 8.608204e-02 1.902947e-01 4.466394e-01 2.788525e-01 -1.443624e-01 3.601435e-01 3.796052e-02 9.440721e-03 -2.008932e-02 -6.138273e-01
<VARIANCE> 39
 7.797399e+01 1.677550e+02 1.910144e+02 3.499086e+02 2.262468e+02 4.498127e+02 1.010737e+03 5.919927e+02 3.912853e+02 3.798112e+02 3.097300e+02 6.354027e+02 1.510431e+02 1.976156e+00 3.293638e+00 5.527850e+00 5.272699e+00 6.310720e+00 7.793900e+00 8.967399e+00 8.679739e+00 9.298046e+00 9.377503e+00 8.506609e+00 8.567372e+00 2.387685e+00 8.992826e-01 6.785988e-01 1.129166e+00 1.040197e+00 1.061598e+00 1.577509e+00 1.992008e+00 1.598515e+00 1.731080e+00 1.787119e+00 1.455433e+00 1.537763e+00 6.782439e-01
<GCONST> 1.722256e+02
<STATE> 4
<MEAN> 39
 1.653114e+01 3.484083e+00 2.322955e+01 6.940617e+00 1.258080e+01 3.414156e+00 -5.394448e+00 -6.465696e+00 -1.464083e+01 7.279489e+00 -7.566075e+00 1.633535e+00 1.059817e+02 -1.317677e+00 1.118701e+00 -3.147312e+00 -3.063384e-01 -2.126063e-01 2.163835e+00 1.764726e+00 -2.739826e-01 1.065433e+00 -1.759871e-01 6.063291e-01 1.562070e-01 -3.176880e+00 -6.454839e-01 -1.990525e-01 -1.644724e-02 -4.152650e-02 -5.578612e-01 -3.774851e-01 1.030450e-01 2.771079e-01 7.135966e-02 -1.656681e-01 8.512493e-02 1.084144e-01 -4.479856e-02
<VARIANCE> 39
 1.525245e+02 2.225307e+02 3.703543e+02 3.661698e+02 2.976610e+02 6.602870e+02 6.345475e+02 5.206780e+02 7.172825e+02 4.597085e+02 4.373953e+02 5.164467e+02 4.413201e+02 1.413186e+01 1.707919e+01 1.332150e+01 1.976292e+01 1.986734e+01 3.133844e+01 3.183261e+01 3.137618e+01 3.185162e+01 2.459427e+01 2.405308e+01 2.260289e+01 6.144420e+00 1.636183e+00 2.570103e+00 2.130550e+00 3.077067e+00 3.092031e+00 4.528119e+00 4.780663e+00 4.776581e+00 5.021165e+00 4.089813e+00 4.258254e+00 3.709953e+00 1.008047e+00
<GCONST> 2.039991e+02
<TRANSP> 5
 0.000000e+00 1.000000e+00 0.000000e+00 0.000000e+00 0.000000e+00
 0.000000e+00 7.039933e-01 2.960067e-01 0.000000e+00 0.000000e+00
 0.000000e+00 0.000000e+00 8.868182e-01 1.131819e-01 0.000000e+00
 0.000000e+00 0.000000e+00 0.000000e+00 8.752034e-01 1.247966e-01
 0.000000e+00 0.000000e+00 0.000000e+00 0.000000e+00 0.000000e+00
<ENDHMM>
~h "sil"
<BEGINHMM>
<NUMSTATES> 5
<STATE> 2
<MEAN> 39
 -1.194897e+01 -9.002071e-01 1.460807e+00 7.186276e+00 1.176439e+00 8.928328e-01 4.442614e+00 6.412664e+00 -6.312179e-01 3.249978e-01 -3.903828e+00 8.163787e-01 6.415987e+01 -5.118524e-01 8.009431e-01 -1.377586e-01 -1.459059e-02 -1.782170e-02 4.753314e-02 -3.274164e-01 -2.227754e-01 7.152568e-02 2.988852e-02 2.745481e-01 1.935347e-02 -1.163439e+00 -2.435876e-02 6.360322e-02 1.094216e-01 -1.516532e-02 3.631363e-04 4.508019e-04 -2.369559e-02 -7.687036e-02 -1.299166e-02 7.653896e-02 6.829755e-02 7.162873e-02 5.821683e-02
<VARIANCE> 39
 7.707710e+01 1.666345e+02 1.389674e+02 1.298160e+02 1.480311e+02 1.846975e+02 1.935399e+02 2.090562e+02 1.988571e+02 1.974330e+02 1.611331e+02 1.415462e+02 1.153228e+02 2.495134e+00 4.380825e+00 5.428129e+00 6.836448e+00 8.353881e+00 1.038164e+01 1.181660e+01 1.279000e+01 1.267258e+01 1.258151e+01 1.186657e+01 1.083565e+01 1.897230e+00 3.745084e-01 6.860122e-01 9.584659e-01 1.227509e+00 1.514993e+00 1.842112e+00 2.142562e+00 2.313972e+00 2.352729e+00 2.329453e+00 2.200201e+00 2.028496e+00 1.867513e-01
<GCONST> 1.661279e+02
<STATE> 3
~s "silst"
<STATE> 4
<MEAN> 39
 -2.310814e+01 -3.756244e-01 3.527158e-01 2.635785e+00 -2.453467e+00 -2.651979e+00 -2.712584e+00 2.005202e-01 -2.798425e+00 2.004390e+00 -1.215900e+00 2.135422e+00 5.940338e+01 1.727950e-01 -1.530988e-01 2.757461e-01 1.430291e-01 7.497919e-02 1.352788e-01 2.106134e-01 1.061394e-01 -1.853488e-02 2.165392e-01 -1.500024e-01 7.674648e-03 8.512156e-01 7.384776e-02 2.189755e-02 7.812357e-02 -1.129845e-02 9.702342e-03 2.313610e-02 3.435982e-02 2.866547e-02 1.061028e-02 -1.026163e-02 -3.186421e-02 2.967492e-02 4.626921e-01
<VARIANCE> 39
 1.080313e+02 1.351000e+02 1.119792e+02 1.188864e+02 1.448516e+02 1.605094e+02 1.770414e+02 1.718097e+02 1.580912e+02 1.429890e+02 1.352093e+02 1.166950e+02 2.129151e+02 1.170768e+01 1.408533e+01 1.234980e+01 1.281117e+01 1.475752e+01 1.640082e+01 1.727093e+01 1.673305e+01 1.584002e+01 1.478428e+01 1.415185e+01 1.203997e+01 2.082123e+01 2.414093e+00 2.719493e+00 2.428277e+00 2.508312e+00 2.838767e+00 3.073879e+00 3.274744e+00 3.169290e+00 3.022114e+00 2.798456e+00 2.658228e+00 2.291279e+00 4.345468e+00
<GCONST> 1.847527e+02
<TRANSP> 5
 0.000000e+00 1.000000e+00 0.000000e+00 0.000000e+00 0.000000e+00
 0.000000e+00 8.494175e-01 9.913040e-02 5.145204e-02 0.000000e+00
 0.000000e+00 0.000000e+00 9.035395e-01 9.646052e-02 0.000000e+00
 0.000000e+00 6.260341e-02 0.000000e+00 7.808368e-01 1.565599e-01
 0.000000e+00 0.000000e+00 0.000000e+00 0.000000e+00 0.000000e+00
<ENDHMM>
