~o
<STREAMINFO> 1 12
<VECSIZE> 12<NULLD><MFCC><DIAGC>
~v "varFloor1"
<VARIANCE> 12
 6.754232e+00 3.412257e+00 5.608447e+00 4.796207e+00 3.472295e+00 4.011117e+00 4.413517e+00 3.617792e+00 3.683716e+00 3.040219e+00 2.640150e+00 2.509556e+00
~s "silst"
<MEAN> 12
 -2.512987e+01 4.372221e+00 -1.166373e+00 2.216499e+00 -4.027030e+00 -3.799031e+00 -5.370103e+00 -2.215581e+00 -2.376340e+00 1.256148e+00 9.335245e-01 2.569654e+00
<VARIANCE> 12
 3.234377e+01 2.931932e+01 3.637719e+01 4.820475e+01 6.514069e+01 8.453540e+01 1.002833e+02 1.015355e+02 9.681532e+01 9.111555e+01 8.788620e+01 7.927525e+01
<GCONST> 7.215462e+01
~h "f"
<BEGINHMM>
<NUMSTATES> 5
<STATE> 2
<MEAN> 12
 -3.337069e+01 -1.583842e+01 -1.205739e+00 3.073582e+00 -2.515779e+00 -7.055926e-01 -7.124547e+00 2.468615e-01 -5.065719e+00 3.771183e+00 -3.673120e+00 2.667032e+00
<VARIANCE> 12
 1.047369e+02 8.741395e+01 8.259357e+01 8.401450e+01 9.734372e+01 1.096651e+02 1.200101e+02 1.232451e+02 1.237495e+02 1.140967e+02 1.091475e+02 9.816204e+01
<GCONST> 7.773360e+01
<STATE> 3
<MEAN> 12
 -1.510793e+01 -1.327081e+01 -3.217159e+00 -2.837828e+00 -1.464468e+00 1.533193e+00 -5.130317e+00 -1.153544e+00 -4.705200e+00 5.830157e+00 -3.470501e+00 2.622207e+00
<VARIANCE> 12
 2.281083e+02 1.051892e+02 7.464376e+01 8.735418e+01 1.037060e+02 1.061363e+02 1.153167e+02 1.132135e+02 1.364132e+02 1.291921e+02 1.166256e+02 1.045120e+02
<GCONST> 7.889130e+01
<STATE> 4
<MEAN> 12
 2.141109e+01 -1.651230e+01 -4.381789e+00 -3.292286e+01 -3.711562e+00 1.383781e+01 1.126325e+00 1.880503e+00 -7.060985e+00 1.881259e+01 6.148057e+00 -3.299149e+00
<VARIANCE> 12
 1.349472e+02 2.818846e+02 1.935094e+02 4.841823e+02 2.993347e+02 2.757560e+02 1.567744e+02 2.054327e+02 3.676850e+02 3.558416e+02 4.550359e+02 2.378877e+02
<GCONST> 8.912360e+01
<TRANSP> 5
 0.000000e+00 1.000000e+00 0.000000e+00 0.000000e+00 0.000000e+00
 0.000000e+00 8.831685e-01 1.168314e-01 0.000000e+00 0.000000e+00
 0.000000e+00 0.000000e+00 3.784437e-01 6.215563e-01 0.000000e+00
 0.000000e+00 0.000000e+00 0.000000e+00 6.774480e-01 3.225521e-01
 0.000000e+00 0.000000e+00 0.000000e+00 0.000000e+00 0.000000e+00
<ENDHMM>
~h "k"
<BEGINHMM>
<NUMSTATES> 5
<STATE> 2
<MEAN> 12
 -7.214608e+00 8.804729e+00 2.572880e+01 2.665349e+01 6.150506e-01 -1.456423e+01 -2.191862e+00 1.053214e+00 -1.962947e+01 -5.235917e+00 -7.356256e-01 9.199904e-01
<VARIANCE> 12
 1.418409e+02 2.750073e+02 2.541241e+02 1.995367e+02 2.481527e+02 3.661905e+02 3.624111e+02 4.807544e+02 2.939419e+02 2.421774e+02 1.919571e+02 1.415858e+02
<GCONST> 8.832841e+01
<STATE> 3
<MEAN> 12
 -1.931334e+01 -6.231058e+00 -5.191053e+00 9.072278e+00 -8.069432e-01 -8.065145e+00 -1.107559e+01 -1.622835e+00 -4.328075e+00 1.506990e+00 -1.013990e+00 3.609230e+00
<VARIANCE> 12
 1.455486e+02 3.088299e+02 2.341044e+02 1.359966e+02 1.562099e+02 1.701783e+02 1.854377e+02 1.571789e+02 1.355902e+02 1.263652e+02 1.140872e+02 8.985440e+01
<GCONST> 8.258833e+01
<STATE> 4
<MEAN> 12
 -4.692230e+01 -5.861440e+00 -8.326447e+00 5.815716e+00 -7.452854e-01 -2.251133e+01 -1.044237e+01 7.501429e+00 -1.462927e-01 1.635943e+00 -8.307693e+00 6.640410e+00
<VARIANCE> 12
 3.043653e+02 1.152256e+02 1.502557e+02 2.130982e+02 4.270104e+02 3.067146e+02 2.171722e+02 1.898799e+02 1.816049e+02 1.724085e+02 1.740941e+02 1.466751e+02
<GCONST> 8.580307e+01
<TRANSP> 5
 0.000000e+00 1.000000e+00 0.000000e+00 0.000000e+00 0.000000e+00
 0.000000e+00 6.192004e-01 3.807996e-01 0.000000e+00 0.000000e+00
 0.000000e+00 0.000000e+00 7.893983e-01 2.106017e-01 0.000000e+00
 0.000000e+00 0.000000e+00 0.000000e+00 7.815052e-01 2.184948e-01
 0.000000e+00 0.000000e+00 0.000000e+00 0.000000e+00 0.000000e+00
<ENDHMM>
~h "n"
<BEGINHMM>
<NUMSTATES> 5
<STATE> 2
<MEAN> 12
 1.680477e+01 4.734010e-01 3.794938e+01 7.088941e+00 -6.658339e+00 5.487044e+00 1.650157e+01 -7.016481e+00 -5.798973e+00 9.474231e+00 -5.414195e+00 9.157652e+00
<VARIANCE> 12
 1.006945e+02 2.275333e+02 1.884391e+02 6.092398e+02 2.725853e+02 4.088350e+02 4.610179e+02 5.164476e+02 5.428869e+02 4.633798e+02 4.778191e+02 4.154236e+02
<GCONST> 9.238055e+01
<STATE> 3
<MEAN> 12
 1.746813e+01 9.543131e+00 3.243655e+01 2.130620e+01 -3.307386e+00 1.020464e+01 2.181195e+01 -9.557517e+00 -2.336362e+00 7.319099e+00 -9.127609e+00 1.122686e+01
<VARIANCE> 12
 9.568592e+01 2.012229e+02 1.386523e+02 2.505488e+02 2.958910e+02 4.019475e+02 4.081024e+02 4.554376e+02 4.875340e+02 4.462285e+02 4.385387e+02 4.322129e+02
<GCONST> 9.063728e+01
<STATE> 4
<MEAN> 12
 -5.802767e-01 8.533015e-01 1.879846e+01 1.651664e+01 4.901371e+00 2.279290e+00 1.154479e+01 9.838603e+00 1.147727e+00 3.691862e+00 -7.795825e+00 3.598547e+00
<VARIANCE> 12
 1.806286e+02 2.022443e+02 1.976348e+02 3.011010e+02 2.352713e+02 2.945375e+02 3.478914e+02 3.465249e+02 3.187908e+02 3.373552e+02 2.552928e+02 2.468042e+02
<GCONST> 8.903698e+01
<TRANSP> 5
 0.000000e+00 1.000000e+00 0.000000e+00 0.000000e+00 0.000000e+00
 0.000000e+00 6.048982e-01 3.951018e-01 0.000000e+00 0.000000e+00
 0.000000e+00 0.000000e+00 6.832307e-01 3.167693e-01 0.000000e+00
 0.000000e+00 0.000000e+00 0.000000e+00 6.810464e-01 3.189535e-01
 0.000000e+00 0.000000e+00 0.000000e+00 0.000000e+00 0.000000e+00
<ENDHMM>
~h "r"
<BEGINHMM>
<NUMSTATES> 5
<STATE> 2
<MEAN> 12
 3.620528e+01 -1.735084e+01 -3.885818e+00 4.687270e+00 2.731891e+01 -1.897912e+01 -3.500488e+01 2.143520e+00 -8.562648e+00 2.964690e+00 1.601536e+00 6.814655e+00
<VARIANCE> 12
 6.930307e+01 1.707665e+02 5.045719e+02 3.011025e+02 3.910329e+02 8.212236e+02 9.781259e+02 4.074631e+02 3.091462e+02 3.794686e+02 2.670840e+02 2.159144e+02
<GCONST> 9.157468e+01
<STATE> 3
<MEAN> 12
 3.008401e+01 -2.612766e+01 5.186972e+00 6.952576e+00 1.591543e+01 -3.978204e+01 -1.329655e+01 1.555352e+01 -5.294816e+00 8.956784e+00 2.238018e+00 7.666875e+00
<VARIANCE> 12
 6.432072e+01 1.533861e+02 4.212104e+02 2.918031e+02 3.184150e+02 8.181477e+02 1.081237e+03 3.655467e+02 3.753785e+02 3.982888e+02 2.417751e+02 2.009428e+02
<GCONST> 9.103436e+01
<STATE> 4
<MEAN> 12
 1.642208e+01 -2.324467e+01 1.538127e+01 9.166780e+00 3.763049e+00 -2.492788e+01 -4.827569e+00 1.551880e+01 -7.453339e+00 5.229871e+00 1.308111e+00 3.693877e+00
<VARIANCE> 12
 1.892937e+02 2.210687e+02 7.630544e+02 3.852272e+02 3.763700e+02 6.853955e+02 8.642990e+02 4.457468e+02 5.644337e+02 4.858304e+02 2.824689e+02 2.845472e+02
<GCONST> 9.442586e+01
<TRANSP> 5
 0.000000e+00 1.000000e+00 0.000000e+00 0.000000e+00 0.000000e+00
 0.000000e+00 7.630306e-01 2.369694e-01 0.000000e+00 0.000000e+00
 0.000000e+00 0.000000e+00 6.186922e-01 3.813079e-01 0.000000e+00
 0.000000e+00 0.000000e+00 0.000000e+00 5.587870e-01 4.412130e-01
 0.000000e+00 0.000000e+00 0.000000e+00 0.000000e+00 0.000000e+00
<ENDHMM>
~h "s"
<BEGINHMM>
<NUMSTATES> 5
<STATE> 2
<MEAN> 12
 -4.053286e+01 5.728092e+00 1.276610e+00 4.240410e+00 1.047833e+00 -7.500152e+00 -6.078224e-01 6.543136e+00 -3.605430e+00 1.997507e+00 -3.319148e+00 5.232147e+00
<VARIANCE> 12
 3.314640e+02 2.323306e+02 2.884517e+02 3.188813e+02 4.030146e+02 3.244997e+02 3.155198e+02 2.445418e+02 2.135698e+02 2.020642e+02 1.997467e+02 1.754021e+02
<GCONST> 8.890710e+01
<STATE> 3
<MEAN> 12
 -5.269650e+01 8.128399e+00 -1.660495e+01 4.814525e+00 -8.323689e+00 -4.721891e+00 -2.968948e+00 2.607446e+00 -6.843582e+00 2.065117e+00 -2.366008e+00 6.141648e+00
<VARIANCE> 12
 1.048577e+02 1.291859e+02 1.288553e+02 2.146202e+02 2.750791e+02 2.522191e+02 1.404849e+02 1.340497e+02 1.373618e+02 1.229199e+02 1.237197e+02 1.064616e+02
<GCONST> 8.200656e+01
<STATE> 4
<MEAN> 12
 -5.125459e+01 4.781046e+00 -8.570062e+00 -4.857970e+00 -1.771177e+00 -9.623305e+00 -5.112601e+00 3.138332e+00 -5.720754e+00 3.662393e+00 -5.851108e+00 5.306814e+00
<VARIANCE> 12
 2.122553e+02 1.432568e+02 1.673898e+02 2.558766e+02 3.295950e+02 2.726164e+02 1.961341e+02 1.689051e+02 1.665677e+02 1.611668e+02 1.738785e+02 1.501698e+02
<GCONST> 8.522400e+01
<TRANSP> 5
 0.000000e+00 1.000000e+00 0.000000e+00 0.000000e+00 0.000000e+00
 0.000000e+00 5.471482e-01 4.528519e-01 0.000000e+00 0.000000e+00
 0.000000e+00 0.000000e+00 8.017615e-01 1.982385e-01 0.000000e+00
 0.000000e+00 0.000000e+00 0.000000e+00 6.289207e-01 3.710793e-01
 0.000000e+00 0.000000e+00 0.000000e+00 0.000000e+00 0.000000e+00
<ENDHMM>
~h "t"
<BEGINHMM>
<NUMSTATES> 5
<STATE> 2
<MEAN> 12
 -2.321572e+01 7.555936e+00 1.333805e+01 4.049588e+00 5.101205e-01 -8.896050e-01 -1.461815e+00 -3.204473e+00 -6.449981e+00 1.317577e+00 -1.807028e+00 1.494063e+00
<VARIANCE> 12
 2.875242e+02 2.456870e+02 3.468949e+02 3.602150e+02 1.934549e+02 1.874863e+02 2.048441e+02 2.167420e+02 1.894521e+02 1.589617e+02 1.444574e+02 1.235420e+02
<GCONST> 8.625768e+01
<STATE> 3
<MEAN> 12
 -3.594080e+01 2.393933e+00 1.585503e+01 -6.178056e+00 -9.498729e+00 -1.132066e+01 5.723127e+00 -3.096352e+00 -1.266510e+01 1.838829e+00 -3.524849e-01 8.206151e+00
<VARIANCE> 12
 3.176547e+02 1.594259e+02 2.415445e+02 2.408122e+02 2.013745e+02 2.262943e+02 2.551801e+02 2.631196e+02 2.001432e+02 1.838042e+02 1.902470e+02 1.615374e+02
<GCONST> 8.654569e+01
<STATE> 4
<MEAN> 12
 -9.680135e+00 -6.789446e-01 3.413992e+01 2.858151e+00 -9.945025e+00 -1.752015e+01 8.824565e+00 -5.063723e+00 -5.457395e+00 7.237312e-01 -3.057402e+00 1.290080e+01
<VARIANCE> 12
 2.697418e+02 1.614031e+02 4.055418e+02 2.342149e+02 1.953390e+02 2.920416e+02 3.143427e+02 4.798959e+02 2.187044e+02 1.988502e+02 2.593998e+02 2.269010e+02
<GCONST> 8.873620e+01
<TRANSP> 5
 0.000000e+00 1.000000e+00 0.000000e+00 0.000000e+00 0.000000e+00
 0.000000e+00 7.151996e-01 2.848004e-01 0.000000e+00 0.000000e+00
 0.000000e+00 0.000000e+00 6.597205e-01 3.402795e-01 0.000000e+00
 0.000000e+00 0.000000e+00 0.000000e+00 6.714862e-01 3.285138e-01
 0.000000e+00 0.000000e+00 0.000000e+00 0.000000e+00 0.000000e+00
<ENDHMM>
~h "v"
<BEGINHMM>
<NUMSTATES> 5
<STATE> 2
<MEAN> 12
 1.207824e+01 -2.808826e+01 1.500215e+01 -1.904375e+01 -1.041200e+01 -2.163430e+01 4.955472e+00 1.377144e+01 1.628924e+01 1.083578e+01 -4.406851e+00 7.874643e+00
<VARIANCE> 12
 6.686826e+01 1.335893e+02 2.842893e+02 2.155838e+02 2.397794e+02 2.261278e+02 8.105405e+02 2.630849e+02 2.658893e+02 4.093587e+02 3.116284e+02 3.589586e+02
<GCONST> 8.856905e+01
<STATE> 3
<MEAN> 12
 1.797734e+01 -1.947308e+01 1.773059e+01 -4.253051e+00 -5.324839e+00 -2.088216e+01 -1.361828e+01 3.007390e+00 5.784419e+00 1.954214e+01 -2.196890e+00 -5.264792e-01
<VARIANCE> 12
 6.219112e+01 1.469470e+02 2.809858e+02 2.634869e+02 3.329431e+02 2.789164e+02 5.396681e+02 3.149745e+02 4.374162e+02 3.763649e+02 3.208788e+02 3.227613e+02
<GCONST> 8.942888e+01
<STATE> 4
<MEAN> 12
 3.347451e+00 -3.199309e+00 1.684914e+01 1.251430e+01 6.619892e+00 -1.783864e+00 -1.570408e+00 3.358369e+00 3.074434e+00 9.520561e+00 -2.973458e+00 3.677213e+00
<VARIANCE> 12
 2.942086e+02 1.846107e+02 2.018247e+02 2.538855e+02 2.523092e+02 2.948802e+02 3.068098e+02 2.734369e+02 2.564076e+02 2.564496e+02 2.125527e+02 2.183582e+02
<GCONST> 8.819490e+01
<TRANSP> 5
 0.000000e+00 1.000000e+00 0.000000e+00 0.000000e+00 0.000000e+00
 0.000000e+00 7.256335e-01 2.743665e-01 0.000000e+00 0.000000e+00
 0.000000e+00 0.000000e+00 5.248371e-01 4.751629e-01 0.000000e+00
 0.000000e+00 0.000000e+00 0.000000e+00 7.364265e-01 2.635735e-01
 0.000000e+00 0.000000e+00 0.000000e+00 0.000000e+00 0.000000e+00
<ENDHMM>
~h "w"
<BEGINHMM>
<NUMSTATES> 5
<STATE> 2
<MEAN> 12
 3.237522e+01 5.792687e+00 1.659706e+01 -4.351052e+01 -1.998811e+01 3.895232e+00 -4.216049e+00 2.344457e+01 -8.948179e+00 8.601880e+00 3.177023e+00 -1.884775e+00
<VARIANCE> 12
 4.255502e+01 1.719581e+02 3.156617e+02 2.926929e+02 4.865904e+02 3.177976e+02 7.181147e+02 3.430950e+02 4.325617e+02 4.302330e+02 3.263686e+02 3.139030e+02
<GCONST> 9.042100e+01
<STATE> 3
<MEAN> 12
 2.821405e+01 -9.923533e+00 -4.478939e-01 -4.677511e+01 4.918035e+00 1.941199e+01 9.439590e-01 1.975681e+01 -1.161420e+01 1.967533e+00 1.468716e+01 5.459552e+00
<VARIANCE> 12
 4.648296e+01 1.463341e+02 2.323283e+02 2.986758e+02 6.058517e+02 2.956975e+02 5.578216e+02 4.296747e+02 3.981657e+02 4.328741e+02 3.039890e+02 3.001037e+02
<GCONST> 8.998849e+01
<STATE> 4
<MEAN> 12
 1.981839e+01 -2.606596e+01 -1.573357e-01 -2.824152e+01 2.305716e+01 1.064938e+01 -1.135198e+01 1.642398e+01 4.236993e+00 1.055366e+01 1.042689e+01 -3.406951e+00
<VARIANCE> 12
 6.402276e+01 1.359806e+02 1.998859e+02 3.079055e+02 4.628188e+02 4.159551e+02 4.776754e+02 4.662580e+02 4.099538e+02 3.369164e+02 3.766590e+02 3.166724e+02
<GCONST> 9.016048e+01
<TRANSP> 5
 0.000000e+00 1.000000e+00 0.000000e+00 0.000000e+00 0.000000e+00
 0.000000e+00 6.659295e-01 3.340705e-01 0.000000e+00 0.000000e+00
 0.000000e+00 0.000000e+00 7.278244e-01 2.721756e-01 0.000000e+00
 0.000000e+00 0.000000e+00 0.000000e+00 7.833913e-01 2.166087e-01
 0.000000e+00 0.000000e+00 0.000000e+00 0.000000e+00 0.000000e+00
<ENDHMM>
~h "z"
<BEGINHMM>
<NUMSTATES> 5
<STATE> 2
<MEAN> 12
 -8.846208e+00 2.013375e+01 1.939570e+01 2.447909e+01 6.618236e+00 -1.994730e+00 -2.975753e-01 4.301932e+00 -1.664708e-02 1.559447e+00 -6.755611e+00 7.785386e+00
<VARIANCE> 12
 2.733784e+02 2.275615e+02 2.733901e+02 2.891360e+02 3.174265e+02 2.741195e+02 2.718640e+02 2.582209e+02 2.255904e+02 2.658737e+02 2.702952e+02 3.549070e+02
<GCONST> 8.937665e+01
<STATE> 3
<MEAN> 12
 -3.468728e+01 3.132678e+01 5.930046e+00 2.625873e+01 7.568322e+00 6.468890e+00 5.617168e+00 7.065733e+00 -1.204619e+00 4.969934e+00 -5.261317e-01 7.978232e+00
<VARIANCE> 12
 2.329568e+02 2.065933e+02 2.543634e+02 3.543922e+02 3.890674e+02 3.116184e+02 2.050518e+02 2.124495e+02 1.622786e+02 1.639629e+02 2.094896e+02 1.614096e+02
<GCONST> 8.725037e+01
<STATE> 4
<MEAN> 12
 -2.418762e+01 2.403151e+01 2.770181e+01 1.231730e+01 1.790397e+01 -1.226354e+01 -7.206704e+00 -2.685562e+00 -7.217094e+00 2.779186e+00 -1.542197e+01 2.414970e+00
<VARIANCE> 12
 2.728351e+02 1.542008e+02 1.592697e+02 2.789966e+02 5.166331e+02 2.419413e+02 2.641982e+02 1.947702e+02 1.356751e+02 1.740799e+02 2.653985e+02 2.505778e+02
<GCONST> 8.716277e+01
<TRANSP> 5
 0.000000e+00 1.000000e+00 0.000000e+00 0.000000e+00 0.000000e+00
 0.000000e+00 6.689778e-01 3.310222e-01 0.000000e+00 0.000000e+00
 0.000000e+00 0.000000e+00 8.172319e-01 1.827681e-01 0.000000e+00
 0.000000e+00 0.000000e+00 0.000000e+00 7.147941e-01 2.852059e-01
 0.000000e+00 0.000000e+00 0.000000e+00 0.000000e+00 0.000000e+00
<ENDHMM>
~h "ah"
<BEGINHMM>
<NUMSTATES> 5
<STATE> 2
<MEAN> 12
 1.941085e+01 -2.056664e+01 1.731324e+01 -8.918995e+00 7.836069e+00 -3.253185e+00 -1.947614e+01 7.569481e+00 -5.710304e+00 1.733114e+01 5.662265e+00 -3.627103e+00
<VARIANCE> 12
 6.526066e+01 1.487758e+02 1.753342e+02 2.332669e+02 2.350312e+02 3.256403e+02 4.540588e+02 4.826866e+02 5.273024e+02 4.539634e+02 3.941040e+02 2.968295e+02
<GCONST> 8.945291e+01
<STATE> 3
<MEAN> 12
 1.677684e+01 -1.325866e+01 2.647414e+01 4.630028e-01 4.929903e+00 -1.238003e+01 2.236006e+00 1.261395e+01 -5.548503e-01 8.341502e+00 -7.573219e+00 9.953568e+00
<VARIANCE> 12
 5.708561e+01 1.184893e+02 1.946900e+02 3.172883e+02 2.434555e+02 4.573427e+02 4.664562e+02 4.638767e+02 4.190578e+02 4.833925e+02 3.499018e+02 3.599759e+02
<GCONST> 8.977280e+01
<STATE> 4
<MEAN> 12
 1.910318e+01 1.159740e+00 3.531443e+01 1.429464e+01 -4.427616e+00 -6.088334e-01 1.825268e+01 -7.611314e+00 9.165197e-01 2.079186e+00 -9.927167e+00 1.923914e+01
<VARIANCE> 12
 4.205061e+01 1.288015e+02 1.344439e+02 2.279648e+02 2.395561e+02 4.602382e+02 5.134522e+02 4.239790e+02 5.585872e+02 6.722773e+02 6.187989e+02 5.316419e+02
<GCONST> 9.042322e+01
<TRANSP> 5
 0.000000e+00 1.000000e+00 0.000000e+00 0.000000e+00 0.000000e+00
 0.000000e+00 7.549298e-01 2.450702e-01 0.000000e+00 0.000000e+00
 0.000000e+00 0.000000e+00 5.738760e-01 4.261239e-01 0.000000e+00
 0.000000e+00 0.000000e+00 0.000000e+00 6.501184e-01 3.498816e-01
 0.000000e+00 0.000000e+00 0.000000e+00 0.000000e+00 0.000000e+00
<ENDHMM>
~h "ao"
<BEGINHMM>
<NUMSTATES> 5
<STATE> 2
<MEAN> 12
 3.583775e+01 1.622061e+01 1.581714e+01 -4.676238e+01 -2.481271e+01 5.675401e-01 -6.861190e-01 4.755022e+00 -7.252573e+00 7.312956e+00 -1.162657e+01 3.505250e+00
<VARIANCE> 12
 5.436979e+01 1.407660e+02 2.165678e+02 3.881732e+02 5.203276e+02 2.456367e+02 3.176765e+02 2.114188e+02 1.986076e+02 2.172983e+02 2.080144e+02 3.135544e+02
<GCONST> 8.696815e+01
<STATE> 3
<MEAN> 12
 3.514741e+01 1.373961e+01 1.473855e+01 -4.211938e+01 -2.721741e+01 -5.748420e+00 -3.938265e+00 1.671242e+01 -2.224962e+01 1.102965e+01 -5.667696e+00 -2.629503e+00
<VARIANCE> 12
 4.664339e+01 2.133065e+02 2.792202e+02 2.359539e+02 4.302931e+02 4.736501e+02 6.844686e+02 4.982035e+02 5.013223e+02 5.290916e+02 3.850094e+02 4.292903e+02
<GCONST> 9.182382e+01
<STATE> 4
<MEAN> 12
 3.863076e+01 -4.977080e+00 -1.472510e+01 -2.660880e+01 1.518124e+00 -8.812999e+00 -8.747215e+00 1.373485e+01 -2.300322e+01 4.871658e+00 4.523599e+00 1.381613e+01
<VARIANCE> 12
 6.236659e+01 2.141031e+02 2.883658e+02 2.764214e+02 6.612935e+02 4.653797e+02 1.023675e+03 7.022471e+02 5.307371e+02 7.763652e+02 4.051313e+02 3.616995e+02
<GCONST> 9.378658e+01
<TRANSP> 5
 0.000000e+00 1.000000e+00 0.000000e+00 0.000000e+00 0.000000e+00
 0.000000e+00 8.328788e-01 1.671212e-01 0.000000e+00 0.000000e+00
 0.000000e+00 0.000000e+00 8.048335e-01 1.951665e-01 0.000000e+00
 0.000000e+00 0.000000e+00 0.000000e+00 8.225366e-01 1.774634e-01
 0.000000e+00 0.000000e+00 0.000000e+00 0.000000e+00 0.000000e+00
<ENDHMM>
~h "ay"
<BEGINHMM>
<NUMSTATES> 5
<STATE> 2
<MEAN> 12
 1.964007e+01 -3.186645e+01 -3.850457e+00 -2.354636e+01 9.552694e+00 1.204357e+01 -7.894529e+00 6.472671e+00 1.116076e+01 1.390125e+01 2.523755e+00 -6.173296e+00
<VARIANCE> 12
 6.481786e+01 1.336973e+02 3.045297e+02 3.586338e+02 3.533202e+02 3.679991e+02 4.711500e+02 3.676871e+02 3.697004e+02 3.574383e+02 4.606016e+02 3.748073e+02
<GCONST> 9.041122e+01
<STATE> 3
<MEAN> 12
 1.482524e+01 -4.112885e+01 3.497488e+00 -1.946579e+01 2.040949e+01 3.881138e+00 -9.964638e+00 2.278322e+01 1.007049e+01 6.461040e+00 -5.955244e+00 -1.803933e+00
<VARIANCE> 12
 5.134172e+01 1.258530e+02 1.696191e+02 2.317594e+02 4.685539e+02 2.764064e+02 3.391711e+02 3.883122e+02 3.001017e+02 3.105719e+02 3.413666e+02 4.425803e+02
<GCONST> 8.833536e+01
<STATE> 4
<MEAN> 12
 1.147230e+01 -3.286251e+01 1.831744e+01 -1.062779e+01 -3.686194e-01 -7.837376e+00 2.189833e+00 2.544576e+01 4.026297e+00 1.174441e+00 -1.835236e+00 7.441692e+00
<VARIANCE> 12
 6.979491e+01 1.536531e+02 4.749649e+02 2.715437e+02 4.174651e+02 2.041212e+02 4.991053e+02 3.213798e+02 3.844872e+02 3.343092e+02 3.169539e+02 2.589392e+02
<GCONST> 8.951983e+01
<TRANSP> 5
 0.000000e+00 1.000000e+00 0.000000e+00 0.000000e+00 0.000000e+00
 0.000000e+00 8.434466e-01 1.565534e-01 0.000000e+00 0.000000e+00
 0.000000e+00 0.000000e+00 8.328298e-01 1.671702e-01 0.000000e+00
 0.000000e+00 0.000000e+00 0.000000e+00 8.127087e-01 1.872913e-01
 0.000000e+00 0.000000e+00 0.000000e+00 0.000000e+00 0.000000e+00
<ENDHMM>
~h "eh"
<BEGINHMM>
<NUMSTATES> 5
<STATE> 2
<MEAN> 12
 -4.099459e+01 9.587907e+00 1.268713e+00 -3.370298e+00 -9.550954e-01 -1.424335e+01 -2.784824e+00 1.918480e+00 -1.921451e+00 2.078992e+00 -9.234982e+00 1.036867e+01
<VARIANCE> 12
 4.239982e+02 8.516049e+01 1.304366e+02 2.703533e+02 2.920894e+02 2.462819e+02 1.399881e+02 1.593020e+02 1.557985e+02 1.502715e+02 2.135229e+02 1.597286e+02
<GCONST> 8.471354e+01
<STATE> 3
<MEAN> 12
 4.017650e+00 2.765207e+00 1.845795e+01 3.685580e+00 -6.791330e+00 -1.916934e+01 -1.101977e+01 -3.766974e+00 4.838278e+00 5.505748e+00 -9.156364e+00 1.232497e+01
<VARIANCE> 12
 2.135582e+02 1.040752e+02 1.229509e+02 1.630635e+02 3.361553e+02 1.765009e+02 2.470470e+02 1.961536e+02 1.898338e+02 3.168813e+02 2.949758e+02 3.837146e+02
<GCONST> 8.639031e+01
<STATE> 4
<MEAN> 12
 1.084737e+01 -1.742259e+01 2.179916e+01 -1.489373e+01 -1.070468e+01 -2.841560e+01 -7.363988e+00 4.268651e+00 1.224370e+01 1.237651e+01 -6.544707e+00 1.711316e+01
<VARIANCE> 12
 5.283768e+01 8.762486e+01 1.464195e+02 1.790190e+02 2.840115e+02 2.236974e+02 8.164979e+02 2.687177e+02 3.822673e+02 4.642164e+02 4.037633e+02 4.272363e+02
<GCONST> 8.817141e+01
<TRANSP> 5
 0.000000e+00 1.000000e+00 0.000000e+00 0.000000e+00 0.000000e+00
 0.000000e+00 4.061460e-01 5.938540e-01 0.000000e+00 0.000000e+00
 0.000000e+00 0.000000e+00 1.890366e-01 8.109635e-01 0.000000e+00
 0.000000e+00 0.000000e+00 0.000000e+00 6.388891e-01 3.611109e-01
 0.000000e+00 0.000000e+00 0.000000e+00 0.000000e+00 0.000000e+00
<ENDHMM>
~h "ey"
<BEGINHMM>
<NUMSTATES> 5
<STATE> 2
<MEAN> 12
 -2.992546e+00 -1.335345e+01 2.307850e+01 -1.151890e+01 -2.203228e+01 -1.928164e+01 1.525939e+00 3.849092e+00 2.816412e+00 8.770416e+00 -1.202008e+00 7.760609e+00
<VARIANCE> 12
 2.431072e+02 2.292106e+02 3.237069e+02 4.054285e+02 3.207835e+02 4.324125e+02 6.642303e+02 3.891339e+02 3.727328e+02 3.242032e+02 2.892865e+02 2.924920e+02
<GCONST> 9.211824e+01
<STATE> 3
<MEAN> 12
 4.027635e+00 -1.869664e+01 5.156337e+01 -2.324229e+01 -2.447879e+01 -1.865065e+01 8.252675e-01 3.032144e+00 -7.663545e+00 1.447476e+01 1.259298e+00 1.068820e+01
<VARIANCE> 12
 5.433318e+01 1.533726e+02 2.546212e+02 4.292047e+02 1.897595e+02 2.629008e+02 5.961268e+02 3.205459e+02 6.166315e+02 2.395957e+02 1.632680e+02 1.561350e+02
<GCONST> 8.771159e+01
<STATE> 4
<MEAN> 12
 -2.861680e+00 3.616449e+00 6.910168e+01 -1.571816e+01 -1.101156e+01 -2.958862e+00 -4.761940e+00 -1.906251e+01 -1.172987e+01 2.971205e+00 -1.065217e+01 6.223432e+00
<VARIANCE> 12
 6.138807e+01 2.473873e+02 2.505306e+02 5.833068e+02 2.730502e+02 3.083807e+02 3.005089e+02 4.725380e+02 7.189673e+02 3.710009e+02 3.114786e+02 3.831117e+02
<GCONST> 9.096326e+01
<TRANSP> 5
 0.000000e+00 1.000000e+00 0.000000e+00 0.000000e+00 0.000000e+00
 0.000000e+00 7.472228e-01 2.527772e-01 0.000000e+00 0.000000e+00
 0.000000e+00 0.000000e+00 8.605331e-01 1.394669e-01 0.000000e+00
 0.000000e+00 0.000000e+00 0.000000e+00 8.911419e-01 1.088581e-01
 0.000000e+00 0.000000e+00 0.000000e+00 0.000000e+00 0.000000e+00
<ENDHMM>
~h "hh"
<BEGINHMM>
<NUMSTATES> 5
<STATE> 2
<MEAN> 12
 1.280257e+01 1.242191e+01 1.126691e+01 8.638371e-01 3.742034e+00 1.127209e+01 8.823003e+00 1.659928e+00 -5.912316e+00 5.672808e+00 -2.352395e+00 4.136007e+00
<VARIANCE> 12
 3.472665e+02 2.589443e+02 1.804698e+02 3.620017e+02 2.931506e+02 2.536953e+02 2.467639e+02 2.889613e+02 3.825425e+02 2.531764e+02 2.130235e+02 2.014973e+02
<GCONST> 8.908810e+01
<STATE> 3
<MEAN> 12
 3.075876e+01 2.310302e+01 1.659457e+01 -8.251746e+00 -1.022725e+01 3.002311e+00 8.096806e+00 -7.790947e-01 -3.051761e+00 1.021918e+01 -5.948640e+00 4.328855e+00
<VARIANCE> 12
 7.321720e+01 2.247980e+02 1.303105e+02 2.535840e+02 2.307040e+02 2.583522e+02 2.422418e+02 2.630240e+02 3.952340e+02 2.428524e+02 2.246924e+02 2.513941e+02
<GCONST> 8.664010e+01
<STATE> 4
<MEAN> 12
 3.408475e+01 1.958661e+01 2.275026e+01 -2.301660e+01 -2.249250e+01 -3.680764e+00 -3.179132e+00 6.509891e+00 -9.457492e+00 1.448520e+01 -2.975506e+00 -2.186810e+00
<VARIANCE> 12
 4.527946e+01 2.007509e+02 2.102519e+02 2.760349e+02 3.110406e+02 2.858744e+02 3.984437e+02 2.978186e+02 4.320103e+02 3.498804e+02 2.940235e+02 2.881292e+02
<GCONST> 8.849091e+01
<TRANSP> 5
 0.000000e+00 1.000000e+00 0.000000e+00 0.000000e+00 0.000000e+00
 0.000000e+00 5.915694e-01 4.084305e-01 0.000000e+00 0.000000e+00
 0.000000e+00 0.000000e+00 6.543959e-01 3.456041e-01 0.000000e+00
 0.000000e+00 0.000000e+00 0.000000e+00 7.208090e-01 2.791910e-01
 0.000000e+00 0.000000e+00 0.000000e+00 0.000000e+00 0.000000e+00
<ENDHMM>
~h "ih"
<BEGINHMM>
<NUMSTATES> 5
<STATE> 2
<MEAN> 12
 -4.683783e+01 8.454931e+00 -1.483718e+01 7.830113e+00 -1.432806e+01 -1.368351e+00 -2.807857e+00 1.194707e+00 -7.336787e+00 1.453551e+00 -1.594011e+00 7.887809e+00
<VARIANCE> 12
 1.134222e+02 8.766381e+01 2.050438e+02 1.698306e+02 1.982218e+02 2.507321e+02 1.270005e+02 1.205358e+02 1.379622e+02 1.207398e+02 1.599868e+02 1.210116e+02
<GCONST> 8.175867e+01
<STATE> 3
<MEAN> 12
 -4.916173e+00 8.178983e+00 2.172601e+01 1.003703e+01 -8.902967e+00 -1.567838e+01 -7.662329e+00 -4.237243e+00 -1.963457e+00 1.409384e+00 -6.357930e+00 1.047408e+01
<VARIANCE> 12
 2.820016e+02 1.457107e+02 1.406003e+02 1.807248e+02 3.800403e+02 1.766093e+02 2.411524e+02 1.455533e+02 1.544722e+02 1.910845e+02 2.780862e+02 3.475128e+02
<GCONST> 8.617261e+01
<STATE> 4
<MEAN> 12
 5.542822e+00 -1.320352e+01 4.285084e+01 -1.716641e+00 -1.616095e+01 -3.012511e+01 -4.117162e+00 -5.573590e+00 -1.140559e+01 8.420297e+00 -3.255448e+00 1.141590e+01
<VARIANCE> 12
 7.373589e+01 1.898725e+02 1.955223e+02 3.766904e+02 3.383406e+02 3.258451e+02 8.821199e+02 6.287855e+02 5.532850e+02 2.930651e+02 3.043766e+02 3.687729e+02
<GCONST> 9.126978e+01
<TRANSP> 5
 0.000000e+00 1.000000e+00 0.000000e+00 0.000000e+00 0.000000e+00
 0.000000e+00 7.066587e-01 2.933413e-01 0.000000e+00 0.000000e+00
 0.000000e+00 0.000000e+00 4.049285e-01 5.950716e-01 0.000000e+00
 0.000000e+00 0.000000e+00 0.000000e+00 8.868785e-01 1.131215e-01
 0.000000e+00 0.000000e+00 0.000000e+00 0.000000e+00 0.000000e+00
<ENDHMM>
~h "iy"
<BEGINHMM>
<NUMSTATES> 5
<STATE> 2
<MEAN> 12
 2.625575e+00 -9.503079e+00 6.728272e+01 -1.034822e-01 -8.660597e+00 -1.701545e+01 -2.511607e+00 -3.680756e+00 -2.531920e+01 4.563118e+00 -6.569848e+00 6.041295e+00
<VARIANCE> 12
 7.666553e+01 1.975092e+02 2.378468e+02 3.270665e+02 2.141690e+02 3.224284e+02 5.024814e+02 6.142796e+02 4.020496e+02 3.903569e+02 2.265689e+02 3.492332e+02
<GCONST> 8.996664e+01
<STATE> 3
<MEAN> 12
 1.020448e-01 5.040615e+00 6.439655e+01 -8.831280e+00 -6.383752e+00 -4.843606e+00 3.237109e+00 -1.625174e+01 -7.773799e+00 6.049448e+00 -1.009082e+01 1.077220e+01
<VARIANCE> 12
 9.913164e+01 3.808518e+02 1.726077e+02 4.940663e+02 2.562943e+02 5.531921e+02 5.126876e+02 6.173558e+02 5.203055e+02 4.213628e+02 2.878030e+02 3.448782e+02
<GCONST> 9.227760e+01
<STATE> 4
<MEAN> 12
 9.099981e-01 -4.111690e+00 3.835653e+01 5.698118e+00 -4.159559e+00 -5.973543e+00 1.942273e-02 4.992574e-02 -7.653126e+00 1.815872e+00 -4.097563e+00 5.072530e+00
<VARIANCE> 12
 3.435692e+02 4.605652e+02 2.431151e+02 4.753192e+02 3.545931e+02 1.210714e+03 8.400286e+02 3.850891e+02 3.832406e+02 4.108053e+02 2.625555e+02 2.592144e+02
<GCONST> 9.443564e+01
<TRANSP> 5
 0.000000e+00 1.000000e+00 0.000000e+00 0.000000e+00 0.000000e+00
 0.000000e+00 7.924823e-01 2.075177e-01 0.000000e+00 0.000000e+00
 0.000000e+00 0.000000e+00 7.251001e-01 2.748998e-01 0.000000e+00
 0.000000e+00 0.000000e+00 0.000000e+00 6.133921e-01 3.866079e-01
 0.000000e+00 0.000000e+00 0.000000e+00 0.000000e+00 0.000000e+00
<ENDHMM>
~h "ow"
<BEGINHMM>
<NUMSTATES> 5
<STATE> 2
<MEAN> 12
 1.559856e+01 -2.379157e+01 3.265356e-01 -1.976062e+01 3.549131e+00 -1.500183e+01 -2.304847e+00 4.686786e+00 1.121908e+01 1.962499e+01 -6.566183e+00 1.643624e+00
<VARIANCE> 12
 2.182195e+02 1.866387e+02 2.416739e+02 2.115013e+02 2.703426e+02 4.074398e+02 5.639973e+02 3.708711e+02 6.181929e+02 5.243091e+02 5.805625e+02 3.529160e+02
<GCONST> 9.229062e+01
<STATE> 3
<MEAN> 12
 2.424011e+01 -1.364540e+01 3.504156e+00 -3.542545e+01 6.721607e+00 9.117798e-01 -7.455866e+00 -9.957365e+00 -7.909785e+00 2.834232e+01 6.061659e+00 7.374589e+00
<VARIANCE> 12
 6.760357e+01 1.273212e+02 2.436077e+02 3.208887e+02 3.082248e+02 3.775071e+02 4.151373e+02 3.813024e+02 1.066538e+03 3.876658e+02 4.189987e+02 2.499979e+02
<GCONST> 9.050981e+01
<STATE> 4
<MEAN> 12
 2.428134e+01 7.245035e+00 7.109740e+00 -2.811730e+01 -8.222985e+00 1.446355e+01 6.773406e-01 -1.541736e+00 -1.251970e+01 4.068524e+00 -1.174919e+00 7.487935e+00
<VARIANCE> 12
 1.565774e+02 2.407194e+02 2.823916e+02 7.032605e+02 6.783777e+02 3.907993e+02 4.708902e+02 4.347529e+02 5.769988e+02 3.654104e+02 4.142171e+02 3.813437e+02
<GCONST> 9.373699e+01
<TRANSP> 5
 0.000000e+00 1.000000e+00 0.000000e+00 0.000000e+00 0.000000e+00
 0.000000e+00 7.987621e-01 2.012379e-01 0.000000e+00 0.000000e+00
 0.000000e+00 0.000000e+00 8.297800e-01 1.702200e-01 0.000000e+00
 0.000000e+00 0.000000e+00 0.000000e+00 8.880433e-01 1.119566e-01
 0.000000e+00 0.000000e+00 0.000000e+00 0.000000e+00 0.000000e+00
<ENDHMM>
~h "sp"
<BEGINHMM>
<NUMSTATES> 3
<STATE> 2
~s "silst"
<TRANSP> 3
 0.000000e+00 1.972845e-01 8.027156e-01
 0.000000e+00 7.799385e-01 2.200616e-01
 0.000000e+00 0.000000e+00 0.000000e+00
<ENDHMM>
~h "th"
<BEGINHMM>
<NUMSTATES> 5
<STATE> 2
<MEAN> 12
 -2.846143e+01 -1.810822e+00 9.570889e-01 3.613020e+00 -7.823805e+00 3.212619e-01 -3.941833e+00 5.109789e-01 -4.291734e+00 1.783381e+00 -3.274611e+00 5.716697e+00
<VARIANCE> 12
 1.330081e+02 1.410672e+02 1.352458e+02 1.635636e+02 1.529830e+02 1.588802e+02 1.634116e+02 1.630930e+02 1.626115e+02 1.452761e+02 1.503003e+02 1.406446e+02
<GCONST> 8.221641e+01
<STATE> 3
<MEAN> 12
 -1.453285e+01 -1.071876e+01 2.433179e+01 9.234108e+00 -6.832551e+00 -8.599752e+00 3.425400e-01 2.757103e+00 -1.878955e+00 6.968243e+00 -1.817724e+00 4.640960e+00
<VARIANCE> 12
 3.246148e+02 2.085168e+02 1.796116e+02 2.471256e+02 2.105717e+02 2.430296e+02 2.355281e+02 2.334328e+02 2.034798e+02 1.797921e+02 1.739342e+02 2.123551e+02
<GCONST> 8.665992e+01
<STATE> 4
<MEAN> 12
 2.339009e+01 -1.289093e+01 1.364955e+01 1.977470e+01 1.313250e+01 -9.048877e+00 -1.837720e+01 -7.136097e+00 -6.315266e+00 4.577862e+00 -2.478358e+00 3.663292e+00
<VARIANCE> 12
 2.168633e+02 1.432215e+02 2.404097e+02 1.609199e+02 1.749138e+02 3.894962e+02 2.497654e+02 2.527029e+02 1.749229e+02 1.567012e+02 1.904155e+02 1.440176e+02
<GCONST> 8.558115e+01
<TRANSP> 5
 0.000000e+00 1.000000e+00 0.000000e+00 0.000000e+00 0.000000e+00
 0.000000e+00 8.563030e-01 1.436970e-01 0.000000e+00 0.000000e+00
 0.000000e+00 0.000000e+00 5.980873e-01 4.019127e-01 0.000000e+00
 0.000000e+00 0.000000e+00 0.000000e+00 5.833719e-01 4.166282e-01
 0.000000e+00 0.000000e+00 0.000000e+00 0.000000e+00 0.000000e+00
<ENDHMM>
~h "uw"
<BEGINHMM>
<NUMSTATES> 5
<STATE> 2
<MEAN> 12
 8.502347e+00 -1.240250e+01 5.749024e+01 5.891261e+00 -2.096388e+00 -2.613777e+01 -3.102737e+00 3.953243e-01 -2.129875e+01 6.370719e+00 -1.385293e+01 1.290151e+01
<VARIANCE> 12
 5.328675e+01 1.433646e+02 1.775295e+02 2.900934e+02 1.673671e+02 3.449634e+02 8.034971e+02 5.155000e+02 3.327427e+02 3.306071e+02 2.150622e+02 4.736911e+02
<GCONST> 8.888247e+01
<STATE> 3
<MEAN> 12
 1.626848e+01 -1.144134e+01 4.169812e+01 1.897499e+01 8.460569e+00 -2.734133e+00 -3.213420e+01 8.893081e+00 -2.425177e+01 4.496025e-01 -4.855515e+00 -1.411410e+01
<VARIANCE> 12
 7.684708e+01 1.711160e+02 1.648720e+02 3.321183e+02 2.944893e+02 5.502957e+02 5.069545e+02 4.624307e+02 4.964290e+02 5.095073e+02 4.639813e+02 4.926072e+02
<GCONST> 9.159041e+01
<STATE> 4
<MEAN> 12
 1.377749e+01 9.202158e+00 1.529423e+01 6.543600e+00 1.251542e+01 7.170276e+00 7.459074e-01 -9.737241e+00 -9.850156e+00 6.836089e+00 -7.142469e+00 4.962411e+00
<VARIANCE> 12
 2.354258e+02 1.947892e+02 2.238096e+02 3.824142e+02 3.105925e+02 5.507542e+02 4.847808e+02 5.503588e+02 6.939965e+02 4.590329e+02 3.691916e+02 3.588512e+02
<GCONST> 9.315498e+01
<TRANSP> 5
 0.000000e+00 1.000000e+00 0.000000e+00 0.000000e+00 0.000000e+00
 0.000000e+00 8.446954e-01 1.553046e-01 0.000000e+00 0.000000e+00
 0.000000e+00 0.000000e+00 8.109519e-01 1.890481e-01 0.000000e+00
 0.000000e+00 0.000000e+00 0.000000e+00 8.272545e-01 1.727454e-01
 0.000000e+00 0.000000e+00 0.000000e+00 0.000000e+00 0.000000e+00
<ENDHMM>
~h "sil"
<BEGINHMM>
<NUMSTATES> 5
<STATE> 2
<MEAN> 12
 -1.312509e+01 -5.596846e+00 -1.237629e+00 5.103913e+00 2.499079e-01 -7.550708e-01 4.029835e+00 7.851450e+00 -8.820540e-01 -1.134715e+00 -5.455080e+00 8.296803e-02
<VARIANCE> 12
 7.364293e+01 1.298213e+02 1.338281e+02 1.325398e+02 1.670391e+02 2.121515e+02 2.254986e+02 2.406655e+02 2.316687e+02 2.181201e+02 1.758281e+02 1.610282e+02
<GCONST> 8.346204e+01
<STATE> 3
~s "silst"
<STATE> 4
<MEAN> 12
 -1.913504e+01 4.224366e+00 5.111542e+00 6.793219e+00 1.579456e+00 2.263689e+00 1.627659e+00 2.010436e+00 -9.130371e-01 4.373260e+00 9.157159e-02 2.710610e+00
<VARIANCE> 12
 1.582763e+02 1.838270e+02 1.160700e+02 1.450689e+02 1.472373e+02 1.508729e+02 1.587144e+02 1.460943e+02 1.482596e+02 1.330517e+02 1.253577e+02 1.081426e+02
<GCONST> 8.152843e+01
<TRANSP> 5
 0.000000e+00 1.000000e+00 0.000000e+00 0.000000e+00 0.000000e+00
 0.000000e+00 7.723820e-01 1.255558e-01 1.020623e-01 0.000000e+00
 0.000000e+00 0.000000e+00 9.131392e-01 8.686078e-02 0.000000e+00
 0.000000e+00 1.541669e-01 0.000000e+00 6.687019e-01 1.771312e-01
 0.000000e+00 0.000000e+00 0.000000e+00 0.000000e+00 0.000000e+00
<ENDHMM>
