~o
<STREAMINFO> 1 39
<VECSIZE> 39<NULLD><MFCC_D_A_0><DIAGC>
~v "varFloor1"
<VARIANCE> 39
 6.754232e+00 3.412257e+00 5.608447e+00 4.796207e+00 3.472295e+00 4.011117e+00 4.413517e+00 3.617792e+00 3.683716e+00 3.040219e+00 2.640150e+00 2.509556e+00 1.298279e+01 2.278196e-01 1.545969e-01 2.184490e-01 2.118026e-01 1.813457e-01 2.097697e-01 2.257949e-01 2.166197e-01 2.009621e-01 1.748386e-01 1.664882e-01 1.534702e-01 2.729188e-01 3.005251e-02 2.352015e-02 2.950212e-02 3.333421e-02 2.970494e-02 3.528043e-02 3.797136e-02 3.764201e-02 3.477513e-02 3.067418e-02 2.924890e-02 2.697371e-02 3.680276e-02
~s "silst"
<NUMMIXES> 16
<MIXTURE> 1 3.514268e-02
<MEAN> 39
 -1.704155e+01 1.205838e+01 7.140104e+00 1.253596e+01 6.971587e+00 7.566234e+00 6.578808e+00 8.190268e+00 4.969651e+00 5.488686e+00 3.306736e+00 4.408614e+00 5.242801e+01 3.741367e-01 9.126617e-01 1.179223e+00 1.365145e+00 1.541966e+00 1.670884e+00 1.570771e+00 1.465518e+00 1.515955e+00 1.433402e+00 1.385847e+00 1.033751e+00 1.052544e-01 1.062105e-01 -2.949259e-02 3.010346e-02 4.350035e-02 6.711251e-02 1.111565e-01 1.616719e-01 1.653579e-01 2.055544e-01 2.378232e-01 1.955515e-01 2.305890e-01 1.438709e-01
<VARIANCE> 39
 2.363229e+01 3.940644e+01 4.683383e+01 5.707046e+01 7.090072e+01 8.439304e+01 9.385867e+01 1.047937e+02 1.062988e+02 1.052189e+02 1.081664e+02 9.468564e+01 1.298279e+01 1.608331e+00 2.304422e+00 3.482368e+00 4.805955e+00 5.986498e+00 7.296645e+00 9.051711e+00 9.534638e+00 1.008168e+01 9.820339e+00 9.990660e+00 9.131081e+00 7.232614e-01 2.412262e-01 4.098746e-01 6.346214e-01 8.890354e-01 1.154027e+00 1.463219e+00 1.702031e+00 1.861085e+00 1.955521e+00 1.922046e+00 1.954284e+00 1.800597e+00 9.880187e-02
<GCONST> 1.456204e+02
<MIXTURE> 2 6.490145e-02
<MEAN> 39
 -2.522054e+01 5.238107e+00 -7.248489e-01 2.452752e+00 -4.121792e+00 -4.468574e+00 -6.268756e+00 -2.711752e+00 -1.621081e+00 2.670941e+00 3.436556e+00 4.818127e+00 4.820018e+01 5.168395e-01 7.029771e-01 9.210788e-01 1.104857e+00 1.225309e+00 1.356738e+00 1.415277e+00 1.337785e+00 1.283197e+00 1.265082e+00 1.108531e+00 9.233694e-01 2.721658e-01 3.478841e-01 2.189699e-01 3.445581e-01 4.654709e-01 5.823346e-01 7.209221e-01 8.342939e-01 7.642097e-01 5.395375e-01 3.621193e-01 1.493480e-01 1.643142e-01 2.937192e-01
<VARIANCE> 39
 2.067834e+01 2.217187e+01 2.953689e+01 3.879626e+01 5.037933e+01 6.426318e+01 7.717899e+01 8.251288e+01 8.360598e+01 8.319025e+01 8.157004e+01 7.387038e+01 1.298279e+01 9.985096e-01 1.625346e+00 2.892975e+00 3.981476e+00 5.082483e+00 6.229604e+00 7.627507e+00 8.378559e+00 8.852159e+00 8.821918e+00 8.487349e+00 7.942578e+00 4.477141e-01 2.454954e-01 3.770014e-01 6.307691e-01 8.743396e-01 1.083958e+00 1.299647e+00 1.578154e+00 1.735933e+00 1.754908e+00 1.790404e+00 1.761366e+00 1.594680e+00 1.281468e-01
<GCONST> 1.386097e+02
<MIXTURE> 3 6.397135e-02
<MEAN> 39
 -2.533213e+01 5.994912e+00 -5.683982e-02 2.788459e+00 -3.808616e+00 -3.817936e+00 -5.374677e+00 -1.742966e+00 -7.702585e-01 3.004188e+00 3.369587e+00 4.475360e+00 4.791703e+01 -5.803674e-03 1.181357e-01 1.885388e-01 1.883589e-01 2.019703e-01 2.346023e-01 2.537459e-01 3.590125e-01 5.005844e-01 5.834229e-01 6.756889e-01 6.656692e-01 1.551314e-02 1.500541e-01 1.114214e-01 1.906440e-01 2.962116e-01 3.551377e-01 3.590212e-01 3.680879e-01 3.762093e-01 3.417959e-01 3.161073e-01 2.815230e-01 2.628688e-01 1.222299e-01
<VARIANCE> 39
 1.351993e+01 1.569616e+01 2.261826e+01 3.159655e+01 4.440137e+01 5.627133e+01 6.585018e+01 7.070708e+01 7.186643e+01 7.108912e+01 6.873312e+01 6.388848e+01 1.298279e+01 6.702764e-01 1.345983e+00 2.476591e+00 3.531750e+00 4.693406e+00 5.741880e+00 6.858173e+00 7.675711e+00 7.877406e+00 7.769349e+00 7.637089e+00 7.098280e+00 2.763036e-01 1.158224e-01 2.459004e-01 4.490021e-01 6.644312e-01 8.779334e-01 1.062692e+00 1.255141e+00 1.409152e+00 1.492829e+00 1.489913e+00 1.458110e+00 1.360632e+00 4.988017e-02
<GCONST> 1.297288e+02
<MIXTURE> 4 7.458610e-02
<MEAN> 39
 -2.373055e+01 5.002498e+00 2.460253e-01 5.984272e+00 2.692816e+00 4.892334e+00 4.373891e+00 6.999626e+00 4.859352e+00 5.576059e+00 3.410379e+00 4.541709e+00 4.957386e+01 -2.695315e-01 3.860984e-01 5.620410e-01 4.409712e-01 4.177211e-01 4.008939e-01 2.703516e-01 3.294192e-01 7.756001e-01 1.297727e+00 1.437715e+00 1.159306e+00 -1.813840e-01 4.093443e-01 1.301648e-01 3.201087e-01 2.929133e-01 1.383272e-01 3.399067e-02 1.095622e-01 1.265645e-01 5.693595e-02 1.548438e-01 1.693322e-01 2.644092e-01 4.672777e-01
<VARIANCE> 39
 4.455170e+01 4.256341e+01 4.950785e+01 5.920197e+01 7.241195e+01 9.161339e+01 1.082856e+02 1.147465e+02 1.163841e+02 1.144580e+02 1.125251e+02 9.855934e+01 2.205779e+01 2.040406e+00 2.625159e+00 3.873162e+00 5.076196e+00 6.338161e+00 7.785232e+00 9.192168e+00 1.026597e+01 1.042087e+01 1.048682e+01 1.029776e+01 9.255267e+00 1.165831e+00 4.388392e-01 6.609654e-01 8.680464e-01 1.121807e+00 1.381292e+00 1.685642e+00 1.981754e+00 2.202102e+00 2.243551e+00 2.296569e+00 2.256276e+00 1.999648e+00 3.670523e-01
<GCONST> 1.530456e+02
<MIXTURE> 5 8.999290e-02
<MEAN> 39
 -2.662807e+01 4.618579e+00 -1.456795e+00 1.388753e+00 -5.532564e+00 -6.099290e+00 -8.221776e+00 -4.342254e+00 -2.438230e+00 2.246668e+00 3.244514e+00 4.394326e+00 4.728374e+01 9.131183e-02 2.271482e-01 3.210113e-01 3.708433e-01 4.138395e-01 4.617173e-01 4.436896e-01 4.402134e-01 4.795083e-01 5.180286e-01 4.513720e-01 4.059324e-01 6.219799e-02 1.671089e-01 1.112663e-01 1.978167e-01 2.593494e-01 3.619592e-01 4.599875e-01 5.532250e-01 5.350409e-01 3.747658e-01 2.669355e-01 1.501837e-01 1.755244e-01 1.705414e-01
<VARIANCE> 39
 1.394148e+01 1.902520e+01 2.632847e+01 3.546484e+01 4.748011e+01 6.010901e+01 7.096244e+01 7.708314e+01 7.813688e+01 7.747369e+01 7.465382e+01 6.806413e+01 1.298279e+01 6.699370e-01 1.349953e+00 2.446037e+00 3.510265e+00 4.633762e+00 5.692100e+00 6.818669e+00 7.600783e+00 7.937767e+00 7.897067e+00 7.755281e+00 7.135559e+00 3.055801e-01 1.687525e-01 3.173886e-01 5.426650e-01 7.873239e-01 1.018694e+00 1.209632e+00 1.441321e+00 1.607358e+00 1.646873e+00 1.647604e+00 1.614736e+00 1.470581e+00 9.012701e-02
<GCONST> 1.334301e+02
<MIXTURE> 6 6.345395e-02
<MEAN> 39
 -2.464274e+01 4.846262e+00 -4.584898e-01 4.398757e+00 4.721236e-01 2.223718e+00 1.215404e+00 4.049410e+00 2.714684e+00 4.348445e+00 3.046920e+00 4.416417e+00 4.875243e+01 -6.785309e-01 -1.859820e-02 -8.504510e-03 -4.022548e-01 -5.544401e-01 -6.661144e-01 -9.204065e-01 -8.812945e-01 -3.033307e-01 2.694672e-01 4.991697e-01 4.868133e-01 -3.895083e-01 3.111315e-01 -2.631603e-02 1.734734e-01 1.557444e-01 4.057720e-02 -4.689720e-02 6.868441e-02 1.286784e-01 4.731324e-02 1.260704e-01 1.412215e-01 2.336011e-01 4.659852e-01
<VARIANCE> 39
 3.283958e+01 3.569040e+01 4.471765e+01 5.244874e+01 6.656909e+01 8.532642e+01 1.017809e+02 1.068055e+02 1.089230e+02 1.047511e+02 1.020893e+02 9.139178e+01 1.553369e+01 2.109637e+00 2.858487e+00 4.140183e+00 5.202577e+00 6.582146e+00 8.180560e+00 9.651075e+00 1.069262e+01 1.063943e+01 1.075005e+01 1.032646e+01 9.072020e+00 1.252989e+00 4.098904e-01 6.478549e-01 8.860383e-01 1.125667e+00 1.361218e+00 1.649063e+00 1.960325e+00 2.171993e+00 2.213695e+00 2.253151e+00 2.187337e+00 1.923893e+00 3.615330e-01
<GCONST> 1.516185e+02
<MIXTURE> 7 3.612548e-02
<MEAN> 39
 -2.603293e+01 5.415682e+00 -1.002171e+00 1.525963e+00 -5.276703e+00 -5.280989e+00 -6.967911e+00 -3.212398e+00 -2.007426e+00 2.181505e+00 2.885250e+00 4.034342e+00 4.750335e+01 -3.085555e-01 -2.871002e-01 -3.160735e-01 -4.571786e-01 -5.326313e-01 -5.235428e-01 -5.220170e-01 -4.117810e-01 -2.736269e-01 -2.526106e-01 -1.659186e-01 4.316545e-02 -1.100191e-01 8.334480e-02 6.762023e-02 1.650109e-01 2.468295e-01 2.970682e-01 2.783369e-01 2.816283e-01 3.058972e-01 3.059951e-01 2.837954e-01 2.551799e-01 2.498896e-01 8.654997e-02
<VARIANCE> 39
 1.087739e+01 1.496560e+01 2.172065e+01 2.994350e+01 4.206025e+01 5.285614e+01 6.102749e+01 6.636240e+01 6.904223e+01 6.775761e+01 6.664877e+01 6.248993e+01 1.298279e+01 6.799232e-01 1.412752e+00 2.502032e+00 3.615143e+00 4.741584e+00 5.753119e+00 6.868093e+00 7.810196e+00 7.755634e+00 7.604832e+00 7.640923e+00 6.965560e+00 2.777496e-01 1.073049e-01 2.458864e-01 4.523204e-01 6.401108e-01 8.617461e-01 1.070768e+00 1.242157e+00 1.379440e+00 1.450962e+00 1.437440e+00 1.460364e+00 1.350376e+00 4.777590e-02
<GCONST> 1.287868e+02
<MIXTURE> 8 7.173805e-02
<MEAN> 39
 -1.951124e+01 8.965851e+00 3.797895e+00 8.934445e+00 3.341940e+00 3.896106e+00 2.908985e+00 4.991889e+00 2.208179e+00 2.977427e+00 1.424568e+00 3.128744e+00 5.153026e+01 -6.308661e-02 4.188234e-01 5.374981e-01 5.185785e-01 5.894839e-01 6.448666e-01 5.034134e-01 4.226009e-01 5.017055e-01 5.577395e-01 4.955146e-01 3.995115e-01 -8.169486e-02 -7.496152e-02 -2.081472e-01 -1.882843e-01 -2.182533e-01 -2.133315e-01 -1.829543e-01 -1.219598e-01 -5.031216e-02 7.166873e-02 2.207139e-01 2.652976e-01 2.967254e-01 6.510921e-02
<VARIANCE> 39
 2.818269e+01 3.556998e+01 4.421523e+01 5.450286e+01 6.894389e+01 8.494641e+01 9.747295e+01 1.072417e+02 1.144610e+02 1.110951e+02 1.091059e+02 9.705771e+01 1.419632e+01 1.550397e+00 2.160795e+00 3.375256e+00 4.597253e+00 5.793146e+00 7.191473e+00 8.667868e+00 9.452499e+00 9.850672e+00 9.863654e+00 9.984155e+00 8.926971e+00 7.815785e-01 2.209201e-01 3.848140e-01 6.176841e-01 8.689576e-01 1.135808e+00 1.401679e+00 1.671790e+00 1.867328e+00 1.999108e+00 1.990621e+00 1.975976e+00 1.798627e+00 1.028326e-01
<GCONST> 1.454732e+02
<MIXTURE> 9 8.999290e-02
<MEAN> 39
 -2.812160e+01 2.873863e+00 -3.509247e+00 -9.933418e-01 -8.288796e+00 -9.200490e+00 -1.159134e+01 -7.854134e+00 -5.974032e+00 -1.274098e+00 -2.115839e-01 1.094286e+00 4.584248e+01 -2.360869e-01 -2.376017e-01 -3.045812e-01 -3.785848e-01 -4.472074e-01 -4.926076e-01 -6.008136e-01 -6.625674e-01 -6.474534e-01 -6.060402e-01 -6.625602e-01 -6.625664e-01 -1.589192e-01 2.790935e-03 -1.140827e-01 -9.684651e-02 -9.557568e-02 -4.176226e-02 2.005436e-02 7.300484e-02 2.791435e-02 -1.385564e-01 -2.465006e-01 -3.581053e-01 -3.095457e-01 5.045677e-02
<VARIANCE> 39
 1.394148e+01 1.902520e+01 2.632847e+01 3.546484e+01 4.748011e+01 6.010901e+01 7.096244e+01 7.708314e+01 7.813688e+01 7.747369e+01 7.465382e+01 6.806413e+01 1.298279e+01 6.699370e-01 1.349953e+00 2.446037e+00 3.510265e+00 4.633762e+00 5.692100e+00 6.818669e+00 7.600783e+00 7.937767e+00 7.897067e+00 7.755281e+00 7.135559e+00 3.055801e-01 1.687525e-01 3.173886e-01 5.426650e-01 7.873239e-01 1.018694e+00 1.209632e+00 1.441321e+00 1.607358e+00 1.646873e+00 1.647604e+00 1.614736e+00 1.470581e+00 9.012701e-02
<GCONST> 1.334301e+02
<MIXTURE> 10 7.458610e-02
<MEAN> 39
 -2.640043e+01 2.392872e+00 -2.568447e+00 2.906559e+00 -7.109929e-01 1.063738e+00 2.114768e-01 2.714834e+00 5.440938e-01 1.296657e+00 -8.327349e-01 5.706269e-01 4.769523e+01 -8.409027e-01 -2.619953e-01 -2.251730e-01 -4.602454e-01 -5.893071e-01 -7.151873e-01 -9.423920e-01 -9.522030e-01 -5.156547e-01 2.392054e-03 1.541104e-01 -5.759257e-02 -6.132786e-01 1.443645e-01 -1.950343e-01 -5.256732e-02 -1.307483e-01 -3.317863e-01 -4.853384e-01 -4.535370e-01 -4.670147e-01 -5.422035e-01 -4.513336e-01 -4.315040e-01 -3.012264e-01 2.249383e-01
<VARIANCE> 39
 4.455170e+01 4.256341e+01 4.950785e+01 5.920197e+01 7.241195e+01 9.161339e+01 1.082856e+02 1.147465e+02 1.163841e+02 1.144580e+02 1.125251e+02 9.855934e+01 2.205779e+01 2.040406e+00 2.625159e+00 3.873162e+00 5.076196e+00 6.338161e+00 7.785232e+00 9.192168e+00 1.026597e+01 1.042087e+01 1.048682e+01 1.029776e+01 9.255267e+00 1.165831e+00 4.388392e-01 6.609654e-01 8.680464e-01 1.121807e+00 1.381292e+00 1.685642e+00 1.981754e+00 2.202102e+00 2.243551e+00 2.296569e+00 2.256276e+00 1.999648e+00 3.670523e-01
<GCONST> 1.530456e+02
<MIXTURE> 11 7.173805e-02
<MEAN> 39
 -2.163474e+01 6.580228e+00 1.138113e+00 5.981403e+00 2.064180e-02 2.094514e-01 -1.040151e+00 8.495865e-01 -2.071280e+00 -1.238639e+00 -2.753583e+00 -8.119705e-01 5.002314e+01 -5.611464e-01 -1.691623e-01 -1.973767e-01 -3.390698e-01 -3.732743e-01 -4.278103e-01 -6.742364e-01 -8.071959e-01 -7.537257e-01 -6.985188e-01 -7.683939e-01 -7.956101e-01 -4.353226e-01 -2.629701e-01 -4.562808e-01 -5.026559e-01 -5.911249e-01 -6.396287e-01 -6.565244e-01 -6.391506e-01 -5.969130e-01 -4.938905e-01 -3.436436e-01 -2.969801e-01 -2.397262e-01 -6.316088e-02
<VARIANCE> 39
 2.818269e+01 3.556998e+01 4.421523e+01 5.450286e+01 6.894389e+01 8.494641e+01 9.747295e+01 1.072417e+02 1.144610e+02 1.110951e+02 1.091059e+02 9.705771e+01 1.419632e+01 1.550397e+00 2.160795e+00 3.375256e+00 4.597253e+00 5.793146e+00 7.191473e+00 8.667868e+00 9.452499e+00 9.850672e+00 9.863654e+00 9.984155e+00 8.926971e+00 7.815785e-01 2.209201e-01 3.848140e-01 6.176841e-01 8.689576e-01 1.135808e+00 1.401679e+00 1.671790e+00 1.867328e+00 1.999108e+00 1.990621e+00 1.975976e+00 1.798627e+00 1.028326e-01
<GCONST> 1.454732e+02
<MIXTURE> 12 6.490145e-02
<MEAN> 39
 -2.703948e+01 3.354626e+00 -2.898763e+00 -3.871393e-02 -6.960928e+00 -7.675146e+00 -9.782819e+00 -6.345216e+00 -5.278533e+00 -9.774064e-01 -1.760896e-01 1.380211e+00 4.675891e+01 1.171377e-01 1.930208e-01 2.407289e-01 3.067113e-01 3.235343e-01 3.583711e-01 3.105596e-01 1.799550e-01 9.309357e-02 7.701373e-02 -5.679107e-02 -2.039338e-01 4.520014e-03 1.496941e-01 -2.663184e-02 2.687424e-02 9.144634e-02 1.658814e-01 2.649139e-01 3.317955e-01 2.371905e-01 9.645700e-03 -1.731046e-01 -3.815178e-01 -3.408084e-01 1.505288e-01
<VARIANCE> 39
 2.067834e+01 2.217187e+01 2.953689e+01 3.879626e+01 5.037933e+01 6.426318e+01 7.717899e+01 8.251288e+01 8.360598e+01 8.319025e+01 8.157004e+01 7.387038e+01 1.298279e+01 9.985096e-01 1.625346e+00 2.892975e+00 3.981476e+00 5.082483e+00 6.229604e+00 7.627507e+00 8.378559e+00 8.852159e+00 8.821918e+00 8.487349e+00 7.942578e+00 4.477141e-01 2.454954e-01 3.770014e-01 6.307691e-01 8.743396e-01 1.083958e+00 1.299647e+00 1.578154e+00 1.735933e+00 1.754908e+00 1.790404e+00 1.761366e+00 1.594680e+00 1.281468e-01
<GCONST> 1.386097e+02
<MIXTURE> 13 6.397135e-02
<MEAN> 39
 -2.680291e+01 4.410177e+00 -1.959186e+00 5.400268e-01 -6.473990e+00 -6.818504e+00 -8.620602e+00 -5.106466e+00 -4.161222e+00 -3.683863e-01 5.336916e-02 1.278150e+00 4.647577e+01 -3.332853e-01 -3.459303e-01 -4.409488e-01 -5.633591e-01 -6.646005e-01 -7.238865e-01 -7.937787e-01 -7.491904e-01 -6.220843e-01 -5.315192e-01 -4.297224e-01 -4.000346e-01 -1.947452e-01 1.392332e-02 -8.693199e-02 -7.738647e-02 -2.983901e-02 -1.965469e-02 -5.332661e-02 -8.004436e-02 -9.862152e-02 -1.469296e-01 -1.721407e-01 -2.014859e-01 -2.037157e-01 3.289438e-02
<VARIANCE> 39
 1.351993e+01 1.569616e+01 2.261826e+01 3.159655e+01 4.440137e+01 5.627133e+01 6.585018e+01 7.070708e+01 7.186643e+01 7.108912e+01 6.873312e+01 6.388848e+01 1.298279e+01 6.702764e-01 1.345983e+00 2.476591e+00 3.531750e+00 4.693406e+00 5.741880e+00 6.858173e+00 7.675711e+00 7.877406e+00 7.769349e+00 7.637089e+00 7.098280e+00 2.763036e-01 1.158224e-01 2.459004e-01 4.490021e-01 6.644312e-01 8.779334e-01 1.062692e+00 1.255141e+00 1.409152e+00 1.492829e+00 1.489913e+00 1.458110e+00 1.360632e+00 4.988017e-02
<GCONST> 1.297288e+02
<MIXTURE> 14 6.345395e-02
<MEAN> 39
 -2.693498e+01 2.456604e+00 -3.133340e+00 1.501897e+00 -2.791472e+00 -1.471174e+00 -2.820057e+00 -8.445978e-02 -1.459964e+00 2.545254e-01 -9.946501e-01 5.924550e-01 4.717591e+01 -1.259514e+00 -6.948806e-01 -8.224021e-01 -1.314621e+00 -1.580668e+00 -1.810182e+00 -2.163054e+00 -2.189277e+00 -1.608056e+00 -1.042024e+00 -7.862227e-01 -7.179785e-01 -8.372563e-01 5.504073e-02 -3.482738e-01 -2.030450e-01 -2.686454e-01 -4.261078e-01 -5.605606e-01 -4.913620e-01 -4.608290e-01 -5.478264e-01 -4.743496e-01 -4.503645e-01 -3.212168e-01 2.254748e-01
<VARIANCE> 39
 3.283958e+01 3.569040e+01 4.471765e+01 5.244874e+01 6.656909e+01 8.532642e+01 1.017809e+02 1.068055e+02 1.089230e+02 1.047511e+02 1.020893e+02 9.139178e+01 1.553369e+01 2.109637e+00 2.858487e+00 4.140183e+00 5.202577e+00 6.582146e+00 8.180560e+00 9.651075e+00 1.069262e+01 1.063943e+01 1.075005e+01 1.032646e+01 9.072020e+00 1.252989e+00 4.098904e-01 6.478549e-01 8.860383e-01 1.125667e+00 1.361218e+00 1.649063e+00 1.960325e+00 2.171993e+00 2.213695e+00 2.253151e+00 2.187337e+00 1.923893e+00 3.615330e-01
<GCONST> 1.516185e+02
<MIXTURE> 15 3.612548e-02
<MEAN> 39
 -2.735217e+01 3.868266e+00 -2.866387e+00 -6.628631e-01 -7.870859e+00 -8.189077e+00 -1.009271e+01 -6.470922e+00 -5.331092e+00 -1.111095e+00 -3.802980e-01 8.723196e-01 4.606208e+01 -6.383853e-01 -7.625372e-01 -9.487860e-01 -1.217720e+00 -1.403638e+00 -1.482969e+00 -1.570299e+00 -1.529650e+00 -1.387584e+00 -1.355685e+00 -1.271607e+00 -1.012528e+00 -3.208269e-01 -4.768490e-02 -1.307275e-01 -1.040082e-01 -7.319816e-02 -7.425286e-02 -1.355748e-01 -1.641801e-01 -1.639011e-01 -1.758284e-01 -1.957778e-01 -2.282021e-01 -2.149331e-01 -8.808300e-04
<VARIANCE> 39
 1.087739e+01 1.496560e+01 2.172065e+01 2.994350e+01 4.206025e+01 5.285614e+01 6.102749e+01 6.636240e+01 6.904223e+01 6.775761e+01 6.664877e+01 6.248993e+01 1.298279e+01 6.799232e-01 1.412752e+00 2.502032e+00 3.615143e+00 4.741584e+00 5.753119e+00 6.868093e+00 7.810196e+00 7.755634e+00 7.604832e+00 7.640923e+00 6.965560e+00 2.777496e-01 1.073049e-01 2.458864e-01 4.523204e-01 6.401108e-01 8.617461e-01 1.070768e+00 1.242157e+00 1.379440e+00 1.450962e+00 1.437440e+00 1.460364e+00 1.350376e+00 4.777590e-02
<GCONST> 1.287868e+02
<MIXTURE> 16 3.514268e-02
<MEAN> 39
 -1.898607e+01 9.547399e+00 4.402694e+00 9.514160e+00 3.603485e+00 3.891606e+00 2.703580e+00 4.095516e+00 8.455987e-01 1.385635e+00 -8.533864e-01 5.163519e-01 5.098674e+01 -1.331433e-01 3.054488e-01 4.327788e-01 4.882458e-01 5.632737e-01 5.903919e-01 3.673291e-01 2.303894e-01 2.458885e-01 1.799051e-01 1.215266e-01 -1.749555e-01 -2.349247e-01 -9.024861e-02 -2.855784e-01 -2.885491e-01 -3.336543e-01 -3.625901e-01 -3.726979e-01 -3.601757e-01 -3.803285e-01 -3.538054e-01 -3.167283e-01 -3.636314e-01 -3.061563e-01 1.813988e-02
<VARIANCE> 39
 2.363229e+01 3.940644e+01 4.683383e+01 5.707046e+01 7.090072e+01 8.439304e+01 9.385867e+01 1.047937e+02 1.062988e+02 1.052189e+02 1.081664e+02 9.468564e+01 1.298279e+01 1.608331e+00 2.304422e+00 3.482368e+00 4.805955e+00 5.986498e+00 7.296645e+00 9.051711e+00 9.534638e+00 1.008168e+01 9.820339e+00 9.990660e+00 9.131081e+00 7.232614e-01 2.412262e-01 4.098746e-01 6.346214e-01 8.890354e-01 1.154027e+00 1.463219e+00 1.702031e+00 1.861085e+00 1.955521e+00 1.922046e+00 1.954284e+00 1.800597e+00 9.880187e-02
<GCONST> 1.456204e+02
~h "f"
<BEGINHMM>
<NUMSTATES> 5
<STATE> 2
<NUMMIXES> 16
<MIXTURE> 1 3.817169e-02
<MEAN> 39
 -2.960244e+01 -9.401299e+00 2.299372e+00 5.986265e+00 -8.679587e-01 1.382069e+00 -4.825781e+00 2.566576e+00 -3.705749e+00 4.034756e+00 -2.889983e+00 3.389679e+00 9.129565e+01 2.416869e-01 4.488988e-01 9.943483e-01 1.565173e+00 2.164524e+00 3.078165e+00 2.951862e+00 2.752776e+00 2.477806e+00 2.567847e+00 2.038755e+00 1.388407e+00 1.382588e+00 1.765508e+00 5.065402e-01 2.790057e-01 -6.787151e-02 5.233680e-01 4.686048e-01 7.012514e-01 4.342552e-01 6.681082e-01 8.056571e-01 6.243304e-01 5.015128e-01 1.289960e+00
<VARIANCE> 39
 1.238989e+02 1.086713e+02 6.898327e+01 7.448383e+01 8.351148e+01 1.083965e+02 1.179030e+02 1.146520e+02 1.331691e+02 1.252522e+02 1.255360e+02 1.200256e+02 3.601541e+02 1.031328e+01 7.976728e+00 7.138997e+00 7.710647e+00 8.929204e+00 1.052185e+01 1.030644e+01 1.231545e+01 1.239529e+01 1.217754e+01 1.245121e+01 1.082602e+01 2.316144e+01 4.040234e+00 1.857677e+00 1.519759e+00 2.078431e+00 1.829708e+00 2.293065e+00 2.417869e+00 2.474600e+00 2.558635e+00 2.716383e+00 2.749580e+00 2.339432e+00 4.076133e+00
<GCONST> 1.760426e+02
<MIXTURE> 2 4.724403e-02
<MEAN> 39
 -2.709611e+01 -6.749463e+00 5.809718e+00 9.476608e+00 4.248845e+00 5.549081e+00 -2.766762e-01 7.768750e+00 2.700546e+00 1.053738e+01 1.403812e+00 6.210025e+00 8.914071e+01 6.676787e-02 -9.551944e-01 -1.325985e-01 2.731031e-01 5.788196e-01 1.213847e+00 5.045813e-01 8.894539e-01 1.204129e+00 1.580381e+00 1.414138e+00 1.308985e+00 3.145321e+00 2.391782e+00 6.078974e-01 1.794285e-01 -5.699979e-01 2.157056e-02 1.297170e-01 3.912297e-01 -1.006353e-01 -2.010130e-01 8.913893e-02 5.840290e-02 1.087443e-01 1.740637e+00
<VARIANCE> 39
 1.526988e+02 1.291866e+02 1.153195e+02 1.132163e+02 1.436167e+02 1.592754e+02 1.694467e+02 1.615134e+02 1.732065e+02 1.679671e+02 1.472979e+02 1.378018e+02 3.860987e+02 2.668115e+01 1.331493e+01 1.125748e+01 1.240961e+01 1.162768e+01 1.437950e+01 1.383755e+01 1.436995e+01 1.408581e+01 1.489273e+01 1.387861e+01 1.230539e+01 4.426268e+01 6.084793e+00 2.829665e+00 2.959232e+00 3.741990e+00 3.437182e+00 3.556916e+00 4.080160e+00 3.808788e+00 4.054013e+00 4.039164e+00 3.655627e+00 2.928794e+00 5.364588e+00
<GCONST> 1.902960e+02
<MIXTURE> 3 1.235704e-01
<MEAN> 39
 -3.414911e+01 -1.587483e+01 -1.562044e+00 3.126329e+00 -2.238747e+00 5.452461e-01 -6.110068e+00 1.700408e+00 -3.765383e+00 6.004527e+00 -1.530006e+00 4.805851e+00 9.652910e+01 1.011159e-01 2.273591e-01 1.160571e-01 3.019747e-01 6.496966e-01 1.028225e+00 7.062169e-01 5.971215e-01 5.169564e-01 7.760997e-01 8.123960e-01 7.278824e-01 1.369084e+00 1.523201e+00 7.945583e-01 7.410650e-01 5.613728e-01 7.736656e-01 6.134840e-01 8.062582e-01 5.469499e-01 5.345421e-01 4.218358e-01 3.534928e-01 3.001241e-01 6.262751e-01
<VARIANCE> 39
 7.211455e+01 6.693478e+01 6.057317e+01 6.483876e+01 7.420351e+01 8.572779e+01 9.498573e+01 9.908650e+01 9.722643e+01 9.479844e+01 9.403158e+01 8.451469e+01 2.525429e+02 4.970729e+00 4.217861e+00 4.835739e+00 5.954144e+00 6.802758e+00 7.833840e+00 9.219611e+00 9.365308e+00 9.610929e+00 9.682172e+00 9.409575e+00 8.872813e+00 9.431243e+00 1.677044e+00 1.057377e+00 1.150015e+00 1.464018e+00 1.599169e+00 1.775554e+00 1.983738e+00 1.961913e+00 1.950879e+00 1.984740e+00 1.929331e+00 1.734500e+00 1.648995e+00
<GCONST> 1.625807e+02
<MIXTURE> 4 4.496764e-02
<MEAN> 39
 -3.139763e+01 -1.474037e+01 3.849426e+00 8.253447e+00 1.021705e+00 6.450073e-01 -4.745585e+00 4.115006e+00 -9.109221e-01 7.041411e+00 -9.246874e-01 5.764754e+00 1.028391e+02 -3.778854e+00 -2.830707e+00 -3.722810e+00 -2.895274e+00 -2.424467e+00 -1.562575e+00 -2.062472e+00 -4.041397e-01 4.927245e-01 7.769210e-01 9.579662e-01 7.849987e-01 1.439519e-01 3.216890e+00 1.692990e+00 1.568083e+00 4.039003e-01 8.319340e-01 9.408058e-01 1.315680e+00 2.338219e-01 -9.972766e-02 4.607078e-01 1.332781e-01 3.641523e-01 5.814929e-01
<VARIANCE> 39
 8.050767e+01 6.730463e+01 9.135286e+01 9.878229e+01 1.128152e+02 1.300192e+02 1.254127e+02 1.411535e+02 1.389884e+02 1.230030e+02 1.141242e+02 1.078208e+02 1.788715e+02 1.807162e+01 8.854854e+00 1.016093e+01 1.046000e+01 1.039605e+01 1.150636e+01 1.229608e+01 1.389919e+01 1.453011e+01 1.332544e+01 1.210834e+01 1.146692e+01 1.215238e+01 1.840419e+00 1.661447e+00 2.735543e+00 4.055650e+00 3.041775e+00 2.906119e+00 3.324066e+00 4.204005e+00 4.290717e+00 3.433734e+00 3.119883e+00 3.094461e+00 1.670822e+00
<GCONST> 1.792835e+02
<MIXTURE> 5 9.801320e-02
<MEAN> 39
 -3.410101e+01 -1.639481e+01 -2.082038e+00 2.366494e+00 -3.080452e+00 -5.065656e-02 -6.717615e+00 4.889766e-01 -4.609751e+00 5.194599e+00 -1.983075e+00 4.387834e+00 9.331625e+01 -3.068982e-01 -2.368165e-01 -3.425717e-01 -3.119718e-01 -3.467909e-01 -1.028598e-01 -6.331400e-01 -6.116140e-01 -8.141862e-01 -5.600501e-01 -4.288910e-01 -6.461859e-03 1.905839e+00 1.086884e+00 6.206422e-01 4.667709e-01 4.152727e-01 5.601758e-01 4.238595e-01 5.795243e-01 4.442294e-01 4.578499e-01 3.362857e-01 3.199002e-01 2.576080e-01 5.862761e-01
<VARIANCE> 39
 7.141396e+01 7.121437e+01 5.790467e+01 6.307963e+01 7.253149e+01 8.666050e+01 1.001367e+02 1.037401e+02 1.051619e+02 1.002572e+02 9.785743e+01 9.050875e+01 2.543739e+02 4.818462e+00 4.782398e+00 4.869225e+00 6.110287e+00 7.095932e+00 8.283000e+00 9.766906e+00 9.908801e+00 9.904234e+00 9.951910e+00 9.831985e+00 9.255629e+00 9.924647e+00 1.359084e+00 1.096355e+00 1.037746e+00 1.269619e+00 1.481125e+00 1.769454e+00 2.063462e+00 2.054527e+00 2.012612e+00 2.101354e+00 1.947670e+00 1.809985e+00 1.823178e+00
<GCONST> 1.632582e+02
<MIXTURE> 6 6.896780e-02
<MEAN> 39
 -3.048081e+01 -9.644472e+00 1.149296e+00 5.568731e+00 -1.457613e+00 1.273273e+00 -5.790745e+00 1.435173e+00 -4.705121e+00 3.487411e+00 -3.040995e+00 2.835318e+00 8.572916e+01 -5.218726e-01 -2.985544e-01 2.422119e-01 5.372623e-01 8.634462e-01 1.606040e+00 1.274360e+00 1.225985e+00 8.276938e-01 9.945639e-01 6.522425e-01 5.356374e-01 2.154885e+00 1.272725e+00 2.993071e-01 1.201177e-01 -9.854579e-02 2.721429e-01 1.778366e-01 4.814830e-01 3.394632e-01 5.745475e-01 5.895894e-01 5.005455e-01 4.842738e-01 1.480188e+00
<VARIANCE> 39
 1.288670e+02 1.068057e+02 6.857727e+01 6.791415e+01 8.098512e+01 1.007982e+02 1.135251e+02 1.136309e+02 1.208339e+02 1.103745e+02 1.154873e+02 1.010233e+02 3.321340e+02 9.359483e+00 8.654497e+00 6.137720e+00 6.906461e+00 8.312219e+00 9.495177e+00 1.018962e+01 1.098331e+01 1.106830e+01 1.051372e+01 1.076049e+01 9.888858e+00 2.461188e+01 3.307456e+00 1.903221e+00 1.357645e+00 1.589932e+00 1.782530e+00 2.104137e+00 2.283488e+00 2.318032e+00 2.369155e+00 2.356018e+00 2.402673e+00 2.073074e+00 4.578285e+00
<GCONST> 1.730928e+02
<MIXTURE> 7 4.909223e-02
<MEAN> 39
 -2.759372e+01 -9.159988e+00 3.681840e+00 7.305728e+00 2.855089e+00 4.360019e+00 -1.261757e+00 6.213822e+00 1.894414e+00 1.036779e+01 1.512918e+00 6.208161e+00 8.860271e+01 -1.540620e+00 -2.207602e+00 -1.021760e+00 -8.100750e-01 -7.752866e-01 -3.933192e-01 -1.434870e+00 -7.024003e-01 -4.606035e-01 1.420045e-02 6.825656e-02 3.932970e-01 3.357826e+00 1.825648e+00 7.063575e-01 2.553650e-01 -1.067227e-01 3.320846e-02 8.638427e-02 3.169810e-01 -5.261099e-02 -3.021991e-01 -1.830359e-01 1.256588e-02 9.993550e-02 1.320208e+00
<VARIANCE> 39
 1.321604e+02 1.194508e+02 1.031363e+02 1.091037e+02 1.269024e+02 1.481172e+02 1.600914e+02 1.524511e+02 1.497850e+02 1.414581e+02 1.362566e+02 1.238838e+02 3.637440e+02 2.440524e+01 1.314257e+01 1.024837e+01 1.147776e+01 1.159373e+01 1.321667e+01 1.321490e+01 1.356035e+01 1.413634e+01 1.467287e+01 1.346652e+01 1.231825e+01 3.870025e+01 4.909628e+00 2.450064e+00 2.629328e+00 3.086390e+00 3.063920e+00 3.261238e+00 3.725627e+00 3.439263e+00 3.362946e+00 3.334022e+00 3.317057e+00 2.802544e+00 4.792483e+00
<GCONST> 1.867155e+02
<MIXTURE> 8 2.994951e-02
<MEAN> 39
 -3.140505e+01 -1.372625e+01 4.482213e+00 8.760222e+00 1.592198e+00 1.919308e+00 -3.549767e+00 4.628156e+00 -1.555377e+00 6.656507e+00 -1.210398e+00 4.743944e+00 1.031185e+02 -5.326891e+00 -4.013369e+00 -4.472090e+00 -3.751366e+00 -4.210845e+00 -3.417401e+00 -4.186507e+00 -2.222129e+00 -1.499001e+00 -1.191286e+00 -6.467360e-01 -4.683096e-01 6.625080e-02 3.469230e+00 1.553949e+00 1.179824e+00 -4.393765e-02 5.922319e-01 4.950990e-01 1.065759e+00 -1.554893e-01 -2.881616e-02 5.401376e-01 1.421713e-01 7.441841e-01 5.615005e-01
<VARIANCE> 39
 7.531847e+01 7.889635e+01 1.058521e+02 1.088590e+02 1.195926e+02 1.444041e+02 1.445277e+02 1.453676e+02 1.444731e+02 1.366979e+02 1.248108e+02 1.133801e+02 1.532670e+02 1.865129e+01 1.013157e+01 1.177755e+01 1.164543e+01 1.117722e+01 1.222050e+01 1.315790e+01 1.414255e+01 1.504113e+01 1.339436e+01 1.281901e+01 1.268882e+01 1.132446e+01 2.287590e+00 1.981520e+00 3.278192e+00 4.830524e+00 3.268064e+00 3.659860e+00 3.701099e+00 4.634081e+00 4.382205e+00 3.544060e+00 3.373037e+00 3.366386e+00 1.598215e+00
<GCONST> 1.822780e+02
<MIXTURE> 9 1.235704e-01
<MEAN> 39
 -3.754593e+01 -1.914738e+01 -4.675194e+00 -9.457135e-02 -5.684405e+00 -3.158326e+00 -1.000849e+01 -2.281281e+00 -7.709521e+00 2.109947e+00 -5.408802e+00 1.128577e+00 9.017245e+01 -7.906893e-01 -5.941383e-01 -7.635555e-01 -6.740699e-01 -3.935874e-01 -9.133494e-02 -5.083356e-01 -6.269901e-01 -7.231036e-01 -4.685479e-01 -4.146053e-01 -4.636084e-01 1.406707e-01 1.005198e+00 3.832430e-01 3.121100e-01 7.738629e-02 2.678326e-01 8.048439e-02 2.428772e-01 -1.332331e-02 -2.415335e-02 -1.416874e-01 -2.021086e-01 -2.266776e-01 1.126223e-01
<VARIANCE> 39
 7.211455e+01 6.693478e+01 6.057317e+01 6.483876e+01 7.420351e+01 8.572779e+01 9.498573e+01 9.908650e+01 9.722643e+01 9.479844e+01 9.403158e+01 8.451469e+01 2.525429e+02 4.970729e+00 4.217861e+00 4.835739e+00 5.954144e+00 6.802758e+00 7.833840e+00 9.219611e+00 9.365308e+00 9.610929e+00 9.682172e+00 9.409575e+00 8.872813e+00 9.431243e+00 1.677044e+00 1.057377e+00 1.150015e+00 1.464018e+00 1.599169e+00 1.775554e+00 1.983738e+00 1.961913e+00 1.950879e+00 1.984740e+00 1.929331e+00 1.734500e+00 1.648995e+00
<GCONST> 1.625807e+02
<MIXTURE> 10 9.801320e-02
<MEAN> 39
 -3.748128e+01 -1.977035e+01 -5.125844e+00 -8.104137e-01 -6.487070e+00 -3.774322e+00 -1.072035e+01 -3.585139e+00 -8.711691e+00 1.189459e+00 -5.939991e+00 5.823902e-01 8.693661e+01 -1.184938e+00 -1.111564e+00 -1.225224e+00 -1.300732e+00 -1.412318e+00 -1.254068e+00 -1.883222e+00 -1.870744e+00 -2.073026e+00 -1.821916e+00 -1.683131e+00 -1.223384e+00 6.457028e-01 6.205652e-01 2.018143e-01 5.929157e-02 -3.543684e-02 7.336983e-02 -1.082239e-01 4.934102e-03 -1.291154e-01 -1.096163e-01 -2.435562e-01 -2.383357e-01 -2.805348e-01 4.617557e-02
<VARIANCE> 39
 7.141396e+01 7.121437e+01 5.790467e+01 6.307963e+01 7.253149e+01 8.666050e+01 1.001367e+02 1.037401e+02 1.051619e+02 1.002572e+02 9.785743e+01 9.050875e+01 2.543739e+02 4.818462e+00 4.782398e+00 4.869225e+00 6.110287e+00 7.095932e+00 8.283000e+00 9.766906e+00 9.908801e+00 9.904234e+00 9.951910e+00 9.831985e+00 9.255629e+00 9.924647e+00 1.359084e+00 1.096355e+00 1.037746e+00 1.269619e+00 1.481125e+00 1.769454e+00 2.063462e+00 2.054527e+00 2.012612e+00 2.101354e+00 1.947670e+00 1.809985e+00 1.823178e+00
<GCONST> 1.632582e+02
<MIXTURE> 11 6.896780e-02
<MEAN> 39
 -3.502160e+01 -1.377835e+01 -2.163160e+00 2.272329e+00 -5.057282e+00 -2.742660e+00 -1.005267e+01 -2.828739e+00 -9.102099e+00 -7.149593e-01 -7.339596e+00 -1.185096e+00 7.843935e+01 -1.745604e+00 -1.475296e+00 -7.487651e-01 -5.139436e-01 -2.897906e-01 3.734700e-01 -2.487183e-03 -9.965765e-02 -5.030684e-01 -3.024307e-01 -6.598849e-01 -7.222248e-01 1.704708e-01 5.452683e-01 -2.525220e-01 -3.459544e-01 -6.029158e-01 -2.619028e-01 -4.023892e-01 -1.229656e-01 -2.695402e-01 -4.113489e-02 -2.438360e-02 -1.194769e-01 -9.165318e-02 6.243104e-01
<VARIANCE> 39
 1.288670e+02 1.068057e+02 6.857727e+01 6.791415e+01 8.098512e+01 1.007982e+02 1.135251e+02 1.136309e+02 1.208339e+02 1.103745e+02 1.154873e+02 1.010233e+02 3.321340e+02 9.359483e+00 8.654497e+00 6.137720e+00 6.906461e+00 8.312219e+00 9.495177e+00 1.018962e+01 1.098331e+01 1.106830e+01 1.051372e+01 1.076049e+01 9.888858e+00 2.461188e+01 3.307456e+00 1.903221e+00 1.357645e+00 1.589932e+00 1.782530e+00 2.104137e+00 2.283488e+00 2.318032e+00 2.369155e+00 2.356018e+00 2.402673e+00 2.073074e+00 4.578285e+00
<GCONST> 1.730928e+02
<MIXTURE> 12 4.909223e-02
<MEAN> 39
 -3.219216e+01 -1.353173e+01 -3.804017e-01 3.127620e+00 -1.650950e+00 -5.081172e-01 -6.322846e+00 1.274978e+00 -3.001053e+00 5.610341e+00 -3.156242e+00 1.756037e+00 8.097388e+01 -3.516686e+00 -3.657709e+00 -2.302283e+00 -2.165229e+00 -2.137269e+00 -1.847509e+00 -2.888962e+00 -2.175375e+00 -1.964536e+00 -1.518007e+00 -1.399614e+00 -1.010598e+00 8.694456e-01 9.393404e-01 8.025029e-02 -3.932431e-01 -8.094477e-01 -6.669538e-01 -6.359717e-01 -4.550944e-01 -7.944210e-01 -1.035733e+00 -9.134081e-01 -7.159457e-01 -5.696965e-01 4.445386e-01
<VARIANCE> 39
 1.321604e+02 1.194508e+02 1.031363e+02 1.091037e+02 1.269024e+02 1.481172e+02 1.600914e+02 1.524511e+02 1.497850e+02 1.414581e+02 1.362566e+02 1.238838e+02 3.637440e+02 2.440524e+01 1.314257e+01 1.024837e+01 1.147776e+01 1.159373e+01 1.321667e+01 1.321490e+01 1.356035e+01 1.413634e+01 1.467287e+01 1.346652e+01 1.231825e+01 3.870025e+01 4.909628e+00 2.450064e+00 2.629328e+00 3.086390e+00 3.063920e+00 3.261238e+00 3.725627e+00 3.439263e+00 3.362946e+00 3.334022e+00 3.317057e+00 2.802544e+00 4.792483e+00
<GCONST> 1.867155e+02
<MIXTURE> 13 4.724403e-02
<MEAN> 39
 -3.203897e+01 -1.129587e+01 1.514241e+00 5.220482e+00 -5.447626e-01 5.009067e-01 -5.483544e+00 2.685233e+00 -2.563771e+00 5.353298e+00 -3.450842e+00 1.514465e+00 8.128095e+01 -1.999384e+00 -2.414780e+00 -1.474685e+00 -1.135988e+00 -7.851558e-01 -3.029651e-01 -9.833731e-01 -6.268547e-01 -2.971135e-01 3.673750e-02 -7.602239e-02 -9.417665e-02 4.841130e-01 1.405087e+00 -6.496695e-02 -5.086683e-01 -1.343767e+00 -7.200150e-01 -6.246746e-01 -4.167465e-01 -8.812799e-01 -1.006396e+00 -7.147679e-01 -7.063849e-01 -5.758045e-01 8.141735e-01
<VARIANCE> 39
 1.526988e+02 1.291866e+02 1.153195e+02 1.132163e+02 1.436167e+02 1.592754e+02 1.694467e+02 1.615134e+02 1.732065e+02 1.679671e+02 1.472979e+02 1.378018e+02 3.860987e+02 2.668115e+01 1.331493e+01 1.125748e+01 1.240961e+01 1.162768e+01 1.437950e+01 1.383755e+01 1.436995e+01 1.408581e+01 1.489273e+01 1.387861e+01 1.230539e+01 4.426268e+01 6.084793e+00 2.829665e+00 2.959232e+00 3.741990e+00 3.437182e+00 3.556916e+00 4.080160e+00 3.808788e+00 4.054013e+00 4.039164e+00 3.655627e+00 2.928794e+00 5.364588e+00
<GCONST> 1.902960e+02
<MIXTURE> 14 4.496764e-02
<MEAN> 39
 -3.498667e+01 -1.802195e+01 2.627826e-02 4.277875e+00 -3.226875e+00 -3.916031e+00 -9.225099e+00 -6.373159e-01 -5.626656e+00 2.605143e+00 -5.197845e+00 1.611282e+00 9.748934e+01 -5.479283e+00 -4.020991e+00 -4.997858e+00 -4.188951e+00 -3.714183e+00 -2.919416e+00 -3.465102e+00 -1.895404e+00 -1.032011e+00 -6.832401e-01 -4.339154e-01 -5.695150e-01 -1.250459e+00 2.674242e+00 1.177402e+00 9.065034e-01 -4.016455e-01 1.343066e-01 2.589120e-01 5.863990e-01 -5.863249e-01 -9.282895e-01 -2.805057e-01 -5.732495e-01 -3.394909e-01 6.445172e-02
<VARIANCE> 39
 8.050767e+01 6.730463e+01 9.135286e+01 9.878229e+01 1.128152e+02 1.300192e+02 1.254127e+02 1.411535e+02 1.389884e+02 1.230030e+02 1.141242e+02 1.078208e+02 1.788715e+02 1.807162e+01 8.854854e+00 1.016093e+01 1.046000e+01 1.039605e+01 1.150636e+01 1.229608e+01 1.389919e+01 1.453011e+01 1.332544e+01 1.210834e+01 1.146692e+01 1.215238e+01 1.840419e+00 1.661447e+00 2.735543e+00 4.055650e+00 3.041775e+00 2.906119e+00 3.324066e+00 4.204005e+00 4.290717e+00 3.433734e+00 3.119883e+00 3.094461e+00 1.670822e+00
<GCONST> 1.792835e+02
<MIXTURE> 15 3.817169e-02
<MEAN> 39
 -3.405484e+01 -1.357112e+01 -1.022875e+00 2.534104e+00 -4.523344e+00 -2.782477e+00 -9.169107e+00 -1.716451e+00 -8.321706e+00 -4.418895e-01 -7.371697e+00 -9.925690e-01 8.370456e+01 -1.042885e+00 -6.808254e-01 -7.440785e-02 4.544510e-01 9.692525e-01 1.780669e+00 1.667716e+00 1.349041e+00 1.069528e+00 1.171993e+00 6.273046e-01 7.229024e-02 -5.424656e-01 9.614943e-01 -3.864636e-02 -2.141083e-01 -6.445421e-01 -1.769882e-02 -1.371100e-01 7.927144e-02 -1.949793e-01 2.827892e-02 1.463991e-01 -3.894386e-02 -1.102953e-01 4.823829e-01
<VARIANCE> 39
 1.238989e+02 1.086713e+02 6.898327e+01 7.448383e+01 8.351148e+01 1.083965e+02 1.179030e+02 1.146520e+02 1.331691e+02 1.252522e+02 1.255360e+02 1.200256e+02 3.601541e+02 1.031328e+01 7.976728e+00 7.138997e+00 7.710647e+00 8.929204e+00 1.052185e+01 1.030644e+01 1.231545e+01 1.239529e+01 1.217754e+01 1.245121e+01 1.082602e+01 2.316144e+01 4.040234e+00 1.857677e+00 1.519759e+00 2.078431e+00 1.829708e+00 2.293065e+00 2.417869e+00 2.474600e+00 2.558635e+00 2.716383e+00 2.749580e+00 2.339432e+00 4.076133e+00
<GCONST> 1.760426e+02
<MIXTURE> 16 2.994951e-02
<MEAN> 39
 -3.487650e+01 -1.727919e+01 3.668351e-01 4.586802e+00 -2.782138e+00 -2.887423e+00 -8.358554e+00 -1.945839e-01 -6.363256e+00 1.979792e+00 -5.679148e+00 4.847400e-01 9.816648e+01 -7.054377e+00 -5.286573e+00 -5.844827e+00 -5.116382e+00 -5.548139e+00 -4.815715e+00 -5.637459e+00 -3.726393e+00 -3.050317e+00 -2.655218e+00 -2.078882e+00 -1.893164e+00 -1.279823e+00 2.864238e+00 9.908831e-01 4.555925e-01 -9.230758e-01 -1.308797e-01 -2.701314e-01 2.962297e-01 -1.016566e+00 -8.661649e-01 -2.128893e-01 -5.924619e-01 1.027563e-02 5.581844e-02
<VARIANCE> 39
 7.531847e+01 7.889635e+01 1.058521e+02 1.088590e+02 1.195926e+02 1.444041e+02 1.445277e+02 1.453676e+02 1.444731e+02 1.366979e+02 1.248108e+02 1.133801e+02 1.532670e+02 1.865129e+01 1.013157e+01 1.177755e+01 1.164543e+01 1.117722e+01 1.222050e+01 1.315790e+01 1.414255e+01 1.504113e+01 1.339436e+01 1.281901e+01 1.268882e+01 1.132446e+01 2.287590e+00 1.981520e+00 3.278192e+00 4.830524e+00 3.268064e+00 3.659860e+00 3.701099e+00 4.634081e+00 4.382205e+00 3.544060e+00 3.373037e+00 3.366386e+00 1.598215e+00
<GCONST> 1.822780e+02
<STATE> 3
<NUMMIXES> 16
<MIXTURE> 1 4.365644e-02
<MEAN> 39
 -1.617396e+01 -1.050665e+01 3.729510e+00 5.844761e+00 6.556617e+00 7.330453e+00 1.777750e-01 5.095808e+00 1.988100e+00 9.339516e+00 4.510069e-02 5.735491e+00 1.032271e+02 1.791881e+01 5.195580e+00 1.451074e+00 -8.348047e+00 2.267554e+00 1.912279e+00 4.997495e+00 4.256950e-01 2.063076e+00 4.508357e+00 4.573999e-01 2.451252e+00 8.851611e+00 2.013117e+00 2.331197e-02 -1.362134e-01 -3.398536e+00 -2.284782e-01 -2.786061e-01 7.062970e-01 -2.140188e-02 1.544811e-01 1.085680e+00 -1.115726e-01 8.026922e-01 2.083670e+00
<VARIANCE> 39
 1.111034e+02 6.853443e+01 6.256636e+01 7.206646e+01 9.887456e+01 1.101809e+02 1.094637e+02 1.054484e+02 1.276920e+02 1.214202e+02 9.750483e+01 9.400771e+01 1.757896e+02 1.247609e+01 3.122541e+01 1.279311e+01 2.599550e+01 1.711859e+01 1.791813e+01 2.303314e+01 1.928825e+01 3.812590e+01 2.364318e+01 3.114785e+01 2.005807e+01 2.833269e+01 2.747870e+00 3.976795e+00 1.957167e+00 3.207634e+00 3.256112e+00 3.249872e+00 3.502187e+00 2.945578e+00 4.363893e+00 3.272903e+00 3.692848e+00 3.020533e+00 3.641630e+00
<GCONST> 1.870842e+02
<MIXTURE> 2 7.248175e-02
<MEAN> 39
 -2.920911e+01 -1.816745e+01 -2.773398e+00 2.330506e+00 -1.219313e-01 1.945173e+00 -5.156059e+00 1.599110e+00 -3.490671e+00 6.706158e+00 -1.147947e+00 5.115031e+00 1.072378e+02 9.835190e+00 4.157513e+00 2.159777e+00 3.809667e-02 2.631860e+00 2.946351e+00 3.662446e+00 2.058756e+00 2.267220e+00 2.379984e+00 1.699138e+00 1.413282e+00 2.997036e+00 4.784243e+00 2.372818e+00 1.271088e+00 -2.301356e+00 -4.890653e-01 4.684199e-01 9.965175e-01 7.099309e-01 3.670514e-02 7.929986e-01 3.184800e-01 2.363669e-01 1.079198e+00
<VARIANCE> 39
 9.983050e+01 5.417787e+01 5.882634e+01 6.878565e+01 7.843977e+01 9.560542e+01 1.004286e+02 1.004636e+02 1.066556e+02 1.048747e+02 1.041234e+02 9.473373e+01 1.516776e+02 1.893223e+01 1.037776e+01 6.884351e+00 1.046566e+01 9.593933e+00 9.516509e+00 1.035429e+01 1.057423e+01 1.179264e+01 1.162896e+01 1.207026e+01 9.990295e+00 1.665975e+01 1.733927e+00 3.400047e+00 2.433319e+00 3.406246e+00 3.545633e+00 3.269085e+00 3.834646e+00 3.558084e+00 4.029077e+00 3.646116e+00 4.649990e+00 3.337942e+00 3.814313e+00
<GCONST> 1.772760e+02
<MIXTURE> 3 5.380870e-02
<MEAN> 39
 -1.683122e+01 -1.334592e+01 -1.401349e+00 1.482846e+00 2.646292e+00 4.770381e+00 -1.306864e+00 2.138775e+00 -1.511798e+00 9.836402e+00 -2.000699e-01 6.109850e+00 1.088586e+02 1.716226e+01 6.741587e+00 4.029151e+00 -5.519381e+00 -2.477997e+00 2.983466e+00 2.136509e+00 3.235567e+00 -3.841835e-01 2.091630e+00 3.459177e+00 -3.438322e-01 6.310057e+00 2.746045e+00 1.076302e+00 1.212699e+00 -2.380864e+00 -1.740627e+00 6.686553e-01 -2.815463e-01 1.191056e+00 -5.521636e-01 4.809869e-01 1.009168e+00 -6.222628e-01 1.476984e+00
<VARIANCE> 39
 1.154863e+02 6.013565e+01 6.148942e+01 7.307618e+01 1.089990e+02 1.298883e+02 1.237769e+02 1.267793e+02 1.131961e+02 1.225160e+02 1.143870e+02 9.845918e+01 1.675157e+02 1.188770e+01 2.389091e+01 1.779917e+01 1.909259e+01 2.292227e+01 2.050746e+01 1.863593e+01 2.118551e+01 2.404797e+01 2.585522e+01 3.301575e+01 1.482357e+01 2.966226e+01 2.432775e+00 4.259856e+00 3.126138e+00 3.476044e+00 4.364422e+00 4.494773e+00 4.383084e+00 3.990719e+00 4.444833e+00 4.729239e+00 5.795260e+00 3.286634e+00 4.502374e+00
<GCONST> 1.898234e+02
<MIXTURE> 4 6.640715e-02
<MEAN> 39
 -3.060646e+01 -1.667940e+01 -1.708828e+00 6.425059e-02 -4.875137e+00 -2.230698e+00 -9.216018e+00 -1.566329e+00 -7.513126e+00 1.837302e+00 -4.075478e+00 3.419582e+00 1.028649e+02 7.718600e+00 8.251917e-01 1.999224e-01 -7.649608e-01 1.264757e+00 9.486638e-01 1.303637e+00 5.794981e-01 1.705188e+00 1.586632e+00 5.401334e-01 8.774416e-01 8.382716e+00 4.596340e+00 1.929259e+00 8.374788e-01 -1.013525e+00 7.741742e-01 1.195981e+00 1.721787e+00 9.582548e-01 1.276461e+00 1.668965e+00 6.650101e-01 3.057877e-01 9.620048e-01
<VARIANCE> 39
 1.251400e+02 6.003549e+01 5.308662e+01 6.176432e+01 6.146568e+01 7.005755e+01 6.910615e+01 7.649311e+01 8.391583e+01 7.829087e+01 7.341244e+01 6.889450e+01 2.212931e+02 2.095581e+01 1.069282e+01 6.570371e+00 8.274114e+00 7.976429e+00 9.224326e+00 9.693205e+00 1.059628e+01 1.207245e+01 1.092325e+01 1.108730e+01 9.810316e+00 3.332328e+01 2.431328e+00 3.071177e+00 2.229681e+00 2.923309e+00 2.884319e+00 2.488850e+00 2.532416e+00 2.824173e+00 3.687289e+00 3.166142e+00 3.556076e+00 2.400797e+00 5.850631e+00
<GCONST> 1.739631e+02
<MIXTURE> 5 8.052890e-02
<MEAN> 39
 -3.174738e+01 -1.950741e+01 -4.514646e+00 1.650136e+00 -7.043103e-01 1.604335e+00 -6.039137e+00 2.354777e-01 -4.514381e+00 6.601450e+00 -1.528109e+00 4.624435e+00 1.051007e+02 8.508769e+00 3.175192e+00 1.295377e+00 -6.251547e-01 1.337852e+00 1.736657e+00 2.277166e+00 1.031432e+00 1.015754e+00 9.201729e-01 6.787736e-01 5.228700e-01 3.253158e+00 4.886118e+00 2.385725e+00 1.560533e+00 -1.873699e+00 -5.025426e-01 5.123414e-01 9.003060e-01 8.854234e-01 1.204663e-01 5.953316e-01 6.038347e-01 5.322355e-02 1.179175e+00
<VARIANCE> 39
 8.977293e+01 5.364289e+01 5.865455e+01 7.174131e+01 8.125540e+01 9.444049e+01 1.027607e+02 1.056685e+02 1.068686e+02 9.697154e+01 1.076292e+02 8.995865e+01 1.417531e+02 1.930019e+01 9.178847e+00 6.692278e+00 9.112947e+00 8.865717e+00 8.907050e+00 9.748783e+00 1.008095e+01 1.112383e+01 1.058809e+01 1.097301e+01 9.314037e+00 1.517159e+01 1.564621e+00 2.745176e+00 2.254369e+00 3.153360e+00 3.302670e+00 2.932516e+00 3.272115e+00 3.324436e+00 3.626342e+00 3.364994e+00 4.680596e+00 2.915849e+00 3.248169e+00
<GCONST> 1.748472e+02
<MIXTURE> 6 5.762650e-02
<MEAN> 39
 -1.622084e+01 -1.522954e+01 -4.823015e+00 -1.828438e+00 -1.130238e+00 2.711268e+00 -4.106703e+00 -1.061467e+00 -6.749374e+00 5.514590e+00 -2.561353e+00 6.056273e+00 1.082776e+02 1.674425e+01 7.616008e+00 5.247344e+00 -5.540476e+00 -3.342600e+00 1.660330e+00 1.773065e+00 3.891958e+00 -6.995134e-01 9.351506e-01 2.092665e+00 -1.408315e+00 5.500800e+00 2.846903e+00 1.686514e+00 2.098364e+00 -2.125685e+00 -1.698817e+00 6.209846e-01 -1.728060e-01 1.792820e+00 -3.095717e-01 6.912482e-01 1.058647e+00 -9.507021e-01 1.304207e+00
<VARIANCE> 39
 1.052790e+02 5.594114e+01 5.565077e+01 7.374429e+01 9.301524e+01 1.119610e+02 1.206385e+02 1.181997e+02 1.101277e+02 1.115772e+02 1.005994e+02 9.510794e+01 1.589517e+02 1.033046e+01 1.957544e+01 1.713024e+01 1.733673e+01 2.151600e+01 2.002161e+01 1.639642e+01 2.204300e+01 2.305933e+01 2.102877e+01 2.671216e+01 1.343243e+01 2.813366e+01 2.278862e+00 3.704405e+00 2.985242e+00 3.303130e+00 4.290727e+00 4.287861e+00 4.050922e+00 4.415302e+00 4.845169e+00 4.314597e+00 4.983037e+00 3.242465e+00 3.683647e+00
<GCONST> 1.868517e+02
<MIXTURE> 7 6.717415e-02
<MEAN> 39
 -3.428116e+01 -1.813571e+01 -3.580526e+00 2.580887e-01 -4.752699e+00 -1.572586e+00 -9.607048e+00 -2.567804e+00 -8.340837e+00 2.422591e+00 -4.015489e+00 3.248440e+00 9.916760e+01 4.777614e+00 -1.218935e-01 -4.645880e-01 -1.268523e+00 -9.286654e-02 -4.596710e-01 -1.933377e-01 -7.986414e-01 -4.146557e-01 -2.974386e-01 -3.642876e-01 2.646581e-01 7.001792e+00 4.275080e+00 2.123718e+00 1.232279e+00 -2.979285e-01 7.019061e-01 1.067692e+00 1.545253e+00 1.144442e+00 1.114106e+00 1.256390e+00 6.988353e-01 3.490115e-01 9.760274e-01
<VARIANCE> 39
 1.079155e+02 6.844081e+01 6.166669e+01 7.195821e+01 7.104727e+01 8.346648e+01 8.682150e+01 8.833867e+01 9.661642e+01 9.436565e+01 8.937698e+01 7.562213e+01 1.939145e+02 1.088579e+01 8.557814e+00 6.431190e+00 6.879364e+00 7.652055e+00 9.078952e+00 9.794816e+00 1.059218e+01 9.864758e+00 9.824780e+00 9.858337e+00 9.164890e+00 2.575098e+01 2.262161e+00 1.853939e+00 1.825287e+00 2.576594e+00 2.375488e+00 2.237923e+00 2.325369e+00 2.560014e+00 2.728057e+00 2.628623e+00 2.678548e+00 2.077112e+00 4.127546e+00
<GCONST> 1.708925e+02
<MIXTURE> 8 5.830445e-02
<MEAN> 39
 -2.266750e+01 -1.201531e+01 1.747197e+00 3.528605e+00 4.589251e-01 2.293028e+00 -4.071211e+00 3.287751e+00 -1.780726e+00 4.882283e+00 -2.145380e+00 4.647941e+00 1.024342e+02 1.696503e+01 3.143275e+00 2.677840e-01 -6.960058e+00 2.220864e+00 1.007951e+00 4.032231e+00 -7.725335e-01 2.869140e+00 4.038847e+00 3.573596e-02 4.016609e-01 1.110306e+01 3.053343e+00 -1.572436e-01 -1.366566e-01 -2.991778e+00 7.030230e-01 2.734843e-01 1.461981e+00 -1.123392e-01 1.032017e+00 1.658176e+00 2.657364e-01 5.851110e-01 2.408592e+00
<VARIANCE> 39
 1.150438e+02 7.738802e+01 6.286977e+01 7.435907e+01 8.916025e+01 9.838332e+01 1.029421e+02 1.029338e+02 1.101773e+02 1.019632e+02 9.234124e+01 9.028745e+01 2.234424e+02 1.405106e+01 2.707476e+01 1.238025e+01 2.271362e+01 1.497188e+01 1.610168e+01 1.967776e+01 1.601094e+01 2.964382e+01 2.239773e+01 2.729629e+01 1.878205e+01 3.269930e+01 2.963011e+00 3.909755e+00 2.349409e+00 3.830428e+00 3.366367e+00 3.346183e+00 3.587677e+00 3.024877e+00 4.560754e+00 3.348783e+00 4.129601e+00 3.483595e+00 4.504401e+00
<GCONST> 1.867269e+02
<MIXTURE> 9 8.052890e-02
<MEAN> 39
 -3.553732e+01 -2.243707e+01 -7.578096e+00 -1.737873e+00 -4.309981e+00 -2.282885e+00 -1.009398e+01 -3.876330e+00 -8.649472e+00 2.662484e+00 -5.677889e+00 8.305743e-01 1.003383e+02 6.751490e+00 1.963328e+00 2.605996e-01 -1.832661e+00 1.468381e-01 5.428693e-01 1.028244e+00 -2.385885e-01 -3.183421e-01 -3.814009e-01 -6.462477e-01 -6.978863e-01 1.695128e+00 4.385778e+00 1.722982e+00 9.599509e-01 -2.584007e+00 -1.229473e+00 -1.726422e-01 1.767464e-01 1.561020e-01 -6.412519e-01 -1.384252e-01 -2.615527e-01 -6.298108e-01 4.582682e-01
<VARIANCE> 39
 8.977293e+01 5.364289e+01 5.865455e+01 7.174131e+01 8.125540e+01 9.444049e+01 1.027607e+02 1.056685e+02 1.068686e+02 9.697154e+01 1.076292e+02 8.995865e+01 1.417531e+02 1.930019e+01 9.178847e+00 6.692278e+00 9.112947e+00 8.865717e+00 8.907050e+00 9.748783e+00 1.008095e+01 1.112383e+01 1.058809e+01 1.097301e+01 9.314037e+00 1.517159e+01 1.564621e+00 2.745176e+00 2.254369e+00 3.153360e+00 3.302670e+00 2.932516e+00 3.272115e+00 3.324436e+00 3.626342e+00 3.364994e+00 4.680596e+00 2.915849e+00 3.248169e+00
<GCONST> 1.748472e+02
<MIXTURE> 10 7.248175e-02
<MEAN> 39
 -3.320572e+01 -2.111167e+01 -5.841331e+00 -9.869783e-01 -3.664581e+00 -1.965948e+00 -9.164622e+00 -2.410151e+00 -7.621639e+00 2.609824e+00 -5.229582e+00 1.221781e+00 1.023115e+02 8.094742e+00 2.868931e+00 1.110255e+00 -1.255930e+00 1.392897e+00 1.712397e+00 2.375322e+00 7.580342e-01 8.936037e-01 1.015934e+00 3.094464e-01 1.489853e-01 1.364382e+00 4.257529e+00 1.635249e+00 6.471241e-01 -3.039596e+00 -1.242260e+00 -2.548045e-01 2.132275e-01 -4.458451e-02 -7.661973e-01 2.920631e-02 -5.440734e-01 -4.944345e-01 2.979869e-01
<VARIANCE> 39
 9.983050e+01 5.417787e+01 5.882634e+01 6.878565e+01 7.843977e+01 9.560542e+01 1.004286e+02 1.004636e+02 1.066556e+02 1.048747e+02 1.041234e+02 9.473373e+01 1.516776e+02 1.893223e+01 1.037776e+01 6.884351e+00 1.046566e+01 9.593933e+00 9.516509e+00 1.035429e+01 1.057423e+01 1.179264e+01 1.162896e+01 1.207026e+01 9.990295e+00 1.665975e+01 1.733927e+00 3.400047e+00 2.433319e+00 3.406246e+00 3.545633e+00 3.269085e+00 3.834646e+00 3.558084e+00 4.029077e+00 3.646116e+00 4.649990e+00 3.337942e+00 3.814313e+00
<GCONST> 1.772760e+02
<MIXTURE> 11 6.717415e-02
<MEAN> 39
 -3.843646e+01 -2.144487e+01 -6.721652e+00 -3.135039e+00 -8.124281e+00 -5.226986e+00 -1.333417e+01 -6.327350e+00 -1.227258e+01 -1.463088e+00 -7.797065e+00 -2.299998e-01 9.359747e+01 3.457869e+00 -1.292043e+00 -1.478980e+00 -2.317665e+00 -1.199360e+00 -1.664923e+00 -1.445204e+00 -2.100466e+00 -1.670984e+00 -1.551219e+00 -1.620207e+00 -9.462848e-01 4.971976e+00 3.673460e+00 1.579080e+00 6.918664e-01 -9.399995e-01 8.540133e-02 4.693047e-01 9.352868e-01 5.044406e-01 4.534324e-01 6.078691e-01 4.418451e-02 -2.274761e-01 1.633729e-01
<VARIANCE> 39
 1.079155e+02 6.844081e+01 6.166669e+01 7.195821e+01 7.104727e+01 8.346648e+01 8.682150e+01 8.833867e+01 9.661642e+01 9.436565e+01 8.937698e+01 7.562213e+01 1.939145e+02 1.088579e+01 8.557814e+00 6.431190e+00 6.879364e+00 7.652055e+00 9.078952e+00 9.794816e+00 1.059218e+01 9.864758e+00 9.824780e+00 9.858337e+00 9.164890e+00 2.575098e+01 2.262161e+00 1.853939e+00 1.825287e+00 2.576594e+00 2.375488e+00 2.237923e+00 2.325369e+00 2.560014e+00 2.728057e+00 2.628623e+00 2.678548e+00 2.077112e+00 4.127546e+00
<GCONST> 1.708925e+02
<MIXTURE> 12 6.640715e-02
<MEAN> 39
 -3.508110e+01 -1.977870e+01 -4.623250e+00 -3.079360e+00 -8.011139e+00 -5.578714e+00 -1.254122e+01 -5.064743e+00 -1.117735e+01 -1.701983e+00 -7.502720e+00 9.947383e-02 9.691454e+01 5.887500e+00 -4.828033e-01 -8.253870e-01 -1.915551e+00 1.350541e-01 -2.661992e-01 5.828071e-02 -7.225791e-01 3.153704e-01 2.646179e-01 -7.917706e-01 -3.754153e-01 6.073664e+00 3.972631e+00 1.228269e+00 2.401941e-01 -1.697433e+00 9.484282e-02 5.649372e-01 1.085245e+00 2.860438e-01 5.083683e-01 9.572189e-01 -8.929232e-02 -3.139925e-01 -5.518377e-03
<VARIANCE> 39
 1.251400e+02 6.003549e+01 5.308662e+01 6.176432e+01 6.146568e+01 7.005755e+01 6.910615e+01 7.649311e+01 8.391583e+01 7.829087e+01 7.341244e+01 6.889450e+01 2.212931e+02 2.095581e+01 1.069282e+01 6.570371e+00 8.274114e+00 7.976429e+00 9.224326e+00 9.693205e+00 1.059628e+01 1.207245e+01 1.092325e+01 1.108730e+01 9.810316e+00 3.332328e+01 2.431328e+00 3.071177e+00 2.229681e+00 2.923309e+00 2.884319e+00 2.488850e+00 2.532416e+00 2.824173e+00 3.687289e+00 3.166142e+00 3.556076e+00 2.400797e+00 5.850631e+00
<GCONST> 1.739631e+02
<MIXTURE> 13 5.830445e-02
<MEAN> 39
 -2.695784e+01 -1.553413e+01 -1.424422e+00 7.933688e-02 -3.318063e+00 -1.674507e+00 -8.129627e+00 -7.705009e-01 -5.979342e+00 8.432093e-01 -5.989154e+00 8.471527e-01 9.645504e+01 1.546564e+01 1.061939e+00 -1.139639e+00 -8.866410e+00 6.731237e-01 -5.971254e-01 2.257847e+00 -2.373080e+00 6.912943e-01 2.145797e+00 -2.054098e+00 -1.331870e+00 8.815732e+00 2.364807e+00 -9.481676e-01 -7.497680e-01 -3.774638e+00 -3.088355e-02 -4.582187e-01 7.043347e-01 -8.080262e-01 1.777804e-01 9.261883e-01 -5.471204e-01 -1.614646e-01 1.559649e+00
<VARIANCE> 39
 1.150438e+02 7.738802e+01 6.286977e+01 7.435907e+01 8.916025e+01 9.838332e+01 1.029421e+02 1.029338e+02 1.101773e+02 1.019632e+02 9.234124e+01 9.028745e+01 2.234424e+02 1.405106e+01 2.707476e+01 1.238025e+01 2.271362e+01 1.497188e+01 1.610168e+01 1.967776e+01 1.601094e+01 2.964382e+01 2.239773e+01 2.729629e+01 1.878205e+01 3.269930e+01 2.963011e+00 3.909755e+00 2.349409e+00 3.830428e+00 3.366367e+00 3.346183e+00 3.587677e+00 3.024877e+00 4.560754e+00 3.348783e+00 4.129601e+00 3.483595e+00 4.504401e+00
<GCONST> 1.867269e+02
<MIXTURE> 14 5.762650e-02
<MEAN> 39
 -2.032506e+01 -1.822130e+01 -7.806993e+00 -5.263418e+00 -4.988014e+00 -1.521198e+00 -8.500125e+00 -5.410254e+00 -1.094704e+01 1.289386e+00 -6.573323e+00 2.155341e+00 1.032346e+02 1.545861e+01 5.846242e+00 3.591796e+00 -7.205972e+00 -5.198014e+00 -1.294904e-01 1.533653e-01 2.013959e+00 -2.620319e+00 -8.991349e-01 2.531290e-02 -2.874326e+00 3.379153e+00 2.243067e+00 9.166403e-01 1.407250e+00 -2.852665e+00 -2.527379e+00 -2.073014e-01 -9.778821e-01 9.523156e-01 -1.190042e+00 -1.396162e-01 1.657382e-01 -1.670976e+00 5.364940e-01
<VARIANCE> 39
 1.052790e+02 5.594114e+01 5.565077e+01 7.374429e+01 9.301524e+01 1.119610e+02 1.206385e+02 1.181997e+02 1.101277e+02 1.115772e+02 1.005994e+02 9.510794e+01 1.589517e+02 1.033046e+01 1.957544e+01 1.713024e+01 1.733673e+01 2.151600e+01 2.002161e+01 1.639642e+01 2.204300e+01 2.305933e+01 2.102877e+01 2.671216e+01 1.343243e+01 2.813366e+01 2.278862e+00 3.704405e+00 2.985242e+00 3.303130e+00 4.290727e+00 4.287861e+00 4.050922e+00 4.415302e+00 4.845169e+00 4.314597e+00 4.983037e+00 3.242465e+00 3.683647e+00
<GCONST> 1.868517e+02
<MIXTURE> 15 5.380870e-02
<MEAN> 39
 -2.112980e+01 -1.644780e+01 -4.537957e+00 -1.936538e+00 -1.529812e+00 2.116389e-01 -5.757067e+00 -2.365077e+00 -5.767544e+00 5.408924e+00 -4.478144e+00 2.140786e+00 1.036814e+02 1.578312e+01 4.786453e+00 2.341589e+00 -7.267183e+00 -4.393085e+00 1.172060e+00 4.097349e-01 1.394459e+00 -2.345733e+00 5.770934e-02 1.160804e+00 -1.883888e+00 4.131534e+00 2.122151e+00 2.507255e-01 5.054630e-01 -3.126630e+00 -2.576275e+00 -1.793799e-01 -1.118979e+00 3.919844e-01 -1.395475e+00 -3.888856e-01 4.623380e-02 -1.347426e+00 6.282320e-01
<VARIANCE> 39
 1.154863e+02 6.013565e+01 6.148942e+01 7.307618e+01 1.089990e+02 1.298883e+02 1.237769e+02 1.267793e+02 1.131961e+02 1.225160e+02 1.143870e+02 9.845918e+01 1.675157e+02 1.188770e+01 2.389091e+01 1.779917e+01 1.909259e+01 2.292227e+01 2.050746e+01 1.863593e+01 2.118551e+01 2.404797e+01 2.585522e+01 3.301575e+01 1.482357e+01 2.966226e+01 2.432775e+00 4.259856e+00 3.126138e+00 3.476044e+00 4.364422e+00 4.494773e+00 4.383084e+00 3.990719e+00 4.444833e+00 4.729239e+00 5.795260e+00 3.286634e+00 4.502374e+00
<GCONST> 1.898234e+02
<MIXTURE> 16 4.365644e-02
<MEAN> 39
 -2.039018e+01 -1.381807e+01 5.655539e-01 2.449083e+00 2.579189e+00 3.131769e+00 -4.007221e+00 9.882846e-01 -2.531935e+00 4.931882e+00 -3.904681e+00 1.857188e+00 9.792369e+01 1.650595e+01 2.960392e+00 2.037615e-02 -1.038748e+01 6.125697e-01 2.190867e-01 3.077781e+00 -1.331041e+00 -4.067715e-01 2.563387e+00 -1.775011e+00 6.598023e-01 6.722473e+00 1.350049e+00 -7.743642e-01 -6.958086e-01 -4.114931e+00 -9.502662e-01 -9.997021e-01 -4.226822e-02 -7.079093e-01 -6.811163e-01 3.620337e-01 -8.802440e-01 1.075050e-01 1.320348e+00
<VARIANCE> 39
 1.111034e+02 6.853443e+01 6.256636e+01 7.206646e+01 9.887456e+01 1.101809e+02 1.094637e+02 1.054484e+02 1.276920e+02 1.214202e+02 9.750483e+01 9.400771e+01 1.757896e+02 1.247609e+01 3.122541e+01 1.279311e+01 2.599550e+01 1.711859e+01 1.791813e+01 2.303314e+01 1.928825e+01 3.812590e+01 2.364318e+01 3.114785e+01 2.005807e+01 2.833269e+01 2.747870e+00 3.976795e+00 1.957167e+00 3.207634e+00 3.256112e+00 3.249872e+00 3.502187e+00 2.945578e+00 4.363893e+00 3.272903e+00 3.692848e+00 3.020533e+00 3.641630e+00
<GCONST> 1.870842e+02
<STATE> 4
<NUMMIXES> 16
<MIXTURE> 1 5.564795e-02
<MEAN> 39
 8.038869e+00 -1.157665e+00 2.601439e+00 -4.017857e+00 6.379058e-01 4.177567e+00 -3.282509e-01 2.202466e+00 2.746801e+00 1.023143e+01 -4.148887e+00 2.803593e+00 1.125897e+02 1.757402e+01 -8.978558e-02 -1.761481e-01 -9.504601e+00 3.420706e+00 2.553977e+00 4.966228e+00 4.165107e-01 4.445000e+00 6.517401e+00 1.372584e+00 1.195413e+00 1.302333e+01 -1.576946e+00 -1.881049e+00 -3.603373e-01 -1.048120e+00 7.619952e-01 7.245787e-01 6.823296e-01 6.249938e-01 4.091204e-01 6.751895e-01 4.953504e-01 7.305039e-01 6.310668e-01
<VARIANCE> 39
 1.952176e+02 8.811042e+01 6.582420e+01 1.308517e+02 8.646822e+01 1.046194e+02 1.036824e+02 1.006227e+02 1.313427e+02 1.304539e+02 1.177462e+02 9.921155e+01 1.708930e+02 9.573391e+00 2.564538e+01 1.726514e+01 3.332979e+01 2.412553e+01 2.300940e+01 2.987896e+01 2.560798e+01 5.175152e+01 3.088662e+01 4.541449e+01 2.859283e+01 2.111525e+01 2.615601e+00 1.944935e+00 1.614509e+00 2.657314e+00 2.112095e+00 2.430448e+00 2.084645e+00 2.176811e+00 2.357818e+00 2.479849e+00 2.442746e+00 2.262548e+00 3.548177e+00
<GCONST> 1.864962e+02
<MIXTURE> 2 6.032035e-02
<MEAN> 39
 2.696245e+01 -1.785565e+01 -5.633773e+00 -2.780371e+01 1.084813e+01 4.656194e+00 8.182335e+00 -1.214876e+00 1.881867e+01 1.995743e+01 -9.916149e+00 3.086853e+00 1.400484e+02 9.375231e+00 -4.864758e+00 -2.310352e+00 -7.351231e+00 5.625477e+00 3.433699e+00 4.667027e+00 1.028326e+00 5.909325e+00 4.486066e+00 -5.355545e-01 2.159855e+00 1.156705e+01 -4.850791e+00 -5.618653e-01 4.069369e-01 2.458595e+00 1.826831e-01 9.022785e-01 -5.803224e-01 1.014899e+00 -1.437316e+00 -1.067206e+00 1.103556e+00 1.224678e+00 -2.452334e+00
<VARIANCE> 39
 5.258551e+01 1.667317e+02 1.381023e+02 2.357711e+02 1.460294e+02 2.081023e+02 1.987543e+02 2.040246e+02 2.528439e+02 2.206049e+02 2.313107e+02 2.233661e+02 1.069820e+02 2.809799e+01 1.563148e+01 1.454138e+01 2.774924e+01 1.669805e+01 1.852752e+01 1.946247e+01 1.779257e+01 2.380896e+01 2.300513e+01 1.946224e+01 1.925277e+01 1.797495e+01 1.120420e+00 1.806627e+00 1.386962e+00 2.691393e+00 1.894987e+00 2.562732e+00 2.783286e+00 2.483014e+00 3.577821e+00 2.961251e+00 3.195921e+00 2.931531e+00 1.934679e+00
<GCONST> 1.881147e+02
<MIXTURE> 3 6.106930e-02
<MEAN> 39
 1.741014e+01 9.924609e+00 8.253801e+00 -5.694026e+00 -1.737257e+00 6.022615e+00 4.410470e+00 5.659015e+00 -4.276680e+00 5.969890e+00 -2.413193e+00 5.824410e+00 1.083258e+02 1.792534e+01 1.000600e+01 6.005914e+00 -1.142031e+01 -4.355550e+00 6.753334e-01 3.334595e+00 3.951500e+00 -5.815495e-01 2.439207e+00 -5.634533e-01 1.521052e+00 5.532320e+00 -1.661593e+00 -7.756332e-01 1.698584e-01 -1.328835e+00 -8.903784e-01 -4.332962e-01 -7.129745e-01 4.290043e-01 -6.668180e-03 9.210556e-01 8.050506e-02 1.064296e-01 7.860786e-01
<VARIANCE> 39
 1.906371e+02 1.192796e+02 5.498801e+01 1.954008e+02 1.366641e+02 1.256951e+02 1.083925e+02 1.014854e+02 1.051419e+02 9.828231e+01 1.026788e+02 7.880560e+01 1.749598e+02 8.905173e+00 2.247270e+01 2.099191e+01 3.008148e+01 3.411897e+01 3.520036e+01 3.732862e+01 3.116168e+01 3.357127e+01 3.049292e+01 3.475201e+01 3.227755e+01 1.609669e+01 2.645252e+00 2.256408e+00 1.705131e+00 3.073492e+00 2.588200e+00 2.524672e+00 2.441350e+00 2.742067e+00 2.879967e+00 3.111386e+00 2.646173e+00 2.649020e+00 2.948030e+00
<GCONST> 1.885264e+02
<MIXTURE> 4 7.378455e-02
<MEAN> 39
 2.973353e+01 -1.636236e+01 5.194862e+00 -3.447323e+01 -9.238710e+00 1.319849e+01 -1.405707e+00 6.357035e+00 -1.693703e+01 2.178228e+01 2.565857e+01 1.505044e+00 1.402107e+02 8.096046e+00 -3.689652e+00 1.729926e-01 -8.102338e+00 -7.919691e-01 3.708074e+00 1.267823e+00 2.000251e+00 -5.335224e-02 4.035153e+00 6.019611e+00 -1.110675e+00 1.012587e+01 -4.504585e+00 -3.157945e-01 -4.932072e-01 2.792368e+00 1.486334e+00 4.514205e-02 4.523220e-01 2.025630e-01 2.610833e+00 -7.048395e-02 -1.863416e+00 -2.637241e-01 -1.860665e+00
<VARIANCE> 39
 5.072133e+01 1.435668e+02 1.721607e+02 2.996032e+02 3.208630e+02 2.546345e+02 1.947230e+02 3.365495e+02 3.930149e+02 3.949452e+02 2.942787e+02 1.942855e+02 1.192624e+02 3.969162e+01 1.101773e+01 1.486933e+01 2.997865e+01 2.271556e+01 2.143738e+01 1.799516e+01 2.362093e+01 3.531959e+01 2.808315e+01 3.273642e+01 1.595044e+01 1.873903e+01 1.433930e+00 1.789115e+00 1.859598e+00 3.382622e+00 3.019794e+00 2.611310e+00 2.476338e+00 3.519796e+00 3.740021e+00 3.916248e+00 3.456283e+00 2.515306e+00 1.908820e+00
<GCONST> 1.945239e+02
<MIXTURE> 5 6.367795e-02
<MEAN> 39
 2.474391e+01 -2.408533e+01 -5.604808e+00 -3.032396e+01 1.225537e+01 4.458395e+00 1.063150e+01 1.385968e-01 1.778182e+01 2.730491e+01 -7.720135e+00 2.348765e+00 1.439228e+02 5.060409e+00 -6.164557e+00 -1.903346e+00 -5.757254e+00 4.549767e+00 2.858833e+00 3.423326e+00 1.064225e+00 3.420712e+00 3.422363e+00 -7.876847e-01 1.128424e+00 1.000735e+01 -4.723873e+00 2.082247e-01 5.638256e-01 3.050845e+00 -1.523529e-01 8.840328e-01 -9.776381e-01 9.144439e-01 -1.329037e+00 -1.954292e+00 6.698925e-01 1.059216e+00 -2.956868e+00
<VARIANCE> 39
 5.625675e+01 1.515380e+02 1.567507e+02 2.503520e+02 1.697967e+02 2.174447e+02 2.058843e+02 2.242850e+02 2.821071e+02 2.686716e+02 2.654627e+02 2.077006e+02 8.835359e+01 2.406429e+01 1.022857e+01 1.155833e+01 2.044955e+01 1.509915e+01 1.380788e+01 1.763283e+01 1.549342e+01 1.822299e+01 1.826279e+01 1.688118e+01 1.533173e+01 1.402005e+01 1.137735e+00 1.792060e+00 1.629055e+00 2.597416e+00 1.900037e+00 2.848390e+00 2.916391e+00 2.579755e+00 3.980590e+00 3.850827e+00 3.775371e+00 3.057477e+00 1.629534e+00
<GCONST> 1.866481e+02
<MIXTURE> 6 6.267280e-02
<MEAN> 39
 2.418131e+01 1.439962e+01 1.057693e+01 -1.135722e+01 -1.002835e+01 4.475694e+00 3.647108e+00 9.400599e+00 -5.467889e+00 5.664403e+00 -2.916426e+00 4.057703e+00 1.110170e+02 1.691257e+01 9.124093e+00 7.391142e+00 -9.882005e+00 -7.693934e+00 1.201427e+00 3.283753e-01 5.726449e+00 -2.048028e+00 8.108733e-01 4.630606e-01 -2.303509e+00 5.747939e+00 -2.326780e+00 -1.414081e+00 7.071280e-02 -4.165068e-01 -5.727212e-01 -1.120805e-01 -1.240664e+00 1.810220e-01 -2.669572e-01 4.438295e-01 3.571379e-01 -4.334303e-01 7.397745e-01
<VARIANCE> 39
 1.837588e+02 1.191836e+02 7.342125e+01 2.065254e+02 1.826204e+02 1.517749e+02 1.231716e+02 1.196210e+02 1.290621e+02 1.068431e+02 1.086174e+02 8.998939e+01 1.541094e+02 9.128056e+00 1.858472e+01 2.353603e+01 3.223713e+01 3.436730e+01 3.538287e+01 3.285277e+01 3.463642e+01 3.676700e+01 3.309605e+01 3.220636e+01 2.817933e+01 1.405140e+01 2.703835e+00 1.902470e+00 1.587231e+00 2.647706e+00 2.889316e+00 2.214292e+00 2.285591e+00 2.630438e+00 2.972588e+00 2.469587e+00 2.213500e+00 2.163565e+00 2.458156e+00
<GCONST> 1.885283e+02
<MIXTURE> 7 5.865060e-02
<MEAN> 39
 2.734722e+01 -1.868401e+01 -1.805996e+00 -2.417616e+01 -1.351824e+01 1.405297e+01 -7.739153e+00 6.125345e+00 -7.619932e+00 2.348697e+01 3.247540e+01 -1.054051e+01 1.473203e+02 6.214126e+00 -4.483521e+00 -1.641062e+00 -5.222225e+00 -1.711878e+00 3.759215e+00 3.270910e-01 1.833938e+00 2.014079e+00 3.066411e+00 5.579096e+00 -4.079763e+00 9.773034e+00 -4.772624e+00 -7.654807e-02 3.676766e-02 2.454310e+00 1.717132e+00 -2.705705e-01 1.219812e+00 3.195435e-01 2.171581e+00 -5.539401e-01 -2.993007e+00 6.644089e-01 -2.534223e+00
<VARIANCE> 39
 6.627578e+01 1.415644e+02 2.172441e+02 3.636309e+02 1.936085e+02 2.940101e+02 2.614506e+02 3.905231e+02 4.614609e+02 4.924665e+02 4.405897e+02 2.277906e+02 1.268486e+02 3.041763e+01 1.013064e+01 1.711190e+01 2.392711e+01 1.348537e+01 2.040083e+01 1.786249e+01 2.421531e+01 2.807690e+01 2.392576e+01 4.070882e+01 1.586990e+01 1.382889e+01 1.325094e+00 1.720472e+00 2.263888e+00 3.233842e+00 2.511738e+00 2.764807e+00 3.245859e+00 3.689976e+00 4.323730e+00 5.820084e+00 4.517775e+00 2.719483e+00 1.541351e+00
<GCONST> 1.957196e+02
<MIXTURE> 8 6.416790e-02
<MEAN> 39
 1.882105e+01 -3.394337e-01 1.555237e-01 -1.043949e+01 3.222489e-02 6.094411e+00 3.459962e+00 -9.349163e-01 3.404226e-01 1.521612e+01 2.104438e+00 8.187441e-01 1.178315e+02 1.664839e+01 -3.113337e-01 -4.278564e-01 -9.221657e+00 8.099650e-01 2.700930e+00 3.988460e+00 -2.288393e-01 1.932513e+00 5.536040e+00 5.160831e+00 -1.418813e-01 1.265013e+01 -2.669066e+00 -2.031026e+00 -2.971147e-01 -2.939018e-01 2.170802e-01 4.105001e-01 1.095122e-01 6.933880e-01 5.033652e-01 8.107211e-02 2.921879e-01 2.925769e-01 5.247279e-01
<VARIANCE> 39
 2.038860e+02 1.015636e+02 8.194156e+01 1.889471e+02 1.014641e+02 1.246689e+02 1.423279e+02 1.444538e+02 2.054698e+02 1.645587e+02 2.156931e+02 1.280297e+02 1.728287e+02 1.174800e+01 2.177521e+01 2.049443e+01 3.504485e+01 2.640482e+01 2.427506e+01 3.301964e+01 2.848072e+01 4.907470e+01 3.491899e+01 6.010518e+01 2.998294e+01 1.896496e+01 2.820034e+00 1.428229e+00 1.514360e+00 2.139323e+00 1.889115e+00 2.225624e+00 2.360241e+00 2.332666e+00 2.620494e+00 2.521696e+00 2.813423e+00 2.719867e+00 2.793021e+00
<GCONST> 1.904236e+02
<MIXTURE> 9 7.378455e-02
<MEAN> 39
 2.688477e+01 -2.115514e+01 -5.353856e-02 -4.139685e+01 -1.640377e+01 6.815586e+00 -6.987434e+00 -9.810791e-01 -2.486687e+01 1.383298e+01 1.879675e+01 -4.070410e+00 1.358425e+02 5.575995e+00 -5.017371e+00 -1.369438e+00 -1.029245e+01 -2.698403e+00 1.856054e+00 -4.290055e-01 5.619663e-02 -2.430564e+00 1.915412e+00 3.730981e+00 -2.708195e+00 8.394327e+00 -4.983573e+00 -8.508257e-01 -1.038676e+00 2.056692e+00 7.912319e-01 -6.012399e-01 -1.771334e-01 -5.478818e-01 1.837267e+00 -8.620645e-01 -2.607060e+00 -8.981128e-01 -2.413305e+00
<VARIANCE> 39
 5.072133e+01 1.435668e+02 1.721607e+02 2.996032e+02 3.208630e+02 2.546345e+02 1.947230e+02 3.365495e+02 3.930149e+02 3.949452e+02 2.942787e+02 1.942855e+02 1.192624e+02 3.969162e+01 1.101773e+01 1.486933e+01 2.997865e+01 2.271556e+01 2.143738e+01 1.799516e+01 2.362093e+01 3.531959e+01 2.808315e+01 3.273642e+01 1.595044e+01 1.873903e+01 1.433930e+00 1.789115e+00 1.859598e+00 3.382622e+00 3.019794e+00 2.611310e+00 2.476338e+00 3.519796e+00 3.740021e+00 3.916248e+00 3.456283e+00 2.515306e+00 1.908820e+00
<GCONST> 1.945239e+02
<MIXTURE> 10 6.416790e-02
<MEAN> 39
 1.310951e+01 -4.370584e+00 -3.465340e+00 -1.593781e+01 -3.996951e+00 1.628201e+00 -1.312088e+00 -5.742474e+00 -5.393265e+00 1.008490e+01 -3.770159e+00 -3.707264e+00 1.125729e+02 1.527737e+01 -2.177890e+00 -2.238688e+00 -1.158960e+01 -1.245460e+00 7.301404e-01 1.689951e+00 -2.363533e+00 -8.696211e-01 3.172348e+00 2.059731e+00 -2.332149e+00 1.090817e+01 -3.340784e+00 -2.509060e+00 -7.893521e-01 -8.789588e-01 -3.327001e-01 -1.862409e-01 -5.050108e-01 8.246526e-02 -1.441524e-01 -5.541219e-01 -3.787426e-01 -3.671038e-01 -1.437654e-01
<VARIANCE> 39
 2.038860e+02 1.015636e+02 8.194156e+01 1.889471e+02 1.014641e+02 1.246689e+02 1.423279e+02 1.444538e+02 2.054698e+02 1.645587e+02 2.156931e+02 1.280297e+02 1.728287e+02 1.174800e+01 2.177521e+01 2.049443e+01 3.504485e+01 2.640482e+01 2.427506e+01 3.301964e+01 2.848072e+01 4.907470e+01 3.491899e+01 6.010518e+01 2.998294e+01 1.896496e+01 2.820034e+00 1.428229e+00 1.514360e+00 2.139323e+00 1.889115e+00 2.225624e+00 2.360241e+00 2.332666e+00 2.620494e+00 2.521696e+00 2.813423e+00 2.719867e+00 2.793021e+00
<GCONST> 1.904236e+02
<MIXTURE> 11 6.367795e-02
<MEAN> 39
 2.174373e+01 -2.900936e+01 -1.061281e+01 -3.665296e+01 7.043130e+00 -1.440007e+00 4.892033e+00 -5.851863e+00 1.106340e+01 2.074843e+01 -1.423734e+01 -3.415964e+00 1.401630e+02 3.098195e+00 -7.443842e+00 -3.263248e+00 -7.566102e+00 2.995461e+00 1.372475e+00 1.743668e+00 -5.102420e-01 1.713176e+00 1.712963e+00 -2.431153e+00 -4.378059e-01 8.509617e+00 -5.150531e+00 -3.272467e-01 5.328783e-02 2.406185e+00 -7.037203e-01 2.089458e-01 -1.660736e+00 2.719793e-01 -2.127093e+00 -2.739233e+00 -1.073200e-01 3.597903e-01 -3.467481e+00
<VARIANCE> 39
 5.625675e+01 1.515380e+02 1.567507e+02 2.503520e+02 1.697967e+02 2.174447e+02 2.058843e+02 2.242850e+02 2.821071e+02 2.686716e+02 2.654627e+02 2.077006e+02 8.835359e+01 2.406429e+01 1.022857e+01 1.155833e+01 2.044955e+01 1.509915e+01 1.380788e+01 1.763283e+01 1.549342e+01 1.822299e+01 1.826279e+01 1.688118e+01 1.533173e+01 1.402005e+01 1.137735e+00 1.792060e+00 1.629055e+00 2.597416e+00 1.900037e+00 2.848390e+00 2.916391e+00 2.579755e+00 3.980590e+00 3.850827e+00 3.775371e+00 3.057477e+00 1.629534e+00
<GCONST> 1.866481e+02
<MIXTURE> 12 6.267280e-02
<MEAN> 39
 1.875901e+01 1.003277e+01 7.149478e+00 -1.710562e+01 -1.543383e+01 -4.521842e-01 -7.922001e-01 5.025744e+00 -1.001211e+01 1.529805e+00 -7.085213e+00 2.631934e-01 1.060514e+02 1.570407e+01 7.399693e+00 5.450584e+00 -1.215312e+01 -1.003888e+01 -1.177913e+00 -1.964318e+00 3.372341e+00 -4.473460e+00 -1.490294e+00 -1.806965e+00 -4.426877e+00 4.248531e+00 -2.984514e+00 -1.965801e+00 -4.332286e-01 -1.067378e+00 -1.252641e+00 -7.073004e-01 -1.845390e+00 -4.677230e-01 -9.566050e-01 -1.847673e-01 -2.379755e-01 -1.021793e+00 1.126341e-01
<VARIANCE> 39
 1.837588e+02 1.191836e+02 7.342125e+01 2.065254e+02 1.826204e+02 1.517749e+02 1.231716e+02 1.196210e+02 1.290621e+02 1.068431e+02 1.086174e+02 8.998939e+01 1.541094e+02 9.128056e+00 1.858472e+01 2.353603e+01 3.223713e+01 3.436730e+01 3.538287e+01 3.285277e+01 3.463642e+01 3.676700e+01 3.309605e+01 3.220636e+01 2.817933e+01 1.405140e+01 2.703835e+00 1.902470e+00 1.587231e+00 2.647706e+00 2.889316e+00 2.214292e+00 2.285591e+00 2.630438e+00 2.972588e+00 2.469587e+00 2.213500e+00 2.163565e+00 2.458156e+00
<GCONST> 1.885283e+02
<MIXTURE> 13 6.106930e-02
<MEAN> 39
 1.188728e+01 5.556001e+00 5.287646e+00 -1.128546e+01 -6.413393e+00 1.538063e+00 2.460017e-01 1.629416e+00 -8.378229e+00 2.004392e+00 -6.466415e+00 2.273510e+00 1.030350e+02 1.673168e+01 8.109789e+00 4.173237e+00 -1.361417e+01 -6.692008e+00 -1.697862e+00 8.907090e-01 1.718594e+00 -2.899179e+00 2.303911e-01 -2.921487e+00 -7.514809e-01 3.927494e+00 -2.312163e+00 -1.376487e+00 -3.524643e-01 -2.030091e+00 -1.533894e+00 -1.068865e+00 -1.337967e+00 -2.333632e-01 -6.854868e-01 2.154908e-01 -5.701774e-01 -5.446028e-01 9.928542e-02
<VARIANCE> 39
 1.906371e+02 1.192796e+02 5.498801e+01 1.954008e+02 1.366641e+02 1.256951e+02 1.083925e+02 1.014854e+02 1.051419e+02 9.828231e+01 1.026788e+02 7.880560e+01 1.749598e+02 8.905173e+00 2.247270e+01 2.099191e+01 3.008148e+01 3.411897e+01 3.520036e+01 3.732862e+01 3.116168e+01 3.357127e+01 3.049292e+01 3.475201e+01 3.227755e+01 1.609669e+01 2.645252e+00 2.256408e+00 1.705131e+00 3.073492e+00 2.588200e+00 2.524672e+00 2.441350e+00 2.742067e+00 2.879967e+00 3.111386e+00 2.646173e+00 2.649020e+00 2.948030e+00
<GCONST> 1.885264e+02
<MIXTURE> 14 6.032035e-02
<MEAN> 39
 2.406181e+01 -2.302063e+01 -1.033445e+01 -3.394565e+01 6.014431e+00 -1.114106e+00 2.543125e+00 -6.928364e+00 1.245825e+01 1.401632e+01 -1.599971e+01 -2.891322e+00 1.359111e+02 7.254929e+00 -6.446224e+00 -3.835678e+00 -9.458332e+00 3.990947e+00 1.711955e+00 2.902375e+00 -6.589240e-01 3.957547e+00 2.567520e+00 -2.300196e+00 4.047364e-01 9.871172e+00 -5.274191e+00 -1.099509e+00 -6.414051e-02 1.802377e+00 -3.679510e-01 2.619371e-01 -1.247650e+00 3.845960e-01 -2.193922e+00 -1.755538e+00 3.884705e-01 5.398089e-01 -3.008706e+00
<VARIANCE> 39
 5.258551e+01 1.667317e+02 1.381023e+02 2.357711e+02 1.460294e+02 2.081023e+02 1.987543e+02 2.040246e+02 2.528439e+02 2.206049e+02 2.313107e+02 2.233661e+02 1.069820e+02 2.809799e+01 1.563148e+01 1.454138e+01 2.774924e+01 1.669805e+01 1.852752e+01 1.946247e+01 1.779257e+01 2.380896e+01 2.300513e+01 1.946224e+01 1.925277e+01 1.797495e+01 1.120420e+00 1.806627e+00 1.386962e+00 2.691393e+00 1.894987e+00 2.562732e+00 2.783286e+00 2.483014e+00 3.577821e+00 2.961251e+00 3.195921e+00 2.931531e+00 1.934679e+00
<GCONST> 1.881147e+02
<MIXTURE> 15 5.865060e-02
<MEAN> 39
 2.409082e+01 -2.344325e+01 -7.701678e+00 -3.180380e+01 -1.908397e+01 7.194275e+00 -1.420693e+01 -1.779318e+00 -1.621259e+01 1.461033e+01 2.407930e+01 -1.657761e+01 1.428152e+02 4.008039e+00 -5.756668e+00 -3.295724e+00 -7.178839e+00 -3.180776e+00 1.952523e+00 -1.363471e+00 -1.344238e-01 -1.054264e-01 1.109853e+00 3.026958e+00 -5.673245e+00 8.285546e+00 -5.233075e+00 -6.012151e-01 -5.650812e-01 1.734994e+00 1.083194e+00 -9.356788e-01 4.991609e-01 -4.488289e-01 1.339837e+00 -1.518934e+00 -3.843209e+00 4.774719e-03 -3.030827e+00
<VARIANCE> 39
 6.627578e+01 1.415644e+02 2.172441e+02 3.636309e+02 1.936085e+02 2.940101e+02 2.614506e+02 3.905231e+02 4.614609e+02 4.924665e+02 4.405897e+02 2.277906e+02 1.268486e+02 3.041763e+01 1.013064e+01 1.711190e+01 2.392711e+01 1.348537e+01 2.040083e+01 1.786249e+01 2.421531e+01 2.807690e+01 2.392576e+01 4.070882e+01 1.586990e+01 1.382889e+01 1.325094e+00 1.720472e+00 2.263888e+00 3.233842e+00 2.511738e+00 2.764807e+00 3.245859e+00 3.689976e+00 4.323730e+00 5.820084e+00 4.517775e+00 2.719483e+00 1.541351e+00
<GCONST> 1.957196e+02
<MIXTURE> 16 5.564795e-02
<MEAN> 39
 2.450057e+00 -4.912351e+00 -6.438464e-01 -8.593473e+00 -3.081626e+00 8.622241e-02 -4.401233e+00 -1.809969e+00 -1.837393e+00 5.662777e+00 -8.489324e+00 -1.180606e+00 1.073607e+02 1.633638e+01 -2.115436e+00 -1.838202e+00 -1.181388e+01 1.455996e+00 6.352527e-01 2.779762e+00 -1.607663e+00 1.567458e+00 4.294372e+00 -1.323027e+00 -9.434776e-01 1.118527e+01 -2.223858e+00 -2.438893e+00 -8.685906e-01 -1.700170e+00 1.806732e-01 1.009829e-01 1.047976e-01 3.483301e-02 -2.050872e-01 4.528806e-02 -1.298211e-01 1.288331e-01 -1.223974e-01
<VARIANCE> 39
 1.952176e+02 8.811042e+01 6.582420e+01 1.308517e+02 8.646822e+01 1.046194e+02 1.036824e+02 1.006227e+02 1.313427e+02 1.304539e+02 1.177462e+02 9.921155e+01 1.708930e+02 9.573391e+00 2.564538e+01 1.726514e+01 3.332979e+01 2.412553e+01 2.300940e+01 2.987896e+01 2.560798e+01 5.175152e+01 3.088662e+01 4.541449e+01 2.859283e+01 2.111525e+01 2.615601e+00 1.944935e+00 1.614509e+00 2.657314e+00 2.112095e+00 2.430448e+00 2.084645e+00 2.176811e+00 2.357818e+00 2.479849e+00 2.442746e+00 2.262548e+00 3.548177e+00
<GCONST> 1.864962e+02
<TRANSP> 5
 0.000000e+00 1.000000e+00 0.000000e+00 0.000000e+00 0.000000e+00
 0.000000e+00 8.491019e-01 1.508981e-01 0.000000e+00 0.000000e+00
 0.000000e+00 0.000000e+00 6.635948e-01 3.364052e-01 0.000000e+00
 0.000000e+00 0.000000e+00 0.000000e+00 5.210612e-01 4.789388e-01
 0.000000e+00 0.000000e+00 0.000000e+00 0.000000e+00 0.000000e+00
<ENDHMM>
~h "k"
<BEGINHMM>
<NUMSTATES> 5
<STATE> 2
<NUMMIXES> 16
<MIXTURE> 1 6.263410e-02
<MEAN> 39
 6.607001e+00 -8.553762e+00 5.121664e+01 3.051463e+01 4.164194e+00 -3.553926e+01 1.462754e+00 2.839613e+01 -4.213538e+01 5.811551e+00 3.654132e+00 2.790845e+00 1.195368e+02 -2.211216e+00 9.695145e+00 -3.533844e+00 7.677349e+00 5.456932e+00 6.797307e+00 7.827850e+00 -3.867071e-01 5.844447e+00 -3.556228e-01 2.984788e+00 1.792157e+00 -1.680537e+01 -1.243829e+00 8.314210e-01 -2.859413e+00 -2.369562e+00 1.225194e-01 3.468597e+00 -1.814737e+00 -2.367623e+00 5.135182e+00 7.291093e-01 -4.522545e-01 9.103492e-01 -1.288796e+00
<VARIANCE> 39
 5.476037e+01 1.266140e+02 3.133391e+02 2.281535e+02 2.766591e+02 3.268138e+02 4.497247e+02 3.742548e+02 4.224410e+02 4.545300e+02 3.059286e+02 2.451965e+02 2.519339e+02 1.129224e+01 1.861131e+01 2.276534e+01 2.344824e+01 2.447694e+01 3.378705e+01 3.270359e+01 3.207013e+01 4.281347e+01 3.402886e+01 2.810548e+01 2.454295e+01 2.322742e+01 1.280009e+00 3.671293e+00 3.670593e+00 3.340828e+00 3.727968e+00 5.134401e+00 5.885235e+00 7.549671e+00 6.809119e+00 7.159796e+00 4.590662e+00 5.292799e+00 5.215810e+00
<GCONST> 2.058597e+02
<MIXTURE> 2 4.884041e-02
<MEAN> 39
 -1.320153e+01 1.519102e+01 1.727258e+01 2.373425e+01 5.971965e+00 -3.789490e+00 -7.790143e-01 2.633662e+00 -7.789557e+00 -2.152474e+00 3.411401e+00 6.633045e+00 5.760453e+01 -4.011524e+00 1.564716e+00 -7.139713e+00 -4.045890e+00 1.765072e+00 8.389005e+00 5.424033e-01 -3.145072e-01 8.347191e+00 2.845284e+00 1.086262e+00 1.121530e+00 -6.441538e+00 1.396143e+00 -3.251550e+00 9.378410e-01 -1.205575e+00 -3.678285e-01 -1.996558e+00 -5.461353e-02 1.422999e+00 -4.938984e-01 1.742143e+00 -5.797583e-02 3.279925e-01 7.118626e+00
<VARIANCE> 39
 7.324508e+01 1.068575e+02 1.141210e+02 1.669271e+02 1.746050e+02 2.120388e+02 2.355107e+02 2.463862e+02 1.861686e+02 1.626977e+02 1.386996e+02 1.088610e+02 4.462061e+01 1.053370e+01 2.656483e+01 2.405612e+01 1.849536e+01 2.385542e+01 3.365332e+01 3.409832e+01 4.407823e+01 3.140888e+01 2.466520e+01 2.023708e+01 1.810431e+01 3.520170e+01 2.414080e+00 5.495030e+00 3.452446e+00 5.664133e+00 5.457694e+00 6.134236e+00 7.851875e+00 8.205062e+00 6.553666e+00 4.631238e+00 4.583775e+00 3.234323e+00 7.848748e+00
<GCONST> 1.989814e+02
<MIXTURE> 3 4.855591e-02
<MEAN> 39
 -7.703187e+00 2.221233e+01 2.277035e+01 2.416988e+01 3.185295e+00 -6.277800e-01 -5.124297e-01 -7.216520e+00 -1.148408e+01 -3.144680e+00 -2.415822e+00 -9.959257e-01 5.947819e+01 -5.207549e+00 -2.104353e+00 -1.144457e+01 -1.536507e+00 5.391828e+00 3.216395e+00 -6.274601e+00 6.635720e+00 2.905862e+00 -2.061558e+00 1.932142e+00 3.264602e-01 -5.939032e+00 2.186653e-01 -3.740962e+00 1.824450e-01 -2.124012e+00 -1.940886e+00 -1.984250e+00 1.747633e+00 -3.093627e-01 1.725046e+00 2.299870e+00 4.701423e-01 2.191215e+00 8.000238e+00
<VARIANCE> 39
 6.872777e+01 1.047152e+02 1.039516e+02 1.233803e+02 1.491773e+02 1.721361e+02 1.875762e+02 1.745802e+02 1.941945e+02 1.732719e+02 1.424565e+02 1.168332e+02 3.460100e+01 8.331118e+00 4.060135e+01 1.679327e+01 2.404269e+01 2.257024e+01 3.363387e+01 3.328939e+01 3.808028e+01 3.696112e+01 2.293688e+01 1.946059e+01 1.927469e+01 6.723172e+01 2.878502e+00 4.943655e+00 3.940762e+00 4.299626e+00 4.164327e+00 5.035370e+00 6.336226e+00 6.946742e+00 7.113013e+00 4.494243e+00 3.956308e+00 3.338248e+00 7.401905e+00
<GCONST> 1.970949e+02
<MIXTURE> 4 8.143940e-02
<MEAN> 39
 -1.991952e+00 1.286740e+01 3.710813e+01 3.304996e+01 -4.921947e+00 -1.144565e+01 1.629079e+01 3.969500e-01 -1.169791e+01 8.916433e+00 5.379574e+00 5.381078e+00 8.170623e+01 -4.628311e+00 5.462899e+00 -7.426440e+00 3.118651e+00 7.222645e+00 8.760996e+00 -2.729991e+00 4.828610e+00 4.778071e+00 -2.448954e+00 2.293142e+00 -1.076526e+00 -1.459583e+01 -3.998559e-01 -2.275274e+00 -1.540979e+00 -3.508865e+00 -2.226815e-02 -3.692628e-01 -1.542894e+00 4.869066e-01 1.372005e+00 5.797826e-01 -1.879461e-01 1.261152e+00 3.724535e+00
<VARIANCE> 39
 1.502107e+02 2.446525e+02 2.149886e+02 2.043177e+02 3.597724e+02 3.576403e+02 3.455996e+02 4.050599e+02 2.886716e+02 2.479905e+02 2.100533e+02 1.812567e+02 1.809287e+02 1.268199e+01 2.356580e+01 2.581817e+01 3.187894e+01 2.975389e+01 3.688136e+01 5.644297e+01 6.856842e+01 5.965199e+01 3.258873e+01 2.493993e+01 2.392618e+01 3.436530e+01 3.249882e+00 6.297331e+00 4.233909e+00 3.773267e+00 4.852038e+00 6.174811e+00 6.376839e+00 5.962053e+00 5.193781e+00 4.382345e+00 4.496922e+00 4.029365e+00 6.756269e+00
<GCONST> 2.093538e+02
<MIXTURE> 5 7.332010e-02
<MEAN> 39
 -1.349188e+01 1.556809e+01 1.643778e+01 2.166089e+01 6.247057e+00 -4.085590e+00 -3.351573e+00 4.803419e-02 -8.891528e+00 -3.467689e+00 1.127600e+00 5.589498e+00 5.657004e+01 -5.352466e+00 -2.123054e-01 -8.999235e+00 -6.600938e+00 3.698835e-01 6.184294e+00 -1.826501e+00 -3.040222e+00 6.636034e+00 2.094312e+00 -5.362093e-01 7.491232e-01 -5.343752e+00 1.407867e+00 -3.540963e+00 1.014499e+00 -9.124162e-01 -4.894606e-01 -2.129645e+00 7.602152e-02 2.058792e+00 -5.144584e-01 1.747588e+00 2.233361e-01 2.707050e-01 7.927921e+00
<VARIANCE> 39
 5.328318e+01 8.604832e+01 8.549831e+01 1.055522e+02 1.328554e+02 1.934553e+02 2.155392e+02 2.055830e+02 1.949126e+02 1.737891e+02 1.284944e+02 8.940550e+01 3.835840e+01 8.278462e+00 3.405770e+01 1.819692e+01 1.517972e+01 2.163390e+01 3.067056e+01 3.109483e+01 3.608002e+01 2.758673e+01 2.288359e+01 1.885903e+01 1.470657e+01 4.433981e+01 2.607711e+00 4.606169e+00 3.236521e+00 3.798111e+00 4.975094e+00 7.138397e+00 6.504425e+00 9.483818e+00 6.583240e+00 4.977463e+00 4.059675e+00 2.822412e+00 8.129755e+00
<GCONST> 1.948539e+02
<MIXTURE> 6 7.397125e-02
<MEAN> 39
 -3.715918e+00 1.128605e+01 3.483632e+01 3.418559e+01 2.072179e+00 -1.238153e+01 8.176819e+00 2.587568e+00 -1.564512e+01 2.129606e+00 2.138120e+00 5.123013e+00 8.032059e+01 -6.056864e+00 4.529386e+00 -9.510075e+00 9.390331e-01 5.027329e+00 6.756096e+00 -3.357108e+00 1.273902e+00 4.158852e+00 -2.305996e+00 4.210407e-01 -5.769579e-01 -1.469670e+01 -1.372813e-01 -2.392278e+00 -1.328936e+00 -3.630902e+00 -7.656456e-01 -2.532148e-01 -9.903737e-01 5.781798e-01 1.757744e+00 1.206695e+00 3.674600e-01 9.939436e-01 4.624112e+00
<VARIANCE> 39
 1.403074e+02 2.597824e+02 2.003564e+02 1.955220e+02 3.873867e+02 3.547354e+02 4.234327e+02 4.483721e+02 2.844829e+02 2.532735e+02 2.335438e+02 1.719700e+02 1.620834e+02 9.607346e+00 2.974843e+01 2.313348e+01 3.445813e+01 3.164531e+01 3.597301e+01 6.144698e+01 8.937795e+01 6.674949e+01 3.895595e+01 2.369637e+01 2.561909e+01 3.141908e+01 3.223753e+00 6.378107e+00 3.839915e+00 3.589496e+00 5.160903e+00 6.272993e+00 6.782359e+00 6.371385e+00 5.926905e+00 4.837519e+00 5.045166e+00 4.603724e+00 7.676433e+00
<GCONST> 2.107493e+02
<MIXTURE> 7 6.464015e-02
<MEAN> 39
 5.688741e+00 -4.476413e+00 4.400018e+01 3.455000e+01 6.211058e+00 -3.520294e+01 1.913667e+00 2.771478e+01 -3.371087e+01 -7.965374e-02 6.057130e+00 7.144971e+00 1.058426e+02 -4.658493e+00 1.008722e+01 -6.569483e+00 3.545662e+00 4.369995e+00 7.588377e+00 4.577243e+00 -5.364604e+00 6.591013e+00 -9.922044e-01 -4.267418e-02 1.977675e+00 -1.840074e+01 -1.302398e+00 -6.191711e-01 -2.420006e+00 -3.499675e+00 -7.478490e-01 2.820191e+00 -2.191675e+00 -2.202342e+00 3.572413e+00 1.264006e+00 -5.554472e-01 1.848287e-01 9.955137e-01
<VARIANCE> 39
 5.199122e+01 1.372980e+02 2.360648e+02 1.734850e+02 2.627344e+02 3.259209e+02 4.809913e+02 3.608754e+02 3.076262e+02 3.275784e+02 2.546633e+02 2.076879e+02 2.562997e+02 8.845901e+00 2.316677e+01 2.631925e+01 2.451061e+01 2.663478e+01 3.870072e+01 4.696196e+01 4.066838e+01 4.401549e+01 4.078224e+01 2.648748e+01 2.252774e+01 2.441057e+01 1.317213e+00 3.926041e+00 2.953885e+00 2.989298e+00 3.763268e+00 4.612659e+00 5.910676e+00 6.197742e+00 5.190312e+00 5.296974e+00 4.311047e+00 4.292718e+00 7.006716e+00
<GCONST> 2.043551e+02
<MIXTURE> 8 4.658623e-02
<MEAN> 39
 -9.488194e+00 1.977607e+01 1.845562e+01 1.922368e+01 -9.326761e-01 -6.915561e+00 -9.003286e+00 -1.397461e+01 -1.805298e+01 -9.656961e+00 -5.732977e+00 -9.240000e-01 5.775175e+01 -5.986958e+00 -9.276989e-01 -1.164371e+01 -3.005992e+00 4.205721e+00 3.245250e+00 -7.834019e+00 4.788681e+00 2.078847e+00 -3.045616e+00 7.816508e-01 -5.256172e-01 -7.932878e+00 5.649275e-01 -3.706525e+00 6.159402e-01 -1.725408e+00 -1.253948e+00 -1.228992e+00 2.979404e+00 7.038759e-01 2.700498e+00 3.153884e+00 9.102287e-01 2.114544e+00 8.003979e+00
<VARIANCE> 39
 4.281842e+01 5.887193e+01 6.683255e+01 8.311370e+01 1.247585e+02 1.790717e+02 1.817608e+02 1.816885e+02 2.130987e+02 1.772890e+02 1.415087e+02 1.034821e+02 2.586479e+01 5.503802e+00 3.819494e+01 1.452047e+01 2.071991e+01 2.125186e+01 3.722956e+01 2.720617e+01 4.657146e+01 3.306031e+01 2.067281e+01 1.808084e+01 1.559005e+01 5.342673e+01 1.908834e+00 3.804072e+00 2.957608e+00 3.783442e+00 4.339853e+00 5.096855e+00 5.746612e+00 8.382968e+00 6.535730e+00 4.514317e+00 3.599510e+00 3.053135e+00 7.080347e+00
<GCONST> 1.920627e+02
<MIXTURE> 9 8.143940e-02
<MEAN> 39
 -6.894372e+00 6.610853e+00 3.124313e+01 2.733237e+01 -1.250901e+01 -1.901021e+01 8.854668e+00 -7.653490e+00 -1.849405e+01 2.617348e+00 -4.177122e-01 -4.186153e-03 7.632584e+01 -6.052782e+00 3.521114e+00 -9.458903e+00 8.601931e-01 5.040761e+00 6.331794e+00 -5.735133e+00 1.516368e+00 1.688683e+00 -4.732416e+00 2.955461e-01 -3.033102e+00 -1.694071e+01 -1.120953e+00 -3.279054e+00 -2.364037e+00 -4.285861e+00 -9.033618e-01 -1.363230e+00 -2.552990e+00 -4.897860e-01 4.604100e-01 -2.575794e-01 -1.036184e+00 4.582205e-01 2.684822e+00
<VARIANCE> 39
 1.502107e+02 2.446525e+02 2.149886e+02 2.043177e+02 3.597724e+02 3.576403e+02 3.455996e+02 4.050599e+02 2.886716e+02 2.479905e+02 2.100533e+02 1.812567e+02 1.809287e+02 1.268199e+01 2.356580e+01 2.581817e+01 3.187894e+01 2.975389e+01 3.688136e+01 5.644297e+01 6.856842e+01 5.965199e+01 3.258873e+01 2.493993e+01 2.392618e+01 3.436530e+01 3.249882e+00 6.297331e+00 4.233909e+00 3.773267e+00 4.852038e+00 6.174811e+00 6.376839e+00 5.962053e+00 5.193781e+00 4.382345e+00 4.496922e+00 4.029365e+00 6.756269e+00
<GCONST> 2.093538e+02
<MIXTURE> 10 7.397125e-02
<MEAN> 39
 -8.453975e+00 4.838941e+00 2.917443e+01 2.859242e+01 -5.800677e+00 -1.991529e+01 -5.417395e-02 -5.882352e+00 -2.239177e+01 -4.236222e+00 -3.974736e+00 -1.224806e-01 7.522811e+01 -7.296693e+00 2.347701e+00 -1.143397e+01 -1.409009e+00 2.777163e+00 4.356996e+00 -6.492632e+00 -2.507694e+00 8.908377e-01 -4.802584e+00 -1.526116e+00 -2.601570e+00 -1.693880e+01 -8.554739e-01 -3.402474e+00 -2.112764e+00 -4.388740e+00 -1.674351e+00 -1.255053e+00 -2.032092e+00 -4.314844e-01 7.839342e-01 3.269207e-01 -5.309979e-01 1.356920e-01 3.515857e+00
<VARIANCE> 39
 1.403074e+02 2.597824e+02 2.003564e+02 1.955220e+02 3.873867e+02 3.547354e+02 4.234327e+02 4.483721e+02 2.844829e+02 2.532735e+02 2.335438e+02 1.719700e+02 1.620834e+02 9.607346e+00 2.974843e+01 2.313348e+01 3.445813e+01 3.164531e+01 3.597301e+01 6.144698e+01 8.937795e+01 6.674949e+01 3.895595e+01 2.369637e+01 2.561909e+01 3.141908e+01 3.223753e+00 6.378107e+00 3.839915e+00 3.589496e+00 5.160903e+00 6.272993e+00 6.782359e+00 6.371385e+00 5.926905e+00 4.837519e+00 5.045166e+00 4.603724e+00 7.676433e+00
<GCONST> 2.107493e+02
<MIXTURE> 11 7.332010e-02
<MEAN> 39
 -1.641170e+01 1.185760e+01 1.273916e+01 1.755135e+01 1.636541e+00 -9.649119e+00 -9.224075e+00 -5.687232e+00 -1.447597e+01 -8.740852e+00 -3.406615e+00 1.807318e+00 5.409268e+01 -6.503359e+00 -2.546665e+00 -1.070555e+01 -8.159384e+00 -1.490607e+00 3.969054e+00 -4.057011e+00 -5.442888e+00 4.535112e+00 1.808401e-01 -2.273289e+00 -7.848426e-01 -8.007278e+00 7.619308e-01 -4.399443e+00 2.948854e-01 -1.691966e+00 -1.381657e+00 -3.198357e+00 -9.441295e-01 8.269598e-01 -1.540771e+00 8.551785e-01 -5.826093e-01 -4.012964e-01 6.787413e+00
<VARIANCE> 39
 5.328318e+01 8.604832e+01 8.549831e+01 1.055522e+02 1.328554e+02 1.934553e+02 2.155392e+02 2.055830e+02 1.949126e+02 1.737891e+02 1.284944e+02 8.940550e+01 3.835840e+01 8.278462e+00 3.405770e+01 1.819692e+01 1.517972e+01 2.163390e+01 3.067056e+01 3.109483e+01 3.608002e+01 2.758673e+01 2.288359e+01 1.885903e+01 1.470657e+01 4.433981e+01 2.607711e+00 4.606169e+00 3.236521e+00 3.798111e+00 4.975094e+00 7.138397e+00 6.504425e+00 9.483818e+00 6.583240e+00 4.977463e+00 4.059675e+00 2.822412e+00 8.129755e+00
<GCONST> 1.948539e+02
<MIXTURE> 12 6.464015e-02
<MEAN> 39
 2.804543e+00 -9.163382e+00 3.785442e+01 2.928146e+01 -2.725759e-01 -4.242426e+01 -6.858939e+00 2.011609e+01 -4.072657e+01 -7.319304e+00 -3.261397e-01 1.380419e+00 9.943883e+01 -5.848175e+00 8.161942e+00 -8.621574e+00 1.565334e+00 2.305639e+00 5.099981e+00 1.836091e+00 -7.915474e+00 3.937247e+00 -3.546643e+00 -2.101314e+00 7.913905e-02 -2.037702e+01 -1.761478e+00 -1.411741e+00 -3.107480e+00 -4.191259e+00 -1.523815e+00 1.961107e+00 -3.164151e+00 -3.198152e+00 2.661123e+00 3.433999e-01 -1.385970e+00 -6.439263e-01 -6.329435e-02
<VARIANCE> 39
 5.199122e+01 1.372980e+02 2.360648e+02 1.734850e+02 2.627344e+02 3.259209e+02 4.809913e+02 3.608754e+02 3.076262e+02 3.275784e+02 2.546633e+02 2.076879e+02 2.562997e+02 8.845901e+00 2.316677e+01 2.631925e+01 2.451061e+01 2.663478e+01 3.870072e+01 4.696196e+01 4.066838e+01 4.401549e+01 4.078224e+01 2.648748e+01 2.252774e+01 2.441057e+01 1.317213e+00 3.926041e+00 2.953885e+00 2.989298e+00 3.763268e+00 4.612659e+00 5.910676e+00 6.197742e+00 5.190312e+00 5.296974e+00 4.311047e+00 4.292718e+00 7.006716e+00
<GCONST> 2.043551e+02
<MIXTURE> 13 6.263410e-02
<MEAN> 39
 3.646991e+00 -1.305468e+01 4.413609e+01 2.447273e+01 -2.489035e+00 -4.277046e+01 -7.019932e+00 2.065787e+01 -5.035674e+01 -2.716333e+00 -3.342194e+00 -3.472656e+00 1.131878e+02 -3.555374e+00 7.969512e+00 -5.442366e+00 5.740413e+00 3.477965e+00 4.472241e+00 5.540368e+00 -2.651927e+00 3.227167e+00 -2.688993e+00 8.642040e-01 -1.894765e-01 -1.873317e+01 -1.696379e+00 6.499621e-02 -3.625765e+00 -3.100680e+00 -6.497985e-01 2.562229e+00 -2.785117e+00 -3.466689e+00 4.091410e+00 -3.412025e-01 -1.309288e+00 -9.894103e-03 -2.202322e+00
<VARIANCE> 39
 5.476037e+01 1.266140e+02 3.133391e+02 2.281535e+02 2.766591e+02 3.268138e+02 4.497247e+02 3.742548e+02 4.224410e+02 4.545300e+02 3.059286e+02 2.451965e+02 2.519339e+02 1.129224e+01 1.861131e+01 2.276534e+01 2.344824e+01 2.447694e+01 3.378705e+01 3.270359e+01 3.207013e+01 4.281347e+01 3.402886e+01 2.810548e+01 2.454295e+01 2.322742e+01 1.280009e+00 3.671293e+00 3.670593e+00 3.340828e+00 3.727968e+00 5.134401e+00 5.885235e+00 7.549671e+00 6.809119e+00 7.159796e+00 4.590662e+00 5.292799e+00 5.215810e+00
<GCONST> 2.058597e+02
<MIXTURE> 14 4.884041e-02
<MEAN> 39
 -1.662487e+01 1.105614e+01 1.299948e+01 1.856623e+01 6.864374e-01 -9.614111e+00 -6.917558e+00 -3.645015e+00 -1.324730e+01 -7.254594e+00 -1.299431e+00 2.459586e+00 5.493259e+01 -5.309750e+00 -4.969276e-01 -9.101595e+00 -5.766140e+00 -1.886089e-01 6.068545e+00 -1.793348e+00 -2.970165e+00 6.105445e+00 8.587206e-01 -7.131637e-01 -5.804362e-01 -8.814778e+00 7.746508e-01 -4.189209e+00 1.946107e-01 -2.157553e+00 -1.302297e+00 -2.987254e+00 -1.175462e+00 2.772200e-01 -1.517904e+00 8.813307e-01 -9.143659e-01 -3.913764e-01 5.998002e+00
<VARIANCE> 39
 7.324508e+01 1.068575e+02 1.141210e+02 1.669271e+02 1.746050e+02 2.120388e+02 2.355107e+02 2.463862e+02 1.861686e+02 1.626977e+02 1.386996e+02 1.088610e+02 4.462061e+01 1.053370e+01 2.656483e+01 2.405612e+01 1.849536e+01 2.385542e+01 3.365332e+01 3.409832e+01 4.407823e+01 3.140888e+01 2.466520e+01 2.023708e+01 1.810431e+01 3.520170e+01 2.414080e+00 5.495030e+00 3.452446e+00 5.664133e+00 5.457694e+00 6.134236e+00 7.851875e+00 8.205062e+00 6.553666e+00 4.631238e+00 4.583775e+00 3.234323e+00 7.848748e+00
<GCONST> 1.989814e+02
<MIXTURE> 15 4.855591e-02
<MEAN> 39
 -1.101928e+01 1.811911e+01 1.869209e+01 1.972682e+01 -1.700232e+00 -5.875806e+00 -5.990768e+00 -1.250167e+01 -1.705822e+01 -8.409990e+00 -7.190028e+00 -5.319502e+00 5.712529e+01 -6.362095e+00 -4.653121e+00 -1.308375e+01 -3.497841e+00 3.491502e+00 8.966066e-01 -8.582479e+00 4.167352e+00 4.740359e-01 -3.977256e+00 1.675758e-01 -1.429658e+00 -9.218830e+00 -4.599807e-01 -4.630336e+00 -6.116090e-01 -2.953434e+00 -2.757154e+00 -2.881836e+00 7.407588e-01 -1.363630e+00 6.582363e-01 1.451885e+00 -3.254766e-01 1.460379e+00 6.911981e+00
<VARIANCE> 39
 6.872777e+01 1.047152e+02 1.039516e+02 1.233803e+02 1.491773e+02 1.721361e+02 1.875762e+02 1.745802e+02 1.941945e+02 1.732719e+02 1.424565e+02 1.168332e+02 3.460100e+01 8.331118e+00 4.060135e+01 1.679327e+01 2.404269e+01 2.257024e+01 3.363387e+01 3.328939e+01 3.808028e+01 3.696112e+01 2.293688e+01 1.946059e+01 1.927469e+01 6.723172e+01 2.878502e+00 4.943655e+00 3.940762e+00 4.299626e+00 4.164327e+00 5.035370e+00 6.336226e+00 6.946742e+00 7.113013e+00 4.494243e+00 3.956308e+00 3.338248e+00 7.401905e+00
<GCONST> 1.970949e+02
<MIXTURE> 16 4.658623e-02
<MEAN> 39
 -1.210563e+01 1.670695e+01 1.518558e+01 1.557702e+01 -5.400490e+00 -1.226827e+01 -1.439603e+01 -1.936629e+01 -2.389214e+01 -1.498296e+01 -1.049127e+01 -4.993046e+00 5.571745e+01 -6.925364e+00 -3.399781e+00 -1.316793e+01 -4.826757e+00 2.361731e+00 8.046083e-01 -9.920401e+00 2.058949e+00 -2.210770e-01 -4.864310e+00 -9.192120e-01 -2.104987e+00 -1.085662e+01 1.228529e-02 -4.486686e+00 -7.196778e-02 -2.503450e+00 -2.087240e+00 -2.132040e+00 2.020520e+00 -4.542583e-01 1.677895e+00 2.304008e+00 1.513337e-01 1.415616e+00 6.939621e+00
<VARIANCE> 39
 4.281842e+01 5.887193e+01 6.683255e+01 8.311370e+01 1.247585e+02 1.790717e+02 1.817608e+02 1.816885e+02 2.130987e+02 1.772890e+02 1.415087e+02 1.034821e+02 2.586479e+01 5.503802e+00 3.819494e+01 1.452047e+01 2.071991e+01 2.125186e+01 3.722956e+01 2.720617e+01 4.657146e+01 3.306031e+01 2.067281e+01 1.808084e+01 1.559005e+01 5.342673e+01 1.908834e+00 3.804072e+00 2.957608e+00 3.783442e+00 4.339853e+00 5.096855e+00 5.746612e+00 8.382968e+00 6.535730e+00 4.514317e+00 3.599510e+00 3.053135e+00 7.080347e+00
<GCONST> 1.920627e+02
<STATE> 3
<NUMMIXES> 16
<MIXTURE> 1 3.702584e-02
<MEAN> 39
 -1.926768e+01 1.101030e+01 7.069049e+00 1.023214e+01 -2.212965e+00 -6.917098e+00 -8.915603e+00 -7.389371e+00 -8.912441e+00 -3.511184e+00 -9.410839e-01 3.514485e+00 5.247366e+01 -1.592979e-01 -4.571520e+00 -4.818354e+00 -6.939519e-01 2.440081e+00 3.068515e+00 2.718642e+00 5.766629e+00 6.629246e+00 5.520760e+00 3.403294e+00 2.216136e+00 6.636220e+00 1.267969e+00 -1.056645e+00 1.505971e+00 1.498163e+00 7.906657e-02 -8.149590e-01 1.452601e+00 1.029746e+00 1.527088e-01 1.314592e+00 3.537426e-01 7.692832e-01 6.229698e+00
<VARIANCE> 39
 5.371177e+01 7.984970e+01 7.045781e+01 7.742783e+01 8.239853e+01 1.116302e+02 1.333144e+02 1.258249e+02 1.245499e+02 1.116793e+02 8.392503e+01 7.626917e+01 2.936171e+01 1.453194e+01 3.546033e+01 2.463239e+01 1.686310e+01 1.753040e+01 2.219980e+01 2.137195e+01 1.645735e+01 1.778644e+01 1.773074e+01 1.805665e+01 1.179160e+01 7.135736e+01 3.502665e+00 4.225285e+00 5.079986e+00 3.299491e+00 5.444365e+00 4.662900e+00 6.513089e+00 6.039333e+00 4.477076e+00 4.022793e+00 2.598763e+00 2.407643e+00 7.327469e+00
<GCONST> 1.878033e+02
<MIXTURE> 2 5.604640e-02
<MEAN> 39
 -9.617040e+00 -1.571397e+01 -1.106646e+01 1.033780e+01 6.139832e+00 -3.076359e+00 -7.326736e+00 2.552102e+00 -3.042699e+00 6.260939e+00 -1.364742e+00 3.481145e+00 8.609662e+01 3.380467e-01 -3.942482e+00 -4.670562e+00 1.024313e+00 2.146900e+00 4.170943e-01 -1.261721e-01 3.311199e+00 3.694190e+00 4.492552e+00 1.176046e+00 1.445085e+00 1.519096e+01 -2.013479e+00 3.054634e+00 3.368176e+00 1.613718e+00 -4.626538e-01 -1.099243e+00 9.280901e-01 8.227325e-01 1.618385e-02 -2.346554e-01 2.042872e-01 7.416680e-01 1.421027e+00
<VARIANCE> 39
 2.074954e+02 2.227839e+02 2.827059e+02 2.262073e+02 2.317881e+02 2.375075e+02 2.402862e+02 1.883089e+02 1.583526e+02 1.329323e+02 1.019887e+02 9.461514e+01 2.582745e+02 2.771291e+01 2.654751e+01 2.510877e+01 2.263298e+01 2.579449e+01 2.602954e+01 2.444931e+01 2.468847e+01 2.353776e+01 1.966054e+01 1.560243e+01 1.173586e+01 5.514110e+01 6.752058e+00 4.320024e+00 5.678858e+00 5.015073e+00 4.586090e+00 5.085310e+00 5.230769e+00 5.264505e+00 3.898248e+00 3.701401e+00 2.539834e+00 2.541579e+00 4.904283e+00
<GCONST> 2.003281e+02
<MIXTURE> 3 1.153925e-01
<MEAN> 39
 -2.525851e+01 5.992713e+00 1.094556e+00 5.173728e+00 -2.194152e+00 -2.924569e+00 -4.404707e+00 -7.722526e-01 -4.436314e-02 4.143250e+00 4.985889e+00 6.057467e+00 4.817609e+01 2.557256e+00 -3.110100e+00 -3.571482e+00 4.871302e-01 1.680050e+00 1.041524e+00 -2.333173e-01 1.909324e+00 2.351453e+00 2.086417e+00 5.246679e-01 9.871385e-01 7.933342e+00 1.355142e+00 -4.890884e-01 7.997986e-01 1.867388e+00 3.308469e-01 -6.904458e-01 3.749162e-01 4.275082e-01 -3.146603e-01 2.393940e-01 -2.917522e-01 2.982604e-01 5.263337e+00
<VARIANCE> 39
 2.151266e+01 2.840452e+01 3.407706e+01 4.495158e+01 5.859089e+01 7.668575e+01 8.509160e+01 9.231640e+01 8.618195e+01 8.131303e+01 7.726535e+01 7.043510e+01 1.298279e+01 1.716423e+01 2.306835e+01 1.858122e+01 1.620476e+01 1.327791e+01 1.697680e+01 1.651328e+01 1.350562e+01 1.312318e+01 1.354281e+01 1.157668e+01 9.180032e+00 7.005976e+01 3.565841e+00 2.565197e+00 3.166334e+00 2.270591e+00 3.494744e+00 3.980128e+00 3.481037e+00 3.451783e+00 3.277911e+00 2.672348e+00 2.313703e+00 2.015186e+00 5.103569e+00
<GCONST> 1.740803e+02
<MIXTURE> 4 3.883041e-02
<MEAN> 39
 -1.839646e+01 -1.154876e+01 2.157554e+00 1.900527e+01 8.045015e+00 -6.965361e+00 -4.802145e+00 8.795685e+00 -2.355590e+00 2.916927e+00 -1.673966e+00 6.725005e+00 8.380340e+01 -3.082003e+00 -5.958867e+00 -8.230232e+00 -3.595614e+00 -2.761074e-01 -1.337565e+00 -3.227984e+00 1.106654e+00 4.077119e+00 2.288696e+00 -1.196604e-01 1.708155e+00 1.137607e+01 -1.380780e-02 2.187889e+00 3.110562e+00 7.515674e-01 -7.392486e-01 -1.237464e+00 1.368670e+00 9.326262e-01 -5.618048e-01 7.314539e-01 5.270572e-01 4.464711e-01 4.380534e+00
<VARIANCE> 39
 1.699892e+02 3.092940e+02 2.313066e+02 2.163411e+02 2.427619e+02 2.871261e+02 2.691460e+02 2.358913e+02 2.046732e+02 1.550644e+02 1.503227e+02 1.120860e+02 3.971248e+02 3.750506e+01 3.127271e+01 2.639868e+01 2.451727e+01 2.378408e+01 3.261014e+01 2.258704e+01 2.864842e+01 3.098695e+01 2.125786e+01 1.874174e+01 1.548252e+01 6.131433e+01 5.640199e+00 6.189423e+00 5.248067e+00 5.139490e+00 5.896747e+00 7.740384e+00 7.095707e+00 6.929874e+00 5.723752e+00 4.845397e+00 3.820743e+00 3.352103e+00 7.555064e+00
<GCONST> 2.070615e+02
<MIXTURE> 5 1.140843e-01
<MEAN> 39
 -2.577333e+01 5.611959e+00 5.959111e-01 4.617167e+00 -2.974727e+00 -3.973620e+00 -4.833869e+00 -1.198740e+00 -8.400556e-01 3.707048e+00 4.573555e+00 5.683433e+00 4.799245e+01 1.938738e+00 -3.116019e+00 -3.994154e+00 -5.939597e-01 8.402375e-01 -1.828012e-01 -2.003333e+00 2.481257e-01 6.433735e-01 3.437842e-01 -6.446486e-01 3.945725e-01 6.956315e+00 1.416799e+00 -4.221789e-01 9.622053e-01 1.727403e+00 1.966053e-01 -5.164600e-01 6.139674e-01 2.920630e-01 -1.720589e-01 4.049949e-01 -2.498273e-01 2.434272e-01 5.091741e+00
<VARIANCE> 39
 1.781165e+01 2.624991e+01 3.052837e+01 4.541626e+01 5.950900e+01 7.555964e+01 8.845723e+01 9.385532e+01 8.464169e+01 8.104867e+01 7.585309e+01 6.959956e+01 1.298279e+01 1.736676e+01 2.413262e+01 1.848914e+01 1.720500e+01 1.439612e+01 1.770263e+01 1.681052e+01 1.399717e+01 1.400032e+01 1.310682e+01 1.145387e+01 1.008414e+01 7.267787e+01 3.165024e+00 2.282237e+00 3.275385e+00 2.393644e+00 3.650238e+00 3.805051e+00 3.820213e+00 3.070025e+00 3.048064e+00 2.554996e+00 2.141557e+00 1.922831e+00 4.877881e+00
<GCONST> 1.736951e+02
<MIXTURE> 6 4.425614e-02
<MEAN> 39
 -1.299422e+01 -1.196834e+01 -4.853834e+00 9.269665e+00 8.088375e+00 -1.640680e+00 -5.233647e+00 3.500648e+00 -2.446340e+00 7.793878e+00 -1.310344e-01 3.527264e+00 8.248187e+01 1.607228e-01 -3.451326e+00 -4.060279e+00 -3.720946e-01 2.084063e+00 -1.157883e+00 -2.546424e+00 1.735703e-01 1.045696e+00 2.331643e+00 -6.544448e-01 1.794696e-04 1.319476e+01 -1.364368e+00 2.397016e+00 2.542053e+00 1.429397e+00 -3.352894e-01 -1.307254e+00 4.870679e-01 9.021873e-01 2.653963e-01 -3.867186e-01 5.158374e-02 5.672369e-01 1.697023e+00
<VARIANCE> 39
 2.555704e+02 2.626224e+02 3.123617e+02 2.496982e+02 2.322750e+02 2.512361e+02 2.789008e+02 2.344561e+02 1.699148e+02 1.326006e+02 1.171477e+02 9.491917e+01 3.194621e+02 3.010981e+01 2.621573e+01 2.441945e+01 2.555825e+01 2.520403e+01 3.095756e+01 2.197638e+01 2.247161e+01 1.902032e+01 1.786053e+01 1.561171e+01 1.173172e+01 8.030851e+01 9.276718e+00 5.131898e+00 6.352815e+00 5.215825e+00 4.512006e+00 5.304321e+00 5.004046e+00 5.281497e+00 4.432466e+00 3.418201e+00 2.903777e+00 2.436648e+00 5.628328e+00
<GCONST> 2.028335e+02
<MIXTURE> 7 5.642780e-02
<MEAN> 39
 -2.099129e+01 9.884133e+00 5.694721e+00 9.002510e+00 -2.091934e+00 -5.915977e+00 -8.758659e+00 -6.797382e+00 -7.863145e+00 -3.241930e+00 -1.285017e+00 2.806816e+00 5.128615e+01 -4.894732e-01 -5.449979e+00 -6.539797e+00 -2.346150e+00 1.671750e+00 1.659559e+00 -5.954069e-02 3.771990e+00 4.597845e+00 3.644964e+00 1.496766e+00 1.567106e+00 6.488238e+00 1.491983e+00 -1.241534e+00 1.764344e+00 1.492909e+00 4.116926e-02 -1.162491e+00 1.569981e+00 1.151102e+00 1.415659e-01 1.497809e+00 3.429611e-01 9.434080e-01 6.862010e+00
<VARIANCE> 39
 3.536995e+01 6.010166e+01 5.601364e+01 6.494612e+01 7.501397e+01 1.022285e+02 1.205902e+02 1.215446e+02 1.182999e+02 1.140913e+02 8.849124e+01 8.212786e+01 2.181483e+01 1.449263e+01 3.579711e+01 2.485153e+01 1.957362e+01 1.872585e+01 2.097152e+01 2.286290e+01 1.846595e+01 1.711638e+01 1.928982e+01 1.462762e+01 1.225653e+01 7.510751e+01 3.267011e+00 3.886287e+00 4.354286e+00 3.189157e+00 5.322598e+00 5.084419e+00 6.344722e+00 6.409010e+00 4.860183e+00 4.242382e+00 2.696934e+00 2.602548e+00 7.696178e+00
<GCONST> 1.865157e+02
<MIXTURE> 8 3.792520e-02
<MEAN> 39
 -1.765735e+01 -5.626737e+00 7.383044e+00 2.022001e+01 1.158745e+01 -2.537503e+00 -7.260771e-01 1.068287e+01 -1.543080e+00 5.154252e+00 4.756792e-01 7.111828e+00 8.109528e+01 -4.379052e+00 -7.393277e+00 -9.983646e+00 -5.739868e+00 -5.137976e-01 -1.767834e+00 -5.288474e+00 -1.210964e+00 3.183981e+00 9.556865e-01 -1.971611e+00 8.877126e-01 1.050849e+01 -7.725289e-02 1.215644e+00 2.766971e+00 4.670712e-01 -1.166707e+00 -2.290253e+00 7.821524e-01 8.587742e-01 -9.432762e-01 2.994921e-01 3.386633e-01 4.043932e-01 5.478532e+00
<VARIANCE> 39
 1.567641e+02 3.777118e+02 2.475559e+02 2.275540e+02 2.307525e+02 2.903097e+02 2.942971e+02 2.130411e+02 2.002488e+02 1.447901e+02 1.712094e+02 1.142887e+02 4.443776e+02 3.416672e+01 3.218844e+01 2.506971e+01 2.574539e+01 2.198158e+01 3.482426e+01 2.210977e+01 3.085710e+01 3.763976e+01 2.154208e+01 2.013461e+01 1.603826e+01 5.844541e+01 6.065550e+00 7.031136e+00 5.276969e+00 5.562757e+00 6.299382e+00 7.587322e+00 7.686269e+00 7.590034e+00 5.834106e+00 4.975703e+00 4.423368e+00 3.953168e+00 8.499312e+00
<GCONST> 2.086342e+02
<MIXTURE> 9 1.153925e-01
<MEAN> 39
 -2.711378e+01 3.860877e+00 -1.240466e+00 2.491890e+00 -5.255939e+00 -6.427385e+00 -8.094511e+00 -4.615510e+00 -3.757733e+00 5.363003e-01 1.469861e+00 2.700441e+00 4.673483e+01 9.000662e-01 -5.031281e+00 -5.295720e+00 -1.123075e+00 2.224957e-01 -6.065926e-01 -1.858779e+00 4.393241e-01 9.024155e-01 6.143949e-01 -8.363129e-01 -2.248041e-01 4.585274e+00 5.998045e-01 -1.129738e+00 8.803079e-02 1.264648e+00 -4.169225e-01 -1.488456e+00 -3.713853e-01 -3.156508e-01 -1.038860e+00 -4.144987e-01 -9.001866e-01 -2.695686e-01 4.359693e+00
<VARIANCE> 39
 2.151266e+01 2.840452e+01 3.407706e+01 4.495158e+01 5.859089e+01 7.668575e+01 8.509160e+01 9.231640e+01 8.618195e+01 8.131303e+01 7.726535e+01 7.043510e+01 1.298279e+01 1.716423e+01 2.306835e+01 1.858122e+01 1.620476e+01 1.327791e+01 1.697680e+01 1.651328e+01 1.350562e+01 1.312318e+01 1.354281e+01 1.157668e+01 9.180032e+00 7.005976e+01 3.565841e+00 2.565197e+00 3.166334e+00 2.270591e+00 3.494744e+00 3.980128e+00 3.481037e+00 3.451783e+00 3.277911e+00 2.672348e+00 2.313703e+00 2.015186e+00 5.103569e+00
<GCONST> 1.740803e+02
<MIXTURE> 10 1.140843e-01
<MEAN> 39
