~o
<STREAMINFO> 1 12
<VECSIZE> 12<NULLD><MFCC><DIAGC>
~v "varFloor1"
<VARIANCE> 12
 6.754232e+00 3.412257e+00 5.608447e+00 4.796207e+00 3.472295e+00 4.011117e+00 4.413517e+00 3.617792e+00 3.683716e+00 3.040219e+00 2.640150e+00 2.509556e+00
~s "silst"
<MEAN> 12
 -2.551212e+01 4.319142e+00 -1.341530e+00 1.930107e+00 -4.352561e+00 -4.191643e+00 -5.844606e+00 -2.585566e+00 -2.514840e+00 1.202634e+00 1.027087e+00 2.621080e+00
<VARIANCE> 12
 2.840611e+01 2.730011e+01 3.448143e+01 4.585563e+01 6.237327e+01 8.096230e+01 9.626094e+01 9.823846e+01 9.433810e+01 8.904282e+01 8.610855e+01 7.792612e+01
<GCONST> 7.160289e+01
~h "f"
<BEGINHMM>
<NUMSTATES> 5
<STATE> 2
<MEAN> 12
 -3.406828e+01 -1.624510e+01 -1.460667e+00 2.858343e+00 -2.792731e+00 -8.144245e-01 -7.319317e+00 8.302194e-02 -5.245113e+00 3.786793e+00 -3.717148e+00 2.642813e+00
<VARIANCE> 12
 9.239967e+01 8.170495e+01 8.018297e+01 8.360789e+01 9.508360e+01 1.075434e+02 1.183551e+02 1.216573e+02 1.233483e+02 1.142113e+02 1.099061e+02 9.852064e+01
<GCONST> 7.744471e+01
<STATE> 3
<MEAN> 12
 -1.397610e+01 -1.216803e+01 -2.394819e+00 -1.770529e+00 -5.187075e-01 1.969197e+00 -4.478961e+00 -4.268845e-01 -4.282355e+00 5.713494e+00 -3.426525e+00 2.877312e+00
<VARIANCE> 12
 1.588845e+02 1.051401e+02 7.561038e+01 8.310526e+01 1.007660e+02 1.061229e+02 1.116626e+02 1.107969e+02 1.274665e+02 1.205812e+02 1.047997e+02 9.842444e+01
<GCONST> 7.810579e+01
<STATE> 4
<MEAN> 12
 2.202868e+01 -1.617542e+01 -3.281673e+00 -3.414176e+01 -4.105106e+00 1.336436e+01 8.547767e-01 2.439891e+00 -8.287985e+00 1.912665e+01 6.870374e+00 -3.671900e+00
<VARIANCE> 12
 1.180221e+02 3.077240e+02 1.803873e+02 4.575985e+02 2.970908e+02 2.759814e+02 1.567821e+02 2.106049e+02 3.514863e+02 3.684697e+02 4.594796e+02 2.408776e+02
<GCONST> 8.898082e+01
<TRANSP> 5
 0.000000e+00 1.000000e+00 0.000000e+00 0.000000e+00 0.000000e+00
 0.000000e+00 8.802205e-01 1.197794e-01 0.000000e+00 0.000000e+00
 0.000000e+00 0.000000e+00 3.817533e-01 6.182468e-01 0.000000e+00
 0.000000e+00 0.000000e+00 0.000000e+00 6.737881e-01 3.262119e-01
 0.000000e+00 0.000000e+00 0.000000e+00 0.000000e+00 0.000000e+00
<ENDHMM>
~h "k"
<BEGINHMM>
<NUMSTATES> 5
<STATE> 2
<MEAN> 12
 -6.438956e+00 9.547693e+00 2.749155e+01 2.807240e+01 -2.678740e-01 -1.522757e+01 -3.103054e-01 5.303012e-01 -2.008049e+01 -4.519816e+00 -6.993695e-01 1.087840e+00
<VARIANCE> 12
 1.355500e+02 2.474274e+02 2.409626e+02 1.895455e+02 2.805472e+02 3.911305e+02 3.743123e+02 4.948854e+02 3.098647e+02 2.633850e+02 2.050836e+02 1.528600e+02
<GCONST> 8.860215e+01
<STATE> 3
<MEAN> 12
 -1.878736e+01 -5.516014e+00 -5.570417e+00 8.505174e+00 -8.344516e-01 -7.413038e+00 -1.055391e+01 -2.167252e+00 -4.557146e+00 1.664489e+00 -8.822816e-01 3.480543e+00
<VARIANCE> 12
 1.364315e+02 3.040192e+02 2.360816e+02 1.271526e+02 1.459386e+02 1.580632e+02 1.745733e+02 1.510465e+02 1.304236e+02 1.250482e+02 1.113744e+02 8.631667e+01
<GCONST> 8.209352e+01
<STATE> 4
<MEAN> 12
 -4.809155e+01 -7.299199e+00 -6.204532e+00 5.631871e+00 1.579966e+00 -2.586411e+01 -1.182367e+01 8.200116e+00 9.428998e-01 2.075909e+00 -9.711640e+00 5.959441e+00
<VARIANCE> 12
 2.842314e+02 1.096835e+02 1.444179e+02 2.253622e+02 4.094341e+02 2.677789e+02 2.380511e+02 1.973284e+02 1.905463e+02 1.798698e+02 1.725497e+02 1.507375e+02
<GCONST> 8.576297e+01
<TRANSP> 5
 0.000000e+00 1.000000e+00 0.000000e+00 0.000000e+00 0.000000e+00
 0.000000e+00 6.211076e-01 3.788925e-01 0.000000e+00 0.000000e+00
 0.000000e+00 0.000000e+00 8.014298e-01 1.985702e-01 0.000000e+00
 0.000000e+00 0.000000e+00 0.000000e+00 7.245645e-01 2.754355e-01
 0.000000e+00 0.000000e+00 0.000000e+00 0.000000e+00 0.000000e+00
<ENDHMM>
~h "n"
<BEGINHMM>
<NUMSTATES> 5
<STATE> 2
<MEAN> 12
 1.686978e+01 -8.237454e-01 3.837729e+01 7.342379e+00 -6.620200e+00 6.465304e+00 1.483059e+01 -7.081942e+00 -7.162147e+00 1.054293e+01 -5.877923e+00 7.441125e+00
<VARIANCE> 12
 9.974474e+01 2.063409e+02 1.896794e+02 6.391572e+02 2.666687e+02 4.087872e+02 4.435728e+02 4.867008e+02 5.354935e+02 4.716821e+02 4.794729e+02 4.201921e+02
<GCONST> 9.222676e+01
<STATE> 3
<MEAN> 12
 1.810007e+01 1.052244e+01 3.231918e+01 2.095332e+01 -3.698112e+00 1.024001e+01 2.260835e+01 -1.071364e+01 -1.830938e+00 6.922916e+00 -8.693533e+00 1.233656e+01
<VARIANCE> 12
 8.641954e+01 1.937751e+02 1.345045e+02 2.298780e+02 2.953195e+02 3.995877e+02 4.135330e+02 4.460791e+02 4.932029e+02 4.585602e+02 4.605667e+02 4.284764e+02
<GCONST> 9.044501e+01
<STATE> 4
<MEAN> 12
 -8.526228e-01 7.963427e-01 1.910705e+01 1.709659e+01 5.000329e+00 2.267278e+00 1.182228e+01 9.787638e+00 1.085113e+00 3.924677e+00 -8.095723e+00 3.551778e+00
<VARIANCE> 12
 1.756923e+02 1.832898e+02 2.009164e+02 3.017961e+02 2.338958e+02 2.898170e+02 3.463225e+02 3.389192e+02 3.148169e+02 3.351853e+02 2.567014e+02 2.449748e+02
<GCONST> 8.885996e+01
<TRANSP> 5
 0.000000e+00 1.000000e+00 0.000000e+00 0.000000e+00 0.000000e+00
 0.000000e+00 5.909466e-01 4.090533e-01 0.000000e+00 0.000000e+00
 0.000000e+00 0.000000e+00 6.945482e-01 3.054517e-01 0.000000e+00
 0.000000e+00 0.000000e+00 0.000000e+00 6.829708e-01 3.170292e-01
 0.000000e+00 0.000000e+00 0.000000e+00 0.000000e+00 0.000000e+00
<ENDHMM>
~h "r"
<BEGINHMM>
<NUMSTATES> 5
<STATE> 2
<MEAN> 12
 3.658420e+01 -1.714345e+01 -4.235258e+00 4.721396e+00 2.684957e+01 -1.633001e+01 -3.723624e+01 1.201072e+00 -8.231943e+00 1.801705e+00 1.747198e+00 6.748163e+00
<VARIANCE> 12
 7.008997e+01 1.800074e+02 5.068320e+02 3.072551e+02 4.104532e+02 7.718948e+02 9.351848e+02 4.132059e+02 3.220414e+02 3.728936e+02 2.811955e+02 2.184451e+02
<GCONST> 9.170553e+01
<STATE> 3
<MEAN> 12
 3.024337e+01 -2.631683e+01 5.350540e+00 5.614583e+00 1.607265e+01 -4.311087e+01 -1.005801e+01 1.544934e+01 -6.029387e+00 1.131454e+01 2.194202e+00 7.790702e+00
<VARIANCE> 12
 5.528633e+01 1.452470e+02 4.018672e+02 2.713960e+02 3.140048e+02 7.351035e+02 9.852976e+02 3.385013e+02 3.471810e+02 3.689891e+02 2.318266e+02 1.941557e+02
<GCONST> 9.018735e+01
<STATE> 4
<MEAN> 12
 1.597714e+01 -2.236559e+01 1.550476e+01 1.058642e+01 4.163749e+00 -2.279867e+01 -6.789026e+00 1.587810e+01 -7.822017e+00 3.999832e+00 1.692097e+00 3.553755e+00
<VARIANCE> 12
 1.871847e+02 2.280117e+02 7.948348e+02 3.934038e+02 4.113932e+02 6.801093e+02 8.818104e+02 4.590475e+02 5.746564e+02 5.117544e+02 2.927599e+02 2.848495e+02
<GCONST> 9.474486e+01
<TRANSP> 5
 0.000000e+00 1.000000e+00 0.000000e+00 0.000000e+00 0.000000e+00
 0.000000e+00 7.549962e-01 2.450038e-01 0.000000e+00 0.000000e+00
 0.000000e+00 0.000000e+00 6.488805e-01 3.511194e-01 0.000000e+00
 0.000000e+00 0.000000e+00 0.000000e+00 5.382439e-01 4.617561e-01
 0.000000e+00 0.000000e+00 0.000000e+00 0.000000e+00 0.000000e+00
<ENDHMM>
~h "s"
<BEGINHMM>
<NUMSTATES> 5
<STATE> 2
<MEAN> 12
 -4.011091e+01 4.987236e+00 2.492883e+00 3.442410e+00 1.941276e+00 -8.417997e+00 -1.318507e+00 6.869439e+00 -3.024678e+00 1.805195e+00 -3.905692e+00 4.926147e+00
<VARIANCE> 12
 3.558786e+02 2.444987e+02 2.702052e+02 3.250624e+02 4.006187e+02 3.223213e+02 3.364164e+02 2.557455e+02 2.200598e+02 2.095529e+02 2.055873e+02 1.843692e+02
<GCONST> 8.922431e+01
<STATE> 3
<MEAN> 12
 -5.147342e+01 7.200011e+00 -1.824326e+01 7.484990e+00 -1.140444e+01 -3.210892e+00 -3.090985e+00 2.541223e+00 -6.763907e+00 1.504683e+00 -1.244332e+00 6.440495e+00
<VARIANCE> 12
 9.118732e+01 1.375781e+02 1.109827e+02 1.657844e+02 2.260289e+02 2.262280e+02 1.380537e+02 1.290539e+02 1.378324e+02 1.238173e+02 1.179796e+02 1.076458e+02
<GCONST> 8.113599e+01
<STATE> 4
<MEAN> 12
 -5.457514e+01 7.067368e+00 -6.486555e+00 -8.799683e+00 3.522096e+00 -1.443733e+01 -3.878782e+00 3.246325e+00 -5.236544e+00 3.561354e+00 -8.056754e+00 5.801594e+00
<VARIANCE> 12
 2.064220e+02 1.357027e+02 1.404099e+02 2.341789e+02 3.014582e+02 2.505977e+02 1.971634e+02 1.773163e+02 1.635457e+02 1.578111e+02 1.635348e+02 1.492154e+02
<GCONST> 8.465092e+01
<TRANSP> 5
 0.000000e+00 1.000000e+00 0.000000e+00 0.000000e+00 0.000000e+00
 0.000000e+00 5.420878e-01 4.579122e-01 0.000000e+00 0.000000e+00
 0.000000e+00 0.000000e+00 7.948901e-01 2.051098e-01 0.000000e+00
 0.000000e+00 0.000000e+00 0.000000e+00 6.632844e-01 3.367156e-01
 0.000000e+00 0.000000e+00 0.000000e+00 0.000000e+00 0.000000e+00
<ENDHMM>
~h "t"
<BEGINHMM>
<NUMSTATES> 5
<STATE> 2
<MEAN> 12
 -2.044238e+01 7.441180e+00 1.336801e+01 6.854909e+00 2.510818e+00 6.380922e-01 -1.701086e+00 -1.831824e+00 -4.962257e+00 9.761589e-01 -2.023109e+00 1.176311e+00
<VARIANCE> 12
 2.358439e+02 2.693313e+02 3.023003e+02 3.490087e+02 1.788102e+02 1.833397e+02 2.038385e+02 2.095550e+02 1.821664e+02 1.543149e+02 1.378504e+02 1.169063e+02
<GCONST> 8.567160e+01
<STATE> 3
<MEAN> 12
 -3.818069e+01 1.754261e+00 1.272605e+01 -7.562370e+00 -9.536992e+00 -1.215483e+01 4.801495e+00 -3.011054e+00 -1.281520e+01 2.015339e+00 -2.371094e-01 8.091384e+00
<VARIANCE> 12
 2.418245e+02 1.503480e+02 2.033174e+02 1.979555e+02 1.929738e+02 2.185618e+02 2.520094e+02 2.606141e+02 1.928203e+02 1.881720e+02 1.908183e+02 1.589685e+02
<GCONST> 8.571977e+01
<STATE> 4
<MEAN> 12
 -8.579504e+00 9.724566e-02 3.464465e+01 3.053210e+00 -1.059732e+01 -1.657762e+01 9.100222e+00 -6.243033e+00 -4.552413e+00 5.711952e-01 -2.360149e+00 1.292025e+01
<VARIANCE> 12
 2.408247e+02 1.565612e+02 3.836273e+02 2.137444e+02 1.865708e+02 2.845222e+02 3.023051e+02 4.735974e+02 2.045603e+02 1.881302e+02 2.569265e+02 2.213607e+02
<GCONST> 8.816449e+01
<TRANSP> 5
 0.000000e+00 1.000000e+00 0.000000e+00 0.000000e+00 0.000000e+00
 0.000000e+00 7.115747e-01 2.884253e-01 0.000000e+00 0.000000e+00
 0.000000e+00 0.000000e+00 7.131841e-01 2.868159e-01 0.000000e+00
 0.000000e+00 0.000000e+00 0.000000e+00 6.437163e-01 3.562837e-01
 0.000000e+00 0.000000e+00 0.000000e+00 0.000000e+00 0.000000e+00
<ENDHMM>
~h "v"
<BEGINHMM>
<NUMSTATES> 5
<STATE> 2
<MEAN> 12
 1.174607e+01 -2.792514e+01 1.576586e+01 -2.002803e+01 -1.000879e+01 -2.207091e+01 7.350978e+00 1.377454e+01 1.679326e+01 9.222240e+00 -4.513697e+00 9.719049e+00
<VARIANCE> 12
 6.569859e+01 1.360749e+02 2.539655e+02 1.979752e+02 2.335126e+02 2.233845e+02 7.490989e+02 2.537522e+02 2.467109e+02 3.850302e+02 3.055421e+02 3.339567e+02
<GCONST> 8.799015e+01
<STATE> 3
<MEAN> 12
 1.827503e+01 -1.969435e+01 1.613482e+01 -3.298135e+00 -5.385235e+00 -1.988768e+01 -1.612590e+01 2.141700e+00 4.748925e+00 2.134208e+01 -1.322668e+00 -3.022285e+00
<VARIANCE> 12
 5.995126e+01 1.492109e+02 3.274700e+02 2.556888e+02 3.469590e+02 2.744306e+02 4.965814e+02 3.560760e+02 4.723723e+02 3.797706e+02 3.269066e+02 3.095452e+02
<GCONST> 8.965769e+01
<STATE> 4
<MEAN> 12
 2.838064e+00 -2.004503e+00 1.750134e+01 1.375850e+01 7.751328e+00 1.327414e-01 -9.920056e-01 2.854858e+00 2.006346e+00 9.399459e+00 -2.722434e+00 3.925923e+00
<VARIANCE> 12
 2.876681e+02 1.770529e+02 1.864276e+02 2.336581e+02 2.420948e+02 2.789584e+02 2.964846e+02 2.718795e+02 2.437921e+02 2.382899e+02 2.053411e+02 2.080123e+02
<GCONST> 8.762450e+01
<TRANSP> 5
 0.000000e+00 1.000000e+00 0.000000e+00 0.000000e+00 0.000000e+00
 0.000000e+00 7.271313e-01 2.728687e-01 0.000000e+00 0.000000e+00
 0.000000e+00 0.000000e+00 5.965149e-01 4.034851e-01 0.000000e+00
 0.000000e+00 0.000000e+00 0.000000e+00 7.254940e-01 2.745060e-01
 0.000000e+00 0.000000e+00 0.000000e+00 0.000000e+00 0.000000e+00
<ENDHMM>
~h "w"
<BEGINHMM>
<NUMSTATES> 5
<STATE> 2
<MEAN> 12
 3.207388e+01 5.268672e+00 1.619715e+01 -4.486749e+01 -1.989076e+01 4.187924e+00 -4.389349e+00 2.500240e+01 -8.812863e+00 7.936278e+00 3.250774e+00 -2.075565e+00
<VARIANCE> 12
 4.469613e+01 1.685494e+02 2.946486e+02 2.851154e+02 4.647787e+02 3.049443e+02 6.918693e+02 3.373836e+02 4.273714e+02 4.278242e+02 3.278538e+02 3.071913e+02
<GCONST> 9.017903e+01
<STATE> 3
<MEAN> 12
 2.795953e+01 -1.076598e+01 -6.811105e-01 -4.667089e+01 6.138115e+00 2.031239e+01 6.832383e-01 1.868626e+01 -1.150115e+01 2.088370e+00 1.502277e+01 6.358849e+00
<VARIANCE> 12
 4.932840e+01 1.489749e+02 2.213991e+02 2.998004e+02 5.654335e+02 3.016355e+02 5.790034e+02 4.118057e+02 3.842028e+02 4.237263e+02 3.069549e+02 2.979235e+02
<GCONST> 8.991236e+01
<STATE> 4
<MEAN> 12
 1.953067e+01 -2.629327e+01 -9.120789e-01 -2.756343e+01 2.458464e+01 9.299452e+00 -1.014287e+01 1.558819e+01 5.409484e+00 1.104505e+01 9.777718e+00 -4.185572e+00
<VARIANCE> 12
 6.578867e+01 1.354122e+02 1.981432e+02 2.757581e+02 4.466088e+02 4.011289e+02 4.545437e+02 4.768169e+02 4.078748e+02 3.232845e+02 3.777814e+02 3.026613e+02
<GCONST> 8.987663e+01
<TRANSP> 5
 0.000000e+00 1.000000e+00 0.000000e+00 0.000000e+00 0.000000e+00
 0.000000e+00 6.626633e-01 3.373367e-01 0.000000e+00 0.000000e+00
 0.000000e+00 0.000000e+00 7.388581e-01 2.611419e-01 0.000000e+00
 0.000000e+00 0.000000e+00 0.000000e+00 7.641412e-01 2.358588e-01
 0.000000e+00 0.000000e+00 0.000000e+00 0.000000e+00 0.000000e+00
<ENDHMM>
~h "z"
<BEGINHMM>
<NUMSTATES> 5
<STATE> 2
<MEAN> 12
 -7.885459e+00 2.138593e+01 1.992672e+01 2.562227e+01 7.064346e+00 -3.230922e+00 -8.934335e-01 3.661348e+00 4.192440e-01 9.606236e-01 -7.757930e+00 8.102928e+00
<VARIANCE> 12
 2.465930e+02 2.288479e+02 2.512617e+02 2.861828e+02 3.164613e+02 2.687399e+02 2.692526e+02 2.641125e+02 2.275221e+02 2.700614e+02 2.775583e+02 3.721231e+02
<GCONST> 8.927257e+01
<STATE> 3
<MEAN> 12
 -3.481566e+01 2.988223e+01 4.944818e+00 2.606046e+01 5.164238e+00 7.667542e+00 5.936850e+00 7.251635e+00 -1.766398e+00 4.961465e+00 9.888465e-01 8.499535e+00
<VARIANCE> 12
 2.323050e+02 2.307165e+02 2.618032e+02 3.494465e+02 3.697410e+02 2.933186e+02 2.042820e+02 2.071509e+02 1.648184e+02 1.626884e+02 1.858068e+02 1.557185e+02
<GCONST> 8.708416e+01
<STATE> 4
<MEAN> 12
 -2.461089e+01 2.446794e+01 2.773720e+01 1.190885e+01 2.028908e+01 -1.295618e+01 -7.448171e+00 -2.269657e+00 -6.750854e+00 3.223964e+00 -1.678407e+01 1.597554e+00
<VARIANCE> 12
 2.817695e+02 1.597879e+02 1.533871e+02 2.690923e+02 4.719694e+02 2.236209e+02 2.595846e+02 2.003620e+02 1.390504e+02 1.771400e+02 2.344992e+02 2.421213e+02
<GCONST> 8.688223e+01
<TRANSP> 5
 0.000000e+00 1.000000e+00 0.000000e+00 0.000000e+00 0.000000e+00
 0.000000e+00 6.580946e-01 3.419054e-01 0.000000e+00 0.000000e+00
 0.000000e+00 0.000000e+00 8.176086e-01 1.823914e-01 0.000000e+00
 0.000000e+00 0.000000e+00 0.000000e+00 7.283955e-01 2.716045e-01
 0.000000e+00 0.000000e+00 0.000000e+00 0.000000e+00 0.000000e+00
<ENDHMM>
~h "ah"
<BEGINHMM>
<NUMSTATES> 5
<STATE> 2
<MEAN> 12
 2.021054e+01 -2.090278e+01 1.698077e+01 -7.974491e+00 6.661651e+00 -7.377144e-01 -2.268903e+01 6.961160e+00 -6.490787e+00 1.868144e+01 6.360672e+00 -5.524428e+00
<VARIANCE> 12
 6.264761e+01 1.544372e+02 1.789250e+02 2.343495e+02 2.372080e+02 2.968981e+02 4.015972e+02 4.407907e+02 5.325860e+02 4.241429e+02 4.013781e+02 2.784116e+02
<GCONST> 8.907378e+01
<STATE> 3
<MEAN> 12
 1.578417e+01 -1.468430e+01 2.522685e+01 -3.389556e+00 5.772716e+00 -1.607527e+01 4.316559e+00 1.648845e+01 2.186236e+00 5.287501e+00 -6.523627e+00 1.228291e+01
<VARIANCE> 12
 5.915726e+01 1.193864e+02 1.964439e+02 3.051522e+02 2.458569e+02 3.884820e+02 4.340000e+02 4.417997e+02 3.867195e+02 4.601961e+02 3.419819e+02 3.163209e+02
<GCONST> 8.923004e+01
<STATE> 4
<MEAN> 12
 1.927270e+01 5.999441e-01 3.576283e+01 1.380104e+01 -4.676700e+00 -1.892325e+00 1.847124e+01 -7.483838e+00 1.618055e+00 1.725262e+00 -1.045398e+01 2.017995e+01
<VARIANCE> 12
 4.062891e+01 1.222973e+02 1.365670e+02 2.122602e+02 2.355789e+02 4.321516e+02 5.348571e+02 4.236790e+02 5.742664e+02 6.693715e+02 5.966667e+02 5.340191e+02
<GCONST> 9.023311e+01
<TRANSP> 5
 0.000000e+00 1.000000e+00 0.000000e+00 0.000000e+00 0.000000e+00
 0.000000e+00 7.315966e-01 2.684033e-01 0.000000e+00 0.000000e+00
 0.000000e+00 0.000000e+00 6.214487e-01 3.785513e-01 0.000000e+00
 0.000000e+00 0.000000e+00 0.000000e+00 6.033625e-01 3.966375e-01
 0.000000e+00 0.000000e+00 0.000000e+00 0.000000e+00 0.000000e+00
<ENDHMM>
~h "ao"
<BEGINHMM>
<NUMSTATES> 5
<STATE> 2
<MEAN> 12
 3.626097e+01 1.655482e+01 1.450808e+01 -4.698310e+01 -2.365750e+01 -7.343614e-01 1.129438e+00 3.834737e+00 -6.479713e+00 8.072743e+00 -1.248249e+01 5.286659e+00
<VARIANCE> 12
 5.153298e+01 1.524083e+02 2.251800e+02 3.864916e+02 5.307021e+02 2.662823e+02 3.454958e+02 2.148949e+02 1.955684e+02 2.252754e+02 2.166181e+02 3.234659e+02
<GCONST> 8.732167e+01
<STATE> 3
<MEAN> 12
 3.475052e+01 1.261688e+01 1.598130e+01 -4.077810e+01 -2.903671e+01 -5.077781e+00 -8.183557e+00 2.088663e+01 -2.524013e+01 8.778482e+00 -3.152998e+00 -5.640023e+00
<VARIANCE> 12
 4.908815e+01 2.051666e+02 2.709666e+02 2.340233e+02 4.122604e+02 4.987657e+02 6.467531e+02 5.067713e+02 4.986461e+02 5.801384e+02 3.714902e+02 3.701891e+02
<GCONST> 9.166991e+01
<STATE> 4
<MEAN> 12
 3.884885e+01 -5.947376e+00 -1.623753e+01 -2.639124e+01 3.586481e+00 -9.172105e+00 -7.040313e+00 1.175310e+01 -2.251400e+01 6.246054e+00 4.289871e+00 1.536720e+01
<VARIANCE> 12
 6.190487e+01 2.007530e+02 2.520241e+02 2.679479e+02 6.048266e+02 4.568010e+02 1.061933e+03 6.555026e+02 5.033266e+02 7.681906e+02 4.107147e+02 3.423456e+02
<GCONST> 9.330396e+01
<TRANSP> 5
 0.000000e+00 1.000000e+00 0.000000e+00 0.000000e+00 0.000000e+00
 0.000000e+00 8.434149e-01 1.565851e-01 0.000000e+00 0.000000e+00
 0.000000e+00 0.000000e+00 7.988530e-01 2.011470e-01 0.000000e+00
 0.000000e+00 0.000000e+00 0.000000e+00 8.128637e-01 1.871363e-01
 0.000000e+00 0.000000e+00 0.000000e+00 0.000000e+00 0.000000e+00
<ENDHMM>
~h "ay"
<BEGINHMM>
<NUMSTATES> 5
<STATE> 2
<MEAN> 12
 1.971582e+01 -3.149785e+01 -4.453178e+00 -2.168698e+01 7.933527e+00 1.220162e+01 -8.028863e+00 6.063946e+00 1.241358e+01 1.303035e+01 2.978992e+00 -6.900077e+00
<VARIANCE> 12
 6.795632e+01 1.338117e+02 3.100952e+02 3.661982e+02 3.374108e+02 3.634391e+02 4.880672e+02 3.680035e+02 3.759479e+02 3.542066e+02 4.393622e+02 3.790166e+02
<GCONST> 9.044757e+01
<STATE> 3
<MEAN> 12
 1.448476e+01 -4.138868e+01 4.366443e+00 -2.067972e+01 2.184069e+01 2.896299e+00 -8.984993e+00 2.333079e+01 9.087071e+00 6.682970e+00 -7.203112e+00 -9.523899e-02
<VARIANCE> 12
 4.915680e+01 1.252768e+02 1.744796e+02 2.300822e+02 4.456716e+02 2.820222e+02 3.307249e+02 3.850686e+02 2.763639e+02 3.130411e+02 3.328378e+02 4.241245e+02
<GCONST> 8.810233e+01
<STATE> 4
<MEAN> 12
 1.134313e+01 -3.166551e+01 1.902387e+01 -9.824663e+00 -1.870929e+00 -7.767338e+00 2.514094e+00 2.540464e+01 3.244252e+00 1.202401e+00 -1.141143e+00 7.490650e+00
<VARIANCE> 12
 7.294349e+01 1.516241e+02 4.895812e+02 2.722838e+02 3.937693e+02 2.033415e+02 4.993513e+02 3.096869e+02 3.950988e+02 3.384809e+02 3.180970e+02 2.525593e+02
<GCONST> 8.950315e+01
<TRANSP> 5
 0.000000e+00 1.000000e+00 0.000000e+00 0.000000e+00 0.000000e+00
 0.000000e+00 8.481460e-01 1.518541e-01 0.000000e+00 0.000000e+00
 0.000000e+00 0.000000e+00 8.410342e-01 1.589658e-01 0.000000e+00
 0.000000e+00 0.000000e+00 0.000000e+00 8.000873e-01 1.999127e-01
 0.000000e+00 0.000000e+00 0.000000e+00 0.000000e+00 0.000000e+00
<ENDHMM>
~h "eh"
<BEGINHMM>
<NUMSTATES> 5
<STATE> 2
<MEAN> 12
 -4.022410e+01 9.492161e+00 1.738029e+00 -2.579869e+00 -9.247684e-01 -1.364216e+01 -2.322788e+00 1.896576e+00 -1.871324e+00 2.674848e+00 -9.033109e+00 1.004428e+01
<VARIANCE> 12
 3.666458e+02 9.143304e+01 1.185626e+02 2.569677e+02 2.937928e+02 2.558045e+02 1.395962e+02 1.616539e+02 1.602237e+02 1.545480e+02 2.204163e+02 1.615743e+02
<GCONST> 8.464798e+01
<STATE> 3
<MEAN> 12
 5.152546e+00 3.374984e+00 1.872553e+01 4.575477e+00 -7.045711e+00 -1.831705e+01 -1.173216e+01 -3.650277e+00 4.043103e+00 5.500106e+00 -9.052913e+00 1.184876e+01
<VARIANCE> 12
 1.541725e+02 1.035188e+02 1.139658e+02 1.557381e+02 3.291998e+02 1.652558e+02 2.401291e+02 1.894035e+02 1.850062e+02 3.193323e+02 2.836794e+02 3.716174e+02
<GCONST> 8.569798e+01
<STATE> 4
<MEAN> 12
 1.089603e+01 -1.667944e+01 2.237121e+01 -1.499630e+01 -9.691463e+00 -2.909995e+01 -9.064529e+00 3.578253e+00 1.127773e+01 1.346321e+01 -7.052411e+00 1.720100e+01
<VARIANCE> 12
 5.029548e+01 8.208726e+01 1.422361e+02 1.894605e+02 3.057514e+02 2.253349e+02 7.778152e+02 2.671541e+02 3.896569e+02 4.935323e+02 4.125213e+02 4.357727e+02
<GCONST> 8.823283e+01
<TRANSP> 5
 0.000000e+00 1.000000e+00 0.000000e+00 0.000000e+00 0.000000e+00
 0.000000e+00 3.634664e-01 6.365336e-01 0.000000e+00 0.000000e+00
 0.000000e+00 0.000000e+00 1.690744e-01 8.309256e-01 0.000000e+00
 0.000000e+00 0.000000e+00 0.000000e+00 6.113572e-01 3.886428e-01
 0.000000e+00 0.000000e+00 0.000000e+00 0.000000e+00 0.000000e+00
<ENDHMM>
~h "ey"
<BEGINHMM>
<NUMSTATES> 5
<STATE> 2
<MEAN> 12
 -2.344090e+00 -1.324971e+01 2.357314e+01 -1.298040e+01 -2.254939e+01 -1.855999e+01 2.445479e+00 3.379383e+00 3.984143e+00 9.141986e+00 -9.306116e-01 7.385227e+00
<VARIANCE> 12
 2.299450e+02 2.286847e+02 3.109789e+02 4.286402e+02 3.245516e+02 4.357007e+02 6.791266e+02 3.844940e+02 3.847119e+02 3.427527e+02 3.024272e+02 2.976764e+02
<GCONST> 9.225453e+01
<STATE> 3
<MEAN> 12
 4.053684e+00 -1.836412e+01 5.304166e+01 -2.352105e+01 -2.382293e+01 -1.873560e+01 7.996659e-02 2.263515e+00 -8.360247e+00 1.460935e+01 6.679274e-01 1.109065e+01
<VARIANCE> 12
 5.152011e+01 1.586522e+02 2.445313e+02 4.327334e+02 1.875496e+02 2.559837e+02 5.663344e+02 3.362885e+02 6.159072e+02 2.365380e+02 1.594211e+02 1.497795e+02
<GCONST> 8.753890e+01
<STATE> 4
<MEAN> 12
 -3.136968e+00 4.324771e+00 6.931583e+01 -1.402794e+01 -1.052244e+01 -2.413118e+00 -4.726315e+00 -1.888608e+01 -1.243345e+01 2.479485e+00 -1.085824e+01 5.715864e+00
<VARIANCE> 12
 6.212598e+01 2.437127e+02 2.454619e+02 5.985974e+02 2.720409e+02 3.069611e+02 3.025275e+02 4.836353e+02 7.027915e+02 3.678252e+02 3.153954e+02 3.908927e+02
<GCONST> 9.098853e+01
<TRANSP> 5
 0.000000e+00 1.000000e+00 0.000000e+00 0.000000e+00 0.000000e+00
 0.000000e+00 7.722459e-01 2.277541e-01 0.000000e+00 0.000000e+00
 0.000000e+00 0.000000e+00 8.609728e-01 1.390271e-01 0.000000e+00
 0.000000e+00 0.000000e+00 0.000000e+00 8.880019e-01 1.119982e-01
 0.000000e+00 0.000000e+00 0.000000e+00 0.000000e+00 0.000000e+00
<ENDHMM>
~h "hh"
<BEGINHMM>
<NUMSTATES> 5
<STATE> 2
<MEAN> 12
 1.346927e+01 1.237851e+01 1.164491e+01 8.263509e-01 3.584472e+00 1.126643e+01 8.820606e+00 1.978644e+00 -5.817177e+00 5.782262e+00 -2.223906e+00 4.026404e+00
<VARIANCE> 12
 3.307125e+02 2.678820e+02 1.830876e+02 3.513900e+02 2.957876e+02 2.543995e+02 2.520721e+02 2.916163e+02 3.868274e+02 2.595877e+02 2.155414e+02 2.046779e+02
<GCONST> 8.916354e+01
<STATE> 3
<MEAN> 12
 3.136788e+01 2.346732e+01 1.612298e+01 -9.177814e+00 -1.032671e+01 2.228669e+00 8.201941e+00 -1.303759e+00 -1.938323e+00 1.047060e+01 -6.083500e+00 5.081128e+00
<VARIANCE> 12
 6.516537e+01 2.213303e+02 1.320435e+02 2.440031e+02 2.182923e+02 2.567549e+02 2.529758e+02 2.673456e+02 3.825439e+02 2.333577e+02 2.247866e+02 2.544540e+02
<GCONST> 8.642091e+01
<STATE> 4
<MEAN> 12
 3.404797e+01 1.885678e+01 2.378093e+01 -2.311209e+01 -2.354446e+01 -4.114580e+00 -4.280824e+00 7.501205e+00 -1.109846e+01 1.499905e+01 -2.123552e+00 -3.429678e+00
<VARIANCE> 12
 4.428231e+01 2.015548e+02 2.112371e+02 2.657974e+02 3.092238e+02 2.863074e+02 3.932429e+02 2.923390e+02 4.412076e+02 3.728177e+02 3.024285e+02 2.810470e+02
<GCONST> 8.849133e+01
<TRANSP> 5
 0.000000e+00 1.000000e+00 0.000000e+00 0.000000e+00 0.000000e+00
 0.000000e+00 5.860953e-01 4.139047e-01 0.000000e+00 0.000000e+00
 0.000000e+00 0.000000e+00 6.765798e-01 3.234201e-01 0.000000e+00
 0.000000e+00 0.000000e+00 0.000000e+00 7.021669e-01 2.978331e-01
 0.000000e+00 0.000000e+00 0.000000e+00 0.000000e+00 0.000000e+00
<ENDHMM>
~h "ih"
<BEGINHMM>
<NUMSTATES> 5
<STATE> 2
<MEAN> 12
 -4.544898e+01 6.100216e+00 -1.589813e+01 9.171247e+00 -1.632656e+01 2.561052e+00 -4.367844e+00 2.025972e+00 -8.567745e+00 3.013362e+00 -5.036664e-01 6.968181e+00
<VARIANCE> 12
 7.104436e+01 8.639731e+01 1.738490e+02 1.402610e+02 1.645070e+02 2.031653e+02 1.226919e+02 1.169554e+02 1.312876e+02 1.169249e+02 1.436402e+02 1.178393e+02
<GCONST> 8.024249e+01
<STATE> 3
<MEAN> 12
 -2.989800e+00 8.148892e+00 2.202640e+01 1.065200e+01 -1.069012e+01 -1.526139e+01 -7.516319e+00 -4.808754e+00 -1.709084e+00 1.242832e+00 -5.153414e+00 1.042240e+01
<VARIANCE> 12
 2.144167e+02 1.492092e+02 1.217418e+02 1.714943e+02 3.906869e+02 1.742797e+02 2.511412e+02 1.466389e+02 1.591496e+02 1.918436e+02 2.824445e+02 3.545425e+02
<GCONST> 8.585764e+01
<STATE> 4
<MEAN> 12
 5.711973e+00 -1.397206e+01 4.329230e+01 -2.493946e+00 -1.588794e+01 -3.051432e+01 -4.585710e+00 -5.296138e+00 -1.149588e+01 8.487373e+00 -3.413872e+00 1.157196e+01
<VARIANCE> 12
 7.260116e+01 1.778305e+02 1.919551e+02 3.586713e+02 3.399415e+02 3.207346e+02 8.942678e+02 6.409279e+02 5.551907e+02 2.936769e+02 3.025947e+02 3.667822e+02
<GCONST> 9.113727e+01
<TRANSP> 5
 0.000000e+00 1.000000e+00 0.000000e+00 0.000000e+00 0.000000e+00
 0.000000e+00 7.612361e-01 2.387639e-01 0.000000e+00 0.000000e+00
 0.000000e+00 0.000000e+00 4.476101e-01 5.523899e-01 0.000000e+00
 0.000000e+00 0.000000e+00 0.000000e+00 8.829246e-01 1.170754e-01
 0.000000e+00 0.000000e+00 0.000000e+00 0.000000e+00 0.000000e+00
<ENDHMM>
~h "iy"
<BEGINHMM>
<NUMSTATES> 5
<STATE> 2
<MEAN> 12
 3.296530e+00 -1.193862e+01 6.819631e+01 3.904555e+00 -9.501010e+00 -1.542163e+01 -6.459835e+00 3.326098e+00 -2.993110e+01 2.653971e+00 -5.435780e+00 2.989329e+00
<VARIANCE> 12
 7.379453e+01 1.800305e+02 2.553519e+02 2.817361e+02 2.239657e+02 3.846203e+02 5.037926e+02 5.070021e+02 3.572689e+02 4.250011e+02 2.339857e+02 3.511335e+02
<GCONST> 8.979398e+01
<STATE> 3
<MEAN> 12
 -7.458379e-01 6.940377e+00 6.363792e+01 -1.258080e+01 -5.108811e+00 -6.678671e+00 6.830595e+00 -2.208333e+01 -4.281517e+00 7.760927e+00 -1.081468e+01 1.349302e+01
<VARIANCE> 12
 9.697858e+01 3.209108e+02 1.520654e+02 4.244230e+02 2.380785e+02 5.496873e+02 4.298420e+02 4.829001e+02 4.062882e+02 3.653191e+02 2.637034e+02 2.946552e+02
<GCONST> 9.066886e+01
<STATE> 4
<MEAN> 12
 1.615140e+00 -6.168868e+00 3.752046e+01 7.111997e+00 -5.147529e+00 -7.861170e+00 -1.260128e+00 5.132945e-01 -8.635184e+00 1.544676e+00 -3.556193e+00 4.696447e+00
<VARIANCE> 12
 3.622896e+02 4.276568e+02 2.288127e+02 4.575760e+02 3.592304e+02 1.134753e+03 8.935875e+02 3.810920e+02 3.505410e+02 4.145673e+02 2.590972e+02 2.539058e+02
<GCONST> 9.420143e+01
<TRANSP> 5
 0.000000e+00 1.000000e+00 0.000000e+00 0.000000e+00 0.000000e+00
 0.000000e+00 7.722491e-01 2.277509e-01 0.000000e+00 0.000000e+00
 0.000000e+00 0.000000e+00 7.614716e-01 2.385285e-01 0.000000e+00
 0.000000e+00 0.000000e+00 0.000000e+00 6.036772e-01 3.963229e-01
 0.000000e+00 0.000000e+00 0.000000e+00 0.000000e+00 0.000000e+00
<ENDHMM>
~h "ow"
<BEGINHMM>
<NUMSTATES> 5
<STATE> 2
<MEAN> 12
 1.520254e+01 -2.330105e+01 1.183511e-01 -1.994777e+01 4.321581e+00 -1.537061e+01 -3.678942e-01 4.534091e+00 1.450109e+01 1.869958e+01 -9.030341e+00 2.212185e+00
<VARIANCE> 12
 2.074005e+02 1.872907e+02 2.472970e+02 2.112675e+02 2.621919e+02 3.968754e+02 5.091435e+02 3.620610e+02 5.441599e+02 5.043452e+02 4.885080e+02 3.499743e+02
<GCONST> 9.173450e+01
<STATE> 3
<MEAN> 12
 2.469716e+01 -1.276697e+01 4.054990e+00 -3.715643e+01 6.706334e+00 1.721965e+00 -7.581658e+00 -1.020552e+01 -1.066160e+01 2.881601e+01 6.555626e+00 8.607566e+00
<VARIANCE> 12
 6.211497e+01 1.376532e+02 2.505100e+02 3.352233e+02 2.976606e+02 3.597160e+02 4.266721e+02 3.870205e+02 9.897122e+02 3.648050e+02 3.926693e+02 2.649176e+02
<GCONST> 9.039147e+01
<STATE> 4
<MEAN> 12
 2.436997e+01 7.734601e+00 7.548808e+00 -2.676682e+01 -9.790112e+00 1.509243e+01 1.849611e-01 -7.955670e-01 -1.285826e+01 2.840998e+00 -5.978588e-01 6.312350e+00
<VARIANCE> 12
 1.603813e+02 2.495835e+02 2.770120e+02 6.938029e+02 6.887471e+02 3.963810e+02 4.900323e+02 4.284428e+02 5.630353e+02 3.517175e+02 4.481768e+02 3.792437e+02
<GCONST> 9.382954e+01
<TRANSP> 5
 0.000000e+00 1.000000e+00 0.000000e+00 0.000000e+00 0.000000e+00
 0.000000e+00 8.039575e-01 1.960426e-01 0.000000e+00 0.000000e+00
 0.000000e+00 0.000000e+00 8.380204e-01 1.619796e-01 0.000000e+00
 0.000000e+00 0.000000e+00 0.000000e+00 8.817662e-01 1.182338e-01
 0.000000e+00 0.000000e+00 0.000000e+00 0.000000e+00 0.000000e+00
<ENDHMM>
~h "sp"
<BEGINHMM>
<NUMSTATES> 3
<STATE> 2
~s "silst"
<TRANSP> 3
 0.000000e+00 1.276033e-01 8.723968e-01
 0.000000e+00 8.390851e-01 1.609149e-01
 0.000000e+00 0.000000e+00 0.000000e+00
<ENDHMM>
~h "th"
<BEGINHMM>
<NUMSTATES> 5
<STATE> 2
<MEAN> 12
 -2.865837e+01 -2.067169e+00 2.753795e-01 3.296851e+00 -7.881598e+00 1.154867e-01 -4.195753e+00 3.665754e-01 -4.380031e+00 1.704395e+00 -3.219681e+00 5.592787e+00
<VARIANCE> 12
 1.271249e+02 1.374603e+02 1.218259e+02 1.594644e+02 1.507610e+02 1.573522e+02 1.599259e+02 1.619991e+02 1.604671e+02 1.432146e+02 1.490710e+02 1.380038e+02
<GCONST> 8.190807e+01
<STATE> 3
<MEAN> 12
 -1.477202e+01 -1.059225e+01 2.502482e+01 9.762495e+00 -6.512178e+00 -8.423191e+00 1.009769e+00 3.361485e+00 -1.510421e+00 7.033352e+00 -1.889865e+00 4.797481e+00
<VARIANCE> 12
 2.959395e+02 2.146659e+02 1.682981e+02 2.421636e+02 2.068500e+02 2.507867e+02 2.314925e+02 2.299322e+02 2.036235e+02 1.795092e+02 1.719829e+02 2.121986e+02
<GCONST> 8.647944e+01
<STATE> 4
<MEAN> 12
 2.348403e+01 -1.233069e+01 1.377067e+01 1.977714e+01 1.330702e+01 -9.601639e+00 -1.824399e+01 -6.997186e+00 -6.728121e+00 4.937984e+00 -1.958680e+00 3.414110e+00
<VARIANCE> 12
 1.753547e+02 1.374918e+02 2.165209e+02 1.549604e+02 1.671654e+02 3.652896e+02 2.335626e+02 2.302207e+02 1.706577e+02 1.552692e+02 1.937607e+02 1.427780e+02
<GCONST> 8.489065e+01
<TRANSP> 5
 0.000000e+00 1.000000e+00 0.000000e+00 0.000000e+00 0.000000e+00
 0.000000e+00 8.618605e-01 1.381395e-01 0.000000e+00 0.000000e+00
 0.000000e+00 0.000000e+00 6.103204e-01 3.896795e-01 0.000000e+00
 0.000000e+00 0.000000e+00 0.000000e+00 5.719268e-01 4.280732e-01
 0.000000e+00 0.000000e+00 0.000000e+00 0.000000e+00 0.000000e+00
<ENDHMM>
~h "uw"
<BEGINHMM>
<NUMSTATES> 5
<STATE> 2
<MEAN> 12
 7.989671e+00 -1.026608e+01 5.729683e+01 2.595830e+00 -5.740027e-01 -2.959092e+01 3.280333e+00 -4.096161e+00 -1.911876e+01 9.582168e+00 -1.552229e+01 1.780061e+01
<VARIANCE> 12
 5.041432e+01 1.369545e+02 1.857997e+02 2.588881e+02 1.755654e+02 3.019904e+02 6.326163e+02 4.544387e+02 3.352610e+02 2.864179e+02 2.237324e+02 3.771280e+02
<GCONST> 8.793826e+01
<STATE> 3
<MEAN> 12
 1.567270e+01 -1.337860e+01 4.402347e+01 2.036455e+01 4.771441e+00 -1.143811e+00 -3.458733e+01 1.247017e+01 -2.633273e+01 -2.403400e+00 -3.071746e+00 -1.603694e+01
<VARIANCE> 12
 8.080550e+01 1.747362e+02 1.972810e+02 2.954981e+02 2.986763e+02 4.532252e+02 4.259716e+02 4.152253e+02 4.491587e+02 4.549243e+02 3.790538e+02 3.678398e+02
<GCONST> 9.055492e+01
<STATE> 4
<MEAN> 12
 1.419598e+01 9.256298e+00 1.574268e+01 6.097712e+00 1.303507e+01 5.759017e+00 7.589490e-01 -1.069624e+01 -9.459511e+00 7.580382e+00 -8.326752e+00 5.758217e+00
<VARIANCE> 12
 2.288705e+02 1.889361e+02 2.204421e+02 3.906472e+02 3.163352e+02 5.755522e+02 4.758119e+02 5.558099e+02 6.829229e+02 4.704392e+02 3.798835e+02 3.587463e+02
<GCONST> 9.319263e+01
<TRANSP> 5
 0.000000e+00 1.000000e+00 0.000000e+00 0.000000e+00 0.000000e+00
 0.000000e+00 8.300226e-01 1.699775e-01 0.000000e+00 0.000000e+00
 0.000000e+00 0.000000e+00 8.331608e-01 1.668393e-01 0.000000e+00
 0.000000e+00 0.000000e+00 0.000000e+00 8.253830e-01 1.746170e-01
 0.000000e+00 0.000000e+00 0.000000e+00 0.000000e+00 0.000000e+00
<ENDHMM>
~h "sil"
<BEGINHMM>
<NUMSTATES> 5
<STATE> 2
<MEAN> 12
 -1.353525e+01 -6.362390e+00 -1.903750e+00 4.196198e+00 -2.467945e-01 -1.396101e+00 3.190932e+00 7.364700e+00 -1.200776e+00 -1.329225e+00 -5.406212e+00 1.067966e-01
<VARIANCE> 12
 7.506677e+01 1.257237e+02 1.315291e+02 1.335645e+02 1.731856e+02 2.164866e+02 2.333049e+02 2.497302e+02 2.361551e+02 2.191584e+02 1.783963e+02 1.631906e+02
<GCONST> 8.361864e+01
<STATE> 3
~s "silst"
<STATE> 4
<MEAN> 12
 -1.832006e+01 5.701720e+00 5.808854e+00 8.064338e+00 2.438622e+00 3.329884e+00 2.833080e+00 2.716213e+00 -2.836142e-01 4.611719e+00 8.418916e-02 2.603422e+00
<VARIANCE> 12
 1.539444e+02 1.559140e+02 1.016624e+02 1.297607e+02 1.300334e+02 1.349214e+02 1.467401e+02 1.381171e+02 1.405714e+02 1.284512e+02 1.208210e+02 1.050262e+02
<GCONST> 8.056681e+01
<TRANSP> 5
 0.000000e+00 1.000000e+00 0.000000e+00 0.000000e+00 0.000000e+00
 0.000000e+00 8.040335e-01 1.244782e-01 7.148840e-02 0.000000e+00
 0.000000e+00 0.000000e+00 9.057451e-01 9.425483e-02 0.000000e+00
 0.000000e+00 1.059616e-01 0.000000e+00 7.329500e-01 1.610884e-01
 0.000000e+00 0.000000e+00 0.000000e+00 0.000000e+00 0.000000e+00
<ENDHMM>
