~o
<STREAMINFO> 1 39
<VECSIZE> 39<NULLD><MFCC_D_A_0><DIAGC>
~v "varFloor1"
<VARIANCE> 39
 6.754232e+00 3.412257e+00 5.608447e+00 4.796207e+00 3.472295e+00 4.011117e+00 4.413517e+00 3.617792e+00 3.683716e+00 3.040219e+00 2.640150e+00 2.509556e+00 1.298279e+01 2.278196e-01 1.545969e-01 2.184490e-01 2.118026e-01 1.813457e-01 2.097697e-01 2.257949e-01 2.166197e-01 2.009621e-01 1.748386e-01 1.664882e-01 1.534702e-01 2.729188e-01 3.005251e-02 2.352015e-02 2.950212e-02 3.333421e-02 2.970494e-02 3.528043e-02 3.797136e-02 3.764201e-02 3.477513e-02 3.067418e-02 2.924890e-02 2.697371e-02 3.680276e-02
~h "f"
<BEGINHMM>
<NUMSTATES> 5
<STATE> 2
<MEAN> 39
 -2.988627e+01 -1.199010e+01 2.494768e-01 3.851670e+00 -1.241177e+00 2.347605e-01 -5.520379e+00 1.000945e+00 -4.338512e+00 3.906063e+00 -3.174322e+00 2.753057e+00 8.778775e+01 -2.346132e+00 -1.579471e+00 -1.248810e+00 -4.941477e-01 -6.923488e-01 -3.518085e-01 -8.981600e-01 -3.931975e-01 -2.524343e-01 -1.892204e-01 -5.637268e-02 -1.245008e-01 3.811736e-01 1.269992e+00 3.124731e-01 2.488527e-01 -2.513680e-01 7.727101e-02 2.490882e-04 2.141439e-01 -7.200085e-02 -8.795284e-02 8.603283e-02 -4.158846e-02 2.901448e-02 6.578667e-01
<VARIANCE> 39
 1.912666e+02 1.465632e+02 1.022199e+02 1.087696e+02 1.220568e+02 1.315882e+02 1.463107e+02 1.434907e+02 1.402588e+02 1.266530e+02 1.209496e+02 1.096375e+02 4.061302e+02 2.564824e+01 1.316020e+01 1.181200e+01 1.679386e+01 1.417087e+01 1.428395e+01 1.573205e+01 1.514981e+01 1.527073e+01 1.373273e+01 1.315393e+01 1.224835e+01 2.083134e+01 3.943021e+00 2.618277e+00 2.295146e+00 3.183529e+00 2.751329e+00 3.017889e+00 3.285960e+00 3.235011e+00 3.251655e+00 2.912244e+00 2.753172e+00 2.500656e+00 3.278848e+00
<GCONST> 1.856836e+02
<STATE> 3
<MEAN> 39
 -2.882701e+01 -1.660298e+01 -2.945165e+00 -2.993404e-02 -3.228650e+00 -1.013182e+00 -7.690541e+00 -1.151626e+00 -5.686615e+00 3.851607e+00 -4.371688e+00 2.338330e+00 1.009255e+02 9.578577e+00 1.264608e+00 1.855332e-01 -3.365803e+00 5.382283e-01 1.021152e+00 1.537529e+00 3.670663e-02 5.477863e-01 1.525878e+00 5.546920e-01 -1.971056e-01 6.203580e+00 3.355538e+00 8.059126e-01 4.598622e-01 -2.002898e+00 -2.318013e-01 4.177029e-01 6.972893e-01 3.647374e-01 9.249411e-02 6.558194e-01 2.785496e-01 -1.336954e-01 1.074176e+00
<VARIANCE> 39
 1.743240e+02 8.481334e+01 6.678793e+01 7.600465e+01 8.429322e+01 9.357191e+01 1.023199e+02 1.037180e+02 1.173007e+02 1.116948e+02 1.035185e+02 8.989645e+01 2.165771e+02 4.364997e+01 1.691015e+01 1.020278e+01 2.240085e+01 1.388991e+01 1.353459e+01 1.523058e+01 1.498368e+01 2.151337e+01 1.924524e+01 2.175388e+01 1.325018e+01 3.626489e+01 4.516629e+00 4.640038e+00 2.626849e+00 4.097627e+00 3.497632e+00 2.969795e+00 3.261411e+00 3.255838e+00 4.106437e+00 3.588842e+00 4.257796e+00 2.905145e+00 4.659722e+00
<GCONST> 1.869002e+02
<STATE> 4
<MEAN> 39
 1.551124e+01 -1.668476e+01 -3.286425e+00 -2.327427e+01 -1.117428e+00 6.146954e+00 1.212843e-01 -3.484651e-01 -2.399493e+00 1.522604e+01 2.885462e+00 -7.420371e-01 1.287920e+02 8.888754e+00 -1.333411e+00 -3.491475e-01 -7.523900e+00 -2.646380e-02 1.971326e+00 2.002972e+00 9.359559e-01 8.662677e-01 2.059894e+00 7.704956e-01 -6.590801e-01 7.598131e+00 -2.901887e+00 -1.528861e-01 1.762116e-01 7.788985e-01 -2.158583e-01 -1.577317e-01 -4.232682e-01 3.646639e-01 -5.947605e-02 -7.902717e-01 -7.933820e-01 5.195247e-02 -1.566161e+00
<VARIANCE> 39
 3.301179e+02 2.196001e+02 1.691098e+02 4.688485e+02 2.672682e+02 2.107654e+02 2.212690e+02 2.295609e+02 4.285753e+02 3.074539e+02 4.585776e+02 2.180758e+02 4.139959e+02 6.381731e+01 4.381927e+01 2.137718e+01 3.593422e+01 2.915426e+01 2.059331e+01 2.254551e+01 2.238627e+01 3.296559e+01 2.604213e+01 3.591920e+01 2.254931e+01 2.837930e+01 8.408991e+00 3.519297e+00 2.520493e+00 8.329662e+00 4.185613e+00 3.093759e+00 3.490345e+00 3.209074e+00 5.775517e+00 4.518528e+00 5.254114e+00 3.420079e+00 4.798543e+00
<GCONST> 2.083786e+02
<TRANSP> 5
 0.000000e+00 1.000000e+00 0.000000e+00 0.000000e+00 0.000000e+00
 0.000000e+00 8.656570e-01 1.343430e-01 0.000000e+00 0.000000e+00
 0.000000e+00 0.000000e+00 6.604511e-01 3.395489e-01 0.000000e+00
 0.000000e+00 0.000000e+00 0.000000e+00 5.535884e-01 4.464116e-01
 0.000000e+00 0.000000e+00 0.000000e+00 0.000000e+00 0.000000e+00
<ENDHMM>
~h "k"
<BEGINHMM>
<NUMSTATES> 5
<STATE> 2
<MEAN> 39
 -8.364067e+00 8.443065e+00 2.401927e+01 2.458416e+01 1.563732e-01 -1.393451e+01 -1.935708e+00 1.929955e-02 -1.835765e+01 -3.444634e+00 -6.546953e-01 1.712208e+00 7.248091e+01 -5.304144e+00 1.138034e+00 -9.670871e+00 -1.791286e+00 2.991578e+00 4.840559e+00 -3.159838e+00 -2.478206e-01 4.130462e+00 -1.366133e+00 -1.187706e-01 -3.147932e-01 -1.020312e+01 -2.363527e-01 -2.774466e+00 -6.373792e-01 -2.559071e+00 -1.169816e+00 -1.167393e+00 -6.078650e-01 -1.744035e-01 8.714539e-01 1.129487e+00 -3.187154e-01 5.768391e-01 4.869304e+00
<VARIANCE> 39
 1.552972e+02 2.672008e+02 3.191496e+02 2.208510e+02 2.626217e+02 3.679729e+02 3.735167e+02 4.744864e+02 3.339369e+02 2.547461e+02 1.974611e+02 1.486744e+02 4.453990e+02 1.437250e+01 5.885958e+01 2.788260e+01 3.952896e+01 3.109295e+01 4.372992e+01 5.723618e+01 6.977885e+01 4.902013e+01 3.648907e+01 2.466845e+01 2.212891e+01 1.070291e+02 3.815507e+00 7.889140e+00 6.337352e+00 6.572680e+00 5.239688e+00 8.996654e+00 9.337461e+00 9.747958e+00 8.585985e+00 5.686465e+00 4.696704e+00 4.331010e+00 1.475653e+01
<GCONST> 2.175836e+02
<STATE> 3
<MEAN> 39
 -2.032770e+01 -7.765596e+00 -6.543591e+00 8.776954e+00 -6.397821e-02 -1.028303e+01 -1.173340e+01 -9.469696e-01 -3.992513e+00 1.907349e+00 -2.110926e+00 3.945707e+00 7.913246e+01 -3.216235e+00 -3.294326e+00 -4.309617e+00 -1.037074e+00 -4.854671e-01 -1.900630e+00 -1.605378e+00 1.413446e+00 1.779472e+00 8.958201e-01 -7.169635e-01 6.677240e-01 8.444643e+00 -7.639952e-01 1.245077e+00 1.916786e+00 7.596932e-01 -6.593154e-01 -7.392422e-01 9.789898e-01 2.863408e-01 -6.068091e-01 -2.415524e-01 -9.438268e-02 1.642821e-01 1.434767e+00
<VARIANCE> 39
 2.016254e+02 3.088826e+02 2.552742e+02 1.533255e+02 2.115875e+02 2.275244e+02 2.065435e+02 1.839257e+02 1.556476e+02 1.452910e+02 1.354229e+02 1.057646e+02 9.184022e+02 4.280341e+01 3.669234e+01 2.957215e+01 2.482119e+01 2.606601e+01 3.137122e+01 2.529402e+01 2.354089e+01 2.173925e+01 1.985421e+01 1.664151e+01 1.319488e+01 8.643572e+01 8.856694e+00 9.491966e+00 5.326805e+00 4.218439e+00 4.804366e+00 6.638451e+00 5.531045e+00 5.131863e+00 4.608187e+00 4.261218e+00 3.189195e+00 2.659302e+00 2.343504e+01
<GCONST> 2.066308e+02
<STATE> 4
<MEAN> 39
 -3.975239e+01 -4.671353e+00 -7.436000e+00 9.078423e+00 -3.549259e+00 -1.841696e+01 -1.003812e+01 5.303510e+00 -1.016819e+00 1.323187e+00 -5.189470e+00 6.544925e+00 9.796752e+01 -4.698117e+00 2.159738e+00 5.536712e-01 -4.452584e-01 -1.010129e+00 -2.170069e-01 1.354243e+00 1.218114e+00 1.498383e-01 -3.779958e-01 -3.485230e-01 4.767829e-01 1.990823e+00 8.438197e-01 5.208267e-01 4.636743e-01 -1.420121e-01 1.708881e-01 9.034283e-01 4.605584e-01 -3.889654e-01 -4.864763e-01 -2.817094e-03 2.231870e-01 -1.846026e-01 -1.635364e+00
<VARIANCE> 39
 3.617869e+02 1.417024e+02 1.604360e+02 1.833873e+02 3.563186e+02 3.167234e+02 2.116960e+02 1.948129e+02 1.696580e+02 1.609944e+02 1.671381e+02 1.334747e+02 7.589670e+02 6.053892e+01 2.228063e+01 1.687157e+01 1.423286e+01 2.165705e+01 2.710121e+01 2.122203e+01 1.833180e+01 1.797765e+01 1.684838e+01 1.412060e+01 1.364975e+01 4.687081e+01 8.303404e+00 3.631590e+00 3.102550e+00 2.921994e+00 4.149094e+00 5.312735e+00 4.053973e+00 3.727135e+00 3.458882e+00 3.541315e+00 2.867042e+00 2.630753e+00 1.123844e+01
<GCONST> 2.001458e+02
<TRANSP> 5
 0.000000e+00 1.000000e+00 0.000000e+00 0.000000e+00 0.000000e+00
 0.000000e+00 6.861317e-01 3.138684e-01 0.000000e+00 0.000000e+00
 0.000000e+00 0.000000e+00 7.560276e-01 2.439724e-01 0.000000e+00
 0.000000e+00 0.000000e+00 0.000000e+00 6.796378e-01 3.203622e-01
 0.000000e+00 0.000000e+00 0.000000e+00 0.000000e+00 0.000000e+00
<ENDHMM>
~h "n"
<BEGINHMM>
<NUMSTATES> 5
<STATE> 2
<MEAN> 39
 1.592483e+01 -1.051765e+00 3.604503e+01 6.437347e+00 -5.688445e+00 3.858292e+00 1.576950e+01 -3.725885e+00 -5.734462e+00 9.117118e+00 -5.590347e+00 9.703001e+00 1.122625e+02 1.138610e+00 2.985942e+00 3.907979e-01 3.332784e+00 1.802876e-01 1.294617e+00 2.193812e+00 -2.847180e+00 -1.083225e-01 7.321995e-01 -1.371044e+00 3.377128e-01 -2.573354e+00 -5.494739e-01 -6.222644e-01 -9.453378e-01 -3.460122e-01 4.974772e-01 -3.395856e-01 -7.275257e-01 8.526237e-01 4.098652e-01 -2.533904e-01 1.362461e-01 -2.205567e-01 2.655493e-01
<VARIANCE> 39
 1.276189e+02 3.242836e+02 2.370111e+02 6.099358e+02 3.042644e+02 4.058859e+02 5.421639e+02 6.187126e+02 5.389482e+02 4.429408e+02 4.381806e+02 4.140276e+02 4.318466e+02 1.669026e+01 1.739415e+01 2.496071e+01 3.735680e+01 2.337316e+01 2.776265e+01 3.681997e+01 4.531274e+01 3.314985e+01 2.901294e+01 2.649715e+01 2.742967e+01 2.623520e+01 2.547493e+00 2.847608e+00 3.733038e+00 7.897841e+00 4.328255e+00 5.176763e+00 7.079284e+00 8.575610e+00 5.787001e+00 4.937161e+00 4.883623e+00 4.882748e+00 2.236092e+00
<GCONST> 2.122340e+02
<STATE> 3
<MEAN> 39
 1.695746e+01 4.266066e+00 3.323964e+01 1.648394e+01 -1.391547e+00 5.947649e+00 1.594678e+01 -4.620875e+00 -2.155934e+00 7.862785e+00 -9.008406e+00 1.029081e+01 1.052892e+02 -2.476562e+00 -2.484345e+00 -2.468250e+00 -2.455109e+00 2.343178e+00 -1.308009e+00 -2.594669e+00 4.916902e+00 1.029945e+00 -4.915538e-01 5.332847e-01 -1.193176e+00 1.327702e+00 -1.051222e+00 -1.073594e+00 -1.214625e+00 -1.257873e+00 1.064076e-01 -3.348535e-01 -9.123535e-01 8.720566e-01 2.300570e-01 -1.645000e-01 4.799400e-01 -2.924528e-01 4.076690e-01
<VARIANCE> 39
 1.014829e+02 2.884328e+02 1.611131e+02 3.732848e+02 2.962856e+02 4.557420e+02 5.211552e+02 5.022408e+02 4.533818e+02 4.397752e+02 4.278621e+02 4.258773e+02 3.433257e+02 1.751081e+01 2.669816e+01 2.045664e+01 3.763504e+01 2.535335e+01 3.657467e+01 4.227967e+01 4.462772e+01 3.554552e+01 2.621227e+01 2.761455e+01 2.778497e+01 3.815343e+01 2.792380e+00 2.948419e+00 3.158501e+00 5.010920e+00 4.618816e+00 6.371900e+00 6.495050e+00 7.856176e+00 5.218362e+00 4.010260e+00 4.378965e+00 4.206168e+00 2.439039e+00
<GCONST> 2.107293e+02
<STATE> 4
<MEAN> 39
 2.552127e+00 -2.718946e+00 1.946650e+01 1.363830e+01 3.998478e+00 3.367049e+00 1.103641e+01 1.057578e+01 1.604360e+00 3.827816e+00 -7.060815e+00 4.785932e+00 9.274798e+01 -3.005912e+00 -1.884318e+00 -3.867454e+00 -2.398637e+00 1.361660e-01 -8.326309e-01 -2.227671e+00 1.534135e+00 5.812148e-01 -6.490253e-01 6.933478e-01 -1.082694e+00 -8.913013e-01 7.791607e-02 2.310317e-01 1.579699e-02 -1.637742e-02 -4.108532e-01 1.924017e-02 -3.395723e-02 -9.574420e-01 -2.220923e-01 2.993874e-02 4.493394e-02 1.395550e-01 2.399157e-02
<VARIANCE> 39
 2.178624e+02 2.909755e+02 2.369725e+02 4.203065e+02 2.575333e+02 3.424640e+02 4.652034e+02 4.118647e+02 3.487730e+02 3.783498e+02 2.866527e+02 2.644363e+02 7.390952e+02 1.833686e+01 1.726079e+01 1.885011e+01 2.193651e+01 2.042807e+01 2.252796e+01 2.447119e+01 2.839770e+01 2.613786e+01 2.074425e+01 2.182254e+01 1.968048e+01 1.843822e+01 1.856433e+00 2.667633e+00 2.677783e+00 4.332122e+00 3.362641e+00 4.620083e+00 4.997377e+00 5.195285e+00 4.039086e+00 3.522577e+00 3.383508e+00 3.193874e+00 2.304342e+00
<GCONST> 2.030763e+02
<TRANSP> 5
 0.000000e+00 1.000000e+00 0.000000e+00 0.000000e+00 0.000000e+00
 0.000000e+00 6.646217e-01 3.353783e-01 0.000000e+00 0.000000e+00
 0.000000e+00 0.000000e+00 6.161468e-01 3.838532e-01 0.000000e+00
 0.000000e+00 0.000000e+00 0.000000e+00 6.645160e-01 3.354839e-01
 0.000000e+00 0.000000e+00 0.000000e+00 0.000000e+00 0.000000e+00
<ENDHMM>
~h "r"
<BEGINHMM>
<NUMSTATES> 5
<STATE> 2
<MEAN> 39
 3.610651e+01 -1.824156e+01 -4.463509e+00 4.594527e+00 2.722216e+01 -2.164109e+01 -3.309852e+01 2.545761e+00 -8.496451e+00 4.768383e+00 1.369406e+00 6.848848e+00 1.268908e+02 2.930759e-01 -1.007347e+00 -9.172529e-01 3.759223e-01 7.813819e-01 -1.559775e+00 -1.136511e+00 1.238179e+00 1.310018e+00 3.437052e-01 -4.135395e-02 1.263938e-01 1.968374e-01 -1.254334e+00 1.198175e-01 1.778113e+00 -1.166546e-01 -1.900043e+00 3.397306e-03 1.661733e+00 5.134915e-01 -4.532880e-01 -1.828166e-01 7.694587e-03 6.133005e-02 7.925459e-02
<VARIANCE> 39
 7.261199e+01 1.711572e+02 4.490406e+02 3.134484e+02 3.687544e+02 9.200726e+02 1.018859e+03 4.323631e+02 3.252674e+02 4.056717e+02 2.653316e+02 2.151804e+02 1.681740e+02 9.813580e+00 9.031145e+00 3.669822e+01 2.202085e+01 2.660436e+01 3.344267e+01 2.822470e+01 2.868341e+01 2.289875e+01 2.009116e+01 1.686190e+01 1.529410e+01 7.207589e+00 1.400955e+00 1.747650e+00 2.062230e+00 2.386909e+00 2.811381e+00 5.731488e+00 4.559191e+00 4.246027e+00 3.570914e+00 3.418262e+00 3.079167e+00 2.764676e+00 9.380132e-01
<GCONST> 1.976948e+02
<STATE> 3
<MEAN> 39
 2.987720e+01 -2.358200e+01 5.853548e+00 8.943842e+00 1.649664e+01 -3.344373e+01 -2.158805e+01 1.540361e+01 -6.996906e+00 3.556966e+00 1.121510e+00 8.739257e+00 1.275642e+02 -3.817703e+00 -3.131978e-01 5.745335e+00 5.109855e-01 -5.195022e+00 -2.303046e-01 5.634923e+00 1.757869e+00 -1.827314e+00 -4.123897e-01 7.918375e-01 -2.684191e-01 -1.767416e-01 -8.803399e-01 9.124045e-01 5.386841e-01 -1.099193e+00 -6.664695e-01 2.001310e+00 1.058462e+00 -1.513697e+00 -6.549838e-01 6.199005e-01 1.217924e-01 -3.739355e-01 -4.386513e-01
<VARIANCE> 39
 9.440681e+01 1.969184e+02 6.114800e+02 3.448250e+02 3.861392e+02 8.487330e+02 1.086743e+03 4.135859e+02 4.459518e+02 4.468470e+02 2.610983e+02 2.299241e+02 2.658553e+02 1.295124e+01 1.118097e+01 3.200763e+01 2.338137e+01 2.821581e+01 3.309412e+01 3.173631e+01 3.136196e+01 3.309566e+01 2.510204e+01 2.104500e+01 1.758680e+01 1.321915e+01 1.714531e+00 2.260237e+00 2.306038e+00 2.501626e+00 3.211468e+00 6.162434e+00 4.895154e+00 4.807744e+00 4.032711e+00 3.489119e+00 2.882948e+00 2.716662e+00 1.046530e+00
<GCONST> 2.028223e+02
<STATE> 4
<MEAN> 39
 1.671974e+01 -2.139701e+01 1.492504e+01 7.473468e+00 4.175301e+00 -2.332581e+01 -2.999383e+00 1.442290e+01 -8.935788e+00 5.834538e+00 1.623719e+00 4.393677e+00 1.183207e+02 -3.826798e+00 1.359386e+00 3.582281e+00 -1.913217e+00 -3.469625e+00 3.106487e+00 3.507913e+00 -2.183648e+00 -1.122100e+00 1.052297e+00 -2.910215e-01 -1.123208e+00 -1.400728e+00 7.592672e-02 6.544927e-01 -5.934041e-01 -5.690470e-01 6.406265e-01 7.103522e-01 -7.950304e-01 -8.292964e-01 4.006199e-01 1.929863e-01 -3.457578e-01 6.350328e-03 -2.748827e-01
<VARIANCE> 39
 2.262944e+02 2.232568e+02 9.180514e+02 3.635857e+02 4.221379e+02 7.100894e+02 8.267650e+02 4.491291e+02 5.901175e+02 4.235102e+02 2.743825e+02 2.661569e+02 6.534864e+02 1.543792e+01 1.427140e+01 2.206396e+01 1.812830e+01 1.902883e+01 2.582442e+01 2.823902e+01 2.668251e+01 2.192479e+01 2.047794e+01 1.777645e+01 1.518113e+01 9.984948e+00 1.233106e+00 1.765418e+00 2.633142e+00 2.770078e+00 3.199848e+00 4.225908e+00 3.985392e+00 3.644516e+00 4.122152e+00 2.986803e+00 2.826885e+00 2.609332e+00 8.866724e-01
<GCONST> 2.014192e+02
<TRANSP> 5
 0.000000e+00 1.000000e+00 0.000000e+00 0.000000e+00 0.000000e+00
 0.000000e+00 7.356734e-01 2.643266e-01 0.000000e+00 0.000000e+00
 0.000000e+00 0.000000e+00 5.127903e-01 4.872097e-01 0.000000e+00
 0.000000e+00 0.000000e+00 0.000000e+00 6.113219e-01 3.886781e-01
 0.000000e+00 0.000000e+00 0.000000e+00 0.000000e+00 0.000000e+00
<ENDHMM>
~h "s"
<BEGINHMM>
<NUMSTATES> 5
<STATE> 2
<MEAN> 39
 -2.914865e+01 4.835023e+00 5.285087e+00 6.925619e+00 1.232246e+00 -6.025354e+00 -1.005954e+00 3.356436e+00 -3.396881e+00 2.123889e+00 -3.725450e+00 5.264172e+00 9.898770e+01 -8.017895e+00 1.478336e+00 -3.953320e+00 -1.018661e+00 -7.297856e-01 -3.327852e-01 4.287397e-01 9.832852e-01 -1.159261e-01 -4.035164e-01 5.202788e-01 1.452764e-01 1.180210e+00 3.965490e-01 -4.017645e-01 -6.162632e-01 -6.272236e-01 -3.481961e-01 -1.032855e-01 -4.274606e-01 -3.489468e-01 -2.958228e-01 2.062015e-01 8.714557e-03 -1.149622e-02 -7.254172e-02
<VARIANCE> 39
 5.305630e+02 2.312502e+02 3.639200e+02 2.897723e+02 3.684508e+02 3.438821e+02 2.989639e+02 2.618823e+02 2.460815e+02 2.057871e+02 2.003029e+02 1.917444e+02 5.605078e+02 5.730312e+01 2.444353e+01 4.280511e+01 3.737472e+01 2.959466e+01 3.490510e+01 3.045750e+01 2.847272e+01 3.018567e+01 2.446666e+01 2.292049e+01 2.164631e+01 3.293336e+01 8.976527e+00 4.749693e+00 5.623895e+00 5.448086e+00 5.374405e+00 5.598505e+00 5.175678e+00 5.258603e+00 4.820673e+00 4.390743e+00 4.188656e+00 3.791717e+00 3.922580e+00
<GCONST> 2.113970e+02
<STATE> 3
<MEAN> 39
 -5.025449e+01 7.629375e+00 -1.027745e+01 2.853438e+00 -4.765374e+00 -8.245600e+00 -2.187043e+00 4.039078e+00 -5.572126e+00 1.879650e+00 -3.114542e+00 5.960003e+00 1.040704e+02 -2.898376e+00 6.085721e-01 -2.923401e+00 -1.198284e+00 -7.324467e-01 2.341151e-01 -6.234377e-01 -4.544229e-01 -5.150695e-01 1.041133e-01 -1.217681e-01 4.663297e-02 6.035156e-01 2.151137e+00 -4.368564e-01 9.837375e-01 4.416831e-01 2.731651e-01 2.122195e-01 -1.011870e-01 -2.777348e-01 1.246128e-01 1.341665e-01 -1.724414e-01 -3.720994e-02 -3.614813e-01
<VARIANCE> 39
 1.799827e+02 1.561317e+02 1.955228e+02 2.665360e+02 3.488066e+02 2.929494e+02 1.942150e+02 1.754978e+02 1.669518e+02 1.520695e+02 1.584929e+02 1.262803e+02 2.347654e+02 2.835518e+01 1.427259e+01 1.984411e+01 1.558225e+01 1.694874e+01 1.869347e+01 1.811427e+01 1.628687e+01 1.494171e+01 1.454191e+01 1.338027e+01 1.247201e+01 1.489965e+01 3.445537e+00 2.374731e+00 3.521793e+00 3.016240e+00 3.277731e+00 3.622937e+00 3.517015e+00 3.465825e+00 3.299188e+00 3.050611e+00 2.914496e+00 2.728868e+00 2.216951e+00
<GCONST> 1.912590e+02
<STATE> 4
<MEAN> 39
 -4.819173e+01 4.845001e+00 -1.218542e+01 1.674819e+00 -5.479126e+00 -6.583212e+00 -4.045364e+00 3.733607e+00 -5.488542e+00 2.803602e+00 -4.116341e+00 5.403290e+00 1.022482e+02 9.834800e-01 -2.204273e-01 3.016264e-01 -1.351194e-01 -3.754717e-02 2.595057e-01 7.542016e-02 -1.486045e-01 9.124686e-02 5.306682e-02 -1.063946e-01 -4.567156e-02 -1.795551e-01 8.033583e-01 -4.719385e-02 6.679789e-01 1.512048e-01 5.155450e-02 -1.331481e-01 5.358314e-02 -3.496627e-02 1.137021e-01 -2.888026e-02 -6.538533e-03 5.548288e-02 3.588236e-02
<VARIANCE> 39
 2.886319e+02 1.439447e+02 1.964418e+02 2.423356e+02 3.083392e+02 2.757462e+02 1.764734e+02 1.581895e+02 1.589743e+02 1.449784e+02 1.526889e+02 1.346144e+02 3.340150e+02 1.100991e+01 6.735377e+00 8.988581e+00 8.537633e+00 1.019232e+01 1.213807e+01 1.228597e+01 1.208473e+01 1.178391e+01 1.179873e+01 1.128875e+01 1.068658e+01 8.839375e+00 2.441503e+00 1.340957e+00 2.114076e+00 1.701801e+00 1.921297e+00 2.416186e+00 2.458866e+00 2.381121e+00 2.349657e+00 2.373965e+00 2.234833e+00 2.197300e+00 1.243376e+00
<GCONST> 1.801260e+02
<TRANSP> 5
 0.000000e+00 1.000000e+00 0.000000e+00 0.000000e+00 0.000000e+00
 0.000000e+00 5.938882e-01 4.061117e-01 0.000000e+00 0.000000e+00
 0.000000e+00 0.000000e+00 5.327749e-01 4.672250e-01 0.000000e+00
 0.000000e+00 0.000000e+00 0.000000e+00 8.596349e-01 1.403650e-01
 0.000000e+00 0.000000e+00 0.000000e+00 0.000000e+00 0.000000e+00
<ENDHMM>
~h "t"
<BEGINHMM>
<NUMSTATES> 5
<STATE> 2
<MEAN> 39
 -1.693501e+01 8.229661e+00 1.385829e+01 1.025602e+01 2.128106e+00 6.400011e-01 -2.472888e+00 -1.400845e+00 -3.902658e+00 1.545258e+00 -1.111406e+00 2.112944e+00 6.406513e+01 -3.334425e+00 -1.218891e+00 -4.442691e+00 -2.082085e+00 -2.194730e-01 -6.899601e-01 -4.342188e-01 3.461072e-01 5.840549e-01 -2.307875e-02 9.802060e-01 1.367877e-01 -3.994124e-01 -1.584946e-01 -5.501126e-01 9.448861e-01 -1.178814e+00 -5.953820e-01 -5.154583e-01 6.872755e-02 -4.135656e-01 -5.648963e-01 1.121270e-01 -3.182817e-01 2.213638e-01 3.223071e+00
<VARIANCE> 39
 2.365021e+02 2.065825e+02 3.530188e+02 2.493816e+02 1.801488e+02 1.948165e+02 2.212636e+02 2.068097e+02 1.891910e+02 1.594586e+02 1.443418e+02 1.278994e+02 5.283209e+02 2.049866e+01 3.137776e+01 4.736274e+01 3.704721e+01 2.526933e+01 2.699433e+01 2.749606e+01 2.912308e+01 3.209069e+01 2.203466e+01 2.085224e+01 1.825379e+01 1.404122e+02 3.378728e+00 6.226411e+00 6.790318e+00 6.687068e+00 4.784200e+00 4.805002e+00 5.133429e+00 5.095575e+00 5.557697e+00 4.088265e+00 3.780901e+00 3.439957e+00 1.524051e+01
<GCONST> 2.077327e+02
<STATE> 3
<MEAN> 39
 -3.399759e+01 9.783214e-01 6.407747e+00 -9.375156e+00 -4.884102e+00 -8.751853e+00 -2.098672e+00 -4.519688e+00 -1.021272e+01 2.062392e+00 -6.254333e-01 4.358628e+00 1.039742e+02 -3.191959e+00 1.570335e-01 1.213745e+00 -1.383914e+00 -2.149075e+00 -2.269704e+00 1.657104e+00 3.603951e-01 -1.341265e+00 1.799190e-02 -3.452355e-01 1.527580e+00 8.897169e+00 1.315373e+00 2.853507e-01 1.246721e+00 1.721478e+00 -6.210985e-02 3.573913e-01 4.898900e-01 4.236139e-01 5.068604e-01 4.571351e-02 -2.580396e-01 1.419217e-01 -2.679873e+00
<VARIANCE> 39
 2.489631e+02 2.161644e+02 2.181213e+02 2.188131e+02 1.934206e+02 2.004350e+02 2.132894e+02 2.074221e+02 1.902894e+02 1.666349e+02 1.526990e+02 1.354171e+02 9.990215e+02 2.703946e+01 2.220282e+01 2.614693e+01 2.485609e+01 2.043349e+01 2.490436e+01 2.565339e+01 2.361514e+01 2.277951e+01 1.974642e+01 2.013572e+01 1.670113e+01 1.086254e+02 5.622661e+00 5.126696e+00 4.394819e+00 5.164355e+00 4.350460e+00 4.363485e+00 4.396472e+00 4.097967e+00 4.448801e+00 3.833251e+00 3.640777e+00 3.406215e+00 2.148666e+01
<GCONST> 2.046823e+02
<STATE> 4
<MEAN> 39
 -3.080131e+01 -1.547094e+00 1.389287e+01 -3.135991e+00 -1.122384e+01 -1.137031e+01 6.786227e+00 1.571896e-02 -8.782081e+00 9.543619e-01 -1.753259e+00 8.916557e+00 1.019526e+02 3.753409e+00 -1.050375e+00 2.697516e+00 2.089679e+00 -1.343205e-01 9.592400e-02 8.593607e-01 1.246504e+00 8.948860e-01 -9.962302e-02 -8.367617e-01 2.248201e-01 -1.087297e+00 1.540695e+00 7.783547e-02 4.268576e-01 3.233809e-01 7.227702e-01 2.580796e-01 -5.709998e-01 -1.561837e-01 1.046533e-01 1.376738e-01 -1.033003e-01 -4.170079e-01 -3.709298e-01
<VARIANCE> 39
 3.377751e+02 1.403969e+02 2.260946e+02 1.954118e+02 1.915360e+02 2.624129e+02 2.636803e+02 3.056014e+02 2.208524e+02 1.978703e+02 2.253338e+02 1.789516e+02 6.422934e+02 3.143001e+01 1.310942e+01 2.948742e+01 1.997441e+01 1.670157e+01 1.846384e+01 1.799785e+01 1.898614e+01 1.773354e+01 1.666784e+01 1.635786e+01 1.494386e+01 2.658282e+01 6.211665e+00 2.820118e+00 3.538073e+00 3.202041e+00 3.235034e+00 4.331390e+00 3.691552e+00 3.722848e+00 3.745629e+00 3.480340e+00 3.521927e+00 3.022364e+00 6.645359e+00
<GCONST> 1.988277e+02
<TRANSP> 5
 0.000000e+00 1.000000e+00 0.000000e+00 0.000000e+00 0.000000e+00
 0.000000e+00 8.081510e-01 1.918490e-01 0.000000e+00 0.000000e+00
 0.000000e+00 0.000000e+00 6.252321e-01 3.747679e-01 0.000000e+00
 0.000000e+00 0.000000e+00 0.000000e+00 6.781431e-01 3.218569e-01
 0.000000e+00 0.000000e+00 0.000000e+00 0.000000e+00 0.000000e+00
<ENDHMM>
~h "v"
<BEGINHMM>
<NUMSTATES> 5
<STATE> 2
<MEAN> 39
 1.313743e+01 -2.659126e+01 1.697713e+01 -1.816572e+01 -1.120597e+01 -2.118880e+01 -1.692255e+00 1.215176e+01 1.360085e+01 1.361135e+01 -1.965385e+00 7.005925e+00 1.458966e+02 7.919190e-01 6.432183e-01 1.278233e-01 1.410788e+00 1.217268e+00 4.462399e-01 -6.665815e-01 -9.766296e-01 -7.284657e-01 5.971893e-01 2.202676e-01 -7.716965e-01 -2.013900e+00 -3.011137e-01 1.155132e+00 -6.859945e-02 1.399695e+00 1.081037e+00 1.054276e+00 -4.027420e-01 -8.720174e-01 -8.171967e-01 -2.891017e-01 -1.416053e-01 -1.190144e-01 -1.597364e+00
<VARIANCE> 39
 7.613229e+01 1.524264e+02 2.299288e+02 2.301739e+02 2.576192e+02 2.568522e+02 8.463481e+02 2.775252e+02 2.962334e+02 4.299507e+02 3.203240e+02 3.810901e+02 1.932637e+02 2.685033e+00 1.223366e+01 8.710898e+00 1.524568e+01 1.152862e+01 1.209907e+01 1.706606e+01 1.608517e+01 1.515527e+01 1.113774e+01 1.504689e+01 1.229750e+01 1.142273e+01 1.366863e+00 1.030445e+00 1.493877e+00 1.771458e+00 2.243171e+00 3.190243e+00 3.704314e+00 2.205546e+00 2.648831e+00 2.197005e+00 2.131057e+00 2.118447e+00 1.110789e+00
<GCONST> 1.845873e+02
<STATE> 3
<MEAN> 39
 1.746152e+01 -1.596028e+01 1.911954e+01 -1.488473e+00 -1.843856e+00 -1.719871e+01 -9.190807e+00 2.789785e+00 3.813392e+00 1.535415e+01 -1.508941e+00 2.659144e+00 1.266906e+02 -1.934639e+00 5.597009e+00 6.255922e-01 6.935485e+00 5.345200e+00 5.662747e+00 -3.882698e-01 -2.734547e+00 -3.223087e+00 -9.841475e-01 2.582712e-01 -4.917158e-01 -8.694294e+00 -1.826651e+00 6.202005e-02 -5.138866e-01 -1.499322e-01 1.644165e-01 1.383266e+00 1.260673e+00 8.325377e-01 1.303781e-01 -6.034450e-01 6.975887e-03 8.260738e-02 -5.056911e-01
<VARIANCE> 39
 7.912977e+01 2.027679e+02 2.391659e+02 3.222830e+02 2.770520e+02 3.240077e+02 5.315468e+02 2.995020e+02 4.101328e+02 3.543745e+02 3.537468e+02 3.287718e+02 3.421955e+02 1.927317e+01 1.738183e+01 1.692649e+01 2.329430e+01 2.232335e+01 2.479979e+01 3.394872e+01 2.279037e+01 2.560132e+01 2.285364e+01 2.371301e+01 1.971533e+01 1.606115e+01 2.790861e+00 3.100770e+00 2.494244e+00 4.412937e+00 4.137982e+00 4.923417e+00 4.098559e+00 3.816376e+00 4.954708e+00 3.348245e+00 3.743844e+00 2.992846e+00 3.260918e+00
<GCONST> 2.021643e+02
<STATE> 4
<MEAN> 39
 -4.653299e+00 -7.541403e+00 1.164936e+01 7.482169e+00 3.737329e+00 -2.794890e+00 -1.412368e+00 5.024806e+00 1.514638e+00 7.132740e+00 -3.192812e+00 3.533843e+00 9.838561e+01 -1.763276e+00 3.843291e-01 -9.139895e-01 -6.344344e-02 1.598727e-01 9.048509e-01 4.514950e-01 2.930098e-01 -5.408977e-01 -9.150264e-01 9.093106e-02 8.686163e-03 -2.153134e+00 4.300099e-01 -6.256160e-01 -7.418060e-02 -9.617835e-01 -7.421051e-01 -8.330668e-01 1.620400e-02 2.637471e-01 2.835558e-01 1.654952e-02 -5.608329e-03 1.196304e-01 1.025200e+00
<VARIANCE> 39
 4.220997e+02 1.867783e+02 1.999667e+02 2.432453e+02 2.172374e+02 2.534871e+02 2.850889e+02 2.552187e+02 2.607435e+02 2.568472e+02 2.318877e+02 2.128266e+02 4.796981e+02 3.502910e+01 2.135172e+01 1.515546e+01 2.780466e+01 2.478350e+01 3.406337e+01 2.503395e+01 2.230875e+01 2.440276e+01 1.887864e+01 1.920575e+01 1.575242e+01 2.967845e+01 4.684176e+00 4.347370e+00 3.028364e+00 6.028730e+00 5.101877e+00 6.051677e+00 4.699106e+00 4.389556e+00 4.410212e+00 3.565555e+00 3.504445e+00 3.032697e+00 5.346301e+00
<GCONST> 2.040776e+02
<TRANSP> 5
 0.000000e+00 1.000000e+00 0.000000e+00 0.000000e+00 0.000000e+00
 0.000000e+00 7.657774e-01 2.342226e-01 0.000000e+00 0.000000e+00
 0.000000e+00 0.000000e+00 4.223487e-01 5.776513e-01 0.000000e+00
 0.000000e+00 0.000000e+00 0.000000e+00 7.793469e-01 2.206531e-01
 0.000000e+00 0.000000e+00 0.000000e+00 0.000000e+00 0.000000e+00
<ENDHMM>
~h "w"
<BEGINHMM>
<NUMSTATES> 5
<STATE> 2
<MEAN> 39
 3.335073e+01 1.092615e+01 1.927660e+01 -3.456485e+01 -2.192150e+01 -2.085069e+00 -2.075126e+00 1.449819e+01 -5.713119e+00 1.389974e+01 1.004962e+00 3.040738e-02 1.195875e+02 -3.509526e-01 -3.965897e+00 -3.240869e+00 -6.124254e+00 1.600077e+00 2.250273e+00 1.427033e+00 4.391123e+00 4.143504e-01 -1.389525e+00 1.104947e+00 1.943823e-01 4.209574e+00 -5.863278e-01 -6.815577e-01 -7.759198e-01 8.846055e-01 1.924436e+00 1.462775e+00 4.289300e-01 -4.402397e-01 -4.182066e-01 -8.261675e-01 3.022038e-01 2.215856e-01 -1.603681e-01
<VARIANCE> 39
 4.489260e+01 1.789866e+02 2.470631e+02 3.214393e+02 4.055318e+02 2.781518e+02 5.876805e+02 3.849530e+02 4.428214e+02 3.939216e+02 3.352622e+02 2.960104e+02 1.089005e+02 2.359401e+00 1.150495e+01 9.706409e+00 1.596395e+01 2.089434e+01 1.995377e+01 2.186294e+01 2.154621e+01 2.093999e+01 2.049420e+01 1.677568e+01 1.752213e+01 5.901451e+00 6.806785e-01 1.301614e+00 1.467635e+00 3.505826e+00 2.649206e+00 2.754154e+00 4.155230e+00 4.521546e+00 3.757891e+00 3.564920e+00 3.327697e+00 2.996495e+00 7.339068e-01
<GCONST> 1.892545e+02
<STATE> 3
<MEAN> 39
 2.938269e+01 -6.261419e+00 2.953968e+00 -4.791645e+01 -2.546737e+00 1.554269e+01 4.236297e+00 2.211618e+01 -1.029827e+01 3.260842e+00 8.713563e+00 4.659170e+00 1.328003e+02 -1.519869e+00 -4.680781e+00 -2.885960e+00 4.970100e-01 6.596424e+00 3.740252e+00 -1.537964e+00 -1.797309e+00 -9.811702e-01 -5.226914e-01 3.365389e+00 5.133800e-01 2.817663e+00 -1.748859e-01 2.738394e-01 8.513595e-01 2.073921e+00 -5.929983e-02 -1.152738e+00 -1.468935e+00 -1.088455e+00 8.646676e-01 1.142287e+00 -2.031478e-01 -6.632749e-01 -5.343333e-01
<VARIANCE> 39
 4.922219e+01 1.719913e+02 2.432589e+02 2.895797e+02 6.431378e+02 3.175578e+02 5.672590e+02 4.290081e+02 4.127888e+02 4.346866e+02 3.363900e+02 2.931597e+02 1.266617e+02 1.964187e+00 6.877573e+00 6.257878e+00 1.591979e+01 1.254447e+01 1.472465e+01 2.444998e+01 2.170398e+01 2.191884e+01 2.364881e+01 1.709423e+01 2.011473e+01 3.181493e+00 2.700248e-01 7.639631e-01 1.086783e+00 2.045880e+00 3.093283e+00 3.047703e+00 2.905660e+00 4.033424e+00 4.117246e+00 3.743262e+00 4.182412e+00 3.267160e+00 3.079052e-01
<GCONST> 1.849943e+02
<STATE> 4
<MEAN> 39
 2.013647e+01 -2.407565e+01 1.316894e+00 -2.668101e+01 1.978003e+01 9.004936e+00 -1.077795e+01 1.725340e+01 1.951280e+00 9.149660e+00 9.983229e+00 -1.517269e+00 1.396260e+02 -1.269769e+00 -1.292815e+00 2.128292e+00 4.382802e+00 -2.872607e-01 -3.460263e+00 -1.525365e+00 8.703459e-01 2.289024e+00 4.409066e-01 -2.346779e+00 -2.538594e-01 1.578721e-01 1.709733e-01 9.452463e-01 8.323923e-01 1.846771e-01 -1.088921e+00 -5.471923e-01 1.087554e+00 2.132949e-01 -4.827868e-01 -3.302132e-01 -7.468480e-01 5.798540e-01 -7.324821e-01
<VARIANCE> 39
 7.006517e+01 1.512758e+02 2.130976e+02 3.441576e+02 4.419979e+02 4.320747e+02 4.955341e+02 4.630684e+02 4.487956e+02 3.888239e+02 3.908779e+02 3.316826e+02 1.519876e+02 1.749586e+00 6.677919e+00 7.562523e+00 1.074045e+01 1.854098e+01 1.342186e+01 2.184820e+01 1.922489e+01 2.019807e+01 2.376740e+01 1.964347e+01 2.181319e+01 2.791525e+00 2.599180e-01 8.010829e-01 9.748898e-01 1.558464e+00 2.355720e+00 2.805863e+00 3.374938e+00 3.855504e+00 3.872736e+00 3.118902e+00 4.231887e+00 3.442062e+00 4.438992e-01
<GCONST> 1.848529e+02
<TRANSP> 5
 0.000000e+00 1.000000e+00 0.000000e+00 0.000000e+00 0.000000e+00
 0.000000e+00 6.909296e-01 3.090704e-01 0.000000e+00 0.000000e+00
 0.000000e+00 0.000000e+00 7.527235e-01 2.472766e-01 0.000000e+00
 0.000000e+00 0.000000e+00 0.000000e+00 8.482348e-01 1.517652e-01
 0.000000e+00 0.000000e+00 0.000000e+00 0.000000e+00 0.000000e+00
<ENDHMM>
~h "z"
<BEGINHMM>
<NUMSTATES> 5
<STATE> 2
<MEAN> 39
 -1.187622e+01 1.201170e+01 1.599473e+01 1.569782e+01 5.141382e+00 -3.241021e+00 -1.613539e+00 2.847931e+00 -1.146822e+00 2.157599e+00 -6.434810e+00 5.513075e+00 8.712678e+01 -2.409099e+00 4.145716e+00 -3.101954e-01 2.252420e+00 1.922405e+00 7.774470e-01 5.499800e-01 9.083614e-01 4.618248e-01 5.970436e-02 2.122387e-02 2.628451e-01 2.275900e+00 -5.581815e-01 1.816027e-01 -3.537355e-01 -2.226214e-01 -1.505649e-03 1.244448e-01 6.403641e-02 3.448166e-02 -1.354735e-01 2.091416e-01 1.873009e-01 -7.842531e-02 3.768269e-01
<VARIANCE> 39
 3.444419e+02 2.320094e+02 3.508704e+02 2.955672e+02 3.101984e+02 2.876527e+02 2.822636e+02 2.603617e+02 2.363233e+02 2.483921e+02 2.519577e+02 3.044804e+02 7.285563e+02 4.143825e+01 2.480151e+01 3.256250e+01 2.821311e+01 2.373754e+01 2.794937e+01 2.425877e+01 2.420365e+01 2.215470e+01 2.288870e+01 2.142677e+01 1.919846e+01 3.169097e+01 4.376142e+00 3.432173e+00 4.545265e+00 3.622363e+00 3.722036e+00 4.242128e+00 4.173667e+00 4.313310e+00 3.713944e+00 4.146079e+00 3.738045e+00 3.662905e+00 3.522122e+00
<GCONST> 2.060438e+02
<STATE> 3
<MEAN> 39
 -2.945783e+01 3.262911e+01 1.121741e+01 2.592724e+01 1.413271e+01 3.221323e+00 2.603606e+00 6.733575e+00 -5.414902e-01 5.353907e+00 -4.950753e+00 6.719749e+00 1.074736e+02 -3.921329e+00 1.162436e+00 -1.613873e+00 4.730372e-02 3.445798e-01 8.628066e-01 6.567751e-01 4.170625e-01 -2.241247e-01 2.920429e-01 4.609650e-01 -7.120055e-02 1.570424e+00 1.276186e+00 -1.312308e+00 8.537688e-01 -6.458036e-01 -8.456230e-01 -6.187469e-01 -2.768892e-01 -6.132582e-01 -3.375676e-01 -2.343355e-01 -1.780751e-01 7.715292e-02 2.191466e-01
<VARIANCE> 39
 2.936689e+02 1.785196e+02 2.641143e+02 3.880679e+02 4.042665e+02 3.547404e+02 2.449678e+02 2.331831e+02 1.642160e+02 1.746248e+02 2.597971e+02 2.059907e+02 1.875732e+02 2.549902e+01 2.205073e+01 2.124015e+01 1.769260e+01 1.767493e+01 2.055293e+01 1.772273e+01 1.859644e+01 1.444164e+01 1.565318e+01 1.380259e+01 1.409538e+01 1.610591e+01 4.057702e+00 3.520128e+00 3.827064e+00 3.269416e+00 3.425358e+00 4.205427e+00 3.747415e+00 3.884355e+00 2.961745e+00 3.169998e+00 2.792228e+00 2.764077e+00 2.078218e+00
<GCONST> 1.962648e+02
<STATE> 4
<MEAN> 39
 -2.905409e+01 2.460419e+01 1.814475e+01 1.747183e+01 8.908835e+00 -4.330096e+00 -2.034850e+00 -4.912471e-02 -6.015402e+00 2.344666e+00 -7.591858e+00 5.080142e+00 1.211359e+02 6.484774e+00 -4.602262e+00 6.596471e+00 -1.618728e+00 -3.117105e+00 -3.186589e+00 -2.316974e+00 -2.540963e+00 -1.740276e+00 -1.299220e+00 -9.280633e-01 4.957237e-01 4.150661e+00 1.530055e+00 -1.543869e+00 1.522809e+00 -6.602007e-01 -2.977472e-01 -3.343187e-01 -4.232037e-01 3.400504e-02 -1.687059e-01 9.127266e-02 -7.093758e-04 1.778070e-01 1.736884e-01
<VARIANCE> 39
 2.975886e+02 1.920880e+02 3.506533e+02 3.235085e+02 4.840413e+02 3.285170e+02 2.906879e+02 2.025045e+02 1.487071e+02 1.692272e+02 2.942684e+02 2.260367e+02 1.656066e+02 3.305290e+01 2.769965e+01 4.036485e+01 2.655307e+01 1.943630e+01 2.525037e+01 2.279333e+01 2.866178e+01 1.767150e+01 1.578552e+01 1.558455e+01 1.780273e+01 6.475641e+00 5.037158e+00 3.310099e+00 5.120742e+00 4.471614e+00 3.933811e+00 4.307312e+00 4.102508e+00 4.433390e+00 3.279244e+00 3.417797e+00 3.224486e+00 2.957529e+00 1.065548e+00
<GCONST> 1.995878e+02
<TRANSP> 5
 0.000000e+00 1.000000e+00 0.000000e+00 0.000000e+00 0.000000e+00
 0.000000e+00 7.273308e-01 2.726692e-01 0.000000e+00 0.000000e+00
 0.000000e+00 0.000000e+00 7.950842e-01 2.049158e-01 0.000000e+00
 0.000000e+00 0.000000e+00 0.000000e+00 7.814499e-01 2.185501e-01
 0.000000e+00 0.000000e+00 0.000000e+00 0.000000e+00 0.000000e+00
<ENDHMM>
~h "ah"
<BEGINHMM>
<NUMSTATES> 5
<STATE> 2
<MEAN> 39
 1.768162e+01 -1.740514e+01 1.862783e+01 -6.067162e+00 8.618942e+00 -6.161491e+00 -1.352948e+01 7.094808e+00 -2.493863e+00 1.426781e+01 2.352044e+00 9.547401e-01 1.301362e+02 5.134600e-02 1.499896e+00 2.469117e+00 2.075511e+00 -8.040988e-01 -8.044118e-01 2.350133e+00 3.042969e-01 -7.349702e-01 -7.278007e-01 -1.756298e+00 1.188640e+00 -1.557373e+00 3.704759e-02 5.857698e-01 3.200037e-01 5.271819e-01 -5.128092e-01 5.910780e-01 1.005219e+00 -8.698538e-01 -4.575980e-03 -5.027399e-02 -4.176942e-01 3.196835e-01 -5.131373e-01
<VARIANCE> 39
 7.021111e+01 1.616527e+02 1.716034e+02 2.805322e+02 2.485459e+02 4.115452e+02 5.489888e+02 4.791291e+02 5.541277e+02 4.454601e+02 4.093115e+02 3.388555e+02 2.313324e+02 4.725904e+00 1.699433e+01 1.301305e+01 4.056572e+01 2.353169e+01 3.412032e+01 3.446368e+01 3.457396e+01 3.655713e+01 2.897494e+01 3.010762e+01 2.227990e+01 3.048803e+01 1.029384e+00 3.509274e+00 1.887680e+00 6.944694e+00 4.212201e+00 8.237659e+00 7.702999e+00 7.817751e+00 7.125760e+00 5.086451e+00 4.531356e+00 3.694546e+00 6.281184e+00
<GCONST> 2.065773e+02
<STATE> 3
<MEAN> 39
 1.795208e+01 -9.219245e+00 2.874928e+01 4.913815e+00 2.903366e+00 -9.621587e+00 4.500161e+00 7.019845e+00 -2.241097e+00 9.025140e+00 -9.160788e+00 1.014005e+01 1.219255e+02 5.695320e-01 4.463415e+00 3.685870e+00 5.577785e+00 -2.841003e+00 3.103620e+00 6.082788e+00 -6.167431e+00 -1.244807e+00 -8.637974e-01 -1.975570e+00 2.341521e+00 -5.013030e+00 -1.113527e-03 1.081514e-01 -5.907459e-01 -3.626239e-01 -5.447626e-02 1.220295e+00 -2.880281e-01 -7.640486e-01 5.379165e-01 -4.584933e-02 7.096921e-01 -2.466892e-01 -1.137966e-01
<VARIANCE> 39
 5.515800e+01 1.477851e+02 2.038735e+02 3.190481e+02 2.609880e+02 4.560633e+02 5.691703e+02 5.229578e+02 4.725108e+02 5.380248e+02 4.147274e+02 4.279104e+02 1.579309e+02 5.093776e+00 1.094611e+01 1.652080e+01 2.830142e+01 2.157453e+01 4.291440e+01 4.812613e+01 5.270401e+01 3.588039e+01 2.859181e+01 3.343656e+01 2.673706e+01 1.059034e+01 6.987815e-01 1.788628e+00 2.598748e+00 5.229174e+00 3.179715e+00 5.891492e+00 6.001853e+00 7.959984e+00 5.128796e+00 4.170289e+00 4.065213e+00 3.799863e+00 2.241267e+00
<GCONST> 2.028146e+02
<STATE> 4
<MEAN> 39
 1.944115e+01 2.611534e+00 3.542721e+01 1.550022e+01 -5.209880e+00 5.182097e+00 1.717701e+01 -1.027753e+01 -1.325716e+00 4.158839e+00 -8.776661e+00 1.584430e+01 1.094687e+02 -1.505409e-01 2.632508e+00 8.132395e-01 2.049110e+00 -6.853090e-01 2.680083e+00 1.867215e+00 -2.051490e+00 6.387051e-02 -5.582455e-01 -1.617453e-01 1.116908e-01 -3.079174e+00 -5.093591e-01 -5.526892e-01 -8.979416e-01 -8.529559e-01 8.685036e-01 -5.935769e-01 -1.024793e+00 1.761491e+00 1.368162e-01 1.362677e-01 3.352984e-01 -7.104366e-01 3.905909e-01
<VARIANCE> 39
 5.072757e+01 1.648067e+02 1.401885e+02 2.549429e+02 2.585561e+02 4.400073e+02 5.058364e+02 4.327015e+02 5.420887e+02 6.218407e+02 5.821774e+02 5.164362e+02 1.497479e+02 3.690329e+00 7.593777e+00 1.032195e+01 1.327812e+01 1.387715e+01 2.349979e+01 2.514921e+01 3.058990e+01 1.852280e+01 1.640174e+01 1.854593e+01 1.744775e+01 5.268923e+00 8.492859e-01 1.558414e+00 1.940370e+00 3.206435e+00 2.765142e+00 4.326812e+00 5.073014e+00 5.012888e+00 4.335636e+00 3.644739e+00 4.253262e+00 3.825327e+00 1.247426e+00
<GCONST> 1.929221e+02
<TRANSP> 5
 0.000000e+00 1.000000e+00 0.000000e+00 0.000000e+00 0.000000e+00
 0.000000e+00 7.411674e-01 2.588326e-01 0.000000e+00 0.000000e+00
 0.000000e+00 0.000000e+00 5.062984e-01 4.937016e-01 0.000000e+00
 0.000000e+00 0.000000e+00 0.000000e+00 7.243610e-01 2.756390e-01
 0.000000e+00 0.000000e+00 0.000000e+00 0.000000e+00 0.000000e+00
<ENDHMM>
~h "ao"
<BEGINHMM>
<NUMSTATES> 5
<STATE> 2
<MEAN> 39
 2.854584e+01 1.136127e+01 1.090025e+01 -3.282439e+01 -1.439725e+01 1.337689e+00 1.458980e+00 5.398324e+00 -1.093413e+01 4.724543e+00 -8.490171e+00 4.378840e+00 1.166882e+02 1.091594e+01 5.890822e+00 4.526071e+00 -1.053024e+01 -6.104779e+00 -1.292011e+00 -1.517835e-01 2.751947e+00 -1.570229e+00 1.003700e+00 -1.848480e+00 -1.043498e+00 3.997514e+00 -3.602046e+00 -1.759877e+00 -6.611291e-01 1.407534e+00 6.131165e-02 -3.665391e-01 -1.105239e+00 -1.920050e-01 7.604302e-02 2.648005e-01 3.135535e-01 -3.677143e-01 -6.610582e-01
<VARIANCE> 39
 1.942983e+02 1.594413e+02 1.696008e+02 5.525569e+02 3.862832e+02 2.333524e+02 2.673320e+02 2.546138e+02 2.364366e+02 2.034662e+02 1.944833e+02 2.670057e+02 1.768065e+02 4.020486e+01 2.408704e+01 2.335844e+01 3.694305e+01 3.634043e+01 2.595866e+01 3.648682e+01 3.123140e+01 3.078383e+01 2.908642e+01 2.490994e+01 3.424537e+01 1.256137e+01 4.096480e+00 2.828229e+00 2.475094e+00 7.627226e+00 4.392628e+00 2.557513e+00 3.044027e+00 3.269739e+00 3.229750e+00 2.657203e+00 2.676466e+00 3.255996e+00 2.558210e+00
<GCONST> 2.017766e+02
<STATE> 3
<MEAN> 39
 3.561385e+01 1.691483e+01 1.743196e+01 -4.679720e+01 -2.743773e+01 -2.511086e+00 -3.164531e+00 9.456231e+00 -1.200513e+01 1.090084e+01 -1.041181e+01 -4.705139e-01 1.210786e+02 3.394287e-01 -3.982605e-01 -5.199174e-01 8.180045e-02 -6.693491e-01 -5.601304e-01 5.324898e-01 5.220636e-01 -9.090324e-01 2.221665e-01 4.289330e-01 -1.465995e-03 2.671337e-01 -6.263509e-01 -8.564119e-01 -8.540717e-01 1.071363e+00 9.010772e-01 1.077714e-01 3.310050e-01 -2.170477e-01 -2.865685e-01 -2.819207e-01 4.614193e-01 4.440829e-01 -1.026444e-01
<VARIANCE> 39
 5.274332e+01 1.582100e+02 2.430493e+02 3.016412e+02 4.642638e+02 3.345736e+02 4.710237e+02 3.319975e+02 3.603049e+02 3.439355e+02 2.899332e+02 3.675283e+02 1.348368e+02 1.975522e+00 8.298118e+00 8.079163e+00 8.854807e+00 8.275262e+00 8.116822e+00 1.348173e+01 1.162970e+01 1.326720e+01 1.104536e+01 1.002727e+01 9.787302e+00 3.591450e+00 1.911758e+00 1.059397e+00 1.184783e+00 2.598339e+00 1.898550e+00 1.581082e+00 2.148635e+00 2.216819e+00 2.438397e+00 2.230780e+00 2.251976e+00 2.339670e+00 7.974641e-01
<GCONST> 1.788313e+02
<STATE> 4
<MEAN> 39
 3.745105e+01 -2.244323e+00 -8.087681e+00 -2.930057e+01 -5.673706e+00 -8.339894e+00 -4.894846e+00 1.440382e+01 -2.165981e+01 5.867146e+00 3.007652e+00 1.000229e+01 1.262848e+02 1.622299e-02 -2.908329e+00 -3.551216e+00 3.429686e+00 5.301451e+00 -1.171707e+00 -2.053274e+00 -4.922397e-01 7.128430e-01 4.220577e-01 1.525681e+00 1.306414e+00 3.507604e-01 -1.954443e-01 2.216218e-01 4.944716e-01 4.199080e-01 1.854215e-01 -2.366667e-01 -5.706823e-01 -6.133329e-02 9.749425e-01 2.241282e-01 -4.006709e-01 -4.731126e-01 -3.588771e-01
<VARIANCE> 39
 6.001323e+01 2.721144e+02 3.749705e+02 3.492015e+02 7.577729e+02 4.886579e+02 8.805201e+02 6.338934e+02 5.315050e+02 6.887313e+02 3.914810e+02 4.017420e+02 1.782889e+02 1.865916e+00 8.631598e+00 1.253765e+01 1.387005e+01 1.920180e+01 2.047542e+01 2.222647e+01 2.459815e+01 2.614227e+01 3.164417e+01 2.608220e+01 3.180246e+01 3.762461e+00 3.498393e-01 9.903711e-01 1.697564e+00 1.520174e+00 2.838349e+00 2.776383e+00 3.492645e+00 4.124090e+00 3.921780e+00 5.081143e+00 4.182087e+00 4.714697e+00 3.713645e-01
<GCONST> 1.937574e+02
<TRANSP> 5
 0.000000e+00 1.000000e+00 0.000000e+00 0.000000e+00 0.000000e+00
 0.000000e+00 6.009979e-01 3.990021e-01 0.000000e+00 0.000000e+00
 0.000000e+00 0.000000e+00 8.649613e-01 1.350387e-01 0.000000e+00
 0.000000e+00 0.000000e+00 0.000000e+00 8.722454e-01 1.277546e-01
 0.000000e+00 0.000000e+00 0.000000e+00 0.000000e+00 0.000000e+00
<ENDHMM>
~h "ay"
<BEGINHMM>
<NUMSTATES> 5
<STATE> 2
<MEAN> 39
 1.784855e+01 -3.221136e+01 -8.884172e-01 -2.439213e+01 9.746979e+00 6.950511e+00 -4.946457e+00 1.327852e+01 7.794719e+00 1.197903e+01 1.099085e+00 -1.618514e+00 1.461250e+02 -4.520982e-01 -1.823629e+00 -2.144510e+00 -1.273558e-01 2.285273e+00 2.400176e+00 -8.506636e-01 -1.807455e-01 9.469044e-01 -6.843449e-01 3.254535e-01 -1.440572e+00 9.013568e-01 -1.409562e-01 1.080567e+00 9.272115e-01 1.137567e+00 -3.120241e-01 -3.345386e-01 5.227645e-02 -5.367303e-01 -5.368754e-01 -9.286508e-02 -1.566510e-01 1.827160e-01 -1.281880e+00
<VARIANCE> 39
 7.847468e+01 1.558801e+02 2.790489e+02 3.713084e+02 4.241882e+02 3.644500e+02 4.267445e+02 4.358834e+02 3.985426e+02 4.186160e+02 4.653055e+02 3.591783e+02 1.171176e+02 2.585688e+00 4.850950e+00 7.517638e+00 9.906044e+00 1.002701e+01 1.100260e+01 1.615675e+01 1.179991e+01 1.324252e+01 1.324331e+01 1.501699e+01 1.317227e+01 2.451589e+00 9.499007e-01 1.043636e+00 1.117927e+00 2.208200e+00 1.910249e+00 2.148513e+00 3.104996e+00 3.122107e+00 2.634964e+00 2.286899e+00 2.499854e+00 1.833002e+00 1.107307e+00
<GCONST> 1.816772e+02
<STATE> 3
<MEAN> 39
 1.643758e+01 -3.603012e+01 -2.595167e+00 -2.177677e+01 1.387437e+01 9.908254e+00 -7.306398e+00 1.330335e+01 9.213306e+00 1.028802e+01 -8.051497e-01 -4.511459e+00 1.460045e+02 -2.180330e-01 -3.215112e-01 6.173384e-01 9.523380e-01 -2.368533e-01 -9.561257e-01 -9.922250e-02 7.149338e-01 3.367436e-01 -4.617412e-01 -4.437119e-01 5.845413e-02 -1.431724e-01 -9.453441e-03 1.739380e-01 3.806507e-01 1.035153e-01 -4.288583e-01 -4.571928e-01 2.167368e-01 1.613594e-01 -9.271280e-02 -4.231572e-02 -3.354435e-02 2.492755e-01 -9.093371e-02
<VARIANCE> 39
 7.315724e+01 1.605940e+02 2.250503e+02 3.674848e+02 4.732137e+02 3.463631e+02 3.642306e+02 4.299420e+02 3.629182e+02 3.620042e+02 4.096593e+02 3.936764e+02 1.425868e+02 8.285376e-01 1.618626e+00 3.057667e+00 3.528035e+00 4.933514e+00 6.603583e+00 5.897712e+00 4.866309e+00 4.791979e+00 5.000222e+00 5.368562e+00 5.292274e+00 7.211294e-01 1.341662e-01 2.677903e-01 3.621081e-01 4.646493e-01 6.037661e-01 6.602792e-01 8.595662e-01 7.353147e-01 7.952653e-01 7.917308e-01 8.091217e-01 8.055228e-01 1.128135e-01
<GCONST> 1.512259e+02
<STATE> 4
<MEAN> 39
 1.284072e+01 -3.171640e+01 1.542217e+01 -1.197345e+01 -1.874626e+00 -8.246032e+00 1.781411e+00 2.246848e+01 7.151550e+00 4.234956e+00 -2.409425e+00 3.978502e+00 1.411909e+02 -4.480849e-01 2.218022e+00 3.968193e+00 3.153635e-01 -3.437429e+00 -2.255014e+00 2.077718e+00 -2.477330e-01 -1.875912e+00 3.564810e-01 7.804267e-01 1.420785e+00 -1.366831e+00 1.854954e-01 6.504312e-01 1.136589e-01 6.048962e-02 3.234429e-01 4.119096e-01 -1.363195e-01 -8.827474e-01 -3.701308e-01 4.359217e-01 8.976410e-02 -1.498726e-01 -5.692187e-01
<VARIANCE> 39
 7.354086e+01 1.950349e+02 3.906647e+02 2.606435e+02 4.178583e+02 2.732526e+02 5.265880e+02 3.364999e+02 3.841187e+02 3.673496e+02 3.301656e+02 3.362427e+02 1.976657e+02 1.807166e+00 4.310891e+00 6.588134e+00 9.727042e+00 1.205874e+01 1.353644e+01 1.785289e+01 1.524298e+01 1.391989e+01 1.308843e+01 1.170528e+01 1.211528e+01 2.058024e+00 2.964124e-01 5.690169e-01 1.011054e+00 1.585622e+00 1.839569e+00 1.493718e+00 2.201661e+00 1.930659e+00 2.067390e+00 1.965202e+00 1.953849e+00 1.825767e+00 3.974884e-01
<GCONST> 1.759680e+02
<TRANSP> 5
 0.000000e+00 1.000000e+00 0.000000e+00 0.000000e+00 0.000000e+00
 0.000000e+00 6.136054e-01 3.863946e-01 0.000000e+00 0.000000e+00
 0.000000e+00 0.000000e+00 9.043459e-01 9.565403e-02 0.000000e+00
 0.000000e+00 0.000000e+00 0.000000e+00 8.026432e-01 1.973568e-01
 0.000000e+00 0.000000e+00 0.000000e+00 0.000000e+00 0.000000e+00
<ENDHMM>
~h "eh"
<BEGINHMM>
<NUMSTATES> 5
<STATE> 2
<MEAN> 39
 -5.137438e+01 8.238620e+00 -1.220972e+01 -1.792755e+00 -5.850219e+00 -7.733688e+00 -3.121756e+00 2.119729e+00 -5.714045e+00 1.371467e+00 -5.003695e+00 7.509732e+00 1.120966e+02 8.457148e+00 -5.459069e-01 5.775980e+00 3.612358e-01 -3.459637e-01 -2.278413e+00 -4.816271e-01 -6.092663e-01 1.742407e+00 1.618508e-02 -7.576967e-01 1.379896e+00 2.327657e+00 4.034710e+00 -1.090245e+00 2.252148e+00 -1.764227e-01 1.487859e-01 -1.047757e+00 -7.247638e-01 -2.203964e-01 8.871781e-01 6.998321e-01 -1.486765e-01 2.961201e-01 1.553476e+00
<VARIANCE> 39
 1.593562e+02 1.068861e+02 1.322654e+02 2.143853e+02 2.768634e+02 2.596059e+02 1.344291e+02 1.376423e+02 1.455295e+02 1.245467e+02 1.673430e+02 1.213464e+02 1.078241e+02 3.662920e+01 1.148649e+01 2.134517e+01 1.196713e+01 1.073323e+01 1.672319e+01 1.342071e+01 1.258459e+01 1.451708e+01 1.806748e+01 1.480800e+01 1.610496e+01 1.068909e+01 2.462678e+00 1.900458e+00 2.415066e+00 2.614479e+00 2.601853e+00 4.224726e+00 4.668132e+00 2.694301e+00 4.217886e+00 3.910190e+00 3.068879e+00 3.611917e+00 1.597630e+00
<GCONST> 1.863949e+02
<STATE> 3
<MEAN> 39
 -1.697915e+01 8.491123e+00 1.044092e+01 4.907766e+00 -4.232754e+00 -1.368895e+01 -5.811006e+00 -6.743070e-01 9.116169e-01 3.864326e+00 -8.583160e+00 1.014145e+01 1.166151e+02 1.748894e+01 -5.219628e+00 9.631089e+00 -1.659731e+00 -9.653553e-02 -4.415955e+00 -3.787893e+00 -1.109918e+00 3.131064e+00 2.914864e+00 -5.206864e-01 1.250472e+00 8.196564e+00 -7.362549e-01 -2.150917e+00 -1.172985e+00 -1.953828e+00 -4.958396e-01 -1.151599e-01 -3.569939e-01 8.647813e-01 3.225124e-01 8.375658e-01 6.572306e-01 -4.131067e-01 1.765888e+00
<VARIANCE> 39
 4.982825e+02 1.030452e+02 1.833379e+02 1.862160e+02 2.976503e+02 2.120295e+02 1.738192e+02 1.706760e+02 1.725773e+02 2.251393e+02 2.330045e+02 2.342952e+02 1.714992e+02 1.384321e+01 1.586761e+01 1.888181e+01 2.862529e+01 2.279920e+01 4.621394e+01 5.713676e+01 2.160103e+01 4.368339e+01 4.047298e+01 2.703271e+01 4.098338e+01 1.145623e+01 7.652861e+00 2.029635e+00 4.203628e+00 2.325555e+00 2.984256e+00 3.548332e+00 6.743751e+00 2.789168e+00 3.691773e+00 3.287759e+00 3.228037e+00 3.089127e+00 1.919248e+00
<GCONST> 1.993861e+02
<STATE> 4
<MEAN> 39
 1.213136e+01 -1.470261e+01 2.335081e+01 -1.062073e+01 -8.458725e+00 -2.521100e+01 -1.797768e+01 -6.807795e-01 6.846240e+00 1.343620e+01 -6.279147e+00 1.242983e+01 1.439938e+02 5.805200e+00 -7.387676e+00 1.634723e+00 -5.850677e+00 -1.846304e+00 -2.387866e+00 -5.027580e-01 2.914260e+00 3.499461e+00 2.883991e+00 1.606235e+00 -1.620434e-01 7.410570e+00 -4.431817e+00 6.188759e-01 -2.891021e+00 -7.857988e-02 7.387330e-03 1.532258e+00 1.783186e+00 1.076983e+00 -3.432844e-01 -4.835574e-01 2.924357e-01 -8.568152e-01 -1.857317e+00
<VARIANCE> 39
 5.474175e+01 1.397272e+02 1.753417e+02 2.348468e+02 3.112140e+02 2.520496e+02 6.816697e+02 2.772271e+02 3.564084e+02 4.773361e+02 4.051080e+02 5.343373e+02 1.282694e+02 3.829045e+01 1.089714e+01 2.285914e+01 1.833149e+01 2.023807e+01 2.549092e+01 6.559750e+01 1.845362e+01 2.586973e+01 2.260219e+01 2.014442e+01 2.073131e+01 1.210713e+01 1.866463e+00 2.375061e+00 2.238928e+00 3.276756e+00 2.706341e+00 4.872019e+00 5.098949e+00 2.816360e+00 5.038642e+00 3.975825e+00 3.642064e+00 4.944731e+00 1.322856e+00
<GCONST> 1.990576e+02
<TRANSP> 5
 0.000000e+00 1.000000e+00 0.000000e+00 0.000000e+00 0.000000e+00
 0.000000e+00 6.058010e-01 3.941990e-01 0.000000e+00 0.000000e+00
 0.000000e+00 0.000000e+00 3.970814e-01 6.029186e-01 0.000000e+00
 0.000000e+00 0.000000e+00 0.000000e+00 5.972677e-01 4.027322e-01
 0.000000e+00 0.000000e+00 0.000000e+00 0.000000e+00 0.000000e+00
<ENDHMM>
~h "ey"
<BEGINHMM>
<NUMSTATES> 5
<STATE> 2
<MEAN> 39
 -6.557224e+00 -1.005137e+01 2.063350e+01 -8.754745e+00 -1.630812e+01 -1.664265e+01 -2.179565e+00 2.950995e+00 -1.434054e+00 7.782165e+00 7.353287e-01 7.502121e+00 1.017207e+02 -1.686772e-01 -7.908664e-01 2.344871e+00 -1.109462e+00 -1.739800e+00 -2.997529e-01 9.378380e-01 2.835565e-01 3.153694e-02 3.710281e-01 3.760079e-01 2.044104e-01 2.465736e+00 4.968760e-01 -5.428147e-02 7.608868e-01 -2.194806e-01 1.530551e-01 2.306326e-01 2.624615e-01 -1.869441e-01 -2.697419e-01 8.900835e-02 -1.848872e-01 -2.882663e-02 1.140933e+00
<VARIANCE> 39
 3.321753e+02 2.465312e+02 5.276777e+02 3.281132e+02 2.930572e+02 3.524478e+02 5.245269e+02 3.667295e+02 3.556217e+02 2.709940e+02 2.202733e+02 2.138174e+02 1.718445e+03 1.525466e+01 1.429825e+01 1.911679e+01 1.846326e+01 2.156868e+01 2.516366e+01 2.697570e+01 2.647922e+01 2.270294e+01 1.869833e+01 1.745613e+01 1.681723e+01 5.309206e+01 2.651631e+00 2.538799e+00 3.218992e+00 3.449952e+00 4.093765e+00 4.416159e+00 5.091316e+00 4.434295e+00 4.081538e+00 3.409377e+00 3.299214e+00 3.149350e+00 1.084118e+01
<GCONST> 2.059573e+02
<STATE> 3
<MEAN> 39
 3.129856e-01 -1.414500e+01 5.018604e+01 -2.290588e+01 -2.339577e+01 -1.574413e+01 4.050059e-01 -2.187507e+00 -6.134458e+00 1.292530e+01 -7.074507e-01 9.124836e+00 1.358606e+02 7.582285e-01 4.747105e-01 3.902388e+00 -9.181452e-01 1.473071e-01 7.542858e-01 -4.897062e-01 -1.547392e+00 -1.096688e+00 -1.667268e-01 -7.033926e-01 -4.927552e-02 3.408576e+00 -3.085322e-01 4.577088e-01 -3.397321e-01 4.502349e-01 4.870316e-01 2.846489e-01 -2.078372e-01 -2.096797e-01 -7.475929e-02 -2.864301e-01 -1.946658e-01 -1.164311e-01 -1.169888e+00
<VARIANCE> 39
 1.045528e+02 1.991788e+02 4.279868e+02 4.540426e+02 2.107191e+02 2.816013e+02 5.179196e+02 3.557671e+02 6.508810e+02 2.634551e+02 1.876013e+02 1.945129e+02 4.895737e+02 1.163198e+01 1.258613e+01 1.565568e+01 1.563662e+01 1.256596e+01 1.334481e+01 1.975272e+01 1.526571e+01 1.663497e+01 1.370580e+01 1.087344e+01 1.240175e+01 6.910964e+01 1.499074e+00 1.443779e+00 2.061085e+00 2.049484e+00 1.747128e+00 2.043170e+00 2.806797e+00 2.162245e+00 2.314055e+00 2.068686e+00 1.819439e+00 1.780352e+00 5.997103e+00
<GCONST> 1.913722e+02
<STATE> 4
<MEAN> 39
 -3.066115e+00 5.030836e+00 6.686184e+01 -1.266258e+01 -9.673182e+00 -2.440817e+00 -4.645689e+00 -1.904696e+01 -1.227309e+01 1.983505e+00 -1.123780e+01 5.878765e+00 1.200026e+02 -4.967304e-01 2.346202e+00 -2.292220e+00 4.172168e+00 1.789413e+00 1.272359e+00 6.670883e-01 4.693009e-01 1.832618e-01 -1.027853e+00 -3.391949e-01 -8.051174e-01 -6.490773e+00 -2.007724e-01 -4.582818e-02 -1.837812e+00 4.011467e-01 6.276947e-02 -1.934907e-01 1.017313e-01 7.748666e-01 5.198193e-01 1.728242e-01 6.120841e-01 5.400402e-02 -1.081842e+00
<VARIANCE> 39
 7.672082e+01 2.575384e+02 3.910846e+02 6.222861e+02 2.818428e+02 3.294474e+02 3.314076e+02 5.369427e+02 7.035464e+02 3.859519e+02 3.351702e+02 4.039252e+02 5.130264e+02 6.903517e+00 1.261460e+01 5.096239e+01 2.691561e+01 1.865669e+01 1.771408e+01 2.341582e+01 3.075725e+01 3.112379e+01 2.156778e+01 2.191268e+01 2.132004e+01 4.227803e+01 1.444799e+00 2.095427e+00 5.179980e+00 4.811550e+00 3.104939e+00 3.031576e+00 3.928793e+00 5.027861e+00 4.826619e+00 3.777301e+00 3.752897e+00 3.681911e+00 4.510703e+00
<GCONST> 2.051224e+02
<TRANSP> 5
 0.000000e+00 1.000000e+00 0.000000e+00 0.000000e+00 0.000000e+00
 0.000000e+00 7.837805e-01 2.162195e-01 0.000000e+00 0.000000e+00
 0.000000e+00 0.000000e+00 8.860771e-01 1.139229e-01 0.000000e+00
 0.000000e+00 0.000000e+00 0.000000e+00 8.788913e-01 1.211087e-01
 0.000000e+00 0.000000e+00 0.000000e+00 0.000000e+00 0.000000e+00
<ENDHMM>
~h "hh"
<BEGINHMM>
<NUMSTATES> 5
<STATE> 2
<MEAN> 39
 -3.679720e+00 4.239974e+00 3.380579e+00 -1.887197e+00 1.101328e+00 5.939930e+00 1.953476e+00 2.113817e-01 -5.086363e+00 4.340167e+00 -1.769794e+00 2.470348e+00 7.623648e+01 2.235386e+00 2.671701e+00 1.169201e+00 2.266235e-01 -7.522081e-01 1.006854e+00 1.528411e+00 6.349157e-01 2.880490e-01 4.619447e-01 7.188638e-02 -1.801015e-01 -4.207190e-01 7.997358e-01 3.773943e-01 6.172370e-01 -2.391359e-01 -6.200181e-01 -6.003464e-01 -1.167647e-01 1.182127e-01 1.150510e-01 2.293594e-01 -1.103337e-01 -3.651432e-02 8.570896e-01
<VARIANCE> 39
 5.603816e+02 2.670033e+02 2.204092e+02 2.386092e+02 2.706965e+02 2.600574e+02 2.953858e+02 2.693961e+02 3.020035e+02 2.244981e+02 1.978864e+02 1.895181e+02 6.285067e+02 2.653141e+01 2.288307e+01 2.164544e+01 2.348664e+01 2.354342e+01 2.872188e+01 2.686586e+01 2.430042e+01 2.305939e+01 2.013625e+01 1.883835e+01 1.513126e+01 2.159503e+01 3.762381e+00 4.120900e+00 3.518894e+00 4.470362e+00 4.987455e+00 5.245322e+00 5.164580e+00 5.036471e+00 4.780149e+00 4.083897e+00 3.794548e+00 3.189106e+00 3.705116e+00
<GCONST> 2.043072e+02
<STATE> 3
<MEAN> 39
 2.004049e+01 2.227911e+01 1.681967e+01 6.301609e-01 -2.257017e+00 7.660161e+00 8.004114e+00 2.501753e+00 -4.172488e+00 7.804036e+00 -3.271295e+00 2.396100e+00 8.840069e+01 6.162963e+00 2.674930e+00 2.366023e+00 -2.692663e+00 -3.675218e+00 -1.580670e+00 -3.072962e-01 2.453437e-01 -4.214565e-02 1.371153e+00 -2.775778e-01 -4.339965e-01 4.515707e+00 -3.677816e-01 -1.433039e+00 -4.029691e-01 -1.591153e+00 -6.988643e-01 -1.014837e+00 -9.411728e-01 -8.728970e-02 -2.207992e-01 1.699060e-01 9.826767e-02 8.099151e-02 1.060930e+00
<VARIANCE> 39
 2.674672e+02 2.226435e+02 1.350910e+02 2.966960e+02 2.752511e+02 2.482170e+02 2.401516e+02 2.328531e+02 3.332683e+02 2.182079e+02 1.908490e+02 2.039088e+02 3.993859e+02 4.069713e+01 2.139391e+01 1.818518e+01 2.923242e+01 2.196890e+01 2.161382e+01 2.530233e+01 2.466629e+01 2.649551e+01 2.070538e+01 1.810891e+01 1.715863e+01 3.865556e+01 4.112112e+00 3.676739e+00 2.971583e+00 5.694051e+00 3.952297e+00 4.017846e+00 4.273722e+00 4.325561e+00 4.245116e+00 3.557387e+00 3.192681e+00 3.049221e+00 2.997320e+00
<GCONST> 2.017478e+02
<STATE> 4
<MEAN> 39
 3.243625e+01 2.207618e+01 2.203591e+01 -1.355791e+01 -1.635986e+01 -3.211465e-01 9.413022e-01 1.767461e+00 -7.017939e+00 1.225556e+01 -3.735787e+00 6.607174e-01 1.042494e+02 1.662613e+00 -1.238548e+00 3.877645e-01 -4.786016e+00 -2.706274e+00 -1.973194e+00 -1.600914e+00 1.186832e+00 1.834645e-01 1.164003e+00 8.153685e-01 8.685601e-02 3.879345e+00 -1.035444e+00 -1.175583e+00 -9.072526e-01 -6.685646e-01 8.923336e-01 6.207529e-01 3.164275e-01 8.342729e-01 9.056114e-02 -3.496597e-01 3.286001e-01 9.697667e-02 1.247237e-01
<VARIANCE> 39
 5.536487e+01 1.987718e+02 1.788640e+02 2.518898e+02 2.894808e+02 2.839775e+02 3.608692e+02 3.024801e+02 4.002794e+02 3.033685e+02 2.642171e+02 2.878380e+02 1.445482e+02 9.930259e+00 1.432966e+01 1.235503e+01 2.957052e+01 1.805372e+01 1.678027e+01 2.265687e+01 2.174409e+01 2.071516e+01 1.820779e+01 1.679933e+01 1.580679e+01 1.770393e+01 2.449233e+00 2.610310e+00 2.165725e+00 3.345932e+00 3.399459e+00 3.464197e+00 3.878118e+00 4.228905e+00 3.760887e+00 3.347727e+00 3.005063e+00 2.983459e+00 2.112437e+00
<GCONST> 1.942701e+02
<TRANSP> 5
 0.000000e+00 1.000000e+00 0.000000e+00 0.000000e+00 0.000000e+00
 0.000000e+00 6.708739e-01 3.291261e-01 0.000000e+00 0.000000e+00
 0.000000e+00 0.000000e+00 5.370399e-01 4.629602e-01 0.000000e+00
 0.000000e+00 0.000000e+00 0.000000e+00 6.935581e-01 3.064418e-01
 0.000000e+00 0.000000e+00 0.000000e+00 0.000000e+00 0.000000e+00
<ENDHMM>
~h "ih"
<BEGINHMM>
<NUMSTATES> 5
<STATE> 2
<MEAN> 39
 -3.671007e+01 7.927167e+00 7.023429e-01 -1.044832e-01 -1.201543e+01 -8.804958e+00 -6.057151e-01 -6.555654e-02 -4.836904e+00 1.165186e+00 -2.044559e+00 9.855638e+00 1.160459e+02 1.029327e+01 -5.671855e-01 8.926258e+00 1.188964e+00 6.193276e-02 -2.801451e+00 -6.552618e-01 -1.555152e+00 8.675331e-01 1.756620e-01 -8.717408e-01 1.096094e+00 3.396562e+00 2.387506e+00 -1.286956e+00 1.977919e+00 -9.548971e-02 6.241878e-02 -1.012850e+00 -8.294545e-01 -4.871067e-01 -1.617248e-01 4.191785e-01 -2.048543e-01 6.686138e-02 1.285669e+00
<VARIANCE> 39
 5.663907e+02 1.131755e+02 4.306328e+02 2.265047e+02 2.984187e+02 2.736185e+02 1.555314e+02 1.694427e+02 1.660265e+02 1.393793e+02 2.141448e+02 1.686218e+02 1.488911e+02 4.181599e+01 1.457624e+01 3.132354e+01 1.707334e+01 1.219560e+01 2.230413e+01 1.935777e+01 1.352779e+01 1.429604e+01 1.648837e+01 1.485349e+01 2.097893e+01 1.418878e+01 6.983813e+00 2.412346e+00 5.636703e+00 3.339219e+00 2.709851e+00 4.726820e+00 5.036314e+00 3.140530e+00 3.914850e+00 3.009831e+00 2.814258e+00 3.913251e+00 1.995571e+00
<GCONST> 1.956221e+02
<STATE> 3
<MEAN> 39
 2.243661e+00 -6.850133e+00 3.423054e+01 -3.025218e+00 -1.126902e+01 -2.617310e+01 -7.822595e+00 -6.451530e+00 -2.943550e+00 6.460680e+00 -6.018808e+00 1.418626e+01 1.365061e+02 5.664569e+00 -4.081569e+00 5.612993e+00 -1.454322e+00 -1.451735e+00 -3.113336e+00 -6.905922e-01 -9.169754e-01 -8.442860e-01 1.379189e+00 1.066855e-01 2.462342e-01 3.688184e+00 -2.115486e+00 1.528671e-01 -1.383910e+00 8.035286e-02 -2.857561e-01 4.744470e-01 6.569278e-01 3.476430e-01 -6.562685e-01 -5.912698e-02 3.318502e-01 -3.896924e-01 -1.123581e+00
<VARIANCE> 39
 1.910303e+02 2.172339e+02 2.383405e+02 2.859894e+02 3.670345e+02 2.380444e+02 5.492558e+02 2.397355e+02 2.460907e+02 2.352450e+02 3.219634e+02 4.250049e+02 2.007731e+02 5.843328e+01 1.740844e+01 3.858853e+01 2.496268e+01 1.538177e+01 2.967191e+01 4.844211e+01 2.248582e+01 2.657547e+01 1.809360e+01 1.842220e+01 2.465264e+01 2.125508e+01 5.627517e+00 2.947790e+00 3.474949e+00 3.538150e+00 2.261174e+00 3.792190e+00 4.543021e+00 2.866754e+00 3.006355e+00 3.106398e+00 3.102798e+00 3.900848e+00 2.527862e+00
<GCONST> 2.026523e+02
<STATE> 4
<MEAN> 39
 5.042576e+00 -1.511102e+01 4.484909e+01 2.843039e+00 -1.712098e+01 -3.166851e+01 -3.685125e+00 -4.419267e+00 -1.715019e+01 8.531746e+00 -3.251907e+00 7.870521e+00 1.332363e+02 -8.539684e-01 2.378783e+00 -1.723660e-01 4.876310e+00 1.081417e+00 8.662047e-01 2.312417e+00 9.864243e-01 -3.032375e+00 -1.193123e+00 9.751137e-01 -1.493102e+00 -7.900827e+00 -1.396850e+00 1.645897e+00 -2.192294e+00 7.223673e-01 1.254594e+00 1.406658e+00 -3.845922e-01 4.129802e-01 7.606607e-01 -7.596034e-01 3.459135e-02 -1.347058e-01 -3.235130e+00
<VARIANCE> 39
 7.964709e+01 2.085622e+02 2.313914e+02 4.136852e+02 3.235076e+02 3.776483e+02 1.055263e+03 8.767170e+02 6.503672e+02 3.434847e+02 2.742706e+02 3.096696e+02 3.832773e+02 1.083572e+01 2.628742e+01 2.307094e+01 2.792770e+01 2.297215e+01 3.041026e+01 4.432624e+01 4.081227e+01 3.393910e+01 2.550158e+01 2.242483e+01 2.232491e+01 6.246767e+01 2.779350e+00 3.876416e+00 3.945508e+00 6.535216e+00 3.425546e+00 5.744336e+00 1.103987e+01 9.319516e+00 8.476692e+00 4.918817e+00 4.138105e+00 3.954412e+00 4.960290e+00
<GCONST> 2.125808e+02
<TRANSP> 5
 0.000000e+00 1.000000e+00 0.000000e+00 0.000000e+00 0.000000e+00
 0.000000e+00 6.319052e-01 3.680948e-01 0.000000e+00 0.000000e+00
 0.000000e+00 0.000000e+00 7.889127e-01 2.110873e-01 0.000000e+00
 0.000000e+00 0.000000e+00 0.000000e+00 7.988248e-01 2.011751e-01
 0.000000e+00 0.000000e+00 0.000000e+00 0.000000e+00 0.000000e+00
<ENDHMM>
~h "iy"
<BEGINHMM>
<NUMSTATES> 5
<STATE> 2
<MEAN> 39
 2.770835e+00 -6.673952e+00 6.123284e+01 -3.024485e-01 -7.995750e+00 -1.756598e+01 -3.405369e-01 -1.095194e+01 -1.732478e+01 5.111013e+00 -8.188550e+00 1.019201e+01 1.344385e+02 9.432518e-01 -1.754532e+00 4.393859e+00 -3.483214e+00 -1.010394e+00 1.112861e+00 -6.932727e-02 -1.294274e+00 -2.306690e-01 9.332874e-01 -5.981603e-01 1.927261e-01 4.350590e-01 -4.630072e-01 6.001193e-01 -2.584636e+00 1.213591e+00 1.033673e+00 -2.307011e-01 -2.659249e-01 1.223557e+00 4.286270e-01 -2.442279e-01 4.802588e-01 -2.195599e-01 -8.844425e-01
<VARIANCE> 39
 8.805242e+01 2.394806e+02 2.484355e+02 3.402512e+02 2.212801e+02 3.247631e+02 6.163987e+02 5.968646e+02 4.107580e+02 3.693196e+02 2.517602e+02 3.764681e+02 1.229286e+02 2.404050e+01 4.051372e+01 2.756072e+01 3.386154e+01 2.136728e+01 4.625435e+01 2.985882e+01 3.502250e+01 2.764359e+01 2.356598e+01 1.926571e+01 1.492692e+01 7.683455e+00 2.805335e+00 2.283516e+00 2.828159e+00 4.090197e+00 4.082747e+00 3.819940e+00 4.417763e+00 4.164185e+00 4.098119e+00 3.482677e+00 2.681394e+00 2.957063e+00 5.496722e-01
<GCONST> 2.010205e+02
<STATE> 3
<MEAN> 39
 4.344341e+00 -9.722888e+00 6.462079e+01 1.492227e+00 -8.483621e+00 -1.605671e+01 -6.414781e-01 -3.423985e+00 -2.243600e+01 5.343836e+00 -6.075106e+00 5.680080e+00 1.304914e+02 8.190846e-01 -1.909609e-02 -3.961570e+00 1.948741e+00 1.451174e+00 -9.417604e-01 -2.702516e-01 1.398418e+00 1.059708e+00 -2.987814e-01 7.523044e-01 -2.906414e-01 -1.970262e+00 8.971495e-02 2.229493e-01 -2.192180e+00 4.821536e-01 9.697566e-01 -3.061136e-01 -6.189042e-01 2.317246e-01 7.725496e-01 -2.191317e-01 7.551278e-02 8.659615e-02 -4.642860e-01
<VARIANCE> 39
 1.233347e+02 2.776174e+02 3.051688e+02 4.342152e+02 2.391622e+02 5.200013e+02 6.901627e+02 6.984230e+02 4.764212e+02 4.590837e+02 2.540967e+02 3.345261e+02 2.327203e+02 1.638357e+01 1.769485e+01 3.399836e+01 2.294025e+01 1.874502e+01 3.562919e+01 2.647685e+01 2.796667e+01 2.421342e+01 1.820873e+01 1.502097e+01 1.415803e+01 6.260615e+00 1.592268e+00 2.296427e+00 2.544423e+00 4.602255e+00 3.583163e+00 4.281334e+00 3.997634e+00 4.346902e+00 3.924061e+00 3.071438e+00 2.513859e+00 2.268883e+00 6.306281e-01
<GCONST> 1.996602e+02
<STATE> 4
<MEAN> 39
 2.666715e+00 -1.191544e+00 4.862951e+01 -3.325489e+00 -3.052197e+00 -6.266304e+00 -1.244159e+00 -4.850682e+00 -7.754149e+00 3.275260e+00 -6.486489e+00 7.107889e+00 1.144237e+02 2.069401e-01 1.431354e-01 -4.665397e+00 5.890526e-01 1.646626e+00 3.607444e-01 -9.353516e-01 7.110163e-01 1.547213e+00 -1.744617e-01 3.359672e-01 -2.284560e-01 -2.330420e+00 -5.071845e-02 2.164523e-04 -2.194920e-01 -2.358362e-01 -5.101397e-02 1.084656e-01 -3.856257e-02 -1.717071e-01 -9.730580e-02 1.956368e-01 1.464712e-02 -2.572709e-02 1.460950e-03
<VARIANCE> 39
 2.783825e+02 4.767379e+02 5.727415e+02 4.910003e+02 3.071699e+02 9.832253e+02 6.517674e+02 5.119781e+02 4.500780e+02 3.852777e+02 2.662937e+02 2.710761e+02 6.187068e+02 1.172871e+01 1.329541e+01 2.675726e+01 1.633341e+01 1.930357e+01 2.618001e+01 2.165078e+01 2.119106e+01 1.968077e+01 1.630634e+01 1.363955e+01 1.372365e+01 5.797959e+00 8.980222e-01 1.825208e+00 2.493350e+00 3.040875e+00 2.559381e+00 4.178957e+00 3.058729e+00 3.347205e+00 3.160843e+00 2.677569e+00 2.317873e+00 2.100862e+00 6.731134e-01
<GCONST> 1.978172e+02
<TRANSP> 5
 0.000000e+00 1.000000e+00 0.000000e+00 0.000000e+00 0.000000e+00
 0.000000e+00 6.839733e-01 3.160268e-01 0.000000e+00 0.000000e+00
 0.000000e+00 0.000000e+00 6.800160e-01 3.199840e-01 0.000000e+00
 0.000000e+00 0.000000e+00 0.000000e+00 8.002220e-01 1.997780e-01
 0.000000e+00 0.000000e+00 0.000000e+00 0.000000e+00 0.000000e+00
<ENDHMM>
~h "ow"
<BEGINHMM>
<NUMSTATES> 5
<STATE> 2
<MEAN> 39
 3.746833e+00 -1.168923e+01 -2.526537e+00 -1.517583e+01 -1.675442e+00 -1.027255e+01 -8.014585e+00 -1.816969e+00 -9.990223e-01 1.404534e+01 2.094321e+00 2.002947e+00 9.994376e+01 1.803914e+00 -1.465092e+00 -3.573384e-01 -2.968903e+00 3.440880e-01 1.686789e+00 1.661500e+00 -9.058110e-02 7.114214e-01 2.062081e+00 1.055517e-01 -9.538676e-01 4.642228e+00 4.204062e-01 1.158184e-01 4.413867e-01 -1.432957e-01 2.156062e-01 2.997194e-01 -1.245109e-02 2.288639e-02 -7.735366e-02 -9.654289e-02 -2.099396e-01 2.900821e-01 8.845082e-01
<VARIANCE> 39
 5.424083e+02 3.153894e+02 2.388053e+02 3.483405e+02 3.519998e+02 4.957179e+02 5.219075e+02 4.990737e+02 6.226786e+02 5.732450e+02 5.370854e+02 3.417449e+02 1.303130e+03 3.989396e+01 2.073248e+01 1.884544e+01 3.150982e+01 3.048798e+01 2.916410e+01 3.385220e+01 3.569917e+01 4.114201e+01 3.822000e+01 3.823143e+01 2.969234e+01 1.100209e+02 5.004391e+00 3.411067e+00 2.894101e+00 4.543642e+00 4.775060e+00 4.404376e+00 5.921058e+00 6.038075e+00 6.508330e+00 6.831168e+00 6.679396e+00 5.359510e+00 1.349428e+01
<GCONST> 2.197724e+02
<STATE> 3
<MEAN> 39
 2.122442e+01 -2.125025e+01 1.664492e+00 -2.802364e+01 3.398706e+00 -7.272048e+00 -3.003009e+00 -1.322706e-01 -1.693133e+00 2.509183e+01 3.725534e+00 8.680518e-01 1.358388e+02 9.990249e-01 8.065906e-01 8.461233e-01 -2.426045e+00 -5.015774e-01 2.764763e+00 3.146838e-01 -1.076770e+00 -4.642170e-01 6.856337e-01 9.813654e-02 9.114506e-01 2.382649e+00 -6.608534e-01 7.439942e-01 -3.591919e-02 9.675380e-01 -1.347159e-01 -1.384919e-01 -4.032403e-01 4.122473e-02 -9.006783e-02 -8.521495e-01 -1.898676e-01 4.126040e-01 -1.703840e+00
<VARIANCE> 39
 1.207963e+02 2.064079e+02 2.342573e+02 3.227617e+02 3.632901e+02 5.701470e+02 5.550324e+02 3.789773e+02 8.252685e+02 5.224703e+02 5.593667e+02 2.648845e+02 2.909429e+02 1.215065e+01 1.124236e+01 8.280159e+00 1.470053e+01 1.231483e+01 1.493918e+01 1.720547e+01 1.628364e+01 2.037403e+01 1.945884e+01 1.815729e+01 1.566705e+01 3.482699e+01 2.158171e+00 1.360217e+00 1.353875e+00 2.293208e+00 2.138930e+00 2.183839e+00 2.642421e+00 2.644935e+00 3.210742e+00 3.027401e+00 3.192292e+00 2.461000e+00 4.445802e+00
<GCONST> 1.953613e+02
<STATE> 4
<MEAN> 39
 2.385462e+01 -3.636518e+00 5.911954e+00 -2.995397e+01 -2.465368e+00 6.242710e+00 -8.667937e-01 -1.510926e+00 -6.537985e+00 1.333017e+01 -1.377389e+00 6.943492e+00 1.237200e+02 -6.222484e-01 1.363057e+00 3.745202e-01 1.114003e+00 1.450880e-01 5.479808e-01 2.340154e-01 -1.683808e-01 -1.107902e-01 -8.883680e-01 -5.881584e-01 5.002252e-02 -2.103486e+00 -2.706420e-01 -7.641076e-02 -5.021970e-02 3.856905e-01 8.463512e-02 -2.020001e-01 -8.184049e-02 6.550033e-02 1.133775e-01 -3.935258e-02 3.614395e-02 -7.141973e-02 -2.174364e-01
<VARIANCE> 39
 1.362741e+02 3.630013e+02 2.555807e+02 5.126371e+02 5.492513e+02 4.779138e+02 4.730210e+02 4.158641e+02 8.003314e+02 4.687059e+02 4.266435e+02 3.343434e+02 5.483942e+02 6.575871e+00 9.870212e+00 7.824261e+00 1.609736e+01 1.159420e+01 1.371868e+01 1.432221e+01 1.597019e+01 1.828571e+01 1.626640e+01 1.610499e+01 1.407071e+01 5.500775e+00 9.698598e-01 1.332263e+00 1.162206e+00 2.147096e+00 1.773481e+00 2.108665e+00 2.205412e+00 2.534223e+00 2.752409e+00 2.439610e+00 2.415426e+00 2.192421e+00 5.947182e-01
<GCONST> 1.895429e+02
<TRANSP> 5
 0.000000e+00 1.000000e+00 0.000000e+00 0.000000e+00 0.000000e+00
 0.000000e+00 7.031742e-01 2.968258e-01 0.000000e+00 0.000000e+00
 0.000000e+00 0.000000e+00 6.271235e-01 3.728765e-01 0.000000e+00
 0.000000e+00 0.000000e+00 0.000000e+00 9.319575e-01 6.804246e-02
 0.000000e+00 0.000000e+00 0.000000e+00 0.000000e+00 0.000000e+00
<ENDHMM>
~h "th"
<BEGINHMM>
<NUMSTATES> 5
<STATE> 2
<MEAN> 39
 -2.481194e+01 2.205879e+00 2.753585e+00 8.065022e+00 -3.524656e+00 1.404510e+00 -2.892302e+00 6.360220e-01 -4.269070e+00 2.275163e+00 -2.178056e+00 4.215042e+00 7.972069e+01 -2.254908e+00 -1.013204e+00 -1.680066e+00 -1.293731e+00 -1.359139e+00 -2.602085e-01 -8.195184e-01 1.120481e-03 4.106366e-02 -4.807079e-01 4.964340e-02 2.591067e-01 1.539605e+00 9.482332e-01 -2.576155e-01 7.705655e-01 -3.516392e-01 -1.120462e-01 -3.687975e-01 1.058994e-01 -1.779944e-01 -5.080289e-02 1.807298e-01 -1.031546e-01 1.017863e-01 1.679587e+00
<VARIANCE> 39
 2.098210e+02 1.547264e+02 1.595736e+02 1.591647e+02 1.671914e+02 1.682382e+02 1.768773e+02 1.713916e+02 1.767826e+02 1.480392e+02 1.405918e+02 1.319821e+02 5.898326e+02 2.607360e+01 1.748055e+01 2.068476e+01 2.181161e+01 1.843057e+01 2.141942e+01 2.240413e+01 2.141272e+01 2.325365e+01 1.861571e+01 1.788692e+01 1.726317e+01 8.617600e+01 3.313783e+00 3.631488e+00 3.862725e+00 4.020070e+00 3.708090e+00 4.193664e+00 4.211946e+00 4.031399e+00 4.323703e+00 3.740786e+00 3.601890e+00 3.515428e+00 9.990950e+00
<GCONST> 1.982274e+02
<STATE> 3
<MEAN> 39
 -2.265597e+01 -5.782817e+00 1.005637e+01 5.916315e-02 -1.011270e+01 -3.900697e+00 -3.262891e+00 -8.047888e-01 -2.417696e+00 3.457022e+00 -3.563489e+00 6.347646e+00 1.127506e+02 5.810086e+00 -1.744706e+00 4.985450e+00 2.339652e+00 1.785433e+00 -1.901378e+00 2.566912e-02 4.679027e-02 1.363016e-01 1.297415e+00 4.518225e-01 -2.849223e-01 4.194339e+00 2.246508e+00 -2.216904e-01 -1.946952e-01 1.505279e+00 1.791250e+00 -3.285924e-01 -8.284368e-01 1.340203e-01 -4.264896e-01 -1.715729e-02 2.747386e-01 -2.933815e-01 -1.970746e+00
<VARIANCE> 39
 2.222481e+02 1.604827e+02 2.582685e+02 1.952515e+02 1.837696e+02 1.852030e+02 2.024417e+02 1.889724e+02 1.835770e+02 1.787969e+02 1.799823e+02 1.992884e+02 1.883179e+02 3.678420e+01 1.987608e+01 3.261332e+01 3.333472e+01 2.710632e+01 2.805746e+01 2.896305e+01 2.433817e+01 2.304205e+01 2.143022e+01 2.194114e+01 2.422029e+01 5.119917e+01 4.293396e+00 4.374487e+00 9.371999e+00 6.112320e+00 4.985901e+00 6.021874e+00 6.924329e+00 5.248807e+00 4.922417e+00 5.452497e+00 4.953074e+00 5.136836e+00 7.708296e+00
<GCONST> 2.058353e+02
<STATE> 4
<MEAN> 39
 1.815059e+01 -1.277822e+01 1.408405e+01 1.610773e+01 1.443003e+01 -1.093862e+01 -1.768824e+01 -3.019655e+00 -6.807866e+00 3.614435e+00 -1.720412e+00 3.662811e+00 1.163906e+02 9.972952e+00 -2.133072e+00 -2.490853e+00 1.529653e+00 6.893219e+00 -2.618612e+00 -6.016014e+00 -1.031300e-01 -1.509141e+00 -1.369619e+00 -1.690748e-01 1.997021e-03 1.987564e+00 -1.923519e+00 -1.070632e-01 -5.171946e-01 -1.107265e+00 -9.000703e-01 -1.975794e-01 2.069499e-01 4.867668e-01 -1.579113e-01 -2.998117e-01 -1.635095e-01 1.526503e-01 3.252238e-02
<VARIANCE> 39
 4.655865e+02 1.461083e+02 3.627312e+02 2.129458e+02 4.185703e+02 5.354303e+02 4.996881e+02 3.152323e+02 2.163551e+02 2.103625e+02 1.750238e+02 1.797615e+02 1.549075e+02 3.799128e+01 2.247305e+01 4.327352e+01 3.452885e+01 4.087872e+01 7.100368e+01 5.211505e+01 4.057787e+01 2.888848e+01 3.044421e+01 2.495826e+01 2.067150e+01 1.257870e+01 8.484859e+00 3.872661e+00 1.392853e+01 6.562480e+00 1.000110e+01 9.833346e+00 1.152491e+01 7.775155e+00 5.559861e+00 4.781397e+00 4.597109e+00 4.115163e+00 3.113708e+00
<GCONST> 2.141659e+02
<TRANSP> 5
 0.000000e+00 1.000000e+00 0.000000e+00 0.000000e+00 0.000000e+00
 0.000000e+00 8.479654e-01 1.520347e-01 0.000000e+00 0.000000e+00
 0.000000e+00 0.000000e+00 7.474573e-01 2.525426e-01 0.000000e+00
 0.000000e+00 0.000000e+00 0.000000e+00 7.208304e-01 2.791696e-01
 0.000000e+00 0.000000e+00 0.000000e+00 0.000000e+00 0.000000e+00
<ENDHMM>
~h "uw"
<BEGINHMM>
<NUMSTATES> 5
<STATE> 2
<MEAN> 39
 -6.481725e+00 -3.694199e+00 4.326445e+01 8.679750e+00 -5.590785e+00 -1.557248e+01 1.509946e+00 3.759098e+00 -1.202416e+01 2.079316e+00 -8.168121e+00 8.793638e+00 1.242716e+02 9.991302e+00 -2.368333e+00 6.801395e+00 2.464200e+00 1.302453e+00 -1.095591e+00 -3.902637e+00 -4.418093e-03 -1.875686e+00 5.300141e-01 -9.281128e-01 -9.547096e-01 4.132560e+00 -1.478807e+00 -3.908274e-01 -1.308845e+00 -1.339610e+00 -1.740927e-01 1.991009e-02 -9.858184e-01 -3.251072e-01 -7.284070e-01 -3.931273e-02 4.169925e-01 -2.513268e-01 6.823677e-01
<VARIANCE> 39
 3.379201e+02 1.667583e+02 2.599258e+02 2.485676e+02 1.479141e+02 2.363466e+02 4.976955e+02 4.272208e+02 2.679190e+02 2.027431e+02 2.037281e+02 2.496662e+02 2.029402e+02 2.446386e+01 1.315530e+01 2.234899e+01 2.807411e+01 1.974906e+01 3.913480e+01 3.651053e+01 2.406652e+01 3.103915e+01 2.833601e+01 2.570887e+01 3.059917e+01 1.329176e+01 7.430687e+00 1.900252e+00 3.988671e+00 2.762840e+00 2.514869e+00 4.850798e+00 4.804947e+00 3.128701e+00 4.001534e+00 3.855690e+00 3.069086e+00 3.163033e+00 3.397248e+00
<GCONST> 2.016439e+02
<STATE> 3
<MEAN> 39
 8.941541e+00 -1.469629e+01 5.607856e+01 8.277849e+00 -3.679682e+00 -1.987339e+01 -1.303188e+01 4.023037e+00 -2.164403e+01 2.167443e+00 -8.547828e+00 4.528127e+00 1.362565e+02 8.885980e-01 -2.603312e-01 -6.242234e-01 3.798431e-01 1.474256e+00 9.364200e-02 -1.305133e+00 -2.477265e-01 -2.052538e-01 2.039847e-01 -3.687744e-01 -7.490594e-01 -4.097697e-01 -8.005539e-01 7.164069e-01 -1.116904e+00 -2.005946e-02 1.899345e-01 5.461428e-01 6.397647e-01 -2.072503e-01 5.443811e-01 8.938856e-02 7.243087e-02 2.767839e-02 -9.604611e-01
<VARIANCE> 39
 7.658401e+01 1.510843e+02 1.905827e+02 3.806211e+02 2.127224e+02 3.909491e+02 1.009543e+03 6.461532e+02 3.878565e+02 4.100273e+02 2.953985e+02 6.324530e+02 1.361700e+02 5.466526e+00 6.546509e+00 1.025416e+01 8.176367e+00 9.358835e+00 1.347149e+01 1.549237e+01 1.231019e+01 1.390858e+01 1.416781e+01 1.155959e+01 1.302114e+01 6.308121e+00 2.104183e+00 1.048522e+00 1.591439e+00 1.722104e+00 1.652950e+00 2.457193e+00 3.032584e+00 2.320516e+00 2.524585e+00 2.597510e+00 2.161368e+00 2.382452e+00 9.426430e-01
<GCONST> 1.848172e+02
<STATE> 4
<MEAN> 39
 1.406468e+01 -6.402186e-02 3.077431e+01 7.259813e+00 7.786609e+00 -4.500513e+00 -5.366061e+00 -6.190458e+00 -1.488458e+01 6.299609e+00 -7.368070e+00 2.976578e+00 1.130661e+02 -6.766905e-01 8.927478e-01 -2.284327e+00 -4.974229e-02 3.412307e-01 1.452841e+00 1.140358e+00 -2.719322e-01 7.939474e-01 -2.526614e-02 2.493353e-01 7.364087e-02 -2.523044e+00 -3.744395e-01 -4.053133e-02 -4.409765e-02 -1.382359e-02 -3.027875e-01 -1.516793e-01 5.748339e-02 1.767567e-01 6.068914e-02 -1.173683e-01 6.614182e-02 8.449016e-02 -8.660148e-02
<VARIANCE> 39
 1.381666e+02 2.245522e+02 4.449226e+02 3.366931e+02 3.239984e+02 7.541973e+02 7.409141e+02 4.972143e+02 5.997409e+02 4.222690e+02 3.993098e+02 5.505340e+02 5.033672e+02 9.808791e+00 1.191248e+01 1.079301e+01 1.390615e+01 1.507106e+01 2.326929e+01 2.335403e+01 2.238743e+01 2.315398e+01 1.825679e+01 1.809249e+01 1.672498e+01 5.077707e+00 1.195973e+00 1.799351e+00 1.540578e+00 2.106480e+00 2.275320e+00 3.208542e+00 3.354860e+00 3.449687e+00 3.572064e+00 3.016713e+00 3.069394e+00 2.693787e+00 6.717482e-01
<GCONST> 1.958716e+02
<TRANSP> 5
 0.000000e+00 1.000000e+00 0.000000e+00 0.000000e+00 0.000000e+00
 0.000000e+00 6.923009e-01 3.076991e-01 0.000000e+00 0.000000e+00
 0.000000e+00 0.000000e+00 8.218138e-01 1.781863e-01 0.000000e+00
 0.000000e+00 0.000000e+00 0.000000e+00 9.144458e-01 8.555423e-02
 0.000000e+00 0.000000e+00 0.000000e+00 0.000000e+00 0.000000e+00
<ENDHMM>
~h "sil"
<BEGINHMM>
<NUMSTATES> 5
<STATE> 2
<MEAN> 39
 -1.128939e+01 -1.300922e+00 1.275451e+00 7.459163e+00 1.241174e+00 9.603106e-01 4.863611e+00 6.619968e+00 -5.444846e-01 4.204521e-01 -4.233826e+00 7.290698e-01 6.457028e+01 -5.107093e-01 9.072709e-01 -1.316768e-01 2.265457e-02 1.180181e-02 4.915944e-02 -3.365267e-01 -2.098549e-01 6.203803e-02 2.541512e-02 2.909640e-01 -1.217506e-02 -1.232357e+00 -1.347968e-02 8.253390e-02 1.289052e-01 7.137423e-03 2.223662e-02 3.033466e-02 4.717575e-03 -5.039398e-02 9.223433e-03 7.487233e-02 6.371482e-02 7.282444e-02 5.081487e-02
<VARIANCE> 39
 7.570927e+01 1.614496e+02 1.474159e+02 1.326660e+02 1.524365e+02 1.867554e+02 1.968663e+02 2.146006e+02 2.011543e+02 2.010435e+02 1.630134e+02 1.444670e+02 9.885578e+01 2.494397e+00 4.595022e+00 5.721533e+00 7.111025e+00 8.573607e+00 1.059065e+01 1.203026e+01 1.307043e+01 1.282309e+01 1.274326e+01 1.202130e+01 1.101126e+01 1.967589e+00 3.873258e-01 7.157459e-01 9.989814e-01 1.263264e+00 1.539514e+00 1.870039e+00 2.156825e+00 2.335351e+00 2.350858e+00 2.317203e+00 2.195336e+00 2.035499e+00 2.064829e-01
<GCONST> 1.667540e+02
<STATE> 3
<MEAN> 39
 -2.397270e+01 4.942734e+00 -5.991037e-01 3.371228e+00 -2.623585e+00 -2.331489e+00 -3.630301e+00 -8.147070e-01 -1.549474e+00 1.318323e+00 8.213665e-01 2.355410e+00 4.914090e+01 -2.501855e-01 6.006853e-02 7.771492e-02 -3.189633e-02 -4.768322e-02 -5.833524e-02 -1.755766e-01 -1.943116e-01 -4.048629e-02 1.093604e-01 1.182267e-01 6.395762e-02 -1.812692e-01 7.529089e-02 -7.581917e-02 1.434526e-03 1.570146e-02 1.610413e-02 2.429125e-02 6.614701e-02 5.995087e-02 -2.644560e-04 -1.315100e-02 -5.753795e-02 -2.028925e-02 1.363225e-01
<VARIANCE> 39
 4.110327e+01 3.646751e+01 4.341064e+01 5.671992e+01 7.444234e+01 9.530090e+01 1.122006e+02 1.122997e+02 1.038882e+02 9.699554e+01 9.346173e+01 8.351266e+01 2.376811e+01 1.622566e+00 2.345533e+00 3.477253e+00 4.726755e+00 6.075814e+00 7.445709e+00 8.851365e+00 9.603314e+00 9.649358e+00 9.582802e+00 9.373600e+00 8.397449e+00 1.008641e+00 2.950414e-01 4.772889e-01 6.932102e-01 9.450637e-01 1.213813e+00 1.478574e+00 1.738190e+00 1.890433e+00 1.912346e+00 1.898030e+00 1.861587e+00 1.678031e+00 2.112183e-01
<GCONST> 1.480125e+02
<STATE> 4
<MEAN> 39
 -2.341433e+01 -7.837790e-01 4.239851e-01 2.368923e+00 -2.975614e+00 -3.029888e+00 -3.414785e+00 1.830730e-01 -3.253035e+00 1.478550e+00 -8.536808e-01 2.219791e+00 6.000690e+01 3.002139e-02 -1.550108e-01 1.604882e-01 7.008048e-02 -4.945662e-03 1.474352e-01 1.714045e-01 1.008078e-01 -1.032001e-02 1.917142e-01 -1.331058e-01 5.622034e-02 9.162254e-01 9.020354e-02 -1.185397e-02 8.885172e-02 -3.184258e-02 1.034818e-02 -6.288453e-04 2.553910e-02 4.954460e-03 -2.189855e-03 2.200770e-02 -3.430437e-02 2.026088e-02 4.386971e-01
<VARIANCE> 39
 1.165332e+02 1.427081e+02 1.182892e+02 1.159822e+02 1.341824e+02 1.517652e+02 1.684121e+02 1.703098e+02 1.586836e+02 1.432574e+02 1.313080e+02 1.118343e+02 2.844386e+02 9.193342e+00 1.156885e+01 1.031427e+01 1.089266e+01 1.259893e+01 1.413925e+01 1.525315e+01 1.515590e+01 1.446621e+01 1.372331e+01 1.310100e+01 1.121617e+01 1.692130e+01 1.978047e+00 2.260119e+00 2.035777e+00 2.159137e+00 2.454490e+00 2.692138e+00 2.903873e+00 2.882231e+00 2.751453e+00 2.612656e+00 2.479962e+00 2.140603e+00 3.791100e+00
<GCONST> 1.814741e+02
<TRANSP> 5
 0.000000e+00 1.000000e+00 0.000000e+00 0.000000e+00 0.000000e+00
 0.000000e+00 8.678305e-01 1.321695e-01 0.000000e+00 0.000000e+00
 0.000000e+00 0.000000e+00 9.070752e-01 9.292485e-02 0.000000e+00
 0.000000e+00 0.000000e+00 0.000000e+00 8.367546e-01 1.632454e-01
 0.000000e+00 0.000000e+00 0.000000e+00 0.000000e+00 0.000000e+00
<ENDHMM>
~h "sp"
<BEGINHMM>
<NUMSTATES> 3
<STATE> 2
<MEAN> 39
 -2.397270e+01 4.942734e+00 -5.991037e-01 3.371228e+00 -2.623585e+00 -2.331489e+00 -3.630301e+00 -8.147070e-01 -1.549474e+00 1.318323e+00 8.213665e-01 2.355410e+00 4.914090e+01 -2.501855e-01 6.006853e-02 7.771492e-02 -3.189633e-02 -4.768322e-02 -5.833524e-02 -1.755766e-01 -1.943116e-01 -4.048629e-02 1.093604e-01 1.182267e-01 6.395762e-02 -1.812692e-01 7.529089e-02 -7.581917e-02 1.434526e-03 1.570146e-02 1.610413e-02 2.429125e-02 6.614701e-02 5.995087e-02 -2.644560e-04 -1.315100e-02 -5.753795e-02 -2.028925e-02 1.363225e-01
<VARIANCE> 39
 4.110327e+01 3.646751e+01 4.341064e+01 5.671992e+01 7.444234e+01 9.530090e+01 1.122006e+02 1.122997e+02 1.038882e+02 9.699554e+01 9.346173e+01 8.351266e+01 2.376811e+01 1.622566e+00 2.345533e+00 3.477253e+00 4.726755e+00 6.075814e+00 7.445709e+00 8.851365e+00 9.603314e+00 9.649358e+00 9.582802e+00 9.373600e+00 8.397449e+00 1.008641e+00 2.950414e-01 4.772889e-01 6.932102e-01 9.450637e-01 1.213813e+00 1.478574e+00 1.738190e+00 1.890433e+00 1.912346e+00 1.898030e+00 1.861587e+00 1.678031e+00 2.112183e-01
<GCONST> 1.480125e+02
<TRANSP> 3
 0.000000e+00 5.000000e-01 5.000000e-01
 0.000000e+00 5.000000e-01 5.000000e-01
 0.000000e+00 0.000000e+00 0.000000e+00
<ENDHMM>
