~o
<STREAMINFO> 1 39
<VECSIZE> 39<NULLD><MFCC_D_A_Z_0><DIAGC>
~v "varFloor1"
<VARIANCE> 39
 6.167360e+00 3.055753e+00 5.029951e+00 4.235080e+00 3.020565e+00 3.513228e+00 3.576046e+00 3.145977e+00 3.123657e+00 2.649582e+00 2.296422e+00 2.124384e+00 1.180017e+01 2.278196e-01 1.545969e-01 2.184490e-01 2.118026e-01 1.813457e-01 2.097697e-01 2.257949e-01 2.166197e-01 2.009621e-01 1.748386e-01 1.664882e-01 1.534702e-01 2.729188e-01 3.005251e-02 2.352015e-02 2.950212e-02 3.333421e-02 2.970494e-02 3.528043e-02 3.797136e-02 3.764201e-02 3.477513e-02 3.067418e-02 2.924890e-02 2.697371e-02 3.680276e-02
~s "silst"
<MEAN> 39
 -1.809303e+01 9.018448e+00 -1.071457e+01 5.860039e+00 -1.374095e+00 1.608449e+00 -1.134117e+00 -3.196197e+00 2.093547e+00 -3.760943e+00 3.192037e+00 -1.772550e+00 -4.528976e+01 -2.195132e-01 6.513074e-02 5.742327e-02 -3.719870e-02 -4.216139e-02 -4.419351e-02 -1.520418e-01 -1.706609e-01 -3.132015e-02 9.834893e-02 1.006051e-01 5.209851e-02 -1.735222e-01 6.260426e-02 -6.538907e-02 6.058512e-04 1.609035e-02 1.762067e-02 2.493980e-02 6.800578e-02 6.656268e-02 6.307928e-03 -1.531138e-02 -6.085557e-02 -2.145745e-02 1.115099e-01
<VARIANCE> 39
 7.834508e+01 6.251384e+01 9.084341e+01 1.012619e+02 1.083203e+02 1.288940e+02 1.717123e+02 1.342866e+02 1.465437e+02 1.279706e+02 1.130243e+02 1.134159e+02 1.223774e+02 1.480840e+00 2.240407e+00 3.287805e+00 4.548594e+00 5.915913e+00 7.190997e+00 8.578868e+00 9.350951e+00 9.483611e+00 9.422743e+00 9.147700e+00 8.265960e+00 9.063602e-01 2.723335e-01 4.461046e-01 6.573004e-01 9.129791e-01 1.184310e+00 1.437319e+00 1.698508e+00 1.849276e+00 1.885755e+00 1.872965e+00 1.826338e+00 1.660027e+00 1.781641e-01
<GCONST> 1.534587e+02
~h "f"
<BEGINHMM>
<NUMSTATES> 5
<STATE> 2
<MEAN> 39
 -2.677929e+01 -5.341401e+00 -7.686940e+00 8.576882e+00 2.337368e-01 3.600440e+00 -2.632333e+00 -2.503940e+00 -7.976486e-01 -1.831726e+00 -8.328688e-01 -7.439467e-01 -1.430975e+01 -2.314974e+00 -1.532217e+00 -1.198037e+00 -3.747775e-01 -6.537064e-01 -3.033994e-01 -8.406700e-01 -3.496346e-01 -1.988605e-01 -1.754898e-01 -3.955628e-02 -1.264928e-01 2.595321e-01 1.159337e+00 2.401832e-01 2.195834e-01 -2.466313e-01 7.213825e-02 -8.545617e-03 1.807365e-01 -6.587646e-02 -7.749156e-02 9.313690e-02 -3.431510e-02 2.837714e-02 6.658136e-01
<VARIANCE> 39
 2.320829e+02 1.705977e+02 1.500289e+02 1.446465e+02 1.610669e+02 1.622712e+02 2.137082e+02 1.739657e+02 1.817102e+02 1.521932e+02 1.453990e+02 1.377600e+02 3.814258e+02 2.554828e+01 1.356956e+01 1.219319e+01 1.788388e+01 1.462135e+01 1.482374e+01 1.613696e+01 1.566800e+01 1.578192e+01 1.405643e+01 1.345013e+01 1.252809e+01 2.075363e+01 4.128027e+00 2.760981e+00 2.348929e+00 3.228311e+00 2.824245e+00 3.111920e+00 3.368711e+00 3.296306e+00 3.291605e+00 2.959882e+00 2.800270e+00 2.538497e+00 3.355694e+00
<GCONST> 1.892146e+02
<STATE> 3
<MEAN> 39
 -2.667569e+01 -1.051975e+01 -1.112297e+01 4.299601e+00 -2.141941e+00 2.631555e+00 -5.587564e+00 -4.408081e+00 -2.175174e+00 -2.039344e+00 -1.777306e+00 -1.374489e+00 -7.049178e-01 9.084527e+00 1.019307e+00 8.016405e-02 -3.230532e+00 5.457882e-01 9.417686e-01 1.397876e+00 -3.914050e-02 4.815616e-01 1.473295e+00 5.326325e-01 -1.715259e-01 6.197770e+00 3.367417e+00 7.888550e-01 4.267508e-01 -1.945371e+00 -1.809478e-01 4.123886e-01 7.074631e-01 3.353370e-01 9.856199e-02 6.577755e-01 2.683298e-01 -1.153270e-01 1.118313e+00
<VARIANCE> 39
 1.902897e+02 1.095954e+02 1.157047e+02 1.116612e+02 1.158463e+02 1.253133e+02 1.745314e+02 1.376920e+02 1.513725e+02 1.337225e+02 1.286335e+02 1.141647e+02 2.311430e+02 4.522648e+01 1.654222e+01 9.942781e+00 2.210358e+01 1.363506e+01 1.353542e+01 1.536675e+01 1.484765e+01 2.127397e+01 1.927269e+01 2.134018e+01 1.326104e+01 3.597104e+01 4.473750e+00 4.508164e+00 2.550847e+00 4.159684e+00 3.397717e+00 2.960296e+00 3.256898e+00 3.244369e+00 4.115264e+00 3.576077e+00 4.231759e+00 2.881098e+00 4.653715e+00
<GCONST> 1.903744e+02
<STATE> 4
<MEAN> 39
 1.841531e+01 -1.006978e+01 -1.204719e+01 -2.000124e+01 -2.830057e-01 9.352991e+00 2.669868e+00 -4.316799e+00 7.473508e-01 9.246207e+00 5.399207e+00 -3.734522e+00 2.804599e+01 8.711191e+00 -1.346858e+00 -4.378324e-01 -7.316983e+00 1.231865e-01 1.996745e+00 2.055336e+00 9.082111e-01 9.803345e-01 2.022423e+00 6.956457e-01 -6.291724e-01 7.481739e+00 -2.781622e+00 -7.203532e-02 2.047967e-01 8.068867e-01 -2.066117e-01 -1.437071e-01 -3.974183e-01 3.947996e-01 -4.994716e-02 -7.917223e-01 -7.968749e-01 3.428314e-02 -1.624478e+00
<VARIANCE> 39
 3.785253e+02 1.747155e+02 1.441094e+02 4.186723e+02 2.240799e+02 1.719312e+02 1.886401e+02 1.778428e+02 3.035566e+02 2.400246e+02 3.741394e+02 1.908721e+02 3.697176e+02 6.352502e+01 4.139149e+01 1.980602e+01 3.549555e+01 2.736667e+01 1.969995e+01 2.151107e+01 2.142737e+01 3.196773e+01 2.510962e+01 3.534152e+01 2.174227e+01 2.843282e+01 8.887430e+00 3.682683e+00 2.503073e+00 8.266912e+00 4.097448e+00 3.022405e+00 3.443988e+00 3.203232e+00 5.571681e+00 4.355318e+00 5.214673e+00 3.348832e+00 4.450445e+00
<GCONST> 2.055598e+02
<TRANSP> 5
 0.000000e+00 1.000000e+00 0.000000e+00 0.000000e+00 0.000000e+00
 0.000000e+00 8.687617e-01 1.312383e-01 0.000000e+00 0.000000e+00
 0.000000e+00 0.000000e+00 6.626995e-01 3.373006e-01 0.000000e+00
 0.000000e+00 0.000000e+00 0.000000e+00 5.732017e-01 4.267983e-01
 0.000000e+00 0.000000e+00 0.000000e+00 0.000000e+00 0.000000e+00
<ENDHMM>
~h "k"
<BEGINHMM>
<NUMSTATES> 5
<STATE> 2
<MEAN> 39
 2.041458e+00 1.270924e+01 1.482972e+01 2.497600e+01 1.827997e+00 -6.698307e+00 2.268284e+00 -3.233500e+00 -1.268659e+01 -8.059130e+00 2.065423e+00 -2.282640e+00 -2.800667e+01 -5.242291e+00 1.230997e+00 -9.648878e+00 -1.780020e+00 3.043930e+00 4.992177e+00 -3.356806e+00 -7.962041e-02 4.057715e+00 -1.430375e+00 -9.803537e-02 -4.416470e-01 -1.042976e+01 -1.902773e-01 -2.889043e+00 -6.695521e-01 -2.568845e+00 -1.133526e+00 -1.236118e+00 -6.288168e-01 -9.014829e-02 8.003854e-01 1.128110e+00 -3.009088e-01 5.902375e-01 4.969297e+00
<VARIANCE> 39
 1.832385e+02 2.510260e+02 3.112697e+02 2.389725e+02 2.350173e+02 3.623670e+02 3.707343e+02 4.258293e+02 3.316109e+02 2.597489e+02 2.086044e+02 1.820056e+02 4.547747e+02 1.405959e+01 5.665789e+01 2.774678e+01 3.985446e+01 3.090968e+01 4.275169e+01 5.594846e+01 7.028744e+01 4.938327e+01 3.655897e+01 2.449685e+01 2.242128e+01 1.006063e+02 3.806197e+00 7.243189e+00 6.167267e+00 6.506657e+00 5.320113e+00 8.663280e+00 9.329296e+00 9.545979e+00 8.402147e+00 5.652315e+00 4.710830e+00 4.334498e+00 1.388296e+01
<GCONST> 2.173872e+02
<STATE> 3
<MEAN> 39
 -9.021616e+00 -4.407189e+00 -1.467300e+01 8.960539e+00 2.171096e+00 -2.627620e+00 -8.753030e+00 -3.162856e+00 -5.397743e-02 -2.682544e+00 7.874646e-01 -9.024267e-01 -2.192325e+01 -2.604455e+00 -3.967526e+00 -4.815252e+00 -1.246026e+00 -3.533078e-01 -1.802610e+00 -1.789562e+00 1.336077e+00 1.815683e+00 1.096120e+00 -6.926929e-01 6.207796e-01 8.578592e+00 -6.608532e-01 1.111046e+00 1.952379e+00 8.623003e-01 -6.601608e-01 -9.221253e-01 9.269445e-01 3.158041e-01 -5.998507e-01 -2.032484e-01 -1.410304e-01 1.834308e-01 1.957165e+00
<VARIANCE> 39
 2.551936e+02 3.196781e+02 2.761599e+02 1.811721e+02 1.973473e+02 2.365994e+02 2.482200e+02 1.987894e+02 1.742443e+02 1.629224e+02 1.476391e+02 1.312430e+02 8.535878e+02 4.033039e+01 3.450813e+01 2.907660e+01 2.521099e+01 2.575679e+01 3.161074e+01 2.595642e+01 2.448285e+01 2.212041e+01 2.019909e+01 1.725561e+01 1.357586e+01 8.872287e+01 8.891007e+00 9.749442e+00 5.539280e+00 4.208025e+00 4.942005e+00 6.542206e+00 5.698861e+00 5.294224e+00 4.674415e+00 4.328658e+00 3.269789e+00 2.804277e+00 2.188420e+01
<GCONST> 2.080791e+02
<STATE> 4
<MEAN> 39
 -2.464587e+01 -3.900275e+00 -1.618334e+01 9.432369e+00 8.421298e-01 -1.222112e+01 -8.747629e+00 2.621086e+00 3.724351e+00 -2.277949e+00 -2.702481e+00 1.528749e+00 1.728606e+00 -5.528931e+00 2.093912e+00 5.424650e-01 -1.787294e-01 -1.272548e+00 -9.246099e-01 1.153619e+00 1.489567e+00 3.738544e-01 -4.565444e-01 -4.796389e-01 6.515335e-01 3.519688e+00 2.808258e-01 9.869692e-01 6.899358e-01 -1.439110e-01 -3.468691e-02 9.579359e-01 7.039027e-01 -3.142928e-01 -5.635996e-01 -1.762362e-01 2.629740e-01 -1.335086e-01 -2.010164e+00
<VARIANCE> 39
 4.912808e+02 1.549371e+02 1.753676e+02 2.029750e+02 3.058855e+02 2.945423e+02 2.382415e+02 2.085574e+02 2.037666e+02 1.818885e+02 1.599688e+02 1.313073e+02 6.724072e+02 6.309760e+01 2.454734e+01 1.816740e+01 1.567752e+01 2.341930e+01 2.887354e+01 2.242094e+01 1.909805e+01 1.886694e+01 1.712424e+01 1.474058e+01 1.381557e+01 5.409538e+01 9.500697e+00 4.188585e+00 3.547191e+00 3.130838e+00 4.287549e+00 5.553029e+00 4.372756e+00 3.956030e+00 3.644447e+00 3.675511e+00 2.956354e+00 2.608042e+00 1.222312e+01
<GCONST> 2.025140e+02
<TRANSP> 5
 0.000000e+00 1.000000e+00 0.000000e+00 0.000000e+00 0.000000e+00
 0.000000e+00 6.874780e-01 3.125220e-01 0.000000e+00 0.000000e+00
 0.000000e+00 0.000000e+00 7.299575e-01 2.700425e-01 0.000000e+00
 0.000000e+00 0.000000e+00 0.000000e+00 6.732197e-01 3.267803e-01
 0.000000e+00 0.000000e+00 0.000000e+00 0.000000e+00 0.000000e+00
<ENDHMM>
~h "n"
<BEGINHMM>
<NUMSTATES> 5
<STATE> 2
<MEAN> 39
 1.672475e+01 5.268077e+00 2.304602e+01 8.613806e+00 -5.308665e+00 6.749997e+00 1.608923e+01 -7.620733e+00 -3.360375e+00 4.155980e+00 -3.059286e+00 5.391530e+00 9.034656e+00 1.143742e+00 3.005184e+00 3.330700e-01 3.450600e+00 2.329405e-01 1.333406e+00 2.236218e+00 -2.859092e+00 -6.382910e-02 7.214830e-01 -1.350454e+00 3.352551e-01 -2.608719e+00 -5.357336e-01 -6.452112e-01 -9.274780e-01 -3.593575e-01 4.768234e-01 -3.434793e-01 -7.236391e-01 8.558049e-01 4.092396e-01 -2.599050e-01 1.376331e-01 -2.316044e-01 2.997770e-01
<VARIANCE> 39
 1.459799e+02 2.611806e+02 2.219001e+02 5.415685e+02 2.495747e+02 3.493348e+02 4.109390e+02 5.192413e+02 4.270694e+02 3.617968e+02 3.468438e+02 3.139995e+02 3.953477e+02 1.735191e+01 1.737604e+01 2.527555e+01 3.709201e+01 2.351713e+01 2.787784e+01 3.688526e+01 4.551091e+01 3.340500e+01 2.922610e+01 2.672555e+01 2.758461e+01 2.629428e+01 2.632185e+00 2.826691e+00 3.796420e+00 7.967323e+00 4.359513e+00 5.163803e+00 7.044660e+00 8.573579e+00 5.833537e+00 4.955329e+00 4.888296e+00 4.910019e+00 2.269537e+00
<GCONST> 2.103077e+02
<STATE> 3
<MEAN> 39
 1.791129e+01 1.032147e+01 2.060369e+01 1.883484e+01 -9.015180e-01 8.824587e+00 1.701189e+01 -8.898741e+00 2.531927e-01 2.763168e+00 -6.674088e+00 5.896758e+00 2.650751e+00 -2.523865e+00 -2.435919e+00 -2.417774e+00 -2.446681e+00 2.251522e+00 -1.334042e+00 -2.581135e+00 4.798190e+00 1.025334e+00 -4.967482e-01 5.120181e-01 -1.200478e+00 1.228755e+00 -1.043885e+00 -1.115319e+00 -1.195492e+00 -1.313577e+00 9.551000e-02 -3.921793e-01 -9.795910e-01 9.048942e-01 2.029822e-01 -1.642150e-01 4.775967e-01 -2.904943e-01 4.509282e-01
<VARIANCE> 39
 1.151535e+02 2.307821e+02 1.542291e+02 3.079545e+02 2.600347e+02 4.067623e+02 4.159075e+02 4.432984e+02 3.743328e+02 3.543836e+02 3.398324e+02 3.145426e+02 3.026779e+02 1.839172e+01 2.607706e+01 2.066897e+01 3.700072e+01 2.525326e+01 3.632008e+01 4.180098e+01 4.451765e+01 3.533823e+01 2.605416e+01 2.740844e+01 2.777595e+01 3.775787e+01 2.750989e+00 2.880486e+00 3.156254e+00 4.852549e+00 4.644269e+00 6.247155e+00 6.408470e+00 7.731086e+00 5.270633e+00 3.989190e+00 4.374505e+00 4.217798e+00 2.382400e+00
<GCONST> 2.085673e+02
<STATE> 4
<MEAN> 39
 3.637925e+00 1.526245e+00 6.645712e+00 1.380175e+01 4.678727e+00 5.027020e+00 1.138271e+01 6.469340e+00 4.069872e+00 -9.999364e-01 -4.797746e+00 7.266607e-01 -7.951787e+00 -2.886024e+00 -1.933007e+00 -3.882203e+00 -2.486178e+00 1.332927e-01 -8.333309e-01 -2.305156e+00 1.519605e+00 5.600661e-01 -6.376468e-01 7.194945e-01 -1.090611e+00 -7.099693e-01 1.129302e-01 2.804614e-01 6.371043e-02 8.145914e-02 -3.841529e-01 1.098024e-01 2.568075e-02 -9.750115e-01 -2.130108e-01 3.187282e-02 4.734078e-02 1.369611e-01 -3.529956e-03
<VARIANCE> 39
 2.206013e+02 2.685412e+02 2.361798e+02 3.822311e+02 2.247157e+02 3.288791e+02 4.033217e+02 3.745381e+02 3.183963e+02 3.149303e+02 2.342273e+02 2.150458e+02 7.418807e+02 1.825130e+01 1.773531e+01 1.903859e+01 2.226932e+01 2.090980e+01 2.282012e+01 2.482202e+01 2.935634e+01 2.645616e+01 2.072215e+01 2.196797e+01 1.966574e+01 1.923670e+01 1.822200e+00 2.676737e+00 2.706858e+00 4.347984e+00 3.393805e+00 4.695266e+00 5.108914e+00 5.299605e+00 4.103994e+00 3.530805e+00 3.408875e+00 3.208732e+00 2.343537e+00
<GCONST> 2.021203e+02
<TRANSP> 5
 0.000000e+00 1.000000e+00 0.000000e+00 0.000000e+00 0.000000e+00
 0.000000e+00 6.603110e-01 3.396890e-01 0.000000e+00 0.000000e+00
 0.000000e+00 0.000000e+00 6.209028e-01 3.790972e-01 0.000000e+00
 0.000000e+00 0.000000e+00 0.000000e+00 6.651689e-01 3.348311e-01
 0.000000e+00 0.000000e+00 0.000000e+00 0.000000e+00 0.000000e+00
<ENDHMM>
~h "r"
<BEGINHMM>
<NUMSTATES> 5
<STATE> 2
<MEAN> 39
 3.849343e+01 -1.460657e+01 -1.600516e+01 5.611856e+00 2.654490e+01 -1.707247e+01 -2.800546e+01 4.749665e-01 -3.035348e+00 -1.021248e-02 3.791900e+00 3.211717e+00 2.607193e+01 3.155728e-01 -9.669714e-01 -9.761008e-01 3.957863e-01 8.155931e-01 -1.486658e+00 -1.086000e+00 1.143306e+00 1.316051e+00 3.695060e-01 -3.911020e-02 9.078506e-02 1.248373e-01 -1.204561e+00 1.622805e-01 1.697511e+00 -1.783451e-01 -1.844754e+00 8.976672e-02 1.633293e+00 4.332922e-01 -4.556195e-01 -1.733901e-01 9.157696e-04 6.882299e-02 6.252869e-02
<VARIANCE> 39
 9.043017e+01 1.364172e+02 3.685383e+02 2.709967e+02 2.986975e+02 6.947722e+02 6.275380e+02 3.696021e+02 2.472206e+02 3.432370e+02 2.235488e+02 1.926781e+02 1.466842e+02 1.019949e+01 8.883433e+00 3.774199e+01 2.134993e+01 2.744816e+01 3.247179e+01 2.840419e+01 2.882461e+01 2.341130e+01 2.018996e+01 1.694932e+01 1.550006e+01 7.053588e+00 1.316876e+00 1.755509e+00 2.105846e+00 2.383549e+00 2.743613e+00 5.710495e+00 4.388271e+00 4.330904e+00 3.524178e+00 3.451285e+00 3.055362e+00 2.768357e+00 9.407886e-01
<GCONST> 1.953160e+02
<STATE> 3
<MEAN> 39
 3.221465e+01 -1.931332e+01 -5.684135e+00 1.082296e+01 1.693190e+01 -2.789584e+01 -1.737741e+01 1.265887e+01 -1.710826e+00 -1.427774e+00 3.475115e+00 4.326464e+00 2.688900e+01 -3.921535e+00 -2.152026e-01 5.717053e+00 4.939561e-01 -5.103588e+00 -5.189103e-02 5.583421e+00 1.560467e+00 -1.706438e+00 -3.880536e-01 7.058484e-01 -2.887492e-01 -3.031454e-01 -8.857934e-01 8.968548e-01 4.965745e-01 -1.102966e+00 -6.381580e-01 1.980449e+00 9.887820e-01 -1.485709e+00 -6.081183e-01 6.093546e-01 1.076262e-01 -3.493157e-01 -4.277040e-01
<VARIANCE> 39
 1.080347e+02 1.640360e+02 4.987661e+02 3.014759e+02 3.233138e+02 6.933342e+02 6.913070e+02 3.481111e+02 3.519869e+02 3.773305e+02 2.190272e+02 2.132533e+02 2.411995e+02 1.409525e+01 1.164016e+01 3.241350e+01 2.407811e+01 2.880824e+01 3.374364e+01 3.235900e+01 3.222108e+01 3.352423e+01 2.520594e+01 2.092001e+01 1.780415e+01 1.363324e+01 1.821037e+00 2.307242e+00 2.472601e+00 2.559988e+00 3.353598e+00 6.199904e+00 4.984503e+00 4.888983e+00 4.180558e+00 3.512052e+00 2.910019e+00 2.736467e+00 1.070937e+00
<GCONST> 2.013257e+02
<STATE> 4
<MEAN> 39
 1.835020e+01 -1.714077e+01 5.546636e+00 9.358748e+00 4.520045e+00 -1.777644e+01 5.411184e-01 1.140874e+01 -4.461471e+00 5.798098e-01 3.586903e+00 -6.745240e-02 1.918314e+01 -3.790174e+00 1.494498e+00 3.539549e+00 -1.964496e+00 -3.321267e+00 3.175491e+00 3.328279e+00 -2.254847e+00 -9.894561e-01 1.065992e+00 -3.775758e-01 -1.013109e+00 -1.453556e+00 1.080571e-01 6.179727e-01 -6.181231e-01 -5.213538e-01 6.707031e-01 6.523142e-01 -8.139768e-01 -7.474438e-01 4.242816e-01 1.685804e-01 -3.225810e-01 3.077514e-02 -2.701342e-01
<VARIANCE> 39
 2.397046e+02 1.901148e+02 7.860668e+02 3.568495e+02 3.691163e+02 5.801879e+02 5.257973e+02 3.703984e+02 4.946292e+02 3.616933e+02 2.283140e+02 2.484002e+02 6.143314e+02 1.506590e+01 1.427463e+01 2.143824e+01 1.826491e+01 1.852436e+01 2.589786e+01 2.780975e+01 2.700386e+01 2.149444e+01 2.012287e+01 1.775822e+01 1.497242e+01 9.647575e+00 1.197108e+00 1.748276e+00 2.660029e+00 2.738124e+00 3.259648e+00 4.085603e+00 4.070767e+00 3.640579e+00 4.091902e+00 2.964692e+00 2.762898e+00 2.567433e+00 8.635904e-01
<GCONST> 1.992361e+02
<TRANSP> 5
 0.000000e+00 1.000000e+00 0.000000e+00 0.000000e+00 0.000000e+00
 0.000000e+00 7.370639e-01 2.629360e-01 0.000000e+00 0.000000e+00
 0.000000e+00 0.000000e+00 5.078501e-01 4.921499e-01 0.000000e+00
 0.000000e+00 0.000000e+00 0.000000e+00 6.254518e-01 3.745482e-01
 0.000000e+00 0.000000e+00 0.000000e+00 0.000000e+00 0.000000e+00
<ENDHMM>
~h "s"
<BEGINHMM>
<NUMSTATES> 5
<STATE> 2
<MEAN> 39
 -1.847401e+01 7.368476e+00 -4.150737e+00 7.357799e+00 2.663208e+00 2.319130e-01 1.217304e+00 6.891652e-01 2.185248e-01 -3.319888e+00 -9.395631e-01 7.085049e-01 -2.206044e+00 -7.549428e+00 1.573511e+00 -3.517640e+00 -7.094004e-01 -6.093881e-01 -2.868569e-01 5.607004e-01 9.716547e-01 -5.222214e-02 -4.397084e-01 4.230556e-01 1.540980e-01 1.196945e+00 1.757520e-01 -3.166117e-01 -6.600043e-01 -6.182849e-01 -2.824295e-01 -1.155736e-01 -3.531181e-01 -2.822771e-01 -2.491014e-01 2.084602e-01 4.630531e-02 -5.676972e-03 -5.548601e-02
<VARIANCE> 39
 5.475649e+02 2.373048e+02 3.607250e+02 3.024051e+02 3.211967e+02 3.257756e+02 2.862287e+02 2.559802e+02 2.648812e+02 2.146464e+02 1.978947e+02 1.750261e+02 5.608441e+02 5.601117e+01 2.489854e+01 4.116589e+01 3.708110e+01 2.917871e+01 3.422690e+01 2.988386e+01 2.794281e+01 3.029946e+01 2.445329e+01 2.291906e+01 2.120222e+01 3.358055e+01 8.877979e+00 4.694879e+00 5.397110e+00 5.310092e+00 5.274553e+00 5.467125e+00 5.035920e+00 5.214632e+00 4.776629e+00 4.357039e+00 4.069344e+00 3.690384e+00 4.232479e+00
<GCONST> 2.109582e+02
<STATE> 3
<MEAN> 39
 -4.072313e+01 1.081405e+01 -1.965952e+01 5.031154e+00 -3.603148e+00 -1.542725e+00 -1.481569e-01 2.180396e+00 -1.896921e+00 -3.271442e+00 5.141531e-02 1.105009e+00 3.935778e+00 -3.118834e+00 6.177216e-01 -2.942091e+00 -1.361297e+00 -7.394428e-01 1.991795e-01 -5.806843e-01 -3.919398e-01 -4.911735e-01 1.672516e-01 -8.455691e-02 3.369232e-02 6.238576e-01 2.147323e+00 -4.561911e-01 9.341559e-01 3.529503e-01 2.793086e-01 1.916925e-01 -1.489484e-01 -3.198653e-01 1.071689e-01 1.518553e-01 -1.843239e-01 -2.710124e-02 -3.504313e-01
<VARIANCE> 39
 2.227261e+02 1.649419e+02 2.063680e+02 2.765980e+02 3.008760e+02 3.000415e+02 2.467042e+02 1.820916e+02 2.153804e+02 1.765409e+02 1.723492e+02 1.424718e+02 2.257360e+02 3.437367e+01 1.495978e+01 2.313234e+01 1.656309e+01 1.802044e+01 1.990047e+01 1.896247e+01 1.674577e+01 1.573779e+01 1.515188e+01 1.388098e+01 1.299535e+01 1.663949e+01 3.866709e+00 2.555546e+00 3.723814e+00 3.158296e+00 3.464560e+00 3.828388e+00 3.699695e+00 3.565217e+00 3.460722e+00 3.168907e+00 3.026693e+00 2.804747e+00 2.333067e+00
<GCONST> 1.939540e+02
<STATE> 4
<MEAN> 39
 -3.565390e+01 6.994700e+00 -1.988079e+01 2.392059e+00 -2.989429e+00 3.500055e-02 -1.491984e+00 2.062049e+00 -1.489596e+00 -1.430218e+00 -1.513679e+00 4.022314e-01 3.360700e+00 9.604505e-01 -1.646595e-01 2.512333e-01 -1.704322e-01 -2.959067e-03 3.232649e-01 8.028692e-02 -1.593851e-01 6.001067e-02 7.093753e-02 -8.837601e-02 -6.998119e-02 -3.147469e-01 7.507089e-01 -4.498547e-02 6.067234e-01 1.766485e-01 5.309365e-02 -1.060532e-01 4.704241e-02 -5.328467e-02 8.480108e-02 -3.812397e-02 3.216183e-03 5.141357e-02 2.689848e-03
<VARIANCE> 39
 3.735408e+02 1.510070e+02 2.121778e+02 2.431680e+02 2.549579e+02 2.689110e+02 2.234603e+02 1.654738e+02 1.984751e+02 1.607816e+02 1.585280e+02 1.391070e+02 3.414144e+02 1.277782e+01 7.352980e+00 9.887873e+00 9.081811e+00 1.074659e+01 1.277348e+01 1.286808e+01 1.258313e+01 1.216081e+01 1.213648e+01 1.150723e+01 1.088490e+01 9.816138e+00 2.624613e+00 1.414201e+00 2.213521e+00 1.789924e+00 2.017557e+00 2.512167e+00 2.562897e+00 2.493853e+00 2.408123e+00 2.407845e+00 2.269113e+00 2.222626e+00 1.355664e+00
<GCONST> 1.823317e+02
<TRANSP> 5
 0.000000e+00 1.000000e+00 0.000000e+00 0.000000e+00 0.000000e+00
 0.000000e+00 6.055636e-01 3.944364e-01 0.000000e+00 0.000000e+00
 0.000000e+00 0.000000e+00 5.177693e-01 4.822307e-01 0.000000e+00
 0.000000e+00 0.000000e+00 0.000000e+00 8.454620e-01 1.545380e-01
 0.000000e+00 0.000000e+00 0.000000e+00 0.000000e+00 0.000000e+00
<ENDHMM>
~h "t"
<BEGINHMM>
<NUMSTATES> 5
<STATE> 2
<MEAN> 39
 -1.109562e+01 1.182712e+01 -5.326740e-01 1.242018e+01 4.320605e+00 5.548703e+00 -3.141705e-01 -2.650640e+00 9.086485e-01 -3.469343e+00 1.593449e+00 -2.299172e+00 -3.485178e+01 -3.337055e+00 -1.156868e+00 -4.506253e+00 -1.953799e+00 -1.995234e-01 -6.522619e-01 -4.140941e-01 3.412607e-01 6.875937e-01 -1.149552e-02 1.010393e+00 1.300902e-01 -7.570660e-01 -1.672609e-01 -5.572126e-01 9.256214e-01 -1.201031e+00 -5.932443e-01 -5.101177e-01 7.761448e-02 -4.249741e-01 -5.404606e-01 1.211750e-01 -3.112526e-01 2.324557e-01 3.167327e+00
<VARIANCE> 39
 2.552055e+02 2.295404e+02 3.700136e+02 2.761728e+02 2.046651e+02 2.193523e+02 3.040824e+02 2.203498e+02 2.469599e+02 1.868027e+02 1.641243e+02 1.586500e+02 5.830420e+02 2.045362e+01 3.179271e+01 4.743761e+01 3.793230e+01 2.554915e+01 2.716088e+01 2.830593e+01 2.966254e+01 3.259566e+01 2.240838e+01 2.115186e+01 1.855515e+01 1.349638e+02 3.384221e+00 6.305347e+00 6.895036e+00 6.761282e+00 4.839294e+00 4.879733e+00 5.294745e+00 5.198150e+00 5.732998e+00 4.208227e+00 3.867373e+00 3.518992e+00 1.555141e+01
<GCONST> 2.099260e+02
<STATE> 3
<MEAN> 39
 -2.808204e+01 4.246660e+00 -8.367959e+00 -7.181779e+00 -2.958477e+00 -3.753598e+00 -3.962777e-02 -5.835015e+00 -4.640098e+00 -2.700300e+00 2.429184e+00 -8.506499e-02 2.641253e+00 -3.061786e+00 -6.372597e-02 1.199868e+00 -1.660880e+00 -2.120938e+00 -2.229947e+00 1.571156e+00 3.203903e-01 -1.380977e+00 3.883414e-03 -3.556349e-01 1.504290e+00 9.252154e+00 1.209015e+00 3.223857e-01 1.252006e+00 1.642817e+00 -4.893036e-02 3.039438e-01 4.819630e-01 4.433011e-01 4.235316e-01 2.807141e-02 -2.791776e-01 1.571207e-01 -2.327755e+00
<VARIANCE> 39
 2.662286e+02 2.294972e+02 2.293890e+02 2.687810e+02 2.144479e+02 2.204110e+02 2.359250e+02 1.979899e+02 2.202823e+02 1.948113e+02 1.754883e+02 1.819053e+02 1.120291e+03 2.764980e+01 2.258686e+01 2.621790e+01 2.448170e+01 2.072530e+01 2.487500e+01 2.576570e+01 2.334670e+01 2.280827e+01 1.985025e+01 1.997158e+01 1.658412e+01 1.104494e+02 5.551095e+00 5.029461e+00 4.382457e+00 5.139843e+00 4.389399e+00 4.396204e+00 4.345561e+00 4.086688e+00 4.429550e+00 3.787376e+00 3.636378e+00 3.385851e+00 2.293806e+01
<GCONST> 2.062143e+02
<STATE> 4
<MEAN> 39
 -2.335075e+01 1.321960e+00 -2.538433e+00 -6.020408e-01 -7.421550e+00 -6.098968e+00 7.719955e+00 -1.518173e-01 -3.468450e+00 -3.526320e+00 5.376944e-01 3.657955e+00 2.536891e+00 2.844176e+00 -9.350401e-01 2.080660e+00 1.788467e+00 -2.244772e-01 1.344595e-01 8.250234e-01 1.287974e+00 7.863814e-01 -7.047686e-02 -7.758405e-01 1.930089e-01 -1.062250e+00 1.402875e+00 9.557401e-02 4.070696e-01 4.107563e-01 6.410504e-01 3.235025e-01 -4.679938e-01 -1.355869e-01 1.452168e-01 1.040262e-01 -8.088807e-02 -3.940915e-01 -6.421154e-01
<VARIANCE> 39
 4.024239e+02 1.576530e+02 2.397581e+02 2.123240e+02 2.121262e+02 2.696217e+02 2.329145e+02 2.752997e+02 2.465081e+02 2.162388e+02 2.298835e+02 1.897113e+02 7.077933e+02 2.786094e+01 1.322919e+01 2.693390e+01 1.880046e+01 1.660220e+01 1.843479e+01 1.809074e+01 1.926967e+01 1.774056e+01 1.660858e+01 1.613277e+01 1.476408e+01 2.850671e+01 6.211597e+00 2.829293e+00 3.557532e+00 3.219487e+00 3.228488e+00 4.030435e+00 3.580598e+00 3.697476e+00 3.700663e+00 3.432597e+00 3.399404e+00 2.915735e+00 7.033409e+00
<GCONST> 1.991882e+02
<TRANSP> 5
 0.000000e+00 1.000000e+00 0.000000e+00 0.000000e+00 0.000000e+00
 0.000000e+00 8.077976e-01 1.922024e-01 0.000000e+00 0.000000e+00
 0.000000e+00 0.000000e+00 6.375943e-01 3.624057e-01 0.000000e+00
 0.000000e+00 0.000000e+00 0.000000e+00 6.651964e-01 3.348036e-01
 0.000000e+00 0.000000e+00 0.000000e+00 0.000000e+00 0.000000e+00
<ENDHMM>
~h "v"
<BEGINHMM>
<NUMSTATES> 5
<STATE> 2
<MEAN> 39
 1.801328e+01 -2.114888e+01 6.113776e+00 -1.658668e+01 -9.489677e+00 -1.661249e+01 -8.679584e-01 9.488580e+00 1.578723e+01 8.459040e+00 6.699090e-01 2.138474e+00 4.458838e+01 8.153005e-01 5.369425e-01 1.178142e-01 1.308163e+00 1.205027e+00 4.580116e-01 -6.301118e-01 -9.515359e-01 -7.579999e-01 6.106191e-01 2.971828e-01 -7.861141e-01 -1.939592e+00 -3.033833e-01 1.165678e+00 -6.030060e-02 1.413791e+00 1.077230e+00 1.061908e+00 -3.863074e-01 -8.800033e-01 -8.713388e-01 -3.112200e-01 -1.253866e-01 -1.205219e-01 -1.618874e+00
<VARIANCE> 39
 8.267154e+01 1.139514e+02 1.746702e+02 1.776377e+02 1.810583e+02 1.807435e+02 5.010005e+02 2.250121e+02 1.976549e+02 3.041572e+02 2.184373e+02 2.335123e+02 1.766036e+02 2.648255e+00 1.197629e+01 8.486366e+00 1.509094e+01 1.127295e+01 1.198759e+01 1.721706e+01 1.642238e+01 1.556428e+01 1.127290e+01 1.523901e+01 1.236495e+01 1.140586e+01 1.352114e+00 1.010558e+00 1.472797e+00 1.765877e+00 2.219912e+00 3.135749e+00 3.652524e+00 2.159090e+00 2.609722e+00 2.209855e+00 2.135163e+00 2.124877e+00 1.125403e+00
<GCONST> 1.805733e+02
<STATE> 3
<MEAN> 39
 2.225885e+01 -1.003455e+01 9.768823e+00 3.653979e-01 -1.053569e+00 -1.385587e+01 -7.535198e+00 -3.953584e-01 5.981183e+00 9.628461e+00 1.462546e+00 -1.016815e+00 2.537817e+01 -1.680414e+00 5.746050e+00 7.330656e-01 7.163083e+00 5.449367e+00 5.670235e+00 -4.959216e-01 -2.893654e+00 -3.550793e+00 -1.059710e+00 3.119595e-01 -4.500951e-01 -8.854404e+00 -1.846600e+00 1.612591e-01 -5.573392e-01 -5.024643e-02 2.415571e-01 1.488410e+00 1.335196e+00 8.962208e-01 1.853751e-01 -6.241012e-01 -4.198060e-02 6.969414e-02 -5.682222e-01
<VARIANCE> 39
 8.481200e+01 1.829655e+02 2.215778e+02 2.815223e+02 2.291580e+02 2.659029e+02 3.285850e+02 2.397523e+02 2.881212e+02 2.535556e+02 2.767710e+02 2.165260e+02 2.866095e+02 1.750254e+01 1.630517e+01 1.654103e+01 2.252185e+01 2.199986e+01 2.396246e+01 3.303209e+01 2.242323e+01 2.542982e+01 2.334787e+01 2.377270e+01 1.982370e+01 1.514252e+01 2.651482e+00 2.888742e+00 2.444929e+00 4.122012e+00 3.916153e+00 4.764051e+00 4.045037e+00 3.652128e+00 4.808566e+00 3.374600e+00 3.778768e+00 3.001357e+00 3.069209e+00
<GCONST> 1.985283e+02
<STATE> 4
<MEAN> 39
 1.181078e+00 1.396050e-01 4.167483e+00 1.085534e+01 5.654436e+00 8.344641e-01 -4.322833e-01 1.322693e+00 2.126066e+00 1.681974e+00 -5.699708e-02 1.170744e-02 -2.291204e+00 -1.982341e+00 5.053506e-01 -9.430090e-01 6.239381e-02 2.004428e-01 1.043804e+00 5.565801e-01 3.587504e-01 -4.763947e-01 -9.800454e-01 4.475595e-02 3.052867e-02 -2.304678e+00 3.791794e-01 -7.545624e-01 -1.086908e-01 -1.113606e+00 -8.479177e-01 -9.447706e-01 -1.504259e-02 3.326553e-01 3.895859e-01 4.926196e-02 -3.472401e-02 1.079020e-01 1.182173e+00
<VARIANCE> 39
 4.055027e+02 1.791284e+02 1.887062e+02 2.522948e+02 2.284793e+02 2.460697e+02 2.337159e+02 2.445411e+02 2.430242e+02 2.172437e+02 2.160410e+02 1.649910e+02 4.308310e+02 3.557084e+01 2.247424e+01 1.534807e+01 2.908449e+01 2.551072e+01 3.580925e+01 2.598963e+01 2.247125e+01 2.475563e+01 1.921531e+01 1.925249e+01 1.594876e+01 3.097081e+01 4.816144e+00 4.420011e+00 3.071135e+00 6.071354e+00 5.162628e+00 6.128685e+00 4.848474e+00 4.463173e+00 4.553093e+00 3.618925e+00 3.568084e+00 3.067568e+00 5.343172e+00
<GCONST> 2.036336e+02
<TRANSP> 5
 0.000000e+00 1.000000e+00 0.000000e+00 0.000000e+00 0.000000e+00
 0.000000e+00 7.726134e-01 2.273866e-01 0.000000e+00 0.000000e+00
 0.000000e+00 0.000000e+00 4.157075e-01 5.842925e-01 0.000000e+00
 0.000000e+00 0.000000e+00 0.000000e+00 7.832348e-01 2.167652e-01
 0.000000e+00 0.000000e+00 0.000000e+00 0.000000e+00 0.000000e+00
<ENDHMM>
~h "w"
<BEGINHMM>
<NUMSTATES> 5
<STATE> 2
<MEAN> 39
 3.317940e+01 1.347064e+01 6.297739e+00 -3.222449e+01 -2.080075e+01 -4.899633e-02 3.197768e-01 1.189642e+01 -9.458174e-01 8.123510e+00 3.195850e+00 -3.068744e+00 2.018464e+01 -4.295095e-01 -4.109031e+00 -3.493834e+00 -6.147956e+00 1.933443e+00 2.592075e+00 1.725258e+00 4.413768e+00 3.816678e-01 -1.644910e+00 1.023658e+00 2.607070e-01 4.263496e+00 -5.833957e-01 -6.544071e-01 -7.086203e-01 1.027356e+00 1.981353e+00 1.469540e+00 3.702477e-01 -6.165629e-01 -5.007441e-01 -8.095582e-01 3.486678e-01 2.485682e-01 -2.077478e-01
<VARIANCE> 39
 5.943448e+01 1.274436e+02 1.906834e+02 2.463390e+02 3.128638e+02 2.266214e+02 3.502163e+02 3.017433e+02 2.976692e+02 2.888146e+02 2.328377e+02 2.134819e+02 1.318391e+02 2.376962e+00 1.096460e+01 8.876451e+00 1.495240e+01 2.032690e+01 1.962685e+01 2.076178e+01 2.128677e+01 2.101257e+01 2.068151e+01 1.671439e+01 1.783766e+01 5.434615e+00 6.591531e-01 1.263389e+00 1.408519e+00 3.378994e+00 2.487211e+00 2.649471e+00 4.142286e+00 4.484909e+00 3.687578e+00 3.521271e+00 3.305102e+00 2.970447e+00 6.846287e-01
<GCONST> 1.855088e+02
<STATE> 3
<MEAN> 39
 2.895498e+01 -4.001716e+00 -9.819379e+00 -4.423357e+01 -1.838109e-01 1.837227e+01 6.377649e+00 1.740707e+01 -6.437028e+00 -2.742750e+00 1.145126e+01 1.543097e+00 3.321980e+01 -1.500496e+00 -4.608994e+00 -2.717952e+00 9.125081e-01 6.586909e+00 3.497305e+00 -1.830310e+00 -2.135714e+00 -9.166355e-01 -1.787289e-01 3.445396e+00 3.818312e-01 2.681678e+00 -1.553718e-01 3.048681e-01 8.932703e-01 2.030181e+00 -1.954195e-01 -1.273187e+00 -1.486566e+00 -9.553965e-01 9.676152e-01 1.206776e+00 -3.063720e-01 -7.469814e-01 -5.340949e-01
<VARIANCE> 39
 6.371080e+01 1.183847e+02 1.754784e+02 2.085720e+02 4.895165e+02 2.466670e+02 3.229867e+02 3.090810e+02 2.890272e+02 3.351445e+02 2.461156e+02 2.581361e+02 1.465774e+02 1.949374e+00 6.645310e+00 6.098745e+00 1.491855e+01 1.197761e+01 1.483068e+01 2.349084e+01 2.037211e+01 2.174239e+01 2.321325e+01 1.642038e+01 2.005181e+01 3.124191e+00 2.654297e-01 7.359360e-01 1.031488e+00 2.007322e+00 2.953041e+00 2.856812e+00 2.738744e+00 4.028629e+00 3.890759e+00 3.590212e+00 4.196990e+00 3.174403e+00 3.010889e-01
<GCONST> 1.810908e+02
<STATE> 4
<MEAN> 39
 1.954067e+01 -2.142514e+01 -1.019321e+01 -2.140936e+01 2.052078e+01 1.026441e+01 -1.144139e+01 1.354411e+01 5.399630e+00 4.447453e+00 1.131604e+01 -6.599631e+00 4.008233e+01 -1.281349e+00 -1.181415e+00 2.301867e+00 4.411924e+00 -5.292161e-01 -3.665322e+00 -1.421350e+00 1.079755e+00 2.321977e+00 3.265375e-01 -2.546482e+00 -1.665550e-01 9.504967e-02 1.824826e-01 9.771428e-01 8.401489e-01 1.427488e-01 -1.093221e+00 -4.841394e-01 1.164869e+00 1.768822e-01 -5.568808e-01 -3.769547e-01 -7.207695e-01 6.550751e-01 -7.553359e-01
<VARIANCE> 39
 8.038042e+01 1.028781e+02 1.633802e+02 2.641445e+02 3.071193e+02 3.436608e+02 2.818623e+02 3.664105e+02 3.318062e+02 2.890901e+02 3.125968e+02 2.911040e+02 1.623709e+02 1.759369e+00 6.749493e+00 7.267523e+00 1.068588e+01 1.801189e+01 1.283662e+01 2.213063e+01 1.852874e+01 2.038628e+01 2.395013e+01 1.910936e+01 2.228968e+01 2.779839e+00 2.698955e-01 7.970434e-01 9.835899e-01 1.547411e+00 2.372818e+00 2.833132e+00 3.270032e+00 4.011379e+00 3.853347e+00 3.074531e+00 4.283432e+00 3.388507e+00 4.563007e-01
<GCONST> 1.817414e+02
<TRANSP> 5
 0.000000e+00 1.000000e+00 0.000000e+00 0.000000e+00 0.000000e+00
 0.000000e+00 6.893715e-01 3.106286e-01 0.000000e+00 0.000000e+00
 0.000000e+00 0.000000e+00 7.577699e-01 2.422301e-01 0.000000e+00
 0.000000e+00 0.000000e+00 0.000000e+00 8.432166e-01 1.567834e-01
 0.000000e+00 0.000000e+00 0.000000e+00 0.000000e+00 0.000000e+00
<ENDHMM>
~h "z"
<BEGINHMM>
<NUMSTATES> 5
<STATE> 2
<MEAN> 39
 -1.116922e+01 1.373430e+01 2.045451e+00 1.316762e+01 3.022336e+00 3.081067e+00 2.029176e+00 -1.507704e-01 3.674904e+00 -3.079754e+00 -4.150528e+00 5.531415e-01 -1.751735e+01 -2.213909e+00 3.718300e+00 -2.262303e-01 2.106198e+00 1.779615e+00 7.143907e-01 5.579378e-01 8.337554e-01 5.508694e-01 3.246434e-02 -1.184112e-02 2.381420e-01 2.004514e+00 -4.387707e-01 3.006883e-01 -2.685741e-01 -9.938323e-02 5.930796e-02 1.229307e-01 8.440419e-02 7.349744e-02 -1.281024e-01 1.959954e-01 1.724372e-01 -3.496626e-02 4.347252e-01
<VARIANCE> 39
 3.452201e+02 2.328141e+02 3.614289e+02 2.834062e+02 2.693057e+02 2.758743e+02 2.853273e+02 2.587257e+02 2.628529e+02 2.571405e+02 2.293678e+02 2.379827e+02 7.110824e+02 3.776105e+01 2.466200e+01 3.048504e+01 2.766237e+01 2.297210e+01 2.640603e+01 2.385214e+01 2.341589e+01 2.193708e+01 2.252013e+01 2.075024e+01 1.846575e+01 2.997363e+01 4.108214e+00 3.329493e+00 4.310908e+00 3.590780e+00 3.645275e+00 4.141981e+00 4.070992e+00 4.199249e+00 3.737754e+00 4.032688e+00 3.623362e+00 3.554324e+00 3.473965e+00
<GCONST> 2.048102e+02
<STATE> 3
<MEAN> 39
 -2.667873e+01 3.582912e+01 -4.901255e-01 2.534084e+01 1.264142e+01 9.763522e+00 5.439446e+00 3.961604e+00 4.562663e+00 -6.595722e-01 -2.826596e+00 2.148577e+00 3.557371e+00 -3.966677e+00 1.436525e+00 -1.675924e+00 2.528695e-01 4.738483e-01 9.400192e-01 6.851424e-01 5.361767e-01 -2.064629e-01 3.728069e-01 4.420923e-01 -7.411946e-02 1.651461e+00 1.149364e+00 -1.306894e+00 7.551457e-01 -6.549383e-01 -8.193547e-01 -5.865657e-01 -2.871311e-01 -5.874187e-01 -3.402337e-01 -1.995609e-01 -1.803388e-01 3.780677e-02 1.988627e-01
<VARIANCE> 39
 3.488297e+02 1.805978e+02 2.772744e+02 3.935182e+02 3.450682e+02 3.962237e+02 2.408224e+02 2.737543e+02 2.063490e+02 2.017354e+02 2.636478e+02 1.729730e+02 1.769018e+02 2.661757e+01 2.329741e+01 2.194656e+01 1.869113e+01 1.845272e+01 2.153858e+01 1.823830e+01 1.925109e+01 1.480595e+01 1.602772e+01 1.446242e+01 1.456936e+01 1.781343e+01 4.494859e+00 3.496254e+00 4.065103e+00 3.352736e+00 3.494129e+00 4.220368e+00 3.851974e+00 3.967877e+00 3.011716e+00 3.268271e+00 2.893274e+00 2.845303e+00 2.178011e+00
<GCONST> 1.977405e+02
<STATE> 4
<MEAN> 39
 -2.763623e+01 2.832045e+01 4.922532e+00 1.743035e+01 7.172547e+00 2.454472e+00 2.382306e+00 -2.625275e+00 -7.712047e-01 -2.775142e+00 -5.297399e+00 9.716185e-01 1.763072e+01 6.305041e+00 -4.459702e+00 6.489018e+00 -1.588263e+00 -3.080214e+00 -3.151036e+00 -2.261054e+00 -2.554836e+00 -1.748594e+00 -1.323968e+00 -9.028984e-01 4.748059e-01 4.160360e+00 1.570686e+00 -1.520710e+00 1.581533e+00 -6.679658e-01 -3.211640e-01 -3.580888e-01 -4.180084e-01 -2.254224e-03 -1.760207e-01 6.610571e-02 4.829799e-03 1.886664e-01 1.860297e-01
<VARIANCE> 39
 3.027212e+02 1.870510e+02 3.532265e+02 3.179669e+02 4.184952e+02 3.742610e+02 2.404215e+02 2.169636e+02 1.872691e+02 1.891406e+02 2.985992e+02 1.794108e+02 1.611799e+02 3.371554e+01 2.806638e+01 4.084571e+01 2.620723e+01 1.933549e+01 2.506922e+01 2.260712e+01 2.817367e+01 1.728912e+01 1.550860e+01 1.540614e+01 1.754525e+01 6.503240e+00 4.874496e+00 3.379615e+00 4.940971e+00 4.405685e+00 3.913896e+00 4.356668e+00 4.037136e+00 4.458915e+00 3.243283e+00 3.390352e+00 3.182025e+00 2.915195e+00 1.079053e+00
<GCONST> 1.993625e+02
<TRANSP> 5
 0.000000e+00 1.000000e+00 0.000000e+00 0.000000e+00 0.000000e+00
 0.000000e+00 7.372296e-01 2.627704e-01 0.000000e+00 0.000000e+00
 0.000000e+00 0.000000e+00 8.022091e-01 1.977909e-01 0.000000e+00
 0.000000e+00 0.000000e+00 0.000000e+00 7.840159e-01 2.159841e-01
 0.000000e+00 0.000000e+00 0.000000e+00 0.000000e+00 0.000000e+00
<ENDHMM>
~h "ah"
<BEGINHMM>
<NUMSTATES> 5
<STATE> 2
<MEAN> 39
 2.183583e+01 -1.335240e+01 7.092429e+00 -4.389709e+00 8.999198e+00 -2.560250e+00 -1.018292e+01 5.158632e+00 1.941211e+00 7.896010e+00 4.733222e+00 -2.345240e+00 2.910613e+01 3.966545e-02 1.420251e+00 2.533486e+00 1.900814e+00 -9.563436e-01 -9.976546e-01 2.344886e+00 4.274897e-01 -5.857303e-01 -7.038645e-01 -1.858331e+00 1.227015e+00 -1.348631e+00 3.704496e-02 6.723945e-01 3.399164e-01 6.451838e-01 -4.715920e-01 6.889467e-01 1.068848e+00 -9.868498e-01 -7.665539e-02 -7.484739e-02 -4.146201e-01 3.333496e-01 -6.426238e-01
<VARIANCE> 39
 8.956379e+01 1.233430e+02 1.357666e+02 2.148074e+02 1.921539e+02 3.332333e+02 3.308449e+02 4.093965e+02 3.857401e+02 3.247465e+02 3.108324e+02 2.278289e+02 2.220117e+02 4.626864e+00 1.683542e+01 1.306330e+01 4.058882e+01 2.293077e+01 3.272214e+01 3.407196e+01 3.479717e+01 3.560428e+01 2.885988e+01 3.022539e+01 2.229046e+01 2.985777e+01 1.020429e+00 3.345124e+00 1.909826e+00 6.789014e+00 4.225610e+00 8.168421e+00 7.640430e+00 7.862303e+00 7.028766e+00 5.055707e+00 4.555871e+00 3.705571e+00 6.043012e+00
<GCONST> 2.032541e+02
<STATE> 3
<MEAN> 39
 2.053683e+01 -5.724818e+00 1.749624e+01 6.978392e+00 3.831608e+00 -5.686653e+00 4.924382e+00 4.656973e+00 1.116609e+00 2.936043e+00 -6.048421e+00 5.126935e+00 2.142412e+01 6.048214e-01 4.541788e+00 3.828798e+00 5.765532e+00 -2.797434e+00 3.252912e+00 6.077117e+00 -6.395876e+00 -1.296959e+00 -8.355710e-01 -2.010235e+00 2.331829e+00 -5.196067e+00 9.765421e-04 1.232254e-01 -5.967630e-01 -3.117329e-01 -6.791445e-02 1.256544e+00 -2.195979e-01 -8.167191e-01 5.167675e-01 -2.885645e-02 7.156565e-01 -2.421443e-01 -1.398152e-01
<VARIANCE> 39
 7.503326e+01 1.189784e+02 1.756344e+02 2.689733e+02 1.958821e+02 3.619108e+02 3.841182e+02 4.503001e+02 3.417753e+02 4.059753e+02 3.006853e+02 2.817897e+02 1.488105e+02 5.137905e+00 1.067664e+01 1.621888e+01 2.787024e+01 2.184057e+01 4.331934e+01 4.898528e+01 5.149566e+01 3.663140e+01 2.890137e+01 3.354279e+01 2.680364e+01 9.588396e+00 7.003571e-01 1.732108e+00 2.569481e+00 5.047815e+00 3.125495e+00 5.767319e+00 5.938326e+00 7.695894e+00 5.046579e+00 4.154158e+00 3.992150e+00 3.720863e+00 2.096476e+00
<GCONST> 1.997389e+02
<STATE> 4
<MEAN> 39
 2.172527e+01 5.312068e+00 2.460000e+01 1.836220e+01 -3.976430e+00 9.187450e+00 1.712781e+01 -1.300591e+01 1.136289e+00 -7.601733e-01 -6.528729e+00 1.016338e+01 9.249601e+00 -2.088107e-01 2.601084e+00 7.335652e-01 2.068163e+00 -6.380295e-01 2.555288e+00 1.977655e+00 -1.971161e+00 3.014353e-02 -5.389494e-01 -2.251476e-01 1.416272e-01 -3.096322e+00 -5.134039e-01 -5.292544e-01 -9.287137e-01 -8.782129e-01 8.402857e-01 -6.002876e-01 -1.023272e+00 1.720559e+00 1.631002e-01 1.341498e-01 3.555662e-01 -6.858708e-01 3.786321e-01
<VARIANCE> 39
 7.107037e+01 1.268192e+02 1.336968e+02 2.120388e+02 2.130889e+02 3.641057e+02 3.575923e+02 3.417155e+02 4.005213e+02 4.864202e+02 4.393297e+02 3.807601e+02 1.220953e+02 3.894067e+00 7.732225e+00 1.033814e+01 1.346350e+01 1.412066e+01 2.347457e+01 2.562556e+01 3.078895e+01 1.865393e+01 1.656216e+01 1.848123e+01 1.749048e+01 5.199837e+00 8.598991e-01 1.564854e+00 1.919758e+00 3.181932e+00 2.769236e+00 4.283321e+00 5.041556e+00 4.942585e+00 4.289845e+00 3.667033e+00 4.226725e+00 3.816553e+00 1.249327e+00
<GCONST> 1.905502e+02
<TRANSP> 5
 0.000000e+00 1.000000e+00 0.000000e+00 0.000000e+00 0.000000e+00
 0.000000e+00 7.290814e-01 2.709186e-01 0.000000e+00 0.000000e+00
 0.000000e+00 0.000000e+00 4.900144e-01 5.099856e-01 0.000000e+00
 0.000000e+00 0.000000e+00 0.000000e+00 7.363048e-01 2.636952e-01
 0.000000e+00 0.000000e+00 0.000000e+00 0.000000e+00 0.000000e+00
<ENDHMM>
~h "ao"
<BEGINHMM>
<NUMSTATES> 5
<STATE> 2
<MEAN> 39
 2.906680e+01 1.486320e+01 2.592527e+00 -2.703668e+01 -1.302707e+01 5.458475e+00 4.376459e+00 2.105653e+00 -6.074018e+00 -5.834547e-01 -6.036146e+00 -2.237102e-01 1.692834e+01 1.087804e+01 5.874762e+00 4.551732e+00 -1.021290e+01 -6.121023e+00 -1.194001e+00 -2.709474e-01 2.827077e+00 -1.606048e+00 9.201740e-01 -1.716364e+00 -1.173272e+00 3.887641e+00 -3.444060e+00 -1.682365e+00 -6.495938e-01 1.326300e+00 6.672624e-02 -3.681031e-01 -1.040804e+00 -2.224479e-01 8.879669e-02 2.529627e-01 3.263623e-01 -3.143563e-01 -6.204644e-01
<VARIANCE> 39
 2.488327e+02 1.517269e+02 1.763911e+02 5.015082e+02 3.555544e+02 1.924742e+02 1.902863e+02 2.055636e+02 2.071397e+02 1.712045e+02 1.609757e+02 2.086279e+02 2.114489e+02 4.179292e+01 2.443547e+01 2.269990e+01 3.695730e+01 3.539489e+01 2.570021e+01 3.627642e+01 3.107306e+01 3.096547e+01 2.898606e+01 2.492245e+01 3.329375e+01 1.243134e+01 4.626984e+00 3.019220e+00 2.720097e+00 7.926018e+00 4.820092e+00 2.617213e+00 3.239136e+00 3.377529e+00 3.385938e+00 2.747243e+00 2.741255e+00 3.424193e+00 2.569832e+00
<GCONST> 2.011573e+02
<STATE> 3
<MEAN> 39
 3.682374e+01 2.049788e+01 9.661105e+00 -4.067387e+01 -2.614426e+01 1.310578e+00 -4.490241e-01 6.658094e+00 -7.789484e+00 4.850425e+00 -7.204908e+00 -4.778266e+00 2.210470e+01 2.750636e-01 -5.670043e-01 -7.623724e-01 2.703000e-01 -4.243865e-01 -5.526380e-01 6.297204e-01 5.020228e-01 -9.447304e-01 8.606299e-02 5.251893e-01 1.814618e-01 2.755249e-01 -5.280951e-01 -8.220161e-01 -8.416598e-01 9.895511e-01 9.111316e-01 9.909735e-02 2.968531e-01 -1.939384e-01 -2.891720e-01 -2.861732e-01 4.447708e-01 4.667666e-01 -6.325648e-02
<VARIANCE> 39
 6.202053e+01 1.205626e+02 2.154996e+02 2.353579e+02 3.730434e+02 2.684111e+02 2.817334e+02 2.614511e+02 2.581742e+02 2.740767e+02 2.233839e+02 2.624209e+02 1.620584e+02 1.581276e+00 8.354360e+00 8.229998e+00 8.083483e+00 8.120863e+00 8.114446e+00 1.311033e+01 1.161940e+01 1.319190e+01 1.159084e+01 1.043841e+01 9.983242e+00 3.345099e+00 1.626855e+00 9.779384e-01 1.107642e+00 2.416292e+00 1.803129e+00 1.562648e+00 2.117808e+00 2.138272e+00 2.340999e+00 2.242103e+00 2.252359e+00 2.326315e+00 7.223670e-01
<GCONST> 1.752468e+02
<STATE> 4
<MEAN> 39
 3.883277e+01 6.934338e-01 -1.707882e+01 -2.419102e+01 -2.494756e+00 -4.565578e+00 -2.330104e-01 9.488798e+00 -1.698620e+01 5.145572e-01 5.299464e+00 7.809663e+00 2.737680e+01 9.687504e-03 -3.104596e+00 -3.717596e+00 3.671969e+00 5.765598e+00 -1.260811e+00 -2.389328e+00 -6.215785e-01 8.601553e-01 6.073763e-01 1.622255e+00 1.327527e+00 3.909201e-01 -2.083282e-01 2.921947e-01 6.078023e-01 4.225945e-01 1.302631e-01 -2.748376e-01 -6.577399e-01 -7.152206e-02 1.128651e+00 2.835174e-01 -4.806683e-01 -6.052287e-01 -3.974614e-01
<VARIANCE> 39
 6.633278e+01 2.004603e+02 3.037847e+02 2.922399e+02 5.820053e+02 3.732768e+02 5.323904e+02 4.872470e+02 3.976624e+02 6.231231e+02 3.457971e+02 3.544231e+02 1.661881e+02 1.946132e+00 8.393051e+00 1.258407e+01 1.418771e+01 1.839278e+01 2.170674e+01 2.236567e+01 2.531160e+01 2.681909e+01 3.310135e+01 2.716973e+01 3.406218e+01 3.673335e+00 3.629425e-01 9.850680e-01 1.642591e+00 1.563601e+00 2.893416e+00 2.882668e+00 3.551344e+00 4.392118e+00 3.984526e+00 5.391865e+00 4.378046e+00 4.875316e+00 3.583638e-01
<GCONST> 1.916826e+02
<TRANSP> 5
 0.000000e+00 1.000000e+00 0.000000e+00 0.000000e+00 0.000000e+00
 0.000000e+00 6.312835e-01 3.687165e-01 0.000000e+00 0.000000e+00
 0.000000e+00 0.000000e+00 8.732083e-01 1.267917e-01 0.000000e+00
 0.000000e+00 0.000000e+00 0.000000e+00 8.568487e-01 1.431513e-01
 0.000000e+00 0.000000e+00 0.000000e+00 0.000000e+00 0.000000e+00
<ENDHMM>
~h "ay"
<BEGINHMM>
<NUMSTATES> 5
<STATE> 2
<MEAN> 39
 2.010555e+01 -2.490585e+01 -1.216941e+01 -2.208659e+01 1.056717e+01 9.814736e+00 -3.344274e+00 9.216592e+00 1.050219e+01 6.544900e+00 3.412665e+00 -5.162602e+00 4.390526e+01 -4.067030e-01 -1.747342e+00 -2.056810e+00 -4.427319e-02 2.236318e+00 2.323999e+00 -9.046111e-01 -1.890246e-01 8.641283e-01 -6.695712e-01 3.316162e-01 -1.405497e+00 8.109506e-01 -8.957725e-02 1.033255e+00 9.205543e-01 1.065040e+00 -3.378822e-01 -3.673511e-01 4.605136e-02 -5.068007e-01 -5.161194e-01 -6.820063e-02 -1.428345e-01 1.906895e-01 -1.195770e+00
<VARIANCE> 39
 8.611767e+01 1.075927e+02 1.803554e+02 2.724762e+02 3.147380e+02 2.810385e+02 3.065723e+02 3.387015e+02 2.734726e+02 2.883129e+02 3.291795e+02 2.294565e+02 1.083065e+02 2.520773e+00 4.806708e+00 7.447232e+00 9.564552e+00 9.858751e+00 1.095816e+01 1.570699e+01 1.154377e+01 1.276548e+01 1.286289e+01 1.464121e+01 1.289654e+01 2.382962e+00 8.266931e-01 1.040644e+00 1.077190e+00 2.115230e+00 1.826640e+00 2.068770e+00 2.938812e+00 3.013573e+00 2.490363e+00 2.189901e+00 2.335482e+00 1.779894e+00 1.070622e+00
<GCONST> 1.769734e+02
<STATE> 3
<MEAN> 39
 1.873634e+01 -2.804976e+01 -1.310048e+01 -1.851566e+01 1.444186e+01 1.219807e+01 -5.737300e+00 9.535864e+00 1.142754e+01 4.363521e+00 1.523469e+00 -7.901544e+00 4.324260e+01 -2.251251e-01 -3.060294e-01 6.635474e-01 9.573805e-01 -3.089028e-01 -1.002366e+00 -4.041938e-02 7.411348e-01 3.197579e-01 -4.788990e-01 -4.511577e-01 9.696102e-02 -1.456519e-01 -1.229562e-02 1.767518e-01 3.835144e-01 9.255289e-02 -4.359477e-01 -4.534910e-01 2.299587e-01 1.588344e-01 -9.584283e-02 -3.822042e-02 -2.454974e-02 2.481768e-01 -8.873112e-02
<VARIANCE> 39
 7.432214e+01 1.093048e+02 1.459337e+02 2.605462e+02 3.400633e+02 2.629020e+02 2.878798e+02 3.150509e+02 2.542723e+02 2.514115e+02 2.811667e+02 2.552484e+02 1.223395e+02 8.216154e-01 1.618619e+00 3.094561e+00 3.518745e+00 5.055656e+00 6.546865e+00 6.002758e+00 4.888153e+00 4.779913e+00 5.020373e+00 5.348384e+00 5.315145e+00 7.119060e-01 1.319674e-01 2.661141e-01 3.597775e-01 4.603983e-01 6.035418e-01 6.551731e-01 8.618683e-01 7.340664e-01 7.965184e-01 7.952799e-01 8.095985e-01 8.054485e-01 1.092576e-01
<GCONST> 1.472014e+02
<STATE> 4
<MEAN> 39
 1.499161e+01 -2.412609e+01 5.162694e+00 -9.516651e+00 -1.735446e+00 -5.867207e+00 3.154970e+00 1.844453e+01 9.008157e+00 -1.177601e+00 2.851751e-01 1.130301e-01 3.890856e+01 -4.431338e-01 2.309989e+00 4.035985e+00 2.422393e-01 -3.450875e+00 -2.217517e+00 2.087613e+00 -3.565755e-01 -1.901265e+00 4.659128e-01 8.050181e-01 1.376192e+00 -1.412661e+00 2.021545e-01 6.602914e-01 8.713569e-02 8.782061e-02 3.668888e-01 4.369990e-01 -1.726642e-01 -9.236374e-01 -3.550850e-01 4.447633e-01 6.530033e-02 -1.522738e-01 -5.886378e-01
<VARIANCE> 39
 7.823627e+01 1.451653e+02 2.821461e+02 1.734299e+02 3.054405e+02 2.087175e+02 3.295212e+02 2.391703e+02 3.020342e+02 2.637053e+02 2.297242e+02 2.254225e+02 1.641477e+02 1.831880e+00 4.349452e+00 6.653050e+00 1.002974e+01 1.220060e+01 1.388765e+01 1.815219e+01 1.563484e+01 1.424314e+01 1.336040e+01 1.200031e+01 1.238833e+01 2.052105e+00 2.984968e-01 5.739752e-01 1.030730e+00 1.658346e+00 1.835727e+00 1.499914e+00 2.249514e+00 1.963695e+00 2.118048e+00 2.012698e+00 2.012464e+00 1.866174e+00 3.980781e-01
<GCONST> 1.725399e+02
<TRANSP> 5
 0.000000e+00 1.000000e+00 0.000000e+00 0.000000e+00 0.000000e+00
 0.000000e+00 6.247753e-01 3.752247e-01 0.000000e+00 0.000000e+00
 0.000000e+00 0.000000e+00 9.042546e-01 9.574540e-02 0.000000e+00
 0.000000e+00 0.000000e+00 0.000000e+00 7.989478e-01 2.010522e-01
 0.000000e+00 0.000000e+00 0.000000e+00 0.000000e+00 0.000000e+00
<ENDHMM>
~h "eh"
<BEGINHMM>
<NUMSTATES> 5
<STATE> 2
<MEAN> 39
 -5.185760e+01 1.513342e+01 -2.597047e+01 -2.047287e+00 -6.616471e-01 -5.358102e+00 1.908040e+00 -8.563158e-01 -1.625149e+00 -5.238738e+00 -2.710726e+00 3.715487e+00 9.109139e+00 2.599989e+00 -2.272808e-01 1.701389e+00 -5.433040e-02 -5.596042e-01 -8.844244e-01 -1.103830e-01 -2.947091e-01 6.455653e-01 -1.926645e-01 -3.733236e-01 7.070317e-01 1.221808e+00 2.634535e+00 -4.639916e-01 1.725270e+00 1.409166e-01 5.897183e-02 -5.235188e-01 -2.615073e-01 -1.136613e-01 5.177093e-01 2.948966e-01 -1.395706e-01 1.767194e-01 5.983479e-01
<VARIANCE> 39
 1.386972e+02 1.175582e+02 1.439196e+02 2.607111e+02 2.640393e+02 2.838530e+02 2.292411e+02 1.457576e+02 1.982008e+02 1.666452e+02 1.760054e+02 1.409467e+02 1.046520e+02 2.278428e+01 7.195868e+00 1.704955e+01 8.611711e+00 8.905210e+00 1.124228e+01 1.083865e+01 1.106292e+01 1.158897e+01 1.224255e+01 1.190036e+01 1.138953e+01 5.116159e+00 3.824595e+00 1.442479e+00 2.177999e+00 1.889609e+00 1.993870e+00 3.075099e+00 2.965198e+00 2.324362e+00 3.005396e+00 2.950416e+00 2.509411e+00 2.704536e+00 1.402247e+00
<GCONST> 1.810053e+02
<STATE> 3
<MEAN> 39
 -2.409352e+01 1.280303e+01 -7.944415e+00 3.896751e+00 -4.079954e+00 -6.378821e+00 -1.654171e+00 -1.900283e+00 1.885883e+00 -3.122225e+00 -4.334826e+00 5.337581e+00 1.242153e+01 1.698083e+01 -3.825579e+00 9.839556e+00 -5.862661e-01 1.461067e-01 -4.114265e+00 -3.203134e+00 -1.346740e+00 2.892598e+00 2.259110e+00 -8.410705e-01 1.396043e+00 6.803707e+00 9.903558e-01 -2.124751e+00 -1.068756e-01 -1.635912e+00 -3.096568e-01 -5.590093e-01 -6.911352e-01 5.074257e-01 5.394925e-01 9.431964e-01 4.608722e-01 -1.935847e-01 2.117047e+00
<VARIANCE> 39
 4.633551e+02 1.110369e+02 2.321663e+02 2.180219e+02 2.721745e+02 2.659561e+02 2.273687e+02 1.766939e+02 2.347197e+02 1.888879e+02 2.377349e+02 1.837268e+02 1.335253e+02 1.437512e+01 1.794725e+01 1.671040e+01 2.486700e+01 1.909592e+01 3.946275e+01 4.340717e+01 1.892565e+01 3.471980e+01 3.746455e+01 2.376665e+01 3.618440e+01 1.521929e+01 8.461809e+00 2.033874e+00 4.927490e+00 2.774632e+00 3.231708e+00 4.153506e+00 7.066023e+00 3.031388e+00 4.499587e+00 3.652072e+00 3.430348e+00 3.480396e+00 1.491282e+00
<GCONST> 1.997964e+02
<STATE> 4
<MEAN> 39
 1.684065e+01 -8.304144e+00 1.167044e+01 -7.780098e+00 -7.086255e+00 -1.950100e+01 -1.530667e+01 -3.828960e+00 9.396053e+00 6.415895e+00 -3.687046e+00 8.129972e+00 4.071853e+01 7.052483e+00 -7.423485e+00 2.377116e+00 -5.735781e+00 -1.808463e+00 -2.818688e+00 -8.878846e-01 2.564351e+00 3.634916e+00 2.901536e+00 1.525530e+00 9.300754e-02 7.843015e+00 -4.462426e+00 3.553538e-01 -2.947399e+00 -3.424269e-01 -6.905875e-02 1.438879e+00 1.751100e+00 1.173850e+00 -2.605953e-01 -3.806999e-01 3.703817e-01 -8.374606e-01 -1.610836e+00
<VARIANCE> 39
 7.465361e+01 1.197993e+02 1.252487e+02 1.825835e+02 2.185987e+02 1.705228e+02 3.548721e+02 2.248271e+02 2.277224e+02 3.301491e+02 2.879401e+02 3.382971e+02 1.401580e+02 4.388664e+01 1.141459e+01 2.608833e+01 2.003514e+01 2.132374e+01 2.876549e+01 6.859296e+01 1.995151e+01 2.919667e+01 2.500683e+01 2.155533e+01 2.318802e+01 1.157028e+01 1.711022e+00 2.745876e+00 2.174302e+00 3.324114e+00 2.704749e+00 4.792034e+00 4.938415e+00 2.723712e+00 4.796492e+00 4.000160e+00 3.611219e+00 4.856342e+00 1.744761e+00
<GCONST> 1.967168e+02
<TRANSP> 5
 0.000000e+00 1.000000e+00 0.000000e+00 0.000000e+00 0.000000e+00
 0.000000e+00 7.814808e-01 2.185192e-01 0.000000e+00 0.000000e+00
 0.000000e+00 0.000000e+00 5.083202e-01 4.916798e-01 0.000000e+00
 0.000000e+00 0.000000e+00 0.000000e+00 6.197701e-01 3.802299e-01
 0.000000e+00 0.000000e+00 0.000000e+00 0.000000e+00 0.000000e+00
<ENDHMM>
~h "ey"
<BEGINHMM>
<NUMSTATES> 5
<STATE> 2
<MEAN> 39
 6.375691e-01 -7.071951e+00 1.191437e+01 -8.477425e+00 -1.371964e+01 -1.081516e+01 1.194283e+00 2.067983e+00 1.645612e+00 3.292663e+00 3.395216e+00 3.240508e+00 1.132414e+01 -3.151765e-01 -1.298125e-01 2.052373e+00 -7.336496e-01 -1.151998e+00 2.152570e-02 3.415108e-01 -4.446233e-01 -2.865668e-01 1.551874e-01 2.258732e-01 9.756269e-02 1.388622e+00 2.774853e-01 7.364964e-02 5.472719e-01 -2.030410e-02 1.768862e-01 1.561372e-01 9.998996e-02 -2.308031e-01 -2.278121e-01 5.013131e-03 -2.261049e-01 -2.874801e-02 4.904315e-01
<VARIANCE> 39
 2.721529e+02 1.921954e+02 5.523787e+02 2.865113e+02 2.361765e+02 2.826506e+02 3.477874e+02 2.726617e+02 2.956432e+02 2.146002e+02 1.635745e+02 1.853321e+02 1.507667e+03 9.004073e+00 1.134981e+01 1.265199e+01 1.279536e+01 1.619963e+01 1.860816e+01 1.935479e+01 2.015756e+01 1.712333e+01 1.434174e+01 1.314124e+01 1.328895e+01 2.932397e+01 1.814693e+00 1.967612e+00 2.438984e+00 2.590290e+00 2.973749e+00 3.205741e+00 3.573734e+00 3.223511e+00 2.847462e+00 2.561129e+00 2.446942e+00 2.396762e+00 7.398691e+00
<GCONST> 1.947840e+02
<STATE> 3
<MEAN> 39
 5.117421e+00 -9.098468e+00 3.000149e+01 -1.840988e+01 -1.863272e+01 -1.043289e+01 1.654678e+00 -3.645542e+00 -6.771578e-02 7.497473e+00 2.033046e+00 4.223159e+00 3.314765e+01 1.050752e+00 6.733325e-02 4.318806e+00 -1.175811e+00 -1.367860e-01 4.803576e-01 -3.328595e-01 -1.269390e+00 -9.843422e-01 -4.525843e-02 -6.796566e-01 1.287732e-01 4.487990e+00 -2.313881e-01 4.098607e-01 -2.447727e-01 3.702749e-01 4.657876e-01 3.084163e-01 -1.765198e-01 -1.874071e-01 -1.228845e-01 -2.719042e-01 -1.841710e-01 -1.242823e-01 -9.173641e-01
<VARIANCE> 39
 1.753236e+02 1.750331e+02 4.692001e+02 3.289089e+02 1.788440e+02 2.301811e+02 3.322560e+02 2.744701e+02 4.204879e+02 2.224569e+02 1.523436e+02 1.792226e+02 8.983263e+02 1.517011e+01 1.538605e+01 1.924088e+01 1.961740e+01 1.613062e+01 1.700082e+01 2.482904e+01 1.903247e+01 2.028473e+01 1.645248e+01 1.328170e+01 1.397524e+01 8.524394e+01 2.133530e+00 1.896188e+00 2.836539e+00 2.713204e+00 2.364544e+00 2.684556e+00 3.658591e+00 2.759283e+00 2.909349e+00 2.580136e+00 2.287493e+00 2.143933e+00 9.597327e+00
<GCONST> 1.965670e+02
<STATE> 4
<MEAN> 39
 3.175654e+00 7.454293e+00 5.192297e+01 -8.712368e+00 -6.282586e+00 2.358703e+00 -3.371471e+00 -1.873416e+01 -9.086298e+00 -2.470105e+00 -8.532005e+00 1.143576e+00 2.260616e+01 -5.120568e-01 2.326062e+00 -2.037554e+00 4.050827e+00 1.808006e+00 1.340843e+00 6.704780e-01 3.780809e-01 1.071531e-01 -1.025837e+00 -4.173187e-01 -8.859950e-01 -6.260065e+00 -1.922550e-01 -2.519109e-02 -1.793319e+00 4.132818e-01 6.341372e-02 -1.874445e-01 1.108252e-01 7.551814e-01 5.286565e-01 1.555743e-01 5.933241e-01 4.432955e-02 -1.086940e+00
<VARIANCE> 39
 9.755633e+01 2.098949e+02 3.362040e+02 4.691885e+02 2.352220e+02 2.590760e+02 3.201030e+02 4.225934e+02 5.024093e+02 3.013634e+02 2.591871e+02 2.868395e+02 5.373694e+02 6.601345e+00 1.225154e+01 4.949598e+01 2.614502e+01 1.800747e+01 1.732158e+01 2.280286e+01 3.004241e+01 3.031652e+01 2.097516e+01 2.130231e+01 2.103488e+01 4.124730e+01 1.380789e+00 2.029046e+00 4.952689e+00 4.591107e+00 2.990652e+00 2.909239e+00 3.807656e+00 4.865905e+00 4.738938e+00 3.648174e+00 3.621336e+00 3.558181e+00 4.218384e+00
<GCONST> 2.020294e+02
<TRANSP> 5
 0.000000e+00 1.000000e+00 0.000000e+00 0.000000e+00 0.000000e+00
 0.000000e+00 8.271503e-01 1.728497e-01 0.000000e+00 0.000000e+00
 0.000000e+00 0.000000e+00 8.664062e-01 1.335938e-01 0.000000e+00
 0.000000e+00 0.000000e+00 0.000000e+00 8.841218e-01 1.158782e-01
 0.000000e+00 0.000000e+00 0.000000e+00 0.000000e+00 0.000000e+00
<ENDHMM>
~h "hh"
<BEGINHMM>
<NUMSTATES> 5
<STATE> 2
<MEAN> 39
 -4.320741e+00 5.799368e+00 -8.889507e+00 8.102081e-01 1.199398e+00 6.663762e+00 1.984053e+00 -3.244838e+00 -1.473734e+00 -1.688867e+00 3.984339e-01 -1.315554e+00 -2.296326e+01 1.819245e+00 2.301374e+00 9.794235e-01 1.647755e-01 -6.064820e-01 9.295819e-01 1.375698e+00 5.277589e-01 2.497880e-01 4.449342e-01 5.208078e-02 -1.748636e-01 -4.965016e-01 7.506481e-01 4.321477e-01 6.123127e-01 -1.032970e-01 -4.757790e-01 -4.369851e-01 -3.271573e-02 1.425646e-01 1.287423e-01 2.223590e-01 -8.287663e-02 -2.176330e-02 6.943358e-01
<VARIANCE> 39
 4.931958e+02 2.783997e+02 2.300568e+02 2.358720e+02 2.592086e+02 2.712314e+02 2.951071e+02 2.557718e+02 2.878311e+02 2.132717e+02 1.919703e+02 1.770271e+02 5.817198e+02 2.204214e+01 2.162917e+01 2.097981e+01 2.289444e+01 2.324628e+01 2.804737e+01 2.584951e+01 2.384446e+01 2.252349e+01 1.949820e+01 1.832637e+01 1.496537e+01 1.961918e+01 3.580946e+00 3.870528e+00 3.422989e+00 4.162161e+00 4.855657e+00 5.136760e+00 4.961029e+00 4.850087e+00 4.652772e+00 4.001660e+00 3.638297e+00 3.068913e+00 3.568834e+00
<GCONST> 2.028383e+02
<STATE> 3
<MEAN> 39
 1.879736e+01 2.440755e+01 5.051726e+00 4.345658e+00 -1.451754e+00 9.828600e+00 8.259418e+00 -8.293466e-01 -9.721030e-01 2.422024e+00 -1.158309e+00 -2.008622e+00 -1.207313e+01 6.190708e+00 2.882207e+00 2.495035e+00 -2.377816e+00 -3.466832e+00 -1.351724e+00 -1.803912e-01 3.331457e-01 2.901311e-02 1.327480e+00 -2.493233e-01 -4.589353e-01 4.293753e+00 -2.012185e-01 -1.326874e+00 -3.421833e-01 -1.588969e+00 -7.608962e-01 -1.027521e+00 -9.450775e-01 -9.379600e-02 -2.439184e-01 1.611121e-01 9.808675e-02 6.639792e-02 1.161659e+00
<VARIANCE> 39
 2.924475e+02 2.163623e+02 1.494361e+02 3.008448e+02 2.491612e+02 2.431822e+02 2.281475e+02 2.125404e+02 2.743507e+02 1.991547e+02 1.733223e+02 1.762592e+02 3.738525e+02 4.096689e+01 2.224962e+01 1.856501e+01 2.936861e+01 2.262847e+01 2.216922e+01 2.600595e+01 2.472532e+01 2.651753e+01 2.076595e+01 1.823186e+01 1.693876e+01 3.879688e+01 4.241246e+00 3.737960e+00 3.029728e+00 5.680762e+00 4.081621e+00 4.081286e+00 4.299767e+00 4.394834e+00 4.308586e+00 3.626415e+00 3.265894e+00 3.129947e+00 3.045632e+00
<GCONST> 2.014570e+02
<STATE> 4
<MEAN> 39
 3.218511e+01 2.472224e+01 1.100768e+01 -1.065150e+01 -1.577816e+01 1.276895e+00 1.521656e+00 -1.482425e+00 -3.708651e+00 6.796550e+00 -1.120111e+00 -3.205365e+00 4.541064e+00 1.682374e+00 -1.226265e+00 3.420822e-01 -4.800986e+00 -2.701773e+00 -1.954901e+00 -1.612524e+00 1.279897e+00 2.210287e-01 1.142533e+00 8.597853e-01 8.698697e-02 3.882255e+00 -1.027881e+00 -1.181629e+00 -9.566681e-01 -6.778057e-01 8.949061e-01 6.361817e-01 3.543447e-01 8.390325e-01 1.171217e-01 -3.749079e-01 2.998289e-01 1.033184e-01 1.341866e-01
<VARIANCE> 39
 7.277163e+01 1.709721e+02 1.675634e+02 2.212841e+02 2.389277e+02 2.565948e+02 2.688609e+02 2.561280e+02 2.887939e+02 2.409889e+02 2.113908e+02 2.155364e+02 1.556014e+02 1.054690e+01 1.461801e+01 1.242643e+01 2.996081e+01 1.823379e+01 1.697502e+01 2.274293e+01 2.223240e+01 2.111008e+01 1.834668e+01 1.703488e+01 1.587720e+01 1.802157e+01 2.433765e+00 2.575640e+00 2.143147e+00 3.335961e+00 3.387235e+00 3.501836e+00 3.918160e+00 4.251582e+00 3.773848e+00 3.368588e+00 3.064406e+00 2.995555e+00 2.071045e+00
<GCONST> 1.926609e+02
<TRANSP> 5
 0.000000e+00 1.000000e+00 0.000000e+00 0.000000e+00 0.000000e+00
 0.000000e+00 7.015294e-01 2.984706e-01 0.000000e+00 0.000000e+00
 0.000000e+00 0.000000e+00 5.620254e-01 4.379746e-01 0.000000e+00
 0.000000e+00 0.000000e+00 0.000000e+00 7.106185e-01 2.893815e-01
 0.000000e+00 0.000000e+00 0.000000e+00 0.000000e+00 0.000000e+00
<ENDHMM>
~h "ih"
<BEGINHMM>
<NUMSTATES> 5
<STATE> 2
<MEAN> 39
 -2.748965e+01 1.176146e+01 -8.734359e+00 9.496682e-01 -7.991600e+00 -2.301336e+00 1.184570e+00 -1.788131e+00 -5.535127e-01 -3.510744e+00 -2.839147e-01 4.713008e+00 1.673583e+01 1.094589e+01 -7.372569e-01 9.437696e+00 1.299892e+00 1.395778e-01 -3.041557e+00 -8.204394e-01 -1.675313e+00 8.606057e-01 2.152892e-01 -9.801865e-01 1.190924e+00 3.649089e+00 2.406372e+00 -1.395997e+00 1.991076e+00 -1.760831e-01 4.265956e-02 -1.061456e+00 -8.630480e-01 -4.797164e-01 -2.015170e-01 4.546701e-01 -1.841904e-01 5.344579e-02 1.370733e+00
<VARIANCE> 39
 5.203242e+02 1.160250e+02 4.174762e+02 2.375582e+02 2.356723e+02 2.797635e+02 1.968268e+02 1.678527e+02 2.057534e+02 1.597146e+02 2.040183e+02 1.707979e+02 1.499109e+02 3.918263e+01 1.524160e+01 3.040685e+01 1.745000e+01 1.259441e+01 2.358088e+01 2.072197e+01 1.403509e+01 1.504192e+01 1.731053e+01 1.530997e+01 2.240345e+01 1.428081e+01 6.942278e+00 2.373042e+00 5.554379e+00 3.467577e+00 2.773323e+00 4.697913e+00 5.187115e+00 3.193424e+00 4.092642e+00 3.089547e+00 2.899827e+00 4.018988e+00 1.843389e+00
<GCONST> 1.963910e+02
<STATE> 3
<MEAN> 39
 1.447329e+01 -3.746209e+00 2.587911e+01 -2.350739e+00 -8.582893e+00 -1.875205e+01 -5.652689e+00 -8.371323e+00 1.463904e+00 1.593821e+00 -3.147046e+00 8.810164e+00 3.890985e+01 5.593919e+00 -4.231247e+00 5.565020e+00 -1.589648e+00 -1.535822e+00 -3.098687e+00 -7.796070e-01 -8.015232e-01 -8.607439e-01 1.388127e+00 2.114884e-01 2.147566e-01 3.825863e+00 -2.224258e+00 1.899078e-01 -1.460945e+00 6.829571e-02 -2.810481e-01 5.110263e-01 7.212796e-01 4.158593e-01 -6.654167e-01 -5.375781e-02 3.333708e-01 -3.881870e-01 -1.169104e+00
<VARIANCE> 39
 2.283222e+02 1.905865e+02 1.982777e+02 2.389379e+02 2.508111e+02 1.941535e+02 3.678791e+02 1.952159e+02 1.916785e+02 1.873510e+02 2.632417e+02 3.059082e+02 2.087870e+02 5.685898e+01 1.731378e+01 3.753320e+01 2.491839e+01 1.564547e+01 2.972150e+01 4.954319e+01 2.307119e+01 2.754911e+01 1.820471e+01 1.850474e+01 2.441774e+01 2.017060e+01 5.639079e+00 2.871599e+00 3.481299e+00 3.473999e+00 2.271698e+00 3.855524e+00 4.630949e+00 2.857821e+00 3.011878e+00 3.132052e+00 3.147981e+00 4.022447e+00 2.420744e+00
<GCONST> 2.001744e+02
<STATE> 4
<MEAN> 39
 1.683154e+01 -1.217675e+01 3.610157e+01 2.409673e+00 -1.464822e+01 -2.498989e+01 2.535674e-01 -5.824849e+00 -1.241227e+01 4.147490e+00 -5.130572e-01 4.078789e+00 3.567604e+01 -9.359444e-01 2.427629e+00 -1.875368e-01 4.771639e+00 1.044600e+00 8.340477e-01 2.545462e+00 7.732645e-01 -2.894631e+00 -1.102207e+00 8.929294e-01 -1.407962e+00 -7.868087e+00 -1.312338e+00 1.654338e+00 -2.112382e+00 7.604273e-01 1.209553e+00 1.424207e+00 -4.060772e-01 2.995315e-01 7.823572e-01 -7.409868e-01 1.572713e-02 -1.605947e-01 -3.221220e+00
<VARIANCE> 39
 1.325766e+02 1.707215e+02 1.919697e+02 3.731794e+02 2.287120e+02 2.860789e+02 7.013423e+02 7.101505e+02 5.099589e+02 2.791716e+02 2.159282e+02 2.226056e+02 3.922264e+02 1.005282e+01 2.488744e+01 2.144268e+01 2.747608e+01 2.206934e+01 2.920261e+01 4.092634e+01 3.934700e+01 3.305194e+01 2.470642e+01 2.206381e+01 2.184072e+01 5.993015e+01 2.672327e+00 3.646800e+00 3.978037e+00 6.345210e+00 3.414500e+00 5.549361e+00 1.055980e+01 9.280066e+00 8.370339e+00 4.807654e+00 4.039362e+00 3.800844e+00 4.758266e+00
<GCONST> 2.094569e+02
<TRANSP> 5
 0.000000e+00 1.000000e+00 0.000000e+00 0.000000e+00 0.000000e+00
 0.000000e+00 6.249892e-01 3.750108e-01 0.000000e+00 0.000000e+00
 0.000000e+00 0.000000e+00 7.831988e-01 2.168012e-01 0.000000e+00
 0.000000e+00 0.000000e+00 0.000000e+00 8.038261e-01 1.961739e-01
 0.000000e+00 0.000000e+00 0.000000e+00 0.000000e+00 0.000000e+00
<ENDHMM>
~h "iy"
<BEGINHMM>
<NUMSTATES> 5
<STATE> 2
<MEAN> 39
 4.841752e+00 -1.435750e+00 4.882103e+01 -8.475913e-01 -7.786906e+00 -9.846285e+00 1.545053e+00 -1.358878e+01 -1.248592e+01 1.666376e-01 -6.225894e+00 4.988730e+00 3.219309e+01 9.880376e-01 -1.583740e+00 3.883355e+00 -3.116608e+00 -8.328349e-01 1.015648e+00 -2.000642e-01 -1.122142e+00 -5.913517e-02 7.415575e-01 -5.696247e-01 2.507948e-01 2.324847e-01 -4.506890e-01 4.698470e-01 -2.530163e+00 1.236402e+00 8.914308e-01 -3.244631e-01 -1.703081e-01 1.254330e+00 3.316820e-01 -2.247584e-01 5.416818e-01 -2.297790e-01 -8.497382e-01
<VARIANCE> 39
 9.063049e+01 1.867486e+02 2.133653e+02 2.801902e+02 1.692524e+02 2.366862e+02 3.241230e+02 4.607856e+02 2.915538e+02 3.049088e+02 2.009905e+02 2.553350e+02 1.187064e+02 2.340437e+01 3.973557e+01 2.912078e+01 3.446793e+01 2.107541e+01 4.399982e+01 2.880119e+01 3.298016e+01 2.746758e+01 2.345275e+01 1.899726e+01 1.498009e+01 8.584786e+00 2.796426e+00 2.374681e+00 2.862351e+00 4.033072e+00 3.994479e+00 3.738518e+00 4.099001e+00 4.075709e+00 3.949789e+00 3.446657e+00 2.643423e+00 2.926964e+00 5.931935e-01
<GCONST> 1.976400e+02
<STATE> 3
<MEAN> 39
 6.948908e+00 -4.763073e+00 5.009032e+01 1.711234e+00 -8.230886e+00 -9.786281e+00 2.993896e+00 -5.804064e+00 -1.624712e+01 2.592366e-01 -3.604407e+00 1.664866e+00 2.836907e+01 8.481424e-01 -3.146981e-01 -4.289840e+00 2.071630e+00 1.434132e+00 -1.195798e+00 -2.754034e-01 1.694032e+00 1.007037e+00 -3.367744e-01 9.304072e-01 -3.404748e-01 -2.003045e+00 8.129007e-02 2.231446e-01 -2.179588e+00 4.388596e-01 9.978725e-01 -3.088662e-01 -6.383241e-01 2.106961e-01 7.780476e-01 -2.333630e-01 5.536106e-02 7.786050e-02 -4.394425e-01
<VARIANCE> 39
 1.214255e+02 2.493581e+02 2.572444e+02 3.692373e+02 1.862982e+02 4.213211e+02 4.152119e+02 5.195472e+02 3.466117e+02 3.660669e+02 1.919712e+02 2.155387e+02 2.128757e+02 1.731924e+01 1.788066e+01 3.390310e+01 2.266618e+01 1.903295e+01 3.569019e+01 2.649853e+01 2.758870e+01 2.510196e+01 1.842250e+01 1.509548e+01 1.450634e+01 6.638964e+00 1.603852e+00 2.448045e+00 2.710948e+00 4.736981e+00 3.688996e+00 4.389940e+00 4.116353e+00 4.294727e+00 4.042913e+00 3.104562e+00 2.518497e+00 2.279371e+00 6.593798e-01
<GCONST> 1.971039e+02
<STATE> 4
<MEAN> 39
 6.340365e+00 2.044893e+00 3.201874e+01 -2.221467e+00 -1.911591e+00 -1.292808e+00 1.522799e+00 -4.980649e+00 -3.061857e+00 -1.396222e+00 -3.755311e+00 1.882220e+00 1.444215e+01 2.974685e-01 6.341080e-02 -4.783498e+00 6.654598e-01 1.704325e+00 1.945289e-01 -1.021666e+00 8.114948e-01 1.519968e+00 -1.913574e-01 3.655842e-01 -2.372671e-01 -2.297344e+00 -4.326627e-02 4.448209e-02 -1.929839e-01 -2.548288e-01 -2.328762e-02 1.535577e-01 -6.164182e-02 -2.205172e-01 -6.799539e-02 1.989711e-01 -1.219129e-02 -1.558999e-02 9.988723e-03
<VARIANCE> 39
 2.445444e+02 3.974861e+02 5.295729e+02 3.847275e+02 2.480900e+02 8.742004e+02 5.052910e+02 4.008603e+02 3.427225e+02 3.083570e+02 2.101600e+02 1.983606e+02 5.345560e+02 1.180201e+01 1.299117e+01 2.622091e+01 1.622665e+01 1.937447e+01 2.608397e+01 2.148573e+01 2.114302e+01 1.945031e+01 1.609053e+01 1.358736e+01 1.366450e+01 5.586993e+00 8.851963e-01 1.807031e+00 2.546090e+00 3.004343e+00 2.572397e+00 4.223920e+00 3.110255e+00 3.349610e+00 3.185170e+00 2.675858e+00 2.336963e+00 2.107645e+00 6.567719e-01
<GCONST> 1.950503e+02
<TRANSP> 5
 0.000000e+00 1.000000e+00 0.000000e+00 0.000000e+00 0.000000e+00
 0.000000e+00 7.046503e-01 2.953497e-01 0.000000e+00 0.000000e+00
 0.000000e+00 0.000000e+00 6.545601e-01 3.454399e-01 0.000000e+00
 0.000000e+00 0.000000e+00 0.000000e+00 7.943775e-01 2.056225e-01
 0.000000e+00 0.000000e+00 0.000000e+00 0.000000e+00 0.000000e+00
<ENDHMM>
~h "ow"
<BEGINHMM>
<NUMSTATES> 5
<STATE> 2
<MEAN> 39
 2.517329e+00 -6.944142e+00 -1.182332e+01 -7.193980e+00 -2.976313e-02 -7.495151e+00 -6.030265e+00 -3.588549e+00 3.059205e+00 6.715613e+00 3.383831e+00 -2.421190e+00 -4.690518e+00 1.615221e+00 -1.458986e+00 -4.288134e-01 -2.765623e+00 3.291914e-01 1.517989e+00 1.532251e+00 -7.485476e-02 7.401409e-01 1.948816e+00 1.611443e-01 -9.016878e-01 4.268806e+00 4.974090e-01 6.244214e-02 4.226203e-01 -2.053752e-01 2.055024e-01 3.174222e-01 4.580429e-02 2.327524e-02 -7.998811e-02 -3.615807e-02 -1.707517e-01 2.336001e-01 9.999006e-01
<VARIANCE> 39
 5.912129e+02 2.921342e+02 1.977533e+02 3.317942e+02 2.916132e+02 3.590205e+02 3.902638e+02 4.256396e+02 4.665207e+02 4.753463e+02 4.487687e+02 3.411270e+02 1.254856e+03 3.844402e+01 2.084321e+01 1.884431e+01 3.117260e+01 3.005610e+01 2.877737e+01 3.345776e+01 3.503998e+01 4.007436e+01 3.814366e+01 3.743586e+01 2.922027e+01 1.054069e+02 4.919989e+00 3.543036e+00 2.977135e+00 4.552938e+00 4.767681e+00 4.397121e+00 5.838171e+00 6.036344e+00 6.437400e+00 6.844823e+00 6.573999e+00 5.318781e+00 1.330994e+01
<GCONST> 2.176676e+02
<STATE> 3
<MEAN> 39
 2.266839e+01 -1.679849e+01 -9.314726e+00 -2.275057e+01 3.832723e+00 -2.537424e+00 -8.672605e-01 -1.832674e+00 2.891205e+00 1.823317e+01 6.351424e+00 -3.837624e+00 3.338170e+01 1.154274e+00 6.301771e-01 8.845532e-01 -2.649004e+00 -5.960312e-01 2.760598e+00 3.957476e-01 -9.622353e-01 -5.479264e-01 7.968653e-01 2.979593e-01 8.688449e-01 2.818538e+00 -6.802718e-01 7.447151e-01 2.781817e-03 9.306579e-01 -1.469244e-01 -1.390719e-01 -4.110486e-01 -2.904380e-03 -1.331426e-01 -8.535429e-01 -2.093867e-01 4.165102e-01 -1.739260e+00
<VARIANCE> 39
 1.387138e+02 1.692092e+02 1.606877e+02 2.180322e+02 2.521809e+02 3.806005e+02 3.230291e+02 2.888948e+02 5.072884e+02 3.995490e+02 4.556394e+02 2.527884e+02 3.046102e+02 1.370145e+01 1.148364e+01 8.432650e+00 1.497179e+01 1.277855e+01 1.565507e+01 1.758735e+01 1.673032e+01 2.075043e+01 1.995213e+01 1.816852e+01 1.603676e+01 3.895142e+01 2.191043e+00 1.412090e+00 1.362751e+00 2.298899e+00 2.175458e+00 2.222599e+00 2.683163e+00 2.668449e+00 3.108071e+00 3.085183e+00 3.261912e+00 2.513796e+00 4.687281e+00
<GCONST> 1.926811e+02
<STATE> 4
<MEAN> 39
 2.423895e+01 -6.929026e-01 -3.236962e+00 -2.318136e+01 -1.294783e+00 8.059517e+00 1.575487e+00 -3.146132e+00 -2.342316e+00 6.896649e+00 1.065403e+00 2.375976e+00 2.322473e+01 -5.640990e-01 1.392832e+00 4.074298e-01 9.589493e-01 8.378007e-02 5.850488e-01 2.665972e-01 -2.167984e-01 -1.822103e-01 -8.668957e-01 -6.078140e-01 5.784990e-02 -2.045827e+00 -2.330168e-01 -4.652519e-02 -4.351335e-02 3.833078e-01 9.929400e-02 -1.832085e-01 -8.309648e-02 5.711617e-02 1.078051e-01 -5.045237e-02 1.934750e-02 -6.856975e-02 -2.213266e-01
<VARIANCE> 39
 1.422271e+02 2.981271e+02 1.955184e+02 3.643064e+02 3.798996e+02 3.493815e+02 3.385425e+02 3.226218e+02 5.473995e+02 3.581625e+02 3.345450e+02 2.518197e+02 5.141334e+02 6.071242e+00 9.418388e+00 7.580058e+00 1.499805e+01 1.120850e+01 1.329613e+01 1.419176e+01 1.541934e+01 1.755208e+01 1.573754e+01 1.569194e+01 1.373674e+01 5.318986e+00 8.833829e-01 1.266455e+00 1.133354e+00 2.087703e+00 1.709259e+00 2.028117e+00 2.133073e+00 2.427928e+00 2.660899e+00 2.341932e+00 2.352772e+00 2.126004e+00 5.643518e-01
<GCONST> 1.852396e+02
<TRANSP> 5
 0.000000e+00 1.000000e+00 0.000000e+00 0.000000e+00 0.000000e+00
 0.000000e+00 7.185178e-01 2.814822e-01 0.000000e+00 0.000000e+00
 0.000000e+00 0.000000e+00 6.214900e-01 3.785100e-01 0.000000e+00
 0.000000e+00 0.000000e+00 0.000000e+00 9.329606e-01 6.703935e-02
 0.000000e+00 0.000000e+00 0.000000e+00 0.000000e+00 0.000000e+00
<ENDHMM>
~h "sp"
<BEGINHMM>
<NUMSTATES> 3
<STATE> 2
~s "silst"
<TRANSP> 3
 0.000000e+00 7.000000e-01 3.000000e-01
 0.000000e+00 5.000000e-01 5.000000e-01
 0.000000e+00 0.000000e+00 0.000000e+00
<ENDHMM>
~h "th"
<BEGINHMM>
<NUMSTATES> 5
<STATE> 2
<MEAN> 39
 -2.060628e+01 6.659698e+00 -1.170826e+01 8.978188e+00 -1.895164e+00 5.959287e+00 6.123259e-01 -8.314393e-01 1.087771e+00 -2.356528e+00 5.765442e-01 -1.903931e-01 -2.160651e+01 -2.239795e+00 -9.488950e-01 -1.673038e+00 -1.110476e+00 -1.277903e+00 -2.167134e-01 -8.073352e-01 4.205099e-02 8.338317e-02 -4.700669e-01 5.525228e-02 2.247250e-01 1.326062e+00 8.698477e-01 -2.482538e-01 7.103723e-01 -3.599169e-01 -1.278234e-01 -3.481993e-01 8.754199e-02 -1.643624e-01 -5.330705e-02 1.573971e-01 -1.059149e-01 1.085008e-01 1.650881e+00
<VARIANCE> 39
 2.396965e+02 1.698194e+02 1.919336e+02 1.882521e+02 1.914245e+02 2.014143e+02 2.497482e+02 2.015246e+02 2.250808e+02 1.780765e+02 1.612970e+02 1.555726e+02 5.684224e+02 2.540018e+01 1.771080e+01 2.020181e+01 2.266777e+01 1.862694e+01 2.165769e+01 2.247348e+01 2.157816e+01 2.352485e+01 1.863897e+01 1.807952e+01 1.722867e+01 8.309961e+01 3.414486e+00 3.572185e+00 3.731853e+00 3.960856e+00 3.684787e+00 4.208475e+00 4.217106e+00 4.048388e+00 4.352650e+00 3.757379e+00 3.615536e+00 3.535358e+00 9.939857e+00
<GCONST> 2.003212e+02
<STATE> 3
<MEAN> 39
 -1.920760e+01 -1.456255e+00 -5.730433e+00 3.788789e-01 -9.134795e+00 1.306834e+00 5.421503e-03 -2.940412e+00 3.200485e+00 -1.399385e+00 -6.212567e-01 2.240075e+00 1.210787e+01 5.656089e+00 -1.708281e+00 4.927929e+00 2.172912e+00 1.691270e+00 -1.854941e+00 3.019148e-02 1.643717e-03 1.637501e-01 1.236975e+00 3.876074e-01 -2.049927e-01 4.463229e+00 2.262704e+00 -2.195204e-01 -6.691852e-02 1.514269e+00 1.784066e+00 -3.341627e-01 -8.055370e-01 1.574818e-01 -3.981677e-01 3.006451e-03 2.619467e-01 -2.982437e-01 -1.948673e+00
<VARIANCE> 39
 2.273316e+02 1.725706e+02 2.831299e+02 2.257423e+02 2.090767e+02 2.119192e+02 2.449201e+02 2.313968e+02 2.283382e+02 2.101018e+02 1.919138e+02 1.846744e+02 2.160266e+02 3.790138e+01 1.983428e+01 3.245011e+01 3.381057e+01 2.769981e+01 2.785241e+01 2.932410e+01 2.460088e+01 2.313442e+01 2.153130e+01 2.199502e+01 2.410148e+01 5.289359e+01 4.281170e+00 4.363857e+00 9.350365e+00 6.041645e+00 5.028957e+00 5.987536e+00 7.030538e+00 5.262472e+00 4.945253e+00 5.477606e+00 4.962904e+00 5.127345e+00 7.827710e+00
<GCONST> 2.074685e+02
<STATE> 4
<MEAN> 39
 2.314910e+01 -8.513960e+00 -1.458451e+00 1.584238e+01 1.666796e+01 -5.681866e+00 -1.520281e+01 -4.921745e+00 -7.737508e-01 -1.367344e+00 7.681728e-01 -5.599467e-02 1.661461e+01 9.373136e+00 -2.183394e+00 -1.947203e+00 1.633990e+00 6.381618e+00 -2.937807e+00 -5.763935e+00 2.576222e-01 -1.475248e+00 -1.372214e+00 -1.715116e-01 -3.406276e-02 2.069510e+00 -1.974880e+00 -1.177567e-01 -3.142208e-01 -9.898341e-01 -1.050107e+00 -2.685244e-01 4.151017e-01 5.101802e-01 -2.307355e-01 -2.407719e-01 -9.446833e-02 1.389889e-01 1.096664e-02
<VARIANCE> 39
 4.837926e+02 1.361429e+02 3.752527e+02 2.409422e+02 4.296126e+02 4.932935e+02 4.608591e+02 3.459157e+02 2.138854e+02 2.161187e+02 1.745292e+02 1.536091e+02 1.724359e+02 4.331050e+01 2.191051e+01 4.734712e+01 3.449488e+01 4.517989e+01 7.084749e+01 5.406129e+01 4.231384e+01 2.930922e+01 3.040233e+01 2.430654e+01 2.039643e+01 1.238106e+01 8.245167e+00 3.832358e+00 1.435696e+01 6.701308e+00 1.012332e+01 1.018444e+01 1.204936e+01 7.922204e+00 5.715856e+00 4.842679e+00 4.555107e+00 3.991654e+00 3.066908e+00
<GCONST> 2.146465e+02
<TRANSP> 5
 0.000000e+00 1.000000e+00 0.000000e+00 0.000000e+00 0.000000e+00
 0.000000e+00 8.528514e-01 1.471486e-01 0.000000e+00 0.000000e+00
 0.000000e+00 0.000000e+00 7.507080e-01 2.492920e-01 0.000000e+00
 0.000000e+00 0.000000e+00 0.000000e+00 7.356052e-01 2.643948e-01
 0.000000e+00 0.000000e+00 0.000000e+00 0.000000e+00 0.000000e+00
<ENDHMM>
~h "uw"
<BEGINHMM>
<NUMSTATES> 5
<STATE> 2
<MEAN> 39
 -7.561227e+00 6.166108e-01 2.532278e+01 7.440845e+00 -6.116854e+00 -1.051990e+01 6.574525e+00 1.715365e+00 -5.708516e+00 -2.948359e+00 -4.476171e+00 5.558517e+00 2.262961e+01 1.050166e+01 -2.027058e+00 7.225093e+00 3.178689e+00 1.336225e+00 -8.682853e-01 -3.106002e+00 1.614358e-01 -1.265175e+00 3.946707e-01 -1.046319e+00 -8.462342e-01 3.305221e+00 -6.823934e-01 -3.873128e-01 -9.065173e-01 -1.197172e+00 4.070866e-02 -6.353395e-02 -1.191187e+00 -3.917994e-01 -7.130490e-01 4.156534e-02 3.561492e-01 -3.059124e-01 9.698564e-01
<VARIANCE> 39
 4.436890e+02 1.359350e+02 2.701962e+02 2.135833e+02 1.486888e+02 2.409731e+02 2.808882e+02 2.936701e+02 2.275871e+02 1.909444e+02 2.001706e+02 1.748967e+02 2.066892e+02 2.136464e+01 1.340430e+01 2.180052e+01 2.729062e+01 1.953695e+01 3.651815e+01 3.619939e+01 2.333156e+01 3.011568e+01 2.657584e+01 2.479368e+01 2.789780e+01 1.614111e+01 9.318901e+00 2.020967e+00 4.227149e+00 3.018192e+00 2.916914e+00 5.294046e+00 4.513505e+00 3.208397e+00 4.094204e+00 3.982827e+00 3.318619e+00 3.265157e+00 3.243860e+00
<GCONST> 2.005320e+02
<STATE> 3
<MEAN> 39
 1.351566e+01 -9.613059e+00 4.052097e+01 9.609323e+00 -3.695970e+00 -1.462595e+01 -9.261505e+00 1.789183e+00 -1.453314e+01 -2.965747e+00 -5.711664e+00 1.485474e+00 3.665463e+01 1.376551e+00 -1.000877e+00 4.334598e-02 5.702855e-02 1.269843e+00 -2.718193e-01 -2.114725e+00 -2.680041e-01 -7.564466e-01 1.622013e-01 -1.983144e-01 -8.201066e-01 6.101117e-01 -1.372290e+00 7.988147e-01 -1.533344e+00 -1.462422e-01 1.815895e-01 6.314977e-01 9.136862e-01 -1.620607e-01 6.269671e-01 9.916839e-02 1.322184e-01 2.361259e-02 -1.305078e+00
<VARIANCE> 39
 9.748626e+01 1.283311e+02 1.726816e+02 2.885733e+02 1.776167e+02 2.446972e+02 5.360870e+02 4.240038e+02 2.532053e+02 3.369134e+02 2.233607e+02 3.666356e+02 1.744129e+02 9.045991e+00 8.263735e+00 1.376640e+01 9.933846e+00 1.137512e+01 1.828205e+01 1.963218e+01 1.454896e+01 1.796927e+01 1.752779e+01 1.404642e+01 1.746846e+01 9.882668e+00 2.705715e+00 1.323686e+00 1.868705e+00 2.234921e+00 2.049260e+00 2.996150e+00 3.545099e+00 2.772407e+00 3.108203e+00 3.243250e+00 2.631658e+00 2.888273e+00 1.013748e+00
<GCONST> 1.876985e+02
<STATE> 4
<MEAN> 39
 1.824555e+01 1.773532e-02 2.005562e+01 6.982198e+00 6.756167e+00 -2.516833e+00 -3.698902e+00 -5.264386e+00 -1.011117e+01 1.135282e+00 -4.587196e+00 -9.212540e-01 1.779822e+01 -4.095102e-01 8.076415e-01 -2.045501e+00 3.056569e-02 5.479669e-01 1.268707e+00 8.595709e-01 -2.791675e-01 6.700243e-01 3.029081e-02 1.083877e-01 -5.224910e-02 -2.328530e+00 -3.049674e-01 5.660765e-02 -9.295440e-02 3.094504e-02 -2.210767e-01 -6.718184e-02 7.353440e-02 1.016975e-01 1.102348e-01 -1.007900e-01 4.974659e-02 7.607792e-02 -1.247386e-01
<VARIANCE> 39
 1.446404e+02 1.898189e+02 4.647054e+02 2.712711e+02 2.637913e+02 5.908107e+02 5.472906e+02 4.044905e+02 4.117518e+02 3.163932e+02 2.836924e+02 3.815251e+02 5.111596e+02 8.083975e+00 1.014789e+01 1.000081e+01 1.243729e+01 1.365443e+01 2.075574e+01 2.123938e+01 1.992200e+01 2.041966e+01 1.678471e+01 1.627857e+01 1.502130e+01 4.600395e+00 1.087335e+00 1.611992e+00 1.444134e+00 1.878826e+00 2.090345e+00 2.979484e+00 3.094500e+00 3.130396e+00 3.229037e+00 2.749159e+00 2.768880e+00 2.491265e+00 5.917757e-01
<GCONST> 1.905493e+02
<TRANSP> 5
 0.000000e+00 1.000000e+00 0.000000e+00 0.000000e+00 0.000000e+00
 0.000000e+00 7.164472e-01 2.835528e-01 0.000000e+00 0.000000e+00
 0.000000e+00 0.000000e+00 7.367067e-01 2.632932e-01 0.000000e+00
 0.000000e+00 0.000000e+00 0.000000e+00 9.279368e-01 7.206316e-02
 0.000000e+00 0.000000e+00 0.000000e+00 0.000000e+00 0.000000e+00
<ENDHMM>
~h "sil"
<BEGINHMM>
<NUMSTATES> 5
<STATE> 2
<MEAN> 39
 -7.041271e+00 2.249131e+00 -9.174829e+00 8.833574e+00 2.149393e+00 4.701425e+00 6.215001e+00 3.994618e+00 3.399040e+00 -4.395926e+00 -1.407011e+00 -2.989910e+00 -3.256554e+01 -5.029109e-01 8.234854e-01 -9.214976e-02 3.200887e-02 1.193416e-02 2.390175e-02 -3.541614e-01 -2.221957e-01 4.857471e-02 4.243403e-02 3.057441e-01 1.666410e-02 -1.151668e+00 1.319894e-03 5.841779e-02 1.039789e-01 2.236266e-03 1.425257e-02 2.312745e-02 2.729837e-03 -5.317000e-02 3.914328e-03 7.094493e-02 5.999878e-02 6.600320e-02 5.783520e-02
<VARIANCE> 39
 1.048653e+02 1.381474e+02 1.522119e+02 1.547764e+02 1.612688e+02 1.993787e+02 2.147639e+02 2.050768e+02 2.275653e+02 1.922669e+02 1.616812e+02 1.534579e+02 1.613899e+02 2.299960e+00 4.240066e+00 5.402640e+00 6.839707e+00 8.287083e+00 1.029903e+01 1.170662e+01 1.279259e+01 1.258809e+01 1.251275e+01 1.189501e+01 1.088287e+01 1.757726e+00 3.420309e-01 6.517479e-01 9.317188e-01 1.213593e+00 1.487810e+00 1.822679e+00 2.096776e+00 2.284625e+00 2.309454e+00 2.280004e+00 2.171686e+00 2.013081e+00 1.785431e-01
<GCONST> 1.667151e+02
<STATE> 3
~s "silst"
<STATE> 4
<MEAN> 39
 -1.765976e+01 3.022760e+00 -9.896966e+00 4.583832e+00 -2.053411e+00 8.949043e-01 -1.589302e+00 -2.056847e+00 5.422025e-01 -3.422661e+00 1.624076e+00 -1.715841e+00 -3.533261e+01 -4.492086e-02 -1.150244e-01 1.358979e-01 7.556388e-02 -8.343425e-04 1.547234e-01 1.475237e-01 6.951478e-02 -1.376341e-02 1.850173e-01 -1.111089e-01 4.760507e-02 7.479538e-01 8.305378e-02 -2.378573e-02 8.347306e-02 -1.773708e-02 1.561719e-02 6.535944e-03 2.834817e-02 7.714298e-03 -5.975813e-03 1.518290e-02 -3.389873e-02 1.633760e-02 3.887497e-01
<VARIANCE> 39
 1.435567e+02 1.519791e+02 1.458505e+02 1.414505e+02 1.496032e+02 1.694187e+02 1.999493e+02 1.787039e+02 1.883139e+02 1.564081e+02 1.417607e+02 1.291201e+02 3.414961e+02 8.158376e+00 1.054507e+01 9.490743e+00 9.972730e+00 1.168231e+01 1.330122e+01 1.459492e+01 1.455548e+01 1.385660e+01 1.320513e+01 1.272849e+01 1.087311e+01 1.446350e+01 1.729954e+00 2.056834e+00 1.867399e+00 1.976018e+00 2.280985e+00 2.531832e+00 2.771093e+00 2.757436e+00 2.629493e+00 2.513288e+00 2.406897e+00 2.072730e+00 3.170987e+00
<GCONST> 1.813973e+02
<TRANSP> 5
 0.000000e+00 1.000000e+00 0.000000e+00 0.000000e+00 0.000000e+00
 0.000000e+00 6.969262e-01 1.030738e-01 2.000000e-01 0.000000e+00
 0.000000e+00 0.000000e+00 8.988792e-01 1.011208e-01 0.000000e+00
 0.000000e+00 2.000000e-01 0.000000e+00 6.723157e-01 1.276843e-01
 0.000000e+00 0.000000e+00 0.000000e+00 0.000000e+00 0.000000e+00
<ENDHMM>
