~o
<STREAMINFO> 1 39
<VECSIZE> 39<NULLD><MFCC_D_A_Z_0><DIAGC>
~v "varFloor1"
<VARIANCE> 39
 6.167360e+00 3.055753e+00 5.029951e+00 4.235080e+00 3.020565e+00 3.513228e+00 3.576046e+00 3.145977e+00 3.123657e+00 2.649582e+00 2.296422e+00 2.124384e+00 1.180017e+01 2.278196e-01 1.545969e-01 2.184490e-01 2.118026e-01 1.813457e-01 2.097697e-01 2.257949e-01 2.166197e-01 2.009621e-01 1.748386e-01 1.664882e-01 1.534702e-01 2.729188e-01 3.005251e-02 2.352015e-02 2.950212e-02 3.333421e-02 2.970494e-02 3.528043e-02 3.797136e-02 3.764201e-02 3.477513e-02 3.067418e-02 2.924890e-02 2.697371e-02 3.680276e-02
~s "silst"
<MEAN> 39
 -1.825176e+01 8.677482e+00 -1.085334e+01 5.831751e+00 -1.443806e+00 1.363327e+00 -1.053784e+00 -3.263757e+00 2.216700e+00 -3.729315e+00 3.038027e+00 -1.573975e+00 -4.530589e+01 -2.039153e-01 3.638430e-02 2.731575e-02 -4.863066e-02 -6.601806e-02 -7.197715e-02 -1.651136e-01 -1.615776e-01 -3.563800e-02 7.358029e-02 9.178352e-02 3.606484e-02 -1.671561e-01 7.223940e-02 -4.784352e-02 1.146791e-02 2.604389e-02 3.033321e-02 4.009284e-02 8.531558e-02 8.018825e-02 1.536982e-02 -9.457279e-03 -6.741974e-02 -2.897565e-02 1.135733e-01
<VARIANCE> 39
 7.702883e+01 6.145811e+01 9.176811e+01 1.013148e+02 1.079817e+02 1.280064e+02 1.755631e+02 1.330986e+02 1.483127e+02 1.273634e+02 1.136421e+02 1.126293e+02 1.268941e+02 1.165707e+00 1.895728e+00 3.038549e+00 4.301127e+00 5.593559e+00 6.873317e+00 8.173477e+00 8.955124e+00 9.166978e+00 9.091702e+00 8.858929e+00 8.082816e+00 5.980142e-01 2.253002e-01 3.834828e-01 6.131642e-01 8.681332e-01 1.123373e+00 1.379886e+00 1.628121e+00 1.781005e+00 1.825980e+00 1.816462e+00 1.779215e+00 1.625748e+00 1.237945e-01
<GCONST> 1.510984e+02
~h "f"
<BEGINHMM>
<NUMSTATES> 5
<STATE> 2
<MEAN> 39
 -2.807516e+01 -6.966346e+00 -7.651615e+00 8.433364e+00 -2.295011e-02 3.666941e+00 -3.176699e+00 -2.481565e+00 -1.069937e+00 -1.500126e+00 -1.002719e+00 -7.784199e-01 -1.082642e+01 -2.350744e+00 -1.611991e+00 -1.253800e+00 -3.741065e-01 -6.303701e-01 -2.587113e-01 -8.786039e-01 -3.879727e-01 -2.237475e-01 -1.879087e-01 -7.375012e-02 -1.585586e-01 3.775261e-01 1.233431e+00 3.123942e-01 2.339655e-01 -2.373660e-01 9.750491e-02 5.732808e-05 2.023761e-01 -6.339145e-02 -8.887153e-02 8.436954e-02 -2.935125e-02 3.196666e-02 6.010117e-01
<VARIANCE> 39
 2.299721e+02 1.569467e+02 1.503914e+02 1.451622e+02 1.584806e+02 1.616607e+02 2.109672e+02 1.701734e+02 1.783223e+02 1.519228e+02 1.451860e+02 1.368514e+02 3.218277e+02 2.536834e+01 1.264949e+01 1.262463e+01 1.799975e+01 1.416689e+01 1.453001e+01 1.568406e+01 1.554224e+01 1.567828e+01 1.403127e+01 1.338437e+01 1.262743e+01 2.100439e+01 3.988954e+00 2.566325e+00 2.339474e+00 3.179523e+00 2.698893e+00 3.044935e+00 3.287765e+00 3.234874e+00 3.262293e+00 2.929073e+00 2.750445e+00 2.518078e+00 3.274504e+00
<GCONST> 1.884501e+02
<STATE> 3
<MEAN> 39
 -2.681636e+01 -1.141413e+01 -1.174451e+01 4.356689e+00 -1.828774e+00 2.858989e+00 -5.451071e+00 -4.781269e+00 -2.587084e+00 -2.468197e+00 -1.812572e+00 -1.025753e+00 9.771615e-02 1.007390e+01 2.167451e+00 7.023030e-01 -3.234420e+00 3.687823e-01 9.617329e-01 1.706667e+00 3.044840e-01 5.181996e-01 1.243720e+00 3.105341e-01 -9.919031e-02 5.604815e+00 3.749712e+00 1.142188e+00 6.523752e-01 -2.275562e+00 -4.829100e-01 3.271744e-01 6.687012e-01 4.367832e-01 5.200049e-02 7.015252e-01 2.182702e-01 -2.059619e-01 1.084563e+00
<VARIANCE> 39
 1.427605e+02 9.379034e+01 1.152462e+02 1.089174e+02 1.169094e+02 1.271862e+02 1.754132e+02 1.383848e+02 1.464381e+02 1.293184e+02 1.246201e+02 1.120356e+02 2.266989e+02 3.830489e+01 1.896144e+01 1.077576e+01 2.036554e+01 1.385676e+01 1.286358e+01 1.430187e+01 1.474978e+01 1.852940e+01 1.695704e+01 1.866021e+01 1.256252e+01 3.393951e+01 2.923020e+00 4.296824e+00 2.819156e+00 3.911094e+00 4.021166e+00 3.209527e+00 3.607311e+00 3.539924e+00 4.317948e+00 3.704444e+00 4.398452e+00 3.127655e+00 4.634264e+00
<GCONST> 1.893464e+02
<STATE> 4
<MEAN> 39
 1.963436e+01 -6.555793e+00 -1.038668e+01 -1.753636e+01 -3.015977e-01 8.756222e+00 2.910148e+00 -3.680379e+00 1.071560e+00 8.591205e+00 4.744207e+00 -3.746118e+00 2.509334e+01 1.039437e+01 -1.187518e+00 -1.651027e-01 -8.646561e+00 -4.464376e-01 1.861425e+00 1.981651e+00 9.658093e-01 7.253336e-01 2.518592e+00 9.837550e-01 -8.639914e-01 8.517722e+00 -3.187058e+00 -6.316830e-01 -4.660627e-02 5.903392e-01 -1.696552e-01 -8.762748e-02 -4.615366e-01 3.353055e-01 -5.791596e-02 -6.889554e-01 -6.833786e-01 2.822488e-02 -1.296872e+00
<VARIANCE> 39
 2.643691e+02 1.937723e+02 1.437525e+02 4.076095e+02 2.077653e+02 1.653161e+02 1.834949e+02 1.755080e+02 2.957961e+02 2.315025e+02 3.558119e+02 1.877189e+02 3.977252e+02 6.089052e+01 4.666640e+01 2.524582e+01 3.374236e+01 3.529199e+01 2.301400e+01 2.574293e+01 2.604928e+01 3.822652e+01 2.878833e+01 4.053077e+01 2.521574e+01 2.580297e+01 5.748487e+00 2.910086e+00 2.171454e+00 7.695408e+00 3.834128e+00 3.011249e+00 3.400542e+00 3.134519e+00 5.504163e+00 4.403849e+00 5.202538e+00 3.316125e+00 5.222274e+00
<GCONST> 2.057788e+02
<TRANSP> 5
 0.000000e+00 1.000000e+00 0.000000e+00 0.000000e+00 0.000000e+00
 0.000000e+00 8.646806e-01 1.353194e-01 0.000000e+00 0.000000e+00
 0.000000e+00 0.000000e+00 6.489372e-01 3.510628e-01 0.000000e+00
 0.000000e+00 0.000000e+00 0.000000e+00 5.622908e-01 4.377092e-01
 0.000000e+00 0.000000e+00 0.000000e+00 0.000000e+00 0.000000e+00
<ENDHMM>
~h "k"
<BEGINHMM>
<NUMSTATES> 5
<STATE> 2
<MEAN> 39
 3.601947e+00 1.335440e+01 1.845345e+01 2.610410e+01 3.531425e-01 -7.869837e+00 4.686105e+00 -4.648856e+00 -1.329113e+01 -6.945118e+00 1.742839e+00 -2.042829e+00 -2.599783e+01 -5.639522e+00 2.416373e+00 -9.687448e+00 -1.039821e+00 3.494573e+00 5.774683e+00 -3.628157e+00 1.445826e-01 3.702159e+00 -2.059588e+00 5.271910e-02 -9.305824e-01 -1.281877e+01 -2.661100e-01 -3.070222e+00 -1.078117e+00 -2.995301e+00 -1.018071e+00 -1.056138e+00 -9.504703e-01 2.944512e-02 9.678767e-01 1.019023e+00 -2.218898e-01 6.147048e-01 4.646229e+00
<VARIANCE> 39
 1.595477e+02 2.161084e+02 2.758165e+02 2.179725e+02 2.642589e+02 3.733132e+02 3.741299e+02 4.429169e+02 3.296423e+02 2.770981e+02 2.132938e+02 1.886108e+02 4.114415e+02 1.086262e+01 4.549385e+01 2.476482e+01 4.329050e+01 3.033871e+01 3.860772e+01 5.714308e+01 7.257593e+01 5.337421e+01 3.528283e+01 2.388143e+01 2.305876e+01 6.209952e+01 3.438687e+00 5.875145e+00 5.542069e+00 4.772640e+00 5.414861e+00 8.160273e+00 9.129272e+00 8.885513e+00 7.895648e+00 5.697813e+00 4.714682e+00 4.301279e+00 1.265950e+01
<GCONST> 2.150679e+02
<STATE> 3
<MEAN> 39
 -7.450483e+00 -2.220474e+00 -1.296762e+01 6.936531e+00 2.721559e+00 2.709380e-01 -6.614943e+00 -4.028472e+00 -5.884312e-01 -2.587238e+00 1.511325e+00 -1.658422e+00 -3.041412e+01 -1.160146e+00 -4.983449e+00 -5.637136e+00 -1.309295e+00 1.888440e-01 -1.303574e+00 -2.221905e+00 1.033422e+00 1.782135e+00 1.440475e+00 -6.199995e-01 4.432729e-01 8.946380e+00 -5.545752e-01 5.914381e-01 1.744240e+00 1.139175e+00 -6.135603e-01 -1.344035e+00 6.443420e-01 3.633612e-01 -5.370969e-01 -1.018426e-01 -2.465462e-01 2.064285e-01 3.108025e+00
<VARIANCE> 39
 1.917171e+02 2.996578e+02 2.506439e+02 1.508654e+02 1.440087e+02 1.760584e+02 2.138040e+02 1.663343e+02 1.546657e+02 1.406027e+02 1.215655e+02 1.141777e+02 6.517435e+02 2.854478e+01 2.726105e+01 2.465881e+01 2.497310e+01 2.071118e+01 2.576789e+01 2.202344e+01 2.121789e+01 2.052098e+01 1.815722e+01 1.536820e+01 1.152649e+01 7.871671e+01 8.356245e+00 8.319907e+00 5.567231e+00 3.374109e+00 4.431470e+00 5.110765e+00 5.068756e+00 4.772491e+00 4.160104e+00 3.817699e+00 2.689237e+00 2.441216e+00 1.581745e+01
<GCONST> 2.016598e+02
<STATE> 4
<MEAN> 39
 -2.274838e+01 -9.628559e+00 -1.945133e+01 1.266814e+01 3.123114e+00 -1.559586e+01 -1.299872e+01 2.028167e+00 5.319136e+00 -8.581913e-01 -3.615564e+00 1.263973e+00 1.536239e+01 -1.069265e+01 3.585086e+00 1.689589e+00 3.232209e-01 -2.597238e+00 -3.115894e+00 1.764509e+00 2.868963e+00 1.005387e+00 -1.442704e+00 -1.025218e+00 1.291381e+00 5.505038e+00 -5.369394e-01 2.298247e+00 1.280219e+00 -6.079454e-01 -3.863456e-01 1.586251e+00 1.569140e+00 -8.282053e-02 -8.702612e-01 -5.930672e-01 4.356157e-01 7.349255e-03 -4.207404e+00
<VARIANCE> 39
 4.510131e+02 1.337708e+02 1.915423e+02 2.073027e+02 3.048642e+02 2.574134e+02 2.358670e+02 2.087263e+02 1.999792e+02 1.880455e+02 1.573024e+02 1.257422e+02 1.533442e+02 2.311322e+01 1.823228e+01 1.532721e+01 1.701921e+01 2.379135e+01 2.528233e+01 1.837599e+01 1.655711e+01 1.974298e+01 1.508340e+01 1.384011e+01 1.373610e+01 3.874371e+01 8.488066e+00 3.850321e+00 3.902766e+00 3.090140e+00 3.943896e+00 4.326747e+00 3.667525e+00 4.017616e+00 3.977285e+00 3.565913e+00 2.918811e+00 2.425805e+00 4.199161e+00
<GCONST> 1.966829e+02
<TRANSP> 5
 0.000000e+00 1.000000e+00 0.000000e+00 0.000000e+00 0.000000e+00
 0.000000e+00 6.835799e-01 3.164202e-01 0.000000e+00 0.000000e+00
 0.000000e+00 0.000000e+00 7.563059e-01 2.436941e-01 0.000000e+00
 0.000000e+00 0.000000e+00 0.000000e+00 5.479148e-01 4.520852e-01
 0.000000e+00 0.000000e+00 0.000000e+00 0.000000e+00 0.000000e+00
<ENDHMM>
~h "n"
<BEGINHMM>
<NUMSTATES> 5
<STATE> 2
<MEAN> 39
 1.700910e+01 5.262609e+00 2.219839e+01 9.288922e+00 -4.707558e+00 6.857654e+00 1.640980e+01 -7.648931e+00 -3.875360e+00 5.372893e+00 -3.978521e+00 4.542756e+00 8.648790e+00 1.150116e+00 3.325925e+00 -7.831139e-03 3.985400e+00 4.268092e-01 1.460733e+00 2.327905e+00 -3.013838e+00 9.427950e-02 6.049216e-01 -1.583833e+00 2.567439e-01 -3.215053e+00 -5.391882e-01 -5.575293e-01 -7.514271e-01 -3.499622e-01 3.948764e-01 -2.889541e-01 -6.143346e-01 8.572468e-01 4.026744e-01 -3.753171e-01 2.385816e-01 -1.177009e-01 3.091777e-01
<VARIANCE> 39
 1.436164e+02 2.363074e+02 2.305642e+02 5.437513e+02 2.453421e+02 3.539371e+02 4.038573e+02 4.853618e+02 4.300029e+02 3.662502e+02 3.391198e+02 3.036433e+02 3.771263e+02 1.654131e+01 1.492401e+01 2.414809e+01 3.309986e+01 2.140609e+01 2.578291e+01 3.373418e+01 4.029949e+01 3.076840e+01 2.716138e+01 2.410081e+01 2.450668e+01 1.975122e+01 2.367002e+00 2.541711e+00 3.923992e+00 7.892968e+00 4.095237e+00 5.064178e+00 6.652332e+00 7.741598e+00 5.623237e+00 4.831258e+00 4.687013e+00 4.640825e+00 2.080765e+00
<GCONST> 2.079772e+02
<STATE> 3
<MEAN> 39
 1.912799e+01 1.351536e+01 2.187987e+01 2.191795e+01 -1.805289e+00 1.102020e+01 1.899732e+01 -1.266270e+01 5.360298e-01 2.058692e+00 -7.299273e+00 6.547117e+00 3.053864e-02 -2.788728e+00 -2.278831e+00 -1.866361e+00 -2.303856e+00 2.391123e+00 -1.569133e+00 -2.475361e+00 4.731896e+00 6.934565e-01 -5.196804e-01 6.819737e-01 -1.056175e+00 1.373836e+00 -1.454122e+00 -1.528398e+00 -1.494804e+00 -1.790205e+00 2.007398e-01 -7.875436e-01 -1.359828e+00 1.458602e+00 1.917220e-01 -1.011668e-01 5.507676e-01 -3.874383e-01 7.110721e-01
<VARIANCE> 39
 9.740327e+01 1.925503e+02 1.378871e+02 2.227484e+02 2.564831e+02 3.716629e+02 3.660546e+02 3.816792e+02 3.770127e+02 3.594203e+02 3.659497e+02 3.426656e+02 2.350533e+02 2.464746e+01 2.330651e+01 2.180935e+01 3.190973e+01 2.583740e+01 3.751103e+01 4.129965e+01 4.224286e+01 3.500997e+01 2.780846e+01 2.835497e+01 3.132328e+01 3.776828e+01 3.015608e+00 2.548887e+00 2.854906e+00 3.671255e+00 4.849967e+00 5.487386e+00 5.722630e+00 6.934453e+00 5.486397e+00 4.099337e+00 4.618470e+00 4.675290e+00 2.251416e+00
<GCONST> 2.070666e+02
<STATE> 4
<MEAN> 39
 2.366130e+00 -2.078696e-01 7.129940e+00 1.126216e+01 6.010639e+00 2.920706e+00 9.704968e+00 9.210842e+00 4.030476e+00 -8.392386e-01 -4.606710e+00 9.629308e-01 -4.119906e+00 -3.743490e+00 -3.013002e+00 -5.010221e+00 -3.842503e+00 -3.382653e-02 -1.418227e+00 -3.257199e+00 2.467917e+00 7.058190e-01 -8.519248e-01 9.714523e-01 -1.274452e+00 -8.682311e-02 3.152176e-01 3.803432e-01 -1.713335e-02 2.844022e-01 -6.143917e-01 3.378232e-01 1.423189e-01 -1.384777e+00 -2.228899e-01 -6.897777e-03 -2.638361e-03 1.444196e-01 -8.580140e-02
<VARIANCE> 39
 1.988853e+02 2.566900e+02 2.160493e+02 4.125209e+02 2.243997e+02 3.530540e+02 4.395065e+02 3.515297e+02 3.074896e+02 3.229852e+02 2.351240e+02 2.262512e+02 7.645619e+02 2.352731e+01 2.120512e+01 1.914092e+01 2.664787e+01 2.522687e+01 2.683728e+01 2.972822e+01 3.970241e+01 3.440730e+01 2.469860e+01 2.637627e+01 2.418788e+01 2.795252e+01 1.642640e+00 2.869717e+00 2.909024e+00 5.114764e+00 3.938414e+00 5.978189e+00 6.352009e+00 5.705582e+00 4.673244e+00 4.068113e+00 3.897004e+00 3.837317e+00 2.997746e+00
<GCONST> 2.064901e+02
<TRANSP> 5
 0.000000e+00 1.000000e+00 0.000000e+00 0.000000e+00 0.000000e+00
 0.000000e+00 6.553990e-01 3.446010e-01 0.000000e+00 0.000000e+00
 0.000000e+00 0.000000e+00 6.014374e-01 3.985625e-01 0.000000e+00
 0.000000e+00 0.000000e+00 0.000000e+00 6.034683e-01 3.965317e-01
 0.000000e+00 0.000000e+00 0.000000e+00 0.000000e+00 0.000000e+00
<ENDHMM>
~h "r"
<BEGINHMM>
<NUMSTATES> 5
<STATE> 2
<MEAN> 39
 3.867139e+01 -1.432147e+01 -1.713092e+01 3.716414e+00 2.548040e+01 -1.663431e+01 -2.698838e+01 5.933869e-02 -2.265799e+00 4.945014e-01 4.157674e+00 3.872631e+00 2.569209e+01 4.569829e-01 -7.890589e-01 -1.534762e+00 7.294630e-02 9.619048e-01 -1.187196e+00 -1.114991e+00 9.794184e-01 1.396331e+00 6.403033e-01 9.556060e-02 8.004670e-02 8.134730e-02 -1.058583e+00 -3.412952e-02 1.700613e+00 -2.192042e-02 -1.717965e+00 -1.318915e-01 1.504542e+00 5.838189e-01 -4.491562e-01 -2.007798e-01 4.202894e-02 4.090837e-02 1.328169e-01
<VARIANCE> 39
 8.240953e+01 1.438286e+02 3.567843e+02 2.660241e+02 3.086703e+02 6.768464e+02 6.093682e+02 3.586078e+02 2.402740e+02 3.239737e+02 2.172413e+02 1.985207e+02 1.503743e+02 6.258704e+00 8.135709e+00 2.581241e+01 1.820739e+01 1.963146e+01 2.883183e+01 2.183092e+01 2.402667e+01 1.916805e+01 1.657938e+01 1.467038e+01 1.362708e+01 6.582623e+00 1.194651e+00 1.243765e+00 1.785842e+00 1.963023e+00 2.566747e+00 4.132189e+00 3.678512e+00 3.329734e+00 2.878540e+00 2.818222e+00 2.502663e+00 2.324612e+00 7.306203e-01
<GCONST> 1.896955e+02
<STATE> 3
<MEAN> 39
 3.362832e+01 -2.041623e+01 -4.834207e+00 1.122859e+01 1.728726e+01 -2.888204e+01 -2.082076e+01 1.363483e+01 -2.224394e+00 -3.052129e+00 2.830341e+00 4.487612e+00 2.893480e+01 -3.992422e+00 -6.322384e-01 6.949211e+00 1.252239e+00 -5.766644e+00 -1.525928e+00 6.084527e+00 2.658274e+00 -2.268431e+00 -1.055737e+00 8.994510e-01 -1.662672e-01 1.891303e-01 -1.097245e+00 1.177507e+00 8.074554e-01 -1.175166e+00 -9.217039e-01 2.436648e+00 1.581797e+00 -1.789711e+00 -8.492408e-01 7.481141e-01 1.830476e-01 -4.273010e-01 -6.236160e-01
<VARIANCE> 39
 8.303146e+01 1.545676e+02 4.448831e+02 3.171305e+02 3.247968e+02 6.463663e+02 6.719439e+02 3.309195e+02 3.266222e+02 4.066247e+02 2.365636e+02 2.248463e+02 1.922192e+02 9.987186e+00 1.011594e+01 2.915301e+01 2.575512e+01 2.790269e+01 3.604953e+01 3.236713e+01 3.297362e+01 3.695494e+01 2.721294e+01 2.177636e+01 1.781021e+01 1.330739e+01 2.078015e+00 2.137635e+00 2.399223e+00 2.421172e+00 3.840434e+00 5.802288e+00 5.352371e+00 4.644469e+00 4.193910e+00 3.799858e+00 3.002258e+00 3.062748e+00 1.012498e+00
<GCONST> 2.006504e+02
<STATE> 4
<MEAN> 39
 1.944476e+01 -1.759538e+01 5.896001e+00 9.288921e+00 3.837035e+00 -1.816769e+01 1.912116e+00 1.188435e+01 -7.092061e+00 8.687531e-01 5.599248e+00 -1.595659e-01 2.034217e+01 -4.011201e+00 1.488026e+00 4.058190e+00 -2.188619e+00 -3.576900e+00 3.598266e+00 3.777582e+00 -2.783177e+00 -1.073622e+00 1.454751e+00 -6.526297e-01 -1.369754e+00 -1.482050e+00 9.824771e-02 7.174650e-01 -7.455837e-01 -6.547509e-01 8.054206e-01 7.724000e-01 -1.094989e+00 -8.830690e-01 7.110123e-01 1.519405e-01 -5.570516e-01 8.003671e-02 -3.278910e-01
<VARIANCE> 39
 2.068735e+02 1.697613e+02 7.943259e+02 4.017749e+02 4.030961e+02 5.971153e+02 4.917476e+02 3.503870e+02 5.492983e+02 3.762784e+02 2.518062e+02 2.489152e+02 5.757470e+02 1.441715e+01 1.412444e+01 2.272333e+01 2.010682e+01 1.951941e+01 2.623587e+01 2.857370e+01 2.874590e+01 2.213348e+01 2.172233e+01 1.824604e+01 1.558490e+01 9.715995e+00 1.331754e+00 1.746808e+00 2.461752e+00 2.786051e+00 3.621114e+00 4.438315e+00 4.059599e+00 3.520410e+00 4.609774e+00 3.057551e+00 2.939310e+00 2.550213e+00 9.516124e-01
<GCONST> 2.002126e+02
<TRANSP> 5
 0.000000e+00 1.000000e+00 0.000000e+00 0.000000e+00 0.000000e+00
 0.000000e+00 7.688445e-01 2.311555e-01 0.000000e+00 0.000000e+00
 0.000000e+00 0.000000e+00 5.131777e-01 4.868223e-01 0.000000e+00
 0.000000e+00 0.000000e+00 0.000000e+00 6.119102e-01 3.880899e-01
 0.000000e+00 0.000000e+00 0.000000e+00 0.000000e+00 0.000000e+00
<ENDHMM>
~h "s"
<BEGINHMM>
<NUMSTATES> 5
<STATE> 2
<MEAN> 39
 -1.861708e+01 7.550457e+00 -1.358920e+00 6.765516e+00 4.126857e+00 -1.805514e+00 1.298541e+00 9.447325e-01 6.760432e-01 -3.172621e+00 -2.366511e+00 1.207400e+00 2.279140e+00 -8.285728e+00 2.072475e+00 -3.400381e+00 -4.397404e-01 -7.505885e-01 -1.923750e-01 1.019020e+00 1.224473e+00 1.113203e-01 -5.520338e-01 4.980130e-01 3.757799e-01 1.023756e+00 1.210357e-01 -3.048672e-01 -9.597738e-01 -6.902968e-01 -3.150844e-01 1.006706e-01 -3.435194e-01 -2.865044e-01 -3.674006e-01 2.454404e-01 1.703702e-01 -7.770769e-02 -3.570520e-01
<VARIANCE> 39
 6.059939e+02 2.460530e+02 3.889302e+02 3.416986e+02 3.445490e+02 3.633824e+02 3.096289e+02 2.929745e+02 2.905729e+02 2.359699e+02 2.158710e+02 1.921576e+02 4.764092e+02 5.465132e+01 2.434285e+01 4.401241e+01 3.965931e+01 2.977878e+01 3.645995e+01 3.026561e+01 2.951715e+01 3.227869e+01 2.551135e+01 2.434103e+01 2.258863e+01 3.338435e+01 9.128361e+00 4.708426e+00 5.036313e+00 5.509017e+00 5.358579e+00 5.961410e+00 5.263554e+00 5.630003e+00 5.029318e+00 4.608449e+00 4.304209e+00 3.910644e+00 3.818729e+00
<GCONST> 2.126923e+02
<STATE> 3
<MEAN> 39
 -4.492178e+01 1.210310e+01 -1.989212e+01 2.172211e+00 -2.851316e+00 -4.841643e+00 1.922271e+00 1.952390e+00 -1.034922e+00 -4.402576e+00 2.311355e-02 2.671309e+00 6.803882e+00 -3.699356e+00 8.706945e-01 -3.972003e+00 -1.594119e+00 -1.150973e+00 5.032791e-01 -7.395898e-01 -6.193486e-01 -8.132755e-01 1.129337e-01 -4.551494e-02 -3.798820e-02 3.199750e-01 2.655042e+00 -5.598271e-01 1.067196e+00 5.971720e-01 5.165249e-01 4.215716e-01 -2.436473e-01 -3.793190e-01 1.208685e-01 2.489996e-01 -3.069531e-01 -1.878363e-01 -5.858788e-01
<VARIANCE> 39
 1.738059e+02 1.532651e+02 1.858504e+02 2.952337e+02 3.103396e+02 3.028340e+02 2.445437e+02 1.881033e+02 2.160547e+02 1.808562e+02 1.805471e+02 1.505195e+02 1.668865e+02 1.961142e+01 1.629985e+01 1.893031e+01 1.577031e+01 1.740977e+01 2.028366e+01 1.933562e+01 1.594893e+01 1.481164e+01 1.453205e+01 1.340455e+01 1.268150e+01 1.284586e+01 2.776893e+00 2.330483e+00 3.777683e+00 3.055250e+00 3.390301e+00 3.509319e+00 3.632833e+00 3.612118e+00 3.325162e+00 3.150307e+00 3.008465e+00 2.899293e+00 1.892823e+00
<GCONST> 1.915098e+02
<STATE> 4
<MEAN> 39
 -4.023602e+01 8.064198e+00 -2.285796e+01 3.610839e+00 -4.453412e+00 9.493560e-01 -2.524738e+00 1.909082e+00 -2.898824e+00 -1.618210e+00 -1.258841e+00 5.051194e-01 6.163806e+00 6.493241e-01 -1.990812e-01 1.069431e-01 -1.752101e-01 8.446178e-02 3.620250e-01 2.971562e-02 -1.053394e-01 3.875168e-02 9.287186e-02 -1.016603e-01 -9.625987e-02 -8.985819e-02 8.270677e-01 -7.644191e-02 7.153313e-01 1.236129e-01 8.779351e-02 -2.008347e-01 7.158167e-02 -2.843372e-02 1.431242e-01 -4.670986e-02 1.159292e-02 6.936863e-02 4.071214e-02
<VARIANCE> 39
 2.383081e+02 1.435228e+02 1.704268e+02 2.469757e+02 2.442912e+02 2.664251e+02 2.130053e+02 1.517255e+02 1.880307e+02 1.516910e+02 1.485298e+02 1.291692e+02 1.995462e+02 7.046333e+00 5.776167e+00 6.770938e+00 7.559414e+00 9.193323e+00 1.104144e+01 1.110024e+01 1.147130e+01 1.113296e+01 1.130481e+01 1.079713e+01 1.017481e+01 6.297259e+00 1.850550e+00 1.236370e+00 1.800636e+00 1.581275e+00 1.795551e+00 2.193058e+00 2.278330e+00 2.283413e+00 2.234379e+00 2.274364e+00 2.141957e+00 2.065417e+00 9.477541e-01
<GCONST> 1.760840e+02
<TRANSP> 5
 0.000000e+00 1.000000e+00 0.000000e+00 0.000000e+00 0.000000e+00
 0.000000e+00 5.795674e-01 4.204326e-01 0.000000e+00 0.000000e+00
 0.000000e+00 0.000000e+00 5.253388e-01 4.746612e-01 0.000000e+00
 0.000000e+00 0.000000e+00 0.000000e+00 8.392357e-01 1.607642e-01
 0.000000e+00 0.000000e+00 0.000000e+00 0.000000e+00 0.000000e+00
<ENDHMM>
~h "t"
<BEGINHMM>
<NUMSTATES> 5
<STATE> 2
<MEAN> 39
 -7.857156e+00 1.475457e+01 3.744448e+00 1.625005e+01 5.287021e+00 6.965056e+00 1.421702e+00 -2.482932e+00 4.551661e-01 -3.862349e+00 5.993191e-01 -2.454908e+00 -3.441906e+01 -3.436836e+00 -1.056191e+00 -6.063427e+00 -1.381068e+00 2.330704e-01 -3.698555e-01 -4.806318e-01 8.460987e-01 1.308576e+00 1.830233e-02 1.369726e+00 9.462821e-02 -3.351326e+00 -3.314206e-01 -9.554291e-01 8.877040e-01 -1.762966e+00 -7.059844e-01 -6.402803e-01 -1.834252e-01 -5.801070e-01 -6.102786e-01 1.481457e-01 -3.114335e-01 2.639193e-01 3.546379e+00
<VARIANCE> 39
 2.678502e+02 2.181685e+02 4.095514e+02 2.589814e+02 2.148573e+02 2.210760e+02 3.354314e+02 2.486247e+02 2.774902e+02 2.098033e+02 1.865791e+02 1.706248e+02 5.044771e+02 2.255062e+01 3.587023e+01 5.459211e+01 4.557620e+01 2.833930e+01 2.860497e+01 2.959752e+01 3.363104e+01 3.727845e+01 2.434645e+01 2.292784e+01 2.132052e+01 1.152226e+02 3.568955e+00 5.946471e+00 7.483730e+00 6.365865e+00 5.030846e+00 4.981731e+00 5.480481e+00 5.492631e+00 6.346466e+00 4.554140e+00 4.206527e+00 3.852278e+00 1.358466e+01
<GCONST> 2.120569e+02
<STATE> 3
<MEAN> 39
 -2.661502e+01 2.771921e+00 -9.916451e+00 -7.973709e+00 -1.467979e+00 -2.950927e+00 -1.880266e+00 -5.862375e+00 -4.393085e+00 -2.897383e+00 2.179752e+00 -1.145998e+00 -1.290923e+00 -3.882008e+00 7.142802e-02 6.870576e-01 -2.508263e+00 -2.148742e+00 -2.675477e+00 1.110349e+00 -1.926743e-01 -2.048507e+00 -1.076064e-01 -3.522443e-01 1.318814e+00 1.164990e+01 7.250170e-01 7.735245e-01 1.286807e+00 1.812828e+00 -1.705384e-01 2.766543e-01 7.810398e-01 4.871205e-01 3.803685e-01 5.799128e-02 -1.755284e-01 3.080116e-01 -1.958892e+00
<VARIANCE> 39
 2.125846e+02 2.161396e+02 2.108642e+02 2.244686e+02 1.766633e+02 1.885127e+02 2.141344e+02 1.764886e+02 1.957194e+02 1.704601e+02 1.509132e+02 1.655222e+02 1.239811e+03 1.852774e+01 2.120654e+01 2.113330e+01 2.121638e+01 1.858464e+01 2.197629e+01 2.426575e+01 2.221445e+01 1.910082e+01 1.825815e+01 1.810620e+01 1.478339e+01 9.954646e+01 4.413892e+00 4.523102e+00 3.865427e+00 4.246367e+00 3.751461e+00 3.739616e+00 3.744722e+00 3.599138e+00 3.841491e+00 3.237219e+00 3.112463e+00 2.934705e+00 2.449901e+01
<GCONST> 2.011859e+02
<STATE> 4
<MEAN> 39
 -2.866173e+01 1.907478e+00 -1.773126e+00 -2.177520e+00 -8.775681e+00 -7.929910e+00 7.792961e+00 -5.933061e-01 -5.100245e+00 -3.690790e+00 1.149070e+00 4.595835e+00 7.434892e+00 3.309184e+00 -1.215760e+00 2.643021e+00 2.580257e+00 -5.599580e-01 1.834834e-01 1.028765e+00 1.493636e+00 9.875360e-01 -1.678252e-01 -7.250702e-01 3.190592e-01 -2.100377e+00 2.125782e+00 8.618741e-03 6.229622e-01 5.921221e-01 8.470191e-01 5.255203e-01 -5.886592e-01 -1.072649e-01 2.395621e-01 7.633428e-02 -1.808610e-01 -5.343665e-01 -7.033184e-01
<VARIANCE> 39
 3.621069e+02 1.502665e+02 2.163031e+02 1.851937e+02 2.025971e+02 2.697568e+02 2.282655e+02 2.709089e+02 2.357006e+02 2.171747e+02 2.420880e+02 1.894217e+02 5.952397e+02 2.679879e+01 1.242393e+01 2.498608e+01 1.936632e+01 1.669437e+01 1.733757e+01 1.816249e+01 1.796329e+01 1.678678e+01 1.585137e+01 1.603683e+01 1.493466e+01 1.658571e+01 5.916823e+00 3.129549e+00 3.544428e+00 2.951831e+00 3.254184e+00 4.263355e+00 3.758968e+00 3.702297e+00 3.828603e+00 3.646794e+00 3.668343e+00 2.999025e+00 7.136632e+00
<GCONST> 1.979318e+02
<TRANSP> 5
 0.000000e+00 1.000000e+00 0.000000e+00 0.000000e+00 0.000000e+00
 0.000000e+00 7.773892e-01 2.226108e-01 0.000000e+00 0.000000e+00
 0.000000e+00 0.000000e+00 6.608026e-01 3.391973e-01 0.000000e+00
 0.000000e+00 0.000000e+00 0.000000e+00 6.740927e-01 3.259073e-01
 0.000000e+00 0.000000e+00 0.000000e+00 0.000000e+00 0.000000e+00
<ENDHMM>
~h "v"
<BEGINHMM>
<NUMSTATES> 5
<STATE> 2
<MEAN> 39
 1.766317e+01 -2.212532e+01 4.743974e+00 -1.797015e+01 -9.255381e+00 -1.579890e+01 -9.698711e-01 1.001740e+01 1.645426e+01 9.324032e+00 6.112776e-01 1.364797e+00 4.610876e+01 9.903131e-01 1.796359e-01 6.220260e-02 8.375263e-01 9.192498e-01 1.823255e-01 -6.429542e-01 -9.329172e-01 -7.231812e-01 7.400060e-01 4.441985e-01 -7.803441e-01 -1.485745e+00 -4.205881e-02 1.175815e+00 7.848716e-02 1.453879e+00 1.034944e+00 8.814658e-01 -5.617949e-01 -1.069544e+00 -1.020072e+00 -3.020522e-01 -5.118519e-02 -5.832160e-02 -1.621726e+00
<VARIANCE> 39
 8.161291e+01 1.039451e+02 1.722142e+02 1.591103e+02 1.770072e+02 1.822751e+02 5.105166e+02 2.289403e+02 1.970683e+02 3.300267e+02 2.278518e+02 2.476539e+02 1.508512e+02 2.168072e+00 8.748880e+00 7.296370e+00 1.031258e+01 9.034186e+00 1.151713e+01 1.591272e+01 1.541015e+01 1.530632e+01 1.098008e+01 1.545954e+01 1.206349e+01 7.038150e+00 7.900463e-01 8.693241e-01 1.229397e+00 1.643712e+00 1.970734e+00 2.629370e+00 3.131804e+00 1.823459e+00 2.367152e+00 2.219168e+00 2.059547e+00 2.057770e+00 1.008864e+00
<GCONST> 1.765734e+02
<STATE> 3
<MEAN> 39
 2.356414e+01 -1.125411e+01 9.445817e+00 -7.534933e-01 -8.792006e-03 -1.242799e+01 -8.997130e+00 -2.619455e+00 3.096859e+00 1.028339e+01 3.659004e+00 -1.724588e+00 2.622673e+01 -1.014326e+00 5.865544e+00 1.003570e+00 7.327679e+00 5.444499e+00 5.572760e+00 -9.993260e-02 -3.164731e+00 -4.011402e+00 -1.488341e+00 4.762386e-01 -2.415135e-01 -9.014235e+00 -1.761071e+00 3.016832e-01 -5.526175e-01 9.076279e-02 2.088130e-01 1.337116e+00 1.391051e+00 1.174289e+00 5.928526e-01 -5.798848e-01 -3.374896e-01 7.216244e-02 -4.752503e-01
<VARIANCE> 39
 7.142110e+01 1.451950e+02 2.039208e+02 2.391585e+02 2.512386e+02 2.924010e+02 3.091524e+02 2.513291e+02 3.422186e+02 2.513794e+02 3.154174e+02 2.206112e+02 2.260977e+02 1.238175e+01 1.274614e+01 1.549539e+01 1.891531e+01 2.017482e+01 2.421466e+01 3.576546e+01 2.230106e+01 2.572756e+01 2.648425e+01 2.372898e+01 2.104892e+01 1.107454e+01 2.075297e+00 2.318311e+00 2.172467e+00 3.674642e+00 4.184389e+00 5.251256e+00 3.701489e+00 3.330105e+00 4.840234e+00 3.482669e+00 3.981887e+00 3.119479e+00 3.243682e+00
<GCONST> 1.966455e+02
<STATE> 4
<MEAN> 39
 3.518885e+00 3.586264e+00 6.754792e+00 1.548708e+01 9.775666e+00 5.958065e+00 9.681327e-01 -6.313085e-01 -7.772107e-03 2.587885e+00 1.491154e+00 -7.485832e-02 -2.226641e+00 -3.220908e+00 7.693260e-02 -1.196428e+00 -4.361865e-01 -6.069036e-01 5.386091e-01 5.219960e-01 8.806840e-01 4.088525e-02 -1.035781e+00 -2.346126e-01 1.557458e-01 -1.750508e+00 6.838720e-01 -1.477049e+00 -2.690362e-01 -2.053229e+00 -1.513780e+00 -1.880709e+00 -4.856064e-01 4.376020e-01 7.168452e-01 2.414786e-01 -1.187328e-01 8.931162e-02 2.208133e+00
<VARIANCE> 39
 3.825955e+02 1.628522e+02 1.810495e+02 2.070201e+02 2.238407e+02 2.355236e+02 2.186243e+02 2.465433e+02 2.558272e+02 1.940037e+02 2.263584e+02 1.648074e+02 2.817247e+02 3.981109e+01 2.380410e+01 1.641004e+01 2.961227e+01 2.518546e+01 3.792660e+01 2.782035e+01 2.104596e+01 2.262749e+01 1.835852e+01 1.880671e+01 1.577892e+01 3.232014e+01 4.954451e+00 4.415140e+00 3.489739e+00 5.894693e+00 5.290732e+00 5.965397e+00 5.717205e+00 4.899470e+00 4.963053e+00 4.271785e+00 3.972881e+00 3.531806e+00 4.815053e+00
<GCONST> 2.036297e+02
<TRANSP> 5
 0.000000e+00 1.000000e+00 0.000000e+00 0.000000e+00 0.000000e+00
 0.000000e+00 7.613867e-01 2.386133e-01 0.000000e+00 0.000000e+00
 0.000000e+00 0.000000e+00 6.266491e-01 3.733509e-01 0.000000e+00
 0.000000e+00 0.000000e+00 0.000000e+00 7.517596e-01 2.482403e-01
 0.000000e+00 0.000000e+00 0.000000e+00 0.000000e+00 0.000000e+00
<ENDHMM>
~h "w"
<BEGINHMM>
<NUMSTATES> 5
<STATE> 2
<MEAN> 39
 3.278418e+01 1.165762e+01 4.557837e+00 -3.566770e+01 -2.082605e+01 4.334527e-01 9.294575e-01 1.543024e+01 7.060301e-01 7.649777e+00 3.437200e+00 -3.704706e+00 2.241227e+01 -5.792493e-01 -4.327620e+00 -4.015236e+00 -6.013576e+00 2.786773e+00 3.518139e+00 2.521687e+00 4.591130e+00 -1.020905e-02 -2.492317e+00 6.839573e-01 2.697388e-01 4.162519e+00 -5.277449e-01 -6.015373e-01 -5.524021e-01 1.314709e+00 2.085399e+00 1.471386e+00 1.796189e-01 -1.106966e+00 -8.304366e-01 -8.035406e-01 4.923415e-01 4.413064e-01 -2.640024e-01
<VARIANCE> 39
 6.223815e+01 1.296860e+02 1.772121e+02 2.337310e+02 3.185881e+02 2.197629e+02 3.579840e+02 2.973965e+02 2.910036e+02 2.929153e+02 2.275582e+02 2.029317e+02 1.417404e+02 2.196878e+00 9.478094e+00 7.131502e+00 1.372685e+01 1.815316e+01 1.720886e+01 1.713364e+01 1.939081e+01 2.103192e+01 1.983903e+01 1.623752e+01 1.808764e+01 5.017437e+00 5.727112e-01 1.207816e+00 1.291140e+00 2.883045e+00 2.149595e+00 2.394647e+00 4.074504e+00 4.082855e+00 3.221589e+00 3.332756e+00 3.144811e+00 2.709617e+00 5.797663e-01
<GCONST> 1.829504e+02
<STATE> 3
<MEAN> 39
 2.804380e+01 -6.276546e+00 -1.132214e+01 -4.396856e+01 3.271196e+00 2.105218e+01 5.744310e+00 1.549046e+01 -7.877431e+00 -3.965094e+00 1.347503e+01 3.364053e+00 3.444770e+01 -1.475752e+00 -4.465473e+00 -2.326478e+00 1.890443e+00 6.528818e+00 2.900811e+00 -2.638347e+00 -3.083968e+00 -5.830262e-01 9.541439e-01 3.732503e+00 3.969444e-02 2.388164e+00 -1.253489e-01 3.520224e-01 9.619415e-01 1.938945e+00 -4.844194e-01 -1.547495e+00 -1.505013e+00 -5.951077e-01 1.303022e+00 1.377876e+00 -5.932097e-01 -1.068477e+00 -5.238581e-01
<VARIANCE> 39
 6.789481e+01 1.172700e+02 1.579113e+02 2.082572e+02 4.244202e+02 2.316105e+02 3.249107e+02 3.053114e+02 2.755488e+02 3.203487e+02 2.484149e+02 2.620057e+02 1.578938e+02 1.928293e+00 6.818460e+00 5.815785e+00 1.209824e+01 1.167958e+01 1.449154e+01 1.982007e+01 1.570065e+01 2.097853e+01 2.177276e+01 1.396537e+01 1.948529e+01 3.420244e+00 2.754244e-01 6.880257e-01 9.192458e-01 2.057142e+00 2.385269e+00 2.371047e+00 2.490218e+00 3.820902e+00 3.075637e+00 3.083779e+00 4.079887e+00 2.675993e+00 2.983533e-01
<GCONST> 1.786463e+02
<STATE> 4
<MEAN> 39
 2.004945e+01 -2.208607e+01 -1.249830e+01 -2.189696e+01 2.386001e+01 1.180670e+01 -1.327401e+01 1.131629e+01 6.452356e+00 7.282260e+00 1.202930e+01 -9.747802e+00 4.033296e+01 -1.474523e+00 -1.681788e+00 2.216398e+00 4.885953e+00 -5.307246e-01 -4.202831e+00 -2.155922e+00 1.862253e+00 3.389705e+00 -3.577103e-02 -3.395172e+00 -5.591237e-01 4.696775e-01 1.441343e-01 9.740294e-01 9.199688e-01 -1.898382e-02 -1.377617e+00 -6.800045e-01 1.390526e+00 6.231785e-01 -7.268801e-01 -7.365136e-01 -8.011028e-01 1.042811e+00 -6.777052e-01
<VARIANCE> 39
 7.723337e+01 9.925734e+01 1.459117e+02 2.206185e+02 3.036914e+02 2.931428e+02 2.481251e+02 3.488371e+02 3.181186e+02 2.576106e+02 3.168672e+02 2.621334e+02 1.598891e+02 1.703917e+00 5.315857e+00 5.574539e+00 8.856586e+00 1.597776e+01 1.114280e+01 1.989341e+01 1.582965e+01 1.783416e+01 2.439988e+01 1.485886e+01 2.230674e+01 2.018108e+00 2.431275e-01 7.421875e-01 9.584660e-01 1.332945e+00 2.244161e+00 2.365209e+00 2.581175e+00 3.069688e+00 3.534797e+00 2.650134e+00 4.538694e+00 2.913863e+00 3.969684e-01
<GCONST> 1.772678e+02
<TRANSP> 5
 0.000000e+00 1.000000e+00 0.000000e+00 0.000000e+00 0.000000e+00
 0.000000e+00 6.947916e-01 3.052084e-01 0.000000e+00 0.000000e+00
 0.000000e+00 0.000000e+00 7.613055e-01 2.386945e-01 0.000000e+00
 0.000000e+00 0.000000e+00 0.000000e+00 7.885664e-01 2.114337e-01
 0.000000e+00 0.000000e+00 0.000000e+00 0.000000e+00 0.000000e+00
<ENDHMM>
~h "z"
<BEGINHMM>
<NUMSTATES> 5
<STATE> 2
<MEAN> 39
 -7.356071e+00 1.726095e+01 7.364040e+00 1.540855e+01 6.923523e+00 1.490665e+00 1.468091e+00 -8.884476e-01 4.214775e+00 -2.725347e+00 -6.330720e+00 1.614449e+00 -9.821867e+00 -2.665873e+00 5.155241e+00 -3.591454e-01 2.710296e+00 2.012568e+00 8.816663e-01 5.076991e-01 6.222338e-01 5.331092e-01 -2.047021e-01 -1.504621e-01 2.525810e-01 3.069205e+00 -8.632197e-01 1.226660e-01 -7.580454e-01 -2.317122e-01 -1.394319e-01 2.028964e-01 4.529018e-02 1.546866e-01 -2.082365e-01 2.495439e-01 3.266984e-01 -1.455333e-01 1.413908e-01
<VARIANCE> 39
 3.497080e+02 2.535876e+02 3.368915e+02 3.226710e+02 3.063036e+02 3.036265e+02 3.011591e+02 2.711659e+02 2.650412e+02 2.880026e+02 2.649628e+02 2.718478e+02 6.699869e+02 4.669767e+01 2.520480e+01 3.617300e+01 3.134769e+01 2.590777e+01 3.159319e+01 2.773203e+01 2.712366e+01 2.344126e+01 2.494870e+01 2.370030e+01 2.084974e+01 3.851534e+01 4.645511e+00 3.940934e+00 4.815927e+00 4.188840e+00 4.254449e+00 4.621895e+00 4.618021e+00 4.599759e+00 3.779975e+00 4.524476e+00 4.091088e+00 4.046786e+00 3.923035e+00
<GCONST> 2.089712e+02
<STATE> 3
<MEAN> 39
 -3.053342e+01 3.608823e+01 -2.372382e+00 2.470317e+01 1.237154e+01 1.060456e+01 5.089703e+00 4.266695e+00 3.613830e+00 -2.220312e-01 -2.372427e+00 1.758455e+00 5.677985e+00 -3.636678e+00 1.670719e-01 -1.591356e+00 -4.765390e-01 -8.809128e-02 7.132640e-01 6.493276e-01 4.590213e-01 -3.280332e-01 4.009002e-01 5.109958e-01 -1.025550e-02 9.828426e-01 1.631272e+00 -1.236122e+00 1.168674e+00 -5.489672e-01 -7.565680e-01 -7.063022e-01 -2.947150e-01 -6.815723e-01 -3.129290e-01 -2.786957e-01 -2.559319e-01 7.304261e-02 3.527026e-01
<VARIANCE> 39
 2.580273e+02 1.810532e+02 2.662323e+02 3.973639e+02 3.559159e+02 4.026208e+02 2.349485e+02 2.718297e+02 2.022911e+02 1.871682e+02 2.564294e+02 1.573068e+02 1.544486e+02 1.764091e+01 1.659291e+01 1.588148e+01 1.444848e+01 1.544249e+01 1.775244e+01 1.529539e+01 1.660161e+01 1.338838e+01 1.374176e+01 1.161646e+01 1.232043e+01 8.720629e+00 2.715947e+00 3.352087e+00 2.834247e+00 2.985724e+00 3.144763e+00 3.876446e+00 3.508975e+00 3.647984e+00 2.886075e+00 2.875910e+00 2.464488e+00 2.494277e+00 1.598698e+00
<GCONST> 1.915279e+02
<STATE> 4
<MEAN> 39
 -2.581780e+01 2.670664e+01 6.278805e+00 1.692027e+01 4.450802e+00 1.533750e+00 1.810859e+00 -3.934125e+00 -1.491215e+00 -3.883909e+00 -4.766650e+00 1.267631e+00 1.860071e+01 7.935705e+00 -4.862568e+00 8.121514e+00 -1.571608e+00 -3.148923e+00 -3.648629e+00 -2.452550e+00 -3.047661e+00 -1.758580e+00 -1.450777e+00 -1.119199e+00 5.580856e-01 4.662195e+00 1.387133e+00 -1.637222e+00 1.537764e+00 -7.886817e-01 -1.523689e-01 -2.411315e-01 -3.750883e-01 1.713702e-01 -1.440672e-01 2.228701e-01 2.800771e-02 2.044900e-01 1.069643e-01
<VARIANCE> 39
 3.293162e+02 1.741540e+02 3.657748e+02 2.991270e+02 4.130193e+02 3.446617e+02 2.433113e+02 2.062070e+02 1.921990e+02 1.901779e+02 2.945503e+02 1.905503e+02 1.648558e+02 2.355907e+01 3.136182e+01 3.393744e+01 3.107181e+01 2.134562e+01 2.825900e+01 2.484341e+01 3.117958e+01 1.954997e+01 1.683967e+01 1.671865e+01 1.973330e+01 6.122039e+00 5.646692e+00 3.225702e+00 5.611984e+00 4.682529e+00 4.188283e+00 4.438277e+00 4.303894e+00 4.581367e+00 3.481339e+00 3.656337e+00 3.388576e+00 3.096727e+00 1.118671e+00
<GCONST> 2.005830e+02
<TRANSP> 5
 0.000000e+00 1.000000e+00 0.000000e+00 0.000000e+00 0.000000e+00
 0.000000e+00 7.303704e-01 2.696296e-01 0.000000e+00 0.000000e+00
 0.000000e+00 0.000000e+00 8.099655e-01 1.900345e-01 0.000000e+00
 0.000000e+00 0.000000e+00 0.000000e+00 7.516480e-01 2.483520e-01
 0.000000e+00 0.000000e+00 0.000000e+00 0.000000e+00 0.000000e+00
<ENDHMM>
~h "ah"
<BEGINHMM>
<NUMSTATES> 5
<STATE> 2
<MEAN> 39
 2.080080e+01 -1.559141e+01 6.430197e+00 -7.692400e+00 6.795234e+00 -5.929205e+00 -9.436309e+00 1.141141e+01 6.508067e+00 4.945029e+00 3.222352e+00 -1.070581e+00 3.266539e+01 -1.684040e-01 6.806985e-01 2.657296e+00 6.426125e-01 -1.556252e+00 -2.316291e+00 2.261051e+00 1.776430e+00 -3.206667e-01 -5.355573e-01 -1.949913e+00 1.521009e+00 -5.054296e-02 5.046374e-02 1.301459e+00 5.017051e-01 1.367531e+00 1.375451e-01 1.298899e+00 1.397140e+00 -1.605530e+00 -8.720314e-01 -2.935753e-02 -2.714892e-01 2.842266e-01 -1.659044e+00
<VARIANCE> 39
 9.667191e+01 1.107487e+02 1.430288e+02 1.547332e+02 1.729210e+02 2.765098e+02 3.571867e+02 3.674261e+02 3.051150e+02 3.188791e+02 2.572859e+02 2.275086e+02 1.766376e+02 4.045322e+00 1.197170e+01 1.175778e+01 3.188566e+01 1.767867e+01 1.973217e+01 2.617858e+01 2.392506e+01 2.832968e+01 2.489276e+01 2.893537e+01 2.093604e+01 1.862895e+01 1.010530e+00 1.664533e+00 1.718023e+00 3.799173e+00 3.157717e+00 4.642923e+00 6.477095e+00 5.684857e+00 5.015852e+00 4.095890e+00 3.967026e+00 3.351277e+00 1.950505e+00
<GCONST> 1.941137e+02
<STATE> 3
<MEAN> 39
 1.985236e+01 -6.763858e+00 1.668304e+01 5.718756e+00 5.386972e+00 -7.459993e+00 4.733595e+00 7.518072e+00 1.160061e+00 2.419759e+00 -5.916817e+00 5.509346e+00 2.275263e+01 8.032766e-01 5.220569e+00 4.599728e+00 7.263179e+00 -3.021476e+00 3.609720e+00 6.421874e+00 -7.816462e+00 -1.530590e+00 -7.279672e-01 -2.172837e+00 2.501046e+00 -6.259675e+00 6.891341e-02 1.585591e-01 -5.464485e-01 -1.898752e-01 -2.977471e-01 1.629451e+00 -1.158193e-01 -1.189427e+00 6.262110e-01 -7.289036e-02 7.926511e-01 -2.614846e-01 -1.758336e-01
<VARIANCE> 39
 7.852836e+01 1.466153e+02 1.872600e+02 2.789618e+02 2.057463e+02 3.194993e+02 3.987295e+02 4.420247e+02 3.192578e+02 4.138342e+02 2.828013e+02 2.634312e+02 1.818518e+02 5.336194e+00 8.923857e+00 1.570523e+01 2.087435e+01 2.322301e+01 4.396629e+01 5.018812e+01 3.970412e+01 3.971719e+01 3.064345e+01 3.524978e+01 2.699590e+01 4.069036e+00 5.893641e-01 1.544461e+00 2.516323e+00 4.255329e+00 2.975042e+00 4.781898e+00 5.334984e+00 6.827685e+00 4.486795e+00 3.998120e+00 3.587319e+00 3.189863e+00 1.461772e+00
<GCONST> 1.970569e+02
<STATE> 4
<MEAN> 39
 2.134427e+01 5.779357e+00 2.446735e+01 1.926544e+01 -4.004595e+00 1.077690e+01 1.694610e+01 -1.244448e+01 1.050369e+00 -7.750136e-02 -5.213315e+00 9.165158e+00 7.597076e+00 -1.835009e-01 2.241346e+00 5.974886e-01 1.845952e+00 -4.693141e-01 2.269455e+00 1.723901e+00 -1.532965e+00 1.388187e-01 -3.398528e-01 -2.980517e-01 7.801367e-02 -2.730291e+00 -4.200351e-01 -4.589545e-01 -8.460839e-01 -7.679767e-01 8.281226e-01 -6.655152e-01 -8.910926e-01 1.575255e+00 1.402439e-01 8.330292e-02 1.805809e-01 -5.564607e-01 3.466363e-01
<VARIANCE> 39
 6.984261e+01 1.396212e+02 1.320837e+02 2.150778e+02 2.109259e+02 3.327333e+02 3.417979e+02 3.312391e+02 3.839135e+02 4.440121e+02 4.064211e+02 3.475325e+02 1.478010e+02 2.799868e+00 6.832134e+00 8.134035e+00 1.093760e+01 1.174564e+01 1.894485e+01 2.067346e+01 2.531449e+01 1.523991e+01 1.311287e+01 1.509923e+01 1.318628e+01 3.989620e+00 6.008891e-01 1.356062e+00 1.710085e+00 2.841301e+00 2.352531e+00 3.561551e+00 4.405644e+00 4.253670e+00 3.672120e+00 3.033028e+00 3.547850e+00 3.107287e+00 1.003122e+00
<GCONST> 1.851388e+02
<TRANSP> 5
 0.000000e+00 1.000000e+00 0.000000e+00 0.000000e+00 0.000000e+00
 0.000000e+00 7.100618e-01 2.899382e-01 0.000000e+00 0.000000e+00
 0.000000e+00 0.000000e+00 5.452793e-01 4.547207e-01 0.000000e+00
 0.000000e+00 0.000000e+00 0.000000e+00 7.577667e-01 2.422333e-01
 0.000000e+00 0.000000e+00 0.000000e+00 0.000000e+00 0.000000e+00
<ENDHMM>
~h "ao"
<BEGINHMM>
<NUMSTATES> 5
<STATE> 2
<MEAN> 39
 3.571262e+01 1.776891e+01 5.337461e+00 -3.406356e+01 -1.873548e+01 4.191372e+00 2.966332e+00 4.671138e+00 -8.896878e+00 6.672733e-02 -6.349500e+00 -2.345101e+00 2.000012e+01 7.789822e+00 3.952368e+00 3.543876e+00 -9.025365e+00 -5.408960e+00 -1.351107e+00 -8.969679e-01 2.350054e+00 -1.562951e+00 1.224733e+00 -1.294970e+00 -1.020747e+00 3.753612e+00 -4.192945e+00 -2.094883e+00 -1.098478e+00 2.435817e+00 9.465036e-01 -2.184226e-01 -7.644606e-01 -5.514538e-01 4.897894e-01 1.596960e-01 4.346665e-01 4.602847e-02 -9.840937e-01
<VARIANCE> 39
 7.840774e+01 1.178842e+02 1.704630e+02 3.058713e+02 3.720650e+02 2.356866e+02 2.203895e+02 2.595103e+02 2.499397e+02 2.215707e+02 1.961888e+02 2.517350e+02 1.820679e+02 4.003092e+01 2.255506e+01 2.010971e+01 3.796885e+01 3.303611e+01 2.304609e+01 3.210044e+01 2.845662e+01 2.959606e+01 2.783767e+01 2.360262e+01 2.974204e+01 1.113581e+01 1.671588e+00 2.263693e+00 2.275808e+00 5.010602e+00 4.119802e+00 2.932094e+00 3.719460e+00 3.634466e+00 3.839136e+00 3.024451e+00 3.111476e+00 3.830277e+00 1.980777e+00
<GCONST> 1.979879e+02
<STATE> 3
<MEAN> 39
 3.670174e+01 2.029509e+01 9.386367e+00 -4.055975e+01 -2.535957e+01 3.775828e-01 -9.862182e-01 6.932678e+00 -7.231708e+00 4.382960e+00 -6.666037e+00 -4.193387e+00 2.241774e+01 1.547942e-01 -5.018128e-01 -8.962606e-01 4.924482e-01 -2.185828e-01 -4.356944e-01 6.817710e-01 4.529042e-01 -6.537202e-01 -9.510573e-02 3.071632e-01 2.524026e-01 7.124014e-02 -2.389038e-01 -6.972703e-01 -7.651908e-01 7.553842e-01 7.422380e-01 1.553036e-01 3.419503e-01 -1.141308e-01 -4.015739e-01 -2.861027e-01 3.521778e-01 3.985601e-01 2.261525e-02
<VARIANCE> 39
 6.102186e+01 1.268153e+02 2.275366e+02 2.592434e+02 3.946970e+02 2.819190e+02 2.970742e+02 2.834086e+02 2.565748e+02 2.804452e+02 2.273167e+02 2.670273e+02 1.720360e+02 9.181048e-01 7.349202e+00 7.205717e+00 5.655890e+00 6.523116e+00 7.677279e+00 1.146760e+01 1.009334e+01 1.112924e+01 9.779947e+00 9.578462e+00 8.940715e+00 2.778445e+00 6.411329e-01 7.709868e-01 9.724555e-01 1.914392e+00 1.445923e+00 1.296593e+00 1.739074e+00 1.829993e+00 1.847077e+00 2.005908e+00 2.024246e+00 2.013690e+00 5.867206e-01
<GCONST> 1.702504e+02
<STATE> 4
<MEAN> 39
 3.904286e+01 6.835072e-01 -1.657136e+01 -2.584709e+01 -4.896010e+00 -3.347061e+00 2.546965e+00 8.999771e+00 -1.937787e+01 3.236013e-01 4.926124e+00 8.388763e+00 2.807122e+01 1.214699e-01 -3.816669e+00 -4.379279e+00 3.990827e+00 6.520095e+00 -1.398925e+00 -2.607854e+00 -8.161047e-01 3.450347e-01 6.651695e-01 2.280803e+00 1.726676e+00 8.058046e-01 -1.718489e-01 3.471921e-01 6.450481e-01 4.880773e-01 2.997835e-01 -4.346755e-01 -9.916250e-01 -1.240588e-01 1.383903e+00 4.390180e-01 -4.803089e-01 -7.296137e-01 -4.206443e-01
<VARIANCE> 39
 6.935889e+01 1.870162e+02 2.665018e+02 2.544280e+02 5.096529e+02 3.696588e+02 5.075738e+02 4.887827e+02 3.697300e+02 6.624983e+02 3.638427e+02 3.362892e+02 1.533137e+02 1.732120e+00 7.327692e+00 1.148724e+01 1.444056e+01 1.667532e+01 2.399737e+01 2.551284e+01 2.766832e+01 3.065470e+01 3.661892e+01 2.867926e+01 3.766436e+01 2.959107e+00 2.913012e-01 9.739259e-01 1.725891e+00 1.649319e+00 3.089857e+00 3.091247e+00 3.431265e+00 4.828605e+00 3.907974e+00 5.917371e+00 5.048592e+00 5.326588e+00 3.174100e-01
<GCONST> 1.914284e+02
<TRANSP> 5
 0.000000e+00 1.000000e+00 0.000000e+00 0.000000e+00 0.000000e+00
 0.000000e+00 6.344920e-01 3.655080e-01 0.000000e+00 0.000000e+00
 0.000000e+00 0.000000e+00 8.700870e-01 1.299130e-01 0.000000e+00
 0.000000e+00 0.000000e+00 0.000000e+00 8.296789e-01 1.703211e-01
 0.000000e+00 0.000000e+00 0.000000e+00 0.000000e+00 0.000000e+00
<ENDHMM>
~h "ay"
<BEGINHMM>
<NUMSTATES> 5
<STATE> 2
<MEAN> 39
 1.997064e+01 -2.494760e+01 -1.188223e+01 -2.124548e+01 1.052147e+01 8.762322e+00 -3.179023e+00 9.986217e+00 1.027821e+01 6.174127e+00 2.956403e+00 -4.754628e+00 4.373313e+01 -4.322276e-01 -1.835082e+00 -2.214271e+00 -2.115160e-02 2.186638e+00 2.288427e+00 -8.616848e-01 -1.052185e-01 9.758971e-01 -6.679498e-01 2.736093e-01 -1.355876e+00 8.901621e-01 -1.401124e-01 1.065765e+00 9.106590e-01 1.115005e+00 -3.146491e-01 -2.898589e-01 9.167954e-02 -6.163002e-01 -4.722116e-01 -8.329400e-02 -1.332794e-01 1.763235e-01 -1.255347e+00
<VARIANCE> 39
 8.885250e+01 1.087401e+02 1.867213e+02 2.728528e+02 3.244362e+02 2.877342e+02 3.070911e+02 3.485065e+02 2.809099e+02 2.990944e+02 3.291633e+02 2.375469e+02 1.065492e+02 2.549357e+00 5.201940e+00 8.501128e+00 9.563025e+00 1.085834e+01 1.168044e+01 1.663464e+01 1.215458e+01 1.374518e+01 1.332671e+01 1.511923e+01 1.341564e+01 2.549272e+00 1.023032e+00 1.106935e+00 1.168872e+00 2.389239e+00 2.006246e+00 2.323039e+00 3.274547e+00 3.460057e+00 2.793010e+00 2.404778e+00 2.520834e+00 1.914950e+00 1.200911e+00
<GCONST> 1.793645e+02
<STATE> 3
<MEAN> 39
 1.871121e+01 -2.775979e+01 -1.324557e+01 -1.858829e+01 1.436972e+01 1.250842e+01 -5.545150e+00 9.156116e+00 1.125743e+01 4.467830e+00 1.627788e+00 -7.889074e+00 4.302722e+01 -2.086341e-01 -3.021331e-01 6.146773e-01 9.430670e-01 -2.663747e-01 -9.495577e-01 -6.565786e-02 7.025651e-01 3.412471e-01 -4.539032e-01 -4.490176e-01 5.831446e-02 -1.567892e-01 -1.717645e-02 1.408047e-01 3.581483e-01 1.029421e-01 -4.163003e-01 -4.508551e-01 2.132091e-01 1.808656e-01 -6.433880e-02 -5.113573e-02 -4.743531e-02 2.351013e-01 -6.536965e-02
<VARIANCE> 39
 7.361331e+01 1.110684e+02 1.462775e+02 2.686054e+02 3.430299e+02 2.666411e+02 2.896587e+02 3.131164e+02 2.570492e+02 2.482403e+02 2.815930e+02 2.530744e+02 1.257070e+02 7.833893e-01 1.539704e+00 2.635058e+00 3.361702e+00 4.437641e+00 5.897914e+00 5.291084e+00 4.548893e+00 4.515845e+00 4.717781e+00 4.978364e+00 4.929454e+00 6.895476e-01 1.252806e-01 2.373169e-01 3.369937e-01 4.305160e-01 5.615200e-01 6.238961e-01 7.983893e-01 6.750449e-01 7.229184e-01 7.488644e-01 7.545408e-01 7.457393e-01 9.286892e-02
<GCONST> 1.451994e+02
<STATE> 4
<MEAN> 39
 1.476546e+01 -2.526843e+01 5.006975e+00 -9.940698e+00 -8.478841e-01 -4.737991e+00 2.715499e+00 1.926721e+01 9.009455e+00 -2.004150e+00 2.848447e-01 6.177363e-02 3.972496e+01 -5.653946e-01 2.249895e+00 4.286424e+00 8.147587e-02 -3.715887e+00 -2.313201e+00 2.410690e+00 -2.143048e-01 -1.907649e+00 4.776075e-01 7.530264e-01 1.400229e+00 -1.275081e+00 2.120817e-01 6.939138e-01 1.223124e-01 1.402167e-02 3.123406e-01 4.003613e-01 -1.445289e-01 -9.653464e-01 -3.480203e-01 5.124024e-01 6.993559e-02 -1.428065e-01 -5.694667e-01
<VARIANCE> 39
 7.942217e+01 1.405453e+02 2.753699e+02 1.692585e+02 3.185243e+02 2.086207e+02 3.375554e+02 2.305213e+02 2.979247e+02 2.562779e+02 2.350151e+02 2.303629e+02 1.575914e+02 1.681568e+00 4.717622e+00 6.147887e+00 1.021805e+01 1.163254e+01 1.477604e+01 1.793867e+01 1.702416e+01 1.480274e+01 1.437310e+01 1.248417e+01 1.291753e+01 1.873618e+00 2.893409e-01 5.558227e-01 1.082010e+00 1.600509e+00 1.970006e+00 1.550310e+00 2.429929e+00 2.075330e+00 2.218514e+00 2.025529e+00 2.106470e+00 1.985099e+00 3.463691e-01
<GCONST> 1.727958e+02
<TRANSP> 5
 0.000000e+00 1.000000e+00 0.000000e+00 0.000000e+00 0.000000e+00
 0.000000e+00 7.025812e-01 2.974189e-01 0.000000e+00 0.000000e+00
 0.000000e+00 0.000000e+00 8.986566e-01 1.013434e-01 0.000000e+00
 0.000000e+00 0.000000e+00 0.000000e+00 8.017415e-01 1.982585e-01
 0.000000e+00 0.000000e+00 0.000000e+00 0.000000e+00 0.000000e+00
<ENDHMM>
~h "eh"
<BEGINHMM>
<NUMSTATES> 5
<STATE> 2
<MEAN> 39
 -5.240762e+01 1.506299e+01 -2.649209e+01 -2.841533e+00 -4.378542e-01 -6.205564e+00 2.933325e+00 -1.532584e+00 -6.503320e-01 -5.518282e+00 -3.516157e+00 4.322091e+00 9.600409e+00 3.757567e+00 -4.025586e-01 2.719061e+00 1.728686e-01 -7.291305e-01 -1.033456e+00 -3.912981e-02 -2.922004e-01 8.743733e-01 1.921357e-02 -5.320898e-01 7.436476e-01 1.119271e+00 3.523937e+00 -5.542603e-01 2.230712e+00 2.395271e-01 1.012708e-01 -6.461953e-01 -6.319950e-01 -2.196891e-01 5.599498e-01 5.057628e-01 -2.217413e-01 1.608963e-01 8.649588e-01
<VARIANCE> 39
 1.347779e+02 1.228276e+02 1.384645e+02 2.471612e+02 2.589315e+02 2.937491e+02 2.325620e+02 1.473620e+02 2.026756e+02 1.716458e+02 1.866675e+02 1.472664e+02 1.108693e+02 1.756361e+01 8.127628e+00 1.381559e+01 9.334120e+00 9.197894e+00 1.024248e+01 1.053765e+01 1.129250e+01 1.137809e+01 1.251614e+01 1.248286e+01 1.139350e+01 5.082329e+00 3.318603e+00 1.492792e+00 2.017590e+00 1.904727e+00 2.158312e+00 3.364198e+00 3.266063e+00 2.446941e+00 3.207638e+00 3.327077e+00 2.665395e+00 3.017447e+00 1.426577e+00
<GCONST> 1.814026e+02
<STATE> 3
<MEAN> 39
 -2.369661e+01 1.210803e+01 -8.623244e+00 4.388371e+00 -4.743869e+00 -4.996087e+00 -2.732602e+00 -1.616503e+00 8.690340e-01 -2.320366e+00 -3.696440e+00 4.369925e+00 1.207008e+01 1.701615e+01 -3.523548e+00 9.911216e+00 -6.254712e-01 8.277661e-02 -4.060504e+00 -3.277941e+00 -1.246530e+00 2.749141e+00 1.961578e+00 -6.837983e-01 1.374909e+00 6.881534e+00 1.005785e+00 -2.047635e+00 -4.643574e-02 -1.644807e+00 -3.312400e-01 -7.537426e-01 -5.274822e-01 4.784981e-01 7.088948e-01 7.700720e-01 4.553767e-01 -1.042536e-02 2.136403e+00
<VARIANCE> 39
 4.505614e+02 1.112542e+02 2.397995e+02 2.043685e+02 2.728755e+02 2.666393e+02 2.256761e+02 1.783825e+02 2.435988e+02 1.905957e+02 2.366671e+02 1.801277e+02 1.300671e+02 1.249659e+01 2.002772e+01 1.611917e+01 2.385748e+01 1.924242e+01 3.831802e+01 4.380346e+01 1.905919e+01 3.392580e+01 3.863018e+01 2.383711e+01 3.557978e+01 1.362947e+01 8.482676e+00 2.050343e+00 4.914056e+00 2.643040e+00 3.186601e+00 4.221767e+00 6.736743e+00 3.065227e+00 4.555728e+00 3.743123e+00 3.443239e+00 3.542966e+00 1.402969e+00
<GCONST> 1.994329e+02
<STATE> 4
<MEAN> 39
 1.739096e+01 -9.242001e+00 1.175303e+01 -8.534397e+00 -7.796879e+00 -1.966673e+01 -1.522703e+01 -3.173384e+00 9.668904e+00 6.199209e+00 -2.981673e+00 8.238113e+00 4.156469e+01 6.309055e+00 -7.296729e+00 1.985057e+00 -5.797267e+00 -1.797472e+00 -2.748714e+00 -3.853056e-01 2.698498e+00 3.736700e+00 2.703698e+00 1.542096e+00 1.930029e-01 7.588731e+00 -4.481749e+00 4.619080e-01 -2.924318e+00 -2.085441e-01 9.250662e-03 1.499761e+00 1.786318e+00 1.104214e+00 -3.213336e-01 -3.742876e-01 2.835375e-01 -8.421741e-01 -1.755549e+00
<VARIANCE> 39
 6.737625e+01 1.130016e+02 1.240563e+02 1.805242e+02 2.142072e+02 1.674547e+02 3.640808e+02 2.284912e+02 2.247268e+02 3.307115e+02 2.856830e+02 3.366265e+02 1.262194e+02 4.095834e+01 1.140578e+01 2.481714e+01 1.864687e+01 2.035771e+01 2.792973e+01 6.429278e+01 1.881493e+01 2.719142e+01 2.339371e+01 2.067748e+01 2.183966e+01 1.196953e+01 1.515132e+00 2.715141e+00 2.183216e+00 3.338427e+00 2.710673e+00 4.752614e+00 4.912180e+00 2.759474e+00 4.818759e+00 3.984531e+00 3.569597e+00 4.796202e+00 1.430501e+00
<GCONST> 1.954682e+02
<TRANSP> 5
 0.000000e+00 1.000000e+00 0.000000e+00 0.000000e+00 0.000000e+00
 0.000000e+00 6.307991e-01 3.692009e-01 0.000000e+00 0.000000e+00
 0.000000e+00 0.000000e+00 5.608344e-01 4.391656e-01 0.000000e+00
 0.000000e+00 0.000000e+00 0.000000e+00 6.267812e-01 3.732189e-01
 0.000000e+00 0.000000e+00 0.000000e+00 0.000000e+00 0.000000e+00
<ENDHMM>
~h "ey"
<BEGINHMM>
<NUMSTATES> 5
<STATE> 2
<MEAN> 39
 -3.238312e+00 -2.896774e+00 -2.269424e-01 -3.455703e+00 -1.091704e+01 -1.178800e+01 -4.044353e+00 -1.968721e+00 2.273425e+00 2.646323e+00 1.483062e+00 2.580345e+00 -8.101995e+00 1.014632e+00 -2.233173e+00 3.480975e+00 -1.728401e+00 -2.294147e+00 -1.231605e+00 1.456586e+00 1.270956e+00 8.121511e-01 7.878512e-01 3.481556e-01 5.046641e-01 5.526528e+00 5.316283e-01 -1.527950e-01 8.777559e-01 -4.330244e-01 5.962831e-02 3.070075e-01 3.947383e-01 1.519248e-02 -2.315324e-01 1.156727e-01 1.636888e-02 2.828383e-02 1.701327e+00
<VARIANCE> 39
 3.699687e+02 2.296150e+02 3.796820e+02 3.001920e+02 3.202245e+02 3.792630e+02 4.247178e+02 4.250921e+02 3.775785e+02 3.116154e+02 2.571908e+02 2.826101e+02 1.222497e+03 3.108015e+01 1.993426e+01 3.709028e+01 3.387381e+01 3.192862e+01 3.834505e+01 4.482117e+01 3.972383e+01 3.680021e+01 3.066064e+01 2.824550e+01 2.616989e+01 1.098975e+02 4.349493e+00 3.695996e+00 5.113446e+00 5.142412e+00 6.081138e+00 6.799877e+00 7.936920e+00 7.350662e+00 6.725054e+00 5.738989e+00 5.442769e+00 5.098832e+00 1.499994e+01
<GCONST> 2.184728e+02
<STATE> 3
<MEAN> 39
 8.201032e+00 -1.061491e+01 3.494342e+01 -1.992157e+01 -1.886288e+01 -1.047706e+01 2.738192e+00 -2.231125e+00 -6.105520e-01 7.332220e+00 2.303578e+00 4.811192e+00 4.249066e+01 1.248208e-01 1.023856e+00 3.134480e+00 -4.177371e-01 3.316329e-01 9.222515e-01 -7.893238e-01 -1.816498e+00 -1.146329e+00 -3.844827e-01 -6.049942e-01 -5.028891e-02 1.582508e+00 -3.221703e-01 4.547034e-01 -2.728086e-01 5.011691e-01 4.690510e-01 2.572529e-01 -2.010308e-01 -2.392082e-01 -1.151432e-01 -2.947642e-01 -2.696351e-01 -1.558180e-01 -1.248887e+00
<VARIANCE> 39
 9.204884e+01 1.461997e+02 2.817150e+02 2.895075e+02 1.501101e+02 2.177956e+02 3.093844e+02 2.678276e+02 4.003839e+02 1.954040e+02 1.351986e+02 1.521225e+02 2.103145e+02 6.764085e+00 7.847085e+00 1.005644e+01 9.524332e+00 9.148274e+00 9.551026e+00 1.307804e+01 1.106265e+01 1.243575e+01 1.092184e+01 8.850229e+00 9.949235e+00 3.633987e+01 9.114145e-01 9.898618e-01 1.507204e+00 1.423544e+00 1.233673e+00 1.482495e+00 1.969682e+00 1.604941e+00 1.625376e+00 1.520319e+00 1.347512e+00 1.327653e+00 3.313967e+00
<GCONST> 1.768213e+02
<STATE> 4
<MEAN> 39
 2.426744e+00 8.627410e+00 5.689388e+01 -8.628286e+00 -5.071235e+00 4.101483e+00 -3.730036e+00 -2.028913e+01 -1.057267e+01 -3.754469e+00 -9.949146e+00 8.436166e-01 2.404228e+01 -3.588329e-01 2.532182e+00 -1.852213e+00 4.611345e+00 1.797861e+00 1.516238e+00 1.087283e+00 3.716835e-01 -6.744450e-02 -1.024701e+00 -6.267381e-01 -1.086625e+00 -6.943157e+00 -1.116369e-01 4.243376e-02 -2.247532e+00 7.496742e-01 1.179050e-02 -2.811608e-01 1.919034e-01 9.566292e-01 6.017467e-01 1.981079e-01 7.320664e-01 1.806187e-02 -1.486601e+00
<VARIANCE> 39
 8.581454e+01 1.829236e+02 1.617404e+02 3.715001e+02 2.209738e+02 2.387515e+02 2.984212e+02 4.096240e+02 4.777808e+02 2.804387e+02 2.483815e+02 2.945385e+02 3.309804e+02 5.444590e+00 1.034002e+01 3.899762e+01 2.333420e+01 1.611630e+01 1.547943e+01 1.965919e+01 2.446976e+01 2.521972e+01 1.867323e+01 1.882346e+01 1.902282e+01 2.763966e+01 1.211084e+00 1.868475e+00 4.281882e+00 3.569903e+00 2.829216e+00 2.699165e+00 3.203386e+00 4.175986e+00 4.227042e+00 3.246210e+00 3.245868e+00 3.384322e+00 2.477562e+00
<GCONST> 1.957241e+02
<TRANSP> 5
 0.000000e+00 1.000000e+00 0.000000e+00 0.000000e+00 0.000000e+00
 0.000000e+00 7.964317e-01 2.035683e-01 0.000000e+00 0.000000e+00
 0.000000e+00 0.000000e+00 9.045263e-01 9.547377e-02 0.000000e+00
 0.000000e+00 0.000000e+00 0.000000e+00 8.498684e-01 1.501316e-01
 0.000000e+00 0.000000e+00 0.000000e+00 0.000000e+00 0.000000e+00
<ENDHMM>
~h "hh"
<BEGINHMM>
<NUMSTATES> 5
<STATE> 2
<MEAN> 39
 -3.492146e+00 5.016418e+00 -8.533357e+00 1.525992e-01 2.272928e+00 6.003518e+00 1.197236e+00 -3.475344e+00 -2.357951e+00 -1.388772e+00 -9.155692e-02 -1.040392e+00 -1.812901e+01 2.716724e+00 2.506851e+00 9.994906e-01 3.779284e-02 -4.958095e-01 1.396432e+00 1.706375e+00 6.341608e-01 2.368751e-01 4.791382e-01 7.459016e-02 -3.563834e-01 -8.371173e-01 7.881538e-01 5.915948e-01 7.459624e-01 -1.460257e-02 -6.002443e-01 -4.093759e-01 7.102165e-02 1.828031e-01 1.465894e-01 2.494752e-01 -7.726683e-02 -4.808296e-02 5.916155e-01
<VARIANCE> 39
 5.575637e+02 2.876446e+02 2.337155e+02 2.572123e+02 2.855706e+02 2.976148e+02 3.232070e+02 2.823648e+02 3.057563e+02 2.325427e+02 2.071249e+02 1.928615e+02 6.178622e+02 2.710361e+01 2.674652e+01 2.510155e+01 2.629856e+01 2.779427e+01 3.282965e+01 2.927570e+01 2.767039e+01 2.462853e+01 2.167082e+01 1.976230e+01 1.651266e+01 2.226642e+01 4.218759e+00 4.510550e+00 3.700495e+00 4.532582e+00 5.570096e+00 6.102181e+00 5.797183e+00 5.395962e+00 5.151993e+00 4.572363e+00 4.004941e+00 3.348985e+00 4.208575e+00
<GCONST> 2.073219e+02
<STATE> 3
<MEAN> 39
 1.981814e+01 2.522173e+01 5.373237e+00 4.531961e+00 -1.951000e+00 1.032186e+01 9.548960e+00 4.653348e-01 -3.910469e-01 2.094743e+00 -1.602113e+00 -2.977083e+00 -1.219590e+01 6.483588e+00 2.589822e+00 2.622671e+00 -2.711820e+00 -3.608377e+00 -1.703669e+00 -5.380940e-01 1.808373e-01 1.894117e-02 1.568941e+00 -2.344439e-01 -5.726199e-01 4.986465e+00 -4.208614e-01 -1.485409e+00 -4.206269e-01 -1.593904e+00 -6.437637e-01 -1.000728e+00 -1.146859e+00 -3.420537e-01 -3.344117e-01 2.158707e-01 2.153707e-01 2.185233e-01 1.074041e+00
<VARIANCE> 39
 2.784357e+02 1.958471e+02 1.426015e+02 3.058127e+02 2.288118e+02 2.319557e+02 2.166183e+02 2.075591e+02 2.579113e+02 1.914574e+02 1.684369e+02 1.719527e+02 3.645350e+02 3.904463e+01 2.163327e+01 1.784398e+01 3.110390e+01 2.289581e+01 2.071003e+01 2.419817e+01 2.402209e+01 2.831241e+01 2.053426e+01 1.841853e+01 1.833231e+01 3.951049e+01 4.368805e+00 3.523602e+00 2.847479e+00 5.537062e+00 3.876769e+00 3.585938e+00 3.956002e+00 3.969062e+00 3.918406e+00 3.459800e+00 3.106642e+00 3.027949e+00 3.003224e+00
<GCONST> 2.001138e+02
<STATE> 4
<MEAN> 39
 3.209585e+01 2.344837e+01 1.121503e+01 -1.121666e+01 -1.635380e+01 1.058047e+00 6.887898e-01 -1.722085e+00 -3.826316e+00 6.896549e+00 -2.305234e-01 -2.789710e+00 5.911145e+00 1.081333e+00 -1.215905e+00 2.597109e-01 -4.438631e+00 -2.383125e+00 -1.833614e+00 -1.753971e+00 1.223207e+00 3.499557e-01 1.185468e+00 1.131813e+00 3.022107e-01 3.370851e+00 -8.252613e-01 -9.950694e-01 -9.388618e-01 -6.946484e-01 8.274304e-01 6.622944e-01 5.145296e-01 9.425917e-01 1.812523e-01 -3.991597e-01 1.725485e-01 3.904990e-02 1.613428e-01
<VARIANCE> 39
 6.779206e+01 1.825981e+02 1.692437e+02 2.066319e+02 2.328584e+02 2.563087e+02 2.674712e+02 2.552024e+02 2.851039e+02 2.449062e+02 2.163876e+02 2.208344e+02 1.601261e+02 6.647894e+00 1.297319e+01 1.069042e+01 2.717997e+01 1.548417e+01 1.542322e+01 2.058877e+01 2.027539e+01 1.833967e+01 1.687937e+01 1.588743e+01 1.459382e+01 1.389907e+01 2.097571e+00 2.243251e+00 1.978441e+00 2.845789e+00 3.157590e+00 3.196201e+00 3.455186e+00 3.894100e+00 3.589305e+00 3.184747e+00 3.031293e+00 3.001732e+00 1.874413e+00
<GCONST> 1.896080e+02
<TRANSP> 5
 0.000000e+00 1.000000e+00 0.000000e+00 0.000000e+00 0.000000e+00
 0.000000e+00 6.752656e-01 3.247344e-01 0.000000e+00 0.000000e+00
 0.000000e+00 0.000000e+00 5.697344e-01 4.302656e-01 0.000000e+00
 0.000000e+00 0.000000e+00 0.000000e+00 7.474950e-01 2.525050e-01
 0.000000e+00 0.000000e+00 0.000000e+00 0.000000e+00 0.000000e+00
<ENDHMM>
~h "ih"
<BEGINHMM>
<NUMSTATES> 5
<STATE> 2
<MEAN> 39
 -3.117455e+01 1.316067e+01 -1.153594e+01 3.320233e+00 -4.879521e+00 -1.345173e+00 9.905140e-01 -7.654591e-01 -2.690565e-01 -3.016014e+00 -2.389682e+00 3.517581e+00 1.464697e+01 1.266171e+01 -1.159400e+00 1.055986e+01 1.835811e+00 2.470210e-01 -2.939195e+00 -1.875905e+00 -1.534482e+00 3.640897e-01 2.947710e-01 -1.002172e+00 8.207603e-01 4.329895e+00 2.600142e+00 -1.603156e+00 2.105096e+00 -3.322668e-01 -1.348579e-01 -1.237842e+00 -1.032350e+00 -4.149140e-01 -3.216183e-01 3.224291e-01 -4.418210e-02 1.484008e-01 1.691442e+00
<VARIANCE> 39
 3.249138e+02 1.202468e+02 2.713922e+02 2.360763e+02 2.488394e+02 2.845623e+02 2.106673e+02 1.579240e+02 2.197694e+02 1.757645e+02 2.122780e+02 1.689339e+02 1.273182e+02 3.046190e+01 1.990508e+01 2.484900e+01 1.835046e+01 1.534712e+01 2.737908e+01 3.055542e+01 1.708220e+01 1.954655e+01 2.004050e+01 1.733289e+01 2.615255e+01 1.413223e+01 6.116005e+00 2.345879e+00 4.877529e+00 3.709754e+00 3.201725e+00 4.438160e+00 5.694602e+00 3.670289e+00 4.852538e+00 3.541077e+00 3.216817e+00 4.057436e+00 1.152757e+00
<GCONST> 1.971657e+02
<STATE> 3
<MEAN> 39
 1.831753e+01 -7.036928e+00 2.861840e+01 -4.405576e+00 -1.065917e+01 -1.926691e+01 -7.704726e+00 -7.365112e+00 5.682036e-01 1.826213e+00 -1.413694e+00 8.258384e+00 4.200232e+01 3.630945e+00 -3.769173e+00 4.131109e+00 -1.942337e+00 -1.768050e+00 -2.861294e+00 6.357974e-02 -2.766149e-01 -7.256148e-01 1.066511e+00 5.928186e-01 4.098870e-01 3.038621e+00 -2.297001e+00 5.550995e-01 -1.518836e+00 2.982045e-01 -1.044786e-01 5.665644e-01 1.030313e+00 3.121071e-01 -5.272190e-01 -5.875184e-02 1.997904e-01 -3.271903e-01 -1.459005e+00
<VARIANCE> 39
 1.172092e+02 1.646792e+02 1.519828e+02 2.393323e+02 2.218058e+02 1.842229e+02 4.171360e+02 2.183754e+02 2.036057e+02 1.821542e+02 2.624727e+02 3.078692e+02 1.846436e+02 3.902451e+01 1.620403e+01 2.936657e+01 2.016227e+01 1.323129e+01 2.488578e+01 4.024622e+01 2.256871e+01 2.601907e+01 1.692964e+01 1.646879e+01 1.997742e+01 1.815308e+01 5.251251e+00 2.217478e+00 3.315367e+00 3.079234e+00 2.034079e+00 3.636830e+00 4.088268e+00 2.675940e+00 2.594507e+00 2.879196e+00 2.991882e+00 3.922102e+00 1.593933e+00
<GCONST> 1.954593e+02
<STATE> 4
<MEAN> 39
 1.620362e+01 -1.214231e+01 3.658429e+01 3.088084e+00 -1.527926e+01 -2.615066e+01 2.312349e+00 -5.695878e+00 -1.395598e+01 3.786961e+00 -2.990887e-01 4.615182e+00 3.526865e+01 -1.060362e+00 3.338948e+00 -5.795165e-02 5.712232e+00 1.399076e+00 9.859119e-01 3.453140e+00 1.576519e-01 -3.088967e+00 -1.010907e+00 5.836213e-01 -1.500286e+00 -8.953736e+00 -1.199614e+00 1.901756e+00 -2.174919e+00 9.472029e-01 1.332125e+00 1.721123e+00 -6.743042e-01 1.777983e-01 9.474576e-01 -7.672044e-01 -4.405546e-03 -2.677648e-01 -3.727072e+00
<VARIANCE> 39
 1.246376e+02 1.480783e+02 1.968000e+02 3.526916e+02 2.367313e+02 2.801773e+02 6.373915e+02 7.879042e+02 5.354543e+02 2.948183e+02 2.046820e+02 2.036716e+02 2.733822e+02 7.542644e+00 1.976031e+01 1.767457e+01 2.194961e+01 2.028339e+01 2.806900e+01 3.543053e+01 3.960705e+01 3.175054e+01 2.441655e+01 2.342825e+01 2.247156e+01 4.850215e+01 2.148723e+00 3.163862e+00 3.966240e+00 6.250663e+00 3.537539e+00 5.315840e+00 1.005226e+01 1.068256e+01 9.173460e+00 5.204670e+00 4.130532e+00 3.636573e+00 3.666149e+00
<GCONST> 2.070649e+02
<TRANSP> 5
 0.000000e+00 1.000000e+00 0.000000e+00 0.000000e+00 0.000000e+00
 0.000000e+00 6.731784e-01 3.268216e-01 0.000000e+00 0.000000e+00
 0.000000e+00 0.000000e+00 8.125467e-01 1.874533e-01 0.000000e+00
 0.000000e+00 0.000000e+00 0.000000e+00 7.606723e-01 2.393277e-01
 0.000000e+00 0.000000e+00 0.000000e+00 0.000000e+00 0.000000e+00
<ENDHMM>
~h "iy"
<BEGINHMM>
<NUMSTATES> 5
<STATE> 2
<MEAN> 39
 4.809252e+00 -1.727321e+00 4.863255e+01 -5.334246e+00 -7.448811e+00 -1.195508e+01 3.612782e+00 -1.696819e+01 -1.046479e+01 3.436194e+00 -6.400120e+00 6.633269e+00 3.336136e+01 7.457052e-01 -1.377717e+00 4.230079e+00 -3.623282e+00 -3.535097e-01 1.380376e+00 -5.923597e-01 -1.217316e+00 2.170487e-01 8.031436e-01 -1.022985e+00 2.863571e-01 3.736628e-01 -2.413016e-01 4.301663e-01 -2.287157e+00 1.527532e+00 6.414699e-01 -3.374980e-01 -1.109269e-01 1.419804e+00 2.724499e-02 -3.665692e-01 6.366935e-01 -3.025994e-01 -8.156456e-01
<VARIANCE> 39
 8.069051e+01 1.389685e+02 1.896308e+02 2.539133e+02 1.602465e+02 1.992418e+02 3.038512e+02 3.787877e+02 2.448472e+02 2.929852e+02 1.852268e+02 2.298295e+02 1.070469e+02 1.966083e+01 3.766564e+01 1.833096e+01 2.629878e+01 1.880534e+01 3.853151e+01 2.456535e+01 2.667291e+01 2.537874e+01 2.036988e+01 1.597055e+01 1.309159e+01 5.668579e+00 2.536689e+00 1.823626e+00 2.652573e+00 3.369658e+00 3.336255e+00 3.205998e+00 3.520463e+00 3.188655e+00 3.096093e+00 2.901711e+00 2.163125e+00 2.494445e+00 4.892422e-01
<GCONST> 1.911798e+02
<STATE> 3
<MEAN> 39
 8.838491e+00 -9.272872e+00 5.159060e+01 4.396724e+00 -9.560573e+00 -1.094620e+01 -9.647846e-01 8.555555e-01 -2.103893e+01 -2.573784e+00 -1.761807e+00 -1.608066e+00 3.137167e+01 1.670988e+00 -3.430207e-01 -3.777362e+00 2.416436e+00 1.405296e+00 -1.964035e+00 -5.663131e-02 1.779940e+00 5.852113e-01 -4.570064e-01 1.035389e+00 -2.882968e-01 -1.679120e+00 7.822310e-02 5.438925e-01 -2.233939e+00 3.449138e-01 1.282943e+00 -2.610847e-01 -6.011710e-01 -1.074401e-01 1.177089e+00 -2.166314e-01 -1.420230e-01 2.880043e-01 -5.147930e-01
<VARIANCE> 39
 1.039361e+02 1.802725e+02 2.480933e+02 2.750522e+02 1.577431e+02 4.120584e+02 4.199867e+02 4.499084e+02 2.619458e+02 3.682332e+02 1.880779e+02 2.017001e+02 1.374209e+02 1.154000e+01 1.533284e+01 2.441431e+01 1.569604e+01 1.651583e+01 2.817371e+01 2.390939e+01 2.268367e+01 1.816431e+01 1.538418e+01 1.306878e+01 1.200429e+01 4.606462e+00 1.274981e+00 1.752509e+00 2.494892e+00 2.946728e+00 2.968162e+00 3.571784e+00 3.622805e+00 3.502980e+00 2.881856e+00 2.626150e+00 2.195128e+00 1.967698e+00 4.944300e-01
<GCONST> 1.890834e+02
<STATE> 4
<MEAN> 39
 3.214960e+00 8.516772e+00 3.327407e+01 -3.317313e+00 -5.452665e-01 4.846909e+00 4.257633e+00 -8.314542e+00 7.959397e-01 -1.958352e+00 -6.092514e+00 3.374114e+00 8.918946e+00 -1.716455e-01 3.708865e-02 -5.481138e+00 1.032988e+00 1.535165e+00 7.025042e-01 -1.045875e+00 8.482754e-01 1.812050e+00 -4.408434e-01 3.808833e-01 -2.494069e-01 -3.063223e+00 -1.465616e-01 -1.499438e-01 -3.476243e-01 -2.979654e-01 -1.528034e-01 8.539944e-02 -1.249623e-01 -1.625867e-01 -2.572198e-01 3.004984e-01 1.048584e-01 -1.368644e-01 1.921370e-02
<VARIANCE> 39
 2.086911e+02 3.642712e+02 4.645894e+02 4.506357e+02 2.488630e+02 8.136713e+02 4.862328e+02 4.388830e+02 3.230788e+02 3.106801e+02 2.225624e+02 2.129690e+02 5.041151e+02 1.415622e+01 1.670617e+01 2.872057e+01 2.075340e+01 2.544027e+01 3.146789e+01 2.708240e+01 2.625357e+01 2.582668e+01 2.018757e+01 1.621107e+01 1.672541e+01 7.094700e+00 1.249070e+00 2.566291e+00 2.967144e+00 4.301779e+00 2.889512e+00 5.452681e+00 3.664078e+00 4.323505e+00 3.792028e+00 3.392187e+00 2.842173e+00 2.614068e+00 9.530577e-01
<GCONST> 2.008328e+02
<TRANSP> 5
 0.000000e+00 1.000000e+00 0.000000e+00 0.000000e+00 0.000000e+00
 0.000000e+00 6.967958e-01 3.032042e-01 0.000000e+00 0.000000e+00
 0.000000e+00 0.000000e+00 6.960525e-01 3.039475e-01 0.000000e+00
 0.000000e+00 0.000000e+00 0.000000e+00 7.472337e-01 2.527663e-01
 0.000000e+00 0.000000e+00 0.000000e+00 0.000000e+00 0.000000e+00
<ENDHMM>
~h "ow"
<BEGINHMM>
<NUMSTATES> 5
<STATE> 2
<MEAN> 39
 1.294796e+00 -4.203558e+00 -1.036668e+01 -6.969537e+00 -2.401822e+00 -6.248391e+00 -4.702905e+00 -4.307768e+00 2.807940e+00 5.274191e+00 2.317789e+00 -1.303093e+00 -6.803657e+00 1.888504e+00 -1.611515e+00 -5.050150e-01 -2.505686e+00 5.054208e-01 1.125821e+00 1.197160e+00 7.806703e-02 1.135806e+00 1.843663e+00 -1.621859e-01 -8.306523e-01 4.291315e+00 4.189416e-01 -9.878588e-02 3.489707e-01 -2.082025e-01 2.721438e-01 2.899672e-01 3.105571e-02 8.183116e-02 -6.575958e-02 6.780182e-02 -6.457417e-02 1.612350e-01 1.056495e+00
<VARIANCE> 39
 5.646619e+02 2.924437e+02 2.321780e+02 3.782245e+02 3.299018e+02 4.219531e+02 4.279397e+02 4.586288e+02 4.764639e+02 4.675639e+02 4.353508e+02 3.425872e+02 1.122058e+03 4.928387e+01 2.304607e+01 2.484941e+01 3.693279e+01 3.373511e+01 3.379704e+01 3.803262e+01 4.041653e+01 4.544625e+01 4.112713e+01 4.040855e+01 3.164834e+01 1.255245e+02 6.012485e+00 3.996332e+00 3.518477e+00 5.222159e+00 5.489800e+00 5.580680e+00 6.820261e+00 7.200476e+00 7.529844e+00 7.300131e+00 7.102935e+00 5.834797e+00 1.436665e+01
<GCONST> 2.219106e+02
<STATE> 3
<MEAN> 39
 2.209599e+01 -1.927365e+01 -8.585690e+00 -2.331398e+01 6.106479e+00 -5.859403e+00 -4.078075e-01 -1.302234e+00 7.478197e+00 2.100053e+01 2.610916e+00 -5.397242e+00 3.722483e+01 6.219554e-01 1.013902e+00 4.831252e-01 -2.126038e+00 -2.697421e-01 2.645811e+00 -2.644995e-01 -1.549613e+00 -4.929971e-01 8.224158e-01 5.452734e-01 9.678562e-01 1.205416e+00 -3.433564e-01 7.352740e-01 -5.738487e-04 7.260620e-01 -1.310815e-01 -2.463013e-02 -2.621383e-01 -5.650206e-02 -3.167953e-01 -8.661852e-01 -8.708676e-02 4.754280e-01 -1.386524e+00
<VARIANCE> 39
 1.099270e+02 1.293495e+02 1.493517e+02 1.849238e+02 2.085991e+02 3.502580e+02 2.902416e+02 2.839970e+02 4.812166e+02 3.459043e+02 4.253980e+02 2.189912e+02 2.042771e+02 5.425547e+00 7.829902e+00 6.386436e+00 9.169632e+00 8.936978e+00 1.272321e+01 1.309030e+01 1.353893e+01 1.675914e+01 1.527477e+01 1.485674e+01 1.348912e+01 1.555389e+01 1.456323e+00 9.053953e-01 1.046148e+00 1.669594e+00 1.607148e+00 1.682948e+00 2.180939e+00 2.172742e+00 2.314580e+00 2.379182e+00 2.611862e+00 1.946600e+00 3.230213e+00
<GCONST> 1.819782e+02
<STATE> 4
<MEAN> 39
 2.626242e+01 1.393136e+00 -2.314068e+00 -2.532592e+01 -2.846926e+00 9.296104e+00 6.549376e-01 -3.768886e+00 -4.514507e+00 5.786234e+00 1.403641e+00 3.601266e+00 2.480170e+01 -4.193966e-01 1.634030e+00 5.191644e-01 1.230899e+00 1.281509e-01 5.978878e-01 4.833131e-01 3.417087e-02 -1.895092e-01 -1.101051e+00 -7.952968e-01 -4.750961e-02 -2.244466e+00 -3.122959e-01 -1.499211e-01 -6.013140e-02 4.503219e-01 1.567016e-01 -1.876637e-01 -4.769019e-02 8.535273e-02 2.005478e-01 2.814130e-02 1.547898e-02 -1.350657e-01 -2.097605e-01
<VARIANCE> 39
 1.045915e+02 2.772149e+02 1.933988e+02 3.353769e+02 3.982220e+02 3.291053e+02 3.260995e+02 3.241962e+02 5.461676e+02 3.310515e+02 3.381256e+02 2.493745e+02 3.989459e+02 5.411166e+00 8.607326e+00 7.198924e+00 1.486991e+01 1.111764e+01 1.246497e+01 1.355021e+01 1.494684e+01 1.722950e+01 1.545040e+01 1.553733e+01 1.343081e+01 4.942213e+00 8.277761e-01 1.202380e+00 1.082621e+00 2.075700e+00 1.664868e+00 1.986922e+00 2.048741e+00 2.375549e+00 2.597137e+00 2.239073e+00 2.309487e+00 2.077538e+00 4.876970e-01
<GCONST> 1.832944e+02
<TRANSP> 5
 0.000000e+00 1.000000e+00 0.000000e+00 0.000000e+00 0.000000e+00
 0.000000e+00 7.462819e-01 2.537181e-01 0.000000e+00 0.000000e+00
 0.000000e+00 0.000000e+00 7.496743e-01 2.503256e-01 0.000000e+00
 0.000000e+00 0.000000e+00 0.000000e+00 9.177054e-01 8.229458e-02
 0.000000e+00 0.000000e+00 0.000000e+00 0.000000e+00 0.000000e+00
<ENDHMM>
~h "sp"
<BEGINHMM>
<NUMSTATES> 3
<STATE> 2
~s "silst"
<TRANSP> 3
 0.000000e+00 3.109481e-02 9.689052e-01
 0.000000e+00 9.136798e-01 8.632012e-02
 0.000000e+00 0.000000e+00 0.000000e+00
<ENDHMM>
~h "th"
<BEGINHMM>
<NUMSTATES> 5
<STATE> 2
<MEAN> 39
 -2.122948e+01 6.585336e+00 -1.224086e+01 9.162446e+00 -2.126779e+00 6.271600e+00 1.953089e-01 -7.038102e-01 7.595119e-01 -2.256555e+00 5.057379e-01 -2.932065e-01 -2.026509e+01 -2.211844e+00 -9.537564e-01 -1.706763e+00 -1.155052e+00 -1.342736e+00 -2.511135e-01 -8.161075e-01 -2.254382e-02 1.061278e-01 -5.553695e-01 -2.397535e-02 2.978939e-01 1.674344e+00 9.229606e-01 -2.070318e-01 8.201995e-01 -3.857361e-01 -1.182020e-01 -3.501486e-01 1.393155e-01 -1.748921e-01 -3.904114e-02 1.704303e-01 -1.190738e-01 1.240692e-01 1.766559e+00
<VARIANCE> 39
 2.613061e+02 1.696464e+02 1.899924e+02 1.898921e+02 1.948245e+02 2.006714e+02 2.529555e+02 2.049681e+02 2.306273e+02 1.800637e+02 1.644740e+02 1.578450e+02 5.444550e+02 2.541690e+01 1.819111e+01 1.974162e+01 2.397569e+01 1.927676e+01 2.246395e+01 2.257237e+01 2.232335e+01 2.427394e+01 1.900338e+01 1.823215e+01 1.764338e+01 8.980379e+01 3.622341e+00 3.603118e+00 3.947435e+00 3.951687e+00 3.642297e+00 4.238575e+00 4.285643e+00 4.123215e+00 4.477138e+00 3.858362e+00 3.673213e+00 3.606703e+00 9.896130e+00
<GCONST> 2.010428e+02
<STATE> 3
<MEAN> 39
 -2.045447e+01 -1.909235e+00 -4.867582e+00 -9.437800e-01 -1.095048e+01 3.768447e-01 8.493515e-01 -2.856443e+00 3.111672e+00 -1.348847e+00 -9.693502e-01 2.774657e+00 1.424591e+01 5.704142e+00 -1.929058e+00 5.797267e+00 2.704729e+00 1.735215e+00 -2.111896e+00 4.831828e-01 4.705499e-01 3.137352e-01 1.496629e+00 4.491038e-01 -3.157685e-01 4.254554e+00 2.379778e+00 -1.750370e-01 -2.646424e-01 1.737116e+00 2.068354e+00 -2.135219e-01 -9.540527e-01 1.561123e-01 -3.630215e-01 8.689769e-03 3.403407e-01 -3.713726e-01 -2.353674e+00
<VARIANCE> 39
 1.855522e+02 1.738141e+02 3.079024e+02 1.951473e+02 1.881082e+02 2.293421e+02 2.563741e+02 2.380134e+02 2.299973e+02 2.162299e+02 1.926201e+02 1.824122e+02 1.630170e+02 3.337978e+01 1.908634e+01 2.572737e+01 3.421136e+01 2.630442e+01 2.885161e+01 2.734594e+01 2.502593e+01 2.321548e+01 2.074816e+01 2.161044e+01 2.387794e+01 5.091769e+01 4.150270e+00 4.472897e+00 9.752494e+00 5.281770e+00 4.989357e+00 6.346929e+00 7.387556e+00 5.540389e+00 4.976675e+00 5.484650e+00 4.941057e+00 5.104455e+00 6.190459e+00
<GCONST> 2.062671e+02
<STATE> 4
<MEAN> 39
 2.288882e+01 -7.972658e+00 -1.210636e+00 1.664591e+01 1.574596e+01 -3.944337e+00 -1.368531e+01 -5.568556e+00 -8.037746e-01 -3.846196e-01 1.872838e+00 -2.522216e-01 1.569180e+01 1.028221e+01 -1.661313e+00 -3.772219e+00 9.745981e-01 7.333813e+00 -1.417651e+00 -6.579397e+00 -8.675415e-01 -1.314594e+00 -1.341566e+00 -7.449473e-02 -7.334498e-02 1.545653e+00 -1.867041e+00 -1.382029e-01 -6.888069e-01 -1.222659e+00 -8.630117e-01 -4.289849e-01 3.625816e-02 5.510988e-01 -6.909738e-02 -3.646080e-01 -2.760025e-01 2.186416e-01 2.401460e-01
<VARIANCE> 39
 3.902863e+02 1.353024e+02 3.314745e+02 2.303180e+02 3.129950e+02 4.001135e+02 3.518519e+02 3.112279e+02 2.059473e+02 1.938327e+02 1.823579e+02 1.534453e+02 2.026874e+02 3.070666e+01 2.195994e+01 3.131128e+01 2.986333e+01 3.229454e+01 5.969606e+01 4.125584e+01 3.302393e+01 2.655167e+01 2.900275e+01 2.584546e+01 2.112895e+01 1.211941e+01 6.961014e+00 3.723476e+00 1.139086e+01 6.118101e+00 7.003572e+00 8.506571e+00 8.664137e+00 6.912755e+00 5.180455e+00 4.577888e+00 4.597190e+00 4.124692e+00 3.203863e+00
<GCONST> 2.098133e+02
<TRANSP> 5
 0.000000e+00 1.000000e+00 0.000000e+00 0.000000e+00 0.000000e+00
 0.000000e+00 8.436137e-01 1.563863e-01 0.000000e+00 0.000000e+00
 0.000000e+00 0.000000e+00 7.436623e-01 2.563377e-01 0.000000e+00
 0.000000e+00 0.000000e+00 0.000000e+00 7.395627e-01 2.604373e-01
 0.000000e+00 0.000000e+00 0.000000e+00 0.000000e+00 0.000000e+00
<ENDHMM>
~h "uw"
<BEGINHMM>
<NUMSTATES> 5
<STATE> 2
<MEAN> 39
 -2.259801e+00 1.668437e+00 2.750633e+01 1.029661e+01 -5.324126e+00 -7.778283e+00 5.589755e+00 1.731297e+00 -5.067869e+00 -3.217372e+00 -4.215084e+00 3.885103e+00 2.213122e+01 1.129689e+01 -1.935550e+00 7.729675e+00 2.529536e+00 1.535795e+00 -1.047569e+00 -3.854342e+00 -2.864031e-01 -1.711056e+00 3.094532e-01 -9.234638e-01 -9.568743e-01 4.560202e+00 -1.564764e+00 -5.801612e-01 -1.180210e+00 -1.636208e+00 -1.738147e-01 -5.144721e-01 -1.068017e+00 -4.341940e-01 -8.342486e-01 1.033143e-01 3.681575e-01 -7.656374e-02 1.129556e+00
<VARIANCE> 39
 3.359228e+02 1.463411e+02 2.350128e+02 1.970819e+02 1.445695e+02 2.249341e+02 3.019613e+02 3.009955e+02 2.245060e+02 1.785441e+02 1.892937e+02 1.720727e+02 2.170999e+02 1.589318e+01 1.435496e+01 2.253468e+01 2.661115e+01 2.078211e+01 4.077705e+01 3.805948e+01 2.554938e+01 3.230154e+01 2.931529e+01 2.728773e+01 3.106266e+01 1.045615e+01 6.337848e+00 1.760701e+00 3.845216e+00 2.264019e+00 2.578970e+00 4.529023e+00 4.448515e+00 3.101061e+00 3.894539e+00 3.846702e+00 3.025970e+00 3.120542e+00 2.884098e+00
<GCONST> 1.984614e+02
<STATE> 3
<MEAN> 39
 1.316620e+01 -8.933042e+00 3.987526e+01 7.161469e+00 -4.266708e+00 -1.699607e+01 -5.824240e+00 -9.431252e-01 -1.412754e+01 -2.180685e+00 -4.615017e+00 2.337306e+00 3.608806e+01 7.998958e-01 -4.168742e-01 -2.694908e-01 3.826221e-01 1.326395e+00 -2.865035e-01 -9.428558e-01 4.614776e-02 -2.879387e-01 1.663935e-01 -4.751916e-01 -4.289306e-01 -4.199940e-01 -5.256491e-01 5.657560e-01 -8.818108e-01 4.540559e-02 2.592895e-01 4.618599e-01 3.388902e-01 -1.345377e-01 4.620087e-01 5.511490e-02 -1.859536e-02 -2.725080e-02 -8.018667e-01
<VARIANCE> 39
 8.266255e+01 1.121368e+02 1.427084e+02 2.776068e+02 1.445832e+02 2.493880e+02 5.703443e+02 4.228837e+02 2.299429e+02 2.903953e+02 1.963031e+02 3.559458e+02 1.674353e+02 2.841367e+00 4.722762e+00 6.620435e+00 5.730492e+00 6.841628e+00 9.203874e+00 1.120440e+01 8.564960e+00 1.045600e+01 1.058925e+01 8.748324e+00 1.030571e+01 5.065731e+00 1.665466e+00 7.688286e-01 1.494990e+00 1.203098e+00 1.131277e+00 1.737590e+00 2.285377e+00 1.722182e+00 1.878021e+00 1.941604e+00 1.542307e+00 1.645402e+00 8.248864e-01
<GCONST> 1.723521e+02
<STATE> 4
<MEAN> 39
 2.174113e+01 4.098359e+00 1.274955e+01 7.516745e+00 1.229164e+01 4.569717e+00 -4.416750e+00 -6.754529e+00 -9.312433e+00 2.635962e+00 -4.972283e+00 -2.455384e+00 1.145517e+01 -7.230135e-01 1.170869e+00 -2.877211e+00 -3.138280e-01 2.491005e-01 2.203397e+00 1.442299e+00 -5.552396e-01 9.162775e-01 2.855745e-02 4.714591e-01 3.886546e-02 -2.950386e+00 -5.385141e-01 -8.563886e-02 -1.236511e-02 1.423798e-02 -4.932052e-01 -2.334645e-01 1.729076e-01 2.027401e-01 5.127302e-02 -1.844244e-01 1.103593e-01 1.144938e-01 -6.129651e-02
<VARIANCE> 39
 1.400226e+02 1.838839e+02 3.698951e+02 2.812341e+02 2.462500e+02 5.801488e+02 5.310195e+02 3.973549e+02 5.056888e+02 3.473352e+02 3.426252e+02 4.013485e+02 4.238299e+02 1.044630e+01 1.366312e+01 1.151421e+01 1.702626e+01 1.754360e+01 2.649317e+01 2.839347e+01 2.709035e+01 2.754524e+01 2.188149e+01 2.115361e+01 1.946461e+01 5.167425e+00 1.376558e+00 2.160316e+00 1.807864e+00 2.542542e+00 2.671809e+00 4.032820e+00 4.207316e+00 4.156405e+00 4.382315e+00 3.610269e+00 3.747766e+00 3.336026e+00 7.818500e-01
<GCONST> 1.974575e+02
<TRANSP> 5
 0.000000e+00 1.000000e+00 0.000000e+00 0.000000e+00 0.000000e+00
 0.000000e+00 6.813668e-01 3.186332e-01 0.000000e+00 0.000000e+00
 0.000000e+00 0.000000e+00 8.746134e-01 1.253866e-01 0.000000e+00
 0.000000e+00 0.000000e+00 0.000000e+00 8.900650e-01 1.099349e-01
 0.000000e+00 0.000000e+00 0.000000e+00 0.000000e+00 0.000000e+00
<ENDHMM>
~h "sil"
<BEGINHMM>
<NUMSTATES> 5
<STATE> 2
<MEAN> 39
 -6.905958e+00 1.862338e+00 -9.043269e+00 8.452704e+00 2.086696e+00 4.809374e+00 6.010276e+00 4.301169e+00 3.315688e+00 -4.533298e+00 -1.320978e+00 -3.110818e+00 -3.180869e+01 -5.629399e-01 7.950204e-01 -1.365683e-01 8.511309e-03 -1.619406e-02 3.512588e-02 -3.649247e-01 -2.536529e-01 5.805648e-02 3.037550e-02 2.930229e-01 2.943389e-02 -1.199858e+00 -1.157497e-02 6.017336e-02 1.062206e-01 -2.170105e-02 -8.691710e-03 -1.906876e-02 -4.193530e-02 -1.008457e-01 -2.593459e-02 7.895409e-02 7.735608e-02 8.081663e-02 6.562424e-02
<VARIANCE> 39
 1.065718e+02 1.529413e+02 1.515407e+02 1.569780e+02 1.621550e+02 2.054734e+02 2.178371e+02 2.081416e+02 2.324919e+02 1.968631e+02 1.643379e+02 1.546997e+02 1.746275e+02 2.513080e+00 4.430374e+00 5.535780e+00 7.034156e+00 8.514585e+00 1.055529e+01 1.203289e+01 1.307210e+01 1.289357e+01 1.283855e+01 1.213457e+01 1.106596e+01 1.826467e+00 3.680286e-01 6.834225e-01 9.661471e-01 1.260212e+00 1.537044e+00 1.877138e+00 2.167813e+00 2.351356e+00 2.383771e+00 2.360337e+00 2.233591e+00 2.054218e+00 1.854135e-01
<GCONST> 1.679371e+02
<STATE> 3
~s "silst"
<STATE> 4
<MEAN> 39
 -1.689340e+01 3.611464e+00 -9.763658e+00 4.745684e+00 -1.387834e+00 1.350707e+00 -5.183949e-01 -2.030452e+00 1.004490e+00 -3.115669e+00 1.276864e+00 -1.728491e+00 -3.589728e+01 8.532726e-02 -1.330181e-01 2.131033e-01 1.431137e-01 6.332485e-02 1.176300e-01 1.798473e-01 7.219207e-02 -1.669362e-02 2.044136e-01 -1.249687e-01 -7.022876e-03 5.768277e-01 8.880644e-02 9.651313e-04 8.053540e-02 -3.780793e-03 1.739983e-02 2.968610e-02 4.116894e-02 4.435570e-02 5.033018e-03 -8.451059e-03 -3.949860e-02 2.054066e-02 4.188390e-01
<VARIANCE> 39
 1.469515e+02 1.469523e+02 1.469019e+02 1.503465e+02 1.648903e+02 1.849859e+02 2.183036e+02 1.861465e+02 1.926420e+02 1.592050e+02 1.471637e+02 1.353023e+02 3.023802e+02 1.083249e+01 1.312042e+01 1.158536e+01 1.197882e+01 1.389754e+01 1.565559e+01 1.673687e+01 1.627547e+01 1.540649e+01 1.441306e+01 1.380586e+01 1.178087e+01 1.806323e+01 2.148349e+00 2.516587e+00 2.267645e+00 2.351325e+00 2.680831e+00 2.935084e+00 3.157361e+00 3.063138e+00 2.929721e+00 2.722139e+00 2.594876e+00 2.238521e+00 3.646545e+00
<GCONST> 1.856305e+02
<TRANSP> 5
 0.000000e+00 1.000000e+00 0.000000e+00 0.000000e+00 0.000000e+00
 0.000000e+00 8.348451e-01 1.095284e-01 5.562651e-02 0.000000e+00
 0.000000e+00 0.000000e+00 9.024935e-01 9.750653e-02 0.000000e+00
 0.000000e+00 6.224918e-02 0.000000e+00 7.910298e-01 1.467210e-01
 0.000000e+00 0.000000e+00 0.000000e+00 0.000000e+00 0.000000e+00
<ENDHMM>
