~o
<STREAMINFO> 1 13
<VECSIZE> 13<NULLD><MFCC_0><DIAGC>
~v "varFloor1"
<VARIANCE> 13
 6.754232e+00 3.412257e+00 5.608447e+00 4.796207e+00 3.472295e+00 4.011117e+00 4.413517e+00 3.617792e+00 3.683716e+00 3.040219e+00 2.640150e+00 2.509556e+00 1.298279e+01
~s "silst"
<MEAN> 13
 -2.485688e+01 4.597931e+00 -9.739791e-01 2.726432e+00 -3.316903e+00 -2.999802e+00 -4.433269e+00 -1.349836e+00 -1.765378e+00 1.373451e+00 8.776996e-01 2.482206e+00 4.874078e+01
<VARIANCE> 13
 3.412601e+01 3.225693e+01 4.077733e+01 5.374455e+01 7.184816e+01 9.263828e+01 1.100925e+02 1.104098e+02 1.026035e+02 9.606821e+01 9.227586e+01 8.256425e+01 1.919014e+01
<GCONST> 7.788602e+01
~h "f"
<BEGINHMM>
<NUMSTATES> 5
<STATE> 2
<MEAN> 13
 -3.237114e+01 -1.402983e+01 1.104567e+00 4.902016e+00 -1.601468e+00 -1.194030e-01 -6.271666e+00 1.531171e+00 -4.326183e+00 3.949396e+00 -3.457940e+00 2.665114e+00 8.783544e+01
<VARIANCE> 13
 1.222493e+02 9.734252e+01 8.397182e+01 8.623258e+01 1.026640e+02 1.194680e+02 1.292481e+02 1.323004e+02 1.314398e+02 1.234619e+02 1.139283e+02 1.034382e+02 2.432098e+02
<GCONST> 8.588851e+01
<STATE> 3
<MEAN> 13
 -2.904762e+01 -1.814042e+01 -4.849829e+00 -1.259272e+00 -3.424605e+00 -8.769364e-01 -7.910082e+00 -1.683801e+00 -6.521344e+00 3.908705e+00 -4.141445e+00 2.793628e+00 1.056223e+02
<VARIANCE> 13
 1.672998e+02 7.108403e+01 6.230391e+01 6.980630e+01 9.102383e+01 9.752541e+01 1.059389e+02 1.082357e+02 1.161577e+02 1.095085e+02 1.029435e+02 9.483363e+01 1.215661e+02
<GCONST> 8.352992e+01
<STATE> 4
<MEAN> 13
 1.973099e+01 -9.733488e+00 -2.103952e+00 -2.592718e+01 -1.971267e+00 1.010923e+01 1.664070e+00 1.950605e+00 -7.985780e+00 1.645025e+01 2.213187e+00 5.710927e-01 1.264134e+02
<VARIANCE> 13
 1.942816e+02 2.217841e+02 1.410837e+02 5.290863e+02 2.273811e+02 2.067546e+02 1.386462e+02 1.743050e+02 3.427524e+02 3.071297e+02 3.125363e+02 1.676031e+02 3.998621e+02
<GCONST> 9.505653e+01
<TRANSP> 5
 0.000000e+00 1.000000e+00 0.000000e+00 0.000000e+00 0.000000e+00
 0.000000e+00 8.316090e-01 1.683910e-01 0.000000e+00 0.000000e+00
 0.000000e+00 0.000000e+00 7.459183e-01 2.540817e-01 0.000000e+00
 0.000000e+00 0.000000e+00 0.000000e+00 5.069105e-01 4.930895e-01
 0.000000e+00 0.000000e+00 0.000000e+00 0.000000e+00 0.000000e+00
<ENDHMM>
~h "k"
<BEGINHMM>
<NUMSTATES> 5
<STATE> 2
<MEAN> 13
 -6.466009e+00 9.695230e+00 2.826708e+01 2.724458e+01 -1.267011e+00 -1.524313e+01 7.345297e-01 -7.852070e-01 -1.995102e+01 -3.664653e+00 -6.500422e-01 1.568955e+00 7.419654e+01
<VARIANCE> 13
 1.321477e+02 2.432012e+02 2.586360e+02 2.038422e+02 2.999424e+02 3.959578e+02 3.872671e+02 5.133954e+02 3.194297e+02 2.709814e+02 2.069668e+02 1.566052e+02 3.599073e+02
<GCONST> 9.666875e+01
<STATE> 3
<MEAN> 13
 -1.906044e+01 -4.550971e+00 -3.919778e+00 8.697120e+00 -7.460036e-01 -7.296228e+00 -1.010189e+01 -2.131622e+00 -4.658525e+00 1.131728e+00 -7.047601e-01 3.383307e+00 6.857653e+01
<VARIANCE> 13
 1.315866e+02 3.105577e+02 2.252284e+02 1.288820e+02 1.401672e+02 1.601217e+02 1.759987e+02 1.521082e+02 1.306845e+02 1.218199e+02 1.082838e+02 8.574297e+01 7.070402e+02
<GCONST> 9.037282e+01
<STATE> 4
<MEAN> 13
 -4.765948e+01 -5.867172e+00 -8.416324e+00 5.255441e+00 9.089957e-01 -2.379623e+01 -1.085430e+01 7.311028e+00 1.567108e-01 1.783204e+00 -8.824673e+00 6.453332e+00 1.109331e+02
<VARIANCE> 13
 3.259794e+02 1.364203e+02 1.666864e+02 2.376016e+02 4.116165e+02 2.819232e+02 2.335830e+02 1.933006e+02 1.826506e+02 1.724267e+02 1.721677e+02 1.474059e+02 1.868070e+02
<GCONST> 9.329048e+01
<TRANSP> 5
 0.000000e+00 1.000000e+00 0.000000e+00 0.000000e+00 0.000000e+00
 0.000000e+00 6.235487e-01 3.764513e-01 0.000000e+00 0.000000e+00
 0.000000e+00 0.000000e+00 7.866706e-01 2.133294e-01 0.000000e+00
 0.000000e+00 0.000000e+00 0.000000e+00 7.902110e-01 2.097889e-01
 0.000000e+00 0.000000e+00 0.000000e+00 0.000000e+00 0.000000e+00
<ENDHMM>
~h "n"
<BEGINHMM>
<NUMSTATES> 5
<STATE> 2
<MEAN> 13
 1.812333e+01 8.274789e-01 3.652044e+01 9.475488e+00 -6.792165e+00 5.648269e+00 1.626244e+01 -8.572773e+00 -5.953385e+00 1.072431e+01 -7.597473e+00 8.960641e+00 1.116624e+02
<VARIANCE> 13
 8.663738e+01 2.045072e+02 1.891525e+02 5.476167e+02 2.813512e+02 4.182681e+02 4.663534e+02 5.379160e+02 5.740369e+02 4.694651e+02 4.803797e+02 4.386833e+02 2.158070e+02
<GCONST> 9.946826e+01
<STATE> 3
<MEAN> 13
 1.767270e+01 1.093465e+01 3.265436e+01 2.143269e+01 -2.801427e+00 9.651884e+00 2.209913e+01 -8.406596e+00 -2.034314e+00 6.094355e+00 -7.895795e+00 1.196107e+01 9.797153e+01
<VARIANCE> 13
 8.608549e+01 1.931919e+02 1.430678e+02 2.397380e+02 2.882027e+02 3.896485e+02 4.055697e+02 4.378348e+02 4.708397e+02 4.580478e+02 4.575330e+02 4.238802e+02 1.823110e+02
<GCONST> 9.743284e+01
<STATE> 4
<MEAN> 13
 6.197566e-02 9.542207e-01 2.015990e+01 1.742746e+01 5.117934e+00 2.634987e+00 1.224911e+01 9.540114e+00 1.394526e+00 4.137751e+00 -8.094988e+00 3.771330e+00 8.811086e+01
<VARIANCE> 13
 1.803778e+02 1.967976e+02 2.279382e+02 3.255208e+02 2.448241e+02 3.197842e+02 3.727497e+02 3.713329e+02 3.384564e+02 3.556465e+02 2.748097e+02 2.667501e+02 4.633211e+02
<GCONST> 9.772947e+01
<TRANSP> 5
 0.000000e+00 1.000000e+00 0.000000e+00 0.000000e+00 0.000000e+00
 0.000000e+00 5.923296e-01 4.076704e-01 0.000000e+00 0.000000e+00
 0.000000e+00 0.000000e+00 6.583087e-01 3.416913e-01 0.000000e+00
 0.000000e+00 0.000000e+00 0.000000e+00 6.365299e-01 3.634701e-01
 0.000000e+00 0.000000e+00 0.000000e+00 0.000000e+00 0.000000e+00
<ENDHMM>
~h "r"
<BEGINHMM>
<NUMSTATES> 5
<STATE> 2
<MEAN> 13
 3.656254e+01 -1.744300e+01 -3.311503e+00 5.055263e+00 2.607913e+01 -1.852941e+01 -3.401847e+01 9.189400e-01 -8.859477e+00 2.789503e+00 1.323197e+00 6.821683e+00 1.260022e+02
<VARIANCE> 13
 7.020792e+01 1.622886e+02 5.084170e+02 3.085581e+02 4.075641e+02 8.353433e+02 9.462829e+02 4.130011e+02 2.957680e+02 3.785331e+02 2.757985e+02 2.156080e+02 1.508121e+02
<GCONST> 9.844553e+01
<STATE> 3
<MEAN> 13
 3.038500e+01 -2.734742e+01 6.778969e+00 4.932379e+00 1.451712e+01 -4.038003e+01 -1.463823e+01 1.496719e+01 -6.500162e+00 9.276476e+00 2.537330e+00 7.465200e+00 1.315788e+02
<VARIANCE> 13
 5.381543e+01 1.537086e+02 4.384359e+02 2.755770e+02 3.427257e+02 7.767854e+02 1.181401e+03 3.498313e+02 3.632942e+02 4.047556e+02 2.396543e+02 2.066362e+02 1.844032e+02
<GCONST> 9.796487e+01
<STATE> 4
<MEAN> 13
 1.704458e+01 -2.076401e+01 1.151711e+01 1.038533e+01 6.551389e+00 -2.238620e+01 -5.097908e+00 1.579840e+01 -5.387575e+00 5.208714e+00 1.481109e+00 4.320822e+00 1.170284e+02
<VARIANCE> 13
 1.722587e+02 2.362140e+02 7.675878e+02 4.031604e+02 4.389097e+02 6.935533e+02 8.451630e+02 4.627781e+02 5.792170e+02 4.786891e+02 2.953819e+02 2.971660e+02 6.228556e+02
<GCONST> 1.030012e+02
<TRANSP> 5
 0.000000e+00 1.000000e+00 0.000000e+00 0.000000e+00 0.000000e+00
 0.000000e+00 7.682644e-01 2.317356e-01 0.000000e+00 0.000000e+00
 0.000000e+00 0.000000e+00 6.463999e-01 3.536002e-01 0.000000e+00
 0.000000e+00 0.000000e+00 0.000000e+00 5.157550e-01 4.842450e-01
 0.000000e+00 0.000000e+00 0.000000e+00 0.000000e+00 0.000000e+00
<ENDHMM>
~h "s"
<BEGINHMM>
<NUMSTATES> 5
<STATE> 2
<MEAN> 13
 -3.418119e+01 2.868715e+00 1.684941e+00 6.173353e+00 -7.076285e-01 -7.144846e+00 -1.016923e+00 5.558376e+00 -3.369078e+00 2.137702e+00 -3.363701e+00 4.637274e+00 9.841704e+01
<VARIANCE> 13
 3.358192e+02 2.454250e+02 2.807619e+02 2.668502e+02 3.764027e+02 3.099270e+02 3.119314e+02 2.521489e+02 2.213962e+02 2.152306e+02 2.048185e+02 1.801993e+02 4.428362e+02
<GCONST> 9.675701e+01
<STATE> 3
<MEAN> 13
 -4.834315e+01 5.284338e+00 -1.592637e+01 8.444614e+00 -1.287805e+01 -4.929947e-01 -4.214305e+00 3.546189e+00 -7.960852e+00 3.117442e+00 -9.919190e-01 6.424432e+00 1.002610e+02
<VARIANCE> 13
 8.685343e+01 1.366419e+02 1.576667e+02 1.837506e+02 2.464458e+02 2.187947e+02 1.532103e+02 1.408876e+02 1.399630e+02 1.259143e+02 1.261076e+02 1.130443e+02 1.555440e+02
<GCONST> 8.881192e+01
<STATE> 4
<MEAN> 13
 -5.049497e+01 4.724174e+00 -8.775801e+00 -2.821676e+00 -2.472221e+00 -7.472077e+00 -5.060837e+00 3.926733e+00 -6.330502e+00 3.645269e+00 -4.250563e+00 4.758014e+00 1.056784e+02
<VARIANCE> 13
 2.054840e+02 1.542425e+02 2.012817e+02 2.818560e+02 3.549434e+02 2.750901e+02 2.004835e+02 1.772637e+02 1.684001e+02 1.655189e+02 1.666875e+02 1.488462e+02 1.702822e+02
<GCONST> 9.266174e+01
<TRANSP> 5
 0.000000e+00 1.000000e+00 0.000000e+00 0.000000e+00 0.000000e+00
 0.000000e+00 4.529848e-01 5.470151e-01 0.000000e+00 0.000000e+00
 0.000000e+00 0.000000e+00 7.370734e-01 2.629265e-01 0.000000e+00
 0.000000e+00 0.000000e+00 0.000000e+00 6.102214e-01 3.897787e-01
 0.000000e+00 0.000000e+00 0.000000e+00 0.000000e+00 0.000000e+00
<ENDHMM>
~h "t"
<BEGINHMM>
<NUMSTATES> 5
<STATE> 2
<MEAN> 13
 -1.694560e+01 8.419693e+00 1.753433e+01 9.117031e+00 2.093238e+00 7.561492e-01 -1.551531e+00 -2.338822e+00 -5.400913e+00 3.931923e-01 -2.729660e+00 1.064034e+00 7.072439e+01
<VARIANCE> 13
 2.015664e+02 2.703566e+02 4.011239e+02 3.383699e+02 1.853959e+02 1.908193e+02 2.147096e+02 2.375974e+02 2.046570e+02 1.724297e+02 1.615233e+02 1.323134e+02 6.387480e+02
<GCONST> 9.483102e+01
<STATE> 3
<MEAN> 13
 -3.857242e+01 3.419822e+00 1.074926e+01 -8.706015e+00 -8.210210e+00 -9.846764e+00 3.920379e+00 -4.841088e+00 -1.232445e+01 2.904983e+00 2.499124e-02 6.199353e+00 1.146059e+02
<VARIANCE> 13
 2.678386e+02 1.698963e+02 2.474276e+02 2.166346e+02 1.991138e+02 2.008877e+02 2.410864e+02 2.387002e+02 1.886201e+02 1.774059e+02 1.757345e+02 1.526208e+02 4.526481e+02
<GCONST> 9.379451e+01
<STATE> 4
<MEAN> 13
 -1.600893e+01 -1.226995e+00 2.911997e+01 2.758095e+00 -1.042128e+01 -1.591059e+01 6.851581e+00 -5.298029e-01 -6.688072e+00 -6.608558e-01 -3.150372e+00 1.115934e+01 1.071487e+02
<VARIANCE> 13
 3.073801e+02 1.716222e+02 3.185808e+02 2.193474e+02 2.043540e+02 2.806091e+02 3.136006e+02 4.209632e+02 2.296015e+02 1.939715e+02 2.663268e+02 2.044955e+02 5.652368e+02
<GCONST> 9.661437e+01
<TRANSP> 5
 0.000000e+00 1.000000e+00 0.000000e+00 0.000000e+00 0.000000e+00
 0.000000e+00 6.724098e-01 3.275902e-01 0.000000e+00 0.000000e+00
 0.000000e+00 0.000000e+00 7.001886e-01 2.998115e-01 0.000000e+00
 0.000000e+00 0.000000e+00 0.000000e+00 6.423177e-01 3.576823e-01
 0.000000e+00 0.000000e+00 0.000000e+00 0.000000e+00 0.000000e+00
<ENDHMM>
~h "v"
<BEGINHMM>
<NUMSTATES> 5
<STATE> 2
<MEAN> 13
 1.193214e+01 -2.835166e+01 1.507663e+01 -1.904527e+01 -1.014450e+01 -2.130242e+01 7.348593e-01 1.256626e+01 1.543515e+01 1.304064e+01 -3.504906e+00 5.677299e+00 1.484886e+02
<VARIANCE> 13
 6.637014e+01 1.280622e+02 3.031311e+02 2.269360e+02 2.462213e+02 2.379403e+02 8.876712e+02 2.776349e+02 2.831181e+02 4.520896e+02 3.208806e+02 3.935341e+02 1.612217e+02
<GCONST> 9.606092e+01
<STATE> 3
<MEAN> 13
 1.876114e+01 -1.808703e+01 1.776939e+01 -3.356230e+00 -3.144997e+00 -1.886701e+01 -1.230323e+01 1.614965e+00 2.750579e+00 1.872346e+01 -5.189819e-01 -6.366617e-01 1.295845e+02
<VARIANCE> 13
 6.223281e+01 1.318348e+02 2.516434e+02 2.478135e+02 3.263290e+02 3.056747e+02 5.205744e+02 3.220784e+02 4.510709e+02 3.749665e+02 3.463917e+02 3.217072e+02 1.843313e+02
<GCONST> 9.636209e+01
<STATE> 4
<MEAN> 13
 -1.525381e+00 -4.943099e+00 1.451205e+01 1.089955e+01 5.402838e+00 -1.313176e+00 -6.044420e-01 4.389769e+00 1.892055e+00 7.951176e+00 -3.570327e+00 4.182460e+00 1.013690e+02
<VARIANCE> 13
 4.008141e+02 1.831578e+02 2.067596e+02 2.323152e+02 2.475970e+02 2.710099e+02 2.645699e+02 2.645020e+02 2.525358e+02 2.422978e+02 2.153183e+02 2.091152e+02 2.859244e+02
<GCONST> 9.553827e+01
<TRANSP> 5
 0.000000e+00 1.000000e+00 0.000000e+00 0.000000e+00 0.000000e+00
 0.000000e+00 7.611679e-01 2.388321e-01 0.000000e+00 0.000000e+00
 0.000000e+00 0.000000e+00 5.214400e-01 4.785600e-01 0.000000e+00
 0.000000e+00 0.000000e+00 0.000000e+00 7.783640e-01 2.216360e-01
 0.000000e+00 0.000000e+00 0.000000e+00 0.000000e+00 0.000000e+00
<ENDHMM>
~h "w"
<BEGINHMM>
<NUMSTATES> 5
<STATE> 2
<MEAN> 13
 3.306982e+01 8.580882e+00 1.953548e+01 -3.758896e+01 -2.188528e+01 1.301126e+00 -4.363669e+00 1.823524e+01 -8.952519e+00 1.190412e+01 1.976598e+00 -2.299904e+00 1.219380e+02
<VARIANCE> 13
 4.133356e+01 1.697472e+02 3.244365e+02 2.916680e+02 4.565978e+02 3.173676e+02 6.699455e+02 3.535373e+02 4.418127e+02 4.301082e+02 3.352720e+02 3.155662e+02 7.643616e+01
<GCONST> 9.652583e+01
<STATE> 3
<MEAN> 13
 2.946025e+01 -6.289757e+00 2.282496e+00 -4.702896e+01 -9.193702e-01 1.594689e+01 1.563664e+00 2.223997e+01 -1.071591e+01 2.706206e+00 1.108339e+01 4.165231e+00 1.324338e+02
<VARIANCE> 13
 4.225147e+01 1.490169e+02 2.714698e+02 2.960466e+02 6.969453e+02 3.046256e+02 5.656777e+02 4.350985e+02 4.068663e+02 4.318588e+02 3.296510e+02 3.118112e+02 9.454841e+01
<GCONST> 9.677998e+01
<STATE> 4
<MEAN> 13
 2.020059e+01 -2.501910e+01 3.912203e-01 -3.165815e+01 2.027361e+01 1.262515e+01 -1.087805e+01 1.620546e+01 1.698934e+00 9.516707e+00 1.109643e+01 -2.041307e+00 1.427013e+02
<VARIANCE> 13
 6.259648e+01 1.470624e+02 2.077062e+02 3.558192e+02 5.240582e+02 4.248130e+02 5.082839e+02 4.562228e+02 4.579026e+02 3.614791e+02 3.856152e+02 3.289284e+02 1.289143e+02
<GCONST> 9.752448e+01
<TRANSP> 5
 0.000000e+00 1.000000e+00 0.000000e+00 0.000000e+00 0.000000e+00
 0.000000e+00 6.595007e-01 3.404993e-01 0.000000e+00 0.000000e+00
 0.000000e+00 0.000000e+00 7.294103e-01 2.705897e-01 0.000000e+00
 0.000000e+00 0.000000e+00 0.000000e+00 8.158930e-01 1.841070e-01
 0.000000e+00 0.000000e+00 0.000000e+00 0.000000e+00 0.000000e+00
<ENDHMM>
~h "z"
<BEGINHMM>
<NUMSTATES> 5
<STATE> 2
<MEAN> 13
 -1.067408e+01 1.712650e+01 1.834646e+01 2.099109e+01 6.741068e+00 -2.348470e+00 4.158675e-01 4.703552e+00 -3.410651e-01 2.250632e+00 -6.855436e+00 7.236701e+00 9.156095e+01
<VARIANCE> 13
 3.888481e+02 2.363754e+02 3.549820e+02 3.243932e+02 3.321354e+02 2.893771e+02 2.836902e+02 2.606865e+02 2.414800e+02 2.713842e+02 2.695051e+02 3.294327e+02 4.757321e+02
<GCONST> 9.830865e+01
<STATE> 3
<MEAN> 13
 -3.166900e+01 3.047184e+01 6.214679e+00 2.866882e+01 3.791203e+00 8.716986e+00 5.872037e+00 8.341385e+00 -1.987145e+00 5.095077e+00 1.610997e+00 9.550422e+00 1.065406e+02
<VARIANCE> 13
 2.735214e+02 2.178360e+02 2.752899e+02 3.272682e+02 3.427431e+02 2.827466e+02 2.065417e+02 1.965298e+02 1.629686e+02 1.609801e+02 1.904476e+02 1.713003e+02 1.143027e+02
<GCONST> 9.369547e+01
<STATE> 4
<MEAN> 13
 -2.774498e+01 2.764921e+01 2.362030e+01 1.368905e+01 2.037441e+01 -1.081137e+01 -5.800781e+00 -2.460524e+00 -4.821324e+00 2.601723e+00 -1.506656e+01 1.570774e+00 1.245282e+02
<VARIANCE> 13
 2.644031e+02 1.457559e+02 1.880761e+02 2.986433e+02 4.493485e+02 2.392972e+02 2.610969e+02 2.033405e+02 1.530747e+02 1.772253e+02 2.378606e+02 2.230710e+02 1.013781e+02
<GCONST> 9.355958e+01
<TRANSP> 5
 0.000000e+00 1.000000e+00 0.000000e+00 0.000000e+00 0.000000e+00
 0.000000e+00 6.223991e-01 3.776008e-01 0.000000e+00 0.000000e+00
 0.000000e+00 0.000000e+00 7.993319e-01 2.006681e-01 0.000000e+00
 0.000000e+00 0.000000e+00 0.000000e+00 7.635381e-01 2.364620e-01
 0.000000e+00 0.000000e+00 0.000000e+00 0.000000e+00 0.000000e+00
<ENDHMM>
~h "ah"
<BEGINHMM>
<NUMSTATES> 5
<STATE> 2
<MEAN> 13
 1.869337e+01 -2.067156e+01 1.770378e+01 -8.868801e+00 7.879555e+00 -5.249949e+00 -1.674704e+01 9.885022e+00 -3.338507e+00 1.455347e+01 3.956800e+00 -1.288413e+00 1.330467e+02
<VARIANCE> 13
 7.085056e+01 1.328681e+02 1.866778e+02 2.200264e+02 2.318181e+02 3.518237e+02 5.103208e+02 4.788847e+02 5.318071e+02 4.567889e+02 3.987545e+02 3.230231e+02 1.708842e+02
<GCONST> 9.668861e+01
<STATE> 3
<MEAN> 13
 1.762863e+01 -1.188294e+01 2.758676e+01 2.411341e+00 3.259605e+00 -9.304197e+00 2.345832e+00 9.941270e+00 -2.213245e+00 9.217680e+00 -7.519495e+00 8.973725e+00 1.242228e+02
<VARIANCE> 13
 5.508713e+01 1.014270e+02 2.149247e+02 3.022544e+02 2.590014e+02 5.131351e+02 4.508240e+02 4.903144e+02 4.567916e+02 5.204650e+02 3.817291e+02 3.736777e+02 1.114576e+02
<GCONST> 9.666641e+01
<STATE> 4
<MEAN> 13
 2.001108e+01 7.224628e-01 3.515504e+01 1.329374e+01 -4.770649e+00 1.083677e+00 1.786923e+01 -9.438664e+00 9.623036e-01 2.933805e+00 -9.161393e+00 1.891239e+01 1.119755e+02
<VARIANCE> 13
 4.060982e+01 1.178586e+02 1.434502e+02 2.264639e+02 2.468849e+02 4.666484e+02 5.192543e+02 4.541198e+02 5.431759e+02 6.261470e+02 5.872454e+02 5.305881e+02 9.588986e+01
<GCONST> 9.672937e+01
<TRANSP> 5
 0.000000e+00 1.000000e+00 0.000000e+00 0.000000e+00 0.000000e+00
 0.000000e+00 7.470067e-01 2.529933e-01 0.000000e+00 0.000000e+00
 0.000000e+00 0.000000e+00 5.687124e-01 4.312877e-01 0.000000e+00
 0.000000e+00 0.000000e+00 0.000000e+00 6.308797e-01 3.691202e-01
 0.000000e+00 0.000000e+00 0.000000e+00 0.000000e+00 0.000000e+00
<ENDHMM>
~h "ao"
<BEGINHMM>
<NUMSTATES> 5
<STATE> 2
<MEAN> 13
 3.617314e+01 1.715858e+01 1.197775e+01 -4.488871e+01 -2.159285e+01 -5.352136e-01 2.376741e+00 4.093579e+00 -6.273951e+00 6.471175e+00 -1.144097e+01 6.141667e+00 1.177058e+02
<VARIANCE> 13
 5.848326e+01 1.473878e+02 1.590197e+02 4.157046e+02 4.970308e+02 2.332607e+02 2.649464e+02 2.113059e+02 1.916921e+02 2.060788e+02 1.957311e+02 2.845533e+02 1.326809e+02
<GCONST> 9.304661e+01
<STATE> 3
<MEAN> 13
 3.497203e+01 1.386640e+01 1.827994e+01 -4.423587e+01 -2.933449e+01 -3.666254e+00 -5.550226e+00 1.426525e+01 -1.979154e+01 1.173448e+01 -7.435852e+00 -3.872303e+00 1.239798e+02
<VARIANCE> 13
 4.469194e+01 1.792348e+02 3.082999e+02 2.519619e+02 4.338743e+02 4.503299e+02 6.360530e+02 4.293985e+02 4.485608e+02 4.607417e+02 3.668270e+02 4.098538e+02 1.240674e+02
<GCONST> 9.782204e+01
<STATE> 4
<MEAN> 13
 3.836310e+01 -4.336078e+00 -1.278897e+01 -2.810541e+01 -9.248240e-01 -8.568118e+00 -8.660622e+00 1.527007e+01 -2.441652e+01 4.080017e+00 4.439782e+00 1.296988e+01 1.277981e+02
<VARIANCE> 13
 6.261547e+01 2.167139e+02 3.142609e+02 2.809629e+02 6.935504e+02 4.719159e+02 1.008895e+03 7.250153e+02 5.364587e+02 7.891047e+02 4.011821e+02 3.748440e+02 1.685761e+02
<GCONST> 1.010021e+02
<TRANSP> 5
 0.000000e+00 1.000000e+00 0.000000e+00 0.000000e+00 0.000000e+00
 0.000000e+00 8.065411e-01 1.934589e-01 0.000000e+00 0.000000e+00
 0.000000e+00 0.000000e+00 8.255854e-01 1.744147e-01 0.000000e+00
 0.000000e+00 0.000000e+00 0.000000e+00 8.244046e-01 1.755954e-01
 0.000000e+00 0.000000e+00 0.000000e+00 0.000000e+00 0.000000e+00
<ENDHMM>
~h "ay"
<BEGINHMM>
<NUMSTATES> 5
<STATE> 2
<MEAN> 13
 2.033388e+01 -3.007265e+01 -4.142361e+00 -2.602447e+01 5.610805e+00 1.313603e+01 -6.821228e+00 5.619932e+00 7.904335e+00 1.558550e+01 5.134755e+00 -7.287057e+00 1.444512e+02
<VARIANCE> 13
 6.432410e+01 1.348748e+02 3.154285e+02 4.164035e+02 3.820689e+02 3.828385e+02 4.280139e+02 3.526872e+02 4.276901e+02 3.857168e+02 5.059434e+02 3.575844e+02 1.190199e+02
<GCONST> 9.746281e+01
<STATE> 3
<MEAN> 13
 1.440551e+01 -4.141884e+01 3.155771e+00 -2.048290e+01 2.019785e+01 4.182633e+00 -8.774055e+00 2.112416e+01 1.057700e+01 6.460441e+00 -6.131642e+00 -1.021923e+00 1.476296e+02
<VARIANCE> 13
 5.253562e+01 1.194972e+02 1.940572e+02 2.307801e+02 4.458881e+02 2.875073e+02 3.654108e+02 4.117555e+02 2.855661e+02 3.016500e+02 3.323964e+02 4.306965e+02 1.092533e+02
<GCONST> 9.495872e+01
<STATE> 4
<MEAN> 13
 1.159051e+01 -3.088303e+01 1.943583e+01 -1.053269e+01 -1.591953e+00 -7.659838e+00 2.836180e+00 2.419616e+01 3.085087e+00 1.857113e+00 -1.351978e+00 7.088890e+00 1.417832e+02
<VARIANCE> 13
 7.591625e+01 1.535885e+02 5.003570e+02 2.836337e+02 3.969174e+02 2.135603e+02 5.264604e+02 3.324450e+02 4.054602e+02 3.433497e+02 3.186088e+02 2.556506e+02 1.743192e+02
<GCONST> 9.685205e+01
<TRANSP> 5
 0.000000e+00 1.000000e+00 0.000000e+00 0.000000e+00 0.000000e+00
 0.000000e+00 8.535919e-01 1.464081e-01 0.000000e+00 0.000000e+00
 0.000000e+00 0.000000e+00 8.574307e-01 1.425693e-01 0.000000e+00
 0.000000e+00 0.000000e+00 0.000000e+00 8.165227e-01 1.834773e-01
 0.000000e+00 0.000000e+00 0.000000e+00 0.000000e+00 0.000000e+00
<ENDHMM>
~h "eh"
<BEGINHMM>
<NUMSTATES> 5
<STATE> 2
<MEAN> 13
 -5.631607e+01 1.163585e+01 -7.555514e+00 -8.437912e+00 4.455124e+00 -1.621846e+01 -1.324362e+00 2.252682e+00 -3.098025e+00 1.402601e+00 -8.613358e+00 7.594334e+00 1.158333e+02
<VARIANCE> 13
 1.955040e+02 8.808112e+01 1.454029e+02 1.974377e+02 2.364966e+02 2.023368e+02 1.542137e+02 1.649238e+02 1.459263e+02 1.360826e+02 1.527579e+02 1.291219e+02 9.651794e+01
<GCONST> 8.918655e+01
<STATE> 3
<MEAN> 13
 -2.897702e+00 7.589880e+00 1.650232e+01 6.343321e+00 -5.432014e+00 -1.551196e+01 -8.078126e+00 -1.764364e+00 3.099672e+00 4.587193e+00 -8.734415e+00 1.141640e+01 1.209869e+02
<VARIANCE> 13
 3.106971e+02 1.081740e+02 1.146965e+02 1.671516e+02 3.212565e+02 1.759422e+02 1.849381e+02 1.780721e+02 1.718134e+02 2.744478e+02 2.607570e+02 2.966704e+02 1.892148e+02
<GCONST> 9.278102e+01
<STATE> 4
<MEAN> 13
 1.129433e+01 -1.537364e+01 2.116281e+01 -1.254350e+01 -1.034202e+01 -2.762210e+01 -9.934980e+00 2.058649e+00 1.085087e+01 1.292154e+01 -7.253194e+00 1.607218e+01 1.452084e+02
<VARIANCE> 13
 5.162646e+01 9.095135e+01 1.511319e+02 1.961308e+02 3.066476e+02 2.292995e+02 7.413244e+02 2.834550e+02 3.853129e+02 4.841688e+02 4.003794e+02 4.596730e+02 1.030036e+02
<GCONST> 9.495411e+01
<TRANSP> 5
 0.000000e+00 1.000000e+00 0.000000e+00 0.000000e+00 0.000000e+00
 0.000000e+00 7.613797e-01 2.386204e-01 0.000000e+00 0.000000e+00
 0.000000e+00 0.000000e+00 2.084261e-01 7.915739e-01 0.000000e+00
 0.000000e+00 0.000000e+00 0.000000e+00 6.555266e-01 3.444734e-01
 0.000000e+00 0.000000e+00 0.000000e+00 0.000000e+00 0.000000e+00
<ENDHMM>
~h "ey"
<BEGINHMM>
<NUMSTATES> 5
<STATE> 2
<MEAN> 13
 -6.608847e+00 -1.058143e+01 2.140182e+01 -8.582705e+00 -2.154345e+01 -2.022794e+01 -2.017867e+00 1.073960e+00 4.551784e-01 8.913960e+00 -1.686725e+00 7.559334e+00 1.041925e+02
<VARIANCE> 13
 2.516943e+02 2.334456e+02 4.138128e+02 3.965448e+02 3.479822e+02 4.289305e+02 5.938806e+02 4.399892e+02 4.160884e+02 3.467469e+02 2.954035e+02 3.202841e+02 9.930288e+02
<GCONST> 1.015064e+02
<STATE> 3
<MEAN> 13
 4.301537e+00 -1.927289e+01 4.702013e+01 -2.302631e+01 -2.399038e+01 -1.871954e+01 2.411462e+00 4.249641e+00 -4.427793e+00 1.373667e+01 1.156062e+00 1.042332e+01 1.417978e+02
<VARIANCE> 13
 6.246133e+01 1.497690e+02 3.057526e+02 4.132644e+02 2.044679e+02 2.862068e+02 6.437060e+02 3.242137e+02 5.740576e+02 2.491026e+02 1.818708e+02 1.676521e+02 1.407224e+02
<GCONST> 9.515126e+01
<STATE> 4
<MEAN> 13
 -2.547411e+00 2.411923e+00 6.963007e+01 -1.665042e+01 -1.182913e+01 -3.585720e+00 -5.053779e+00 -1.846909e+01 -1.223806e+01 3.558809e+00 -1.014061e+01 6.488077e+00 1.277418e+02
<VARIANCE> 13
 6.240542e+01 2.452017e+02 2.380261e+02 5.485665e+02 2.784756e+02 3.132218e+02 2.978548e+02 4.743160e+02 7.353594e+02 3.669454e+02 3.064897e+02 3.760504e+02 3.223776e+02
<GCONST> 9.847875e+01
<TRANSP> 5
 0.000000e+00 1.000000e+00 0.000000e+00 0.000000e+00 0.000000e+00
 0.000000e+00 6.353444e-01 3.646556e-01 0.000000e+00 0.000000e+00
 0.000000e+00 0.000000e+00 8.761415e-01 1.238584e-01 0.000000e+00
 0.000000e+00 0.000000e+00 0.000000e+00 8.917648e-01 1.082352e-01
 0.000000e+00 0.000000e+00 0.000000e+00 0.000000e+00 0.000000e+00
<ENDHMM>
~h "hh"
<BEGINHMM>
<NUMSTATES> 5
<STATE> 2
<MEAN> 13
 1.049297e+01 1.229019e+01 1.093871e+01 9.217118e-01 3.256524e+00 1.004614e+01 7.680393e+00 2.595420e+00 -5.776289e+00 5.708094e+00 -2.397926e+00 3.124244e+00 8.597897e+01
<VARIANCE> 13
 3.425674e+02 3.149882e+02 2.099391e+02 3.658262e+02 3.020280e+02 2.661755e+02 2.662435e+02 2.855233e+02 3.648896e+02 2.488919e+02 2.050604e+02 1.961726e+02 5.033798e+02
<GCONST> 9.750405e+01
<STATE> 3
<MEAN> 13
 3.052008e+01 2.376934e+01 1.617171e+01 -6.508400e+00 -8.192289e+00 4.204590e+00 7.743370e+00 2.733518e-01 -3.138775e+00 9.112815e+00 -4.613726e+00 3.975912e+00 9.776445e+01
<VARIANCE> 13
 6.917509e+01 2.265564e+02 1.344423e+02 2.453435e+02 2.409145e+02 2.621429e+02 2.451266e+02 2.500300e+02 3.871664e+02 2.512790e+02 2.151284e+02 2.481640e+02 1.838085e+02
<GCONST> 9.361716e+01
<STATE> 4
<MEAN> 13
 3.456052e+01 2.068696e+01 2.139592e+01 -2.005399e+01 -1.981438e+01 -3.851289e+00 -5.876128e-01 4.156876e+00 -8.079145e+00 1.389749e+01 -3.547635e+00 -4.697120e-01 1.080850e+02
<VARIANCE> 13
 4.575263e+01 1.792952e+02 2.008863e+02 2.498925e+02 2.891476e+02 2.741494e+02 3.851825e+02 3.090954e+02 4.162891e+02 3.173573e+02 2.858283e+02 2.887707e+02 9.160784e+01
<GCONST> 9.432638e+01
<TRANSP> 5
 0.000000e+00 1.000000e+00 0.000000e+00 0.000000e+00 0.000000e+00
 0.000000e+00 5.410754e-01 4.589246e-01 0.000000e+00 0.000000e+00
 0.000000e+00 0.000000e+00 6.234883e-01 3.765117e-01 0.000000e+00
 0.000000e+00 0.000000e+00 0.000000e+00 6.858860e-01 3.141140e-01
 0.000000e+00 0.000000e+00 0.000000e+00 0.000000e+00 0.000000e+00
<ENDHMM>
~h "ih"
<BEGINHMM>
<NUMSTATES> 5
<STATE> 2
<MEAN> 13
 -5.410381e+01 1.073544e+01 -1.604827e+01 2.833699e+00 -7.246144e+00 -7.385241e+00 -9.961942e-01 1.246669e+00 -5.762277e+00 5.009639e-01 -3.549843e+00 7.096849e+00 1.128386e+02
<VARIANCE> 13
 1.157737e+02 9.576012e+01 1.295273e+02 2.046498e+02 2.445401e+02 2.693449e+02 1.264462e+02 1.224975e+02 1.372862e+02 1.178244e+02 1.501848e+02 1.096238e+02 9.336107e+01
<GCONST> 8.807101e+01
<STATE> 3
<MEAN> 13
 -1.385051e+01 1.116313e+01 1.835740e+01 8.388083e+00 -6.128531e+00 -1.398450e+01 -4.910115e+00 -1.929576e+00 -2.444319e+00 1.495981e+00 -6.818345e+00 9.947927e+00 1.224373e+02
<VARIANCE> 13
 4.735792e+02 1.167790e+02 1.518081e+02 2.243833e+02 3.726075e+02 2.068009e+02 1.924288e+02 1.560661e+02 1.594003e+02 1.876594e+02 2.678596e+02 2.735757e+02 1.657849e+02
<GCONST> 9.343004e+01
<STATE> 4
<MEAN> 13
 5.754539e+00 -1.371017e+01 4.218641e+01 -1.986352e+00 -1.585584e+01 -3.015210e+01 -5.308437e+00 -5.138322e+00 -1.093822e+01 8.057649e+00 -3.474737e+00 1.144208e+01 1.367956e+02
<VARIANCE> 13
 7.259541e+01 1.724139e+02 2.091192e+02 3.582955e+02 3.413630e+02 3.106653e+02 8.716318e+02 6.177714e+02 5.430508e+02 2.939937e+02 3.036756e+02 3.800576e+02 2.425249e+02
<GCONST> 9.844775e+01
<TRANSP> 5
 0.000000e+00 1.000000e+00 0.000000e+00 0.000000e+00 0.000000e+00
 0.000000e+00 8.350261e-01 1.649739e-01 0.000000e+00 0.000000e+00
 0.000000e+00 0.000000e+00 4.332937e-01 5.667064e-01 0.000000e+00
 0.000000e+00 0.000000e+00 0.000000e+00 8.879685e-01 1.120315e-01
 0.000000e+00 0.000000e+00 0.000000e+00 0.000000e+00 0.000000e+00
<ENDHMM>
~h "iy"
<BEGINHMM>
<NUMSTATES> 5
<STATE> 2
<MEAN> 13
 2.496778e+00 -1.096014e+01 6.583664e+01 1.711443e-01 -8.629992e+00 -1.759006e+01 -3.154635e+00 -3.383574e+00 -2.388586e+01 3.539916e+00 -5.723074e+00 5.834211e+00 1.358819e+02
<VARIANCE> 13
 8.717739e+01 1.992631e+02 2.497549e+02 3.664403e+02 2.197862e+02 3.620344e+02 5.658848e+02 6.378239e+02 4.224706e+02 4.156844e+02 2.373222e+02 3.661235e+02 1.010995e+02
<GCONST> 9.722469e+01
<STATE> 3
<MEAN> 13
 1.572861e+00 3.862875e+00 6.552210e+01 -7.418221e+00 -6.635563e+00 -8.040030e+00 3.098339e+00 -1.593547e+01 -1.071979e+01 6.931447e+00 -1.058495e+01 1.094957e+01 1.220813e+02
<VARIANCE> 13
 9.706744e+01 3.413016e+02 1.789575e+02 4.817860e+02 2.426141e+02 4.659471e+02 4.744504e+02 6.148427e+02 5.262228e+02 3.985344e+02 2.715813e+02 3.165159e+02 2.204048e+02
<GCONST> 9.889490e+01
<STATE> 4
<MEAN> 13
 -4.415609e-01 1.693502e+00 4.140427e+01 3.419338e+00 -3.694592e+00 -1.182810e+00 1.178708e+00 -1.770715e+00 -6.106137e+00 2.487601e+00 -5.380963e+00 6.121921e+00 1.056884e+02
<VARIANCE> 13
 3.036922e+02 5.102787e+02 2.567556e+02 4.973932e+02 3.734899e+02 1.172865e+03 7.523611e+02 4.050984e+02 4.259996e+02 4.110442e+02 2.772054e+02 2.713365e+02 7.133997e+02
<GCONST> 1.030896e+02
<TRANSP> 5
 0.000000e+00 1.000000e+00 0.000000e+00 0.000000e+00 0.000000e+00
 0.000000e+00 8.041754e-01 1.958246e-01 0.000000e+00 0.000000e+00
 0.000000e+00 0.000000e+00 7.041939e-01 2.958061e-01 0.000000e+00
 0.000000e+00 0.000000e+00 0.000000e+00 5.960280e-01 4.039720e-01
 0.000000e+00 0.000000e+00 0.000000e+00 0.000000e+00 0.000000e+00
<ENDHMM>
~h "ow"
<BEGINHMM>
<NUMSTATES> 5
<STATE> 2
<MEAN> 13
 1.707440e+01 -2.454771e+01 1.064599e+00 -2.146855e+01 4.777939e+00 -1.512853e+01 -1.552872e+00 4.451141e+00 1.140107e+01 2.059260e+01 -6.674743e+00 1.848266e+00 1.348578e+02
<VARIANCE> 13
 1.496166e+02 1.676677e+02 2.428968e+02 2.170229e+02 2.627456e+02 4.071788e+02 5.543527e+02 3.686454e+02 6.371404e+02 5.298309e+02 5.675660e+02 3.470137e+02 3.770953e+02
<GCONST> 9.955595e+01
<STATE> 3
<MEAN> 13
 2.495945e+01 -1.228895e+01 4.731603e+00 -3.731149e+01 3.820260e+00 4.121752e+00 -8.417586e+00 -9.604148e+00 -1.172051e+01 2.589841e+01 6.778022e+00 8.622127e+00 1.362493e+02
<VARIANCE> 13
 6.139505e+01 1.275501e+02 2.559152e+02 3.461240e+02 3.743377e+02 4.007081e+02 4.036205e+02 3.818012e+02 1.047400e+03 3.995357e+02 4.141722e+02 2.613784e+02 1.845249e+02
<GCONST> 9.786806e+01
<STATE> 4
<MEAN> 13
 2.465040e+01 8.911722e+00 7.238103e+00 -2.659059e+01 -8.345079e+00 1.353042e+01 1.514445e+00 -1.043573e+00 -1.122060e+01 3.188891e+00 -2.280550e+00 6.867363e+00 1.115287e+02
<VARIANCE> 13
 1.571472e+02 2.317432e+02 2.798198e+02 6.953257e+02 7.003011e+02 4.022542e+02 4.641987e+02 4.398133e+02 5.472585e+02 3.644451e+02 4.076720e+02 3.911798e+02 4.676013e+02
<GCONST> 1.016795e+02
<TRANSP> 5
 0.000000e+00 1.000000e+00 0.000000e+00 0.000000e+00 0.000000e+00
 0.000000e+00 8.037077e-01 1.962924e-01 0.000000e+00 0.000000e+00
 0.000000e+00 0.000000e+00 8.427780e-01 1.572220e-01 0.000000e+00
 0.000000e+00 0.000000e+00 0.000000e+00 8.733643e-01 1.266356e-01
 0.000000e+00 0.000000e+00 0.000000e+00 0.000000e+00 0.000000e+00
<ENDHMM>
~h "sp"
<BEGINHMM>
<NUMSTATES> 3
<STATE> 2
~s "silst"
<TRANSP> 3
 0.000000e+00 1.346082e-01 8.653917e-01
 0.000000e+00 8.442152e-01 1.557848e-01
 0.000000e+00 0.000000e+00 0.000000e+00
<ENDHMM>
~h "th"
<BEGINHMM>
<NUMSTATES> 5
<STATE> 2
<MEAN> 13
 -2.868877e+01 -1.411855e+00 -5.927204e-01 5.811917e+00 -6.812624e+00 1.325110e+00 -4.207265e+00 1.204429e+00 -5.060984e+00 1.527385e+00 -3.066781e+00 4.745614e+00 8.911126e+01
<VARIANCE> 13
 1.374670e+02 1.459939e+02 1.144691e+02 1.369833e+02 1.399751e+02 1.434557e+02 1.511071e+02 1.505063e+02 1.483120e+02 1.367346e+02 1.350951e+02 1.168322e+02 4.367640e+02
<GCONST> 8.906248e+01
<STATE> 3
<MEAN> 13
 -2.382985e+01 -7.613315e+00 1.509004e+01 3.454792e-01 -1.135008e+01 -5.460772e+00 -6.157315e-01 4.627939e-01 -2.276431e+00 4.636398e+00 -3.274697e+00 6.746253e+00 1.139762e+02
<VARIANCE> 13
 1.871257e+02 1.777285e+02 2.530321e+02 2.113021e+02 1.800666e+02 2.140512e+02 2.272749e+02 2.155058e+02 2.026052e+02 1.883070e+02 1.910298e+02 2.172921e+02 1.399513e+02
<GCONST> 9.267422e+01
<STATE> 4
<MEAN> 13
 1.530434e+01 -1.100213e+01 1.797648e+01 2.025146e+01 9.713280e+00 -1.145878e+01 -1.299813e+01 -2.782313e+00 -4.720714e+00 5.957692e+00 -1.038813e+00 3.714127e+00 1.140308e+02
<VARIANCE> 13
 2.968585e+02 1.483863e+02 2.206572e+02 1.546269e+02 1.844939e+02 2.974533e+02 2.415869e+02 2.405714e+02 1.775301e+02 1.517121e+02 1.675716e+02 1.470838e+02 1.724632e+02
<GCONST> 9.236996e+01
<TRANSP> 5
 0.000000e+00 1.000000e+00 0.000000e+00 0.000000e+00 0.000000e+00
 0.000000e+00 8.161394e-01 1.838606e-01 0.000000e+00 0.000000e+00
 0.000000e+00 0.000000e+00 6.918564e-01 3.081435e-01 0.000000e+00
 0.000000e+00 0.000000e+00 0.000000e+00 6.443378e-01 3.556622e-01
 0.000000e+00 0.000000e+00 0.000000e+00 0.000000e+00 0.000000e+00
<ENDHMM>
~h "uw"
<BEGINHMM>
<NUMSTATES> 5
<STATE> 2
<MEAN> 13
 7.560984e+00 -1.127289e+01 5.666241e+01 4.603976e+00 -4.087772e+00 -2.528232e+01 -1.642574e+00 -2.518326e+00 -1.878238e+01 5.607440e+00 -1.145007e+01 1.268937e+01 1.344621e+02
<VARIANCE> 13
 5.497601e+01 1.482176e+02 1.757235e+02 2.915074e+02 1.681101e+02 3.296687e+02 8.398347e+02 5.553084e+02 3.425631e+02 3.179190e+02 2.338240e+02 4.799138e+02 1.519405e+02
<GCONST> 9.596731e+01
<STATE> 3
<MEAN> 13
 1.707419e+01 -1.043486e+01 4.070949e+01 1.674273e+01 9.399137e+00 -2.612473e+00 -2.989288e+01 6.873812e+00 -2.482543e+01 1.740636e+00 -5.746518e+00 -1.215802e+01 1.270671e+02
<VARIANCE> 13
 7.472116e+01 1.658867e+02 1.974503e+02 3.640091e+02 2.889189e+02 6.370527e+02 5.167260e+02 4.997312e+02 5.598389e+02 5.245504e+02 4.913688e+02 5.326697e+02 1.743294e+02
<GCONST> 9.931096e+01
<STATE> 4
<MEAN> 13
 1.417624e+01 1.047058e+01 1.678210e+01 7.479595e+00 1.235242e+01 5.471020e+00 1.806105e+00 -9.891249e+00 -8.903733e+00 6.634346e+00 -7.268346e+00 6.323960e+00 9.688059e+01
<VARIANCE> 13
 2.269930e+02 1.865816e+02 2.509667e+02 4.028545e+02 3.171324e+02 5.402897e+02 4.661153e+02 5.567540e+02 6.228278e+02 4.454668e+02 3.520934e+02 3.573036e+02 3.335333e+02
<GCONST> 1.006737e+02
<TRANSP> 5
 0.000000e+00 1.000000e+00 0.000000e+00 0.000000e+00 0.000000e+00
 0.000000e+00 8.683006e-01 1.316994e-01 0.000000e+00 0.000000e+00
 0.000000e+00 0.000000e+00 8.188308e-01 1.811692e-01 0.000000e+00
 0.000000e+00 0.000000e+00 0.000000e+00 8.129778e-01 1.870222e-01
 0.000000e+00 0.000000e+00 0.000000e+00 0.000000e+00 0.000000e+00
<ENDHMM>
~h "sil"
<BEGINHMM>
<NUMSTATES> 5
<STATE> 2
<MEAN> 13
 -1.141028e+01 -3.404535e+00 5.631547e-02 6.781902e+00 1.156981e+00 9.992756e-01 5.183187e+00 7.235023e+00 -7.072462e-01 -9.252185e-02 -5.114469e+00 3.116439e-01 6.551398e+01
<VARIANCE> 13
 6.977824e+01 1.387970e+02 1.495294e+02 1.415338e+02 1.695311e+02 2.102245e+02 2.232163e+02 2.391632e+02 2.229328e+02 2.205112e+02 1.740546e+02 1.576646e+02 9.020975e+01
<GCONST> 8.992207e+01
<STATE> 3
~s "silst"
<STATE> 4
<MEAN> 13
 -1.995129e+01 7.629747e-01 4.855753e+00 4.317097e+00 -3.361809e-02 -5.309353e-01 -5.694875e-01 1.068662e+00 -2.551773e+00 3.414796e+00 -6.247410e-01 2.601550e+00 6.503899e+01
<VARIANCE> 13
 1.673384e+02 2.496108e+02 1.408493e+02 1.706795e+02 1.727178e+02 1.884432e+02 1.838646e+02 1.718778e+02 1.702264e+02 1.542336e+02 1.402195e+02 1.193311e+02 2.276258e+02
<GCONST> 9.069964e+01
<TRANSP> 5
 0.000000e+00 1.000000e+00 0.000000e+00 0.000000e+00 0.000000e+00
 0.000000e+00 7.856393e-01 1.321875e-01 8.217313e-02 0.000000e+00
 0.000000e+00 0.000000e+00 9.163048e-01 8.369524e-02 0.000000e+00
 0.000000e+00 1.896203e-01 0.000000e+00 5.756876e-01 2.346922e-01
 0.000000e+00 0.000000e+00 0.000000e+00 0.000000e+00 0.000000e+00
<ENDHMM>
