~o
<STREAMINFO> 1 39
<VECSIZE> 39<NULLD><MFCC_D_A_0><DIAGC>
~v "varFloor1"
<VARIANCE> 39
 6.754232e+00 3.412257e+00 5.608447e+00 4.796207e+00 3.472295e+00 4.011117e+00 4.413517e+00 3.617792e+00 3.683716e+00 3.040219e+00 2.640150e+00 2.509556e+00 1.298279e+01 2.278196e-01 1.545969e-01 2.184490e-01 2.118026e-01 1.813457e-01 2.097697e-01 2.257949e-01 2.166197e-01 2.009621e-01 1.748386e-01 1.664882e-01 1.534702e-01 2.729188e-01 3.005251e-02 2.352015e-02 2.950212e-02 3.333421e-02 2.970494e-02 3.528043e-02 3.797136e-02 3.764201e-02 3.477513e-02 3.067418e-02 2.924890e-02 2.697371e-02 3.680276e-02
~s "silst"
<MEAN> 39
 -2.466678e+01 4.849821e+00 -8.719149e-01 2.991042e+00 -3.013591e+00 -2.729142e+00 -4.150584e+00 -1.181063e+00 -1.597671e+00 1.319074e+00 9.809151e-01 2.453053e+00 4.849665e+01 -2.403733e-01 2.767749e-02 5.576939e-02 -4.355733e-02 -6.922005e-02 -8.247015e-02 -1.853089e-01 -1.997240e-01 -4.873989e-02 9.693824e-02 1.083239e-01 5.569989e-02 -1.678753e-01 9.014761e-02 -7.425705e-02 1.399527e-02 2.416407e-02 2.745509e-02 3.257439e-02 8.018023e-02 7.506236e-02 3.489687e-04 -1.224738e-02 -7.307754e-02 -2.798808e-02 1.615587e-01
<VARIANCE> 39
 3.293288e+01 3.085944e+01 3.907592e+01 5.225615e+01 7.018768e+01 9.086875e+01 1.075863e+02 1.083822e+02 1.000994e+02 9.340598e+01 9.063212e+01 8.121339e+01 1.740823e+01 1.411692e+00 2.069652e+00 3.262992e+00 4.517211e+00 5.825701e+00 7.150960e+00 8.551581e+00 9.331365e+00 9.391840e+00 9.318478e+00 9.129960e+00 8.239735e+00 7.525582e-01 2.669105e-01 4.339857e-01 6.613594e-01 9.127200e-01 1.172682e+00 1.435444e+00 1.687358e+00 1.846794e+00 1.867260e+00 1.856615e+00 1.826748e+00 1.651634e+00 1.799779e-01
<GCONST> 1.452607e+02
~h "f"
<BEGINHMM>
<NUMSTATES> 5
<STATE> 2
<MEAN> 39
 -3.122912e+01 -1.336478e+01 1.321071e-01 3.897569e+00 -1.493618e+00 2.452560e-01 -5.955162e+00 9.313517e-01 -4.629213e+00 4.066725e+00 -3.364824e+00 2.799745e+00 9.040089e+01 -2.334275e+00 -1.638946e+00 -1.293486e+00 -5.320246e-01 -7.046818e-01 -3.253216e-01 -9.401792e-01 -4.414246e-01 -3.000584e-01 -1.957255e-01 -9.963241e-02 -1.537442e-01 5.152197e-01 1.339145e+00 3.827320e-01 2.587950e-01 -2.469055e-01 9.929160e-02 6.159499e-03 2.410767e-01 -6.365234e-02 -9.244449e-02 7.224539e-02 -3.856433e-02 3.559887e-02 6.137242e-01
<VARIANCE> 39
 1.727130e+02 1.292655e+02 1.009580e+02 1.057485e+02 1.193436e+02 1.298905e+02 1.414649e+02 1.389186e+02 1.369751e+02 1.248512e+02 1.190408e+02 1.082091e+02 3.342518e+02 2.443090e+01 1.239747e+01 1.182868e+01 1.590407e+01 1.353891e+01 1.384696e+01 1.517183e+01 1.470116e+01 1.482591e+01 1.338957e+01 1.280866e+01 1.202787e+01 2.053798e+01 3.688689e+00 2.390686e+00 2.266406e+00 3.129893e+00 2.642623e+00 2.950058e+00 3.185473e+00 3.174638e+00 3.208181e+00 2.844487e+00 2.699668e+00 2.455889e+00 3.218331e+00
<GCONST> 1.842404e+02
<STATE> 3
<MEAN> 39
 -2.914112e+01 -1.714694e+01 -3.251276e+00 3.791335e-02 -3.095551e+00 -1.006098e+00 -7.851688e+00 -1.375092e+00 -6.111789e+00 3.497376e+00 -4.395351e+00 2.565856e+00 1.011850e+02 1.011374e+01 1.927579e+00 5.459730e-01 -3.321008e+00 4.565123e-01 1.028785e+00 1.698973e+00 2.299133e-01 5.572373e-01 1.379815e+00 4.321751e-01 -1.426416e-01 5.867333e+00 3.640732e+00 1.036352e+00 5.958942e-01 -2.219826e+00 -4.098313e-01 3.807871e-01 6.898291e-01 4.286284e-01 6.718871e-02 7.012448e-01 2.572558e-01 -1.879704e-01 1.068478e+00
<VARIANCE> 39
 1.373805e+02 7.443005e+01 6.431259e+01 7.122727e+01 8.302626e+01 9.315759e+01 1.003222e+02 1.031556e+02 1.130497e+02 1.069694e+02 9.835094e+01 8.798988e+01 2.074474e+02 3.911620e+01 1.807935e+01 1.053059e+01 2.124227e+01 1.386993e+01 1.309116e+01 1.458056e+01 1.486572e+01 1.987288e+01 1.789793e+01 2.000177e+01 1.276546e+01 3.489660e+01 3.378389e+00 4.508913e+00 2.799437e+00 3.923021e+00 3.870966e+00 3.124766e+00 3.461257e+00 3.473972e+00 4.254684e+00 3.659425e+00 4.353587e+00 3.049952e+00 4.613230e+00
<GCONST> 1.858194e+02
<STATE> 4
<MEAN> 39
 1.639049e+01 -1.468724e+01 -2.457164e+00 -2.191028e+01 -1.060899e+00 5.736357e+00 5.082381e-01 -2.281427e-01 -2.031841e+00 1.490771e+01 2.608866e+00 -9.356012e-01 1.272658e+02 1.002555e+01 -1.257965e+00 -1.985725e-01 -8.396425e+00 -3.614804e-01 1.901165e+00 1.975620e+00 9.932043e-01 7.578155e-01 2.385239e+00 9.470246e-01 -8.201979e-01 8.298695e+00 -3.168467e+00 -4.946445e-01 2.516509e-02 6.428397e-01 -1.981425e-01 -1.267338e-01 -4.617528e-01 3.413444e-01 -6.224333e-02 -7.298039e-01 -7.332360e-01 4.828918e-02 -1.385153e+00
<VARIANCE> 39
 2.551095e+02 2.294170e+02 1.554694e+02 4.511489e+02 2.519415e+02 2.036166e+02 2.084797e+02 2.252938e+02 4.092619e+02 2.954815e+02 4.453723e+02 2.061625e+02 4.233482e+02 6.177419e+01 4.727409e+01 2.467856e+01 3.420612e+01 3.398563e+01 2.248919e+01 2.486028e+01 2.530679e+01 3.680579e+01 2.806735e+01 3.925776e+01 2.460699e+01 2.598401e+01 6.384206e+00 3.067811e+00 2.305515e+00 7.927838e+00 4.027593e+00 3.090024e+00 3.445687e+00 3.181460e+00 5.697855e+00 4.514970e+00 5.243004e+00 3.396760e+00 5.110953e+00
<GCONST> 2.080210e+02
<TRANSP> 5
 0.000000e+00 1.000000e+00 0.000000e+00 0.000000e+00 0.000000e+00
 0.000000e+00 8.599354e-01 1.400646e-01 0.000000e+00 0.000000e+00
 0.000000e+00 0.000000e+00 6.524976e-01 3.475024e-01 0.000000e+00
 0.000000e+00 0.000000e+00 0.000000e+00 5.455146e-01 4.544854e-01
 0.000000e+00 0.000000e+00 0.000000e+00 0.000000e+00 0.000000e+00
<ENDHMM>
~h "k"
<BEGINHMM>
<NUMSTATES> 5
<STATE> 2
<MEAN> 39
 -7.850458e+00 1.025621e+01 2.612144e+01 2.555551e+01 -1.089109e+00 -1.386496e+01 4.893033e-01 -1.926552e+00 -1.798081e+01 -2.841863e+00 -8.359152e-01 2.050390e+00 7.126604e+01 -5.661466e+00 1.831023e+00 -9.845717e+00 -1.563030e+00 3.280493e+00 5.548926e+00 -3.626037e+00 8.531142e-03 3.903264e+00 -1.808137e+00 -1.727812e-02 -7.539833e-01 -1.199151e+01 -1.795964e-01 -3.106090e+00 -8.986181e-01 -2.893440e+00 -1.111671e+00 -1.180687e+00 -8.184012e-01 -1.313260e-02 9.003139e-01 1.103487e+00 -2.459157e-01 6.210003e-01 4.932888e+00
<VARIANCE> 39
 1.322920e+02 2.076100e+02 2.697855e+02 1.996823e+02 2.853935e+02 3.640398e+02 3.755380e+02 4.628428e+02 3.167343e+02 2.593736e+02 1.973024e+02 1.532309e+02 3.449374e+02 1.100967e+01 4.875045e+01 2.464481e+01 4.051192e+01 3.017088e+01 3.941061e+01 5.577877e+01 7.115928e+01 5.137952e+01 3.565608e+01 2.372109e+01 2.242600e+01 7.122569e+01 3.473679e+00 5.938068e+00 5.512518e+00 5.180014e+00 5.260855e+00 8.199336e+00 9.075345e+00 8.867105e+00 7.889273e+00 5.520443e+00 4.647283e+00 4.266470e+00 1.238929e+01
<GCONST> 2.143085e+02
<STATE> 3
<MEAN> 39
 -1.875675e+01 -7.291023e+00 -7.044018e+00 7.372918e+00 1.136727e-02 -7.735107e+00 -1.083826e+01 -1.782504e+00 -4.255128e+00 2.285593e+00 -1.250840e+00 3.410718e+00 7.299733e+01 -2.085963e+00 -4.206732e+00 -4.798592e+00 -8.499505e-01 -1.676325e-01 -1.792610e+00 -1.937874e+00 1.272624e+00 1.655343e+00 1.165749e+00 -7.195364e-01 5.593142e-01 9.476602e+00 -9.219447e-01 1.097324e+00 1.909334e+00 9.998552e-01 -6.547339e-01 -1.047866e+00 8.414398e-01 3.747525e-01 -5.551472e-01 -2.535419e-01 -1.750268e-01 1.958535e-01 2.021989e+00
<VARIANCE> 39
 1.473309e+02 3.027946e+02 2.389704e+02 1.334514e+02 1.632736e+02 1.725524e+02 1.807983e+02 1.580995e+02 1.358328e+02 1.297626e+02 1.164037e+02 8.908817e+01 8.255739e+02 3.467356e+01 2.900538e+01 2.588737e+01 2.461280e+01 2.269062e+01 2.692131e+01 2.161877e+01 2.093309e+01 1.983669e+01 1.793157e+01 1.528983e+01 1.173136e+01 7.347909e+01 8.753206e+00 8.714099e+00 5.430064e+00 3.570769e+00 4.335340e+00 5.326215e+00 5.106479e+00 4.605604e+00 4.216445e+00 3.873528e+00 2.769755e+00 2.409971e+00 2.036346e+01
<GCONST> 2.015620e+02
<STATE> 4
<MEAN> 39
 -4.384499e+01 -7.769562e+00 -7.364254e+00 1.065020e+01 -5.825017e-01 -2.366569e+01 -1.315904e+01 6.891598e+00 4.677127e-01 2.282768e+00 -7.515090e+00 6.355894e+00 1.115603e+02 -8.654261e+00 3.988470e+00 1.895575e+00 -3.474180e-01 -1.996223e+00 -1.416411e+00 2.245782e+00 2.237257e+00 5.190057e-01 -1.252053e+00 -5.890327e-01 9.122249e-01 2.024530e+00 7.995641e-01 1.222207e+00 5.680367e-01 -5.423715e-01 4.617101e-02 1.634857e+00 9.564523e-01 -3.806215e-01 -7.428586e-01 -1.867693e-01 4.329425e-01 -1.738757e-01 -3.324815e+00
<VARIANCE> 39
 2.919067e+02 1.220004e+02 1.688862e+02 2.167373e+02 4.090505e+02 2.904167e+02 2.218557e+02 1.968615e+02 1.868580e+02 1.696120e+02 1.707704e+02 1.360153e+02 2.090869e+02 4.784813e+01 1.705929e+01 1.393300e+01 1.432116e+01 2.157210e+01 2.715458e+01 1.777842e+01 1.765606e+01 1.987868e+01 1.592455e+01 1.396989e+01 1.420382e+01 2.600937e+01 6.383530e+00 3.332341e+00 2.803873e+00 2.786195e+00 3.806269e+00 4.536688e+00 3.851998e+00 3.679328e+00 3.663860e+00 3.477216e+00 2.878505e+00 2.514278e+00 5.801163e+00
<GCONST> 1.961194e+02
<TRANSP> 5
 0.000000e+00 1.000000e+00 0.000000e+00 0.000000e+00 0.000000e+00
 0.000000e+00 6.839811e-01 3.160189e-01 0.000000e+00 0.000000e+00
 0.000000e+00 0.000000e+00 7.792408e-01 2.207592e-01 0.000000e+00
 0.000000e+00 0.000000e+00 0.000000e+00 5.440115e-01 4.559885e-01
 0.000000e+00 0.000000e+00 0.000000e+00 0.000000e+00 0.000000e+00
<ENDHMM>
~h "n"
<BEGINHMM>
<NUMSTATES> 5
<STATE> 2
<MEAN> 39
 1.609396e+01 -7.061843e-01 3.557113e+01 7.095881e+00 -5.573327e+00 4.274002e+00 1.586982e+01 -3.948894e+00 -6.397884e+00 1.005255e+01 -6.111104e+00 9.029708e+00 1.116437e+02 1.254622e+00 3.253330e+00 1.295631e-01 3.834105e+00 3.333361e-01 1.421306e+00 2.329857e+00 -3.072544e+00 7.740529e-04 6.675531e-01 -1.550461e+00 3.133551e-01 -2.962175e+00 -5.787760e-01 -5.984299e-01 -8.343586e-01 -3.537365e-01 4.426139e-01 -3.353720e-01 -6.665186e-01 8.794749e-01 4.087298e-01 -3.490998e-01 2.160049e-01 -1.398282e-01 2.938588e-01
<VARIANCE> 39
 1.305187e+02 3.120631e+02 2.426430e+02 6.164299e+02 3.023369e+02 4.029931e+02 5.313154e+02 5.957848e+02 5.431484e+02 4.434666e+02 4.324699e+02 4.096264e+02 4.258042e+02 1.702537e+01 1.548118e+01 2.477122e+01 3.416821e+01 2.212117e+01 2.606367e+01 3.418356e+01 4.116069e+01 3.145234e+01 2.787733e+01 2.481508e+01 2.562828e+01 2.276243e+01 2.484362e+00 2.692481e+00 3.875643e+00 7.975184e+00 4.187432e+00 5.096828e+00 6.823692e+00 8.005308e+00 5.723846e+00 4.868737e+00 4.774202e+00 4.763290e+00 2.159294e+00
<GCONST> 2.110062e+02
<STATE> 3
<MEAN> 39
 1.765597e+01 5.662304e+00 3.412945e+01 1.750964e+01 -1.588886e+00 6.208894e+00 1.662291e+01 -6.677832e+00 -2.082887e+00 7.723664e+00 -9.585197e+00 1.094019e+01 1.047003e+02 -2.752882e+00 -2.767465e+00 -2.239813e+00 -2.842953e+00 2.627380e+00 -1.721699e+00 -2.888194e+00 5.394633e+00 9.002473e-01 -5.301908e-01 7.032213e-01 -1.153659e+00 1.825546e+00 -1.285799e+00 -1.326566e+00 -1.439279e+00 -1.530326e+00 1.379438e-01 -4.654009e-01 -1.123791e+00 1.201192e+00 2.525963e-01 -1.440136e-01 5.473775e-01 -3.734389e-01 5.461594e-01
<VARIANCE> 39
 8.417749e+01 2.697498e+02 1.461235e+02 3.319882e+02 2.908913e+02 4.571765e+02 5.025466e+02 4.750109e+02 4.545238e+02 4.455264e+02 4.476476e+02 4.487875e+02 3.061660e+02 2.010222e+01 2.554140e+01 2.118689e+01 3.620401e+01 2.610892e+01 3.873335e+01 4.363162e+01 4.362584e+01 3.756570e+01 2.813890e+01 2.897987e+01 3.108977e+01 3.917287e+01 3.009232e+00 2.772724e+00 2.958198e+00 4.499447e+00 4.787458e+00 6.397121e+00 6.354636e+00 7.542378e+00 5.397524e+00 4.099474e+00 4.544317e+00 4.517587e+00 2.467043e+00
<GCONST> 2.106435e+02
<STATE> 4
<MEAN> 39
 8.061032e-01 -3.127191e+00 1.878485e+01 1.317342e+01 5.074695e+00 2.363424e+00 1.097764e+01 1.227245e+01 1.668929e+00 3.668721e+00 -7.286961e+00 4.510816e+00 9.247769e+01 -3.616425e+00 -2.302627e+00 -4.468729e+00 -2.985156e+00 -1.908706e-01 -1.112134e+00 -2.683989e+00 1.777114e+00 5.708950e-01 -8.106096e-01 8.251324e-01 -1.145677e+00 -9.263108e-01 1.992550e-01 2.708851e-01 1.072422e-02 3.313769e-02 -5.667683e-01 5.206299e-02 -2.854609e-02 -1.186766e+00 -2.465908e-01 2.434389e-02 1.378839e-03 1.776561e-01 4.333836e-02
<VARIANCE> 39
 1.919331e+02 2.670184e+02 2.205828e+02 4.285298e+02 2.520281e+02 3.439017e+02 4.835603e+02 3.940821e+02 3.424056e+02 3.775099e+02 2.774645e+02 2.624388e+02 6.973766e+02 2.193402e+01 1.851417e+01 1.914052e+01 2.321579e+01 2.177146e+01 2.414342e+01 2.613105e+01 3.162775e+01 2.954765e+01 2.253873e+01 2.404538e+01 2.174654e+01 2.117397e+01 1.741613e+00 2.796387e+00 2.704584e+00 4.769699e+00 3.655301e+00 5.187327e+00 5.660375e+00 5.410463e+00 4.371473e+00 3.837070e+00 3.656910e+00 3.532996e+00 2.631282e+00
<GCONST> 2.047676e+02
<TRANSP> 5
 0.000000e+00 1.000000e+00 0.000000e+00 0.000000e+00 0.000000e+00
 0.000000e+00 6.561413e-01 3.438587e-01 0.000000e+00 0.000000e+00
 0.000000e+00 0.000000e+00 6.041217e-01 3.958783e-01 0.000000e+00
 0.000000e+00 0.000000e+00 0.000000e+00 6.230417e-01 3.769584e-01
 0.000000e+00 0.000000e+00 0.000000e+00 0.000000e+00 0.000000e+00
<ENDHMM>
~h "r"
<BEGINHMM>
<NUMSTATES> 5
<STATE> 2
<MEAN> 39
 3.659604e+01 -1.814974e+01 -5.101200e+00 3.619177e+00 2.659215e+01 -2.161513e+01 -3.257331e+01 2.243479e+00 -7.915330e+00 5.043151e+00 1.681543e+00 7.271306e+00 1.266942e+02 4.327473e-01 -8.535550e-01 -1.393866e+00 1.267493e-01 9.274998e-01 -1.330778e+00 -1.171105e+00 1.076921e+00 1.407606e+00 5.388086e-01 3.670724e-02 1.357178e-01 1.434198e-01 -1.162019e+00 -1.915256e-02 1.792437e+00 -1.549762e-02 -1.823305e+00 -1.367944e-01 1.584634e+00 6.159106e-01 -4.568593e-01 -2.073369e-01 4.392214e-02 5.657462e-02 1.325230e-01
<VARIANCE> 39
 6.548085e+01 1.789114e+02 4.584814e+02 3.104540e+02 3.726104e+02 9.070081e+02 9.980999e+02 4.260245e+02 3.239949e+02 3.953609e+02 2.644149e+02 2.125854e+02 1.693059e+02 7.151542e+00 8.588464e+00 2.921355e+01 1.971592e+01 2.111599e+01 3.098110e+01 2.354472e+01 2.543852e+01 1.996862e+01 1.729436e+01 1.524975e+01 1.405260e+01 6.900409e+00 1.318699e+00 1.388394e+00 1.845838e+00 2.122808e+00 2.688319e+00 4.661015e+00 4.045850e+00 3.558147e+00 3.115429e+00 3.009815e+00 2.693583e+00 2.445842e+00 8.037999e-01
<GCONST> 1.939985e+02
<STATE> 3
<MEAN> 39
 3.054345e+01 -2.448075e+01 6.897081e+00 9.346788e+00 1.628277e+01 -3.412608e+01 -2.369336e+01 1.652405e+01 -7.386991e+00 2.243463e+00 6.832328e-01 8.963896e+00 1.290637e+02 -3.918843e+00 -5.242003e-01 6.619973e+00 1.006917e+00 -5.717837e+00 -1.087874e+00 6.152369e+00 2.475585e+00 -2.323171e+00 -8.909397e-01 1.035714e+00 -1.877878e-01 9.122156e-02 -9.994300e-01 1.111023e+00 6.969936e-01 -1.173559e+00 -7.876288e-01 2.357174e+00 1.407658e+00 -1.788591e+00 -8.136487e-01 7.682806e-01 1.729325e-01 -4.641731e-01 -5.798710e-01
<VARIANCE> 39
 7.314427e+01 1.949018e+02 5.814770e+02 3.679564e+02 3.779111e+02 8.044786e+02 1.050437e+03 3.931169e+02 4.304669e+02 4.713906e+02 2.766427e+02 2.389218e+02 2.241131e+02 1.051072e+01 9.935795e+00 3.006357e+01 2.492606e+01 2.744328e+01 3.359023e+01 3.093460e+01 3.140602e+01 3.532421e+01 2.646974e+01 2.161961e+01 1.747051e+01 1.311551e+01 1.863326e+00 2.169066e+00 2.125979e+00 2.348357e+00 3.376040e+00 5.781283e+00 4.919603e+00 4.465773e+00 3.991535e+00 3.560897e+00 2.870509e+00 2.903729e+00 9.907480e-01
<GCONST> 2.019556e+02
<STATE> 4
<MEAN> 39
 1.701318e+01 -2.171090e+01 1.457603e+01 7.804063e+00 3.848304e+00 -2.313470e+01 -2.280304e+00 1.564221e+01 -1.054240e+01 5.665371e+00 2.892018e+00 3.864973e+00 1.186800e+02 -3.924723e+00 1.329330e+00 3.793855e+00 -1.986854e+00 -3.553614e+00 3.320821e+00 3.752295e+00 -2.537038e+00 -1.182570e+00 1.352008e+00 -4.743631e-01 -1.391428e+00 -1.477986e+00 7.887000e-02 7.106235e-01 -6.715338e-01 -6.674917e-01 7.100962e-01 7.752639e-01 -9.717025e-01 -9.419569e-01 5.885131e-01 2.171738e-01 -5.082594e-01 5.031586e-02 -3.023762e-01
<VARIANCE> 39
 2.064182e+02 2.052087e+02 9.277966e+02 3.750116e+02 4.402978e+02 7.193666e+02 7.755651e+02 4.176625e+02 6.340939e+02 4.333273e+02 2.917130e+02 2.649156e+02 6.400703e+02 1.497831e+01 1.394438e+01 2.274072e+01 1.902196e+01 1.964301e+01 2.530936e+01 2.862973e+01 2.679072e+01 2.178089e+01 2.134937e+01 1.772989e+01 1.554027e+01 9.905128e+00 1.306843e+00 1.751776e+00 2.435484e+00 2.776831e+00 3.398200e+00 4.390088e+00 3.915617e+00 3.430132e+00 4.410024e+00 2.954370e+00 2.959996e+00 2.554846e+00 9.439338e-01
<GCONST> 2.015746e+02
<TRANSP> 5
 0.000000e+00 1.000000e+00 0.000000e+00 0.000000e+00 0.000000e+00
 0.000000e+00 7.601777e-01 2.398223e-01 0.000000e+00 0.000000e+00
 0.000000e+00 0.000000e+00 5.154189e-01 4.845811e-01 0.000000e+00
 0.000000e+00 0.000000e+00 0.000000e+00 6.095300e-01 3.904700e-01
 0.000000e+00 0.000000e+00 0.000000e+00 0.000000e+00 0.000000e+00
<ENDHMM>
~h "s"
<BEGINHMM>
<NUMSTATES> 5
<STATE> 2
<MEAN> 39
 -2.862557e+01 4.987312e+00 8.239474e+00 6.841849e+00 2.620351e+00 -6.977332e+00 -1.225393e+00 3.716689e+00 -3.248651e+00 2.120752e+00 -4.564867e+00 5.356570e+00 1.023058e+02 -8.658961e+00 1.869527e+00 -3.976928e+00 -7.786137e-01 -8.826305e-01 -2.287505e-01 8.514128e-01 1.180403e+00 -2.577503e-02 -5.046068e-01 6.313183e-01 2.814226e-01 9.126066e-01 3.102984e-01 -4.176065e-01 -9.048807e-01 -7.325768e-01 -3.821342e-01 1.631687e-02 -4.287937e-01 -3.796687e-01 -3.965225e-01 2.484357e-01 7.640052e-02 -6.565871e-02 -2.795478e-01
<VARIANCE> 39
 5.774312e+02 2.457150e+02 3.971381e+02 3.251661e+02 3.950721e+02 3.756351e+02 3.335944e+02 2.998307e+02 2.778239e+02 2.310617e+02 2.176841e+02 2.174875e+02 4.977582e+02 5.424579e+01 2.483060e+01 4.575292e+01 4.025684e+01 3.062739e+01 3.736496e+01 3.126060e+01 2.976607e+01 3.231844e+01 2.580224e+01 2.414658e+01 2.306724e+01 3.283345e+01 9.254130e+00 4.873540e+00 5.376475e+00 5.646896e+00 5.557321e+00 5.992411e+00 5.418512e+00 5.629891e+00 5.059711e+00 4.722909e+00 4.393301e+00 4.017832e+00 3.669613e+00
<GCONST> 2.134072e+02
<STATE> 3
<MEAN> 39
 -5.237478e+01 8.234018e+00 -1.038431e+01 1.459835e+00 -4.783173e+00 -1.019961e+01 -1.377624e+00 3.964608e+00 -5.635295e+00 1.261324e+00 -2.991784e+00 6.533915e+00 1.061520e+02 -3.296728e+00 8.108557e-01 -3.598290e+00 -1.383054e+00 -9.406737e-01 4.609874e-01 -7.300971e-01 -6.453726e-01 -7.147642e-01 1.059979e-01 -1.321714e-01 -1.369557e-02 4.247643e-01 2.492768e+00 -5.222931e-01 1.078471e+00 5.999289e-01 4.891495e-01 3.606491e-01 -1.656163e-01 -2.965939e-01 1.663011e-01 1.933336e-01 -2.594332e-01 -1.259654e-01 -5.592252e-01
<VARIANCE> 39
 1.419989e+02 1.492617e+02 1.794459e+02 2.762048e+02 3.594386e+02 2.949411e+02 1.940727e+02 1.781079e+02 1.651837e+02 1.530342e+02 1.633294e+02 1.288582e+02 1.940318e+02 1.994502e+01 1.560128e+01 1.724834e+01 1.520696e+01 1.710334e+01 1.953072e+01 1.875519e+01 1.598551e+01 1.460044e+01 1.437127e+01 1.328047e+01 1.239419e+01 1.355795e+01 2.855680e+00 2.327974e+00 3.659659e+00 2.939175e+00 3.319695e+00 3.499577e+00 3.550954e+00 3.517337e+00 3.222507e+00 3.051530e+00 2.890999e+00 2.767840e+00 1.992429e+00
<GCONST> 1.900150e+02
<STATE> 4
<MEAN> 39
 -5.061474e+01 5.203642e+00 -1.391584e+01 2.390568e+00 -6.244462e+00 -6.064804e+00 -4.257306e+00 3.754608e+00 -6.176305e+00 2.719939e+00 -4.071558e+00 5.667103e+00 1.038935e+02 8.129891e-01 -2.627001e-01 1.917638e-01 -1.253928e-01 3.038781e-02 3.102062e-01 5.056653e-02 -9.750430e-02 8.906405e-02 7.181013e-02 -1.318480e-01 -8.042224e-02 -1.585648e-01 8.414069e-01 -7.005378e-02 7.091693e-01 1.311055e-01 6.520823e-02 -1.708116e-01 5.390156e-02 -3.081322e-02 1.425321e-01 -2.326016e-02 -7.922961e-04 5.095228e-02 3.280474e-02
<VARIANCE> 39
 1.956486e+02 1.396357e+02 1.645057e+02 2.432731e+02 3.033601e+02 2.772724e+02 1.641122e+02 1.483976e+02 1.486287e+02 1.365713e+02 1.442893e+02 1.256833e+02 2.303616e+02 7.996606e+00 5.958149e+00 7.112613e+00 7.812444e+00 9.598313e+00 1.124101e+01 1.138590e+01 1.163380e+01 1.126601e+01 1.141055e+01 1.095676e+01 1.024774e+01 6.996455e+00 1.973258e+00 1.245606e+00 1.860231e+00 1.598779e+00 1.842568e+00 2.254517e+00 2.323133e+00 2.303677e+00 2.259526e+00 2.307674e+00 2.181335e+00 2.092460e+00 1.020237e+00
<GCONST> 1.763456e+02
<TRANSP> 5
 0.000000e+00 1.000000e+00 0.000000e+00 0.000000e+00 0.000000e+00
 0.000000e+00 5.757140e-01 4.242860e-01 0.000000e+00 0.000000e+00
 0.000000e+00 0.000000e+00 5.296873e-01 4.703127e-01 0.000000e+00
 0.000000e+00 0.000000e+00 0.000000e+00 8.515823e-01 1.484177e-01
 0.000000e+00 0.000000e+00 0.000000e+00 0.000000e+00 0.000000e+00
<ENDHMM>
~h "t"
<BEGINHMM>
<NUMSTATES> 5
<STATE> 2
<MEAN> 39
 -1.531638e+01 1.029444e+01 1.553712e+01 1.271142e+01 2.788563e+00 1.605296e+00 -1.716640e+00 -1.111261e+00 -3.837496e+00 1.465430e+00 -1.359784e+00 2.014199e+00 6.239603e+01 -3.388313e+00 -1.427688e+00 -5.267896e+00 -2.043914e+00 -1.859886e-02 -5.896099e-01 -5.308418e-01 5.784726e-01 8.877365e-01 1.785239e-02 1.144205e+00 9.652131e-02 -1.426402e+00 -2.736729e-01 -8.013600e-01 1.030718e+00 -1.524137e+00 -6.739224e-01 -6.168104e-01 -5.416778e-02 -5.217831e-01 -6.849514e-01 1.092308e-01 -3.635949e-01 2.306598e-01 3.791476e+00
<VARIANCE> 39
 2.429525e+02 1.945218e+02 3.558618e+02 2.324703e+02 1.817443e+02 1.906260e+02 2.282124e+02 2.144838e+02 1.966696e+02 1.674216e+02 1.518414e+02 1.314924e+02 4.177678e+02 2.154615e+01 3.355231e+01 5.189446e+01 4.033370e+01 2.636996e+01 2.735752e+01 2.780162e+01 3.081493e+01 3.400797e+01 2.268073e+01 2.148021e+01 1.934410e+01 1.347280e+02 3.474724e+00 6.046328e+00 6.969102e+00 6.382959e+00 4.853077e+00 4.814130e+00 5.238559e+00 5.215896e+00 5.784042e+00 4.230213e+00 3.890303e+00 3.575004e+00 1.306652e+01
<GCONST> 2.081979e+02
<STATE> 3
<MEAN> 39
 -3.423710e+01 -3.169522e-01 5.728713e+00 -1.114727e+01 -3.705612e+00 -8.775586e+00 -3.109811e+00 -4.790638e+00 -1.095829e+01 1.854636e+00 -1.017831e+00 3.525358e+00 1.070916e+02 -4.131798e+00 5.425968e-01 9.851983e-01 -1.841946e+00 -2.428032e+00 -2.757939e+00 1.523678e+00 7.159851e-02 -1.920151e+00 -4.622500e-02 -2.809970e-01 1.608522e+00 1.075742e+01 1.109000e+00 6.061261e-01 1.286729e+00 2.057719e+00 -2.005646e-01 3.963304e-01 6.902857e-01 5.035030e-01 5.950825e-01 7.179500e-02 -1.519879e-01 2.861429e-01 -3.244329e+00
<VARIANCE> 39
 2.204360e+02 2.243235e+02 2.101659e+02 1.875196e+02 1.765276e+02 1.832502e+02 1.910117e+02 1.980348e+02 1.718251e+02 1.549527e+02 1.364204e+02 1.262309e+02 8.711868e+02 1.957449e+01 2.082982e+01 2.266821e+01 2.319182e+01 1.883256e+01 2.345728e+01 2.504487e+01 2.348244e+01 2.063999e+01 1.904158e+01 1.961203e+01 1.558576e+01 1.026604e+02 5.044559e+00 5.165508e+00 4.194214e+00 4.240101e+00 4.026325e+00 3.961026e+00 4.029113e+00 3.821415e+00 4.095663e+00 3.531833e+00 3.341496e+00 3.153033e+00 1.812303e+01
<GCONST> 2.013428e+02
<STATE> 4
<MEAN> 39
 -3.375250e+01 -1.829336e+00 1.372400e+01 -3.604593e+00 -1.176291e+01 -1.239265e+01 6.766127e+00 4.280845e-01 -9.654954e+00 6.675940e-01 -1.577407e+00 9.281375e+00 1.040590e+02 4.022669e+00 -1.214841e+00 2.872773e+00 2.622153e+00 -2.957750e-01 2.540283e-01 9.089084e-01 1.393222e+00 1.041856e+00 -1.703865e-01 -8.471612e-01 2.229531e-01 -1.931975e+00 1.969060e+00 8.957680e-02 5.743179e-01 4.115948e-01 8.615692e-01 3.832796e-01 -6.401423e-01 -1.688839e-01 1.429326e-01 1.250296e-01 -1.718634e-01 -5.147890e-01 -3.256310e-01
<VARIANCE> 39
 2.941006e+02 1.335302e+02 1.966385e+02 1.728969e+02 1.851708e+02 2.556000e+02 2.613882e+02 3.047839e+02 2.126083e+02 1.942480e+02 2.291286e+02 1.745982e+02 5.855753e+02 2.982371e+01 1.232589e+01 2.810352e+01 1.979442e+01 1.682681e+01 1.707780e+01 1.806273e+01 1.838942e+01 1.717621e+01 1.594306e+01 1.608096e+01 1.478224e+01 1.826234e+01 5.854036e+00 2.921382e+00 3.501223e+00 2.918244e+00 3.227327e+00 4.488549e+00 3.838427e+00 3.759606e+00 3.851416e+00 3.614589e+00 3.701696e+00 3.088725e+00 6.378949e+00
<GCONST> 1.974499e+02
<TRANSP> 5
 0.000000e+00 1.000000e+00 0.000000e+00 0.000000e+00 0.000000e+00
 0.000000e+00 7.853118e-01 2.146882e-01 0.000000e+00 0.000000e+00
 0.000000e+00 0.000000e+00 6.205443e-01 3.794558e-01 0.000000e+00
 0.000000e+00 0.000000e+00 0.000000e+00 6.746925e-01 3.253075e-01
 0.000000e+00 0.000000e+00 0.000000e+00 0.000000e+00 0.000000e+00
<ENDHMM>
~h "v"
<BEGINHMM>
<NUMSTATES> 5
<STATE> 2
<MEAN> 39
 1.280563e+01 -2.705810e+01 1.593442e+01 -1.929954e+01 -1.081424e+01 -2.065756e+01 -2.247906e+00 1.227741e+01 1.400634e+01 1.462486e+01 -2.008384e+00 6.335995e+00 1.471452e+02 9.955962e-01 3.217929e-01 1.039098e-01 1.025858e+00 1.016527e+00 2.573394e-01 -6.837268e-01 -1.052752e+00 -7.976874e-01 7.122028e-01 4.050671e-01 -7.943463e-01 -1.673200e+00 -8.781973e-02 1.171180e+00 4.661139e-02 1.468204e+00 1.069669e+00 9.398007e-01 -5.240060e-01 -1.014010e+00 -9.758475e-01 -2.994330e-01 -8.366085e-02 -7.517384e-02 -1.634430e+00
<VARIANCE> 39
 7.360175e+01 1.476834e+02 2.295484e+02 2.164934e+02 2.587718e+02 2.637379e+02 8.612778e+02 2.857244e+02 3.050441e+02 4.665096e+02 3.377673e+02 4.010013e+02 1.668561e+02 2.196529e+00 9.343568e+00 7.531049e+00 1.138568e+01 9.607280e+00 1.140955e+01 1.611484e+01 1.571855e+01 1.559945e+01 1.114205e+01 1.553170e+01 1.206713e+01 7.976204e+00 8.630924e-01 8.977788e-01 1.288413e+00 1.657688e+00 2.039901e+00 2.770471e+00 3.230670e+00 1.939593e+00 2.427352e+00 2.219226e+00 2.092424e+00 2.084366e+00 1.020752e+00
<GCONST> 1.815486e+02
<STATE> 3
<MEAN> 39
 1.899042e+01 -1.656151e+01 1.923980e+01 -1.548851e+00 -3.155540e-01 -1.585078e+01 -1.133037e+01 -5.787323e-02 4.096052e-01 1.626253e+01 4.669151e-01 1.708470e+00 1.267684e+02 -1.470009e+00 6.072700e+00 9.002779e-01 7.488568e+00 5.637492e+00 6.050379e+00 1.193968e-01 -3.018763e+00 -3.891876e+00 -1.493924e+00 4.445057e-01 -2.650461e-01 -9.301847e+00 -1.867236e+00 1.680235e-01 -5.738151e-01 -1.015601e-01 6.389094e-02 1.264518e+00 1.441394e+00 1.227194e+00 5.985216e-01 -6.114529e-01 -2.644603e-01 1.098357e-01 -3.499029e-01
<VARIANCE> 39
 6.282127e+01 1.793933e+02 2.303232e+02 2.871011e+02 2.989846e+02 3.403933e+02 5.008856e+02 3.216398e+02 4.764066e+02 3.458270e+02 3.999916e+02 3.283080e+02 2.711227e+02 1.482490e+01 1.360256e+01 1.635896e+01 1.948968e+01 2.046253e+01 2.414950e+01 3.733068e+01 2.355387e+01 2.726847e+01 2.669041e+01 2.477754e+01 2.173144e+01 1.120087e+01 2.164290e+00 2.650800e+00 2.285022e+00 3.990397e+00 4.283397e+00 5.227229e+00 3.721018e+00 3.430097e+00 4.894785e+00 3.503407e+00 4.083370e+00 3.159359e+00 3.356342e+00
<GCONST> 2.005973e+02
<STATE> 4
<MEAN> 39
 -4.087322e+00 -4.450987e+00 1.363061e+01 1.159167e+01 6.869265e+00 1.231834e+00 3.650753e-04 3.968447e+00 -1.168090e-01 7.139410e+00 -2.473600e+00 3.799484e+00 9.710055e+01 -2.541150e+00 -9.574750e-03 -1.197653e+00 -5.567313e-01 -5.459951e-01 4.437459e-01 5.070004e-01 7.182728e-01 -1.114502e-01 -1.035977e+00 -9.181583e-02 1.361400e-01 -1.723939e+00 7.170879e-01 -1.148073e+00 -1.751603e-01 -1.659928e+00 -1.228620e+00 -1.553979e+00 -3.310600e-01 3.176573e-01 5.326860e-01 1.690119e-01 -3.682197e-02 8.514882e-02 1.784439e+00
<VARIANCE> 39
 3.987961e+02 1.769525e+02 1.901468e+02 2.061676e+02 2.166176e+02 2.437751e+02 2.409930e+02 2.599793e+02 2.683352e+02 2.226299e+02 2.240548e+02 1.961921e+02 3.202819e+02 3.942806e+01 2.185405e+01 1.562525e+01 2.717664e+01 2.372933e+01 3.471726e+01 2.609362e+01 2.101909e+01 2.220029e+01 1.817700e+01 1.843334e+01 1.541851e+01 2.960637e+01 4.735489e+00 4.763407e+00 3.371024e+00 6.366634e+00 5.484162e+00 6.346373e+00 5.415427e+00 4.681452e+00 4.795672e+00 3.961114e+00 3.762464e+00 3.379513e+00 5.490116e+00
<GCONST> 2.038198e+02
<TRANSP> 5
 0.000000e+00 1.000000e+00 0.000000e+00 0.000000e+00 0.000000e+00
 0.000000e+00 7.670430e-01 2.329570e-01 0.000000e+00 0.000000e+00
 0.000000e+00 0.000000e+00 6.086211e-01 3.913789e-01 0.000000e+00
 0.000000e+00 0.000000e+00 0.000000e+00 7.654532e-01 2.345468e-01
 0.000000e+00 0.000000e+00 0.000000e+00 0.000000e+00 0.000000e+00
<ENDHMM>
~h "w"
<BEGINHMM>
<NUMSTATES> 5
<STATE> 2
<MEAN> 39
 3.310468e+01 9.832747e+00 1.867669e+01 -3.633080e+01 -2.264251e+01 -2.389482e+00 -2.838446e+00 1.690207e+01 -4.723444e+00 1.423804e+01 1.611203e+00 -2.818134e-01 1.209899e+02 -4.297970e-01 -4.063142e+00 -3.621407e+00 -6.293433e+00 1.890160e+00 2.738963e+00 2.014043e+00 4.849700e+00 4.682005e-01 -1.874081e+00 7.150645e-01 1.065978e-01 4.196926e+00 -5.446144e-01 -6.679330e-01 -7.504210e-01 9.894277e-01 2.041792e+00 1.569862e+00 4.761469e-01 -6.657132e-01 -6.497362e-01 -9.579138e-01 3.036957e-01 3.405795e-01 -1.840679e-01
<VARIANCE> 39
 4.745447e+01 1.803438e+02 2.298688e+02 3.093382e+02 4.036593e+02 2.703240e+02 5.911213e+02 3.902108e+02 4.449108e+02 3.940259e+02 3.365837e+02 2.826081e+02 1.152127e+02 2.175594e+00 1.015958e+01 8.232819e+00 1.386012e+01 1.847896e+01 1.839479e+01 1.969081e+01 1.892206e+01 2.031153e+01 1.999280e+01 1.621774e+01 1.761143e+01 5.276672e+00 6.072624e-01 1.262954e+00 1.333468e+00 3.091454e+00 2.331290e+00 2.397668e+00 3.867976e+00 4.299959e+00 3.469729e+00 3.218791e+00 3.220381e+00 2.804720e+00 6.490855e-01
<GCONST> 1.869082e+02
<STATE> 3
<MEAN> 39
 2.879804e+01 -7.770061e+00 1.718883e+00 -4.843723e+01 -1.452689e-01 1.775129e+01 4.539882e+00 2.131556e+01 -1.127451e+01 1.710695e+00 9.608749e+00 5.969062e+00 1.338572e+02 -1.489601e+00 -4.621216e+00 -2.681232e+00 1.165678e+00 6.715754e+00 3.504635e+00 -1.986449e+00 -2.639061e+00 -1.049209e+00 1.503218e-01 3.728645e+00 4.673049e-01 2.616179e+00 -1.522941e-01 2.917539e-01 9.066992e-01 2.055388e+00 -2.366322e-01 -1.356998e+00 -1.591798e+00 -9.296886e-01 1.102825e+00 1.379751e+00 -3.000387e-01 -8.982927e-01 -5.249085e-01
<VARIANCE> 39
 5.331051e+01 1.706542e+02 2.194250e+02 2.880804e+02 5.774241e+02 3.168469e+02 5.668344e+02 4.230661e+02 4.015557e+02 4.225237e+02 3.411638e+02 2.925997e+02 1.372291e+02 1.931564e+00 6.890846e+00 5.920676e+00 1.346686e+01 1.146627e+01 1.393825e+01 2.181312e+01 1.772049e+01 2.044716e+01 2.310549e+01 1.462799e+01 1.917253e+01 3.410490e+00 2.763875e-01 7.034923e-01 9.382592e-01 2.040996e+00 2.632631e+00 2.589156e+00 2.485318e+00 3.858463e+00 3.551052e+00 3.125013e+00 4.079260e+00 2.966121e+00 2.953907e-01
<GCONST> 1.827183e+02
<STATE> 4
<MEAN> 39
 2.022516e+01 -2.479622e+01 -9.419943e-02 -2.621068e+01 2.213921e+01 9.057106e+00 -1.140742e+01 1.583140e+01 3.011042e+00 1.078301e+01 1.021143e+01 -3.052893e+00 1.397963e+02 -1.393317e+00 -1.520052e+00 2.182154e+00 4.629825e+00 -4.615166e-01 -3.894168e+00 -1.900159e+00 1.445075e+00 2.917154e+00 2.222651e-01 -2.856018e+00 -4.871015e-01 3.624208e-01 1.574416e-01 9.597231e-01 8.802417e-01 5.260653e-02 -1.242137e+00 -6.388130e-01 1.232851e+00 4.757152e-01 -6.049951e-01 -5.479793e-01 -7.952931e-01 7.980587e-01 -6.966926e-01
<VARIANCE> 39
 7.106402e+01 1.449929e+02 2.052935e+02 3.039503e+02 4.293263e+02 4.018410e+02 4.579723e+02 4.606750e+02 4.377292e+02 3.616301e+02 3.948708e+02 3.146573e+02 1.519345e+02 1.715832e+00 5.871558e+00 6.176651e+00 9.546357e+00 1.724225e+01 1.164180e+01 2.124452e+01 1.705194e+01 1.899501e+01 2.427167e+01 1.674509e+01 2.231484e+01 2.203507e+00 2.507033e-01 7.451808e-01 9.634287e-01 1.390892e+00 2.323256e+00 2.540940e+00 2.814255e+00 3.361419e+00 3.704559e+00 2.820217e+00 4.460382e+00 3.202882e+00 4.033443e-01
<GCONST> 1.821658e+02
<TRANSP> 5
 0.000000e+00 1.000000e+00 0.000000e+00 0.000000e+00 0.000000e+00
 0.000000e+00 6.966892e-01 3.033108e-01 0.000000e+00 0.000000e+00
 0.000000e+00 0.000000e+00 7.611656e-01 2.388344e-01 0.000000e+00
 0.000000e+00 0.000000e+00 0.000000e+00 8.195102e-01 1.804899e-01
 0.000000e+00 0.000000e+00 0.000000e+00 0.000000e+00 0.000000e+00
<ENDHMM>
~h "z"
<BEGINHMM>
<NUMSTATES> 5
<STATE> 2
<MEAN> 39
 -9.576583e+00 1.337563e+01 1.908533e+01 1.641038e+01 7.728740e+00 -4.674251e+00 -2.394379e+00 2.135237e+00 -8.296832e-01 2.225008e+00 -8.208850e+00 6.009747e+00 9.116045e+01 -2.563545e+00 5.046678e+00 -2.780567e-01 2.631215e+00 2.055379e+00 8.665525e-01 5.398558e-01 7.618912e-01 4.721157e-01 -1.413989e-01 -8.455408e-02 2.804014e-01 3.080215e+00 -8.500346e-01 1.613910e-01 -6.873469e-01 -2.600119e-01 -1.036171e-01 1.931638e-01 5.085656e-02 1.172544e-01 -1.953060e-01 2.508642e-01 3.137949e-01 -1.434804e-01 2.169286e-01
<VARIANCE> 39
 3.379204e+02 2.428368e+02 3.383593e+02 3.202512e+02 3.496366e+02 3.116007e+02 3.080177e+02 2.753251e+02 2.530512e+02 2.746185e+02 2.779067e+02 3.387116e+02 7.121896e+02 4.695513e+01 2.534012e+01 3.618980e+01 3.143142e+01 2.600614e+01 3.128846e+01 2.699600e+01 2.654712e+01 2.345790e+01 2.452648e+01 2.341535e+01 2.064789e+01 3.751737e+01 4.692654e+00 3.697420e+00 4.856377e+00 4.049530e+00 4.180194e+00 4.567136e+00 4.533936e+00 4.605447e+00 3.863959e+00 4.504206e+00 4.068765e+00 4.028590e+00 3.902827e+00
<GCONST> 2.090930e+02
<STATE> 3
<MEAN> 39
 -3.193979e+01 3.281508e+01 9.863013e+00 2.569082e+01 1.343643e+01 4.210895e+00 2.639478e+00 7.104517e+00 -9.637786e-01 5.447315e+00 -4.124140e+00 6.647830e+00 1.085963e+02 -3.766333e+00 3.949341e-01 -1.631575e+00 -3.828403e-01 -4.065368e-03 7.872753e-01 6.716268e-01 4.293433e-01 -3.214485e-01 3.768387e-01 5.205440e-01 -3.028904e-02 1.101725e+00 1.578700e+00 -1.256378e+00 1.113222e+00 -5.799392e-01 -7.826107e-01 -7.171454e-01 -2.887685e-01 -7.037667e-01 -3.255315e-01 -2.847105e-01 -2.580242e-01 9.849662e-02 3.117690e-01
<VARIANCE> 39
 2.395438e+02 1.799382e+02 2.633889e+02 3.855231e+02 4.103522e+02 3.504099e+02 2.500045e+02 2.278898e+02 1.609052e+02 1.654771e+02 2.503484e+02 1.912903e+02 1.681534e+02 1.910275e+01 1.762509e+01 1.705497e+01 1.524306e+01 1.583916e+01 1.816569e+01 1.587401e+01 1.696218e+01 1.363899e+01 1.426062e+01 1.197003e+01 1.271894e+01 1.022676e+01 2.872618e+00 3.451906e+00 3.049863e+00 3.038849e+00 3.226906e+00 3.991976e+00 3.565848e+00 3.684698e+00 2.897382e+00 2.940482e+00 2.520720e+00 2.542542e+00 1.745586e+00
<GCONST> 1.922621e+02
<STATE> 4
<MEAN> 39
 -2.836226e+01 2.379246e+01 1.853202e+01 1.703629e+01 7.331192e+00 -5.161374e+00 -2.170836e+00 -9.776044e-01 -6.508559e+00 1.822935e+00 -7.461332e+00 5.283612e+00 1.216066e+02 7.601771e+00 -4.765156e+00 7.673835e+00 -1.475478e+00 -3.158025e+00 -3.537358e+00 -2.467621e+00 -2.902796e+00 -1.752532e+00 -1.433686e+00 -1.111529e+00 5.104891e-01 4.528574e+00 1.482215e+00 -1.671553e+00 1.574605e+00 -7.332978e-01 -2.124386e-01 -2.478761e-01 -4.091658e-01 1.474454e-01 -1.353958e-01 1.842200e-01 2.049787e-02 1.887316e-01 1.443362e-01
<VARIANCE> 39
 3.055450e+02 1.732662e+02 3.503585e+02 3.124257e+02 4.887007e+02 3.102032e+02 2.815247e+02 1.960930e+02 1.474986e+02 1.690462e+02 2.916219e+02 2.315231e+02 1.707211e+02 2.534066e+01 2.906524e+01 3.549612e+01 2.879233e+01 2.016625e+01 2.654407e+01 2.352326e+01 3.025100e+01 1.892589e+01 1.627673e+01 1.616290e+01 1.906161e+01 6.103831e+00 5.311126e+00 3.135521e+00 5.303767e+00 4.691061e+00 4.084021e+00 4.309489e+00 4.240633e+00 4.437840e+00 3.436752e+00 3.532252e+00 3.321814e+00 3.038763e+00 1.061475e+00
<GCONST> 1.997384e+02
<TRANSP> 5
 0.000000e+00 1.000000e+00 0.000000e+00 0.000000e+00 0.000000e+00
 0.000000e+00 7.215680e-01 2.784320e-01 0.000000e+00 0.000000e+00
 0.000000e+00 0.000000e+00 8.068445e-01 1.931554e-01 0.000000e+00
 0.000000e+00 0.000000e+00 0.000000e+00 7.552037e-01 2.447963e-01
 0.000000e+00 0.000000e+00 0.000000e+00 0.000000e+00 0.000000e+00
<ENDHMM>
~h "ah"
<BEGINHMM>
<NUMSTATES> 5
<STATE> 2
<MEAN> 39
 1.776731e+01 -1.899428e+01 1.847472e+01 -8.858060e+00 6.606588e+00 -8.307770e+00 -1.298818e+01 1.136161e+01 7.356155e-01 1.247005e+01 1.778895e+00 1.733099e+00 1.326324e+02 -1.305053e-01 7.082700e-01 2.608711e+00 8.806629e-01 -1.382893e+00 -2.136365e+00 2.148636e+00 1.606692e+00 -1.454281e-01 -4.465212e-01 -2.147724e+00 1.282857e+00 -1.649236e-01 4.747217e-02 1.100821e+00 4.792999e-01 1.177483e+00 -6.921607e-02 1.100792e+00 1.295817e+00 -1.399780e+00 -6.331791e-01 -1.145664e-02 -3.802116e-01 3.188769e-01 -1.350520e+00
<VARIANCE> 39
 7.233335e+01 1.455157e+02 1.742626e+02 2.285865e+02 2.436600e+02 3.860768e+02 6.021568e+02 4.471279e+02 5.079239e+02 4.453716e+02 3.747323e+02 3.500573e+02 1.820961e+02 3.907474e+00 1.266691e+01 1.201268e+01 3.479257e+01 1.786270e+01 2.133186e+01 2.884594e+01 2.597618e+01 3.048536e+01 2.587307e+01 2.845492e+01 2.094188e+01 2.038411e+01 9.523947e-01 2.232465e+00 1.782407e+00 4.702903e+00 3.516930e+00 5.661132e+00 7.117781e+00 6.406696e+00 5.814521e+00 4.542160e+00 4.137727e+00 3.428741e+00 3.321199e+00
<GCONST> 2.001972e+02
<STATE> 3
<MEAN> 39
 1.754757e+01 -1.021378e+01 2.830062e+01 3.475731e+00 4.188334e+00 -1.122650e+01 5.222748e+00 1.065793e+01 -2.084081e+00 7.815395e+00 -8.916613e+00 1.068480e+01 1.230118e+02 7.812587e-01 5.102582e+00 4.401579e+00 6.841717e+00 -3.047663e+00 3.460751e+00 6.439403e+00 -7.513686e+00 -1.562750e+00 -7.309138e-01 -2.101111e+00 2.571781e+00 -5.987763e+00 7.500226e-02 1.807331e-01 -5.624217e-01 -2.126709e-01 -2.088820e-01 1.577985e+00 -2.485011e-01 -1.184048e+00 6.531109e-01 -4.588606e-02 7.891134e-01 -2.672510e-01 -1.891305e-01
<VARIANCE> 39
 5.639390e+01 1.657563e+02 2.091000e+02 3.388696e+02 2.642533e+02 4.144437e+02 5.685258e+02 5.130397e+02 4.270699e+02 5.326483e+02 3.937394e+02 3.978322e+02 1.719995e+02 5.141468e+00 9.007430e+00 1.588518e+01 2.198385e+01 2.241138e+01 4.286696e+01 4.943585e+01 4.186335e+01 3.770641e+01 2.979455e+01 3.454626e+01 2.670447e+01 4.974942e+00 5.861104e-01 1.512368e+00 2.520638e+00 4.392221e+00 2.887021e+00 4.832247e+00 5.123430e+00 6.879469e+00 4.419264e+00 3.903781e+00 3.613636e+00 3.254089e+00 1.537210e+00
<GCONST> 1.994935e+02
<STATE> 4
<MEAN> 39
 1.953483e+01 2.828464e+00 3.577791e+01 1.647298e+01 -5.458352e+00 7.379551e+00 1.676172e+01 -1.001568e+01 -1.600716e+00 4.696493e+00 -7.401140e+00 1.468348e+01 1.084078e+02 -1.188143e-01 2.405892e+00 6.563889e-01 1.888412e+00 -5.338065e-01 2.414904e+00 1.683192e+00 -1.711931e+00 1.552812e-01 -3.853558e-01 -2.635604e-01 7.184751e-02 -2.810825e+00 -4.645006e-01 -4.933032e-01 -8.516330e-01 -7.625821e-01 8.793073e-01 -6.633837e-01 -9.220421e-01 1.675537e+00 1.208246e-01 1.022834e-01 1.993763e-01 -6.123503e-01 3.648017e-01
<VARIANCE> 39
 4.886186e+01 1.844404e+02 1.371775e+02 2.553402e+02 2.522599e+02 4.087401e+02 4.878886e+02 4.085021e+02 5.243569e+02 5.818817e+02 5.475865e+02 4.938878e+02 1.666621e+02 2.778201e+00 6.808380e+00 8.396622e+00 1.092739e+01 1.183496e+01 1.968191e+01 2.058121e+01 2.596426e+01 1.553535e+01 1.353453e+01 1.558371e+01 1.385552e+01 4.189726e+00 6.528230e-01 1.396602e+00 1.751819e+00 2.887887e+00 2.396327e+00 3.702649e+00 4.548483e+00 4.344607e+00 3.826241e+00 3.197430e+00 3.711228e+00 3.302063e+00 1.027786e+00
<GCONST> 1.883256e+02
<TRANSP> 5
 0.000000e+00 1.000000e+00 0.000000e+00 0.000000e+00 0.000000e+00
 0.000000e+00 7.096689e-01 2.903311e-01 0.000000e+00 0.000000e+00
 0.000000e+00 0.000000e+00 5.389475e-01 4.610526e-01 0.000000e+00
 0.000000e+00 0.000000e+00 0.000000e+00 7.535878e-01 2.464122e-01
 0.000000e+00 0.000000e+00 0.000000e+00 0.000000e+00 0.000000e+00
<ENDHMM>
~h "ao"
<BEGINHMM>
<NUMSTATES> 5
<STATE> 2
<MEAN> 39
 3.268980e+01 1.332761e+01 1.252539e+01 -3.639938e+01 -1.818382e+01 4.894853e-01 3.710285e-01 7.336399e+00 -1.311491e+01 5.077683e+00 -8.597133e+00 2.586921e+00 1.184897e+02 9.455976e+00 4.817972e+00 4.025658e+00 -1.024001e+01 -5.940110e+00 -1.392792e+00 -6.343386e-01 2.578803e+00 -1.805681e+00 1.175377e+00 -1.585837e+00 -1.065862e+00 4.170616e+00 -4.193671e+00 -2.109189e+00 -9.715870e-01 2.057469e+00 6.188469e-01 -2.991358e-01 -9.654856e-01 -4.365948e-01 3.401505e-01 2.278641e-01 3.700913e-01 -1.085027e-01 -8.498400e-01
<VARIANCE> 39
 8.597239e+01 1.393655e+02 1.814322e+02 4.223118e+02 4.200166e+02 2.800757e+02 3.292886e+02 3.308257e+02 3.051379e+02 2.549823e+02 2.320577e+02 3.224474e+02 1.626134e+02 3.726528e+01 2.364784e+01 2.207952e+01 3.450691e+01 3.560839e+01 2.568703e+01 3.632143e+01 3.120398e+01 3.144856e+01 3.033797e+01 2.535426e+01 3.345834e+01 1.123287e+01 2.053190e+00 2.214938e+00 2.263066e+00 5.792362e+00 4.149944e+00 2.763549e+00 3.357664e+00 3.548013e+00 3.571053e+00 2.830027e+00 2.925238e+00 3.557552e+00 2.231737e+00
<GCONST> 2.009201e+02
<STATE> 3
<MEAN> 39
 3.552035e+01 1.675315e+01 1.699422e+01 -4.634424e+01 -2.720979e+01 -3.112236e+00 -3.810660e+00 1.024692e+01 -1.205066e+01 1.033988e+01 -9.317450e+00 -3.012643e-01 1.212325e+02 1.718206e-01 -3.858555e-01 -6.500743e-01 3.385280e-01 -4.578167e-01 -5.081105e-01 5.941279e-01 4.616241e-01 -6.320906e-01 6.288562e-02 3.183702e-01 1.154285e-01 8.806401e-02 -4.116816e-01 -7.534078e-01 -7.983200e-01 9.097137e-01 7.911596e-01 1.434273e-01 3.602161e-01 -1.437191e-01 -3.461812e-01 -2.939501e-01 3.798654e-01 3.989420e-01 -5.097503e-02
<VARIANCE> 39
 5.352531e+01 1.685054e+02 2.516312e+02 3.300983e+02 4.963466e+02 3.541943e+02 5.126759e+02 3.642185e+02 3.818346e+02 3.647364e+02 3.028380e+02 3.739642e+02 1.393367e+02 1.013142e+00 7.335668e+00 7.037658e+00 6.190408e+00 6.397137e+00 7.559254e+00 1.183240e+01 1.004463e+01 1.123748e+01 9.553172e+00 9.101463e+00 8.617551e+00 2.891232e+00 1.164196e+00 9.045632e-01 1.071628e+00 2.343996e+00 1.648872e+00 1.401867e+00 1.880876e+00 1.977206e+00 2.099250e+00 2.095073e+00 2.113233e+00 2.130053e+00 7.266102e-01
<GCONST> 1.750715e+02
<STATE> 4
<MEAN> 39
 3.767989e+01 -3.400693e+00 -8.963936e+00 -3.007217e+01 -5.575671e+00 -7.876578e+00 -2.931593e+00 1.341823e+01 -2.306791e+01 5.636117e+00 2.801020e+00 1.131960e+01 1.272836e+02 1.065110e-01 -3.461323e+00 -4.118587e+00 3.720023e+00 6.077538e+00 -1.293642e+00 -2.401199e+00 -6.892454e-01 4.756673e-01 5.716949e-01 1.926365e+00 1.548567e+00 6.452199e-01 -1.691468e-01 3.083661e-01 5.836713e-01 4.577970e-01 2.508947e-01 -3.498866e-01 -8.237951e-01 -9.971870e-02 1.187732e+00 3.488984e-01 -4.287074e-01 -6.042262e-01 -3.984410e-01
<VARIANCE> 39
 5.992432e+01 2.446711e+02 3.274946e+02 3.123197e+02 6.653618e+02 4.768612e+02 8.701904e+02 6.407988e+02 5.012568e+02 7.195534e+02 4.045467e+02 3.750704e+02 1.691239e+02 1.677768e+00 7.944035e+00 1.162095e+01 1.422622e+01 1.718585e+01 2.261076e+01 2.392956e+01 2.679847e+01 2.908607e+01 3.497297e+01 2.805691e+01 3.526285e+01 3.230709e+00 2.893364e-01 9.511601e-01 1.685720e+00 1.597863e+00 3.013032e+00 2.966012e+00 3.468878e+00 4.493003e+00 3.942716e+00 5.505745e+00 4.663672e+00 5.087971e+00 3.271515e-01
<GCONST> 1.934435e+02
<TRANSP> 5
 0.000000e+00 1.000000e+00 0.000000e+00 0.000000e+00 0.000000e+00
 0.000000e+00 5.981001e-01 4.019000e-01 0.000000e+00 0.000000e+00
 0.000000e+00 0.000000e+00 8.715981e-01 1.284019e-01 0.000000e+00
 0.000000e+00 0.000000e+00 0.000000e+00 8.500931e-01 1.499069e-01
 0.000000e+00 0.000000e+00 0.000000e+00 0.000000e+00 0.000000e+00
<ENDHMM>
~h "ay"
<BEGINHMM>
<NUMSTATES> 5
<STATE> 2
<MEAN> 39
 1.771153e+01 -3.223285e+01 -4.886673e-01 -2.366368e+01 9.975907e+00 6.069622e+00 -4.789450e+00 1.414058e+01 7.692789e+00 1.149321e+01 6.609706e-01 -1.067349e+00 1.459838e+02 -4.479814e-01 -1.896127e+00 -2.314286e+00 -1.156957e-01 2.251429e+00 2.387225e+00 -8.629286e-01 -1.203322e-01 1.019322e+00 -7.029026e-01 3.177364e-01 -1.411323e+00 9.606966e-01 -1.418949e-01 1.108629e+00 9.219655e-01 1.171932e+00 -3.087119e-01 -2.646880e-01 1.103919e-01 -6.591333e-01 -4.961128e-01 -8.715957e-02 -1.427200e-01 1.668674e-01 -1.313494e+00
<VARIANCE> 39
 7.989400e+01 1.573120e+02 2.850923e+02 3.687530e+02 4.277065e+02 3.712243e+02 4.340846e+02 4.418463e+02 4.023159e+02 4.285837e+02 4.561184e+02 3.659699e+02 1.162260e+02 2.561329e+00 5.176105e+00 8.430446e+00 9.982092e+00 1.094925e+01 1.157748e+01 1.686704e+01 1.236967e+01 1.410728e+01 1.367774e+01 1.539724e+01 1.361422e+01 2.571241e+00 1.042699e+00 1.102117e+00 1.181468e+00 2.423138e+00 2.051487e+00 2.384703e+00 3.418426e+00 3.530788e+00 2.858842e+00 2.456569e+00 2.600822e+00 1.946590e+00 1.186506e+00
<GCONST> 1.834207e+02
<STATE> 3
<MEAN> 39
 1.639128e+01 -3.582131e+01 -2.747638e+00 -2.169281e+01 1.381984e+01 1.013261e+01 -7.111103e+00 1.309105e+01 9.134022e+00 1.028774e+01 -7.747550e-01 -4.449300e+00 1.458539e+02 -2.083502e-01 -3.113299e-01 6.035417e-01 9.458826e-01 -2.407002e-01 -9.426157e-01 -8.941389e-02 6.978531e-01 3.485850e-01 -4.448005e-01 -4.502065e-01 4.511924e-02 -1.536045e-01 -1.424577e-02 1.456354e-01 3.610831e-01 1.053106e-01 -4.162198e-01 -4.534371e-01 2.084694e-01 1.792407e-01 -6.959203e-02 -4.982792e-02 -4.670443e-02 2.379995e-01 -7.032619e-02
<VARIANCE> 39
 7.321687e+01 1.632499e+02 2.252189e+02 3.754774e+02 4.755220e+02 3.489911e+02 3.660993e+02 4.294430e+02 3.643045e+02 3.593121e+02 4.116848e+02 3.924262e+02 1.465546e+02 7.924434e-01 1.558453e+00 2.707038e+00 3.392991e+00 4.503126e+00 6.051784e+00 5.380939e+00 4.618686e+00 4.585139e+00 4.772573e+00 5.070646e+00 4.988884e+00 6.949180e-01 1.278510e-01 2.426120e-01 3.435028e-01 4.380225e-01 5.694827e-01 6.326091e-01 8.120276e-01 6.860710e-01 7.395700e-01 7.566112e-01 7.665429e-01 7.587761e-01 9.663683e-02
<GCONST> 1.496249e+02
<STATE> 4
<MEAN> 39
 1.268934e+01 -3.250249e+01 1.557274e+01 -1.235108e+01 -1.383609e+00 -7.521784e+00 1.616065e+00 2.317798e+01 7.046076e+00 3.623478e+00 -2.395144e+00 3.869082e+00 1.419025e+02 -5.449176e-01 2.211134e+00 4.206815e+00 1.459717e-01 -3.655482e+00 -2.317822e+00 2.317414e+00 -1.725846e-01 -1.906856e+00 4.129274e-01 7.733912e-01 1.430058e+00 -1.276652e+00 2.020101e-01 6.814772e-01 1.345113e-01 6.852830e-03 3.000178e-01 3.994454e-01 -1.356991e-01 -9.433689e-01 -3.641170e-01 4.949000e-01 8.958499e-02 -1.462214e-01 -5.602643e-01
<VARIANCE> 39
 7.506378e+01 1.933935e+02 3.795136e+02 2.580997e+02 4.261984e+02 2.680856e+02 5.286737e+02 3.262427e+02 3.833911e+02 3.649757e+02 3.310849e+02 3.383383e+02 1.930929e+02 1.712993e+00 4.556054e+00 6.305335e+00 1.000770e+01 1.168469e+01 1.442765e+01 1.811223e+01 1.639267e+01 1.461468e+01 1.404488e+01 1.223837e+01 1.273899e+01 1.873235e+00 2.888963e-01 5.566169e-01 1.050547e+00 1.561575e+00 1.926504e+00 1.531701e+00 2.356721e+00 2.028578e+00 2.176006e+00 2.015932e+00 2.055281e+00 1.945245e+00 3.520577e-01
<GCONST> 1.763513e+02
<TRANSP> 5
 0.000000e+00 1.000000e+00 0.000000e+00 0.000000e+00 0.000000e+00
 0.000000e+00 6.857348e-01 3.142652e-01 0.000000e+00 0.000000e+00
 0.000000e+00 0.000000e+00 9.003568e-01 9.964323e-02 0.000000e+00
 0.000000e+00 0.000000e+00 0.000000e+00 8.035834e-01 1.964166e-01
 0.000000e+00 0.000000e+00 0.000000e+00 0.000000e+00 0.000000e+00
<ENDHMM>
~h "eh"
<BEGINHMM>
<NUMSTATES> 5
<STATE> 2
<MEAN> 39
 -5.087027e+01 7.028691e+00 -1.298773e+01 -1.244874e+00 -7.272639e+00 -7.134852e+00 -3.395702e+00 1.983808e+00 -5.774296e+00 1.556989e+00 -4.700158e+00 7.442184e+00 1.115132e+02 8.884564e+00 -4.762199e-01 6.102008e+00 4.908752e-01 -2.683901e-01 -2.102269e+00 -5.636381e-01 -5.825490e-01 1.620593e+00 1.690557e-01 -7.300287e-01 1.252936e+00 2.267473e+00 4.346017e+00 -1.028355e+00 2.459506e+00 -1.604256e-01 1.896285e-01 -1.111871e+00 -8.589199e-01 -2.568994e-01 8.625684e-01 6.792313e-01 -1.404738e-01 3.339759e-01 1.730766e+00
<VARIANCE> 39
 1.354522e+02 1.075253e+02 1.283961e+02 2.080922e+02 2.628347e+02 2.711790e+02 1.384727e+02 1.393639e+02 1.521041e+02 1.257167e+02 1.705942e+02 1.235344e+02 1.146055e+02 3.305153e+01 1.224360e+01 1.845777e+01 1.266899e+01 1.091516e+01 1.566309e+01 1.356678e+01 1.272791e+01 1.416100e+01 1.852375e+01 1.495675e+01 1.558873e+01 1.004360e+01 1.766551e+00 1.995767e+00 2.175120e+00 2.617410e+00 2.716149e+00 4.477136e+00 4.959555e+00 2.788830e+00 4.468211e+00 4.211008e+00 3.208139e+00 3.857053e+00 1.395285e+00
<GCONST> 1.860412e+02
<STATE> 3
<MEAN> 39
 -1.622466e+01 8.471259e+00 1.055063e+01 5.605367e+00 -4.367335e+00 -1.243132e+01 -6.209751e+00 -6.532392e-01 2.776355e-01 4.581847e+00 -8.229077e+00 9.400400e+00 1.161553e+02 1.767997e+01 -5.103203e+00 9.760009e+00 -1.722937e+00 -1.790401e-01 -4.495937e+00 -3.945313e+00 -1.130132e+00 3.066034e+00 2.768198e+00 -3.784428e-01 1.302255e+00 8.407729e+00 -8.580047e-01 -2.145241e+00 -1.231180e+00 -2.026723e+00 -5.383011e-01 -2.708438e-01 -2.258603e-01 8.758075e-01 4.546043e-01 7.113467e-01 6.741606e-01 -2.845623e-01 1.788013e+00
<VARIANCE> 39
 4.490567e+02 1.016125e+02 1.709902e+02 1.721915e+02 2.972135e+02 2.116849e+02 1.757467e+02 1.716102e+02 1.745832e+02 2.294283e+02 2.334691e+02 2.278853e+02 1.689849e+02 1.237356e+01 1.683802e+01 1.894809e+01 2.710517e+01 2.339838e+01 4.669639e+01 5.775760e+01 2.191990e+01 4.384192e+01 4.194756e+01 2.738031e+01 4.194399e+01 9.786533e+00 6.592592e+00 2.053924e+00 3.620345e+00 2.120101e+00 2.873281e+00 3.371501e+00 6.287801e+00 2.732188e+00 3.645076e+00 3.272440e+00 3.116387e+00 3.001475e+00 1.756843e+00
<GCONST> 1.982705e+02
<STATE> 4
<MEAN> 39
 1.239473e+01 -1.492170e+01 2.335181e+01 -1.070681e+01 -9.023049e+00 -2.518298e+01 -1.792918e+01 -4.086789e-01 6.961442e+00 1.288864e+01 -5.737854e+00 1.262740e+01 1.441685e+02 5.563048e+00 -7.361888e+00 1.560232e+00 -5.942335e+00 -1.845855e+00 -2.503623e+00 -2.311980e-01 2.965125e+00 3.652127e+00 2.725312e+00 1.630087e+00 3.926062e-02 7.399750e+00 -4.490714e+00 6.243627e-01 -2.919753e+00 -6.053934e-02 4.881584e-02 1.567677e+00 1.838237e+00 1.068618e+00 -3.609087e-01 -4.470198e-01 2.511657e-01 -8.582721e-01 -1.914827e+00
<VARIANCE> 39
 5.268360e+01 1.393405e+02 1.768872e+02 2.344966e+02 3.094638e+02 2.511879e+02 6.842675e+02 2.766892e+02 3.508994e+02 4.782528e+02 4.031698e+02 5.346545e+02 1.210131e+02 3.580380e+01 1.087565e+01 2.246915e+01 1.765344e+01 1.970566e+01 2.560913e+01 6.324880e+01 1.768506e+01 2.514779e+01 2.218062e+01 1.994982e+01 2.042423e+01 1.194428e+01 1.613211e+00 2.454009e+00 2.218433e+00 3.214672e+00 2.716741e+00 4.864510e+00 5.035542e+00 2.803135e+00 5.021128e+00 4.033717e+00 3.637145e+00 4.942849e+00 1.172443e+00
<GCONST> 1.983624e+02
<TRANSP> 5
 0.000000e+00 1.000000e+00 0.000000e+00 0.000000e+00 0.000000e+00
 0.000000e+00 5.787863e-01 4.212137e-01 0.000000e+00 0.000000e+00
 0.000000e+00 0.000000e+00 4.121171e-01 5.878829e-01 0.000000e+00
 0.000000e+00 0.000000e+00 0.000000e+00 5.978810e-01 4.021190e-01
 0.000000e+00 0.000000e+00 0.000000e+00 0.000000e+00 0.000000e+00
<ENDHMM>
~h "ey"
<BEGINHMM>
<NUMSTATES> 5
<STATE> 2
<MEAN> 39
 -9.461861e+00 -6.619867e+00 1.559238e+01 -7.014956e+00 -1.539457e+01 -1.699130e+01 -5.999301e+00 -1.830812e+00 -1.757903e+00 7.778548e+00 -1.144264e+00 6.885986e+00 9.022575e+01 1.274113e+00 -2.390557e+00 3.759558e+00 -2.039479e+00 -2.475017e+00 -1.276500e+00 1.574248e+00 1.353298e+00 8.461682e-01 8.669769e-01 3.496632e-01 5.206172e-01 6.244917e+00 5.512515e-01 -1.408961e-01 8.280890e-01 -4.486759e-01 8.752456e-02 3.375986e-01 3.928309e-01 5.223998e-02 -2.400144e-01 1.257022e-01 4.110873e-02 4.056472e-02 1.731494e+00
<VARIANCE> 39
 3.739873e+02 2.478910e+02 4.265434e+02 3.688036e+02 3.580997e+02 4.082514e+02 5.189071e+02 4.814823e+02 4.234136e+02 3.467248e+02 2.814961e+02 2.772408e+02 1.244737e+03 3.357264e+01 2.093892e+01 4.030520e+01 3.588113e+01 3.278853e+01 3.949160e+01 4.725744e+01 4.059118e+01 3.742588e+01 3.137018e+01 2.883003e+01 2.647895e+01 1.214528e+02 4.570401e+00 3.858998e+00 5.396283e+00 5.334788e+00 6.239557e+00 6.952090e+00 8.247033e+00 7.493933e+00 6.800798e+00 5.808671e+00 5.516882e+00 5.112785e+00 1.566824e+01
<GCONST> 2.206446e+02
<STATE> 3
<MEAN> 39
 2.212290e+00 -1.435729e+01 5.249072e+01 -2.320205e+01 -2.254827e+01 -1.530841e+01 3.379475e-01 -1.822173e+00 -6.260536e+00 1.202965e+01 -7.515141e-01 9.446009e+00 1.407476e+02 3.430972e-03 1.124910e+00 3.006156e+00 -2.733843e-01 4.752183e-01 1.059140e+00 -7.083383e-01 -1.744731e+00 -1.135472e+00 -4.368348e-01 -6.629513e-01 -1.550247e-01 1.129383e+00 -2.920915e-01 4.257264e-01 -2.932545e-01 4.950961e-01 4.448643e-01 2.356928e-01 -1.433010e-01 -2.055877e-01 -7.598337e-02 -2.592717e-01 -2.460928e-01 -1.428179e-01 -1.220905e+00
<VARIANCE> 39
 6.869046e+01 2.063045e+02 3.767011e+02 4.364333e+02 2.092449e+02 2.941971e+02 5.260305e+02 3.820950e+02 6.482839e+02 2.709209e+02 1.963546e+02 1.955956e+02 1.668085e+02 5.894983e+00 7.310028e+00 9.143963e+00 8.765441e+00 9.070778e+00 9.439487e+00 1.269229e+01 1.102147e+01 1.212326e+01 1.070274e+01 8.885917e+00 1.014790e+01 3.084244e+01 8.755844e-01 9.694885e-01 1.469982e+00 1.411858e+00 1.237922e+00 1.487189e+00 1.972225e+00 1.653125e+00 1.661730e+00 1.545984e+00 1.355478e+00 1.356757e+00 3.140939e+00
<GCONST> 1.796241e+02
<STATE> 4
<MEAN> 39
 -3.441745e+00 6.787610e+00 7.075182e+01 -1.018982e+01 -7.843218e+00 -4.966108e-01 -4.372826e+00 -2.005490e+01 -1.390036e+01 5.388004e-01 -1.297611e+01 5.305717e+00 1.189269e+02 -3.980387e-01 2.652607e+00 -3.070604e+00 5.147673e+00 1.843830e+00 1.335732e+00 1.069535e+00 7.529731e-01 2.130105e-01 -1.035932e+00 -2.786297e-01 -9.800887e-01 -7.856664e+00 -2.179260e-01 -2.896263e-02 -2.375736e+00 5.507699e-01 3.409595e-02 -2.746785e-01 9.151499e-02 9.658982e-01 6.516588e-01 2.265083e-01 7.989848e-01 4.763150e-02 -1.388101e+00
<VARIANCE> 39
 7.028625e+01 2.402688e+02 2.342716e+02 5.713237e+02 2.705240e+02 3.175798e+02 3.147946e+02 5.579293e+02 6.693958e+02 3.805541e+02 3.364402e+02 4.354006e+02 3.819203e+02 6.449276e+00 1.217725e+01 4.787267e+01 2.485515e+01 1.862264e+01 1.742124e+01 2.193735e+01 2.846944e+01 3.070806e+01 2.091893e+01 2.142603e+01 2.148928e+01 3.061273e+01 1.449893e+00 2.149845e+00 4.428849e+00 4.725268e+00 3.180910e+00 3.053849e+00 3.682836e+00 4.648325e+00 4.613719e+00 3.655120e+00 3.595839e+00 3.799315e+00 3.197238e+00
<GCONST> 2.025179e+02
<TRANSP> 5
 0.000000e+00 1.000000e+00 0.000000e+00 0.000000e+00 0.000000e+00
 0.000000e+00 7.853330e-01 2.146669e-01 0.000000e+00 0.000000e+00
 0.000000e+00 0.000000e+00 9.113175e-01 8.868257e-02 0.000000e+00
 0.000000e+00 0.000000e+00 0.000000e+00 8.414386e-01 1.585614e-01
 0.000000e+00 0.000000e+00 0.000000e+00 0.000000e+00 0.000000e+00
<ENDHMM>
~h "hh"
<BEGINHMM>
<NUMSTATES> 5
<STATE> 2
<MEAN> 39
 -3.945247e+00 3.148595e+00 3.004819e+00 -2.485799e+00 1.414425e+00 5.105050e+00 1.400263e+00 9.817823e-02 -5.384265e+00 4.343818e+00 -2.016022e+00 2.710920e+00 7.900515e+01 2.857473e+00 2.769242e+00 1.279219e+00 2.516846e-01 -5.799685e-01 1.346667e+00 1.736623e+00 6.836504e-01 3.189854e-01 5.299990e-01 8.662190e-02 -2.628117e-01 -6.198331e-01 8.375838e-01 5.422763e-01 7.247103e-01 -1.501322e-01 -6.833748e-01 -5.479382e-01 -4.519111e-02 1.320134e-01 1.038570e-01 2.371068e-01 -9.482299e-02 -4.203130e-02 7.731419e-01
<VARIANCE> 39
 5.882855e+02 2.825373e+02 2.246162e+02 2.465624e+02 2.884343e+02 2.866299e+02 3.244216e+02 2.835326e+02 3.133715e+02 2.348499e+02 2.069508e+02 2.018134e+02 6.424782e+02 2.894062e+01 2.581662e+01 2.424956e+01 2.545147e+01 2.636479e+01 3.150009e+01 2.872436e+01 2.641038e+01 2.440240e+01 2.116131e+01 1.956296e+01 1.614923e+01 2.318718e+01 4.175021e+00 4.472101e+00 3.720231e+00 4.725857e+00 5.437133e+00 5.896560e+00 5.725361e+00 5.256493e+00 5.035119e+00 4.402754e+00 3.963905e+00 3.346315e+00 4.242202e+00
<GCONST> 2.070193e+02
<STATE> 3
<MEAN> 39
 1.999561e+01 2.300168e+01 1.715137e+01 1.162299e+00 -2.111687e+00 8.137974e+00 9.004212e+00 3.449780e+00 -3.495630e+00 7.531460e+00 -3.362261e+00 2.034497e+00 8.761982e+01 6.444569e+00 2.562146e+00 2.462947e+00 -2.877069e+00 -3.782687e+00 -1.822336e+00 -4.922010e-01 1.401553e-01 -5.860051e-02 1.518847e+00 -2.873797e-01 -4.896996e-01 4.989393e+00 -4.519224e-01 -1.540369e+00 -4.657136e-01 -1.626123e+00 -6.658642e-01 -1.026987e+00 -1.085814e+00 -2.532821e-01 -2.940664e-01 2.120594e-01 1.599070e-01 1.509362e-01 1.043451e+00
<VARIANCE> 39
 2.497083e+02 2.083989e+02 1.283178e+02 2.954325e+02 2.580531e+02 2.388501e+02 2.353270e+02 2.258122e+02 3.239648e+02 2.130287e+02 1.877341e+02 1.998352e+02 3.883021e+02 3.977217e+01 2.093643e+01 1.793685e+01 2.983673e+01 2.220962e+01 2.083488e+01 2.453897e+01 2.453406e+01 2.754778e+01 2.027628e+01 1.823854e+01 1.826532e+01 3.904805e+01 4.121106e+00 3.495328e+00 2.873672e+00 5.617115e+00 3.749468e+00 3.696671e+00 4.065529e+00 4.020472e+00 4.008648e+00 3.446330e+00 3.116984e+00 3.011528e+00 2.899188e+00
<GCONST> 2.007708e+02
<STATE> 4
<MEAN> 39
 3.258394e+01 2.139207e+01 2.223231e+01 -1.356186e+01 -1.675787e+01 -3.419361e-01 2.279074e-01 1.453686e+00 -7.270688e+00 1.219081e+01 -3.162092e+00 6.592214e-01 1.049431e+02 1.332292e+00 -1.186808e+00 4.587276e-01 -4.467704e+00 -2.553386e+00 -1.966380e+00 -1.813981e+00 9.763305e-01 1.816575e-01 1.236724e+00 1.018952e+00 2.335080e-01 3.546281e+00 -9.368058e-01 -1.054414e+00 -8.875358e-01 -6.974526e-01 8.190803e-01 6.050642e-01 3.871538e-01 9.093280e-01 1.466598e-01 -3.382185e-01 2.693801e-01 7.002796e-02 1.328947e-01
<VARIANCE> 39
 5.062617e+01 2.061773e+02 1.856422e+02 2.391044e+02 2.806846e+02 2.882946e+02 3.699146e+02 3.061291e+02 3.995539e+02 3.131124e+02 2.730593e+02 2.952118e+02 1.401603e+02 7.728299e+00 1.332937e+01 1.118678e+01 2.799233e+01 1.645087e+01 1.574293e+01 2.094678e+01 1.994758e+01 1.894873e+01 1.746399e+01 1.620650e+01 1.494864e+01 1.536050e+01 2.318750e+00 2.453373e+00 2.074989e+00 3.010634e+00 3.257665e+00 3.257610e+00 3.616909e+00 4.062324e+00 3.670358e+00 3.223324e+00 3.004258e+00 3.031846e+00 2.057404e+00
<GCONST> 1.925652e+02
<TRANSP> 5
 0.000000e+00 1.000000e+00 0.000000e+00 0.000000e+00 0.000000e+00
 0.000000e+00 6.606840e-01 3.393160e-01 0.000000e+00 0.000000e+00
 0.000000e+00 0.000000e+00 5.378823e-01 4.621177e-01 0.000000e+00
 0.000000e+00 0.000000e+00 0.000000e+00 7.165406e-01 2.834594e-01
 0.000000e+00 0.000000e+00 0.000000e+00 0.000000e+00 0.000000e+00
<ENDHMM>
~h "ih"
<BEGINHMM>
<NUMSTATES> 5
<STATE> 2
<MEAN> 39
 -4.314595e+01 9.519662e+00 -3.795443e+00 2.452146e+00 -8.105638e+00 -7.629393e+00 -1.789259e+00 1.698811e+00 -5.389768e+00 1.305203e+00 -4.360643e+00 8.232103e+00 1.132041e+02 1.223751e+01 -8.166569e-01 1.037416e+01 1.743633e+00 2.885384e-01 -3.023463e+00 -1.434831e+00 -1.558288e+00 6.048425e-01 1.630896e-01 -9.484853e-01 1.044189e+00 4.109992e+00 2.818402e+00 -1.550208e+00 2.260474e+00 -2.606494e-01 -4.540816e-02 -1.263862e+00 -1.028881e+00 -5.056702e-01 -2.381307e-01 3.698366e-01 -1.226137e-01 1.405553e-01 1.700603e+00
<VARIANCE> 39
 2.713085e+02 1.109452e+02 2.504962e+02 2.238199e+02 2.847004e+02 2.848075e+02 1.505105e+02 1.439928e+02 1.648848e+02 1.472806e+02 2.089860e+02 1.565475e+02 1.143395e+02 3.046464e+01 1.816171e+01 2.470438e+01 1.756826e+01 1.439886e+01 2.587067e+01 2.612643e+01 1.592434e+01 1.773999e+01 1.929096e+01 1.676110e+01 2.487177e+01 1.385348e+01 5.333846e+00 2.371141e+00 4.682894e+00 3.726866e+00 3.110763e+00 4.508710e+00 5.702162e+00 3.528919e+00 4.756470e+00 3.436633e+00 3.164599e+00 4.119447e+00 1.175539e+00
<GCONST> 1.948432e+02
<STATE> 3
<MEAN> 39
 5.405667e+00 -8.452320e+00 3.607016e+01 -4.574637e+00 -1.344080e+01 -2.613056e+01 -8.524458e+00 -6.752486e+00 -2.589260e+00 6.206463e+00 -4.075695e+00 1.394894e+01 1.385670e+02 4.193466e+00 -3.915497e+00 4.480137e+00 -1.904564e+00 -1.695506e+00 -2.827783e+00 -2.348756e-01 -5.392723e-01 -6.630444e-01 1.235137e+00 3.767152e-01 2.783491e-01 3.274825e+00 -2.281892e+00 4.110839e-01 -1.490455e+00 2.219560e-01 -2.131594e-01 5.732426e-01 8.751996e-01 3.487516e-01 -5.754703e-01 -5.203472e-02 2.419163e-01 -3.439803e-01 -1.356060e+00
<VARIANCE> 39
 8.690331e+01 1.994513e+02 1.915364e+02 2.856910e+02 3.507492e+02 2.323505e+02 6.088401e+02 2.576961e+02 2.635763e+02 2.360861e+02 3.375718e+02 4.317600e+02 1.597951e+02 4.559883e+01 1.670013e+01 3.196202e+01 2.148697e+01 1.374179e+01 2.638276e+01 4.377181e+01 2.212407e+01 2.592252e+01 1.694395e+01 1.699578e+01 2.106829e+01 1.882373e+01 5.217411e+00 2.351857e+00 3.310747e+00 3.168733e+00 2.011331e+00 3.599405e+00 3.925218e+00 2.695425e+00 2.601592e+00 2.913660e+00 2.994334e+00 3.852325e+00 1.729113e+00
<GCONST> 1.986731e+02
<STATE> 4
<MEAN> 39
 5.311378e+00 -1.559761e+01 4.540271e+01 3.037366e+00 -1.734606e+01 -3.244220e+01 -2.903162e+00 -3.044354e+00 -1.863937e+01 8.441209e+00 -3.197260e+00 8.324964e+00 1.337269e+02 -1.001095e+00 3.078079e+00 -1.241085e-01 5.482789e+00 1.289685e+00 9.235606e-01 3.089942e+00 5.371038e-01 -3.085514e+00 -1.115195e+00 7.821352e-01 -1.421694e+00 -8.635926e+00 -1.278452e+00 1.817111e+00 -2.179519e+00 8.595245e-01 1.330726e+00 1.580789e+00 -5.221096e-01 2.178261e-01 8.929087e-01 -7.667807e-01 1.473713e-03 -2.120578e-01 -3.551952e+00
<VARIANCE> 39
 7.328732e+01 1.868056e+02 2.329316e+02 3.971726e+02 3.394652e+02 3.710946e+02 1.007003e+03 9.304420e+02 6.616880e+02 3.494190e+02 2.621189e+02 2.928834e+02 2.940469e+02 7.842333e+00 2.188007e+01 1.879304e+01 2.317715e+01 2.140979e+01 2.857113e+01 3.756290e+01 4.004944e+01 3.247829e+01 2.441339e+01 2.288484e+01 2.240078e+01 5.335767e+01 2.286155e+00 3.338425e+00 3.931966e+00 6.229358e+00 3.465502e+00 5.509066e+00 1.065065e+01 1.025965e+01 8.966891e+00 5.079030e+00 4.110806e+00 3.728314e+00 3.925509e+00
<GCONST> 2.100505e+02
<TRANSP> 5
 0.000000e+00 1.000000e+00 0.000000e+00 0.000000e+00 0.000000e+00
 0.000000e+00 6.601577e-01 3.398423e-01 0.000000e+00 0.000000e+00
 0.000000e+00 0.000000e+00 8.087699e-01 1.912301e-01 0.000000e+00
 0.000000e+00 0.000000e+00 0.000000e+00 7.797875e-01 2.202125e-01
 0.000000e+00 0.000000e+00 0.000000e+00 0.000000e+00 0.000000e+00
<ENDHMM>
~h "iy"
<BEGINHMM>
<NUMSTATES> 5
<STATE> 2
<MEAN> 39
 2.966591e+00 -7.195365e+00 6.044989e+01 -2.400419e+00 -7.943483e+00 -1.993851e+01 1.915322e+00 -1.297087e+01 -1.592675e+01 7.300403e+00 -8.178690e+00 1.158495e+01 1.353121e+02 1.013670e+00 -2.014129e+00 4.969012e+00 -4.171587e+00 -8.388082e-01 1.345456e+00 -4.561471e-01 -1.493436e+00 -1.458442e-02 1.102533e+00 -9.462923e-01 2.645495e-01 7.398922e-01 -4.268661e-01 6.656828e-01 -2.522952e+00 1.380403e+00 9.750391e-01 -1.964169e-01 -2.841942e-01 1.395644e+00 2.916448e-01 -3.881039e-01 5.421811e-01 -2.376267e-01 -9.102728e-01
<VARIANCE> 39
 7.671075e+01 2.015503e+02 2.321386e+02 3.125431e+02 2.200845e+02 3.020096e+02 6.301155e+02 5.245173e+02 3.663619e+02 3.614466e+02 2.436530e+02 3.567323e+02 1.064559e+02 2.373670e+01 4.108762e+01 2.009587e+01 2.814033e+01 2.075024e+01 4.609562e+01 2.764401e+01 3.297340e+01 2.724244e+01 2.214515e+01 1.853892e+01 1.442397e+01 5.859562e+00 2.743184e+00 1.933276e+00 2.660969e+00 3.789353e+00 3.798301e+00 3.497523e+00 4.286231e+00 3.523866e+00 3.676709e+00 3.270149e+00 2.461773e+00 2.837001e+00 4.741133e-01
<GCONST> 1.977855e+02
<STATE> 3
<MEAN> 39
 4.993773e+00 -1.206798e+01 6.681046e+01 2.700535e+00 -9.489557e+00 -1.576170e+01 -3.563466e+00 6.775686e-01 -2.638849e+01 4.345166e+00 -5.104247e+00 2.996555e+00 1.325718e+02 1.173944e+00 6.599072e-02 -3.629858e+00 2.253175e+00 1.369590e+00 -1.361973e+00 6.424743e-02 1.399699e+00 8.168969e-01 -3.834136e-01 7.724130e-01 -2.363229e-01 -1.863617e+00 1.312881e-01 3.169482e-01 -2.250380e+00 5.166257e-01 1.101875e+00 -3.647432e-01 -6.126468e-01 1.175295e-01 9.931439e-01 -2.624664e-01 4.366406e-04 2.056159e-01 -5.123506e-01
<VARIANCE> 39
 1.072886e+02 2.318786e+02 2.949758e+02 3.927143e+02 2.260541e+02 5.238842e+02 7.087614e+02 6.648163e+02 4.284015e+02 4.758461e+02 2.563644e+02 3.309650e+02 1.776823e+02 1.312024e+01 1.608622e+01 2.714107e+01 1.870920e+01 1.647649e+01 3.135970e+01 2.452438e+01 2.527907e+01 2.052190e+01 1.647991e+01 1.374178e+01 1.265002e+01 5.232240e+00 1.410088e+00 1.940311e+00 2.305278e+00 3.579470e+00 3.180899e+00 3.702014e+00 3.699981e+00 3.883346e+00 3.353508e+00 2.758311e+00 2.346513e+00 2.056366e+00 5.380910e-01
<GCONST> 1.952804e+02
<STATE> 4
<MEAN> 39
 -4.361928e-02 3.355165e+00 4.962294e+01 -4.987178e+00 -2.423780e+00 -2.582816e+00 1.417024e+00 -7.947261e+00 -4.616496e+00 2.884688e+00 -8.123072e+00 8.610397e+00 1.105952e+02 -1.966596e-02 1.461878e-01 -4.852130e+00 8.022512e-01 1.595153e+00 6.148801e-01 -1.065051e+00 7.975807e-01 1.718949e+00 -4.269632e-01 2.819716e-01 -2.445203e-01 -2.735995e+00 -7.517638e-02 -8.148720e-02 -3.177766e-01 -2.394584e-01 -1.127679e-01 7.949530e-02 -6.545886e-02 -1.632927e-01 -2.107763e-01 2.770752e-01 7.211694e-02 -1.104057e-01 -3.727783e-03
<VARIANCE> 39
 2.372574e+02 4.401374e+02 5.044073e+02 5.244964e+02 2.889268e+02 9.136740e+02 5.615593e+02 5.342161e+02 4.102003e+02 3.707593e+02 2.676290e+02 2.761934e+02 5.981321e+02 1.257465e+01 1.538183e+01 2.816488e+01 1.814933e+01 2.235828e+01 2.876160e+01 2.392379e+01 2.309150e+01 2.237952e+01 1.809264e+01 1.457280e+01 1.503919e+01 6.514146e+00 1.054011e+00 2.209942e+00 2.558111e+00 3.651189e+00 2.677178e+00 4.774555e+00 3.257856e+00 3.797338e+00 3.409656e+00 2.990378e+00 2.551771e+00 2.356738e+00 8.010285e-01
<GCONST> 1.999383e+02
<TRANSP> 5
 0.000000e+00 1.000000e+00 0.000000e+00 0.000000e+00 0.000000e+00
 0.000000e+00 6.655818e-01 3.344182e-01 0.000000e+00 0.000000e+00
 0.000000e+00 0.000000e+00 7.069212e-01 2.930788e-01 0.000000e+00
 0.000000e+00 0.000000e+00 0.000000e+00 7.736524e-01 2.263475e-01
 0.000000e+00 0.000000e+00 0.000000e+00 0.000000e+00 0.000000e+00
<ENDHMM>
~h "ow"
<BEGINHMM>
<NUMSTATES> 5
<STATE> 2
<MEAN> 39
 8.285066e-01 -8.603104e+00 -2.015389e+00 -1.458287e+01 -3.793630e+00 -9.093993e+00 -7.408257e+00 -3.008207e+00 -4.810152e-01 1.213152e+01 2.900917e-01 2.857067e+00 9.556252e+01 2.116221e+00 -1.620006e+00 -5.294483e-01 -2.722780e+00 5.523388e-01 1.294821e+00 1.341316e+00 5.973314e-02 1.123022e+00 1.967509e+00 -1.522932e-01 -9.081662e-01 4.614095e+00 4.278442e-01 -5.677987e-02 4.039798e-01 -1.854047e-01 2.759616e-01 2.996503e-01 4.548531e-02 9.450149e-02 -6.933830e-02 2.673381e-02 -7.845081e-02 2.076720e-01 1.070629e+00
<VARIANCE> 39
 5.524881e+02 3.070950e+02 2.609442e+02 3.923485e+02 3.820598e+02 5.100476e+02 4.896638e+02 5.190807e+02 6.114543e+02 5.527109e+02 5.045917e+02 3.485574e+02 1.163507e+03 4.853238e+01 2.302666e+01 2.457211e+01 3.661732e+01 3.407212e+01 3.399254e+01 3.800288e+01 4.117873e+01 4.606511e+01 4.188414e+01 4.138105e+01 3.210288e+01 1.272333e+02 5.958642e+00 3.950147e+00 3.458552e+00 5.198527e+00 5.525290e+00 5.547531e+00 6.858544e+00 7.281143e+00 7.646751e+00 7.434062e+00 7.250458e+00 5.900791e+00 1.461773e+01
<GCONST> 2.234426e+02
<STATE> 3
<MEAN> 39
 2.126499e+01 -2.304332e+01 2.325203e+00 -2.937917e+01 4.998115e+00 -9.647522e+00 -1.849545e+00 -4.774820e-01 6.325546e-01 2.777191e+01 1.936153e+00 9.343433e-02 1.386187e+02 6.747416e-01 9.326586e-01 6.446387e-01 -2.237114e+00 -3.961704e-01 2.782467e+00 -7.308088e-02 -1.344433e+00 -4.718750e-01 7.223952e-01 3.465829e-01 9.933726e-01 1.585815e+00 -4.979324e-01 7.743250e-01 -4.994935e-02 8.936229e-01 -1.413387e-01 -6.437684e-02 -3.144070e-01 3.102383e-03 -2.086444e-01 -9.116353e-01 -1.450722e-01 4.734755e-01 -1.573820e+00
<VARIANCE> 39
 9.684155e+01 1.833192e+02 2.295941e+02 3.010547e+02 3.440211e+02 5.859789e+02 5.585951e+02 3.755742e+02 8.001615e+02 4.827973e+02 5.421310e+02 2.451670e+02 2.146474e+02 7.033789e+00 9.334703e+00 7.204580e+00 1.102808e+01 1.017906e+01 1.379541e+01 1.471696e+01 1.483375e+01 1.837347e+01 1.721899e+01 1.656109e+01 1.455038e+01 1.979074e+01 1.794116e+00 1.068833e+00 1.187817e+00 1.933738e+00 1.846603e+00 1.925715e+00 2.463355e+00 2.452321e+00 2.747710e+00 2.633869e+00 2.906591e+00 2.183411e+00 3.674182e+00
<GCONST> 1.898991e+02
<STATE> 4
<MEAN> 39
 2.474172e+01 -2.670108e+00 6.275982e+00 -3.065112e+01 -3.221055e+00 6.911345e+00 -1.421015e+00 -1.496433e+00 -7.184559e+00 1.259392e+01 -1.305344e+00 7.397751e+00 1.241471e+02 -5.928180e-01 1.445237e+00 4.055139e-01 1.278581e+00 2.106995e-01 5.639018e-01 3.448862e-01 -5.714366e-02 -1.027784e-01 -9.751679e-01 -6.573439e-01 -1.900903e-02 -2.219078e+00 -3.098427e-01 -1.384117e-01 -5.993386e-02 3.922127e-01 1.093503e-01 -2.052224e-01 -7.336990e-02 6.256481e-02 1.400890e-01 1.466578e-03 3.661627e-02 -9.958784e-02 -2.010410e-01
<VARIANCE> 39
 1.187243e+02 3.580808e+02 2.592781e+02 5.084431e+02 5.598351e+02 4.677687e+02 4.730098e+02 4.149996e+02 8.085658e+02 4.490767e+02 4.295868e+02 3.408602e+02 4.993392e+02 6.595463e+00 9.569586e+00 7.718084e+00 1.630719e+01 1.165358e+01 1.316868e+01 1.406774e+01 1.570730e+01 1.802203e+01 1.600466e+01 1.596739e+01 1.387731e+01 5.168155e+00 9.437271e-01 1.315100e+00 1.145541e+00 2.147390e+00 1.754126e+00 2.097780e+00 2.182961e+00 2.475652e+00 2.706289e+00 2.355052e+00 2.376742e+00 2.157423e+00 5.391364e-01
<GCONST> 1.887916e+02
<TRANSP> 5
 0.000000e+00 1.000000e+00 0.000000e+00 0.000000e+00 0.000000e+00
 0.000000e+00 7.279232e-01 2.720768e-01 0.000000e+00 0.000000e+00
 0.000000e+00 0.000000e+00 7.056646e-01 2.943354e-01 0.000000e+00
 0.000000e+00 0.000000e+00 0.000000e+00 9.260871e-01 7.391285e-02
 0.000000e+00 0.000000e+00 0.000000e+00 0.000000e+00 0.000000e+00
<ENDHMM>
~h "sp"
<BEGINHMM>
<NUMSTATES> 3
<STATE> 2
~s "silst"
<TRANSP> 3
 0.000000e+00 3.673139e-02 9.632686e-01
 0.000000e+00 8.887438e-01 1.112563e-01
 0.000000e+00 0.000000e+00 0.000000e+00
<ENDHMM>
~h "th"
<BEGINHMM>
<NUMSTATES> 5
<STATE> 2
<MEAN> 39
 -2.578689e+01 2.020617e+00 2.168318e+00 8.240753e+00 -3.601304e+00 1.727086e+00 -3.130087e+00 7.876076e-01 -4.457944e+00 2.306501e+00 -2.215250e+00 4.289038e+00 8.030129e+01 -2.190825e+00 -1.087934e+00 -1.745339e+00 -1.412643e+00 -1.461837e+00 -3.203354e-01 -8.675146e-01 -6.201641e-02 3.943676e-03 -5.508533e-01 -2.194678e-02 3.032243e-01 1.941748e+00 1.013315e+00 -2.115836e-01 8.675588e-01 -3.913723e-01 -1.170584e-01 -3.819464e-01 1.479805e-01 -2.057300e-01 -3.600914e-02 1.862310e-01 -1.266547e-01 1.200988e-01 1.848195e+00
<VARIANCE> 39
 2.114439e+02 1.581103e+02 1.509931e+02 1.529079e+02 1.640419e+02 1.628111e+02 1.718144e+02 1.675729e+02 1.745924e+02 1.457690e+02 1.415791e+02 1.308478e+02 5.382728e+02 2.552524e+01 1.756238e+01 1.989847e+01 2.222176e+01 1.872473e+01 2.147845e+01 2.218121e+01 2.159685e+01 2.333666e+01 1.861561e+01 1.782048e+01 1.728092e+01 9.178857e+01 3.430333e+00 3.651675e+00 3.945228e+00 3.930055e+00 3.644202e+00 4.194922e+00 4.247725e+00 4.035730e+00 4.374759e+00 3.777796e+00 3.597986e+00 3.536731e+00 9.919035e+00
<GCONST> 1.980317e+02
<STATE> 3
<MEAN> 39
 -2.408889e+01 -6.107916e+00 1.042837e+01 -1.173459e+00 -1.164717e+01 -4.532926e+00 -2.706529e+00 -9.657387e-01 -2.531603e+00 3.346129e+00 -3.892537e+00 6.770980e+00 1.142346e+02 5.716233e+00 -1.888273e+00 5.700002e+00 2.680813e+00 1.736624e+00 -2.070246e+00 4.435729e-01 3.924959e-01 2.861804e-01 1.527887e+00 4.808302e-01 -3.620469e-01 4.122383e+00 2.337792e+00 -1.965607e-01 -2.834180e-01 1.709149e+00 2.004430e+00 -2.497101e-01 -9.113311e-01 1.581055e-01 -3.945006e-01 3.174762e-03 3.485200e-01 -3.487079e-01 -2.294857e+00
<VARIANCE> 39
 1.817710e+02 1.601905e+02 2.735273e+02 1.705053e+02 1.671121e+02 1.974704e+02 2.108714e+02 1.946078e+02 1.902537e+02 1.836315e+02 1.827940e+02 2.067292e+02 1.503573e+02 3.349981e+01 1.937103e+01 2.651670e+01 3.360061e+01 2.585507e+01 2.870424e+01 2.725604e+01 2.484388e+01 2.319640e+01 2.066029e+01 2.179820e+01 2.412061e+01 5.022683e+01 4.215170e+00 4.406924e+00 9.547169e+00 5.336594e+00 4.950064e+00 6.197724e+00 7.167712e+00 5.421000e+00 5.007607e+00 5.475408e+00 4.933781e+00 5.169827e+00 6.507462e+00
<GCONST> 2.048550e+02
<STATE> 4
<MEAN> 39
 1.829129e+01 -1.244395e+01 1.430648e+01 1.693908e+01 1.415837e+01 -9.596022e+00 -1.723146e+01 -3.177169e+00 -6.721858e+00 4.242053e+00 -9.046350e-01 3.440781e+00 1.155992e+02 1.048311e+01 -1.751946e+00 -3.744979e+00 1.088189e+00 7.439425e+00 -1.605744e+00 -6.599253e+00 -7.642507e-01 -1.400663e+00 -1.448995e+00 -9.394138e-02 4.194712e-03 1.642674e+00 -1.857298e+00 -1.071325e-01 -7.520357e-01 -1.307927e+00 -8.313878e-01 -2.935981e-01 2.372676e-02 4.898849e-01 -7.797492e-02 -3.771752e-01 -2.911587e-01 2.160475e-01 2.163330e-01
<VARIANCE> 39
 3.802141e+02 1.471429e+02 3.257592e+02 1.980788e+02 3.322856e+02 4.582310e+02 4.275569e+02 2.916181e+02 2.069695e+02 1.955493e+02 1.768583e+02 1.668108e+02 1.741411e+02 3.055756e+01 2.228474e+01 3.210729e+01 3.071230e+01 3.290302e+01 6.274607e+01 4.239433e+01 3.464369e+01 2.693284e+01 2.931915e+01 2.583316e+01 2.109398e+01 1.233926e+01 7.324674e+00 3.786827e+00 1.180344e+01 5.998220e+00 7.656446e+00 8.549707e+00 9.352431e+00 7.074818e+00 5.190293e+00 4.555049e+00 4.583834e+00 4.110767e+00 3.111658e+00
<GCONST> 2.104292e+02
<TRANSP> 5
 0.000000e+00 1.000000e+00 0.000000e+00 0.000000e+00 0.000000e+00
 0.000000e+00 8.360265e-01 1.639735e-01 0.000000e+00 0.000000e+00
 0.000000e+00 0.000000e+00 7.465840e-01 2.534160e-01 0.000000e+00
 0.000000e+00 0.000000e+00 0.000000e+00 7.285509e-01 2.714490e-01
 0.000000e+00 0.000000e+00 0.000000e+00 0.000000e+00 0.000000e+00
<ENDHMM>
~h "uw"
<BEGINHMM>
<NUMSTATES> 5
<STATE> 2
<MEAN> 39
 -3.386378e+00 -2.751001e+00 4.446277e+01 1.021054e+01 -5.336363e+00 -1.364049e+01 8.717339e-01 3.352752e+00 -1.156067e+01 1.800914e+00 -7.719856e+00 7.656097e+00 1.241569e+02 1.024644e+01 -2.375106e+00 7.060610e+00 1.891362e+00 1.292092e+00 -1.324749e+00 -4.266680e+00 -3.323002e-01 -2.061961e+00 4.211053e-01 -7.241322e-01 -9.547281e-01 4.953722e+00 -2.040094e+00 -5.205498e-01 -1.485925e+00 -1.587280e+00 -2.833095e-01 -3.064345e-01 -8.204747e-01 -3.428079e-01 -7.515983e-01 3.175826e-02 4.154442e-01 -6.534204e-02 7.133075e-01
<VARIANCE> 39
 2.589827e+02 1.821995e+02 2.235745e+02 2.469150e+02 1.509389e+02 2.364113e+02 5.337292e+02 4.324238e+02 2.759759e+02 2.047130e+02 2.098148e+02 2.564222e+02 2.136161e+02 2.137649e+01 1.395688e+01 2.285368e+01 2.725565e+01 2.068260e+01 4.194740e+01 3.727147e+01 2.539409e+01 3.234665e+01 3.028298e+01 2.717710e+01 3.239940e+01 9.271877e+00 5.189230e+00 1.811349e+00 3.648794e+00 2.341811e+00 2.330843e+00 4.374956e+00 4.765334e+00 3.053063e+00 3.925276e+00 3.751868e+00 2.906345e+00 3.085085e+00 3.360466e+00
<GCONST> 2.005153e+02
<STATE> 3
<MEAN> 39
 8.729862e+00 -1.259944e+01 5.449593e+01 7.310485e+00 -3.715879e+00 -2.122157e+01 -9.510080e+00 4.213472e-01 -2.008059e+01 2.936282e+00 -8.002581e+00 5.836410e+00 1.350640e+02 7.046229e-01 -7.493664e-02 -6.127577e-01 4.311488e-01 1.485745e+00 6.045329e-02 -7.552710e-01 -1.150276e-01 -4.709401e-02 2.508674e-01 -4.697980e-01 -4.975748e-01 -8.025076e-01 -4.048311e-01 5.848213e-01 -7.907270e-01 6.851245e-02 2.184049e-01 4.664140e-01 3.540326e-01 -1.770202e-01 4.370596e-01 5.341680e-02 5.895013e-03 -7.634944e-03 -7.298033e-01
<VARIANCE> 39
 7.517218e+01 1.552806e+02 1.766090e+02 3.595546e+02 2.105956e+02 4.178789e+02 1.025516e+03 6.176412e+02 3.727119e+02 3.757843e+02 2.935190e+02 6.240820e+02 1.349116e+02 2.462735e+00 4.141426e+00 6.348580e+00 5.594500e+00 6.900644e+00 8.583898e+00 1.036036e+01 8.918198e+00 1.005377e+01 1.031538e+01 8.814387e+00 9.406028e+00 3.501075e+00 1.303298e+00 7.559056e-01 1.321487e+00 1.178418e+00 1.153107e+00 1.772375e+00 2.280790e+00 1.737308e+00 1.883880e+00 1.934078e+00 1.575427e+00 1.699024e+00 7.847283e-01
<GCONST> 1.750847e+02
<STATE> 4
<MEAN> 39
 1.658842e+01 2.963258e+00 2.464328e+01 7.207512e+00 1.183775e+01 1.823763e+00 -6.002233e+00 -6.627946e+00 -1.454131e+01 7.220642e+00 -7.430093e+00 1.686353e+00 1.075644e+02 -1.013563e+00 1.122333e+00 -2.943008e+00 -2.702661e-01 1.841996e-02 2.118517e+00 1.606696e+00 -3.703362e-01 9.628326e-01 -9.837343e-02 5.333692e-01 1.432128e-01 -3.011348e+00 -5.768371e-01 -1.734980e-01 5.078567e-03 -3.241804e-02 -5.062491e-01 -3.145189e-01 1.104581e-01 2.767558e-01 3.795530e-02 -1.751299e-01 9.223502e-02 1.035881e-01 -3.817281e-02
<VARIANCE> 39
 1.368453e+02 2.178060e+02 3.645743e+02 3.529151e+02 3.063844e+02 6.999197e+02 6.581536e+02 4.978313e+02 7.000413e+02 4.603068e+02 4.432739e+02 5.370295e+02 4.337120e+02 1.213900e+01 1.518774e+01 1.231243e+01 1.812047e+01 1.807951e+01 2.868527e+01 2.935515e+01 2.879550e+01 2.937513e+01 2.262859e+01 2.221058e+01 2.079772e+01 5.637496e+00 1.480118e+00 2.260617e+00 1.877432e+00 2.727795e+00 2.820910e+00 4.101841e+00 4.297241e+00 4.322274e+00 4.567486e+00 3.761136e+00 3.903432e+00 3.408823e+00 8.473382e-01
<GCONST> 2.013131e+02
<TRANSP> 5
 0.000000e+00 1.000000e+00 0.000000e+00 0.000000e+00 0.000000e+00
 0.000000e+00 6.874205e-01 3.125795e-01 0.000000e+00 0.000000e+00
 0.000000e+00 0.000000e+00 8.811033e-01 1.188967e-01 0.000000e+00
 0.000000e+00 0.000000e+00 0.000000e+00 8.838862e-01 1.161138e-01
 0.000000e+00 0.000000e+00 0.000000e+00 0.000000e+00 0.000000e+00
<ENDHMM>
~h "sil"
<BEGINHMM>
<NUMSTATES> 5
<STATE> 2
<MEAN> 39
 -1.155219e+01 -1.159762e+00 1.416561e+00 7.321917e+00 1.253852e+00 9.693273e-01 4.652525e+00 6.585701e+00 -5.868990e-01 2.839674e-01 -4.102092e+00 7.387103e-01 6.436437e+01 -5.190133e-01 8.573881e-01 -1.522231e-01 -9.017283e-04 -1.884194e-02 5.351231e-02 -3.288006e-01 -2.274826e-01 6.936738e-02 2.399541e-02 2.763527e-01 1.031666e-02 -1.199501e+00 -3.189037e-02 7.517734e-02 1.204982e-01 -1.724813e-02 1.536880e-03 4.747677e-04 -2.779708e-02 -8.210099e-02 -1.317909e-02 8.288671e-02 7.859398e-02 7.888618e-02 6.054506e-02
<VARIANCE> 39
 7.497356e+01 1.674296e+02 1.424959e+02 1.306982e+02 1.500268e+02 1.867665e+02 1.961964e+02 2.122141e+02 2.014182e+02 2.010847e+02 1.630054e+02 1.434610e+02 1.060491e+02 2.436339e+00 4.440051e+00 5.533419e+00 6.949612e+00 8.456326e+00 1.051083e+01 1.195627e+01 1.292767e+01 1.278170e+01 1.270991e+01 1.197146e+01 1.094391e+01 1.891686e+00 3.733811e-01 6.919002e-01 9.727583e-01 1.237814e+00 1.524060e+00 1.855188e+00 2.154961e+00 2.330190e+00 2.367237e+00 2.345901e+00 2.211172e+00 2.043337e+00 1.878280e-01
<GCONST> 1.663548e+02
<STATE> 3
~s "silst"
<STATE> 4
<MEAN> 39
 -2.318941e+01 -4.735079e-01 4.462799e-01 2.554528e+00 -2.612262e+00 -2.754545e+00 -2.888795e+00 4.720229e-02 -2.982642e+00 1.876191e+00 -1.060827e+00 2.176853e+00 5.941407e+01 9.459993e-02 -1.735546e-01 2.529537e-01 1.205257e-01 6.459826e-02 1.202038e-01 1.967685e-01 1.158209e-01 -2.349879e-02 2.142591e-01 -1.427539e-01 1.929988e-02 8.840877e-01 9.631559e-02 9.758018e-03 8.083077e-02 -9.590262e-04 2.091403e-02 3.142458e-02 4.685570e-02 4.212421e-02 1.912318e-02 -8.699687e-03 -4.120113e-02 2.393669e-02 4.442789e-01
<VARIANCE> 39
 1.054313e+02 1.368946e+02 1.099360e+02 1.158629e+02 1.383431e+02 1.561491e+02 1.722558e+02 1.682003e+02 1.561686e+02 1.404143e+02 1.321143e+02 1.139028e+02 2.168756e+02 1.074719e+01 1.354517e+01 1.179157e+01 1.219033e+01 1.402435e+01 1.566884e+01 1.668105e+01 1.629143e+01 1.540469e+01 1.448147e+01 1.384749e+01 1.177695e+01 1.935355e+01 2.274904e+00 2.632032e+00 2.341946e+00 2.416887e+00 2.717810e+00 2.952183e+00 3.164423e+00 3.082447e+00 2.933301e+00 2.736858e+00 2.596281e+00 2.237650e+00 4.190243e+00
<GCONST> 1.835245e+02
<TRANSP> 5
 0.000000e+00 1.000000e+00 0.000000e+00 0.000000e+00 0.000000e+00
 0.000000e+00 8.321865e-01 1.083363e-01 5.947723e-02 0.000000e+00
 0.000000e+00 0.000000e+00 9.079103e-01 9.208972e-02 0.000000e+00
 0.000000e+00 7.545443e-02 0.000000e+00 7.573183e-01 1.672273e-01
 0.000000e+00 0.000000e+00 0.000000e+00 0.000000e+00 0.000000e+00
<ENDHMM>
