~o
<STREAMINFO> 1 39
<VECSIZE> 39<NULLD><MFCC_D_A_Z_0><DIAGC>
~v "varFloor1"
<VARIANCE> 39
 6.167360e+00 3.055753e+00 5.029951e+00 4.235080e+00 3.020565e+00 3.513228e+00 3.576046e+00 3.145977e+00 3.123657e+00 2.649582e+00 2.296422e+00 2.124384e+00 1.180017e+01 2.278196e-01 1.545969e-01 2.184490e-01 2.118026e-01 1.813457e-01 2.097697e-01 2.257949e-01 2.166197e-01 2.009621e-01 1.748386e-01 1.664882e-01 1.534702e-01 2.729188e-01 3.005251e-02 2.352015e-02 2.950212e-02 3.333421e-02 2.970494e-02 3.528043e-02 3.797136e-02 3.764201e-02 3.477513e-02 3.067418e-02 2.924890e-02 2.697371e-02 3.680276e-02
~s "silst"
<MEAN> 39
 -1.827701e+01 8.753223e+00 -1.086839e+01 5.846022e+00 -1.459266e+00 1.401029e+00 -1.074656e+00 -3.250540e+00 2.199845e+00 -3.760965e+00 3.068212e+00 -1.606831e+00 -4.540132e+01 -2.157504e-01 4.141146e-02 3.333795e-02 -4.918551e-02 -6.587435e-02 -6.872589e-02 -1.678559e-01 -1.682406e-01 -3.619425e-02 7.948777e-02 9.622244e-02 3.881171e-02 -1.759397e-01 7.233985e-02 -5.580049e-02 1.003017e-02 2.412156e-02 2.802042e-02 3.570101e-02 8.302207e-02 7.940064e-02 1.283782e-02 -1.059789e-02 -6.968404e-02 -2.772936e-02 1.201409e-01
<VARIANCE> 39
 7.634097e+01 6.146171e+01 9.125895e+01 1.009812e+02 1.078947e+02 1.282715e+02 1.751601e+02 1.330940e+02 1.481246e+02 1.276619e+02 1.136129e+02 1.127739e+02 1.250052e+02 1.240557e+00 1.966657e+00 3.089045e+00 4.349939e+00 5.655466e+00 6.937092e+00 8.263347e+00 9.040721e+00 9.244484e+00 9.165807e+00 8.923959e+00 8.122030e+00 6.575173e-01 2.361640e-01 3.972224e-01 6.231284e-01 8.779249e-01 1.136638e+00 1.392222e+00 1.643894e+00 1.795369e+00 1.841104e+00 1.829955e+00 1.789858e+00 1.632099e+00 1.358518e-01
<GCONST> 1.516241e+02
~h "f"
<BEGINHMM>
<NUMSTATES> 5
<STATE> 2
<MEAN> 39
 -2.763937e+01 -6.474535e+00 -7.478964e+00 8.545196e+00 1.043507e-01 3.673276e+00 -2.978076e+00 -2.602490e+00 -9.655856e-01 -1.534619e+00 -9.155017e-01 -7.407427e-01 -1.172370e+01 -2.382541e+00 -1.622288e+00 -1.266826e+00 -3.737930e-01 -6.460197e-01 -2.778960e-01 -8.834085e-01 -3.681003e-01 -2.178222e-01 -1.798518e-01 -6.378449e-02 -1.480709e-01 3.837830e-01 1.178746e+00 2.795831e-01 2.266823e-01 -2.445443e-01 7.859758e-02 -1.557932e-02 1.825232e-01 -6.927770e-02 -9.765904e-02 7.490874e-02 -3.560370e-02 3.006543e-02 6.180258e-01
<VARIANCE> 39
 2.312281e+02 1.630980e+02 1.521846e+02 1.465624e+02 1.614871e+02 1.635601e+02 2.128273e+02 1.721035e+02 1.805254e+02 1.524287e+02 1.456034e+02 1.377054e+02 3.349547e+02 2.526726e+01 1.324286e+01 1.286124e+01 1.809435e+01 1.454294e+01 1.485113e+01 1.611418e+01 1.575310e+01 1.599330e+01 1.411317e+01 1.356305e+01 1.278778e+01 2.109672e+01 4.041471e+00 2.687643e+00 2.389693e+00 3.235845e+00 2.808189e+00 3.123356e+00 3.368526e+00 3.297723e+00 3.320788e+00 2.955148e+00 2.790946e+00 2.545465e+00 3.381012e+00
<GCONST> 1.891317e+02
<STATE> 3
<MEAN> 39
 -2.696041e+01 -1.110648e+01 -1.147199e+01 4.393414e+00 -2.021261e+00 2.629716e+00 -5.720232e+00 -4.708308e+00 -2.502766e+00 -2.427199e+00 -1.884731e+00 -1.216166e+00 -3.235452e-01 9.710588e+00 1.705859e+00 4.531557e-01 -3.174952e+00 5.162675e-01 9.752510e-01 1.619787e+00 1.528771e-01 5.244768e-01 1.348129e+00 4.073220e-01 -1.053433e-01 5.875003e+00 3.669008e+00 1.027209e+00 5.683293e-01 -2.170129e+00 -3.578431e-01 3.824384e-01 7.180621e-01 4.078508e-01 8.563868e-02 7.078235e-01 2.495791e-01 -1.641196e-01 1.113239e+00
<VARIANCE> 39
 1.511370e+02 9.947797e+01 1.160973e+02 1.075697e+02 1.151294e+02 1.250058e+02 1.726932e+02 1.379533e+02 1.471945e+02 1.297962e+02 1.251774e+02 1.119887e+02 2.275940e+02 3.958439e+01 1.772923e+01 1.014060e+01 2.057163e+01 1.324125e+01 1.289320e+01 1.451929e+01 1.457187e+01 1.943536e+01 1.769628e+01 1.955449e+01 1.270032e+01 3.481881e+01 3.302154e+00 4.443806e+00 2.762399e+00 3.936648e+00 3.773411e+00 3.080038e+00 3.421497e+00 3.440728e+00 4.232142e+00 3.630621e+00 4.334199e+00 3.027295e+00 4.631629e+00
<GCONST> 1.893387e+02
<STATE> 4
<MEAN> 39
 1.929345e+01 -8.103270e+00 -1.117997e+01 -1.843527e+01 -8.685622e-02 9.037588e+00 2.875291e+00 -3.933146e+00 8.948365e-01 8.931980e+00 5.142900e+00 -3.846555e+00 2.630073e+01 9.795102e+00 -1.283557e+00 -2.744554e-01 -8.198302e+00 -2.531098e-01 1.914408e+00 2.028419e+00 9.682592e-01 8.179786e-01 2.334396e+00 8.783942e-01 -7.673932e-01 8.176725e+00 -3.080071e+00 -4.127460e-01 5.996344e-02 6.771178e-01 -2.038509e-01 -1.130136e-01 -4.506995e-01 3.713927e-01 -5.311456e-02 -7.446371e-01 -7.426323e-01 3.041638e-02 -1.432483e+00
<VARIANCE> 39
 2.978584e+02 1.817285e+02 1.434190e+02 4.118145e+02 2.151771e+02 1.683831e+02 1.863877e+02 1.787277e+02 3.047048e+02 2.361503e+02 3.653344e+02 1.926187e+02 3.867761e+02 6.322293e+01 4.562088e+01 2.360540e+01 3.414783e+01 3.225481e+01 2.195836e+01 2.417218e+01 2.447475e+01 3.612634e+01 2.751834e+01 3.878893e+01 2.404678e+01 2.668011e+01 6.758118e+00 3.202470e+00 2.339789e+00 8.010804e+00 4.063313e+00 3.095644e+00 3.471914e+00 3.208894e+00 5.634467e+00 4.441680e+00 5.255064e+00 3.405653e+00 4.972955e+00
<GCONST> 2.060628e+02
<TRANSP> 5
 0.000000e+00 1.000000e+00 0.000000e+00 0.000000e+00 0.000000e+00
 0.000000e+00 8.660466e-01 1.339534e-01 0.000000e+00 0.000000e+00
 0.000000e+00 0.000000e+00 6.573448e-01 3.426552e-01 0.000000e+00
 0.000000e+00 0.000000e+00 0.000000e+00 5.617332e-01 4.382668e-01
 0.000000e+00 0.000000e+00 0.000000e+00 0.000000e+00 0.000000e+00
<ENDHMM>
~h "k"
<BEGINHMM>
<NUMSTATES> 5
<STATE> 2
<MEAN> 39
 3.022547e+00 1.365198e+01 1.736672e+01 2.582002e+01 9.482480e-01 -7.138088e+00 3.991013e+00 -4.286098e+00 -1.303700e+01 -7.410194e+00 1.827396e+00 -2.210875e+00 -2.750217e+01 -5.588001e+00 1.994570e+00 -9.748957e+00 -1.420347e+00 3.341868e+00 5.599169e+00 -3.595718e+00 8.044590e-02 3.860595e+00 -1.852312e+00 4.782376e-03 -7.919439e-01 -1.215136e+01 -1.894193e-01 -3.109118e+00 -9.458427e-01 -2.884769e+00 -1.085880e+00 -1.167819e+00 -8.410816e-01 -7.086248e-03 8.941457e-01 1.084609e+00 -2.401567e-01 6.234820e-01 4.869511e+00
<VARIANCE> 39
 1.606309e+02 2.129742e+02 2.726321e+02 2.198744e+02 2.482974e+02 3.646846e+02 3.662147e+02 4.245006e+02 3.217195e+02 2.674812e+02 2.089144e+02 1.850132e+02 3.972957e+02 1.099631e+01 4.787954e+01 2.480524e+01 4.141805e+01 3.004383e+01 3.896888e+01 5.601415e+01 7.137783e+01 5.159569e+01 3.556174e+01 2.370217e+01 2.258829e+01 6.883488e+01 3.500789e+00 5.817834e+00 5.540431e+00 5.146569e+00 5.277713e+00 8.113320e+00 9.102160e+00 8.879609e+00 7.923717e+00 5.569349e+00 4.655182e+00 4.263309e+00 1.238413e+01
<GCONST> 2.147908e+02
<STATE> 3
<MEAN> 39
 -7.197657e+00 -3.664175e+00 -1.426014e+01 7.099888e+00 2.842818e+00 -2.799740e-01 -7.436998e+00 -3.917568e+00 -3.328422e-01 -2.282771e+00 1.319942e+00 -1.539596e+00 -2.766215e+01 -1.483493e+00 -4.759579e+00 -5.330830e+00 -1.075509e+00 -1.212758e-02 -1.590310e+00 -2.119842e+00 1.165101e+00 1.700930e+00 1.330271e+00 -6.803569e-01 5.101338e-01 9.397840e+00 -7.282606e-01 8.896393e-01 1.868510e+00 1.116136e+00 -6.383980e-01 -1.209627e+00 7.520090e-01 3.834900e-01 -5.529544e-01 -1.911687e-01 -2.145272e-01 2.028914e-01 2.621326e+00
<VARIANCE> 39
 1.953532e+02 3.053068e+02 2.603064e+02 1.556181e+02 1.499323e+02 1.806877e+02 2.208210e+02 1.676743e+02 1.545554e+02 1.428914e+02 1.256896e+02 1.150576e+02 7.407142e+02 3.121145e+01 2.733992e+01 2.457003e+01 2.476180e+01 2.171319e+01 2.624722e+01 2.179782e+01 2.122890e+01 2.016589e+01 1.799936e+01 1.544745e+01 1.159745e+01 7.650554e+01 8.607958e+00 8.652365e+00 5.566946e+00 3.445178e+00 4.416369e+00 5.174438e+00 5.148160e+00 4.680852e+00 4.184237e+00 3.830557e+00 2.754191e+00 2.429045e+00 1.784186e+01
<GCONST> 2.023930e+02
<STATE> 4
<MEAN> 39
 -2.654312e+01 -7.219865e+00 -1.812203e+01 1.148796e+01 2.320145e+00 -1.601760e+01 -1.108187e+01 3.011224e+00 5.242153e+00 -1.527341e+00 -4.009499e+00 1.963243e+00 1.384592e+01 -9.236499e+00 3.641701e+00 1.755815e+00 5.250113e-02 -2.162127e+00 -2.287107e+00 1.820304e+00 2.377678e+00 7.778609e-01 -1.212664e+00 -8.207120e-01 1.063678e+00 3.992556e+00 2.121810e-03 1.768535e+00 9.919426e-01 -5.197062e-01 -1.910513e-01 1.503543e+00 1.222000e+00 -2.237575e-01 -7.666278e-01 -4.171999e-01 4.134853e-01 -8.511376e-02 -3.669222e+00
<VARIANCE> 39
 4.438256e+02 1.295118e+02 1.739678e+02 2.163559e+02 3.206523e+02 2.702391e+02 2.449835e+02 2.072624e+02 2.049775e+02 1.889960e+02 1.619970e+02 1.280343e+02 1.994190e+02 4.212716e+01 1.813188e+01 1.486447e+01 1.588842e+01 2.341190e+01 2.711273e+01 1.889617e+01 1.790035e+01 1.969983e+01 1.581217e+01 1.412936e+01 1.402557e+01 3.705011e+01 8.466209e+00 3.834481e+00 3.374316e+00 2.968994e+00 3.948299e+00 4.724237e+00 4.051649e+00 3.966264e+00 3.866878e+00 3.583762e+00 2.971720e+00 2.476775e+00 6.104980e+00
<GCONST> 1.981212e+02
<TRANSP> 5
 0.000000e+00 1.000000e+00 0.000000e+00 0.000000e+00 0.000000e+00
 0.000000e+00 6.868549e-01 3.131451e-01 0.000000e+00 0.000000e+00
 0.000000e+00 0.000000e+00 7.587879e-01 2.412121e-01 0.000000e+00
 0.000000e+00 0.000000e+00 0.000000e+00 5.593577e-01 4.406423e-01
 0.000000e+00 0.000000e+00 0.000000e+00 0.000000e+00 0.000000e+00
<ENDHMM>
~h "n"
<BEGINHMM>
<NUMSTATES> 5
<STATE> 2
<MEAN> 39
 1.696877e+01 5.573595e+00 2.256005e+01 9.040383e+00 -5.043554e+00 7.069993e+00 1.632101e+01 -7.918482e+00 -3.825253e+00 5.051251e+00 -3.625969e+00 4.726747e+00 8.497742e+00 1.280807e+00 3.281127e+00 1.137359e-01 3.933307e+00 3.551641e-01 1.468864e+00 2.346844e+00 -3.080243e+00 3.180043e-02 6.641631e-01 -1.537516e+00 2.963830e-01 -2.979434e+00 -5.696499e-01 -6.133847e-01 -8.192087e-01 -3.640025e-01 4.159164e-01 -3.342857e-01 -6.543710e-01 8.778948e-01 4.062670e-01 -3.498211e-01 2.129037e-01 -1.439833e-01 3.266424e-01
<VARIANCE> 39
 1.448279e+02 2.468645e+02 2.275206e+02 5.469246e+02 2.443535e+02 3.505205e+02 4.051047e+02 4.910331e+02 4.292598e+02 3.653295e+02 3.424267e+02 3.088133e+02 3.903829e+02 1.762332e+01 1.553136e+01 2.512591e+01 3.407942e+01 2.233217e+01 2.628606e+01 3.457883e+01 4.137714e+01 3.165501e+01 2.798081e+01 2.503105e+01 2.595247e+01 2.307697e+01 2.569201e+00 2.685177e+00 3.929924e+00 8.025596e+00 4.214012e+00 5.099273e+00 6.799457e+00 7.993567e+00 5.742155e+00 4.909901e+00 4.780465e+00 4.814200e+00 2.186568e+00
<GCONST> 2.090611e+02
<STATE> 3
<MEAN> 39
 1.873854e+01 1.204927e+01 2.149607e+01 2.043851e+01 -1.203586e+00 9.674412e+00 1.781665e+01 -1.106663e+01 4.244981e-01 2.543228e+00 -7.190725e+00 6.293568e+00 1.586777e+00 -2.842395e+00 -2.603794e+00 -2.153005e+00 -2.679688e+00 2.490094e+00 -1.690552e+00 -2.769723e+00 5.144873e+00 8.720442e-01 -5.280941e-01 6.745829e-01 -1.142964e+00 1.562256e+00 -1.291958e+00 -1.383873e+00 -1.421420e+00 -1.618262e+00 1.291988e-01 -5.719641e-01 -1.199689e+00 1.242033e+00 2.199379e-01 -1.425217e-01 5.433618e-01 -3.540819e-01 6.109793e-01
<VARIANCE> 39
 9.895874e+01 2.093820e+02 1.406895e+02 2.613866e+02 2.596323e+02 3.980009e+02 3.933123e+02 4.069165e+02 3.721403e+02 3.549411e+02 3.561725e+02 3.316173e+02 2.654329e+02 2.137770e+01 2.466212e+01 2.125302e+01 3.473889e+01 2.581681e+01 3.812260e+01 4.265598e+01 4.294791e+01 3.651632e+01 2.782899e+01 2.852524e+01 3.073021e+01 3.860142e+01 2.946007e+00 2.657292e+00 2.947519e+00 4.160030e+00 4.833343e+00 6.108551e+00 6.130142e+00 7.269928e+00 5.412319e+00 4.048241e+00 4.537295e+00 4.508548e+00 2.365821e+00
<GCONST> 2.080525e+02
<STATE> 4
<MEAN> 39
 2.443744e+00 4.480870e-01 6.710699e+00 1.272649e+01 5.753725e+00 3.798241e+00 1.084813e+01 8.499997e+00 4.130842e+00 -1.091795e+00 -4.845625e+00 8.199947e-01 -6.199643e+00 -3.546428e+00 -2.521035e+00 -4.664963e+00 -3.259276e+00 -1.360150e-01 -1.165175e+00 -2.822273e+00 1.914634e+00 6.130671e-01 -8.194087e-01 8.663195e-01 -1.191118e+00 -5.771526e-01 2.640482e-01 3.654284e-01 6.376846e-02 2.081422e-01 -5.461006e-01 2.162174e-01 8.860394e-02 -1.271877e+00 -2.426147e-01 2.085796e-02 -1.150264e-03 1.600555e-01 -3.141744e-02
<VARIANCE> 39
 1.987792e+02 2.607471e+02 2.137082e+02 4.102999e+02 2.249324e+02 3.416466e+02 4.290199e+02 3.581740e+02 3.143968e+02 3.213340e+02 2.326527e+02 2.219165e+02 7.319086e+02 2.202447e+01 1.932385e+01 1.909616e+01 2.435874e+01 2.325117e+01 2.484822e+01 2.697194e+01 3.411019e+01 3.094562e+01 2.312321e+01 2.469987e+01 2.222206e+01 2.347228e+01 1.709516e+00 2.823600e+00 2.794120e+00 4.939449e+00 3.759456e+00 5.450177e+00 5.962382e+00 5.609338e+00 4.500652e+00 3.917664e+00 3.729903e+00 3.605910e+00 2.864242e+00
<GCONST> 2.047432e+02
<TRANSP> 5
 0.000000e+00 1.000000e+00 0.000000e+00 0.000000e+00 0.000000e+00
 0.000000e+00 6.517552e-01 3.482448e-01 0.000000e+00 0.000000e+00
 0.000000e+00 0.000000e+00 6.121290e-01 3.878711e-01 0.000000e+00
 0.000000e+00 0.000000e+00 0.000000e+00 6.152758e-01 3.847242e-01
 0.000000e+00 0.000000e+00 0.000000e+00 0.000000e+00 0.000000e+00
<ENDHMM>
~h "r"
<BEGINHMM>
<NUMSTATES> 5
<STATE> 2
<MEAN> 39
 3.879397e+01 -1.440517e+01 -1.689066e+01 4.316805e+00 2.615646e+01 -1.661012e+01 -2.780200e+01 -1.122741e-01 -2.322091e+00 3.348696e-01 3.952529e+00 3.643625e+00 2.574423e+01 4.124907e-01 -8.469614e-01 -1.377649e+00 1.279718e-01 8.849638e-01 -1.313203e+00 -1.095986e+00 1.070833e+00 1.383769e+00 5.474607e-01 4.556555e-02 1.184537e-01 1.168899e-01 -1.120078e+00 6.310133e-03 1.741874e+00 -5.012770e-02 -1.797197e+00 -9.667549e-02 1.586773e+00 5.697096e-01 -4.742150e-01 -2.066901e-01 4.672743e-02 5.855333e-02 1.246006e-01
<VARIANCE> 39
 8.228638e+01 1.398250e+02 3.511748e+02 2.631458e+02 2.969087e+02 6.827546e+02 6.041867e+02 3.589656e+02 2.399359e+02 3.277224e+02 2.184926e+02 1.946532e+02 1.474364e+02 7.195904e+00 8.392379e+00 2.932308e+01 1.921659e+01 2.139240e+01 3.033039e+01 2.313759e+01 2.550893e+01 1.998850e+01 1.737214e+01 1.521062e+01 1.411628e+01 6.778460e+00 1.225940e+00 1.372774e+00 1.808567e+00 2.064266e+00 2.588544e+00 4.513606e+00 3.932388e+00 3.524704e+00 3.072758e+00 2.974247e+00 2.657675e+00 2.434162e+00 7.968321e-01
<GCONST> 1.910938e+02
<STATE> 3
<MEAN> 39
 3.304304e+01 -2.024071e+01 -4.806466e+00 1.131176e+01 1.665787e+01 -2.915167e+01 -1.910332e+01 1.406767e+01 -2.033196e+00 -2.782192e+00 3.120585e+00 4.634687e+00 2.839137e+01 -4.065530e+00 -4.402755e-01 6.715260e+00 1.026431e+00 -5.737118e+00 -9.307408e-01 6.214593e+00 2.300886e+00 -2.279439e+00 -8.776906e-01 9.733545e-01 -2.240455e-01 -3.420042e-02 -1.013319e+00 1.117976e+00 6.479384e-01 -1.211197e+00 -7.547441e-01 2.399717e+00 1.329620e+00 -1.815032e+00 -7.762737e-01 7.838508e-01 1.524116e-01 -4.494677e-01 -5.821108e-01
<VARIANCE> 39
 8.539285e+01 1.592460e+02 4.548953e+02 3.157568e+02 3.141885e+02 6.547707e+02 6.661750e+02 3.267913e+02 3.381358e+02 3.986602e+02 2.323072e+02 2.222691e+02 2.089582e+02 1.128763e+01 1.037416e+01 3.024185e+01 2.526366e+01 2.835570e+01 3.430613e+01 3.150071e+01 3.220377e+01 3.608693e+01 2.683241e+01 2.142418e+01 1.780199e+01 1.396304e+01 1.959506e+00 2.237555e+00 2.239149e+00 2.428880e+00 3.467052e+00 5.897812e+00 5.038719e+00 4.558857e+00 4.132278e+00 3.607922e+00 2.931153e+00 2.931196e+00 1.044134e+00
<GCONST> 2.004801e+02
<STATE> 4
<MEAN> 39
 1.893961e+01 -1.774151e+01 5.888547e+00 9.015494e+00 3.662373e+00 -1.793609e+01 1.737652e+00 1.188022e+01 -6.409332e+00 8.268511e-01 4.998541e+00 -4.925550e-01 2.010525e+01 -3.863866e+00 1.505088e+00 3.800276e+00 -2.164247e+00 -3.442472e+00 3.480949e+00 3.543520e+00 -2.682480e+00 -1.055264e+00 1.363399e+00 -6.004300e-01 -1.283582e+00 -1.471008e+00 1.280160e-01 6.928452e-01 -7.165735e-01 -5.942364e-01 7.917263e-01 7.137875e-01 -1.027654e+00 -8.348951e-01 6.414348e-01 1.547763e-01 -4.893032e-01 8.907358e-02 -3.081546e-01
<VARIANCE> 39
 2.135403e+02 1.729170e+02 7.942065e+02 3.950042e+02 3.911837e+02 5.825135e+02 4.862098e+02 3.479282e+02 5.333326e+02 3.757299e+02 2.458065e+02 2.500525e+02 5.899680e+02 1.464419e+01 1.390404e+01 2.196082e+01 1.871542e+01 1.873700e+01 2.559326e+01 2.802704e+01 2.749236e+01 2.135475e+01 2.096962e+01 1.779938e+01 1.526311e+01 9.594091e+00 1.237931e+00 1.687059e+00 2.471558e+00 2.735360e+00 3.440024e+00 4.188604e+00 3.963078e+00 3.433664e+00 4.371690e+00 2.963025e+00 2.875512e+00 2.540121e+00 9.068656e-01
<GCONST> 1.993424e+02
<TRANSP> 5
 0.000000e+00 1.000000e+00 0.000000e+00 0.000000e+00 0.000000e+00
 0.000000e+00 7.630329e-01 2.369671e-01 0.000000e+00 0.000000e+00
 0.000000e+00 0.000000e+00 5.144955e-01 4.855045e-01 0.000000e+00
 0.000000e+00 0.000000e+00 0.000000e+00 6.233172e-01 3.766828e-01
 0.000000e+00 0.000000e+00 0.000000e+00 0.000000e+00 0.000000e+00
<ENDHMM>
~h "s"
<BEGINHMM>
<NUMSTATES> 5
<STATE> 2
<MEAN> 39
 -1.793570e+01 7.631706e+00 -1.420315e+00 6.906727e+00 3.710162e+00 -1.344268e+00 1.308199e+00 7.037413e-01 6.397741e-01 -3.203254e+00 -1.938419e+00 1.205345e+00 8.426682e-01 -8.064747e+00 1.872158e+00 -3.408864e+00 -5.427804e-01 -7.507000e-01 -3.350006e-01 8.914341e-01 1.166382e+00 6.057170e-02 -5.162647e-01 4.900166e-01 3.383695e-01 1.208776e+00 3.490010e-02 -3.072383e-01 -9.280606e-01 -7.053568e-01 -3.411670e-01 3.245433e-02 -3.502165e-01 -2.830735e-01 -3.495048e-01 2.405892e-01 1.333884e-01 -5.955006e-02 -2.559542e-01
<VARIANCE> 39
 5.879078e+02 2.491735e+02 3.803203e+02 3.367143e+02 3.412494e+02 3.591681e+02 3.096806e+02 2.893668e+02 2.852673e+02 2.326032e+02 2.145157e+02 1.917819e+02 5.029207e+02 5.786810e+01 2.532380e+01 4.480958e+01 3.982282e+01 3.045714e+01 3.707436e+01 3.123283e+01 3.006143e+01 3.231183e+01 2.599142e+01 2.465880e+01 2.277029e+01 3.586695e+01 9.280045e+00 4.864645e+00 5.171751e+00 5.570452e+00 5.455952e+00 6.049028e+00 5.362178e+00 5.688849e+00 5.030972e+00 4.681156e+00 4.363906e+00 3.955207e+00 4.243249e+00
<GCONST> 2.132320e+02
<STATE> 3
<MEAN> 39
 -4.363733e+01 1.167903e+01 -2.012915e+01 3.430258e+00 -3.810020e+00 -3.792938e+00 1.043787e+00 2.026059e+00 -1.528295e+00 -4.091102e+00 3.141250e-01 2.099189e+00 5.965532e+00 -3.567887e+00 7.815023e-01 -3.708796e+00 -1.561038e+00 -1.076860e+00 4.497899e-01 -7.479995e-01 -5.818949e-01 -7.470387e-01 1.718571e-01 -7.584238e-02 -3.267337e-02 3.857280e-01 2.555783e+00 -5.341480e-01 1.052045e+00 5.206611e-01 5.122988e-01 3.742842e-01 -2.077220e-01 -3.701126e-01 1.325678e-01 2.216071e-01 -2.888066e-01 -1.329941e-01 -5.788464e-01
<VARIANCE> 39
 1.858107e+02 1.572897e+02 1.900273e+02 2.904734e+02 3.093509e+02 3.046272e+02 2.472147e+02 1.857641e+02 2.178797e+02 1.813111e+02 1.772253e+02 1.486620e+02 1.804287e+02 2.346528e+01 1.644007e+01 2.042759e+01 1.605267e+01 1.794324e+01 2.050142e+01 1.956628e+01 1.626426e+01 1.510519e+01 1.486039e+01 1.358082e+01 1.283208e+01 1.443677e+01 3.085103e+00 2.458648e+00 3.848552e+00 3.107863e+00 3.467857e+00 3.695048e+00 3.726740e+00 3.634627e+00 3.409075e+00 3.205995e+00 3.022157e+00 2.906859e+00 2.071299e+00
<GCONST> 1.926453e+02
<STATE> 4
<MEAN> 39
 -3.825295e+01 7.324355e+00 -2.167009e+01 3.185046e+00 -3.842190e+00 7.968442e-01 -2.286968e+00 2.097689e+00 -2.457136e+00 -1.439814e+00 -1.453826e+00 3.144343e-01 5.102960e+00 8.042585e-01 -1.996856e-01 1.267846e-01 -1.361527e-01 8.606551e-02 4.192901e-01 7.251027e-02 -1.029912e-01 4.937440e-02 8.104637e-02 -9.462338e-02 -1.215765e-01 -3.022510e-01 7.612373e-01 -4.990129e-02 6.460593e-01 1.433945e-01 7.194577e-02 -1.553880e-01 6.969514e-02 -3.603544e-02 1.203960e-01 -4.549398e-02 2.171532e-02 6.230505e-02 2.389234e-02
<VARIANCE> 39
 2.908263e+02 1.458495e+02 1.827506e+02 2.452282e+02 2.499236e+02 2.671725e+02 2.180772e+02 1.574409e+02 1.924743e+02 1.540146e+02 1.518438e+02 1.325246e+02 2.359945e+02 8.800653e+00 6.402508e+00 7.675244e+00 8.215543e+00 1.002605e+01 1.190123e+01 1.193114e+01 1.208101e+01 1.163644e+01 1.170113e+01 1.111253e+01 1.046297e+01 7.865319e+00 2.057351e+00 1.304907e+00 1.923615e+00 1.665052e+00 1.908132e+00 2.340791e+00 2.409451e+00 2.382977e+00 2.310252e+00 2.334166e+00 2.196389e+00 2.121840e+00 1.108007e+00
<GCONST> 1.786492e+02
<TRANSP> 5
 0.000000e+00 1.000000e+00 0.000000e+00 0.000000e+00 0.000000e+00
 0.000000e+00 5.937072e-01 4.062928e-01 0.000000e+00 0.000000e+00
 0.000000e+00 0.000000e+00 5.231885e-01 4.768115e-01 0.000000e+00
 0.000000e+00 0.000000e+00 0.000000e+00 8.444990e-01 1.555010e-01
 0.000000e+00 0.000000e+00 0.000000e+00 0.000000e+00 0.000000e+00
<ENDHMM>
~h "t"
<BEGINHMM>
<NUMSTATES> 5
<STATE> 2
<MEAN> 39
 -8.952326e+00 1.389989e+01 1.747533e+00 1.501109e+01 5.093059e+00 6.565054e+00 7.526019e-01 -2.386601e+00 7.939176e-01 -3.571334e+00 1.115228e+00 -2.377798e+00 -3.560386e+01 -3.393985e+00 -1.258935e+00 -5.474851e+00 -1.759966e+00 6.445311e-02 -5.036376e-01 -4.954328e-01 6.355963e-01 1.092188e+00 3.929258e-02 1.226628e+00 1.064406e-01 -2.180072e+00 -2.842621e-01 -8.255146e-01 9.687202e-01 -1.583317e+00 -6.831616e-01 -6.130186e-01 -7.984431e-02 -5.454689e-01 -6.313818e-01 1.299595e-01 -3.387460e-01 2.447307e-01 3.626737e+00
<VARIANCE> 39
 2.597268e+02 2.183976e+02 3.835002e+02 2.621091e+02 2.099828e+02 2.177574e+02 3.254241e+02 2.354811e+02 2.622426e+02 1.997271e+02 1.755371e+02 1.642066e+02 4.972713e+02 2.171036e+01 3.428246e+01 5.266596e+01 4.227418e+01 2.733936e+01 2.805169e+01 2.906737e+01 3.221421e+01 3.552623e+01 2.350614e+01 2.214089e+01 2.016298e+01 1.244098e+02 3.511402e+00 6.086754e+00 7.234175e+00 6.459268e+00 4.955284e+00 4.940035e+00 5.467208e+00 5.416859e+00 6.126550e+00 4.418531e+00 4.038661e+00 3.732975e+00 1.372073e+01
<GCONST> 2.110431e+02
<STATE> 3
<MEAN> 39
 -2.785528e+01 2.988834e+00 -9.269582e+00 -8.943458e+00 -2.050879e+00 -3.689908e+00 -1.223219e+00 -6.165354e+00 -5.163689e+00 -2.815767e+00 2.184139e+00 -8.134006e-01 3.643490e+00 -3.844615e+00 2.435179e-01 1.009474e+00 -2.150550e+00 -2.325234e+00 -2.665793e+00 1.372844e+00 -9.400968e-03 -1.943920e+00 -8.743567e-02 -3.221295e-01 1.532008e+00 1.110023e+01 9.573767e-01 6.411560e-01 1.282087e+00 1.924914e+00 -1.442930e-01 3.457931e-01 7.015452e-01 5.333899e-01 4.894952e-01 4.424849e-02 -1.941262e-01 2.762807e-01 -2.594076e+00
<VARIANCE> 39
 2.343421e+02 2.277485e+02 2.219723e+02 2.282949e+02 1.916478e+02 2.007800e+02 2.211387e+02 1.859630e+02 2.033415e+02 1.809802e+02 1.603101e+02 1.754672e+02 1.100113e+03 2.030284e+01 2.135531e+01 2.230231e+01 2.248196e+01 1.908441e+01 2.309759e+01 2.511048e+01 2.277081e+01 2.019684e+01 1.888054e+01 1.906535e+01 1.542068e+01 1.037317e+02 4.898025e+00 4.898142e+00 4.071125e+00 4.275934e+00 3.993359e+00 3.927161e+00 3.967840e+00 3.731186e+00 4.003037e+00 3.435334e+00 3.297664e+00 3.094845e+00 2.178955e+01
<GCONST> 2.028421e+02
<STATE> 4
<MEAN> 39
 -2.705836e+01 1.463206e+00 -2.259952e+00 -1.563545e+00 -8.494302e+00 -7.334807e+00 7.834193e+00 -3.476509e-01 -4.550045e+00 -3.722991e+00 9.978288e-01 4.334230e+00 5.349767e+00 3.136689e+00 -1.182848e+00 2.327513e+00 2.338907e+00 -4.463087e-01 2.407346e-01 9.737683e-01 1.482326e+00 1.022373e+00 -1.594059e-01 -7.491170e-01 2.329928e-01 -1.959820e+00 1.893369e+00 8.255923e-02 5.551613e-01 5.259150e-01 8.135617e-01 4.583306e-01 -5.245188e-01 -1.343997e-01 2.133863e-01 9.117419e-02 -1.619174e-01 -5.027305e-01 -6.103028e-01
<VARIANCE> 39
 3.776777e+02 1.501353e+02 2.114884e+02 1.930197e+02 2.056473e+02 2.720312e+02 2.291963e+02 2.723853e+02 2.401059e+02 2.181924e+02 2.376690e+02 1.910652e+02 6.437291e+02 2.516842e+01 1.258079e+01 2.535832e+01 1.866980e+01 1.631596e+01 1.728282e+01 1.777408e+01 1.844787e+01 1.686127e+01 1.593052e+01 1.589998e+01 1.460049e+01 1.970154e+01 6.094150e+00 2.995409e+00 3.553441e+00 2.934972e+00 3.231742e+00 4.168116e+00 3.637722e+00 3.686340e+00 3.710867e+00 3.542808e+00 3.584171e+00 2.987612e+00 6.673311e+00
<GCONST> 1.979353e+02
<TRANSP> 5
 0.000000e+00 1.000000e+00 0.000000e+00 0.000000e+00 0.000000e+00
 0.000000e+00 7.871279e-01 2.128721e-01 0.000000e+00 0.000000e+00
 0.000000e+00 0.000000e+00 6.448821e-01 3.551179e-01 0.000000e+00
 0.000000e+00 0.000000e+00 0.000000e+00 6.621740e-01 3.378259e-01
 0.000000e+00 0.000000e+00 0.000000e+00 0.000000e+00 0.000000e+00
<ENDHMM>
~h "v"
<BEGINHMM>
<NUMSTATES> 5
<STATE> 2
<MEAN> 39
 1.777209e+01 -2.192141e+01 5.015043e+00 -1.777643e+01 -9.293553e+00 -1.598891e+01 -1.119863e+00 9.785302e+00 1.630130e+01 9.204335e+00 6.962649e-01 1.596702e+00 4.589208e+01 9.782435e-01 2.286847e-01 6.026706e-02 9.386840e-01 1.003238e+00 2.734186e-01 -6.378642e-01 -9.700989e-01 -7.534059e-01 7.205988e-01 4.277999e-01 -8.047565e-01 -1.594942e+00 -1.126838e-01 1.189519e+00 4.615904e-02 1.470591e+00 1.055596e+00 9.418752e-01 -5.078716e-01 -1.022572e+00 -1.003031e+00 -3.110354e-01 -7.251991e-02 -7.822142e-02 -1.649225e+00
<VARIANCE> 39
 8.162689e+01 1.049708e+02 1.722440e+02 1.606021e+02 1.778576e+02 1.827478e+02 5.108184e+02 2.295924e+02 1.981299e+02 3.273624e+02 2.281610e+02 2.453935e+02 1.529485e+02 2.234361e+00 9.440564e+00 7.476786e+00 1.152829e+01 9.489165e+00 1.146539e+01 1.643506e+01 1.601324e+01 1.575576e+01 1.118996e+01 1.562383e+01 1.215625e+01 8.064999e+00 9.173969e-01 8.922731e-01 1.294420e+00 1.668888e+00 2.026269e+00 2.765882e+00 3.272061e+00 1.902542e+00 2.424752e+00 2.239497e+00 2.090799e+00 2.094063e+00 1.027242e+00
<GCONST> 1.776573e+02
<STATE> 3
<MEAN> 39
 2.345995e+01 -1.072547e+01 9.691589e+00 -2.234114e-03 1.379917e-02 -1.278486e+01 -9.028493e+00 -2.629866e+00 3.465155e+00 1.032486e+01 3.124720e+00 -1.616500e+00 2.568902e+01 -1.240305e+00 6.033341e+00 9.769800e-01 7.525523e+00 5.655428e+00 5.888374e+00 -1.008854e-01 -3.153170e+00 -4.056474e+00 -1.480704e+00 4.807259e-01 -2.866016e-01 -9.257973e+00 -1.849260e+00 2.597221e-01 -5.929946e-01 1.943218e-02 1.811448e-01 1.392852e+00 1.479039e+00 1.201634e+00 5.595656e-01 -6.334361e-01 -2.754496e-01 8.802669e-02 -4.715078e-01
<VARIANCE> 39
 7.178234e+01 1.525639e+02 2.095035e+02 2.449965e+02 2.477909e+02 2.821948e+02 3.091788e+02 2.484733e+02 3.265343e+02 2.510714e+02 3.141932e+02 2.205622e+02 2.301139e+02 1.357287e+01 1.320893e+01 1.610624e+01 1.924257e+01 2.036027e+01 2.401520e+01 3.606306e+01 2.290390e+01 2.628037e+01 2.666949e+01 2.428461e+01 2.148959e+01 1.113548e+01 2.141644e+00 2.444923e+00 2.259708e+00 3.732488e+00 4.099448e+00 5.000404e+00 3.664677e+00 3.349505e+00 4.780964e+00 3.445461e+00 4.042543e+00 3.143307e+00 3.093081e+00
<GCONST> 1.969708e+02
<STATE> 4
<MEAN> 39
 2.067276e+00 2.878071e+00 5.837160e+00 1.457107e+01 8.563934e+00 4.607205e+00 8.082418e-01 -1.536120e-01 5.336251e-01 1.987232e+00 8.640957e-01 1.780768e-01 -3.309532e+00 -2.831253e+00 1.743925e-01 -1.179074e+00 -3.610725e-01 -4.568990e-01 6.428469e-01 5.757792e-01 7.052403e-01 -9.873354e-02 -1.067465e+00 -1.334675e-01 1.445169e-01 -1.951353e+00 6.499468e-01 -1.282056e+00 -2.057317e-01 -1.802011e+00 -1.335552e+00 -1.645222e+00 -3.557273e-01 4.166335e-01 6.490926e-01 1.979084e-01 -8.272875e-02 7.550353e-02 1.964170e+00
<VARIANCE> 39
 3.875376e+02 1.645521e+02 1.874467e+02 2.155379e+02 2.393806e+02 2.485852e+02 2.194530e+02 2.513977e+02 2.511533e+02 1.989302e+02 2.221853e+02 1.638593e+02 3.021006e+02 3.920002e+01 2.341061e+01 1.620295e+01 2.904714e+01 2.533261e+01 3.735236e+01 2.760235e+01 2.154378e+01 2.287575e+01 1.859858e+01 1.896515e+01 1.591036e+01 3.192925e+01 4.946659e+00 4.629647e+00 3.461302e+00 6.230098e+00 5.543389e+00 6.395734e+00 5.580129e+00 4.873296e+00 4.932020e+00 4.081814e+00 3.885428e+00 3.455137e+00 5.381817e+00
<GCONST> 2.040897e+02
<TRANSP> 5
 0.000000e+00 1.000000e+00 0.000000e+00 0.000000e+00 0.000000e+00
 0.000000e+00 7.680059e-01 2.319941e-01 0.000000e+00 0.000000e+00
 0.000000e+00 0.000000e+00 5.938161e-01 4.061839e-01 0.000000e+00
 0.000000e+00 0.000000e+00 0.000000e+00 7.637799e-01 2.362201e-01
 0.000000e+00 0.000000e+00 0.000000e+00 0.000000e+00 0.000000e+00
<ENDHMM>
~h "w"
<BEGINHMM>
<NUMSTATES> 5
<STATE> 2
<MEAN> 39
 3.294299e+01 1.248554e+01 5.580666e+00 -3.403480e+01 -2.120734e+01 -2.521407e-01 2.523580e-01 1.387386e+01 2.417382e-01 8.235864e+00 3.529223e+00 -3.456430e+00 2.149609e+01 -4.995824e-01 -4.202437e+00 -3.823787e+00 -6.180623e+00 2.294294e+00 3.099946e+00 2.282469e+00 4.739245e+00 2.948548e-01 -2.136985e+00 7.022429e-01 1.660630e-01 4.199695e+00 -5.444354e-01 -6.346262e-01 -6.571550e-01 1.149549e+00 2.072455e+00 1.536946e+00 3.468284e-01 -8.591747e-01 -7.356622e-01 -8.938968e-01 3.939289e-01 3.705855e-01 -2.317039e-01
<VARIANCE> 39
 6.197170e+01 1.279498e+02 1.791124e+02 2.376041e+02 3.115892e+02 2.173491e+02 3.516816e+02 3.009736e+02 2.947158e+02 2.878598e+02 2.298189e+02 2.051383e+02 1.376077e+02 2.204893e+00 9.854572e+00 7.660073e+00 1.363094e+01 1.837450e+01 1.798697e+01 1.839719e+01 1.908584e+01 2.058749e+01 2.015199e+01 1.619384e+01 1.786711e+01 5.095746e+00 5.994100e-01 1.221593e+00 1.298557e+00 3.022553e+00 2.227467e+00 2.371556e+00 3.967364e+00 4.245243e+00 3.374974e+00 3.260394e+00 3.197323e+00 2.792499e+00 6.128713e-01
<GCONST> 1.833956e+02
<STATE> 3
<MEAN> 39
 2.834590e+01 -5.422813e+00 -1.083907e+01 -4.433095e+01 1.954313e+00 2.023036e+01 6.228369e+00 1.643827e+01 -7.444855e+00 -3.869532e+00 1.254098e+01 2.838378e+00 3.404844e+01 -1.479233e+00 -4.535518e+00 -2.503644e+00 1.515840e+00 6.627017e+00 3.206538e+00 -2.310416e+00 -2.833210e+00 -8.290849e-01 5.186875e-01 3.715662e+00 2.554287e-01 2.497411e+00 -1.371052e-01 3.229316e-01 9.355447e-01 1.991526e+00 -3.616488e-01 -1.448988e+00 -1.548743e+00 -7.671953e-01 1.192168e+00 1.372278e+00 -4.434715e-01 -9.685979e-01 -5.240896e-01
<VARIANCE> 39
 6.687563e+01 1.167529e+02 1.613798e+02 2.059544e+02 4.404354e+02 2.353441e+02 3.230639e+02 3.049598e+02 2.802562e+02 3.228177e+02 2.489756e+02 2.620143e+02 1.555060e+02 1.927742e+00 6.768556e+00 5.864363e+00 1.285433e+01 1.144595e+01 1.426079e+01 2.094790e+01 1.677894e+01 2.084101e+01 2.262160e+01 1.431673e+01 1.938725e+01 3.351809e+00 2.731895e-01 6.902897e-01 9.278159e-01 2.034458e+00 2.539197e+00 2.478133e+00 2.470029e+00 3.879217e+00 3.330452e+00 3.108818e+00 4.105503e+00 2.838072e+00 2.952774e-01
<GCONST> 1.791228e+02
<STATE> 4
<MEAN> 39
 1.963979e+01 -2.206352e+01 -1.142593e+01 -2.117616e+01 2.253411e+01 1.060210e+01 -1.252920e+01 1.245677e+01 6.243691e+00 6.034039e+00 1.145258e+01 -8.395877e+00 4.030569e+01 -1.398624e+00 -1.424797e+00 2.308037e+00 4.627658e+00 -6.633208e-01 -4.044670e+00 -1.745445e+00 1.629918e+00 2.886368e+00 5.741372e-02 -3.030982e+00 -3.319770e-01 3.117858e-01 1.671642e-01 9.857128e-01 8.815669e-01 1.638673e-02 -1.233347e+00 -5.743838e-01 1.304311e+00 4.210619e-01 -6.890635e-01 -5.768890e-01 -7.387734e-01 8.735951e-01 -7.168518e-01
<VARIANCE> 39
 8.082158e+01 9.895615e+01 1.534008e+02 2.329496e+02 3.013624e+02 3.178697e+02 2.588192e+02 3.624512e+02 3.227551e+02 2.696176e+02 3.172744e+02 2.723936e+02 1.602101e+02 1.726665e+00 5.956091e+00 6.047272e+00 9.696838e+00 1.678678e+01 1.147333e+01 2.152321e+01 1.646591e+01 1.935872e+01 2.405662e+01 1.641798e+01 2.274612e+01 2.237075e+00 2.589949e-01 7.530912e-01 9.754953e-01 1.390719e+00 2.350280e+00 2.553591e+00 2.793088e+00 3.484643e+00 3.652156e+00 2.836219e+00 4.480266e+00 3.115695e+00 4.199333e-01
<GCONST> 1.791332e+02
<TRANSP> 5
 0.000000e+00 1.000000e+00 0.000000e+00 0.000000e+00 0.000000e+00
 0.000000e+00 6.953863e-01 3.046137e-01 0.000000e+00 0.000000e+00
 0.000000e+00 0.000000e+00 7.633751e-01 2.366249e-01 0.000000e+00
 0.000000e+00 0.000000e+00 0.000000e+00 8.151398e-01 1.848602e-01
 0.000000e+00 0.000000e+00 0.000000e+00 0.000000e+00 0.000000e+00
<ENDHMM>
~h "z"
<BEGINHMM>
<NUMSTATES> 5
<STATE> 2
<MEAN> 39
 -8.337102e+00 1.483940e+01 5.820233e+00 1.412876e+01 5.214128e+00 1.788303e+00 1.521939e+00 -7.407110e-01 4.027506e+00 -2.803942e+00 -5.636199e+00 1.215597e+00 -1.339281e+01 -2.155927e+00 4.656841e+00 -1.785178e-02 2.583613e+00 1.988984e+00 7.802722e-01 5.215008e-01 6.737059e-01 5.481816e-01 -1.294311e-01 -1.841156e-01 3.070581e-01 2.972882e+00 -7.753109e-01 3.379604e-01 -6.373014e-01 -1.448635e-01 -4.045083e-02 1.825636e-01 5.696001e-02 1.274885e-01 -1.766651e-01 2.248199e-01 2.900324e-01 -1.181176e-01 3.008478e-01
<VARIANCE> 39
 3.608306e+02 2.290564e+02 3.555519e+02 3.026172e+02 2.933871e+02 2.910170e+02 2.974523e+02 2.648840e+02 2.662535e+02 2.808538e+02 2.556423e+02 2.650229e+02 6.998994e+02 4.506422e+01 2.585543e+01 3.519432e+01 3.121991e+01 2.567278e+01 3.031466e+01 2.687705e+01 2.628229e+01 2.316879e+01 2.440901e+01 2.306932e+01 2.031321e+01 3.666516e+01 4.779104e+00 3.531420e+00 4.920775e+00 4.056293e+00 4.117108e+00 4.543102e+00 4.509695e+00 4.596350e+00 3.836504e+00 4.476049e+00 4.019372e+00 3.992629e+00 3.969794e+00
<GCONST> 2.082586e+02
<STATE> 3
<MEAN> 39
 -2.919750e+01 3.662932e+01 -1.610030e+00 2.530134e+01 1.265315e+01 1.053800e+01 5.185866e+00 4.326066e+00 3.991756e+00 -4.529452e-01 -2.337598e+00 1.982804e+00 5.104839e+00 -4.015447e+00 7.024274e-01 -1.818662e+00 -2.000756e-01 1.488453e-01 9.145289e-01 7.550669e-01 5.835929e-01 -2.604429e-01 4.502693e-01 5.471555e-01 -5.614163e-02 1.076994e+00 1.472834e+00 -1.335391e+00 1.016117e+00 -6.205082e-01 -7.955444e-01 -6.776096e-01 -2.840815e-01 -6.517029e-01 -3.287872e-01 -2.440524e-01 -2.397383e-01 6.768889e-02 2.691920e-01
<VARIANCE> 39
 2.758052e+02 1.715255e+02 2.613472e+02 3.973859e+02 3.512748e+02 4.031426e+02 2.379486e+02 2.766369e+02 2.032831e+02 1.912255e+02 2.590401e+02 1.626425e+02 1.531371e+02 1.933100e+01 1.953143e+01 1.722664e+01 1.588301e+01 1.611993e+01 1.880335e+01 1.620975e+01 1.746046e+01 1.394080e+01 1.450435e+01 1.246404e+01 1.310137e+01 1.139504e+01 3.082362e+00 3.347258e+00 3.081654e+00 3.102726e+00 3.273763e+00 4.025376e+00 3.638019e+00 3.780069e+00 2.936558e+00 3.002958e+00 2.582289e+00 2.586454e+00 1.830076e+00
<GCONST> 1.934105e+02
<STATE> 4
<MEAN> 39
 -2.723206e+01 2.751299e+01 5.046788e+00 1.692015e+01 5.654118e+00 1.890722e+00 2.105276e+00 -3.438999e+00 -1.199859e+00 -3.357084e+00 -5.020255e+00 9.646682e-01 1.805308e+01 7.317754e+00 -4.605446e+00 7.459728e+00 -1.493387e+00 -3.144354e+00 -3.472462e+00 -2.408436e+00 -2.895065e+00 -1.767219e+00 -1.449508e+00 -1.073709e+00 4.959700e-01 4.469924e+00 1.544212e+00 -1.602137e+00 1.650971e+00 -7.118120e-01 -2.160844e-01 -2.799641e-01 -4.049959e-01 9.068538e-02 -1.492357e-01 1.526831e-01 8.460825e-03 2.048142e-01 1.700486e-01
<VARIANCE> 39
 3.123217e+02 1.738976e+02 3.628340e+02 3.073616e+02 4.193248e+02 3.520816e+02 2.424486e+02 2.061089e+02 1.915156e+02 1.901755e+02 2.942140e+02 1.833752e+02 1.635613e+02 2.661024e+01 2.934914e+01 3.625538e+01 2.819611e+01 2.002791e+01 2.625464e+01 2.343523e+01 2.963139e+01 1.837897e+01 1.593651e+01 1.595279e+01 1.860617e+01 6.130121e+00 5.119198e+00 3.314173e+00 5.130895e+00 4.617041e+00 4.050472e+00 4.354107e+00 4.183241e+00 4.470252e+00 3.393352e+00 3.503239e+00 3.272931e+00 2.989433e+00 1.066378e+00
<GCONST> 1.996192e+02
<TRANSP> 5
 0.000000e+00 1.000000e+00 0.000000e+00 0.000000e+00 0.000000e+00
 0.000000e+00 7.310479e-01 2.689520e-01 0.000000e+00 0.000000e+00
 0.000000e+00 0.000000e+00 8.081523e-01 1.918477e-01 0.000000e+00
 0.000000e+00 0.000000e+00 0.000000e+00 7.624723e-01 2.375276e-01
 0.000000e+00 0.000000e+00 0.000000e+00 0.000000e+00 0.000000e+00
<ENDHMM>
~h "ah"
<BEGINHMM>
<NUMSTATES> 5
<STATE> 2
<MEAN> 39
 2.161055e+01 -1.481660e+01 6.897061e+00 -7.092227e+00 7.083833e+00 -4.855742e+00 -1.005258e+01 9.173654e+00 4.919980e+00 6.300849e+00 3.972608e+00 -1.750004e+00 3.163206e+01 -1.133125e-01 7.139979e-01 2.575423e+00 7.878835e-01 -1.424645e+00 -2.143705e+00 2.202296e+00 1.613556e+00 -1.565242e-01 -4.879368e-01 -2.112677e+00 1.335387e+00 -1.177223e-01 2.750517e-02 1.159570e+00 4.843477e-01 1.262654e+00 -2.016581e-02 1.173623e+00 1.342047e+00 -1.468893e+00 -6.646026e-01 -5.087219e-02 -3.685516e-01 3.312066e-01 -1.440872e+00
<VARIANCE> 39
 9.214344e+01 1.082723e+02 1.390951e+02 1.649650e+02 1.741757e+02 2.944148e+02 3.474484e+02 3.706798e+02 3.374305e+02 3.163549e+02 2.708873e+02 2.272305e+02 1.786492e+02 4.006599e+00 1.306928e+01 1.224397e+01 3.515340e+01 1.786665e+01 2.102380e+01 2.849981e+01 2.629330e+01 3.020456e+01 2.575172e+01 2.884300e+01 2.090757e+01 2.084510e+01 9.796126e-01 2.063595e+00 1.781508e+00 4.457831e+00 3.469812e+00 5.448197e+00 6.877064e+00 6.320561e+00 5.671507e+00 4.419558e+00 4.120164e+00 3.401755e+00 2.950268e+00
<GCONST> 1.964257e+02
<STATE> 3
<MEAN> 39
 1.973405e+01 -6.704216e+00 1.697415e+01 5.886850e+00 4.973673e+00 -7.681603e+00 5.300866e+00 7.809902e+00 1.101385e+00 2.126850e+00 -6.180203e+00 5.593030e+00 2.263390e+01 8.076106e-01 5.122206e+00 4.488815e+00 6.929669e+00 -3.019604e+00 3.587548e+00 6.367887e+00 -7.642287e+00 -1.550592e+00 -7.326893e-01 -2.086586e+00 2.531296e+00 -6.088602e+00 7.692091e-02 1.739424e-01 -5.704396e-01 -1.869137e-01 -2.211144e-01 1.612845e+00 -1.977708e-01 -1.195740e+00 6.272653e-01 -3.912989e-02 8.068509e-01 -2.701952e-01 -1.965374e-01
<VARIANCE> 39
 7.827315e+01 1.339052e+02 1.815250e+02 2.720870e+02 1.974665e+02 3.234141e+02 3.769489e+02 4.388843e+02 3.178873e+02 4.056025e+02 2.799263e+02 2.603475e+02 1.669471e+02 5.231497e+00 9.021367e+00 1.577972e+01 2.185612e+01 2.273545e+01 4.303535e+01 4.988651e+01 4.128595e+01 3.853633e+01 3.014416e+01 3.466928e+01 2.679695e+01 4.742170e+00 5.994102e-01 1.489740e+00 2.484926e+00 4.263464e+00 2.879219e+00 4.757157e+00 5.097899e+00 6.681939e+00 4.407981e+00 3.931144e+00 3.551126e+00 3.199564e+00 1.487818e+00
<GCONST> 1.966386e+02
<STATE> 4
<MEAN> 39
 2.156790e+01 5.782006e+00 2.464501e+01 1.894791e+01 -4.319981e+00 1.061055e+01 1.709542e+01 -1.295027e+01 1.114444e+00 -2.936866e-01 -5.472927e+00 9.519328e+00 8.076925e+00 -1.543110e-01 2.385881e+00 6.249778e-01 1.923886e+00 -5.247213e-01 2.375583e+00 1.781472e+00 -1.697921e+00 1.252550e-01 -3.887427e-01 -2.840927e-01 1.019878e-01 -2.834635e+00 -4.551695e-01 -4.780702e-01 -8.728920e-01 -7.864707e-01 8.650662e-01 -6.687895e-01 -9.253250e-01 1.648513e+00 1.334042e-01 1.023796e-01 2.184961e-01 -6.002359e-01 3.566769e-01
<VARIANCE> 39
 6.903025e+01 1.348428e+02 1.301090e+02 2.108707e+02 2.083034e+02 3.357336e+02 3.429673e+02 3.286659e+02 3.883961e+02 4.542311e+02 4.148546e+02 3.572523e+02 1.342775e+02 2.912154e+00 6.947093e+00 8.476400e+00 1.127104e+01 1.208192e+01 1.976579e+01 2.152320e+01 2.630720e+01 1.574236e+01 1.370921e+01 1.568288e+01 1.398258e+01 4.201221e+00 6.579821e-01 1.389111e+00 1.745026e+00 2.888111e+00 2.410715e+00 3.685679e+00 4.524167e+00 4.335538e+00 3.795271e+00 3.206701e+00 3.707443e+00 3.296972e+00 1.044079e+00
<GCONST> 1.860255e+02
<TRANSP> 5
 0.000000e+00 1.000000e+00 0.000000e+00 0.000000e+00 0.000000e+00
 0.000000e+00 7.070305e-01 2.929695e-01 0.000000e+00 0.000000e+00
 0.000000e+00 0.000000e+00 5.244485e-01 4.755515e-01 0.000000e+00
 0.000000e+00 0.000000e+00 0.000000e+00 7.592191e-01 2.407809e-01
 0.000000e+00 0.000000e+00 0.000000e+00 0.000000e+00 0.000000e+00
<ENDHMM>
~h "ao"
<BEGINHMM>
<NUMSTATES> 5
<STATE> 2
<MEAN> 39
 3.365250e+01 1.710048e+01 4.359377e+00 -3.108843e+01 -1.659664e+01 4.643308e+00 3.721646e+00 3.824604e+00 -7.807386e+00 -2.762153e-01 -6.156463e+00 -1.495159e+00 1.867375e+01 9.337957e+00 4.821584e+00 4.042770e+00 -9.918971e+00 -5.921406e+00 -1.312453e+00 -7.158028e-01 2.645027e+00 -1.744161e+00 1.103713e+00 -1.492360e+00 -1.160513e+00 4.025343e+00 -4.056716e+00 -2.034043e+00 -9.541288e-01 1.995032e+00 6.152645e-01 -2.940269e-01 -9.273849e-01 -4.564154e-01 3.382958e-01 2.192869e-01 3.952459e-01 -9.977839e-02 -8.328443e-01
<VARIANCE> 39
 1.205500e+02 1.184206e+02 1.666866e+02 3.773422e+02 3.647111e+02 2.197300e+02 2.067910e+02 2.402897e+02 2.383027e+02 2.009540e+02 1.811530e+02 2.345428e+02 1.984990e+02 4.022097e+01 2.406318e+01 2.174394e+01 3.563783e+01 3.486437e+01 2.533224e+01 3.513296e+01 3.069211e+01 3.101023e+01 2.984840e+01 2.507261e+01 3.234435e+01 1.137021e+01 2.342571e+00 2.339030e+00 2.337800e+00 6.161310e+00 4.378736e+00 2.798321e+00 3.462286e+00 3.517695e+00 3.690269e+00 2.878312e+00 2.934922e+00 3.628242e+00 2.265992e+00
<GCONST> 1.992967e+02
<STATE> 3
<MEAN> 39
 3.675751e+01 2.034804e+01 9.525219e+00 -4.056724e+01 -2.558884e+01 5.597537e-01 -9.073339e-01 6.955731e+00 -7.453914e+00 4.462708e+00 -6.759206e+00 -4.381359e+00 2.235637e+01 1.659643e-01 -5.125698e-01 -8.393099e-01 4.228533e-01 -2.861607e-01 -4.802037e-01 6.531809e-01 4.616665e-01 -6.970993e-01 -3.493363e-02 3.603770e-01 2.346161e-01 1.275004e-01 -3.518808e-01 -7.428685e-01 -7.998182e-01 8.585123e-01 8.078230e-01 1.444855e-01 3.352762e-01 -1.424381e-01 -3.563063e-01 -2.902967e-01 3.784492e-01 4.264324e-01 -2.042709e-02
<VARIANCE> 39
 6.122190e+01 1.244692e+02 2.215671e+02 2.553733e+02 3.902226e+02 2.819609e+02 2.940268e+02 2.781072e+02 2.575934e+02 2.785906e+02 2.278437e+02 2.672546e+02 1.698584e+02 9.828666e-01 7.526720e+00 7.467075e+00 6.116714e+00 6.729069e+00 7.729520e+00 1.186952e+01 1.036156e+01 1.162781e+01 1.021617e+01 9.682160e+00 9.064174e+00 2.877809e+00 9.933861e-01 8.490568e-01 1.030895e+00 2.187708e+00 1.594101e+00 1.397249e+00 1.859489e+00 1.936416e+00 2.023959e+00 2.102901e+00 2.125357e+00 2.142518e+00 6.623356e-01
<GCONST> 1.719848e+02
<STATE> 4
<MEAN> 39
 3.900425e+01 2.814494e-01 -1.739332e+01 -2.518468e+01 -3.476469e+00 -3.706019e+00 1.560099e+00 8.936686e+00 -1.864114e+01 3.802088e-01 5.211515e+00 8.431550e+00 2.798535e+01 1.009119e-01 -3.590760e+00 -4.182505e+00 3.908492e+00 6.350631e+00 -1.375095e+00 -2.636412e+00 -8.002054e-01 5.588825e-01 7.182922e-01 2.062467e+00 1.551770e+00 6.723933e-01 -1.800440e-01 3.531948e-01 6.656128e-01 4.644527e-01 2.157209e-01 -3.927633e-01 -8.868371e-01 -9.748422e-02 1.314732e+00 3.913460e-01 -4.929263e-01 -7.098188e-01 -4.239226e-01
<VARIANCE> 39
 6.843140e+01 1.880398e+02 2.718728e+02 2.595100e+02 5.300905e+02 3.705521e+02 5.235973e+02 4.886646e+02 3.771138e+02 6.541493e+02 3.564730e+02 3.391064e+02 1.555412e+02 1.728430e+00 7.795694e+00 1.180150e+01 1.429882e+01 1.689247e+01 2.351016e+01 2.413297e+01 2.712341e+01 2.958417e+01 3.553624e+01 2.839998e+01 3.678643e+01 3.160305e+00 2.998905e-01 9.496010e-01 1.654815e+00 1.619475e+00 3.055289e+00 3.036586e+00 3.500559e+00 4.716003e+00 3.920240e+00 5.755567e+00 4.811049e+00 5.143889e+00 3.219369e-01
<GCONST> 1.913199e+02
<TRANSP> 5
 0.000000e+00 1.000000e+00 0.000000e+00 0.000000e+00 0.000000e+00
 0.000000e+00 6.238053e-01 3.761947e-01 0.000000e+00 0.000000e+00
 0.000000e+00 0.000000e+00 8.743955e-01 1.256045e-01 0.000000e+00
 0.000000e+00 0.000000e+00 0.000000e+00 8.384152e-01 1.615848e-01
 0.000000e+00 0.000000e+00 0.000000e+00 0.000000e+00 0.000000e+00
<ENDHMM>
~h "ay"
<BEGINHMM>
<NUMSTATES> 5
<STATE> 2
<MEAN> 39
 1.994368e+01 -2.501352e+01 -1.187443e+01 -2.136665e+01 1.058992e+01 8.915376e+00 -3.279471e+00 9.974921e+00 1.035446e+01 6.136624e+00 3.047777e+00 -4.804404e+00 4.382627e+01 -4.185758e-01 -1.804411e+00 -2.198465e+00 -1.376873e-02 2.203655e+00 2.304612e+00 -8.882700e-01 -1.413676e-01 9.523813e-01 -6.737331e-01 3.015903e-01 -1.388656e+00 8.615079e-01 -1.057645e-01 1.065934e+00 9.212331e-01 1.097746e+00 -3.230543e-01 -3.046874e-01 8.737796e-02 -6.069089e-01 -4.840053e-01 -6.808373e-02 -1.303138e-01 1.769284e-01 -1.236715e+00
<VARIANCE> 39
 8.809428e+01 1.078725e+02 1.850552e+02 2.722280e+02 3.227617e+02 2.875871e+02 3.078961e+02 3.479260e+02 2.800411e+02 2.976830e+02 3.281984e+02 2.357019e+02 1.063352e+02 2.512789e+00 5.029595e+00 8.314013e+00 9.549485e+00 1.068279e+01 1.158069e+01 1.657381e+01 1.204303e+01 1.362522e+01 1.334387e+01 1.511502e+01 1.334004e+01 2.426478e+00 9.128243e-01 1.089492e+00 1.144226e+00 2.316057e+00 1.971502e+00 2.274468e+00 3.222095e+00 3.408146e+00 2.727384e+00 2.355160e+00 2.467254e+00 1.889390e+00 1.148117e+00
<GCONST> 1.787624e+02
<STATE> 3
<MEAN> 39
 1.871154e+01 -2.784197e+01 -1.319954e+01 -1.853713e+01 1.440899e+01 1.242428e+01 -5.602345e+00 9.271787e+00 1.129666e+01 4.425272e+00 1.575511e+00 -7.878161e+00 4.307203e+01 -2.138489e-01 -3.017954e-01 6.397991e-01 9.507236e-01 -2.925155e-01 -9.778391e-01 -5.064468e-02 7.214221e-01 3.352208e-01 -4.639134e-01 -4.524847e-01 7.645930e-02 -1.548267e-01 -1.665436e-02 1.488529e-01 3.644176e-01 9.788624e-02 -4.230731e-01 -4.516162e-01 2.203451e-01 1.764272e-01 -7.243516e-02 -4.906370e-02 -3.923798e-02 2.385550e-01 -6.946032e-02
<VARIANCE> 39
 7.377177e+01 1.106805e+02 1.463872e+02 2.665473e+02 3.422359e+02 2.660032e+02 2.892826e+02 3.134518e+02 2.561203e+02 2.492473e+02 2.815135e+02 2.541295e+02 1.251101e+02 7.912544e-01 1.553954e+00 2.747328e+00 3.400327e+00 4.593499e+00 6.062018e+00 5.469052e+00 4.645211e+00 4.576471e+00 4.796259e+00 5.067611e+00 5.017922e+00 6.894127e-01 1.265562e-01 2.427806e-01 3.423167e-01 4.354016e-01 5.711904e-01 6.303801e-01 8.146726e-01 6.869568e-01 7.402158e-01 7.583323e-01 7.677280e-01 7.617850e-01 9.496499e-02
<GCONST> 1.456614e+02
<STATE> 4
<MEAN> 39
 1.476766e+01 -2.491738e+01 5.185361e+00 -9.804470e+00 -1.293354e+00 -5.142392e+00 2.951546e+00 1.912778e+01 8.978407e+00 -1.809432e+00 3.237969e-01 1.433723e-01 3.947623e+01 -5.310757e-01 2.299811e+00 4.253285e+00 9.549844e-02 -3.658718e+00 -2.282743e+00 2.338726e+00 -2.832601e-01 -1.942265e+00 5.049553e-01 7.899038e-01 1.395495e+00 -1.327209e+00 2.170433e-01 6.895865e-01 1.050317e-01 3.720100e-02 3.439373e-01 4.233371e-01 -1.644034e-01 -9.779710e-01 -3.480684e-01 5.034747e-01 6.206884e-02 -1.532636e-01 -5.812443e-01
<VARIANCE> 39
 7.885835e+01 1.420966e+02 2.753964e+02 1.696457e+02 3.124390e+02 2.066235e+02 3.346503e+02 2.314244e+02 3.010125e+02 2.592558e+02 2.334268e+02 2.292877e+02 1.594799e+02 1.730661e+00 4.576195e+00 6.294617e+00 1.018794e+01 1.187927e+01 1.471281e+01 1.817398e+01 1.680206e+01 1.475617e+01 1.428982e+01 1.241774e+01 1.292128e+01 1.895340e+00 2.908582e-01 5.625284e-01 1.077211e+00 1.635077e+00 1.943412e+00 1.540645e+00 2.402950e+00 2.060884e+00 2.221400e+00 2.046405e+00 2.105150e+00 1.969617e+00 3.585806e-01
<GCONST> 1.728577e+02
<TRANSP> 5
 0.000000e+00 1.000000e+00 0.000000e+00 0.000000e+00 0.000000e+00
 0.000000e+00 6.892716e-01 3.107283e-01 0.000000e+00 0.000000e+00
 0.000000e+00 0.000000e+00 9.002463e-01 9.975369e-02 0.000000e+00
 0.000000e+00 0.000000e+00 0.000000e+00 8.006300e-01 1.993699e-01
 0.000000e+00 0.000000e+00 0.000000e+00 0.000000e+00 0.000000e+00
<ENDHMM>
~h "eh"
<BEGINHMM>
<NUMSTATES> 5
<STATE> 2
<MEAN> 39
 -5.263197e+01 1.551197e+01 -2.667809e+01 -2.726364e+00 -1.560193e-01 -6.352613e+00 2.997292e+00 -1.460000e+00 -8.197997e-01 -5.548211e+00 -3.197367e+00 4.221397e+00 9.356112e+00 3.011109e+00 -3.169409e-01 2.109458e+00 9.901693e-02 -6.650363e-01 -8.850500e-01 -3.038873e-02 -2.557373e-01 7.347586e-01 -8.292467e-02 -4.443097e-01 6.947066e-01 1.114251e+00 3.037744e+00 -4.852911e-01 1.981961e+00 1.968368e-01 7.595924e-02 -5.756741e-01 -4.501084e-01 -1.617055e-01 5.270327e-01 3.930759e-01 -1.944245e-01 1.639379e-01 7.071332e-01
<VARIANCE> 39
 1.299619e+02 1.184315e+02 1.369304e+02 2.505399e+02 2.563806e+02 2.873023e+02 2.270783e+02 1.456875e+02 1.970676e+02 1.692716e+02 1.806523e+02 1.436261e+02 1.056972e+02 1.767576e+01 7.455953e+00 1.432114e+01 8.727721e+00 8.784459e+00 1.021598e+01 1.042718e+01 1.102835e+01 1.122807e+01 1.206545e+01 1.204595e+01 1.112681e+01 4.679816e+00 3.807167e+00 1.392165e+00 2.109901e+00 1.824588e+00 2.030158e+00 3.149243e+00 3.072312e+00 2.362509e+00 3.032770e+00 3.120155e+00 2.548755e+00 2.820902e+00 1.364805e+00
<GCONST> 1.803008e+02
<STATE> 3
<MEAN> 39
 -2.407488e+01 1.234169e+01 -8.631241e+00 4.294385e+00 -4.572018e+00 -5.264525e+00 -2.368297e+00 -1.619130e+00 1.131297e+00 -2.542309e+00 -3.835495e+00 4.607612e+00 1.201691e+01 1.705786e+01 -3.580311e+00 9.919419e+00 -5.908112e-01 1.070087e-01 -4.064629e+00 -3.279016e+00 -1.278501e+00 2.776290e+00 2.019186e+00 -7.275709e-01 1.370502e+00 6.850832e+00 1.040272e+00 -2.078274e+00 -3.812052e-02 -1.647067e+00 -3.279992e-01 -7.184799e-01 -5.843968e-01 4.738520e-01 6.666689e-01 8.170879e-01 4.535699e-01 -5.284084e-02 2.153108e+00
<VARIANCE> 39
 4.476346e+02 1.105915e+02 2.364517e+02 2.076372e+02 2.725775e+02 2.671653e+02 2.261059e+02 1.781980e+02 2.430627e+02 1.903051e+02 2.375074e+02 1.801343e+02 1.289462e+02 1.231446e+01 1.928662e+01 1.610393e+01 2.409078e+01 1.919395e+01 3.861448e+01 4.356575e+01 1.898307e+01 3.396995e+01 3.834489e+01 2.387991e+01 3.570570e+01 1.389446e+01 8.373446e+00 2.024850e+00 4.871514e+00 2.661558e+00 3.208522e+00 4.210847e+00 6.832603e+00 3.063998e+00 4.575568e+00 3.731022e+00 3.456786e+00 3.523661e+00 1.391329e+00
<GCONST> 1.993679e+02
<STATE> 4
<MEAN> 39
 1.732004e+01 -8.816806e+00 1.185131e+01 -8.140076e+00 -7.539524e+00 -1.961381e+01 -1.543674e+01 -3.570999e+00 9.385802e+00 6.189307e+00 -3.231464e+00 8.187356e+00 4.125400e+01 6.653206e+00 -7.398632e+00 2.187904e+00 -5.833287e+00 -1.827162e+00 -2.873545e+00 -5.921657e-01 2.616177e+00 3.739676e+00 2.776546e+00 1.543661e+00 2.309396e-01 7.780183e+00 -4.537609e+00 4.043141e-01 -2.975109e+00 -2.878188e-01 -2.938662e-02 1.477936e+00 1.809755e+00 1.159223e+00 -2.768403e-01 -3.686548e-01 3.193317e-01 -8.368984e-01 -1.708477e+00
<VARIANCE> 39
 6.728269e+01 1.131290e+02 1.230804e+02 1.802027e+02 2.161524e+02 1.683161e+02 3.543619e+02 2.251839e+02 2.242512e+02 3.305059e+02 2.858412e+02 3.385367e+02 1.277680e+02 4.138400e+01 1.134458e+01 2.511332e+01 1.907619e+01 2.072182e+01 2.810299e+01 6.587109e+01 1.927869e+01 2.802148e+01 2.407413e+01 2.097300e+01 2.228576e+01 1.144001e+01 1.438265e+00 2.717668e+00 2.118183e+00 3.274203e+00 2.710243e+00 4.794687e+00 4.805777e+00 2.713626e+00 4.804561e+00 4.014486e+00 3.574458e+00 4.857680e+00 1.488513e+00
<GCONST> 1.955341e+02
<TRANSP> 5
 0.000000e+00 1.000000e+00 0.000000e+00 0.000000e+00 0.000000e+00
 0.000000e+00 7.060364e-01 2.939636e-01 0.000000e+00 0.000000e+00
 0.000000e+00 0.000000e+00 5.522809e-01 4.477191e-01 0.000000e+00
 0.000000e+00 0.000000e+00 0.000000e+00 6.166575e-01 3.833425e-01
 0.000000e+00 0.000000e+00 0.000000e+00 0.000000e+00 0.000000e+00
<ENDHMM>
~h "ey"
<BEGINHMM>
<NUMSTATES> 5
<STATE> 2
<MEAN> 39
 5.362507e-01 -7.022769e+00 7.166296e+00 -5.729725e+00 -1.290547e+01 -1.243030e+01 -1.084224e+00 2.890479e+00 2.193256e+00 2.418365e+00 3.175180e+00 3.207371e+00 6.944595e+00 -2.369546e-01 -8.089424e-01 2.297062e+00 -8.362816e-01 -1.806857e+00 -3.481729e-01 1.104139e+00 4.246813e-01 9.076785e-02 3.176253e-01 4.371248e-01 2.394806e-01 2.297213e+00 4.992005e-01 -4.846987e-02 8.879113e-01 -2.396764e-01 1.389605e-01 2.336083e-01 2.796146e-01 -2.258183e-01 -3.226714e-01 1.076049e-01 -1.834730e-01 -4.072257e-02 1.179468e+00
<VARIANCE> 39
 2.979979e+02 2.062505e+02 4.730369e+02 2.610862e+02 2.765806e+02 3.329447e+02 4.126683e+02 3.382247e+02 3.131934e+02 2.446395e+02 1.957730e+02 2.232356e+02 1.442461e+03 1.342129e+01 1.357634e+01 1.813450e+01 1.813424e+01 2.195242e+01 2.533650e+01 2.531145e+01 2.633420e+01 2.290610e+01 1.913571e+01 1.730370e+01 1.733097e+01 4.484787e+01 2.486549e+00 2.511224e+00 3.341952e+00 3.581037e+00 4.254658e+00 4.545350e+00 4.980857e+00 4.511048e+00 4.107925e+00 3.537876e+00 3.289439e+00 3.286020e+00 1.099559e+01
<GCONST> 2.041663e+02
<STATE> 3
<MEAN> 39
 6.732540e+00 -1.010863e+01 3.348418e+01 -2.000154e+01 -1.899331e+01 -1.029954e+01 2.685935e+00 -3.319563e+00 -1.066006e-01 8.122813e+00 2.007646e+00 4.757026e+00 3.877916e+01 8.819906e-01 4.496205e-01 4.028207e+00 -1.026028e+00 1.347072e-01 6.548108e-01 -6.342821e-01 -1.619829e+00 -1.097754e+00 -1.824885e-01 -7.099279e-01 1.040700e-01 3.712190e+00 -3.337961e-01 4.795343e-01 -3.311108e-01 4.574774e-01 4.783031e-01 2.830436e-01 -2.590140e-01 -2.300505e-01 -1.176613e-01 -3.330388e-01 -2.125017e-01 -1.474143e-01 -1.189031e+00
<VARIANCE> 39
 1.331782e+02 1.533499e+02 3.359088e+02 3.118603e+02 1.560981e+02 2.138401e+02 3.009662e+02 2.515476e+02 4.107656e+02 2.003702e+02 1.367596e+02 1.609605e+02 5.092974e+02 1.210370e+01 1.286988e+01 1.582242e+01 1.576634e+01 1.219300e+01 1.296870e+01 1.952344e+01 1.466963e+01 1.631525e+01 1.368176e+01 1.069666e+01 1.179879e+01 7.001831e+01 1.477967e+00 1.411207e+00 2.003397e+00 2.011097e+00 1.648378e+00 1.936458e+00 2.629586e+00 2.001327e+00 2.118104e+00 1.974020e+00 1.746688e+00 1.662694e+00 5.699546e+00
<GCONST> 1.873324e+02
<STATE> 4
<MEAN> 39
 2.719481e+00 8.245756e+00 5.563209e+01 -8.387983e+00 -5.662160e+00 3.551501e+00 -3.599748e+00 -1.973398e+01 -1.040327e+01 -3.484559e+00 -9.569748e+00 8.426235e-01 2.379270e+01 -4.279296e-01 2.522901e+00 -1.956479e+00 4.408798e+00 1.887982e+00 1.503330e+00 9.354471e-01 3.664259e-01 -2.271838e-02 -1.067640e+00 -5.836938e-01 -1.039170e+00 -6.774722e+00 -1.464728e-01 6.468658e-03 -2.071958e+00 5.905907e-01 4.418754e-02 -2.482125e-01 1.595408e-01 8.821153e-01 5.904120e-01 1.988559e-01 6.919878e-01 4.461618e-02 -1.320842e+00
<VARIANCE> 39
 8.663703e+01 1.878675e+02 1.882127e+02 4.069778e+02 2.221799e+02 2.420810e+02 3.015092e+02 4.047141e+02 4.792614e+02 2.824400e+02 2.467705e+02 2.884070e+02 3.864062e+02 5.581393e+00 1.057883e+01 4.273412e+01 2.377339e+01 1.632148e+01 1.571468e+01 2.023097e+01 2.553691e+01 2.611237e+01 1.893566e+01 1.927377e+01 1.933863e+01 3.015328e+01 1.240173e+00 1.851140e+00 4.337664e+00 3.870328e+00 2.788303e+00 2.701068e+00 3.268390e+00 4.145891e+00 4.139283e+00 3.243321e+00 3.262840e+00 3.323232e+00 2.749156e+00
<GCONST> 1.967672e+02
<TRANSP> 5
 0.000000e+00 1.000000e+00 0.000000e+00 0.000000e+00 0.000000e+00
 0.000000e+00 7.852700e-01 2.147300e-01 0.000000e+00 0.000000e+00
 0.000000e+00 0.000000e+00 8.892933e-01 1.107067e-01 0.000000e+00
 0.000000e+00 0.000000e+00 0.000000e+00 8.665007e-01 1.334993e-01
 0.000000e+00 0.000000e+00 0.000000e+00 0.000000e+00 0.000000e+00
<ENDHMM>
~h "hh"
<BEGINHMM>
<NUMSTATES> 5
<STATE> 2
<MEAN> 39
 -4.253173e+00 5.072455e+00 -9.002728e+00 2.174556e-01 1.857594e+00 5.963840e+00 1.351666e+00 -3.576166e+00 -2.081469e+00 -1.598385e+00 1.569220e-01 -1.165623e+00 -2.030732e+01 2.379439e+00 2.431527e+00 1.037472e+00 1.618188e-01 -4.398803e-01 1.311813e+00 1.678256e+00 6.130421e-01 2.306624e-01 4.655442e-01 5.511563e-02 -2.643696e-01 -6.956671e-01 7.823602e-01 5.768816e-01 7.272426e-01 -1.204049e-02 -5.550448e-01 -4.087653e-01 4.121863e-02 1.796689e-01 1.513889e-01 2.430428e-01 -9.267692e-02 -3.470501e-02 6.197376e-01
<VARIANCE> 39
 5.262407e+02 2.790854e+02 2.290503e+02 2.452440e+02 2.800071e+02 2.887988e+02 3.126902e+02 2.733285e+02 2.959248e+02 2.257365e+02 2.020385e+02 1.893293e+02 6.076223e+02 2.500991e+01 2.471767e+01 2.382661e+01 2.536177e+01 2.607069e+01 3.131853e+01 2.834311e+01 2.633496e+01 2.390979e+01 2.092182e+01 1.936979e+01 1.610818e+01 2.118693e+01 4.027762e+00 4.307571e+00 3.618061e+00 4.392617e+00 5.416182e+00 5.852950e+00 5.564959e+00 5.293472e+00 4.986591e+00 4.385643e+00 3.932760e+00 3.268904e+00 4.025476e+00
<GCONST> 2.058910e+02
<STATE> 3
<MEAN> 39
 1.902626e+01 2.489860e+01 5.233785e+00 4.976794e+00 -1.174444e+00 1.066146e+01 9.403961e+00 1.898311e-01 -4.729094e-01 2.090841e+00 -1.391765e+00 -2.564678e+00 -1.246356e+01 6.440382e+00 2.794841e+00 2.596983e+00 -2.564765e+00 -3.602991e+00 -1.577864e+00 -3.594299e-01 2.632517e-01 7.868872e-02 1.468265e+00 -3.010657e-01 -5.469511e-01 4.710798e+00 -2.834114e-01 -1.418778e+00 -3.765423e-01 -1.627029e+00 -7.564625e-01 -1.090618e+00 -1.137566e+00 -2.927024e-01 -3.138580e-01 2.242032e-01 1.690631e-01 1.473586e-01 1.160443e+00
<VARIANCE> 39
 2.839880e+02 2.007328e+02 1.422366e+02 3.017000e+02 2.310247e+02 2.338210e+02 2.189701e+02 2.077160e+02 2.644740e+02 1.942614e+02 1.688170e+02 1.740930e+02 3.666424e+02 4.017524e+01 2.194691e+01 1.808324e+01 2.958839e+01 2.282794e+01 2.132058e+01 2.497856e+01 2.455227e+01 2.781334e+01 2.057254e+01 1.833494e+01 1.786964e+01 3.952421e+01 4.274391e+00 3.595326e+00 2.932711e+00 5.660014e+00 3.837736e+00 3.700852e+00 4.079113e+00 4.065120e+00 4.078333e+00 3.527888e+00 3.156187e+00 3.082229e+00 2.994367e+00
<GCONST> 2.004875e+02
<STATE> 4
<MEAN> 39
 3.216853e+01 2.410191e+01 1.117517e+01 -1.081851e+01 -1.610393e+01 1.229145e+00 1.090225e+00 -1.868783e+00 -3.838652e+00 6.734964e+00 -6.596649e-01 -2.973487e+00 5.271090e+00 1.341109e+00 -1.184010e+00 3.800152e-01 -4.531329e+00 -2.559524e+00 -1.967995e+00 -1.810075e+00 1.082287e+00 2.491525e-01 1.230911e+00 1.054969e+00 2.745393e-01 3.574163e+00 -9.232696e-01 -1.074917e+00 -9.435294e-01 -6.931404e-01 8.402777e-01 6.360308e-01 4.432148e-01 9.211360e-01 1.703084e-01 -3.675826e-01 2.315145e-01 6.811394e-02 1.423316e-01
<VARIANCE> 39
 6.810545e+01 1.777567e+02 1.682156e+02 2.043631e+02 2.289466e+02 2.562643e+02 2.676932e+02 2.543176e+02 2.830034e+02 2.445653e+02 2.153315e+02 2.210955e+02 1.564002e+02 8.172645e+00 1.338414e+01 1.118066e+01 2.835143e+01 1.629932e+01 1.579774e+01 2.104879e+01 2.058508e+01 1.926386e+01 1.734605e+01 1.634588e+01 1.505048e+01 1.561260e+01 2.293216e+00 2.387793e+00 2.042146e+00 2.970845e+00 3.191162e+00 3.242355e+00 3.578220e+00 4.025089e+00 3.656847e+00 3.219948e+00 3.036278e+00 3.021137e+00 1.995785e+00
<GCONST> 1.906218e+02
<TRANSP> 5
 0.000000e+00 1.000000e+00 0.000000e+00 0.000000e+00 0.000000e+00
 0.000000e+00 6.915348e-01 3.084652e-01 0.000000e+00 0.000000e+00
 0.000000e+00 0.000000e+00 5.658905e-01 4.341095e-01 0.000000e+00
 0.000000e+00 0.000000e+00 0.000000e+00 7.327396e-01 2.672603e-01
 0.000000e+00 0.000000e+00 0.000000e+00 0.000000e+00 0.000000e+00
<ENDHMM>
~h "ih"
<BEGINHMM>
<NUMSTATES> 5
<STATE> 2
<MEAN> 39
 -3.222370e+01 1.302820e+01 -1.241545e+01 2.978037e+00 -5.481193e+00 -1.002200e+00 1.081686e+00 -5.419403e-01 -4.748806e-01 -3.374136e+00 -1.902303e+00 3.693686e+00 1.446374e+01 1.238261e+01 -9.499772e-01 1.046092e+01 1.768059e+00 2.901224e-01 -3.034708e+00 -1.550393e+00 -1.590814e+00 5.420627e-01 2.163488e-01 -1.007592e+00 1.004508e+00 4.180019e+00 2.748903e+00 -1.581459e+00 2.212937e+00 -2.905841e-01 -6.556936e-02 -1.254986e+00 -1.028383e+00 -4.758430e-01 -2.723606e-01 3.727371e-01 -1.035566e-01 1.318460e-01 1.696447e+00
<VARIANCE> 39
 3.066923e+02 1.195156e+02 2.631359e+02 2.371863e+02 2.410411e+02 2.849073e+02 2.103403e+02 1.558344e+02 2.199373e+02 1.723676e+02 2.105349e+02 1.692197e+02 1.247595e+02 3.040315e+01 1.860122e+01 2.485866e+01 1.784053e+01 1.454560e+01 2.643778e+01 2.714980e+01 1.616038e+01 1.814611e+01 1.956389e+01 1.688040e+01 2.523638e+01 1.388388e+01 5.575503e+00 2.331726e+00 4.713059e+00 3.723664e+00 3.128689e+00 4.489993e+00 5.719757e+00 3.561774e+00 4.797762e+00 3.458244e+00 3.180103e+00 4.109316e+00 1.174273e+00
<GCONST> 1.962651e+02
<STATE> 3
<MEAN> 39
 1.757490e+01 -5.684584e+00 2.781502e+01 -3.820969e+00 -9.993406e+00 -1.898252e+01 -7.131210e+00 -8.034321e+00 1.105259e+00 1.646302e+00 -1.756592e+00 8.395768e+00 4.108735e+01 4.183379e+00 -4.006422e+00 4.499659e+00 -1.990518e+00 -1.758802e+00 -2.904768e+00 -2.742791e-01 -4.035774e-01 -6.835349e-01 1.182807e+00 4.930886e-01 3.412871e-01 3.394361e+00 -2.367864e+00 4.379619e-01 -1.551367e+00 1.957532e-01 -1.961969e-01 5.799208e-01 9.537196e-01 3.827249e-01 -5.612072e-01 -4.636715e-02 2.488577e-01 -3.359177e-01 -1.378569e+00
<VARIANCE> 39
 1.267784e+02 1.682499e+02 1.549414e+02 2.364645e+02 2.323307e+02 1.800252e+02 3.883768e+02 2.028804e+02 1.932229e+02 1.804637e+02 2.657220e+02 3.085416e+02 1.815302e+02 4.448826e+01 1.658548e+01 3.144806e+01 2.133627e+01 1.395782e+01 2.628052e+01 4.400612e+01 2.257025e+01 2.672608e+01 1.721800e+01 1.702454e+01 2.111538e+01 1.816518e+01 5.211055e+00 2.349044e+00 3.321902e+00 3.120259e+00 2.047782e+00 3.662960e+00 4.049387e+00 2.688826e+00 2.634569e+00 2.945932e+00 3.035147e+00 3.963745e+00 1.708736e+00
<GCONST> 1.961973e+02
<STATE> 4
<MEAN> 39
 1.659747e+01 -1.235112e+01 3.645098e+01 2.492132e+00 -1.524414e+01 -2.568195e+01 1.428319e+00 -5.409932e+00 -1.329235e+01 3.984356e+00 -3.313662e-01 4.531359e+00 3.577222e+01 -1.023254e+00 3.025199e+00 -8.734506e-02 5.340459e+00 1.241180e+00 8.954409e-01 3.178153e+00 3.415629e-01 -3.008670e+00 -1.008935e+00 6.747774e-01 -1.423586e+00 -8.489438e+00 -1.196020e+00 1.808314e+00 -2.091895e+00 9.099057e-01 1.293649e+00 1.578183e+00 -5.503657e-01 1.692521e-01 8.598573e-01 -7.496645e-01 -1.228939e-02 -2.360664e-01 -3.522703e+00
<VARIANCE> 39
 1.249890e+02 1.541216e+02 1.913426e+02 3.603564e+02 2.326132e+02 2.812599e+02 6.639557e+02 7.571762e+02 5.231815e+02 2.868343e+02 2.059405e+02 2.071116e+02 3.032233e+02 7.697684e+00 2.070224e+01 1.791399e+01 2.326938e+01 2.056804e+01 2.778712e+01 3.566177e+01 3.883313e+01 3.129257e+01 2.396071e+01 2.256572e+01 2.189340e+01 5.148655e+01 2.230808e+00 3.215090e+00 3.976746e+00 6.106665e+00 3.427497e+00 5.370306e+00 1.010225e+01 1.004651e+01 8.789415e+00 4.968754e+00 4.011639e+00 3.598801e+00 3.900347e+00
<GCONST> 2.071446e+02
<TRANSP> 5
 0.000000e+00 1.000000e+00 0.000000e+00 0.000000e+00 0.000000e+00
 0.000000e+00 6.628365e-01 3.371635e-01 0.000000e+00 0.000000e+00
 0.000000e+00 0.000000e+00 8.035384e-01 1.964616e-01 0.000000e+00
 0.000000e+00 0.000000e+00 0.000000e+00 7.831839e-01 2.168161e-01
 0.000000e+00 0.000000e+00 0.000000e+00 0.000000e+00 0.000000e+00
<ENDHMM>
~h "iy"
<BEGINHMM>
<NUMSTATES> 5
<STATE> 2
<MEAN> 39
 4.828705e+00 -1.853431e+00 4.839656e+01 -3.372834e+00 -7.662202e+00 -1.133414e+01 2.639473e+00 -1.552995e+01 -1.130822e+01 2.166928e+00 -6.350933e+00 5.972625e+00 3.313682e+01 9.994833e-01 -1.661111e+00 4.364896e+00 -3.656542e+00 -5.978429e-01 1.251262e+00 -5.230678e-01 -1.247986e+00 1.195025e-01 8.416967e-01 -9.208962e-01 3.238934e-01 4.597626e-01 -3.421095e-01 4.951941e-01 -2.412618e+00 1.440416e+00 7.614051e-01 -3.290148e-01 -1.191663e-01 1.383434e+00 1.412929e-01 -3.351847e-01 6.139441e-01 -2.703269e-01 -8.597215e-01
<VARIANCE> 39
 8.170889e+01 1.504548e+02 1.972968e+02 2.572610e+02 1.628823e+02 2.074379e+02 3.174396e+02 4.017021e+02 2.586467e+02 2.993955e+02 1.931727e+02 2.441522e+02 1.046429e+02 2.169781e+01 3.925426e+01 2.055041e+01 2.837885e+01 1.992069e+01 4.159812e+01 2.613797e+01 2.907350e+01 2.631784e+01 2.170877e+01 1.751764e+01 1.400582e+01 6.597079e+00 2.675701e+00 1.975251e+00 2.673643e+00 3.601556e+00 3.638007e+00 3.377565e+00 3.769057e+00 3.432567e+00 3.406425e+00 3.140635e+00 2.356722e+00 2.701841e+00 5.079233e-01
<GCONST> 1.935302e+02
<STATE> 3
<MEAN> 39
 8.054610e+00 -7.143879e+00 5.202243e+01 3.318116e+00 -9.417701e+00 -1.045399e+01 1.607413e+00 -1.906346e+00 -2.014984e+01 -7.029760e-01 -2.666113e+00 -5.359849e-01 3.014348e+01 1.353697e+00 -2.451068e-01 -4.204022e+00 2.605428e+00 1.437257e+00 -1.774916e+00 1.389901e-02 1.832204e+00 7.961092e-01 -4.975849e-01 1.056361e+00 -3.236037e-01 -1.945748e+00 7.024169e-02 3.488844e-01 -2.320216e+00 4.126436e-01 1.210721e+00 -3.116092e-01 -6.984314e-01 6.192890e-02 1.096096e+00 -2.760806e-01 -3.784396e-02 2.241140e-01 -4.992341e-01
<VARIANCE> 39
 1.032310e+02 2.118700e+02 2.347177e+02 3.160347e+02 1.645001e+02 4.062244e+02 4.172863e+02 5.002650e+02 2.924642e+02 3.748616e+02 1.913825e+02 2.086466e+02 1.592892e+02 1.389142e+01 1.646721e+01 2.630589e+01 1.822356e+01 1.723845e+01 3.190831e+01 2.526120e+01 2.565604e+01 2.138162e+01 1.692492e+01 1.390352e+01 1.325039e+01 5.965759e+00 1.471607e+00 2.139960e+00 2.379960e+00 3.650476e+00 3.223349e+00 3.847487e+00 3.880624e+00 3.935933e+00 3.346596e+00 2.871648e+00 2.389202e+00 2.117532e+00 5.560198e-01
<GCONST> 1.926465e+02
<STATE> 4
<MEAN> 39
 4.364460e+00 5.807297e+00 3.324753e+01 -3.336648e+00 -1.193251e+00 2.357260e+00 2.957587e+00 -7.018230e+00 -4.198619e-01 -2.117448e+00 -5.146057e+00 2.888016e+00 1.151790e+01 7.069320e-02 3.626027e-02 -5.055249e+00 8.580865e-01 1.657245e+00 4.283904e-01 -1.129386e+00 8.241879e-01 1.713384e+00 -4.062203e-01 3.395607e-01 -2.362177e-01 -2.703581e+00 -8.620306e-02 -3.379282e-02 -2.607752e-01 -2.904363e-01 -8.855853e-02 1.330377e-01 -8.110998e-02 -2.297340e-01 -1.861522e-01 2.995512e-01 3.338867e-02 -9.178419e-02 1.797195e-02
<VARIANCE> 39
 2.164097e+02 3.893265e+02 4.697203e+02 4.232233e+02 2.418940e+02 8.497875e+02 4.915220e+02 4.290598e+02 3.231334e+02 3.074839e+02 2.182790e+02 2.058566e+02 5.342551e+02 1.270046e+01 1.488041e+01 2.763861e+01 1.792282e+01 2.272018e+01 2.862094e+01 2.411535e+01 2.319775e+01 2.239666e+01 1.794532e+01 1.475484e+01 1.507981e+01 6.311425e+00 1.019147e+00 2.209786e+00 2.577881e+00 3.623343e+00 2.662183e+00 4.896645e+00 3.295844e+00 3.811930e+00 3.439763e+00 2.999636e+00 2.572217e+00 2.364424e+00 7.922535e-01
<GCONST> 1.977576e+02
<TRANSP> 5
 0.000000e+00 1.000000e+00 0.000000e+00 0.000000e+00 0.000000e+00
 0.000000e+00 6.987866e-01 3.012134e-01 0.000000e+00 0.000000e+00
 0.000000e+00 0.000000e+00 6.755546e-01 3.244454e-01 0.000000e+00
 0.000000e+00 0.000000e+00 0.000000e+00 7.657635e-01 2.342365e-01
 0.000000e+00 0.000000e+00 0.000000e+00 0.000000e+00 0.000000e+00
<ENDHMM>
~h "ow"
<BEGINHMM>
<NUMSTATES> 5
<STATE> 2
<MEAN> 39
 1.126425e+00 -4.157650e+00 -1.070001e+01 -7.019425e+00 -2.124397e+00 -6.359061e+00 -5.296588e+00 -4.502326e+00 2.890311e+00 5.344584e+00 2.345466e+00 -1.378681e+00 -7.115156e+00 1.692179e+00 -1.533087e+00 -4.863435e-01 -2.357884e+00 4.585811e-01 1.091344e+00 1.237658e+00 6.854794e-02 1.089502e+00 1.774223e+00 -1.272644e-01 -8.415228e-01 3.962866e+00 4.803758e-01 -1.114390e-01 3.815789e-01 -2.450186e-01 2.589563e-01 2.882893e-01 7.330726e-02 9.676415e-02 -7.090478e-02 6.765102e-02 -7.286537e-02 1.621771e-01 1.150521e+00
<VARIANCE> 39
 5.714266e+02 2.900374e+02 2.272678e+02 3.807059e+02 3.279476e+02 4.116526e+02 4.247954e+02 4.681049e+02 4.886753e+02 4.687907e+02 4.359310e+02 3.446389e+02 1.127320e+03 4.744698e+01 2.314294e+01 2.467356e+01 3.682370e+01 3.342242e+01 3.409672e+01 3.888848e+01 4.201694e+01 4.628947e+01 4.171547e+01 4.088412e+01 3.176684e+01 1.221234e+02 5.753516e+00 3.984143e+00 3.535179e+00 5.193575e+00 5.460764e+00 5.611652e+00 7.010645e+00 7.472790e+00 7.777191e+00 7.444596e+00 7.237519e+00 5.908910e+00 1.392828e+01
<GCONST> 2.220285e+02
<STATE> 3
<MEAN> 39
 2.246548e+01 -1.818939e+01 -8.472154e+00 -2.363890e+01 4.826309e+00 -4.186147e+00 -5.422095e-01 -1.712736e+00 4.441251e+00 2.025990e+01 4.867263e+00 -4.834847e+00 3.578361e+01 8.610585e-01 7.589060e-01 7.302650e-01 -2.469268e+00 -4.581232e-01 2.796864e+00 -2.491819e-02 -1.203609e+00 -5.094201e-01 8.609992e-01 5.098580e-01 9.447145e-01 2.122912e+00 -5.707939e-01 8.200613e-01 -4.270651e-02 9.195101e-01 -1.742981e-01 -5.671619e-02 -3.430504e-01 -3.245929e-02 -2.135814e-01 -9.334191e-01 -1.539050e-01 4.823060e-01 -1.723032e+00
<VARIANCE> 39
 1.185883e+02 1.461633e+02 1.617607e+02 1.982437e+02 2.381688e+02 3.693028e+02 3.072970e+02 2.847544e+02 4.944327e+02 3.748971e+02 4.435763e+02 2.360147e+02 2.301151e+02 8.405770e+00 9.861176e+00 7.675040e+00 1.141718e+01 1.087301e+01 1.471607e+01 1.546218e+01 1.529806e+01 1.876189e+01 1.798158e+01 1.681932e+01 1.503779e+01 2.427883e+01 1.925762e+00 1.131299e+00 1.272161e+00 1.984405e+00 1.964645e+00 2.013429e+00 2.572785e+00 2.510565e+00 2.783036e+00 2.741100e+00 3.063093e+00 2.275303e+00 4.089744e+00
<GCONST> 1.880078e+02
<STATE> 4
<MEAN> 39
 2.539811e+01 1.346855e-03 -2.696597e+00 -2.435642e+01 -1.940453e+00 8.263866e+00 1.033833e+00 -3.449614e+00 -2.895449e+00 6.710121e+00 1.023244e+00 2.851280e+00 2.480197e+01 -4.773268e-01 1.515060e+00 4.508671e-01 1.101074e+00 1.450250e-01 6.275321e-01 3.578849e-01 -1.273235e-01 -1.723704e-01 -9.517148e-01 -6.722172e-01 1.881676e-02 -2.140971e+00 -2.717467e-01 -1.023011e-01 -4.938787e-02 4.051787e-01 1.243525e-01 -1.893715e-01 -6.503026e-02 6.788249e-02 1.344844e-01 -2.176209e-02 1.802308e-02 -9.525108e-02 -2.152196e-01
<VARIANCE> 39
 1.139382e+02 2.966778e+02 1.946595e+02 3.412690e+02 3.882303e+02 3.462149e+02 3.300050e+02 3.235963e+02 5.555250e+02 3.445686e+02 3.377591e+02 2.500681e+02 4.333580e+02 5.753413e+00 8.957726e+00 7.349923e+00 1.492653e+01 1.104928e+01 1.275942e+01 1.373660e+01 1.519909e+01 1.733720e+01 1.555153e+01 1.555950e+01 1.348616e+01 5.056051e+00 8.326344e-01 1.223458e+00 1.092956e+00 2.066612e+00 1.677757e+00 2.003913e+00 2.079551e+00 2.376256e+00 2.602657e+00 2.270490e+00 2.305482e+00 2.075480e+00 5.018210e-01
<GCONST> 1.839646e+02
<TRANSP> 5
 0.000000e+00 1.000000e+00 0.000000e+00 0.000000e+00 0.000000e+00
 0.000000e+00 7.515744e-01 2.484257e-01 0.000000e+00 0.000000e+00
 0.000000e+00 0.000000e+00 6.826343e-01 3.173657e-01 0.000000e+00
 0.000000e+00 0.000000e+00 0.000000e+00 9.257453e-01 7.425471e-02
 0.000000e+00 0.000000e+00 0.000000e+00 0.000000e+00 0.000000e+00
<ENDHMM>
~h "sp"
<BEGINHMM>
<NUMSTATES> 3
<STATE> 2
~s "silst"
<TRANSP> 3
 0.000000e+00 4.419997e-02 9.558000e-01
 0.000000e+00 8.873156e-01 1.126844e-01
 0.000000e+00 0.000000e+00 0.000000e+00
<ENDHMM>
~h "th"
<BEGINHMM>
<NUMSTATES> 5
<STATE> 2
<MEAN> 39
 -2.109247e+01 6.670738e+00 -1.202341e+01 9.208464e+00 -1.968159e+00 6.276985e+00 3.406743e-01 -7.378419e-01 8.377870e-01 -2.228781e+00 5.795165e-01 -2.846109e-01 -2.085758e+01 -2.268290e+00 -9.809816e-01 -1.769740e+00 -1.150237e+00 -1.351060e+00 -2.448470e-01 -8.143248e-01 1.661347e-02 9.008507e-02 -5.400165e-01 9.430646e-04 2.911582e-01 1.619920e+00 9.001231e-01 -2.217702e-01 7.792084e-01 -4.055582e-01 -1.440376e-01 -3.543553e-01 1.197074e-01 -1.783064e-01 -4.117978e-02 1.590104e-01 -1.223560e-01 1.276171e-01 1.795285e+00
<VARIANCE> 39
 2.545764e+02 1.697568e+02 1.920105e+02 1.899884e+02 1.943265e+02 2.011681e+02 2.530486e+02 2.039891e+02 2.279491e+02 1.795084e+02 1.633078e+02 1.575400e+02 5.408633e+02 2.533710e+01 1.822371e+01 1.984412e+01 2.373150e+01 1.936180e+01 2.237591e+01 2.285467e+01 2.225451e+01 2.425776e+01 1.894584e+01 1.815737e+01 1.761361e+01 8.840468e+01 3.583841e+00 3.618801e+00 3.883613e+00 3.933498e+00 3.666251e+00 4.255656e+00 4.326996e+00 4.108443e+00 4.464353e+00 3.842050e+00 3.653875e+00 3.606899e+00 9.950820e+00
<GCONST> 2.009542e+02
<STATE> 3
<MEAN> 39
 -2.030247e+01 -1.986483e+00 -5.186695e+00 -6.323188e-01 -1.054467e+01 5.826445e-01 6.854102e-01 -2.873626e+00 3.194035e+00 -1.325683e+00 -8.635980e-01 2.644751e+00 1.374746e+01 5.678161e+00 -1.835472e+00 5.552451e+00 2.569504e+00 1.720785e+00 -2.011063e+00 3.666227e-01 3.284077e-01 2.862304e-01 1.440158e+00 4.347574e-01 -2.971555e-01 4.295300e+00 2.363728e+00 -1.598582e-01 -2.068302e-01 1.669876e+00 2.005283e+00 -2.308693e-01 -9.115961e-01 1.499783e-01 -3.735618e-01 7.599707e-03 3.152452e-01 -3.503669e-01 -2.247778e+00
<VARIANCE> 39
 1.913524e+02 1.745080e+02 3.025460e+02 2.001584e+02 1.919861e+02 2.238853e+02 2.524574e+02 2.364290e+02 2.292524e+02 2.157690e+02 1.924166e+02 1.822747e+02 1.728346e+02 3.401395e+01 1.924147e+01 2.697467e+01 3.405813e+01 2.644971e+01 2.824512e+01 2.754633e+01 2.498638e+01 2.312445e+01 2.075257e+01 2.172570e+01 2.385863e+01 5.160307e+01 4.140152e+00 4.458973e+00 9.661018e+00 5.413498e+00 4.963201e+00 6.222519e+00 7.277045e+00 5.458430e+00 4.969394e+00 5.493056e+00 4.957042e+00 5.088790e+00 6.565580e+00
<GCONST> 2.064228e+02
<STATE> 4
<MEAN> 39
 2.330151e+01 -7.932758e+00 -1.200741e+00 1.662315e+01 1.609552e+01 -4.278901e+00 -1.419907e+01 -5.494830e+00 -8.449706e-01 -6.025769e-01 1.556751e+00 -2.585815e-01 1.583478e+01 1.023207e+01 -1.837741e+00 -3.493669e+00 1.090420e+00 7.249174e+00 -1.820245e+00 -6.592053e+00 -6.058179e-01 -1.360857e+00 -1.405291e+00 -1.273972e-01 -5.827912e-02 1.753372e+00 -1.979124e+00 -1.792456e-01 -6.028699e-01 -1.183172e+00 -9.525850e-01 -4.203935e-01 1.518558e-01 5.864784e-01 -1.045401e-01 -3.529255e-01 -2.184490e-01 2.110417e-01 1.978849e-01
<VARIANCE> 39
 3.924861e+02 1.331987e+02 3.428146e+02 2.324992e+02 3.377738e+02 4.114164e+02 3.736353e+02 3.164859e+02 2.051251e+02 1.958403e+02 1.785135e+02 1.526570e+02 1.939459e+02 3.247129e+01 2.221774e+01 3.367641e+01 3.086551e+01 3.380878e+01 6.390764e+01 4.268942e+01 3.542825e+01 2.705510e+01 2.952889e+01 2.568125e+01 2.104371e+01 1.223359e+01 7.093697e+00 3.698202e+00 1.239296e+01 6.306979e+00 7.795989e+00 8.685340e+00 9.584666e+00 7.069345e+00 5.236563e+00 4.579907e+00 4.558998e+00 4.087345e+00 3.119643e+00
<GCONST> 2.107357e+02
<TRANSP> 5
 0.000000e+00 1.000000e+00 0.000000e+00 0.000000e+00 0.000000e+00
 0.000000e+00 8.444583e-01 1.555417e-01 0.000000e+00 0.000000e+00
 0.000000e+00 0.000000e+00 7.520838e-01 2.479163e-01 0.000000e+00
 0.000000e+00 0.000000e+00 0.000000e+00 7.324827e-01 2.675173e-01
 0.000000e+00 0.000000e+00 0.000000e+00 0.000000e+00 0.000000e+00
<ENDHMM>
~h "uw"
<BEGINHMM>
<NUMSTATES> 5
<STATE> 2
<MEAN> 39
 -5.255326e+00 2.107326e+00 2.579002e+01 9.412650e+00 -5.726604e+00 -8.257873e+00 6.996084e+00 1.642071e+00 -4.548030e+00 -3.105829e+00 -4.189206e+00 4.640312e+00 2.102146e+01 1.157278e+01 -1.781519e+00 7.859893e+00 3.048466e+00 1.610137e+00 -9.259607e-01 -3.430614e+00 -1.669690e-01 -1.380423e+00 3.948273e-01 -1.039306e+00 -8.833374e-01 4.048912e+00 -1.101378e+00 -6.111428e-01 -9.616859e-01 -1.554591e+00 -9.577037e-02 -4.177055e-01 -1.288581e+00 -4.524012e-01 -9.190334e-01 8.848830e-02 3.709539e-01 -1.788655e-01 1.312364e+00
<VARIANCE> 39
 3.689539e+02 1.364657e+02 2.367642e+02 1.965551e+02 1.465339e+02 2.323380e+02 2.663070e+02 2.907309e+02 2.166123e+02 1.746926e+02 1.921076e+02 1.645436e+02 1.985630e+02 1.455417e+01 1.408419e+01 2.210723e+01 2.702971e+01 2.043353e+01 3.945550e+01 3.705573e+01 2.515267e+01 3.134978e+01 2.818345e+01 2.659760e+01 2.964715e+01 1.259814e+01 7.610355e+00 1.782637e+00 3.963896e+00 2.419206e+00 2.747910e+00 4.918509e+00 4.196731e+00 3.161237e+00 3.859607e+00 3.939358e+00 3.150101e+00 3.209408e+00 2.557602e+00
<GCONST> 1.984027e+02
<STATE> 3
<MEAN> 39
 1.300119e+01 -1.076910e+01 4.149821e+01 8.301150e+00 -4.873166e+00 -1.570478e+01 -8.959428e+00 2.127730e+00 -1.526071e+01 -3.010638e+00 -4.948504e+00 1.452859e+00 3.772696e+01 1.071945e+00 -9.099892e-01 6.288383e-02 1.432313e-01 1.229077e+00 -4.642535e-01 -1.545398e+00 -3.520345e-02 -6.524080e-01 2.304112e-01 -3.684219e-01 -6.236265e-01 2.596529e-01 -9.225310e-01 7.380348e-01 -1.268880e+00 -9.188086e-03 2.688257e-01 5.662342e-01 6.274702e-01 -1.745180e-01 5.799512e-01 7.342053e-02 2.030660e-02 -2.229238e-02 -1.105121e+00
<VARIANCE> 39
 8.181918e+01 1.085693e+02 1.410513e+02 2.879411e+02 1.430862e+02 2.277331e+02 5.430881e+02 4.158865e+02 2.302045e+02 3.213920e+02 1.989402e+02 3.558959e+02 1.572014e+02 4.919796e+00 6.326917e+00 9.365337e+00 7.233725e+00 8.722819e+00 1.250770e+01 1.519029e+01 1.042753e+01 1.367481e+01 1.337460e+01 1.065697e+01 1.346953e+01 7.603945e+00 2.395538e+00 9.544849e-01 1.763681e+00 1.642200e+00 1.469236e+00 2.286836e+00 2.851114e+00 2.167098e+00 2.366009e+00 2.518054e+00 1.976317e+00 2.146351e+00 9.106984e-01
<GCONST> 1.792122e+02
<STATE> 4
<MEAN> 39
 1.987211e+01 1.886788e+00 1.784263e+01 6.872320e+00 8.763893e+00 -8.261616e-01 -3.406833e+00 -6.802186e+00 -9.801970e+00 1.923229e+00 -4.753940e+00 -1.042606e+00 1.614001e+01 -4.222762e-01 9.623466e-01 -2.340135e+00 -5.203637e-02 5.054681e-01 1.642118e+00 1.048125e+00 -3.768723e-01 7.679572e-01 1.856662e-02 2.074031e-01 -1.044393e-02 -2.577852e+00 -3.866449e-01 -9.714959e-03 -4.516315e-02 2.551259e-02 -3.289460e-01 -1.234211e-01 9.982146e-02 1.490319e-01 8.358401e-02 -1.393264e-01 7.497546e-02 9.326637e-02 -9.204209e-02
<VARIANCE> 39
 1.399408e+02 1.799706e+02 4.195216e+02 2.757817e+02 2.640196e+02 6.155150e+02 5.464487e+02 3.984782e+02 4.427738e+02 3.220890e+02 3.098779e+02 3.956303e+02 4.510211e+02 8.411770e+00 1.104760e+01 1.039049e+01 1.402199e+01 1.484198e+01 2.280634e+01 2.375666e+01 2.247691e+01 2.268096e+01 1.847450e+01 1.785640e+01 1.633559e+01 4.807903e+00 1.150324e+00 1.735798e+00 1.504001e+00 2.060781e+00 2.273080e+00 3.302507e+00 3.475683e+00 3.480093e+00 3.590816e+00 3.013960e+00 3.091941e+00 2.764890e+00 6.255566e-01
<GCONST> 1.927474e+02
<TRANSP> 5
 0.000000e+00 1.000000e+00 0.000000e+00 0.000000e+00 0.000000e+00
 0.000000e+00 6.821758e-01 3.178243e-01 0.000000e+00 0.000000e+00
 0.000000e+00 0.000000e+00 8.200535e-01 1.799465e-01 0.000000e+00
 0.000000e+00 0.000000e+00 0.000000e+00 9.149892e-01 8.501080e-02
 0.000000e+00 0.000000e+00 0.000000e+00 0.000000e+00 0.000000e+00
<ENDHMM>
~h "sil"
<BEGINHMM>
<NUMSTATES> 5
<STATE> 2
<MEAN> 39
 -6.810862e+00 1.865105e+00 -9.076376e+00 8.571180e+00 2.170702e+00 4.856152e+00 6.094865e+00 4.332582e+00 3.370902e+00 -4.531502e+00 -1.384846e+00 -3.132545e+00 -3.197563e+01 -5.417526e-01 8.292528e-01 -1.229732e-01 1.777760e-02 -1.289865e-02 3.456914e-02 -3.615227e-01 -2.509453e-01 5.679984e-02 3.271483e-02 2.996662e-01 3.910093e-02 -1.181586e+00 -1.557538e-02 5.976009e-02 1.059535e-01 -2.320722e-02 -9.445554e-03 -1.507933e-02 -4.209865e-02 -9.878495e-02 -2.312523e-02 8.063541e-02 8.247338e-02 8.052469e-02 6.460698e-02
<VARIANCE> 39
 1.031538e+02 1.495577e+02 1.514115e+02 1.552029e+02 1.608650e+02 2.032895e+02 2.156521e+02 2.070981e+02 2.317711e+02 1.963558e+02 1.637251e+02 1.545441e+02 1.645247e+02 2.350101e+00 4.295978e+00 5.435612e+00 6.922817e+00 8.413047e+00 1.045545e+01 1.194227e+01 1.298886e+01 1.281757e+01 1.275961e+01 1.208104e+01 1.102549e+01 1.746880e+00 3.453211e-01 6.548651e-01 9.414864e-01 1.230158e+00 1.511253e+00 1.848450e+00 2.138567e+00 2.329570e+00 2.363065e+00 2.342776e+00 2.219631e+00 2.047331e+00 1.741082e-01
<GCONST> 1.672335e+02
<STATE> 3
~s "silst"
<STATE> 4
<MEAN> 39
 -1.714685e+01 3.511139e+00 -9.842095e+00 4.765293e+00 -1.642466e+00 1.152826e+00 -8.687062e-01 -2.135639e+00 8.224571e-01 -3.245537e+00 1.431722e+00 -1.744404e+00 -3.629555e+01 2.656233e-02 -1.219437e-01 2.077785e-01 1.167790e-01 5.024941e-02 1.065862e-01 1.690612e-01 7.677488e-02 -2.238616e-02 2.101496e-01 -1.146138e-01 5.972884e-03 6.232783e-01 1.010885e-01 -1.174484e-02 8.766831e-02 4.006641e-03 2.570201e-02 3.839719e-02 5.819192e-02 5.237288e-02 1.244315e-02 -5.915441e-03 -4.459212e-02 1.748401e-02 4.107836e-01
<VARIANCE> 39
 1.387746e+02 1.478145e+02 1.440483e+02 1.453445e+02 1.582232e+02 1.776004e+02 2.107531e+02 1.812872e+02 1.897311e+02 1.566490e+02 1.442285e+02 1.327054e+02 2.934482e+02 9.752714e+00 1.244925e+01 1.092781e+01 1.127484e+01 1.311321e+01 1.481527e+01 1.605439e+01 1.574477e+01 1.487745e+01 1.402594e+01 1.350543e+01 1.147815e+01 1.659504e+01 2.004643e+00 2.405565e+00 2.167514e+00 2.236576e+00 2.545596e+00 2.787805e+00 3.034184e+00 2.958980e+00 2.833491e+00 2.645821e+00 2.536454e+00 2.181457e+00 3.528742e+00
<GCONST> 1.840911e+02
<TRANSP> 5
 0.000000e+00 1.000000e+00 0.000000e+00 0.000000e+00 0.000000e+00
 0.000000e+00 8.211851e-01 1.115832e-01 6.723171e-02 0.000000e+00
 0.000000e+00 0.000000e+00 9.060363e-01 9.396368e-02 0.000000e+00
 0.000000e+00 7.715998e-02 0.000000e+00 7.633510e-01 1.594890e-01
 0.000000e+00 0.000000e+00 0.000000e+00 0.000000e+00 0.000000e+00
<ENDHMM>
