~o
<STREAMINFO> 1 26
<VECSIZE> 26<NULLD><MFCC_D_0><DIAGC>
~v "varFloor1"
<VARIANCE> 26
 6.754232e+00 3.412257e+00 5.608447e+00 4.796207e+00 3.472295e+00 4.011117e+00 4.413517e+00 3.617792e+00 3.683716e+00 3.040219e+00 2.640150e+00 2.509556e+00 1.298279e+01 2.278196e-01 1.545969e-01 2.184490e-01 2.118026e-01 1.813457e-01 2.097697e-01 2.257949e-01 2.166197e-01 2.009621e-01 1.748386e-01 1.664882e-01 1.534702e-01 2.729188e-01
~s "silst"
<MEAN> 26
 -2.390969e+01 4.925110e+00 -5.513868e-01 3.420381e+00 -2.577815e+00 -2.275518e+00 -3.521977e+00 -7.754673e-01 -1.584186e+00 1.351324e+00 7.452036e-01 2.316685e+00 4.926700e+01 -2.421111e-01 6.450827e-02 8.217473e-02 -2.865596e-02 -4.059701e-02 -5.153563e-02 -1.636842e-01 -1.766084e-01 -3.418264e-02 1.126810e-01 1.182414e-01 6.479929e-02 -1.697744e-01
<VARIANCE> 26
 4.287341e+01 3.713676e+01 4.456996e+01 5.850621e+01 7.613604e+01 9.721353e+01 1.147315e+02 1.139883e+02 1.051786e+02 9.822344e+01 9.446023e+01 8.432028e+01 2.477748e+01 1.722851e+00 2.423107e+00 3.569263e+00 4.810238e+00 6.158223e+00 7.527416e+00 8.961394e+00 9.689340e+00 9.722208e+00 9.617302e+00 9.391373e+00 8.435372e+00 1.127480e+00
<GCONST> 1.244503e+02
~h "f"
<BEGINHMM>
<NUMSTATES> 5
<STATE> 2
<MEAN> 26
 -3.084531e+01 -1.285922e+01 1.584779e-01 4.143687e+00 -1.302152e+00 1.347635e-01 -5.787220e+00 1.225284e+00 -4.399961e+00 3.921746e+00 -3.255496e+00 2.732292e+00 8.860680e+01 -2.200108e+00 -1.581567e+00 -1.269952e+00 -6.873518e-01 -7.527963e-01 -3.916719e-01 -9.277008e-01 -4.600425e-01 -3.066228e-01 -1.818485e-01 -9.519908e-02 -1.203575e-01 6.131590e-01
<VARIANCE> 26
 1.589961e+02 1.299959e+02 9.551368e+01 9.474559e+01 1.126934e+02 1.246958e+02 1.381623e+02 1.396010e+02 1.354114e+02 1.217675e+02 1.160301e+02 1.042456e+02 3.708116e+02 2.592238e+01 1.218644e+01 1.088854e+01 1.403341e+01 1.291726e+01 1.338179e+01 1.482193e+01 1.424613e+01 1.412815e+01 1.313956e+01 1.247015e+01 1.150463e+01 2.143996e+01
<GCONST> 1.458209e+02
<STATE> 3
<MEAN> 26
 -2.872857e+01 -1.718242e+01 -3.564113e+00 -7.571617e-01 -3.604715e+00 -1.135481e+00 -7.854101e+00 -1.338384e+00 -5.860757e+00 3.924777e+00 -4.378761e+00 2.323339e+00 1.026421e+02 9.584258e+00 1.460904e+00 2.351653e-01 -3.247333e+00 5.627432e-01 1.117688e+00 1.641115e+00 1.101856e-01 6.011782e-01 1.548716e+00 5.316757e-01 -2.092908e-01 5.917104e+00
<VARIANCE> 26
 1.770473e+02 7.910326e+01 6.583607e+01 7.580592e+01 8.266678e+01 9.257844e+01 1.009925e+02 1.038184e+02 1.159261e+02 1.094253e+02 1.011892e+02 8.947018e+01 1.817784e+02 4.363707e+01 1.577266e+01 9.981433e+00 2.137491e+01 1.355776e+01 1.311736e+01 1.461162e+01 1.476965e+01 2.140835e+01 1.910715e+01 2.123452e+01 1.315873e+01 3.593214e+01
<GCONST> 1.454904e+02
<STATE> 4
<MEAN> 26
 1.235648e+01 -1.426611e+01 -2.631804e+00 -1.978602e+01 -1.182315e+00 5.617539e+00 -5.877478e-01 -8.442557e-01 -3.976276e+00 1.402432e+01 2.470527e+00 -1.908542e-01 1.240476e+02 1.174445e+01 -4.438511e-01 1.503502e-01 -8.902132e+00 -5.301793e-01 1.912292e+00 2.158341e+00 9.182195e-01 4.754194e-01 2.529696e+00 1.227825e+00 -8.091639e-01 8.470816e+00
<VARIANCE> 26
 4.059708e+02 1.780447e+02 1.354119e+02 4.483029e+02 2.301814e+02 1.838136e+02 1.859561e+02 1.950243e+02 3.756824e+02 2.857967e+02 3.864602e+02 1.786512e+02 4.051424e+02 4.587513e+01 4.963148e+01 2.417558e+01 3.227802e+01 3.303368e+01 2.218075e+01 2.467435e+01 2.433462e+01 3.733289e+01 2.858630e+01 4.131593e+01 2.338255e+01 2.860048e+01
<GCONST> 1.644532e+02
<TRANSP> 5
 0.000000e+00 1.000000e+00 0.000000e+00 0.000000e+00 0.000000e+00
 0.000000e+00 8.646486e-01 1.353514e-01 0.000000e+00 0.000000e+00
 0.000000e+00 0.000000e+00 6.337242e-01 3.662758e-01 0.000000e+00
 0.000000e+00 0.000000e+00 0.000000e+00 4.553556e-01 5.446444e-01
 0.000000e+00 0.000000e+00 0.000000e+00 0.000000e+00 0.000000e+00
<ENDHMM>
~h "k"
<BEGINHMM>
<NUMSTATES> 5
<STATE> 2
<MEAN> 26
 -7.984478e+00 6.793949e+00 2.425875e+01 2.418542e+01 -4.032307e-01 -1.484771e+01 -1.841205e+00 3.190475e-01 -1.864699e+01 -3.039710e+00 -6.969208e-01 1.820593e+00 7.422329e+01 -5.324831e+00 1.177459e+00 -9.572598e+00 -1.493936e+00 3.077166e+00 4.673586e+00 -3.006435e+00 -1.036803e-01 4.088956e+00 -1.403867e+00 -9.931020e-02 -2.197406e-01 -9.978397e+00
<VARIANCE> 26
 1.547697e+02 3.017557e+02 3.397036e+02 2.211818e+02 2.666440e+02 3.680049e+02 3.728978e+02 4.675898e+02 3.312203e+02 2.510928e+02 1.906097e+02 1.436521e+02 4.997752e+02 1.328908e+01 6.102378e+01 2.713639e+01 4.023536e+01 3.162658e+01 4.500364e+01 5.725396e+01 6.856161e+01 4.821701e+01 3.571338e+01 2.430713e+01 2.131606e+01 1.191364e+02
<GCONST> 1.687983e+02
<STATE> 3
<MEAN> 26
 -2.127727e+01 -7.083243e+00 -5.228231e+00 9.607931e+00 -8.197711e-02 -1.074342e+01 -1.114864e+01 -2.120329e-01 -4.030854e+00 1.203994e+00 -2.061574e+00 4.126448e+00 7.788838e+01 -3.541748e+00 -3.031867e+00 -4.399993e+00 -1.115555e+00 -5.326859e-01 -1.687446e+00 -1.499717e+00 1.430261e+00 1.808306e+00 7.631805e-01 -7.682191e-01 7.229301e-01 7.969951e+00
<VARIANCE> 26
 2.040968e+02 3.040235e+02 2.372527e+02 1.517274e+02 1.983714e+02 2.233727e+02 1.985686e+02 1.776553e+02 1.536389e+02 1.386229e+02 1.306165e+02 9.915050e+01 9.240752e+02 4.050647e+01 3.805145e+01 2.842156e+01 2.482293e+01 2.550405e+01 3.044504e+01 2.467983e+01 2.240661e+01 2.179029e+01 1.940376e+01 1.570229e+01 1.273368e+01 8.628246e+01
<GCONST> 1.594178e+02
<STATE> 4
<MEAN> 26
 -4.322189e+01 -3.659961e+00 -9.755341e+00 8.140025e+00 -5.072322e+00 -1.751384e+01 -8.533588e+00 6.345018e+00 -1.898132e+00 8.040162e-01 -5.519504e+00 7.197994e+00 9.965965e+01 -2.756666e+00 1.755059e+00 2.445589e-01 -8.542648e-01 -3.028818e-01 5.610685e-01 1.104365e+00 4.552335e-01 -6.722093e-02 4.346307e-02 -6.271448e-02 4.251367e-02 6.105453e-01
<VARIANCE> 26
 3.235816e+02 1.392783e+02 1.563202e+02 1.826503e+02 3.900213e+02 3.375847e+02 2.075232e+02 1.899978e+02 1.756763e+02 1.618069e+02 1.747304e+02 1.390157e+02 5.889059e+02 4.410942e+01 1.633600e+01 1.237667e+01 1.144759e+01 1.818764e+01 2.372456e+01 1.769462e+01 1.682825e+01 1.581952e+01 1.547027e+01 1.302791e+01 1.251963e+01 3.848792e+01
<GCONST> 1.554037e+02
<TRANSP> 5
 0.000000e+00 1.000000e+00 0.000000e+00 0.000000e+00 0.000000e+00
 0.000000e+00 6.876640e-01 3.123360e-01 0.000000e+00 0.000000e+00
 0.000000e+00 0.000000e+00 7.570320e-01 2.429680e-01 0.000000e+00
 0.000000e+00 0.000000e+00 0.000000e+00 7.616177e-01 2.383823e-01
 0.000000e+00 0.000000e+00 0.000000e+00 0.000000e+00 0.000000e+00
<ENDHMM>
~h "n"
<BEGINHMM>
<NUMSTATES> 5
<STATE> 2
<MEAN> 26
 1.615960e+01 4.502654e-01 3.566612e+01 8.140921e+00 -5.382677e+00 4.404035e+00 1.665773e+01 -4.576972e+00 -5.443710e+00 9.204621e+00 -6.048319e+00 9.679240e+00 1.105702e+02 1.196210e+00 3.037959e+00 1.933558e-01 3.503821e+00 1.985954e-01 1.436737e+00 2.275080e+00 -2.979954e+00 4.307650e-02 6.786266e-01 -1.421465e+00 3.413738e-01 -2.608084e+00
<VARIANCE> 26
 1.204773e+02 2.960015e+02 2.202254e+02 5.843115e+02 2.977721e+02 4.037281e+02 5.061391e+02 5.785718e+02 5.326658e+02 4.398730e+02 4.354933e+02 4.045869e+02 4.003293e+02 1.695721e+01 1.709791e+01 2.468796e+01 3.714726e+01 2.282517e+01 2.729390e+01 3.636938e+01 4.501498e+01 3.196763e+01 2.869438e+01 2.603634e+01 2.684431e+01 2.692759e+01
<GCONST> 1.677424e+02
<STATE> 3
<MEAN> 26
 1.727203e+01 6.854136e+00 3.375140e+01 1.909247e+01 -2.437204e+00 7.594537e+00 1.901915e+01 -7.198435e+00 -2.272207e+00 7.462970e+00 -8.930815e+00 1.095111e+01 1.019684e+02 -2.371891e+00 -1.689492e+00 -1.804881e+00 -1.507855e+00 2.136227e+00 -1.036491e+00 -1.910039e+00 4.302951e+00 7.730320e-01 -5.774639e-01 3.676996e-01 -1.088454e+00 4.137056e-01
<VARIANCE> 26
 9.601827e+01 2.361967e+02 1.531129e+02 3.153443e+02 2.921175e+02 4.343203e+02 4.576396e+02 4.817661e+02 4.781359e+02 4.540461e+02 4.543841e+02 4.480815e+02 2.767954e+02 1.529081e+01 2.323203e+01 1.760412e+01 3.226937e+01 2.333145e+01 3.484274e+01 3.806183e+01 4.183427e+01 3.191319e+01 2.489412e+01 2.591341e+01 2.719965e+01 3.489658e+01
<GCONST> 1.658652e+02
<STATE> 4
<MEAN> 26
 2.076717e+00 -1.848855e+00 2.032011e+01 1.344074e+01 4.265913e+00 2.641757e+00 1.060620e+01 1.007685e+01 1.252539e+00 4.005230e+00 -7.470201e+00 4.789613e+00 9.303726e+01 -3.703368e+00 -2.862733e+00 -4.546878e+00 -3.557929e+00 3.618414e-01 -1.507860e+00 -3.230422e+00 2.470493e+00 6.970669e-01 -6.337631e-01 9.072281e-01 -1.170524e+00 -1.426200e-01
<VARIANCE> 26
 2.168148e+02 2.710928e+02 2.325196e+02 4.088137e+02 2.582877e+02 3.582259e+02 4.752310e+02 4.124142e+02 3.401642e+02 3.748167e+02 2.824958e+02 2.785306e+02 7.348490e+02 2.137762e+01 2.097925e+01 1.972488e+01 2.656729e+01 2.534052e+01 2.698607e+01 3.103600e+01 3.856092e+01 3.271836e+01 2.466158e+01 2.602902e+01 2.372845e+01 2.821339e+01
<GCONST> 1.659198e+02
<TRANSP> 5
 0.000000e+00 1.000000e+00 0.000000e+00 0.000000e+00 0.000000e+00
 0.000000e+00 6.471983e-01 3.528017e-01 0.000000e+00 0.000000e+00
 0.000000e+00 0.000000e+00 5.807701e-01 4.192299e-01 0.000000e+00
 0.000000e+00 0.000000e+00 0.000000e+00 6.445253e-01 3.554747e-01
 0.000000e+00 0.000000e+00 0.000000e+00 0.000000e+00 0.000000e+00
<ENDHMM>
~h "r"
<BEGINHMM>
<NUMSTATES> 5
<STATE> 2
<MEAN> 26
 3.609900e+01 -1.917151e+01 -3.470499e+00 4.625410e+00 2.639760e+01 -2.259299e+01 -3.265385e+01 2.960315e+00 -8.177120e+00 4.519786e+00 1.713316e+00 6.556853e+00 1.273045e+02 5.737696e-01 -1.000083e+00 -1.454486e+00 7.357463e-02 1.037605e+00 -1.613317e+00 -1.359971e+00 1.367633e+00 1.342612e+00 2.905616e-01 4.538157e-02 2.207302e-01 2.994993e-01
<VARIANCE> 26
 7.028418e+01 1.702695e+02 4.404603e+02 2.896358e+02 3.802621e+02 9.377444e+02 1.046763e+03 4.325151e+02 3.120116e+02 3.928202e+02 2.596487e+02 2.067841e+02 1.659699e+02 8.139981e+00 8.460083e+00 3.171617e+01 1.995967e+01 2.351944e+01 3.125722e+01 2.557418e+01 2.588120e+01 2.026139e+01 1.820606e+01 1.550593e+01 1.363237e+01 6.576815e+00
<GCONST> 1.593833e+02
<STATE> 3
<MEAN> 26
 3.026256e+01 -2.474677e+01 6.110576e+00 8.022419e+00 1.624517e+01 -3.425452e+01 -2.156088e+01 1.553551e+01 -7.604474e+00 4.161614e+00 1.833430e+00 8.319376e+00 1.290603e+02 -3.410727e+00 -4.973668e-01 5.613799e+00 2.839430e-01 -5.110764e+00 -5.041230e-01 5.542979e+00 1.698505e+00 -2.000170e+00 -1.875330e-01 7.294085e-01 -4.344941e-01 1.918031e-01
<VARIANCE> 26
 8.641814e+01 1.852321e+02 6.025543e+02 3.509587e+02 3.980346e+02 8.066186e+02 1.110972e+03 4.082092e+02 4.371754e+02 4.571410e+02 2.672413e+02 2.309874e+02 2.355036e+02 9.130307e+00 8.919940e+00 3.014074e+01 2.247936e+01 2.536059e+01 3.236195e+01 2.903574e+01 3.074082e+01 3.103252e+01 2.379586e+01 1.982194e+01 1.628382e+01 1.072695e+01
<GCONST> 1.633061e+02
<STATE> 4
<MEAN> 26
 1.695858e+01 -2.116149e+01 1.568988e+01 7.206641e+00 3.683690e+00 -2.341924e+01 -2.043150e+00 1.384641e+01 -9.345797e+00 6.815442e+00 1.981404e+00 4.084012e+00 1.192540e+02 -4.256566e+00 1.724664e+00 3.953916e+00 -1.893867e+00 -3.505019e+00 3.743707e+00 3.653977e+00 -2.653221e+00 -8.607843e-01 1.038748e+00 -6.640257e-01 -1.168317e+00 -1.661257e+00
<VARIANCE> 26
 1.943363e+02 2.200355e+02 9.444213e+02 3.845951e+02 4.260848e+02 6.746612e+02 8.009617e+02 4.653541e+02 6.155535e+02 4.507229e+02 2.891148e+02 2.835565e+02 6.192446e+02 1.652727e+01 1.558695e+01 2.303469e+01 2.086032e+01 2.034376e+01 2.873278e+01 3.040570e+01 2.767385e+01 2.426368e+01 2.247575e+01 1.858883e+01 1.625621e+01 1.177986e+01
<GCONST> 1.662356e+02
<TRANSP> 5
 0.000000e+00 1.000000e+00 0.000000e+00 0.000000e+00 0.000000e+00
 0.000000e+00 7.496930e-01 2.503070e-01 0.000000e+00 0.000000e+00
 0.000000e+00 0.000000e+00 5.984170e-01 4.015830e-01 0.000000e+00
 0.000000e+00 0.000000e+00 0.000000e+00 5.679975e-01 4.320025e-01
 0.000000e+00 0.000000e+00 0.000000e+00 0.000000e+00 0.000000e+00
<ENDHMM>
~h "s"
<BEGINHMM>
<NUMSTATES> 5
<STATE> 2
<MEAN> 26
 -3.236895e+01 5.542475e+00 3.140664e+00 7.079603e+00 1.242222e+00 -5.795192e+00 -5.388962e-01 4.083535e+00 -3.256084e+00 2.313968e+00 -3.278574e+00 4.798133e+00 9.867486e+01 -8.291462e+00 1.199938e+00 -4.407784e+00 -1.602406e+00 -9.877950e-01 -5.020202e-01 5.538360e-02 7.835829e-01 -2.288679e-01 -2.375949e-01 5.843573e-01 9.132929e-02 1.291072e+00
<VARIANCE> 26
 4.140105e+02 2.233699e+02 3.415943e+02 2.745323e+02 3.491637e+02 3.196460e+02 2.922092e+02 2.373036e+02 2.134398e+02 1.902891e+02 1.863421e+02 1.720742e+02 5.346176e+02 5.957865e+01 2.373053e+01 4.471815e+01 3.258186e+01 2.920989e+01 3.381940e+01 3.078827e+01 2.773802e+01 2.806625e+01 2.296768e+01 2.162957e+01 2.114083e+01 3.253877e+01
<GCONST> 1.649668e+02
<STATE> 3
<MEAN> 26
 -5.041580e+01 7.331995e+00 -1.143663e+01 2.627085e+00 -5.285977e+00 -7.228426e+00 -2.899928e+00 3.523807e+00 -5.926817e+00 2.193218e+00 -3.056020e+00 5.679333e+00 1.025196e+02 -2.582977e+00 5.106634e-01 -2.436539e+00 -8.404557e-01 -6.617578e-01 2.861162e-01 -5.154614e-01 -3.195712e-01 -4.557223e-01 1.084103e-03 -2.138324e-01 8.439875e-02 6.318812e-01
<VARIANCE> 26
 1.613918e+02 1.483133e+02 1.780794e+02 2.537844e+02 3.284874e+02 2.767825e+02 1.829115e+02 1.672691e+02 1.578110e+02 1.424839e+02 1.482465e+02 1.206686e+02 2.713721e+02 2.164762e+01 1.207683e+01 1.537514e+01 1.329356e+01 1.448663e+01 1.622534e+01 1.608359e+01 1.502023e+01 1.352497e+01 1.316625e+01 1.231244e+01 1.142903e+01 1.252413e+01
<GCONST> 1.502389e+02
<STATE> 4
<MEAN> 26
 -5.025715e+01 5.533081e+00 -1.297787e+01 1.311417e+00 -5.237901e+00 -6.192172e+00 -4.207219e+00 3.476317e+00 -5.867572e+00 2.877023e+00 -4.181259e+00 5.402547e+00 1.039854e+02 1.352204e+00 -2.786109e-01 5.997167e-01 -4.722213e-02 -5.310581e-02 1.579562e-01 1.025869e-01 -1.240967e-01 1.375274e-01 1.407328e-02 -1.503676e-01 9.631347e-03 -2.946357e-02
<VARIANCE> 26
 2.223150e+02 1.419947e+02 1.833927e+02 2.515710e+02 3.078297e+02 2.710263e+02 1.714351e+02 1.522959e+02 1.536489e+02 1.417193e+02 1.498062e+02 1.302332e+02 2.663106e+02 1.243740e+01 6.682307e+00 9.484882e+00 8.540894e+00 9.982475e+00 1.185889e+01 1.207951e+01 1.201393e+01 1.167620e+01 1.183917e+01 1.138439e+01 1.060370e+01 8.539129e+00
<GCONST> 1.462710e+02
<TRANSP> 5
 0.000000e+00 1.000000e+00 0.000000e+00 0.000000e+00 0.000000e+00
 0.000000e+00 5.909515e-01 4.090485e-01 0.000000e+00 0.000000e+00
 0.000000e+00 0.000000e+00 5.907294e-01 4.092706e-01 0.000000e+00
 0.000000e+00 0.000000e+00 0.000000e+00 8.415025e-01 1.584975e-01
 0.000000e+00 0.000000e+00 0.000000e+00 0.000000e+00 0.000000e+00
<ENDHMM>
~h "t"
<BEGINHMM>
<NUMSTATES> 5
<STATE> 2
<MEAN> 26
 -1.871863e+01 7.794012e+00 1.329440e+01 8.598129e+00 1.481748e+00 -3.909370e-02 -2.528066e+00 -1.814649e+00 -4.267176e+00 1.253450e+00 -1.241453e+00 1.946492e+00 6.646013e+01 -3.463105e+00 -8.607129e-01 -4.417141e+00 -2.119282e+00 -3.379411e-01 -9.109399e-01 -2.061730e-01 2.637929e-01 3.199936e-01 5.196926e-02 9.575160e-01 2.363569e-01 4.965122e-01
<VARIANCE> 26
 2.185773e+02 2.030440e+02 3.598120e+02 2.761483e+02 1.767325e+02 1.812467e+02 1.999976e+02 2.032943e+02 1.816057e+02 1.513129e+02 1.409296e+02 1.235893e+02 6.409252e+02 1.990653e+01 3.069727e+01 4.843424e+01 3.539351e+01 2.502636e+01 2.589596e+01 2.671107e+01 2.862824e+01 3.202031e+01 2.158863e+01 2.042125e+01 1.800329e+01 1.598018e+02
<GCONST> 1.619237e+02
<STATE> 3
<MEAN> 26
 -3.493946e+01 2.661375e+00 7.878787e+00 -8.130561e+00 -5.816997e+00 -8.530473e+00 -3.173432e-01 -4.790717e+00 -1.055384e+01 2.229068e+00 -2.971709e-01 4.845616e+00 1.042529e+02 -2.229106e+00 -2.896587e-01 1.580035e+00 -6.358189e-01 -2.024238e+00 -1.990253e+00 1.785853e+00 5.885317e-01 -9.759956e-01 -8.887769e-02 -2.470066e-01 1.637907e+00 6.624873e+00
<VARIANCE> 26
 2.838640e+02 2.033046e+02 2.351619e+02 2.411748e+02 1.891804e+02 1.968872e+02 2.181630e+02 2.118465e+02 1.899207e+02 1.658355e+02 1.564928e+02 1.364507e+02 9.802878e+02 3.005105e+01 2.202368e+01 3.222327e+01 2.432191e+01 2.006022e+01 2.471437e+01 2.393976e+01 2.331705e+01 2.278545e+01 1.871186e+01 1.993397e+01 1.623113e+01 1.021295e+02
<GCONST> 1.603255e+02
<STATE> 4
<MEAN> 26
 -2.586678e+01 -1.052374e+00 2.056733e+01 -2.625221e+00 -1.127344e+01 -1.322201e+01 7.946975e+00 -1.590279e+00 -8.181999e+00 6.634375e-01 -1.470961e+00 1.006766e+01 1.070725e+02 4.576091e+00 -1.122051e+00 3.147433e+00 2.038838e+00 1.679635e-01 -6.159430e-01 5.553977e-01 9.162626e-01 9.432343e-01 1.008371e-01 -9.085408e-01 4.035997e-01 -3.643194e-01
<VARIANCE> 26
 3.926775e+02 1.471864e+02 3.348718e+02 1.963183e+02 1.841681e+02 2.660246e+02 2.735986e+02 3.362489e+02 2.214880e+02 1.901242e+02 2.341046e+02 1.796420e+02 5.820818e+02 3.664608e+01 1.286366e+01 3.389715e+01 2.221309e+01 1.684575e+01 2.243943e+01 1.870575e+01 2.045628e+01 1.841401e+01 1.735007e+01 1.730342e+01 1.637818e+01 2.863412e+01
<GCONST> 1.591632e+02
<TRANSP> 5
 0.000000e+00 1.000000e+00 0.000000e+00 0.000000e+00 0.000000e+00
 0.000000e+00 8.104721e-01 1.895279e-01 0.000000e+00 0.000000e+00
 0.000000e+00 0.000000e+00 5.838442e-01 4.161558e-01 0.000000e+00
 0.000000e+00 0.000000e+00 0.000000e+00 7.164449e-01 2.835551e-01
 0.000000e+00 0.000000e+00 0.000000e+00 0.000000e+00 0.000000e+00
<ENDHMM>
~h "v"
<BEGINHMM>
<NUMSTATES> 5
<STATE> 2
<MEAN> 26
 1.246839e+01 -2.670073e+01 1.658796e+01 -1.847322e+01 -1.139421e+01 -2.128226e+01 -6.117940e-01 1.286596e+01 1.452328e+01 1.267819e+01 -2.514469e+00 7.765798e+00 1.465576e+02 7.183205e-01 1.986621e-01 -1.150907e-01 9.466617e-01 9.990349e-01 3.840699e-01 -5.099794e-01 -5.242236e-01 -3.399863e-01 6.301625e-01 2.615621e-02 -7.824064e-01 -1.446569e+00
<VARIANCE> 26
 7.479947e+01 1.474933e+02 2.304499e+02 2.278377e+02 2.536367e+02 2.529149e+02 8.601998e+02 2.667806e+02 2.869136e+02 4.335483e+02 3.186059e+02 3.828881e+02 1.886840e+02 2.560148e+00 1.120518e+01 7.889418e+00 1.374035e+01 1.005516e+01 1.020984e+01 1.621590e+01 1.468182e+01 1.331877e+01 1.018116e+01 1.419459e+01 1.155685e+01 1.013332e+01
<GCONST> 1.505296e+02
<STATE> 3
<MEAN> 26
 1.742095e+01 -1.860124e+01 1.888171e+01 -4.499959e+00 -3.304350e+00 -1.925027e+01 -9.114542e+00 3.827897e+00 6.224772e+00 1.599764e+01 -2.370261e+00 3.284679e+00 1.306613e+02 -8.046225e-01 5.089224e+00 7.357841e-01 6.470407e+00 4.854897e+00 4.620181e+00 -1.271826e+00 -3.140639e+00 -3.162125e+00 -4.563561e-01 3.701730e-01 -7.837551e-01 -7.809259e+00
<VARIANCE> 26
 7.478558e+01 1.820035e+02 2.312952e+02 3.104436e+02 2.868454e+02 3.064008e+02 5.504834e+02 2.919355e+02 3.940145e+02 3.657420e+02 3.428531e+02 3.390503e+02 3.083182e+02 1.361538e+01 1.646876e+01 1.417512e+01 2.331919e+01 2.066890e+01 2.326166e+01 2.966874e+01 1.937186e+01 2.170714e+01 2.068892e+01 2.242529e+01 1.848331e+01 1.734243e+01
<GCONST> 1.598594e+02
<STATE> 4
<MEAN> 26
 -4.004652e+00 -7.173867e+00 1.252047e+01 8.250921e+00 3.825885e+00 -3.275083e+00 -1.521625e+00 5.250555e+00 2.238844e+00 7.634333e+00 -3.517151e+00 3.665059e+00 9.986435e+01 -2.110940e+00 5.599828e-01 -9.035727e-01 2.378104e-01 4.226040e-01 1.247166e+00 5.233479e-01 2.766151e-01 -6.014826e-01 -9.922052e-01 1.200489e-01 -1.234651e-02 -2.526028e+00
<VARIANCE> 26
 4.199175e+02 1.929347e+02 2.049770e+02 2.577591e+02 2.255180e+02 2.596552e+02 2.897517e+02 2.481568e+02 2.476359e+02 2.629495e+02 2.236249e+02 2.160592e+02 4.574723e+02 3.778244e+01 2.309313e+01 1.589557e+01 2.999977e+01 2.633385e+01 3.686963e+01 2.561471e+01 2.249845e+01 2.458891e+01 1.898319e+01 1.955682e+01 1.607707e+01 3.194608e+01
<GCONST> 1.616522e+02
<TRANSP> 5
 0.000000e+00 1.000000e+00 0.000000e+00 0.000000e+00 0.000000e+00
 0.000000e+00 7.151017e-01 2.848983e-01 0.000000e+00 0.000000e+00
 0.000000e+00 0.000000e+00 5.056131e-01 4.943869e-01 0.000000e+00
 0.000000e+00 0.000000e+00 0.000000e+00 7.669876e-01 2.330124e-01
 0.000000e+00 0.000000e+00 0.000000e+00 0.000000e+00 0.000000e+00
<ENDHMM>
~h "w"
<BEGINHMM>
<NUMSTATES> 5
<STATE> 2
<MEAN> 26
 3.339621e+01 1.001383e+01 1.803495e+01 -3.659289e+01 -2.105946e+01 -1.485434e+00 -1.542743e+00 1.621342e+01 -5.855854e+00 1.333203e+01 1.168500e+00 1.511027e-01 1.204542e+02 -5.003003e-01 -4.297963e+00 -3.452285e+00 -5.822991e+00 2.322362e+00 2.802738e+00 1.597756e+00 4.165188e+00 2.990416e-02 -1.698771e+00 1.243193e+00 3.290198e-01 4.243277e+00
<VARIANCE> 26
 4.353642e+01 1.829003e+02 2.669874e+02 3.115388e+02 4.221027e+02 2.846475e+02 6.131108e+02 3.823640e+02 4.345457e+02 3.964518e+02 3.294618e+02 2.920113e+02 1.054052e+02 2.351556e+00 1.139408e+01 9.004332e+00 1.665855e+01 2.187835e+01 1.949258e+01 2.123923e+01 2.224936e+01 2.117007e+01 2.019656e+01 1.706817e+01 1.762341e+01 6.003332e+00
<GCONST> 1.544158e+02
<STATE> 3
<MEAN> 26
 2.886808e+01 -7.133018e+00 2.321778e+00 -4.782378e+01 -1.063312e+00 1.634040e+01 3.330171e+00 2.165752e+01 -1.066833e+01 2.972866e+00 1.009698e+01 4.096245e+00 1.335868e+02 -1.523123e+00 -4.509220e+00 -2.688297e+00 8.356367e-01 6.419853e+00 3.407283e+00 -1.858274e+00 -1.921434e+00 -6.999688e-01 -2.660426e-01 3.290513e+00 2.935680e-01 2.670665e+00
<VARIANCE> 26
 4.912725e+01 1.760279e+02 2.466052e+02 2.851478e+02 6.790735e+02 3.146389e+02 5.727534e+02 4.359140e+02 4.117247e+02 4.405901e+02 3.375650e+02 3.032111e+02 1.225646e+02 1.926154e+00 6.581363e+00 6.277184e+00 1.549670e+01 1.255603e+01 1.491296e+01 2.375414e+01 2.062449e+01 2.212495e+01 2.280125e+01 1.697484e+01 2.019183e+01 3.048617e+00
<GCONST> 1.528832e+02
<STATE> 4
<MEAN> 26
 2.035020e+01 -2.473349e+01 6.323436e-01 -2.754325e+01 2.065300e+01 1.046408e+01 -1.222328e+01 1.665892e+01 2.264080e+00 9.869213e+00 1.041044e+01 -2.329669e+00 1.404798e+02 -1.335227e+00 -1.537303e+00 2.141194e+00 4.684920e+00 -2.430586e-01 -3.669143e+00 -1.901918e+00 1.021908e+00 2.705196e+00 4.662018e-01 -2.654652e+00 -4.043132e-01 2.931630e-01
<VARIANCE> 26
 6.831205e+01 1.493194e+02 2.088009e+02 3.285646e+02 4.508985e+02 4.149247e+02 4.747462e+02 4.649474e+02 4.502858e+02 3.801542e+02 3.954256e+02 3.316091e+02 1.465598e+02 1.709811e+00 5.837534e+00 7.437315e+00 9.998568e+00 1.839587e+01 1.307841e+01 2.040984e+01 1.974113e+01 1.892500e+01 2.516952e+01 1.899150e+01 2.182689e+01 2.433023e+00
<GCONST> 1.525908e+02
<TRANSP> 5
 0.000000e+00 1.000000e+00 0.000000e+00 0.000000e+00 0.000000e+00
 0.000000e+00 6.916167e-01 3.083833e-01 0.000000e+00 0.000000e+00
 0.000000e+00 0.000000e+00 7.507762e-01 2.492238e-01 0.000000e+00
 0.000000e+00 0.000000e+00 0.000000e+00 8.293980e-01 1.706020e-01
 0.000000e+00 0.000000e+00 0.000000e+00 0.000000e+00 0.000000e+00
<ENDHMM>
~h "z"
<BEGINHMM>
<NUMSTATES> 5
<STATE> 2
<MEAN> 26
 -1.215609e+01 1.608806e+01 1.672192e+01 1.842699e+01 6.691794e+00 -2.412380e+00 -5.512214e-01 3.621593e+00 -6.200834e-01 2.275607e+00 -6.128629e+00 6.117062e+00 9.022635e+01 -3.164802e+00 4.750072e+00 -8.437794e-01 2.402219e+00 2.039020e+00 1.075675e+00 7.172007e-01 1.191118e+00 4.012451e-01 2.133613e-01 2.303348e-01 1.793071e-01 2.303456e+00
<VARIANCE> 26
 3.259476e+02 2.614012e+02 3.297404e+02 3.129813e+02 3.210049e+02 2.833098e+02 2.833869e+02 2.605333e+02 2.298172e+02 2.477240e+02 2.539461e+02 3.093217e+02 6.874482e+02 4.693967e+01 2.625581e+01 3.659775e+01 2.950980e+01 2.517023e+01 3.089976e+01 2.526184e+01 2.560286e+01 2.272099e+01 2.346347e+01 2.206017e+01 2.016080e+01 3.438440e+01
<GCONST> 1.652074e+02
<STATE> 3
<MEAN> 26
 -3.135704e+01 3.187813e+01 1.010130e+01 2.529784e+01 1.344509e+01 3.603583e+00 2.713951e+00 6.775225e+00 -1.014104e+00 5.571349e+00 -4.949829e+00 6.311942e+00 1.079784e+02 -3.252801e+00 4.744232e-01 -1.135218e+00 -4.235163e-01 -7.660003e-03 4.290103e-01 4.133888e-01 -9.128219e-03 -3.256385e-01 1.217493e-01 3.281113e-01 8.553050e-03 1.743959e+00
<VARIANCE> 26
 2.822684e+02 1.825101e+02 2.809388e+02 3.894873e+02 4.207090e+02 3.529581e+02 2.400339e+02 2.233831e+02 1.587990e+02 1.677755e+02 2.595259e+02 1.921994e+02 1.657544e+02 2.385767e+01 1.779492e+01 2.104335e+01 1.529732e+01 1.644703e+01 1.822446e+01 1.635239e+01 1.703307e+01 1.341277e+01 1.416664e+01 1.269817e+01 1.293770e+01 1.306728e+01
<GCONST> 1.552301e+02
<STATE> 4
<MEAN> 26
 -2.507370e+01 2.246999e+01 2.246415e+01 1.687864e+01 7.726283e+00 -6.113577e+00 -3.139919e+00 -1.530648e+00 -6.620068e+00 1.629420e+00 -8.202757e+00 5.749227e+00 1.234804e+02 7.169116e+00 -5.439729e+00 7.340548e+00 -2.038985e+00 -3.189671e+00 -3.400344e+00 -2.445771e+00 -2.524326e+00 -1.778059e+00 -1.199310e+00 -9.522739e-01 6.129043e-01 4.266503e+00
<VARIANCE> 26
 3.236390e+02 2.160111e+02 3.433710e+02 3.038304e+02 4.798712e+02 3.157361e+02 3.011572e+02 2.096322e+02 1.488929e+02 1.715879e+02 2.992114e+02 2.531740e+02 1.596356e+02 2.840696e+01 2.771854e+01 3.705568e+01 3.093634e+01 2.073564e+01 2.815878e+01 2.456845e+01 3.176420e+01 1.935053e+01 1.743382e+01 1.668802e+01 1.893942e+01 6.209986e+00
<GCONST> 1.600788e+02
<TRANSP> 5
 0.000000e+00 1.000000e+00 0.000000e+00 0.000000e+00 0.000000e+00
 0.000000e+00 7.259893e-01 2.740107e-01 0.000000e+00 0.000000e+00
 0.000000e+00 0.000000e+00 7.976988e-01 2.023012e-01 0.000000e+00
 0.000000e+00 0.000000e+00 0.000000e+00 7.837178e-01 2.162822e-01
 0.000000e+00 0.000000e+00 0.000000e+00 0.000000e+00 0.000000e+00
<ENDHMM>
~h "ah"
<BEGINHMM>
<NUMSTATES> 5
<STATE> 2
<MEAN> 26
 1.824255e+01 -1.900184e+01 1.821767e+01 -7.532914e+00 8.173192e+00 -5.771806e+00 -1.502147e+01 7.683638e+00 -3.587840e+00 1.452815e+01 3.511853e+00 7.823020e-02 1.315791e+02 7.354224e-02 1.604473e+00 2.503674e+00 2.315176e+00 -6.803034e-01 -6.305003e-01 2.503891e+00 1.056235e-02 -1.132789e+00 -7.292085e-01 -1.605614e+00 1.291157e+00 -1.899033e+00
<VARIANCE> 26
 6.819181e+01 1.432779e+02 1.763903e+02 2.495499e+02 2.423350e+02 3.905717e+02 5.280808e+02 4.905168e+02 5.556634e+02 4.553060e+02 4.099136e+02 3.307073e+02 1.970459e+02 4.281540e+00 1.504766e+01 1.287142e+01 3.670776e+01 2.316940e+01 3.240773e+01 3.291116e+01 3.401451e+01 3.617068e+01 2.783244e+01 2.959395e+01 2.157136e+01 2.762392e+01
<GCONST> 1.617861e+02
<STATE> 3
<MEAN> 26
 1.796688e+01 -9.223408e+00 2.864042e+01 5.255753e+00 3.128419e+00 -8.541058e+00 4.453258e+00 5.468630e+00 -2.286787e+00 9.482586e+00 -8.829788e+00 9.817143e+00 1.215875e+02 4.591268e-01 4.070643e+00 3.441691e+00 4.853980e+00 -2.720876e+00 2.710639e+00 5.595504e+00 -5.391264e+00 -9.900920e-01 -8.741300e-01 -1.838612e+00 2.206678e+00 -4.425379e+00
<VARIANCE> 26
 5.534726e+01 1.369254e+02 2.005742e+02 3.173294e+02 2.657448e+02 4.654284e+02 5.349074e+02 5.321412e+02 4.647966e+02 5.191899e+02 4.073196e+02 4.145944e+02 1.559894e+02 4.754638e+00 1.174781e+01 1.533369e+01 2.997726e+01 2.081153e+01 4.197236e+01 4.516292e+01 5.256544e+01 3.354321e+01 2.738833e+01 3.150682e+01 2.448022e+01 1.338901e+01
<GCONST> 1.623076e+02
<STATE> 4
<MEAN> 26
 1.921803e+01 2.736962e+00 3.482433e+01 1.577604e+01 -4.452812e+00 4.902144e+00 1.692270e+01 -8.886741e+00 -1.086340e+00 4.161123e+00 -7.834928e+00 1.523754e+01 1.086894e+02 -1.844277e-01 2.467166e+00 6.084349e-01 1.841211e+00 -4.659451e-01 2.331154e+00 1.637215e+00 -1.504679e+00 1.294259e-01 -5.563866e-01 -1.464147e-01 2.670608e-02 -2.874890e+00
<VARIANCE> 26
 5.125216e+01 1.605210e+02 1.472821e+02 2.680946e+02 2.626786e+02 4.413278e+02 4.944699e+02 4.450452e+02 5.264673e+02 5.993750e+02 5.672853e+02 5.016761e+02 1.499182e+02 3.519021e+00 7.488697e+00 9.338959e+00 1.258489e+01 1.275819e+01 2.202046e+01 2.196221e+01 2.776423e+01 1.729391e+01 1.510054e+01 1.708192e+01 1.610611e+01 5.490198e+00
<GCONST> 1.545518e+02
<TRANSP> 5
 0.000000e+00 1.000000e+00 0.000000e+00 0.000000e+00 0.000000e+00
 0.000000e+00 7.504834e-01 2.495166e-01 0.000000e+00 0.000000e+00
 0.000000e+00 0.000000e+00 5.904850e-01 4.095151e-01 0.000000e+00
 0.000000e+00 0.000000e+00 0.000000e+00 7.367116e-01 2.632884e-01
 0.000000e+00 0.000000e+00 0.000000e+00 0.000000e+00 0.000000e+00
<ENDHMM>
~h "ao"
<BEGINHMM>
<NUMSTATES> 5
<STATE> 2
<MEAN> 26
 2.881930e+01 1.173156e+01 1.134673e+01 -3.195956e+01 -1.550459e+01 1.679201e+00 7.002734e-01 6.031149e+00 -1.145916e+01 4.412764e+00 -8.110757e+00 3.046073e+00 1.165817e+02 1.131758e+01 6.072885e+00 4.661067e+00 -1.082176e+01 -6.262441e+00 -1.311953e+00 -1.767946e-01 2.740272e+00 -1.753918e+00 1.015460e+00 -1.805123e+00 -1.154935e+00 4.160127e+00
<VARIANCE> 26
 1.778999e+02 1.494599e+02 1.657448e+02 5.121779e+02 3.889234e+02 2.304972e+02 2.589166e+02 2.616577e+02 2.460845e+02 2.042536e+02 1.945348e+02 2.574886e+02 1.806710e+02 3.623046e+01 2.317091e+01 2.306176e+01 3.694397e+01 3.672600e+01 2.655298e+01 3.832540e+01 3.262432e+01 3.183561e+01 2.979392e+01 2.546347e+01 3.524187e+01 1.301190e+01
<GCONST> 1.624070e+02
<STATE> 3
<MEAN> 26
 3.571295e+01 1.644073e+01 1.669605e+01 -4.680063e+01 -2.667666e+01 -2.613848e+00 -2.501879e+00 9.070655e+00 -1.201745e+01 1.070032e+01 -1.000612e+01 3.306889e-01 1.211442e+02 3.063539e-01 -4.901875e-01 -6.154040e-01 5.956805e-02 -5.424159e-01 -5.489840e-01 5.776494e-01 5.272502e-01 -8.807795e-01 2.245236e-01 4.339775e-01 1.083274e-01 3.024004e-01
<VARIANCE> 26
 5.103839e+01 1.666962e+02 2.521207e+02 3.046307e+02 4.808656e+02 3.347387e+02 4.784250e+02 3.353170e+02 3.608083e+02 3.453272e+02 2.946891e+02 3.780710e+02 1.334230e+02 1.761941e+00 8.406199e+00 7.974984e+00 9.393300e+00 8.085972e+00 8.161757e+00 1.312286e+01 1.162800e+01 1.296785e+01 1.146029e+01 1.041436e+01 9.839924e+00 3.507653e+00
<GCONST> 1.474194e+02
<STATE> 4
<MEAN> 26
 3.760807e+01 -2.700722e+00 -9.291822e+00 -2.885092e+01 -4.346678e+00 -8.124081e+00 -6.291821e+00 1.430887e+01 -2.229187e+01 5.510521e+00 3.249926e+00 1.058272e+01 1.266170e+02 -2.367634e-02 -2.989875e+00 -3.582900e+00 3.597846e+00 5.581439e+00 -1.166052e+00 -2.286964e+00 -7.047018e-01 9.251002e-01 6.137239e-01 1.550389e+00 1.226397e+00 3.300334e-01
<VARIANCE> 26
 6.173775e+01 2.594430e+02 3.735678e+02 3.379220e+02 7.640004e+02 4.881145e+02 9.171466e+02 6.523094e+02 5.289206e+02 7.088945e+02 3.944055e+02 3.977023e+02 1.777323e+02 2.025823e+00 8.537214e+00 1.295840e+01 1.442100e+01 1.897984e+01 2.175564e+01 2.317804e+01 2.564876e+01 2.749858e+01 3.282778e+01 2.683307e+01 3.351306e+01 3.988880e+00
<GCONST> 1.608032e+02
<TRANSP> 5
 0.000000e+00 1.000000e+00 0.000000e+00 0.000000e+00 0.000000e+00
 0.000000e+00 5.901144e-01 4.098856e-01 0.000000e+00 0.000000e+00
 0.000000e+00 0.000000e+00 8.733861e-01 1.266139e-01 0.000000e+00
 0.000000e+00 0.000000e+00 0.000000e+00 8.680175e-01 1.319825e-01
 0.000000e+00 0.000000e+00 0.000000e+00 0.000000e+00 0.000000e+00
<ENDHMM>
~h "ay"
<BEGINHMM>
<NUMSTATES> 5
<STATE> 2
<MEAN> 26
 1.826015e+01 -3.164765e+01 1.400396e-01 -2.523381e+01 8.309031e+00 6.099035e+00 -4.734814e+00 1.337263e+01 6.575668e+00 1.257603e+01 1.697308e+00 -1.454775e+00 1.461263e+02 -4.807590e-01 -2.468723e+00 -2.581742e+00 -7.280905e-01 2.378280e+00 2.458283e+00 -8.605615e-01 1.762809e-01 1.404303e+00 -4.815522e-01 3.603281e-01 -1.564006e+00 1.604286e+00
<VARIANCE> 26
 7.844078e+01 1.492350e+02 2.990401e+02 3.818845e+02 4.403819e+02 3.759413e+02 4.432227e+02 4.427146e+02 4.139359e+02 4.287077e+02 4.929636e+02 3.575300e+02 1.159656e+02 3.064586e+00 7.282784e+00 8.901069e+00 1.261895e+01 1.127496e+01 1.213914e+01 1.723315e+01 1.413221e+01 1.497542e+01 1.401299e+01 1.599311e+01 1.425815e+01 5.209777e+00
<GCONST> 1.525894e+02
<STATE> 3
<MEAN> 26
 1.651201e+01 -3.618497e+01 -2.840203e+00 -2.195718e+01 1.400109e+01 1.005415e+01 -7.486461e+00 1.305206e+01 9.486146e+00 1.060844e+01 -8.710496e-01 -4.783384e+00 1.461429e+02 -2.261348e-01 -3.440982e-01 6.110642e-01 9.755688e-01 -2.190260e-01 -9.542985e-01 -1.187333e-01 7.166974e-01 3.305338e-01 -4.932556e-01 -4.694912e-01 9.949253e-02 -1.288826e-01
<VARIANCE> 26
 7.282634e+01 1.608906e+02 2.223250e+02 3.617836e+02 4.713890e+02 3.440158e+02 3.611796e+02 4.306950e+02 3.612295e+02 3.618164e+02 4.104289e+02 3.972870e+02 1.382601e+02 8.039876e-01 1.628852e+00 3.023042e+00 3.458333e+00 4.688453e+00 6.642183e+00 5.716523e+00 4.776137e+00 4.709646e+00 4.951327e+00 5.295364e+00 5.148340e+00 7.127622e-01
<GCONST> 1.365900e+02
<STATE> 4
<MEAN> 26
 1.267490e+01 -3.190989e+01 1.637620e+01 -1.243649e+01 -1.937355e+00 -8.155890e+00 2.335970e+00 2.282647e+01 6.692852e+00 4.159971e+00 -2.534250e+00 4.684573e+00 1.415056e+02 -3.586107e-01 2.336190e+00 3.948488e+00 4.191722e-01 -3.326282e+00 -2.252558e+00 2.062512e+00 -3.759612e-01 -1.900125e+00 3.911857e-01 7.202493e-01 1.402226e+00 -1.512283e+00
<VARIANCE> 26
 7.136263e+01 1.868448e+02 4.145254e+02 2.647971e+02 4.165459e+02 2.703232e+02 5.440524e+02 3.322954e+02 3.850461e+02 3.573840e+02 3.265061e+02 3.196752e+02 1.871230e+02 1.967202e+00 4.743469e+00 6.738956e+00 9.952621e+00 1.246551e+01 1.336616e+01 1.744467e+01 1.558356e+01 1.424223e+01 1.322412e+01 1.205883e+01 1.209549e+01 2.467766e+00
<GCONST> 1.495296e+02
<TRANSP> 5
 0.000000e+00 1.000000e+00 0.000000e+00 0.000000e+00 0.000000e+00
 0.000000e+00 7.019331e-01 2.980669e-01 0.000000e+00 0.000000e+00
 0.000000e+00 0.000000e+00 9.026945e-01 9.730545e-02 0.000000e+00
 0.000000e+00 0.000000e+00 0.000000e+00 8.217939e-01 1.782061e-01
 0.000000e+00 0.000000e+00 0.000000e+00 0.000000e+00 0.000000e+00
<ENDHMM>
~h "eh"
<BEGINHMM>
<NUMSTATES> 5
<STATE> 2
<MEAN> 26
 -4.896152e+01 7.825198e+00 -1.020982e+01 -2.126342e+00 -6.432848e+00 -8.836011e+00 -3.205451e+00 2.086419e+00 -5.287450e+00 1.281162e+00 -5.270416e+00 8.371857e+00 1.129899e+02 1.083244e+01 -7.498881e-01 7.169269e+00 6.126151e-01 -2.422787e-01 -2.880532e+00 -8.419234e-01 -8.240867e-01 2.302215e+00 2.176937e-01 -9.517918e-01 1.634629e+00 2.940447e+00
<VARIANCE> 26
 1.888397e+02 9.927135e+01 1.374900e+02 2.035639e+02 2.751937e+02 2.627906e+02 1.318181e+02 1.392926e+02 1.494538e+02 1.260329e+02 1.785192e+02 1.278631e+02 1.053678e+02 3.319958e+01 1.264324e+01 1.980762e+01 1.308526e+01 1.122150e+01 1.963607e+01 1.527101e+01 1.291880e+01 1.610642e+01 2.106375e+01 1.586663e+01 1.909098e+01 1.286252e+01
<GCONST> 1.497782e+02
<STATE> 3
<MEAN> 26
 -1.372776e+01 7.702961e+00 1.186503e+01 4.612442e+00 -4.319894e+00 -1.487139e+01 -6.377450e+00 -1.065833e+00 1.757966e+00 3.960254e+00 -8.765535e+00 1.064367e+01 1.182561e+02 1.725003e+01 -5.586002e+00 9.359906e+00 -2.056890e+00 -1.406744e-01 -4.601171e+00 -3.618133e+00 -1.016665e+00 3.284396e+00 2.994105e+00 -4.666750e-01 1.323905e+00 8.463337e+00
<VARIANCE> 26
 5.142865e+02 1.108501e+02 1.805826e+02 1.860982e+02 3.022979e+02 2.109275e+02 1.812597e+02 1.745089e+02 1.752452e+02 2.404286e+02 2.395786e+02 2.553236e+02 1.881745e+02 1.572131e+01 1.535301e+01 2.047131e+01 2.998876e+01 2.362469e+01 4.681142e+01 6.056318e+01 2.241503e+01 4.507236e+01 4.075864e+01 2.763193e+01 4.096741e+01 1.104475e+01
<GCONST> 1.605681e+02
<STATE> 4
<MEAN> 26
 1.181667e+01 -1.543291e+01 2.294195e+01 -1.137336e+01 -9.174689e+00 -2.539759e+01 -1.666075e+01 2.196317e-01 7.735196e+00 1.343283e+01 -5.809974e+00 1.273899e+01 1.447341e+02 5.085806e+00 -7.239676e+00 1.263751e+00 -5.759128e+00 -1.707439e+00 -1.971311e+00 -1.748040e-01 3.124968e+00 3.312902e+00 2.891966e+00 1.492610e+00 -4.837036e-01 6.999006e+00
<VARIANCE> 26
 5.604894e+01 1.325269e+02 1.764859e+02 2.275176e+02 3.123961e+02 2.482463e+02 7.161188e+02 2.849971e+02 3.622657e+02 4.708344e+02 4.056428e+02 5.232155e+02 1.251482e+02 3.683012e+01 1.066305e+01 2.162395e+01 1.718608e+01 1.950605e+01 2.372741e+01 6.422598e+01 1.720611e+01 2.399058e+01 2.121127e+01 1.935952e+01 1.966397e+01 1.284643e+01
<GCONST> 1.596884e+02
<TRANSP> 5
 0.000000e+00 1.000000e+00 0.000000e+00 0.000000e+00 0.000000e+00
 0.000000e+00 4.904793e-01 5.095208e-01 0.000000e+00 0.000000e+00
 0.000000e+00 0.000000e+00 3.926292e-01 6.073708e-01 0.000000e+00
 0.000000e+00 0.000000e+00 0.000000e+00 6.026840e-01 3.973160e-01
 0.000000e+00 0.000000e+00 0.000000e+00 0.000000e+00 0.000000e+00
<ENDHMM>
~h "ey"
<BEGINHMM>
<NUMSTATES> 5
<STATE> 2
<MEAN> 26
 -1.047606e+01 -7.889193e+00 1.618766e+01 -6.242761e+00 -1.624392e+01 -1.718530e+01 -4.123437e+00 8.556694e-01 -2.930862e-01 7.278599e+00 -8.998409e-01 6.549573e+00 8.984053e+01 1.524970e+00 -2.478471e+00 4.257914e+00 -2.820671e+00 -2.570953e+00 -9.605635e-01 2.145617e+00 1.538951e+00 4.875793e-01 7.349637e-01 2.726347e-01 6.180927e-01 7.556987e+00
<VARIANCE> 26
 3.041620e+02 2.296852e+02 4.207174e+02 3.108147e+02 3.021479e+02 3.698011e+02 5.006509e+02 3.733573e+02 3.471922e+02 2.837832e+02 2.341128e+02 2.420400e+02 1.360328e+03 2.996082e+01 2.043012e+01 3.644695e+01 3.202037e+01 3.015985e+01 3.573433e+01 4.417532e+01 3.620810e+01 3.269262e+01 2.876297e+01 2.526364e+01 2.410769e+01 1.223093e+02
<GCONST> 1.700449e+02
<STATE> 3
<MEAN> 26
 3.228878e+00 -1.833551e+01 4.626657e+01 -2.347150e+01 -2.447948e+01 -1.869296e+01 3.596997e+00 3.411204e+00 -3.908652e+00 1.422938e+01 1.080368e+00 1.040223e+01 1.408368e+02 3.285625e-01 6.438045e-01 3.305518e+00 -8.121335e-01 -3.391680e-01 7.114270e-01 -7.235837e-01 -1.637285e+00 -1.180531e+00 1.134179e-01 -1.877884e-02 8.051272e-02 2.528730e+00
<VARIANCE> 26
 7.482903e+01 1.602045e+02 3.149615e+02 4.085014e+02 1.998174e+02 2.852817e+02 6.084701e+02 3.254598e+02 5.609971e+02 2.460782e+02 1.805567e+02 1.700746e+02 2.010142e+02 7.428032e+00 8.481457e+00 1.106549e+01 1.002620e+01 8.945485e+00 9.891873e+00 1.369561e+01 1.209534e+01 1.468821e+01 1.108409e+01 9.075038e+00 1.013882e+01 3.650264e+01
<GCONST> 1.512163e+02
<STATE> 4
<MEAN> 26
 -2.156399e+00 2.041147e+00 6.817332e+01 -1.530552e+01 -1.233047e+01 -3.753793e+00 -4.979103e+00 -1.728956e+01 -1.221721e+01 3.455427e+00 -9.611816e+00 6.324197e+00 1.265988e+02 -4.967246e-01 2.422750e+00 -9.469777e-01 3.462575e+00 1.908911e+00 1.565045e+00 3.452310e-01 -2.701384e-01 -3.015935e-01 -1.281120e+00 -8.852059e-01 -9.020643e-01 -5.449649e+00
<VARIANCE> 26
 6.614629e+01 2.682957e+02 2.686197e+02 5.889356e+02 2.870907e+02 3.073873e+02 3.171192e+02 4.875537e+02 7.290446e+02 3.652651e+02 3.108234e+02 3.652608e+02 4.087316e+02 4.564734e+00 8.801135e+00 3.874940e+01 2.159641e+01 1.357495e+01 1.342286e+01 1.849763e+01 2.320005e+01 2.244499e+01 1.608932e+01 1.655633e+01 1.722843e+01 2.942508e+01
<GCONST> 1.596365e+02
<TRANSP> 5
 0.000000e+00 1.000000e+00 0.000000e+00 0.000000e+00 0.000000e+00
 0.000000e+00 7.514917e-01 2.485083e-01 0.000000e+00 0.000000e+00
 0.000000e+00 0.000000e+00 8.653261e-01 1.346739e-01 0.000000e+00
 0.000000e+00 0.000000e+00 0.000000e+00 9.008888e-01 9.911118e-02
 0.000000e+00 0.000000e+00 0.000000e+00 0.000000e+00 0.000000e+00
<ENDHMM>
~h "hh"
<BEGINHMM>
<NUMSTATES> 5
<STATE> 2
<MEAN> 26
 5.788770e-02 6.943394e+00 5.604177e+00 -5.070933e-01 1.859689e+00 7.853725e+00 4.471673e+00 1.133258e+00 -5.226103e+00 4.629262e+00 -2.232742e+00 2.644605e+00 7.776624e+01 3.258672e+00 3.489620e+00 1.670914e+00 -7.200371e-03 -1.305879e+00 8.498291e-01 1.642927e+00 9.179868e-01 3.565737e-01 5.093120e-01 -7.302877e-02 -3.874886e-01 1.898170e-01
<VARIANCE> 26
 5.139006e+02 2.734233e+02 2.142403e+02 2.742278e+02 2.720772e+02 2.509157e+02 2.846353e+02 2.737680e+02 3.231825e+02 2.288114e+02 1.957250e+02 1.893455e+02 6.159092e+02 3.609784e+01 2.345622e+01 2.215302e+01 2.472920e+01 2.341144e+01 2.807978e+01 2.765290e+01 2.555376e+01 2.439813e+01 2.148719e+01 1.922613e+01 1.586772e+01 2.864362e+01
<GCONST> 1.626017e+02
<STATE> 3
<MEAN> 26
 2.472593e+01 2.336409e+01 1.760974e+01 -2.117755e+00 -5.940979e+00 6.062588e+00 7.791136e+00 2.156877e+00 -4.991900e+00 8.272451e+00 -4.133066e+00 1.730092e+00 9.261645e+01 5.370484e+00 1.831869e+00 2.023396e+00 -3.337667e+00 -4.012809e+00 -2.200258e+00 -9.591585e-01 8.148153e-02 4.071057e-02 1.602979e+00 -1.457650e-01 -4.663727e-01 4.432762e+00
<VARIANCE> 26
 1.761960e+02 2.275107e+02 1.377186e+02 2.940705e+02 2.747047e+02 2.586175e+02 2.375866e+02 2.399473e+02 3.496047e+02 2.330452e+02 1.993432e+02 2.152338e+02 3.177819e+02 3.524969e+01 1.797802e+01 1.627200e+01 3.012797e+01 2.101874e+01 1.962412e+01 2.336068e+01 2.419686e+01 2.691455e+01 2.023509e+01 1.835529e+01 1.817074e+01 3.919319e+01
<GCONST> 1.596351e+02
<STATE> 4
<MEAN> 26
 3.288567e+01 2.108697e+01 2.222653e+01 -1.488439e+01 -1.750799e+01 -3.679525e-01 -2.167566e-01 2.506028e+00 -7.223522e+00 1.241871e+01 -3.089585e+00 2.575204e-02 1.057702e+02 1.055467e+00 -1.239840e+00 1.442721e-01 -4.345119e+00 -2.142452e+00 -1.676690e+00 -1.451123e+00 1.311513e+00 3.309029e-01 1.018814e+00 9.567728e-01 1.602451e-01 3.239552e+00
<VARIANCE> 26
 5.346273e+01 2.015255e+02 1.895863e+02 2.593142e+02 3.065806e+02 2.840395e+02 3.659214e+02 3.014254e+02 4.037607e+02 3.085139e+02 2.677443e+02 2.965704e+02 1.410425e+02 6.304234e+00 1.303578e+01 1.153405e+01 2.842974e+01 1.637971e+01 1.553866e+01 2.116577e+01 2.057149e+01 1.863396e+01 1.700768e+01 1.554615e+01 1.463565e+01 1.477368e+01
<GCONST> 1.545182e+02
<TRANSP> 5
 0.000000e+00 1.000000e+00 0.000000e+00 0.000000e+00 0.000000e+00
 0.000000e+00 6.386513e-01 3.613487e-01 0.000000e+00 0.000000e+00
 0.000000e+00 0.000000e+00 5.396754e-01 4.603246e-01 0.000000e+00
 0.000000e+00 0.000000e+00 0.000000e+00 7.152643e-01 2.847357e-01
 0.000000e+00 0.000000e+00 0.000000e+00 0.000000e+00 0.000000e+00
<ENDHMM>
~h "ih"
<BEGINHMM>
<NUMSTATES> 5
<STATE> 2
<MEAN> 26
 -4.037883e+01 8.730235e+00 -3.235063e+00 1.035066e+00 -1.146781e+01 -7.814627e+00 -1.408832e+00 8.112469e-01 -5.520351e+00 6.834360e-01 -2.119680e+00 9.132892e+00 1.149902e+02 1.044458e+01 -3.060190e-01 9.058558e+00 1.305476e+00 -3.484179e-02 -2.942266e+00 -5.935070e-01 -1.500127e+00 9.423378e-01 -9.001521e-02 -7.975767e-01 1.293463e+00 3.429691e+00
<VARIANCE> 26
 4.589589e+02 1.046646e+02 3.212466e+02 2.082469e+02 2.760176e+02 2.775575e+02 1.449870e+02 1.457954e+02 1.610206e+02 1.329085e+02 2.045778e+02 1.533149e+02 1.242221e+02 3.609215e+01 1.380624e+01 2.817171e+01 1.581284e+01 1.183439e+01 2.054422e+01 1.762397e+01 1.322367e+01 1.363183e+01 1.617695e+01 1.459242e+01 2.003584e+01 1.288032e+01
<GCONST> 1.529124e+02
<STATE> 3
<MEAN> 26
 -3.139418e-01 -3.415263e+00 3.161206e+01 -1.768693e+00 -1.171586e+01 -2.365257e+01 -5.685458e+00 -6.602372e+00 -2.527369e+00 5.282202e+00 -5.393605e+00 1.482320e+01 1.338338e+02 6.836072e+00 -4.304248e+00 6.686803e+00 -1.643763e+00 -1.206758e+00 -3.395128e+00 -8.842258e-01 -1.356511e+00 -5.908279e-01 1.615660e+00 -2.003381e-01 3.166820e-01 4.331357e+00
<VARIANCE> 26
 2.791732e+02 2.058013e+02 2.627773e+02 2.637195e+02 3.759205e+02 2.388035e+02 4.467854e+02 2.137869e+02 2.201083e+02 2.141191e+02 3.277713e+02 4.124991e+02 2.043654e+02 6.375293e+01 1.727919e+01 4.011963e+01 2.652653e+01 1.615807e+01 3.209577e+01 5.004317e+01 2.266458e+01 2.760519e+01 1.866649e+01 1.915559e+01 2.705378e+01 1.935688e+01
<GCONST> 1.633745e+02
<STATE> 4
<MEAN> 26
 5.230703e+00 -1.529226e+01 4.380478e+01 7.908502e-01 -1.656457e+01 -3.115351e+01 -4.814525e+00 -4.391169e+00 -1.500184e+01 8.856350e+00 -3.377803e+00 8.146298e+00 1.343205e+02 -5.653878e-01 1.737366e+00 -5.114975e-02 4.161740e+00 5.902500e-01 5.671577e-01 1.954961e+00 9.958091e-01 -2.768800e+00 -1.007445e+00 9.686831e-01 -1.304897e+00 -6.644222e+00
<VARIANCE> 26
 8.507784e+01 2.070447e+02 2.451297e+02 4.265207e+02 3.254625e+02 3.724670e+02 1.038992e+03 8.084316e+02 6.300322e+02 3.366069e+02 2.784009e+02 3.178553e+02 3.878243e+02 1.146461e+01 2.549549e+01 2.151951e+01 2.792511e+01 2.147920e+01 2.782449e+01 4.205613e+01 3.672230e+01 3.176061e+01 2.353437e+01 2.085812e+01 2.096275e+01 6.185480e+01
<GCONST> 1.667147e+02
<TRANSP> 5
 0.000000e+00 1.000000e+00 0.000000e+00 0.000000e+00 0.000000e+00
 0.000000e+00 5.515218e-01 4.484782e-01 0.000000e+00 0.000000e+00
 0.000000e+00 0.000000e+00 7.770744e-01 2.229256e-01 0.000000e+00
 0.000000e+00 0.000000e+00 0.000000e+00 8.280233e-01 1.719767e-01
 0.000000e+00 0.000000e+00 0.000000e+00 0.000000e+00 0.000000e+00
<ENDHMM>
~h "iy"
<BEGINHMM>
<NUMSTATES> 5
<STATE> 2
<MEAN> 26
 2.487594e+00 -7.364464e+00 6.487009e+01 -3.516055e+00 -8.676451e+00 -1.679326e+01 -2.375682e-01 -1.038732e+01 -1.890173e+01 5.471599e+00 -7.914700e+00 9.019938e+00 1.342544e+02 -4.329716e-02 -1.682030e-01 3.589264e+00 -3.095539e+00 -3.563985e-01 1.809586e+00 3.440998e-02 -1.373721e+00 1.619297e-01 7.795430e-01 -7.824838e-01 1.335399e-01 -1.761466e-01
<VARIANCE> 26
 8.297477e+01 2.166284e+02 2.208118e+02 3.616410e+02 2.052802e+02 3.123666e+02 5.542994e+02 6.250649e+02 4.321629e+02 3.741743e+02 2.341521e+02 3.602941e+02 1.196589e+02 1.558694e+01 3.161521e+01 1.821315e+01 2.335590e+01 1.720000e+01 3.355981e+01 2.408240e+01 2.550033e+01 2.249231e+01 1.948690e+01 1.516855e+01 1.171599e+01 5.475770e+00
<GCONST> 1.588096e+02
<STATE> 3
<MEAN> 26
 1.946402e+00 -2.645068e+00 6.700449e+01 -3.480717e+00 -7.477256e+00 -9.924696e+00 -1.002628e+00 -8.601268e+00 -1.723311e+01 4.712700e+00 -8.096258e+00 7.458162e+00 1.266143e+02 7.062546e-01 4.703185e-01 -3.441438e+00 2.052267e+00 7.647643e-01 -3.009715e-01 2.825773e-02 1.280848e+00 1.005446e+00 -3.654012e-01 7.466519e-01 -1.880804e-01 -2.325952e+00
<VARIANCE> 26
 1.138057e+02 3.641035e+02 2.386680e+02 4.885854e+02 2.448386e+02 4.785010e+02 5.540884e+02 7.020010e+02 5.578406e+02 4.298777e+02 2.667712e+02 3.435228e+02 2.400234e+02 1.254406e+01 1.649313e+01 2.491163e+01 1.950212e+01 1.681692e+01 3.247428e+01 2.314659e+01 2.430872e+01 2.139960e+01 1.725068e+01 1.419040e+01 1.349421e+01 6.906968e+00
<GCONST> 1.611720e+02
<STATE> 4
<MEAN> 26
 3.793277e+00 -2.848723e+00 3.995154e+01 2.495717e+00 -2.000115e+00 -6.655119e+00 4.650885e-01 -8.875302e-01 -7.090941e+00 3.508656e+00 -4.890087e+00 6.278027e+00 1.089762e+02 5.309324e-01 -1.225612e+00 -7.626552e+00 1.256514e+00 2.354447e+00 -6.332738e-01 -1.329322e+00 1.620080e+00 1.772885e+00 -1.268487e-01 8.368815e-01 -5.865273e-01 -2.688602e+00
<VARIANCE> 26
 3.387284e+02 5.224988e+02 3.798490e+02 4.616358e+02 3.438606e+02 1.308654e+03 7.675122e+02 4.227970e+02 4.241031e+02 4.222755e+02 2.806360e+02 2.612112e+02 7.063751e+02 1.910091e+01 1.503318e+01 2.145173e+01 2.262269e+01 2.485719e+01 3.606065e+01 2.867405e+01 3.029491e+01 2.738375e+01 2.137530e+01 1.801879e+01 1.851010e+01 7.996387e+00
<GCONST> 1.671794e+02
<TRANSP> 5
 0.000000e+00 1.000000e+00 0.000000e+00 0.000000e+00 0.000000e+00
 0.000000e+00 7.395931e-01 2.604069e-01 0.000000e+00 0.000000e+00
 0.000000e+00 0.000000e+00 7.320936e-01 2.679063e-01 0.000000e+00
 0.000000e+00 0.000000e+00 0.000000e+00 6.840981e-01 3.159019e-01
 0.000000e+00 0.000000e+00 0.000000e+00 0.000000e+00 0.000000e+00
<ENDHMM>
~h "ow"
<BEGINHMM>
<NUMSTATES> 5
<STATE> 2
<MEAN> 26
 7.268542e+00 -1.545919e+01 -1.719868e+00 -1.731326e+01 -5.265675e-01 -1.068714e+01 -7.035973e+00 -5.196480e-01 5.061032e-01 1.745705e+01 1.416101e+00 4.340946e-01 1.093411e+02 2.528655e+00 -1.284297e+00 -4.984099e-03 -3.546344e+00 5.311919e-01 2.125796e+00 1.443403e+00 -3.536045e-01 6.702699e-01 2.249502e+00 -2.639680e-02 -8.163004e-01 5.756292e+00
<VARIANCE> 26
 4.613774e+02 2.876253e+02 2.382692e+02 3.128912e+02 3.308347e+02 4.922393e+02 5.356632e+02 4.509631e+02 6.504260e+02 5.670895e+02 5.753020e+02 3.165766e+02 1.255994e+03 3.722493e+01 1.933778e+01 1.635834e+01 2.728229e+01 2.781707e+01 2.721266e+01 3.135121e+01 3.105895e+01 3.747580e+01 3.375863e+01 3.472221e+01 2.638343e+01 1.051710e+02
<GCONST> 1.720708e+02
<STATE> 3
<MEAN> 26
 2.169637e+01 -2.123909e+01 2.242595e+00 -2.966759e+01 5.034914e+00 -6.892921e+00 -3.976530e+00 -2.787360e+00 2.799860e+00 2.714908e+01 7.733405e-01 2.842349e+00 1.390824e+02 5.918427e-01 1.667414e+00 5.705647e-01 -1.221247e+00 -1.952248e-01 2.047544e+00 -1.822337e-01 -1.499181e+00 -9.959208e-01 -2.040543e-01 2.596387e-01 1.283737e+00 -1.375494e-01
<VARIANCE> 26
 9.185661e+01 1.561213e+02 2.098380e+02 2.654398e+02 3.134549e+02 4.548732e+02 4.843481e+02 3.884548e+02 9.588085e+02 4.596945e+02 5.835856e+02 2.696315e+02 2.040809e+02 4.499588e+00 6.837219e+00 5.482240e+00 9.521935e+00 8.353518e+00 1.110048e+01 1.285956e+01 1.233559e+01 1.569766e+01 1.550981e+01 1.419989e+01 1.198355e+01 1.282453e+01
<GCONST> 1.527379e+02
<STATE> 4
<MEAN> 26
 2.484353e+01 2.375125e+00 6.739629e+00 -3.076102e+01 -4.437262e+00 1.083394e+01 -1.788358e-01 -2.232866e+00 -1.033670e+01 9.274879e+00 -1.503742e+00 8.412167e+00 1.191932e+02 -1.254646e+00 1.194389e+00 3.021245e-01 2.131252e+00 3.044518e-01 2.434650e-01 4.210871e-01 4.068584e-01 3.759381e-01 -1.066150e+00 -8.017477e-01 -2.866937e-01 -2.627403e+00
<VARIANCE> 26
 1.266283e+02 2.845959e+02 2.671750e+02 5.871551e+02 6.121768e+02 4.164021e+02 4.648279e+02 4.371219e+02 7.299827e+02 4.222079e+02 3.909198e+02 3.549841e+02 5.152989e+02 1.015850e+01 1.311622e+01 9.941571e+00 2.159536e+01 1.516806e+01 1.679290e+01 1.722566e+01 1.978623e+01 2.336855e+01 1.978370e+01 1.936229e+01 1.659602e+01 6.975343e+00
<GCONST> 1.611188e+02
<TRANSP> 5
 0.000000e+00 1.000000e+00 0.000000e+00 0.000000e+00 0.000000e+00
 0.000000e+00 7.060843e-01 2.939157e-01 0.000000e+00 0.000000e+00
 0.000000e+00 0.000000e+00 8.050564e-01 1.949436e-01 0.000000e+00
 0.000000e+00 0.000000e+00 0.000000e+00 9.131147e-01 8.688530e-02
 0.000000e+00 0.000000e+00 0.000000e+00 0.000000e+00 0.000000e+00
<ENDHMM>
~h "sp"
<BEGINHMM>
<NUMSTATES> 3
<STATE> 2
~s "silst"
<TRANSP> 3
 0.000000e+00 7.000000e-01 3.000000e-01
 0.000000e+00 5.000000e-01 5.000000e-01
 0.000000e+00 0.000000e+00 0.000000e+00
<ENDHMM>
~h "th"
<BEGINHMM>
<NUMSTATES> 5
<STATE> 2
<MEAN> 26
 -2.637485e+01 1.262777e+00 1.297852e+00 6.756246e+00 -4.879578e+00 1.170262e+00 -3.559264e+00 7.366540e-01 -4.284243e+00 1.842059e+00 -2.326699e+00 4.487489e+00 8.183577e+01 -1.801421e+00 -1.175010e+00 -1.110398e+00 -1.686373e+00 -1.481690e+00 -5.326906e-01 -7.140288e-01 -1.917960e-01 1.716648e-02 -3.558724e-01 -2.744849e-02 3.547392e-01 2.619184e+00
<VARIANCE> 26
 1.603123e+02 1.498707e+02 1.348131e+02 1.504170e+02 1.540739e+02 1.517254e+02 1.596442e+02 1.559493e+02 1.567799e+02 1.369850e+02 1.350756e+02 1.214540e+02 6.062023e+02 2.471665e+01 1.573429e+01 2.231059e+01 1.894572e+01 1.742029e+01 1.962476e+01 2.110286e+01 1.982793e+01 2.130978e+01 1.780079e+01 1.697836e+01 1.702530e+01 8.939832e+01
<GCONST> 1.540373e+02
<STATE> 3
<MEAN> 26
 -2.260852e+01 -6.153712e+00 1.248109e+01 1.311393e-01 -1.050299e+01 -4.286592e+00 -2.153986e+00 -2.987699e-01 -2.173079e+00 4.066035e+00 -3.458113e+00 6.472000e+00 1.133271e+02 6.468239e+00 -1.915787e+00 5.528017e+00 3.342454e+00 2.180591e+00 -1.989314e+00 1.766640e-01 3.981424e-01 1.130667e-01 1.484085e+00 6.393184e-01 -5.672979e-01 3.185973e+00
<VARIANCE> 26
 2.216089e+02 1.614083e+02 2.528131e+02 2.038234e+02 1.844942e+02 1.882261e+02 2.087446e+02 1.964189e+02 1.871540e+02 1.830897e+02 1.839444e+02 2.081360e+02 1.730598e+02 3.109990e+01 2.031558e+01 3.073902e+01 3.023454e+01 2.488791e+01 2.810926e+01 2.816995e+01 2.460601e+01 2.277496e+01 2.100960e+01 2.199622e+01 2.405493e+01 4.408910e+01
<GCONST> 1.589474e+02
<STATE> 4
<MEAN> 26
 1.474981e+01 -1.235720e+01 1.643318e+01 1.693058e+01 1.093640e+01 -1.051331e+01 -1.476894e+01 -2.977712e+00 -6.063024e+00 4.426944e+00 -1.422863e+00 3.893612e+00 1.156820e+02 1.103645e+01 -1.788808e+00 -3.185674e+00 1.393695e+00 7.531408e+00 -1.677292e+00 -6.290792e+00 -9.331024e-01 -1.507419e+00 -1.218238e+00 -1.225746e-01 -5.277057e-03 1.601869e+00
<VARIANCE> 26
 4.333744e+02 1.502070e+02 3.007372e+02 1.881372e+02 3.201980e+02 4.173906e+02 3.923424e+02 2.753436e+02 2.005737e+02 1.853619e+02 1.685413e+02 1.650818e+02 1.604703e+02 2.836483e+01 2.315492e+01 3.922763e+01 3.345435e+01 3.444706e+01 6.573258e+01 4.596840e+01 3.478525e+01 2.749142e+01 3.027476e+01 2.547624e+01 2.112143e+01 1.261105e+01
<GCONST> 1.633561e+02
<TRANSP> 5
 0.000000e+00 1.000000e+00 0.000000e+00 0.000000e+00 0.000000e+00
 0.000000e+00 8.493434e-01 1.506566e-01 0.000000e+00 0.000000e+00
 0.000000e+00 0.000000e+00 6.894752e-01 3.105248e-01 0.000000e+00
 0.000000e+00 0.000000e+00 0.000000e+00 7.120225e-01 2.879775e-01
 0.000000e+00 0.000000e+00 0.000000e+00 0.000000e+00 0.000000e+00
<ENDHMM>
~h "uw"
<BEGINHMM>
<NUMSTATES> 5
<STATE> 2
<MEAN> 26
 1.062776e+00 -8.225959e+00 5.089349e+01 4.803680e+00 -6.190201e+00 -2.242689e+01 1.701591e+00 -1.810109e+00 -1.468810e+01 4.902111e+00 -8.962873e+00 1.249452e+01 1.316857e+02 5.051556e+00 -1.997431e+00 3.273791e+00 1.493499e+00 1.000633e+00 -5.581947e-01 -3.300128e+00 5.091614e-01 -2.257559e+00 5.720097e-02 -8.598087e-01 -1.055181e+00 2.356644e+00
<VARIANCE> 26
 1.803551e+02 1.345987e+02 2.470395e+02 3.051047e+02 1.446098e+02 2.714240e+02 6.568866e+02 5.592318e+02 2.881367e+02 2.552656e+02 2.144917e+02 3.677320e+02 1.810180e+02 3.312871e+01 8.754891e+00 2.060230e+01 1.674141e+01 1.333020e+01 2.374083e+01 2.879673e+01 1.610180e+01 2.063535e+01 2.115866e+01 1.791171e+01 2.229026e+01 1.345743e+01
<GCONST> 1.582619e+02
<STATE> 3
<MEAN> 26
 1.279878e+01 -1.238244e+01 5.001865e+01 1.234041e+01 2.724717e+00 -1.722135e+01 -1.813731e+01 3.924213e+00 -2.122631e+01 2.467141e+00 -1.025764e+01 2.384880e-01 1.314289e+02 9.026057e-01 1.004458e+00 -1.760809e+00 2.587280e-01 1.963594e+00 1.368021e+00 -6.806961e-01 -9.204248e-01 5.387210e-01 6.135411e-01 -8.228225e-02 -8.212646e-01 -1.650838e+00
<VARIANCE> 26
 6.852691e+01 1.685063e+02 2.188817e+02 3.239322e+02 2.644351e+02 5.463527e+02 9.168283e+02 5.541395e+02 4.486367e+02 4.385960e+02 3.597955e+02 7.000057e+02 1.725711e+02 3.025524e+00 4.168222e+00 7.281258e+00 7.736172e+00 8.403153e+00 1.124723e+01 1.300885e+01 1.245058e+01 1.215620e+01 1.237209e+01 1.111947e+01 9.764276e+00 2.915403e+00
<GCONST> 1.500771e+02
<STATE> 4
<MEAN> 26
 1.563145e+01 5.994644e+00 2.012813e+01 7.068875e+00 1.208727e+01 6.350644e+00 -3.283030e+00 -7.665611e+00 -1.435181e+01 6.637093e+00 -5.969543e+00 2.028190e+00 1.022064e+02 -2.240415e+00 8.118711e-01 -3.066290e+00 -1.618914e-01 -9.216737e-01 1.640696e+00 2.248093e+00 4.268216e-01 1.240213e+00 -5.201124e-01 7.208728e-01 5.070074e-01 -3.270569e+00
<VARIANCE> 26
 1.760041e+02 2.072641e+02 3.330885e+02 3.731135e+02 3.098196e+02 5.857283e+02 5.783963e+02 5.401998e+02 7.207657e+02 4.729951e+02 4.110243e+02 4.465583e+02 4.145775e+02 1.620343e+01 2.044658e+01 1.479522e+01 2.139854e+01 2.026833e+01 3.595343e+01 3.306841e+01 3.322800e+01 3.501091e+01 2.594734e+01 2.629307e+01 2.513612e+01 7.785299e+00
<GCONST> 1.661790e+02
<TRANSP> 5
 0.000000e+00 1.000000e+00 0.000000e+00 0.000000e+00 0.000000e+00
 0.000000e+00 7.876205e-01 2.123795e-01 0.000000e+00 0.000000e+00
 0.000000e+00 0.000000e+00 8.729806e-01 1.270194e-01 0.000000e+00
 0.000000e+00 0.000000e+00 0.000000e+00 8.514104e-01 1.485896e-01
 0.000000e+00 0.000000e+00 0.000000e+00 0.000000e+00 0.000000e+00
<ENDHMM>
~h "sil"
<BEGINHMM>
<NUMSTATES> 5
<STATE> 2
<MEAN> 26
 -1.128100e+01 -1.961827e+00 1.058396e+00 7.139022e+00 1.113655e+00 9.368136e-01 4.837316e+00 6.690899e+00 -5.189103e-01 4.271290e-01 -4.425266e+00 7.090056e-01 6.503326e+01 -5.636607e-01 9.281999e-01 -1.835046e-01 4.984052e-03 -1.430757e-02 2.935527e-02 -3.660671e-01 -2.570984e-01 4.219542e-02 1.722431e-02 2.847035e-01 -4.266908e-02 -1.333717e+00
<VARIANCE> 26
 7.906974e+01 1.637405e+02 1.528793e+02 1.380929e+02 1.578663e+02 1.923995e+02 2.042449e+02 2.218375e+02 2.055091e+02 2.061763e+02 1.663069e+02 1.472493e+02 9.899931e+01 3.056598e+00 5.447920e+00 6.638108e+00 7.803239e+00 9.316605e+00 1.137719e+01 1.282078e+01 1.375711e+01 1.343703e+01 1.324654e+01 1.250215e+01 1.137146e+01 2.537035e+00
<GCONST> 1.412746e+02
<STATE> 3
~s "silst"
<STATE> 4
<MEAN> 26
 -2.327275e+01 -1.173371e+00 7.423984e-01 2.427975e+00 -2.705816e+00 -2.939966e+00 -3.209276e+00 1.871046e-01 -3.254636e+00 1.617353e+00 -1.006232e+00 2.203061e+00 6.075014e+01 1.909984e-01 -2.549359e-01 2.233390e-01 2.079845e-02 4.433280e-03 1.551071e-01 2.408605e-01 1.523616e-01 -5.064120e-03 1.974128e-01 -1.999823e-01 6.275216e-02 1.349716e+00
<VARIANCE> 26
 1.181604e+02 1.531478e+02 1.187128e+02 1.228653e+02 1.430795e+02 1.602511e+02 1.747678e+02 1.748156e+02 1.642242e+02 1.490841e+02 1.370015e+02 1.168839e+02 2.656340e+02 1.075965e+01 1.356610e+01 1.169026e+01 1.255842e+01 1.422524e+01 1.563314e+01 1.644834e+01 1.614588e+01 1.553581e+01 1.466255e+01 1.389381e+01 1.188889e+01 2.196007e+01
<GCONST> 1.474960e+02
<TRANSP> 5
 0.000000e+00 1.000000e+00 0.000000e+00 0.000000e+00 0.000000e+00
 0.000000e+00 6.984735e-01 1.015266e-01 2.000000e-01 0.000000e+00
 0.000000e+00 0.000000e+00 9.156070e-01 8.439307e-02 0.000000e+00
 0.000000e+00 2.000000e-01 0.000000e+00 6.564070e-01 1.435930e-01
 0.000000e+00 0.000000e+00 0.000000e+00 0.000000e+00 0.000000e+00
<ENDHMM>
